-0.25160168480757705
0.0
-0.442607746702991
-0.21783268879026016
0.0
-0.6128259288994217
-0.16262093891468457
0.0
-0.34715935658882424
-0.1844675187369043
0.0
-0.4731458563896797
-0.24483117570706286
0.0
-0.5238071946285063
-0.09695095029282881
0.0
-0.4547332706924887
-0.2267773558936152
0.0
-0.5569144095367152
-0.22014634680304726
0.0
-0.48918796316619817
-0.4656907502291778
0.0
-0.4320546307814881
-0.1686116192578475
0.0
-0.3859619372392141
-0.21206881290140359
0.0
-0.4499024830668114
-0.305898532580387
0.0
-0.4708954827738235
-0.14672689493555047
0.0
-0.5433293561067698
-0.38864924675798296
0.0
-0.39504251867234647
-0.25237954025368564
0.0
-0.7457804832328665
-0.4273871679667464
0.0
-0.4703582130439191
-0.2053461195324212
0.0
-0.6148751170363013
-0.22893316829046692
0.0
-0.5478608470637479
-0.3261639233721212
0.0
-0.474621758393817
-0.22343047312942643
0.0
-0.4707789583811418
-0.25673398524862084
0.0
-0.5440516965173178
-0.30682495643621005
0.0
-0.7559781092625
-0.2793874617754786
0.0
-0.6427167379229974
-0.20413585159230271
0.0
-0.6422120497024912
-0.2888117218775122
0.0
-0.5046492319053094
-0.3399487322812417
0.0
-0.6582112912053164
-0.19367599365045288
0.0
-0.5997849601323697
-0.26973044974311794
0.0
-0.8567484138017054
-0.3691500534937041
0.0
-0.726308170092267
-0.4366057052036385
0.0
-0.5125979221737086
-0.2569729515162982
0.0
-0.7734463652079778
-0.2720486215964376
0.0
-0.7907544441022735
-0.5686283178108208
0.0
-0.4617909989134563
-0.36247860402282694
0.0
-0.7329796195631447
-0.5378064850190422
0.0
-0.5886723785257826
-0.4279384371775095
0.0
-0.7351615201173161
-0.19360295926024915
0.0
-0.9694969980345746
-0.34966551688441844
0.0
-0.813434440410406
-0.5114475028270502
0.0
-0.6516524544677726
-0.2679158552988656
0.0
-0.8951841019959589
-0.2792886582582341
0.0
-0.8838112990365926
-0.2883788192357263
0.0
-0.8747211380590985
0.0
-0.5133263696834515
-0.48526274430705646
-0.44255344576995886
-0.3231712793247023
-0.013197917585154192
-0.2064295667306772
0.0
-0.39014742038857714
-0.1792035176185866
0.0
-0.5538226556797794
-0.1332311474008487
0.0
-0.2913467464618872
-0.1613415890798599
0.0
-0.39863934165541015
-0.2298359182370454
0.0
-0.44117000770721
-0.08166505928105534
0.0
-0.37398443034941914
-0.18506737262368664
0.0
-0.5009919484153286
-0.18631488328675555
0.0
-0.4253869822911762
-0.41514782809667644
0.0
-0.3849651085226741
-0.13926356729037148
0.0
-0.31871850602384094
-0.18225901275011547
0.0
-0.38207983882678676
-0.26218851040791763
0.0
-0.41697306055498046
-0.12142931270781115
0.0
-0.4709944939431933
-0.35575884667321156
0.0
-0.3303004743658044
-0.22238792223931825
0.0
-0.6781396568559206
-0.40277734125181847
0.0
-0.3973355953675323
-0.1685341941961929
0.0
-0.5540545979812215
-0.19807318267844204
0.0
-0.4810883882844543
-0.2909369112035829
0.0
-0.4122163261710408
-0.1895716863896
0.0
-0.407005300729654
-0.2123935756059658
0.0
-0.49075966176865854
-0.28162735768077773
0.0
-0.6835432636266223
-0.240228257723301
0.0
-0.5842434975838688
-0.17069897948460802
0.0
-0.5780164774188723
-0.2623026596235516
0.0
-0.4335258497679555
-0.30144647145265646
0.0
-0.5990811076425895
-0.16665297662400763
0.0
-0.529175532767505
-0.23131550606272505
0.0
-0.7975309130907892
-0.3278178508977071
0.0
-0.670007928296952
-0.4026623579399293
0.0
-0.44890882504610347
-0.22048360958662636
0.0
-0.7123032627463358
-0.2331122484821167
0.0
-0.7320583728252833
-0.5233301517305443
0.0
-0.4094567206024177
-0.3198139995427331
0.0
-0.6780117796519233
-0.5051358343512926
0.0
-0.5237105848022163
-0.39201147427612804
0.0
-0.6734560386273811
-0.15324777209926885
0.0
-0.9122197408042455
-0.30769650451634345
0.0
-0.7577710083871657
-0.4729234348068625
0.0
-0.5925440780966496
-0.23024155313936515
0.0
-0.8352259597641438
-0.24766496149666703
0.0
-0.817802551406845
-0.2508564182476802
0.0
-0.8146110946558329
0.0
-0.47154414723857957
-0.4437542397483538
-0.40000998593965137
-0.2736265187386239
-0.009146533964186387
-0.25527956126894197
0.0
-0.4782577719009138
-0.21782513702945525
0.0
-0.6521613823195083
-0.15454510004239333
0.0
-0.3473015666916684
-0.2057413876674559
0.0
-0.4870948719668112
-0.27104728281315765
0.0
-0.5369189891816998
-0.09598479951572632
0.0
-0.44903271066655376
-0.23151537906715305
0.0
-0.5915042880224638
-0.23387412391503135
0.0
-0.5147880877135017
-0.47383274145664983
0.0
-0.46324054121330327
-0.167805197518992
0.0
-0.38107040505716194
-0.23324351719733558
0.0
-0.46491646596044445
-0.31729092222330174
0.0
-0.49883099479019655
-0.14234176079021035
0.0
-0.5870423919114017
-0.41942259197185716
0.0
-0.4035970751177601
-0.2619626055524884
0.0
-0.7755253195933535
-0.452820084383081
0.0
-0.48425319828687186
-0.20536798436510095
0.0
-0.6541811538629106
-0.24985398571644746
0.0
-0.5662679312970569
-0.3540291840651071
0.0
-0.4860843993601184
-0.22372457196657589
0.0
-0.5098127612032818
-0.26537504698629255
0.0
-0.5747385364389329
-0.3086981569223745
0.0
-0.7934328104356285
-0.3054900717667429
0.0
-0.6559420295910253
-0.2084762193270404
0.0
-0.6771995836270464
-0.32132413430344225
0.0
-0.5114647211386678
-0.36345101280602243
0.0
-0.6740369123398239
-0.19423081708158785
0.0
-0.6385580383605227
-0.2966635692989154
0.0
-0.8691431959052044
-0.4067263102878406
0.0
-0.7280598149574241
-0.4413369810104994
0.0
-0.5471945480261385
-0.2782957558546061
0.0
-0.7914514625289568
-0.28772305847206936
0.0
-0.8144079088859302
-0.5796564890367597
0.0
-0.49009072934680303
-0.38330719904135446
0.0
-0.7514789262039101
-0.5359117175800615
0.0
-0.6298950476240526
-0.427972895005182
0.0
-0.7744549639489311
-0.1952683172610509
0.0
-1.0071595416930652
-0.3691544780579584
0.0
-0.8332733808961524
-0.5507567508571766
0.0
-0.6516711080969386
-0.2948765309488022
0.0
-0.9075513280053099
-0.27855481732679577
0.0
-0.9238730416273195
-0.3076924005851106
0.0
-0.894735458369003
0.0
-0.5310025930902452
-0.5016966778067055
-0.46082179759929215
-0.35077164232333413
-0.015291126671071633
-0.2478401232338142
0.0
-0.43606507611765194
-0.22417933005574373
0.0
-0.5961750554748333
-0.16419389197954812
0.0
-0.34771221411539843
-0.17564040934616607
0.0
-0.4716687336213158
-0.24531750336307612
0.0
-0.5130166348133903
-0.09929471858080144
0.0
-0.44368298328188455
-0.20601772780688335
0.0
-0.5673698054643443
-0.21410853064437024
0.0
-0.4849215471657703
-0.4522095623657737
0.0
-0.4352315864857903
-0.16420313635842623
0.0
-0.3811071491879946
-0.1964584472070508
0.0
-0.45520861660206285
-0.3021393034722221
0.0
-0.4643504797228871
-0.15077783988940555
0.0
-0.5289741789938076
-0.39131305153419327
0.0
-0.38207448173703484
-0.2455580423873952
0.0
-0.742297748940063
-0.43099941886623855
0.0
-0.456441729985325
-0.20554568269146375
0.0
-0.6043713217181569
-0.22345978417717624
0.0
-0.5430299990179327
-0.32417161667944444
0.0
-0.4663098329273917
-0.21737338458158154
0.0
-0.4665318147698854
-0.2430973602570241
0.0
-0.5473840893498108
-0.3123581805775238
0.0
-0.7401406529620915
-0.27485948926309944
0.0
-0.6369404782762742
-0.20194524818250084
0.0
-0.6340984209531981
-0.2882781038859507
0.0
-0.4948786177377684
-0.33237832567784614
0.0
-0.6554774656496098
-0.19843481418598677
0.0
-0.5847219074377346
-0.26891038559731073
0.0
-0.8472642457884131
-0.36016479814350827
0.0
-0.7249891932833636
-0.4340210528191244
0.0
-0.5048783423991213
-0.2515987822312782
0.0
-0.7685163023338989
-0.26998038328219465
0.0
-0.7825184502574186
-0.557967003500185
0.0
-0.4621480810649886
-0.35561768405511535
0.0
-0.7295363073717563
-0.5326073767780997
0.0
-0.5835672546076253
-0.42548227176695236
0.0
-0.7273134533687683
-0.18521037321469164
0.0
-0.967585351921034
-0.3436903978961146
0.0
-0.8091053272396133
-0.4969974166696668
0.0
-0.6557983084660579
-0.2691613469313829
0.0
-0.8836343782043383
-0.2803863404714003
0.0
-0.8724093846643273
-0.2849727996018246
0.0
-0.8678229255339011
0.0
-0.5095048540206352
-0.4809112683284816
-0.4374212330388003
-0.31533642285595814
-0.012268309465877248
-0.2064295667306772
0.0
-0.39014742038857714
-0.1792035176185866
0.0
-0.5538226556797794
-0.1332311474008487
0.0
-0.2913467464618872
-0.1613415890798599
0.0
-0.39863934165541015
-0.2298359182370454
0.0
-0.44117000770721
-0.08166505928105534
0.0
-0.37398443034941914
-0.18506737262368664
0.0
-0.5009919484153286
-0.18631488328675555
0.0
-0.4253869822911762
-0.41514782809667644
0.0
-0.3849651085226741
-0.13926356729037148
0.0
-0.31871850602384094
-0.18225901275011547
0.0
-0.38207983882678676
-0.26218851040791763
0.0
-0.41697306055498046
-0.12142931270781115
0.0
-0.4709944939431933
-0.35575884667321156
0.0
-0.3303004743658044
-0.22238792223931825
0.0
-0.6781396568559206
-0.40277734125181847
0.0
-0.3973355953675323
-0.1685341941961929
0.0
-0.5540545979812215
-0.19807318267844204
0.0
-0.4810883882844543
-0.2909369112035829
0.0
-0.4122163261710408
-0.1895716863896
0.0
-0.407005300729654
-0.2123935756059658
0.0
-0.49075966176865854
-0.28162735768077773
0.0
-0.6835432636266223
-0.240228257723301
0.0
-0.5842434975838688
-0.17069897948460802
0.0
-0.5780164774188723
-0.2623026596235516
0.0
-0.4335258497679555
-0.30144647145265646
0.0
-0.5990811076425895
-0.16665297662400763
0.0
-0.529175532767505
-0.23131550606272505
0.0
-0.7975309130907892
-0.3278178508977071
0.0
-0.670007928296952
-0.4026623579399293
0.0
-0.44890882504610347
-0.22048360958662636
0.0
-0.7123032627463358
-0.2331122484821167
0.0
-0.7320583728252833
-0.5233301517305443
0.0
-0.4094567206024177
-0.3198139995427331
0.0
-0.6780117796519233
-0.5051358343512926
0.0
-0.5237105848022163
-0.39201147427612804
0.0
-0.6734560386273811
-0.15324777209926885
0.0
-0.9122197408042455
-0.30769650451634345
0.0
-0.7577710083871657
-0.4729234348068625
0.0
-0.5925440780966496
-0.23024155313936515
0.0
-0.8352259597641438
-0.24766496149666703
0.0
-0.817802551406845
-0.2508564182476802
0.0
-0.8146110946558329
0.0
-0.47154414723857957
-0.4437542397483538
-0.40000998593965137
-0.2736265187386239
-0.009146533964186387
-0.25123178418878517
0.0
-0.4787916485260955
-0.20939009194008726
0.0
-0.7012315705788719
-0.14821734257782349
0.0
-0.3316081508703679
-0.2029959206496614
0.0
-0.47507681394333123
-0.30759880215266755
0.0
-0.527034764948219
-0.0906653740694283
0.0
-0.4351542445815182
-0.23023492494487055
0.0
-0.6265697342546749
-0.2311349287442829
0.0
-0.5225222553055221
-0.5206685289600775
0.0
-0.45703989687987384
-0.15995012880084755
0.0
-0.37025363145422063
-0.23302293146999814
0.0
-0.45085023875859004
-0.3295095216129411
0.0
-0.5166747054230303
-0.13736764677937843
0.0
-0.5865979060161116
-0.4597506452141535
0.0
-0.3970540139853937
-0.2760746283164515
0.0
-0.8020484399993849
-0.5024938946501352
0.0
-0.47521453118981555
-0.19976719844497454
0.0
-0.7004170829530303
-0.24712118047044385
0.0
-0.599063046565522
-0.3714509709966185
0.0
-0.5079919790104003
-0.22369235156590103
0.0
-0.5063310811489793
-0.26484234290257236
0.0
-0.6146006071044398
-0.32802873239812974
0.0
-0.8147373781298668
-0.3069773906004009
0.0
-0.6950898539273533
-0.2046470453470733
0.0
-0.7216639007770025
-0.33479089305941856
0.0
-0.5349863823825425
-0.38825893305535025
0.0
-0.6898641352604868
-0.1971161780148122
0.0
-0.6726610974271461
-0.29694660043988774
0.0
-0.909495307934219
-0.43028060877484187
0.0
-0.745140659640413
-0.48004033482712366
0.0
-0.5491263373795086
-0.28561664371813916
0.0
-0.8247657178354157
-0.2881739094608773
0.0
-0.8545922010671155
-0.6197962617694958
0.0
-0.4905860997840577
-0.40096822755747485
0.0
-0.774453040857776
-0.5580203950160189
0.0
-0.6484215133580845
-0.4641142373624687
0.0
-0.7789487647616395
-0.19327128095642884
0.0
-1.049791721167669
-0.38166042034117853
0.0
-0.8614025817829254
-0.6008223337170232
0.0
-0.6422406684070777
-0.29457736371951887
0.0
-0.9484856384045828
-0.2749397610145053
0.0
-0.9681232411096005
-0.3240732445314665
0.0
-0.9189897575926396
0.0
-0.5486826273471639
-0.5171314321624901
-0.47928352849807504
-0.38490992200288693
-0.016659685765453965
-0.2335204491023579
0.0
-0.43337838057214834
-0.20891208155391267
0.0
-0.5944359342996964
-0.1567024272040214
0.0
-0.3381973092139647
-0.1791975468688732
0.0
-0.4511052264216495
-0.24415272086413953
0.0
-0.49717504763536785
-0.09509950603687442
0.0
-0.4308718261488534
-0.20735371254545246
0.0
-0.5490274510488138
-0.2072652682343117
0.0
-0.47475843989887034
-0.4426123363270203
0.0
-0.4278224428475839
-0.16085030397339575
0.0
-0.3674536118960654
-0.19709707089854553
0.0
-0.43756362323360704
-0.2919634385036194
0.0
-0.4575199750145301
-0.1462895384401806
0.0
-0.516456110766075
-0.3802054089136038
0.0
-0.37617575468066483
-0.24455302401051232
0.0
-0.7262963976399741
-0.42636278649767606
0.0
-0.44407199267692765
-0.19372583660140144
0.0
-0.5991847981312559
-0.22151447637532032
0.0
-0.5279689371428288
-0.31629654506405497
0.0
-0.4571785348658217
-0.21692000088881858
0.0
-0.449978828785688
-0.23924584441150007
0.0
-0.5342292355183762
-0.3043756645030902
0.0
-0.7311167993595552
-0.26989703474894433
0.0
-0.6248965631134648
-0.1951291459779098
0.0
-0.6239081534808198
-0.28211251323334213
0.0
-0.4840378387134177
-0.32776430625417635
0.0
-0.6430851153963106
-0.19153554867567701
0.0
-0.5746148032710756
-0.2583227155804883
0.0
-0.8408455461282709
-0.3551270589474217
0.0
-0.7130205628024872
-0.42637712285810814
0.0
-0.4955159026831774
-0.2463778792700971
0.0
-0.7567308356181102
-0.26239775561683837
0.0
-0.773094708245804
-0.5523909684536735
0.0
-0.4507177464345342
-0.3491466920501515
0.0
-0.7190009296997567
-0.5278935093188037
0.0
-0.571274752389951
-0.4187139118353219
0.0
-0.7170754436234391
-0.17877421787627662
0.0
-0.9570151375824774
-0.33561283090653893
0.0
-0.8001765245522221
-0.49515496485414434
0.0
-0.6406343906046089
-0.2595162285816944
0.0
-0.8762731268770593
-0.27248971534888217
0.0
-0.863299640109878
-0.2781275233626899
0.0
-0.8576618320960647
0.0
-0.5022366007949182
-0.47372136841392437
-0.4303296743741077
-0.3071026078304381
-0.011568552685809112
-0.2064295667306772
0.0
-0.39014742038857714
-0.1792035176185866
0.0
-0.5538226556797794
-0.1332311474008487
0.0
-0.2913467464618872
-0.1613415890798599
0.0
-0.39863934165541015
-0.2298359182370454
0.0
-0.44117000770721
-0.08166505928105534
0.0
-0.37398443034941914
-0.18506737262368664
0.0
-0.5009919484153286
-0.18631488328675555
0.0
-0.4253869822911762
-0.41514782809667644
0.0
-0.3849651085226741
-0.13926356729037148
0.0
-0.31871850602384094
-0.18225901275011547
0.0
-0.38207983882678676
-0.26218851040791763
0.0
-0.41697306055498046
-0.12142931270781115
0.0
-0.4709944939431933
-0.35575884667321156
0.0
-0.3303004743658044
-0.22238792223931825
0.0
-0.6781396568559206
-0.40277734125181847
0.0
-0.3973355953675323
-0.1685341941961929
0.0
-0.5540545979812215
-0.19807318267844204
0.0
-0.4810883882844543
-0.2909369112035829
0.0
-0.4122163261710408
-0.1895716863896
0.0
-0.407005300729654
-0.2123935756059658
0.0
-0.49075966176865854
-0.28162735768077773
0.0
-0.6835432636266223
-0.240228257723301
0.0
-0.5842434975838688
-0.17069897948460802
0.0
-0.5780164774188723
-0.2623026596235516
0.0
-0.4335258497679555
-0.30144647145265646
0.0
-0.5990811076425895
-0.16665297662400763
0.0
-0.529175532767505
-0.23131550606272505
0.0
-0.7975309130907892
-0.3278178508977071
0.0
-0.670007928296952
-0.4026623579399293
0.0
-0.44890882504610347
-0.22048360958662636
0.0
-0.7123032627463358
-0.2331122484821167
0.0
-0.7320583728252833
-0.5233301517305443
0.0
-0.4094567206024177
-0.3198139995427331
0.0
-0.6780117796519233
-0.5051358343512926
0.0
-0.5237105848022163
-0.39201147427612804
0.0
-0.6734560386273811
-0.15324777209926885
0.0
-0.9122197408042455
-0.30769650451634345
0.0
-0.7577710083871657
-0.4729234348068625
0.0
-0.5925440780966496
-0.23024155313936515
0.0
-0.8352259597641438
-0.24766496149666703
0.0
-0.817802551406845
-0.2508564182476802
0.0
-0.8146110946558329
0.0
-0.47154414723857957
-0.4437542397483538
-0.40000998593965137
-0.2736265187386239
-0.009146533964186387
-0.2512530440217327
0.0
-0.45531143927291257
-0.2324363440314267
0.0
-0.6105773254423297
-0.16635020895855876
0.0
-0.3682151810795642
-0.18690345309965434
0.0
-0.48306497381100544
-0.2501816294339286
0.0
-0.530811792685718
-0.10550062227203688
0.0
-0.4601363635338305
-0.21857075646392607
0.0
-0.5774760607504851
-0.22164766982240414
0.0
-0.5000416919309163
-0.46271524572894823
0.0
-0.4473851870657935
-0.17533642973705094
0.0
-0.3926331397525492
-0.20535663363190176
0.0
-0.46896971412039307
-0.3043148551406243
0.0
-0.4848342119976631
-0.15343191913559534
0.0
-0.5489793836908025
-0.40176810997672735
0.0
-0.39427870723767794
-0.25168590325914575
0.0
-0.7588291720114868
-0.43487468987712596
0.0
-0.47522574291761577
-0.21336619065589954
0.0
-0.6192100976969013
-0.23331567897109598
0.0
-0.5558333881671914
-0.33490170950501474
0.0
-0.47823902404499957
-0.2287797435541641
0.0
-0.4777847397404822
-0.25083517648384673
0.0
-0.5623055570661698
-0.3200823388086106
0.0
-0.7550757786741792
-0.282855000008137
0.0
-0.6516042514744198
-0.21053501565856184
0.0
-0.64816793742031
-0.2940839815871136
0.0
-0.5117320239797875
-0.33982686827745473
0.0
-0.6706882069931781
-0.2058802526345708
0.0
-0.5999357529323291
-0.27604392274162776
0.0
-0.8627899925872757
-0.3715272904443322
0.0
-0.7362859849257163
-0.4391672715190773
0.0
-0.5223914076423462
-0.2615053527884482
0.0
-0.7812690157198998
-0.2799657374991087
0.0
-0.7951923799836801
-0.5696133384859411
0.0
-0.4731610300224092
-0.36537549985895523
0.0
-0.7424377755110987
-0.5385391213579215
0.0
-0.6002947939709832
-0.43318944719761115
0.0
-0.7422655618812893
-0.19501476631731401
0.0
-0.9804402427615904
-0.3510655397785081
0.0
-0.8243894693003936
-0.5064000005738725
0.0
-0.6690550085050329
-0.27392378997097155
0.0
-0.9015312191079305
-0.28622171637064364
0.0
-0.889233292708262
-0.2958070342184767
0.0
-0.8796479748604266
0.0
-0.5192562474447264
-0.4906724479116052
-0.4474252870240421
-0.32593969088514185
-0.013012320861060482
-0.23443449454839402
0.0
-0.44281766442279996
-0.2055406098483452
0.0
-0.6081607353019558
-0.14621576807494757
0.0
-0.3307983365184258
-0.1884927994284971
0.0
-0.4521633031587114
-0.2506871305653509
0.0
-0.5009939672308411
-0.0915332386816849
0.0
-0.42262636532887865
-0.21475238686127077
0.0
-0.5519821060296817
-0.21400874548713208
0.0
-0.4783682919427365
-0.4476080104914538
0.0
-0.43318009797983775
-0.15981564303533935
0.0
-0.35742753361969754
-0.2129535048683877
0.0
-0.4320605185604549
-0.28959989883856335
0.0
-0.47023684397627363
-0.13428731099720614
0.0
-0.5388116675057377
-0.392137127393542
0.0
-0.37459736549741285
-0.24200634149545125
0.0
-0.7391964094517278
-0.4302754481951482
0.0
-0.4505126602761426
-0.19186228355068086
0.0
-0.611401680478668
-0.23026201984330893
0.0
-0.5295747229715277
-0.32735998131672434
0.0
-0.4564684279098392
-0.21219946069039633
0.0
-0.4650526982807979
-0.243044715764542
0.0
-0.5407836934620183
-0.29879834689101187
0.0
-0.7470474462683256
-0.2807265912825511
0.0
-0.6244203358765521
-0.19424897343228273
0.0
-0.635141655323139
-0.2949631082289032
0.0
-0.4815405730145444
-0.3402307332816716
0.0
-0.6409720176655065
-0.18293849517244298
0.0
-0.5935651860710032
-0.2713148778468136
0.0
-0.8382067131586362
-0.3733098316677899
0.0
-0.7051911193788089
-0.4233344347528018
0.0
-0.5089119200851704
-0.2537868944291591
0.0
-0.7596751497557417
-0.2622502418599479
0.0
-0.7835955512993853
-0.5554601562879052
0.0
-0.4580018878969957
-0.353961784579461
0.0
-0.7245391664671347
-0.5250531577733693
0.0
-0.5844684332320804
-0.4159854342086118
0.0
-0.7301572505468349
-0.18062414221423614
0.0
-0.9655185425412103
-0.3431438974232005
0.0
-0.802998787332248
-0.515084525642691
0.0
-0.6310581591127573
-0.26866513607461373
0.0
-0.8774775486808378
-0.2673471481820966
0.0
-0.8787955365733523
-0.2884030924783026
0.0
-0.8577395922771471
0.0
-0.5068285792822306
-0.47807540118228437
-0.43631148295769157
-0.3205905680014621
-0.012737293640277671
-0.2064295667306772
0.0
-0.39014742038857714
-0.1792035176185866
0.0
-0.5538226556797794
-0.1332311474008487
0.0
-0.2913467464618872
-0.1613415890798599
0.0
-0.39863934165541015
-0.2298359182370454
0.0
-0.44117000770721
-0.08166505928105534
0.0
-0.37398443034941914
-0.18506737262368664
0.0
-0.5009919484153286
-0.18631488328675555
0.0
-0.4253869822911762
-0.41514782809667644
0.0
-0.3849651085226741
-0.13926356729037148
0.0
-0.31871850602384094
-0.18225901275011547
0.0
-0.38207983882678676
-0.26218851040791763
0.0
-0.41697306055498046
-0.12142931270781115
0.0
-0.4709944939431933
-0.35575884667321156
0.0
-0.3303004743658044
-0.22238792223931825
0.0
-0.6781396568559206
-0.40277734125181847
0.0
-0.3973355953675323
-0.1685341941961929
0.0
-0.5540545979812215
-0.19807318267844204
0.0
-0.4810883882844543
-0.2909369112035829
0.0
-0.4122163261710408
-0.1895716863896
0.0
-0.407005300729654
-0.2123935756059658
0.0
-0.49075966176865854
-0.28162735768077773
0.0
-0.6835432636266223
-0.240228257723301
0.0
-0.5842434975838688
-0.17069897948460802
0.0
-0.5780164774188723
-0.2623026596235516
0.0
-0.4335258497679555
-0.30144647145265646
0.0
-0.5990811076425895
-0.16665297662400763
0.0
-0.529175532767505
-0.23131550606272505
0.0
-0.7975309130907892
-0.3278178508977071
0.0
-0.670007928296952
-0.4026623579399293
0.0
-0.44890882504610347
-0.22048360958662636
0.0
-0.7123032627463358
-0.2331122484821167
0.0
-0.7320583728252833
-0.5233301517305443
0.0
-0.4094567206024177
-0.3198139995427331
0.0
-0.6780117796519233
-0.5051358343512926
0.0
-0.5237105848022163
-0.39201147427612804
0.0
-0.6734560386273811
-0.15324777209926885
0.0
-0.9122197408042455
-0.30769650451634345
0.0
-0.7577710083871657
-0.4729234348068625
0.0
-0.5925440780966496
-0.23024155313936515
0.0
-0.8352259597641438
-0.24766496149666703
0.0
-0.817802551406845
-0.2508564182476802
0.0
-0.8146110946558329
0.0
-0.47154414723857957
-0.4437542397483538
-0.40000998593965137
-0.2736265187386239
-0.009146533964186387
-0.26998337881396156
0.0
-0.46447839037895305
-0.2296038265528973
0.0
-0.6413071288191244
-0.16929551256711461
0.0
-0.364892638331063
-0.19381499567444452
0.0
-0.5040507171344827
-0.2505840579808484
0.0
-0.558306650037065
-0.10187487505017814
0.0
-0.4788980804975983
-0.24268667185384799
0.0
-0.5812574312588273
-0.23966471039730355
0.0
-0.5099219372542851
-0.4838090698543873
0.0
-0.4541886488386241
-0.17796608617034795
0.0
-0.4064290813147035
-0.23129511359318017
0.0
-0.47092852005738106
-0.31735540144099494
0.0
-0.49969095159556226
-0.15234032397352013
0.0
-0.5779682647511405
-0.4022626547454764
0.0
-0.4216814483671997
-0.26118281707725455
0.0
-0.7772295440916436
-0.4367979828949343
0.0
-0.5011997357980774
-0.2174383260236834
0.0
-0.6430352482273867
-0.24766954547863484
0.0
-0.569376807557922
-0.34548759528021233
0.0
-0.49555042416807155
-0.23272136381080188
0.0
-0.5017404053821124
-0.2774196142940046
0.0
-0.5636184051542781
-0.3162179421818869
0.0
-0.7868374611991661
-0.2991103083362759
0.0
-0.6632462290445483
-0.21777893328080478
0.0
-0.6688213056963335
-0.3049650724874135
0.0
-0.528748218977749
-0.35705712439156706
0.0
-0.6813552367773293
-0.20247310975242064
0.0
-0.6312401817127442
-0.29187715674346293
0.0
-0.8748540444837053
-0.39241155882475237
0.0
-0.7432990024435656
-0.44722401493546576
0.0
-0.5422319501242272
-0.27316997292803197
0.0
-0.7975016814785869
-0.2893836925446416
0.0
-0.8136717108364139
-0.5830323744695945
0.0
-0.4876392799370236
-0.3825557043918857
0.0
-0.7531548568764298
-0.5469951167205251
0.0
-0.6197360845066426
-0.43828638396933006
0.0
-0.7650659110078397
-0.2057293608089182
0.0
-0.9976229341682494
-0.3721316871172678
0.0
-0.8312206078599003
-0.5335513654394598
0.0
-0.6698009295377088
-0.28789753307575616
0.0
-0.9154547619014095
-0.2883406438287228
0.0
-0.9150116511484415
-0.30092284932587715
0.0
-0.9024294456512917
0.0
-0.5304201531338325
-0.5023701680198795
-0.46011842927891594
-0.3452609932758834
-0.015293321276371077
-0.23293969615652207
0.0
-0.45780207869264117
-0.1951103505523952
0.0
-0.6485114208935367
-0.13977017481560108
0.0
-0.31117372127493875
-0.19385794374735385
0.0
-0.4460404410869513
-0.2906130650162026
0.0
-0.4909884590756193
-0.0859267525849827
0.0
-0.4059503098341431
-0.21036658816557646
0.0
-0.5862883310210054
-0.21379016105253212
0.0
-0.4989675492760887
-0.4729302941018062
0.0
-0.4377782406651119
-0.14804262465298684
0.0
-0.3475842017335321
-0.21634530789366763
0.0
-0.4294315943121481
-0.31606274769931275
0.0
-0.47369442141115115
-0.1307571329545406
0.0
-0.5542292524679493
-0.4271136773789356
0.0
-0.3695412418076463
-0.2640012872934548
0.0
-0.7471218899493508
-0.4681847481483133
0.0
-0.44252378661860486
-0.18593060189384542
0.0
-0.6472537884311311
-0.22973817349583167
0.0
-0.5600189956146281
-0.350273403827234
0.0
-0.4634754316949567
-0.20973181462444235
0.0
-0.48100996022472153
-0.2432178997919943
0.0
-0.5705309357301925
-0.29592581328810247
0.0
-0.7798404061668611
-0.28664219703009153
0.0
-0.6484251564246342
-0.18959713142349324
0.0
-0.6697139236275514
-0.31135748100817107
0.0
-0.49506662653090344
-0.3502064774073375
0.0
-0.6609166998354707
-0.18587733631204145
0.0
-0.6205467712270335
-0.2765770631020204
0.0
-0.8628649541990583
-0.4045139174907066
0.0
-0.7039074598515203
-0.4461231228191421
0.0
-0.5160436583144591
-0.26737366124957324
0.0
-0.7760088092309555
-0.26995896008232756
0.0
-0.8058072593726393
-0.5785527420372394
0.0
-0.46482972844328435
-0.3645970752026782
0.0
-0.7438243021395483
-0.5242352603943342
0.0
-0.6152067569067429
-0.4291574735413203
0.0
-0.7469056375097572
-0.17751853818157098
0.0
-0.9985445728695065
-0.3594452315907036
0.0
-0.8166178794603757
-0.5577286454438086
0.0
-0.6183344656072676
-0.27709663688989283
0.0
-0.8989664741611846
-0.2640422452422402
0.0
-0.9120208658088398
-0.2929322274243194
0.0
-0.8831308836267614
0.0
-0.5205526641749717
-0.4896928420770869
-0.4496702776421406
-0.3435428178348047
-0.014147101474348188
-0.2064295667306772
0.0
-0.39014742038857714
-0.1792035176185866
0.0
-0.5538226556797794
-0.1332311474008487
0.0
-0.2913467464618872
-0.1613415890798599
0.0
-0.39863934165541015
-0.2298359182370454
0.0
-0.44117000770721
-0.08166505928105534
0.0
-0.37398443034941914
-0.18506737262368664
0.0
-0.5009919484153286
-0.18631488328675555
0.0
-0.4253869822911762
-0.41514782809667644
0.0
-0.3849651085226741
-0.13926356729037148
0.0
-0.31871850602384094
-0.18225901275011547
0.0
-0.38207983882678676
-0.26218851040791763
0.0
-0.41697306055498046
-0.12142931270781115
0.0
-0.4709944939431933
-0.35575884667321156
0.0
-0.3303004743658044
-0.22238792223931825
0.0
-0.6781396568559206
-0.40277734125181847
0.0
-0.3973355953675323
-0.1685341941961929
0.0
-0.5540545979812215
-0.19807318267844204
0.0
-0.4810883882844543
-0.2909369112035829
0.0
-0.4122163261710408
-0.1895716863896
0.0
-0.407005300729654
-0.2123935756059658
0.0
-0.49075966176865854
-0.28162735768077773
0.0
-0.6835432636266223
-0.240228257723301
0.0
-0.5842434975838688
-0.17069897948460802
0.0
-0.5780164774188723
-0.2623026596235516
0.0
-0.4335258497679555
-0.30144647145265646
0.0
-0.5990811076425895
-0.16665297662400763
0.0
-0.529175532767505
-0.23131550606272505
0.0
-0.7975309130907892
-0.3278178508977071
0.0
-0.670007928296952
-0.4026623579399293
0.0
-0.44890882504610347
-0.22048360958662636
0.0
-0.7123032627463358
-0.2331122484821167
0.0
-0.7320583728252833
-0.5233301517305443
0.0
-0.4094567206024177
-0.3198139995427331
0.0
-0.6780117796519233
-0.5051358343512926
0.0
-0.5237105848022163
-0.39201147427612804
0.0
-0.6734560386273811
-0.15324777209926885
0.0
-0.9122197408042455
-0.30769650451634345
0.0
-0.7577710083871657
-0.4729234348068625
0.0
-0.5925440780966496
-0.23024155313936515
0.0
-0.8352259597641438
-0.24766496149666703
0.0
-0.817802551406845
-0.2508564182476802
0.0
-0.8146110946558329
0.0
-0.47154414723857957
-0.4437542397483538
-0.40000998593965137
-0.2736265187386239
-0.009146533964186387
-0.2716257243518961
0.0
-0.4701934572487103
-0.2348093433972983
0.0
-0.6434590243824191
-0.16962079927219284
0.0
-0.3713453247111946
-0.19683495320639624
0.0
-0.5071271272411629
-0.25173321709221597
0.0
-0.5645149033333947
-0.10245354419305121
0.0
-0.48496121658367175
-0.24754698138383058
0.0
-0.5837545341365402
-0.24224674933481602
0.0
-0.5146973107244703
-0.49057218038307115
0.0
-0.4547829507176329
-0.18265410287373077
0.0
-0.4083756285775928
-0.23244695897244125
0.0
-0.47597569778975685
-0.3178677376429983
0.0
-0.5065360278012531
-0.15134824502951402
0.0
-0.5861285335496959
-0.4066198929828179
0.0
-0.42468162253754943
-0.26368125219556837
0.0
-0.7820885213810247
-0.4373828824364582
0.0
-0.5079722486642461
-0.22010395205822686
0.0
-0.647727034600531
-0.25041270905119595
0.0
-0.573991056393054
-0.35166224482155783
0.0
-0.4967331870344181
-0.2379396791198314
0.0
-0.5038795024807758
-0.27918606890574044
0.0
-0.5692093629502385
-0.31762316821823816
0.0
-0.7927896475705103
-0.30125836698521974
0.0
-0.6684555828032926
-0.2203625303454077
0.0
-0.6735951210394252
-0.3062907431804095
0.0
-0.5347799606924516
-0.3585381182049039
0.0
-0.6872316553716891
-0.2043194519698873
0.0
-0.636751251902977
-0.29420130154037394
0.0
-0.8798873120944857
-0.39652069552797525
0.0
-0.7465472781480341
-0.44938145474504476
0.0
-0.5474319227223446
-0.2770508074161624
0.0
-0.8009782593981478
-0.29286371713614384
0.0
-0.8175490986526033
-0.5891555477127478
0.0
-0.48887351910156834
-0.3857323544323706
0.0
-0.7573356192436411
-0.5483130191180421
0.0
-0.6257755945168206
-0.44197352658548206
0.0
-0.7687361807993809
-0.20845368798039052
0.0
-1.0022560194044687
-0.37461398406548874
0.0
-0.836095723319375
-0.5372742490716811
0.0
-0.6734354583131824
-0.2884474492275539
0.0
-0.9222622581573078
-0.28909221160437887
0.0
-0.921617495780485
-0.3047274645623706
0.0
-0.9059822428224916
0.0
-0.5337181842653731
-0.50555163538192
-0.46375496393467885
-0.349198071511274
-0.015456780161824292
-0.22267707861817762
0.0
-0.4177594966701764
-0.19438477355007414
0.0
-0.5825009879173823
-0.14712646265682536
0.0
-0.3213110193750075
-0.1734458335478924
0.0
-0.43039468535647635
-0.24065279343477833
0.0
-0.4742127206785773
-0.09416066756912975
0.0
-0.40534841023044405
-0.19677613783255832
0.0
-0.5331427713755578
-0.1985028024801509
0.0
-0.4570586512668774
-0.42753257667522765
0.0
-0.4164399481132222
-0.1524914948644485
0.0
-0.3493501666188613
-0.19579119991117672
0.0
-0.4124072398348239
-0.27960318475906987
0.0
-0.443417974372926
-0.13737377115780486
0.0
-0.4989096236622986
-0.3729592678194774
0.0
-0.35695964138863545
-0.23492475705972954
0.0
-0.709462410204603
-0.4170062206120169
0.0
-0.4269663041764328
-0.18316574371436314
0.0
-0.5832826366321446
-0.21182013541424413
0.0
-0.5112010237177522
-0.3041796463270561
0.0
-0.44283317921666665
-0.20505944193746548
0.0
-0.4353771333508887
-0.22703005981182164
0.0
-0.5199827657319015
-0.29811463018969264
0.0
-0.7109155792868013
-0.2587788549656676
0.0
-0.6095524885105926
-0.18601695412132122
0.0
-0.6065580909512577
-0.27488074992873274
0.0
-0.46480734763187365
-0.31802622564559324
0.0
-0.6263609416187419
-0.18369452458029192
0.0
-0.5559935729803135
-0.24830917022648807
0.0
-0.8243968370961137
-0.343936186191548
0.0
-0.6977491811722032
-0.4175351130555022
0.0
-0.4778956580996299
-0.23746542779757498
0.0
-0.7391810327044804
-0.2510535120566822
0.0
-0.7579766974198099
-0.538879185488933
0.0
-0.43776727501312424
-0.3370519287713154
0.0
-0.704633438592438
-0.5200393598222044
0.0
-0.5526666475004033
-0.4071474787039898
0.0
-0.7021796223686134
-0.1711966402573998
0.0
-0.9381304608152091
-0.3243563389736181
0.0
-0.7849707620989842
-0.4852616305671629
0.0
-0.6240654705054456
-0.24774330713921958
0.0
-0.8615837939333835
-0.26415654264223337
0.0
-0.8451705584303728
-0.267353390663682
0.0
-0.8419737104089238
0.0
-0.49053024052704114
-0.46235053031116247
-0.4183826295752387
-0.29299734155252716
-0.010887849616273242
-0.2064295667306772
0.0
-0.39014742038857714
-0.1792035176185866
0.0
-0.5538226556797794
-0.1332311474008487
0.0
-0.2913467464618872
-0.1613415890798599
0.0
-0.39863934165541015
-0.2298359182370454
0.0
-0.44117000770721
-0.08166505928105534
0.0
-0.37398443034941914
-0.18506737262368664
0.0
-0.5009919484153286
-0.18631488328675555
0.0
-0.4253869822911762
-0.41514782809667644
0.0
-0.3849651085226741
-0.13926356729037148
0.0
-0.31871850602384094
-0.18225901275011547
0.0
-0.38207983882678676
-0.26218851040791763
0.0
-0.41697306055498046
-0.12142931270781115
0.0
-0.4709944939431933
-0.35575884667321156
0.0
-0.3303004743658044
-0.22238792223931825
0.0
-0.6781396568559206
-0.40277734125181847
0.0
-0.3973355953675323
-0.1685341941961929
0.0
-0.5540545979812215
-0.19807318267844204
0.0
-0.4810883882844543
-0.2909369112035829
0.0
-0.4122163261710408
-0.1895716863896
0.0
-0.407005300729654
-0.2123935756059658
0.0
-0.49075966176865854
-0.28162735768077773
0.0
-0.6835432636266223
-0.240228257723301
0.0
-0.5842434975838688
-0.17069897948460802
0.0
-0.5780164774188723
-0.2623026596235516
0.0
-0.4335258497679555
-0.30144647145265646
0.0
-0.5990811076425895
-0.16665297662400763
0.0
-0.529175532767505
-0.23131550606272505
0.0
-0.7975309130907892
-0.3278178508977071
0.0
-0.670007928296952
-0.4026623579399293
0.0
-0.44890882504610347
-0.22048360958662636
0.0
-0.7123032627463358
-0.2331122484821167
0.0
-0.7320583728252833
-0.5233301517305443
0.0
-0.4094567206024177
-0.3198139995427331
0.0
-0.6780117796519233
-0.5051358343512926
0.0
-0.5237105848022163
-0.39201147427612804
0.0
-0.6734560386273811
-0.15324777209926885
0.0
-0.9122197408042455
-0.30769650451634345
0.0
-0.7577710083871657
-0.4729234348068625
0.0
-0.5925440780966496
-0.23024155313936515
0.0
-0.8352259597641438
-0.24766496149666703
0.0
-0.817802551406845
-0.2508564182476802
0.0
-0.8146110946558329
0.0
-0.47154414723857957
-0.4437542397483538
-0.40000998593965137
-0.2736265187386239
-0.009146533964186387
-0.25871321531476105
0.0
-0.46829405870148877
-0.23996563224007145
0.0
-0.623490827955287
-0.17209840165787513
0.0
-0.3781729821910528
-0.19515388815426235
0.0
-0.4952573294780016
-0.25068688125898253
0.0
-0.5507493315822665
-0.10389138232617652
0.0
-0.482188394201294
-0.2355750406840207
0.0
-0.5809145672519896
-0.2287647582336842
0.0
-0.5133673942412388
-0.4813967695280268
0.0
-0.44914645398831887
-0.18381493188047557
0.0
-0.40459742833072787
-0.21181289575029705
0.0
-0.4829562427235997
-0.314005675926011
0.0
-0.4955861819338799
-0.15493753853516573
0.0
-0.5679165550128358
-0.40524355822846647
0.0
-0.4112460497075433
-0.261980331477406
0.0
-0.7689775345148357
-0.43689011049035686
0.0
-0.49365311302598874
-0.22081397489628243
0.0
-0.6322051041781266
-0.24126252455520414
0.0
-0.5683293333046865
-0.34511622524470925
0.0
-0.48846729902690905
-0.23901039299230814
0.0
-0.4879968810239391
-0.26356935652652164
0.0
-0.570014167745097
-0.3211083002175224
0.0
-0.7744926079868685
-0.28882311042773545
0.0
-0.6660789317764234
-0.2151901054855642
0.0
-0.6639556383149109
-0.29898642367141703
0.0
-0.5272723726170846
-0.34989749095672645
0.0
-0.6810603750355088
-0.20697539032765955
0.0
-0.6192834059608457
-0.2811285466641538
0.0
-0.878148159386351
-0.3826668006366896
0.0
-0.7455892654549678
-0.44756278333592975
0.0
-0.5344386865470981
-0.26817332810542777
0.0
-0.7950438311245287
-0.28636000229997266
0.0
-0.8092409059044193
-0.58388152850843
0.0
-0.47933563072152696
-0.37503006214390505
0.0
-0.7532260039477507
-0.5468500251187779
0.0
-0.6124266809317306
-0.44212017104792156
0.0
-0.7537776287525809
-0.20295807094528473
0.0
-0.9929397288552222
-0.3605048365428222
0.0
-0.835392963257683
-0.5188497461114767
0.0
-0.6770480536890302
-0.27921923872287996
0.0
-0.9166785610776231
-0.28940229048424193
0.0
-0.9064955093162671
-0.3035925888420593
0.0
-0.8923052109584462
0.0
-0.5279719382412845
-0.49942507835151423
-0.4566599358705839
-0.33758962549940447
-0.013306021077901848
-0.24096296531528957
0.0
-0.44460235879815263
-0.2196663272050146
0.0
-0.6023481830875388
-0.15572646315254313
0.0
-0.3509767798529272
-0.18756906208764385
0.0
-0.46140020564181505
-0.24242202044537378
0.0
-0.5175722424930717
-0.09517776224539634
0.0
-0.44946006437926767
-0.22775492108038975
0.0
-0.5472927369528163
-0.21773308429396127
0.0
-0.48295711827815774
-0.4668974180332236
0.0
-0.4222038555803176
-0.1717639846914
0.0
-0.3752064256169997
-0.2062315882202913
0.0
-0.4470956003507991
-0.29378683963217805
0.0
-0.4743630683249082
-0.13818876270262848
0.0
-0.543223380942565
-0.38865107032356594
0.0
-0.3863965877096394
-0.24987332471417154
0.0
-0.7396425913752572
-0.42071616095842
0.0
-0.4683851126551213
-0.2039423830851068
0.0
-0.6076347460864951
-0.22802228721888382
0.0
-0.5401276207382065
-0.33031695019306245
0.0
-0.46182462417575126
-0.22447960477798032
0.0
-0.46108571933546394
-0.24908878475488558
0.0
-0.5430527896139293
-0.3058449604885189
0.0
-0.7483139978130673
-0.270882336190369
0.0
-0.6425777561109833
-0.20041070316951629
0.0
-0.6372930907281575
-0.28771843921353124
0.0
-0.4970984071721665
-0.33519924282991287
0.0
-0.6543166732595208
-0.19012621712813652
0.0
-0.5946906292575649
-0.26531501493598497
0.0
-0.852519741211718
-0.3675791210541866
0.0
-0.7192349951346635
-0.43338398674345496
0.0
-0.5071755332367704
-0.25403319994853135
0.0
-0.7677420093786134
-0.2684435232578692
0.0
-0.7857154350437175
-0.5679619338769408
0.0
-0.45381327545021194
-0.3593198145547434
0.0
-0.7274943016341053
-0.5341862544026876
0.0
-0.5836485017450148
-0.4271794615038884
0.0
-0.7272763883938115
-0.1894430314993001
0.0
-0.9650128183984027
-0.34516706036430506
0.0
-0.8092887895333973
-0.5084312358713733
0.0
-0.6460246140263288
-0.26034018907946094
0.0
-0.8941156608182357
-0.2734165995892739
0.0
-0.8810392503084269
-0.288367630801417
0.0
-0.8660882190962826
0.0
-0.5099875113386433
-0.4819112907260836
-0.4391641986733589
-0.32001916529338814
-0.01210911876655816
-0.2064295667306772
0.0
-0.39014742038857714
-0.1792035176185866
0.0
-0.5538226556797794
-0.1332311474008487
0.0
-0.2913467464618872
-0.1613415890798599
0.0
-0.39863934165541015
-0.2298359182370454
0.0
-0.44117000770721
-0.08166505928105534
0.0
-0.37398443034941914
-0.18506737262368664
0.0
-0.5009919484153286
-0.18631488328675555
0.0
-0.4253869822911762
-0.41514782809667644
0.0
-0.3849651085226741
-0.13926356729037148
0.0
-0.31871850602384094
-0.18225901275011547
0.0
-0.38207983882678676
-0.26218851040791763
0.0
-0.41697306055498046
-0.12142931270781115
0.0
-0.4709944939431933
-0.35575884667321156
0.0
-0.3303004743658044
-0.22238792223931825
0.0
-0.6781396568559206
-0.40277734125181847
0.0
-0.3973355953675323
-0.1685341941961929
0.0
-0.5540545979812215
-0.19807318267844204
0.0
-0.4810883882844543
-0.2909369112035829
0.0
-0.4122163261710408
-0.1895716863896
0.0
-0.407005300729654
-0.2123935756059658
0.0
-0.49075966176865854
-0.28162735768077773
0.0
-0.6835432636266223
-0.240228257723301
0.0
-0.5842434975838688
-0.17069897948460802
0.0
-0.5780164774188723
-0.2623026596235516
0.0
-0.4335258497679555
-0.30144647145265646
0.0
-0.5990811076425895
-0.16665297662400763
0.0
-0.529175532767505
-0.23131550606272505
0.0
-0.7975309130907892
-0.3278178508977071
0.0
-0.670007928296952
-0.4026623579399293
0.0
-0.44890882504610347
-0.22048360958662636
0.0
-0.7123032627463358
-0.2331122484821167
0.0
-0.7320583728252833
-0.5233301517305443
0.0
-0.4094567206024177
-0.3198139995427331
0.0
-0.6780117796519233
-0.5051358343512926
0.0
-0.5237105848022163
-0.39201147427612804
0.0
-0.6734560386273811
-0.15324777209926885
0.0
-0.9122197408042455
-0.30769650451634345
0.0
-0.7577710083871657
-0.4729234348068625
0.0
-0.5925440780966496
-0.23024155313936515
0.0
-0.8352259597641438
-0.24766496149666703
0.0
-0.817802551406845
-0.2508564182476802
0.0
-0.8146110946558329
0.0
-0.47154414723857957
-0.4437542397483538
-0.40000998593965137
-0.2736265187386239
-0.009146533964186387
-0.2559960914398079
0.0
-0.4819312522657612
-0.21192074406317266
0.0
-0.6851763462100363
-0.15317770962940622
0.0
-0.3344256163476486
-0.20272594589145967
0.0
-0.4831398293702834
-0.3043553260311487
0.0
-0.5307215168879561
-0.09334015550809503
0.0
-0.4392764343140897
-0.22667741180124673
0.0
-0.6234528262126235
-0.23199295438115453
0.0
-0.5287569492618742
-0.49935423733623296
0.0
-0.46482961625796904
-0.15970911558387182
0.0
-0.3772449864725991
-0.23280944915111745
0.0
-0.45895723141098743
-0.3365531543187278
0.0
-0.5066793336190206
-0.1434896729631473
0.0
-0.588419002597946
-0.4494110109897084
0.0
-0.4007192270241586
-0.27755562813872015
0.0
-0.7870428679313747
-0.48829547454328026
0.0
-0.47588837905092224
-0.20195926740655717
0.0
-0.6847004417457044
-0.24744622857306325
0.0
-0.5957862593646879
-0.36978835829518314
0.0
-0.4974357960542917
-0.2243868065924979
0.0
-0.5135405371130731
-0.2654307776605635
0.0
-0.6017933766889093
-0.31267598702316
0.0
-0.8165655512590881
-0.3096200171711477
0.0
-0.6789226551108641
-0.20653015099658326
0.0
-0.7062562228817517
-0.3289115898939358
0.0
-0.530987836472423
-0.37283193709832063
0.0
-0.6917665589717714
-0.20097904977137057
0.0
-0.6589203765949905
-0.2983592792900695
0.0
-0.8945580568382924
-0.4283279172370364
0.0
-0.7335687789324726
-0.46486455198087345
0.0
-0.5507775479800098
-0.28622888197450247
0.0
-0.8106289073333082
-0.29045916827463475
0.0
-0.8387823700076129
-0.6019136681703157
0.0
-0.4949441211374945
-0.3885935010802377
0.0
-0.7733031950892711
-0.5414998950978641
0.0
-0.6514174410304965
-0.447887913079635
0.0
-0.781650516798724
-0.19418558985276238
0.0
-1.0353528400255947
-0.3824374767237393
0.0
-0.8471009531546229
-0.5823897359014633
0.0
-0.6471486939768996
-0.29864158389056517
0.0
-0.9308968459877975
-0.2785186792111593
0.0
-0.9510197506672002
-0.30927716258403287
0.0
-0.9202612672943256
0.0
-0.5428259411841385
-0.5118376036470276
-0.47193590833888943
-0.3682316520069708
-0.016489397162836893
-0.24914909053589906
0.0
-0.4377356170179943
-0.21421696858228337
0.0
-0.6091169251507143
-0.15655875908962297
0.0
-0.342877173785887
-0.1834829092614456
0.0
-0.4668057419084627
-0.24232256760884194
0.0
-0.5189910787700556
-0.09546690274283404
0.0
-0.4473100982606196
-0.22759592903231252
0.0
-0.5487711124413429
-0.22206815148646677
0.0
-0.47994143452610005
-0.46561322508118624
0.0
-0.42480743197280324
-0.16740058839568422
0.0
-0.3784780095490507
-0.21334215088862668
0.0
-0.4413044211229139
-0.2976691566538964
0.0
-0.4718001347436383
-0.1399720767253154
0.0
-0.5427594503603276
-0.38560674858666893
0.0
-0.390760292886985
-0.24815522613038377
0.0
-0.7426800733994928
-0.42200869697198157
0.0
-0.4684119600820071
-0.20279557282632102
0.0
-0.6101009397857218
-0.22777924037236918
0.0
-0.5416900510251648
-0.32547144146088275
0.0
-0.4679895163483786
-0.2188436222724356
0.0
-0.4680410852814575
-0.25450988807114794
0.0
-0.5389510697381119
-0.30493470976473763
0.0
-0.750543631977295
-0.27434511445977555
0.0
-0.6404343612820207
-0.20304601975389602
0.0
-0.6359771575842184
-0.2881440208597396
0.0
-0.49799220896640567
-0.33640752019814957
0.0
-0.6544277793317255
-0.18931796825467298
0.0
-0.5968182615714719
-0.2695519258177912
0.0
-0.8496022137703554
-0.3688147262449914
0.0
-0.7193187733843028
-0.43399304369623865
0.0
-0.5078858597244336
-0.2564088110625418
0.0
-0.7666857817050536
-0.26992593826007844
0.0
-0.7855524034819564
-0.5652744479201643
0.0
-0.4578201448474289
-0.3612521812213531
0.0
-0.7268813184079407
-0.5349078198566807
0.0
-0.5842463197314652
-0.4249522136429592
0.0
-0.7308230196951891
-0.19085945446617963
0.0
-0.9649157788719667
-0.3493379335515618
0.0
-0.806437299786584
-0.5114287075504415
0.0
-0.6443465257877022
-0.2640910080555793
0.0
-0.8916842252825627
-0.27435321106294125
0.0
-0.8814220222752023
-0.2849397712576033
0.0
-0.8708354620805409
0.0
-0.5100963746484761
-0.48240446887259375
-0.4396877665881136
-0.32130305834496226
-0.013169756869148628
-0.2064295667306772
0.0
-0.39014742038857714
-0.1792035176185866
0.0
-0.5538226556797794
-0.1332311474008487
0.0
-0.2913467464618872
-0.1613415890798599
0.0
-0.39863934165541015
-0.2298359182370454
0.0
-0.44117000770721
-0.08166505928105534
0.0
-0.37398443034941914
-0.18506737262368664
0.0
-0.5009919484153286
-0.18631488328675555
0.0
-0.4253869822911762
-0.41514782809667644
0.0
-0.3849651085226741
-0.13926356729037148
0.0
-0.31871850602384094
-0.18225901275011547
0.0
-0.38207983882678676
-0.26218851040791763
0.0
-0.41697306055498046
-0.12142931270781115
0.0
-0.4709944939431933
-0.35575884667321156
0.0
-0.3303004743658044
-0.22238792223931825
0.0
-0.6781396568559206
-0.40277734125181847
0.0
-0.3973355953675323
-0.1685341941961929
0.0
-0.5540545979812215
-0.19807318267844204
0.0
-0.4810883882844543
-0.2909369112035829
0.0
-0.4122163261710408
-0.1895716863896
0.0
-0.407005300729654
-0.2123935756059658
0.0
-0.49075966176865854
-0.28162735768077773
0.0
-0.6835432636266223
-0.240228257723301
0.0
-0.5842434975838688
-0.17069897948460802
0.0
-0.5780164774188723
-0.2623026596235516
0.0
-0.4335258497679555
-0.30144647145265646
0.0
-0.5990811076425895
-0.16665297662400763
0.0
-0.529175532767505
-0.23131550606272505
0.0
-0.7975309130907892
-0.3278178508977071
0.0
-0.670007928296952
-0.4026623579399293
0.0
-0.44890882504610347
-0.22048360958662636
0.0
-0.7123032627463358
-0.2331122484821167
0.0
-0.7320583728252833
-0.5233301517305443
0.0
-0.4094567206024177
-0.3198139995427331
0.0
-0.6780117796519233
-0.5051358343512926
0.0
-0.5237105848022163
-0.39201147427612804
0.0
-0.6734560386273811
-0.15324777209926885
0.0
-0.9122197408042455
-0.30769650451634345
0.0
-0.7577710083871657
-0.4729234348068625
0.0
-0.5925440780966496
-0.23024155313936515
0.0
-0.8352259597641438
-0.24766496149666703
0.0
-0.817802551406845
-0.2508564182476802
0.0
-0.8146110946558329
0.0
-0.47154414723857957
-0.4437542397483538
-0.40000998593965137
-0.2736265187386239
-0.009146533964186387
-0.25627203402993215
0.0
-0.485059003076553
-0.21894643795138
0.0
-0.6591774937939642
-0.15707319097850617
0.0
-0.3474217823423006
-0.20694978947520898
0.0
-0.489560447497737
-0.2784555221604962
0.0
-0.5376481622307441
-0.09602776441457124
0.0
-0.45103299522722606
-0.23029160272099472
0.0
-0.6008654767650015
-0.2325433268979666
0.0
-0.524256297126945
-0.47751421663399657
0.0
-0.46769647843233675
-0.16697568783416386
0.0
-0.38389415029042107
-0.23242874621848023
0.0
-0.4696986803694282
-0.3269774874052083
0.0
-0.49728184200467057
-0.14582339535201763
0.0
-0.5908788884884112
-0.42621301435035625
0.0
-0.40494406513564063
-0.268648342742725
0.0
-0.776976994799502
-0.4612016489052709
0.0
-0.484009046161063
-0.20607745951006634
0.0
-0.6616090911143309
-0.25021628304837823
0.0
-0.5740430463614993
-0.35846871561696453
0.0
-0.48978228020464154
-0.22795659452759182
0.0
-0.5133744425788939
-0.2662073409746835
0.0
-0.5820436548469251
-0.30911959697325725
0.0
-0.8011487827811222
-0.309001844288295
0.0
-0.6605676694658472
-0.20846032409471685
0.0
-0.6853528912557504
-0.32343880104044753
0.0
-0.5174874667980425
-0.36596512622240185
0.0
-0.6796602113198226
-0.19890404819461344
0.0
-0.6420222196438777
-0.29718035717637226
0.0
-0.8767638204241225
-0.4107084749028247
0.0
-0.7322150627388182
-0.4458099180419289
0.0
-0.550859023391087
-0.2817880961635096
0.0
-0.7960965346164367
-0.2904454141872188
0.0
-0.8198229655671644
-0.5855596407508147
0.0
-0.49232499002912655
-0.3852400927332366
0.0
-0.7576834449084062
-0.5367606848088741
0.0
-0.6371834927916212
-0.4308774649948702
0.0
-0.7796878063556232
-0.19631400171357163
0.0
-1.0142512696369268
-0.3712786630440777
0.0
-0.8392866083064137
-0.5560189949748523
0.0
-0.6545462763756431
-0.2978202245634333
0.0
-0.9127450467870586
-0.28090782895626115
0.0
-0.9296574423942354
-0.3103195712271568
0.0
-0.9002457001233355
0.0
-0.5346048509392413
-0.5046665035950717
-0.4642549021022295
-0.3550582243794884
-0.015471137729466292
-0.24496959323632184
0.0
-0.4669703705124694
-0.21156913488485884
0.0
-0.6809690586680102
-0.14914876133411253
0.0
-0.3282806048814093
-0.1957378720283715
0.0
-0.4642513935985334
-0.30270992825926024
0.0
-0.5138401698755349
-0.08942376422214199
0.0
-0.4288804156545617
-0.21966500518508086
0.0
-0.6190561850483749
-0.22122349094703456
0.0
-0.514350224136681
-0.5151800616488443
0.0
-0.4444448952250166
-0.15778351697580972
0.0
-0.36426659508698994
-0.2166824488831777
0.0
-0.44910725237932203
-0.32645571532936246
0.0
-0.5016450427405176
-0.13679989039102727
0.0
-0.5690821934383726
-0.4548102096823849
0.0
-0.3839109805510722
-0.2727283277042854
0.0
-0.787311271645463
-0.49756690004989446
0.0
-0.4620580568239667
-0.19867801713481892
0.0
-0.6834227952970959
-0.23630886154283715
0.0
-0.5917918965270385
-0.3639184955018599
0.0
-0.4974409855390683
-0.22052093645818036
0.0
-0.49141902729061254
-0.2532243872168901
0.0
-0.6081350938240354
-0.32741571483569004
0.0
-0.7972669267262076
-0.29436890294110585
0.0
-0.6896148726205604
-0.1993751010877356
0.0
-0.7088523760702493
-0.3258607661702773
0.0
-0.525833040305595
-0.3771992561530568
0.0
-0.6828403431966885
-0.1962750054706557
0.0
-0.6554188010052119
-0.285347185075752
0.0
-0.9030112543322653
-0.41657018622987224
0.0
-0.7407676132192929
-0.47817436131501584
0.0
-0.532908841925524
-0.2764220711675455
0.0
-0.8158768214199265
-0.28228844790581215
0.0
-0.8423941936560906
-0.6151199817131608
0.0
-0.4771789108743025
-0.39218656438962923
0.0
-0.7651512350595303
-0.5546048469599578
0.0
-0.6337535924480566
-0.46242815229469947
0.0
-0.7625513808633134
-0.18788831097463085
0.0
-1.0370912221833903
-0.3713082052967132
0.0
-0.8536713278613014
-0.5858979919219476
0.0
-0.6390815412360669
-0.28486120947173027
0.0
-0.9401183236862869
-0.27313684460348736
0.0
-0.9518426885545288
-0.31873586752873057
0.0
-0.906243665629283
0.0
-0.5411759507941307
-0.5096289329969311
-0.47127595610880335
-0.37481538412095045
-0.015352582596086059
-0.2064295667306772
0.0
-0.39014742038857714
-0.1792035176185866
0.0
-0.5538226556797794
-0.1332311474008487
0.0
-0.2913467464618872
-0.1613415890798599
0.0
-0.39863934165541015
-0.2298359182370454
0.0
-0.44117000770721
-0.08166505928105534
0.0
-0.37398443034941914
-0.18506737262368664
0.0
-0.5009919484153286
-0.18631488328675555
0.0
-0.4253869822911762
-0.41514782809667644
0.0
-0.3849651085226741
-0.13926356729037148
0.0
-0.31871850602384094
-0.18225901275011547
0.0
-0.38207983882678676
-0.26218851040791763
0.0
-0.41697306055498046
-0.12142931270781115
0.0
-0.4709944939431933
-0.35575884667321156
0.0
-0.3303004743658044
-0.22238792223931825
0.0
-0.6781396568559206
-0.40277734125181847
0.0
-0.3973355953675323
-0.1685341941961929
0.0
-0.5540545979812215
-0.19807318267844204
0.0
-0.4810883882844543
-0.2909369112035829
0.0
-0.4122163261710408
-0.1895716863896
0.0
-0.407005300729654
-0.2123935756059658
0.0
-0.49075966176865854
-0.28162735768077773
0.0
-0.6835432636266223
-0.240228257723301
0.0
-0.5842434975838688
-0.17069897948460802
0.0
-0.5780164774188723
-0.2623026596235516
0.0
-0.4335258497679555
-0.30144647145265646
0.0
-0.5990811076425895
-0.16665297662400763
0.0
-0.529175532767505
-0.23131550606272505
0.0
-0.7975309130907892
-0.3278178508977071
0.0
-0.670007928296952
-0.4026623579399293
0.0
-0.44890882504610347
-0.22048360958662636
0.0
-0.7123032627463358
-0.2331122484821167
0.0
-0.7320583728252833
-0.5233301517305443
0.0
-0.4094567206024177
-0.3198139995427331
0.0
-0.6780117796519233
-0.5051358343512926
0.0
-0.5237105848022163
-0.39201147427612804
0.0
-0.6734560386273811
-0.15324777209926885
0.0
-0.9122197408042455
-0.30769650451634345
0.0
-0.7577710083871657
-0.4729234348068625
0.0
-0.5925440780966496
-0.23024155313936515
0.0
-0.8352259597641438
-0.24766496149666703
0.0
-0.817802551406845
-0.2508564182476802
0.0
-0.8146110946558329
0.0
-0.47154414723857957
-0.4437542397483538
-0.40000998593965137
-0.2736265187386239
-0.009146533964186387
-0.24789220269919843
0.0
-0.45288482338698843
-0.2068305324120754
0.0
-0.6700598879491524
-0.1514365151543494
0.0
-0.33495141525580735
-0.19016025922468147
0.0
-0.47107190408697375
-0.2621729438259501
0.0
-0.5186299174584321
-0.09453834260027458
0.0
-0.4337201036278064
-0.2219043980364245
0.0
-0.5793101280650798
-0.22527116816690973
0.0
-0.49260220605411625
-0.49423019355542047
0.0
-0.4592788501987719
-0.1601308669050015
0.0
-0.37217208749776026
-0.226805582061195
0.0
-0.43910806644499917
-0.3023900892738755
0.0
-0.48831147626945015
-0.1417861677703838
0.0
-0.5545436660349526
-0.40854796160992224
0.0
-0.3926665644915792
-0.25128175327779917
0.0
-0.8026419329522841
-0.48634319241064794
0.0
-0.46716585134354516
-0.19685948736112813
0.0
-0.6632286202875793
-0.24034130299644577
0.0
-0.5503602625468785
-0.33788362160779917
0.0
-0.4888235998697895
-0.2158433836632435
0.0
-0.48493364242294323
-0.25916376573936345
0.0
-0.5675434557382264
-0.3477819346868762
0.0
-0.770784793755366
-0.2986760353590295
0.0
-0.6791918270829748
-0.20486442931230303
0.0
-0.6941516296613223
-0.30743938091422673
0.0
-0.507032642207773
-0.3680084095388942
0.0
-0.6859152766911935
-0.1909501117023476
0.0
-0.6235219114196561
-0.28879416340780684
0.0
-0.8934483628805469
-0.39333627172801044
0.0
-0.757885614601493
-0.4756145587577362
0.0
-0.5293527313631399
-0.2694925781098301
0.0
-0.8166904013579757
-0.27709363124296893
0.0
-0.8414730971992695
-0.6079119416114
0.0
-0.47827103785640235
-0.37826527613927774
0.0
-0.7729566101902272
-0.5550241711334359
0.0
-0.6272183551549191
-0.46718818992867106
0.0
-0.7516754301096824
-0.19042056163812662
0.0
-1.0284430584002262
-0.3619459346432926
0.0
-0.8569176853950621
-0.562633570237649
0.0
-0.6562300498007062
-0.28519637408180376
0.0
-0.9336672459565497
-0.27607697516547075
0.0
-0.9427866448728837
-0.3345129492938649
0.0
-0.884350670744491
0.0
-0.5374340267870501
-0.5096164067519509
-0.47016956557520523
-0.37127545605834444
-0.015743099623616277
-0.23531472336837775
0.0
-0.43292631512049895
-0.21447697307698757
0.0
-0.5902132515909935
-0.15419731794461491
0.0
-0.34204462728774165
-0.17904546740462876
0.0
-0.4525995147002652
-0.24327057623243284
0.0
-0.4993994010814431
-0.09660670944958302
0.0
-0.4307068315505167
-0.2088695409133339
0.0
-0.548853831495305
-0.2085006892591838
0.0
-0.47486522768837075
-0.44666485195623
0.0
-0.425112136032745
-0.16397289930870612
0.0
-0.3656732253751284
-0.19786701706300938
0.0
-0.43813588588351476
-0.289146820168509
0.0
-0.4616788021640128
-0.14138743483436347
0.0
-0.5227004231862633
-0.3854638301350348
0.0
-0.3722595422736044
-0.24172791886786296
0.0
-0.7304637115969975
-0.4226747978529601
0.0
-0.4491021901360149
-0.1971073580326441
0.0
-0.5971454855143857
-0.2213203814129236
0.0
-0.5295052409195943
-0.3202388753696522
0.0
-0.4545784133745952
-0.21683466851237498
0.0
-0.451406369976505
-0.2374428849555118
0.0
-0.5373744037887364
-0.3051000649257924
0.0
-0.7317346077512252
-0.269364749113897
0.0
-0.6267710575628792
-0.19606703932910624
0.0
-0.6243124689439942
-0.2819556892473095
0.0
-0.4855368715138218
-0.3269451860012491
0.0
-0.6452464444636126
-0.19124701629298144
0.0
-0.5762455444681468
-0.2597354150277361
0.0
-0.8407750554953948
-0.35688689464138346
0.0
-0.7126029359228989
-0.4258861452873655
0.0
-0.4973490890682913
-0.24737216269452583
0.0
-0.7570787610080527
-0.26363820474019556
0.0
-0.7731964679368205
-0.5554131267375277
0.0
-0.44903779696505314
-0.3492159760266028
0.0
-0.7202738545376786
-0.5271305033786517
0.0
-0.5733799671444784
-0.41938162464620965
0.0
-0.7177499396269185
-0.1819961967655934
0.0
-0.9551353675075412
-0.3355665004550808
0.0
-0.8015650638180505
-0.49526208563911817
0.0
-0.6418694786340092
-0.2579679643224201
0.0
-0.8791635999507079
-0.27290738427878053
0.0
-0.8642241799943479
-0.281602424140157
0.0
-0.8555291401329738
0.0
-0.5027565035974265
-0.4744865902005089
-0.43145859658864083
-0.3091528573425173
-0.011750078523404034
-0.2064295667306772
0.0
-0.39014742038857714
-0.1792035176185866
0.0
-0.5538226556797794
-0.1332311474008487
0.0
-0.2913467464618872
-0.1613415890798599
0.0
-0.39863934165541015
-0.2298359182370454
0.0
-0.44117000770721
-0.08166505928105534
0.0
-0.37398443034941914
-0.18506737262368664
0.0
-0.5009919484153286
-0.18631488328675555
0.0
-0.4253869822911762
-0.41514782809667644
0.0
-0.3849651085226741
-0.13926356729037148
0.0
-0.31871850602384094
-0.18225901275011547
0.0
-0.38207983882678676
-0.26218851040791763
0.0
-0.41697306055498046
-0.12142931270781115
0.0
-0.4709944939431933
-0.35575884667321156
0.0
-0.3303004743658044
-0.22238792223931825
0.0
-0.6781396568559206
-0.40277734125181847
0.0
-0.3973355953675323
-0.1685341941961929
0.0
-0.5540545979812215
-0.19807318267844204
0.0
-0.4810883882844543
-0.2909369112035829
0.0
-0.4122163261710408
-0.1895716863896
0.0
-0.407005300729654
-0.2123935756059658
0.0
-0.49075966176865854
-0.28162735768077773
0.0
-0.6835432636266223
-0.240228257723301
0.0
-0.5842434975838688
-0.17069897948460802
0.0
-0.5780164774188723
-0.2623026596235516
0.0
-0.4335258497679555
-0.30144647145265646
0.0
-0.5990811076425895
-0.16665297662400763
0.0
-0.529175532767505
-0.23131550606272505
0.0
-0.7975309130907892
-0.3278178508977071
0.0
-0.670007928296952
-0.4026623579399293
0.0
-0.44890882504610347
-0.22048360958662636
0.0
-0.7123032627463358
-0.2331122484821167
0.0
-0.7320583728252833
-0.5233301517305443
0.0
-0.4094567206024177
-0.3198139995427331
0.0
-0.6780117796519233
-0.5051358343512926
0.0
-0.5237105848022163
-0.39201147427612804
0.0
-0.6734560386273811
-0.15324777209926885
0.0
-0.9122197408042455
-0.30769650451634345
0.0
-0.7577710083871657
-0.4729234348068625
0.0
-0.5925440780966496
-0.23024155313936515
0.0
-0.8352259597641438
-0.24766496149666703
0.0
-0.817802551406845
-0.2508564182476802
0.0
-0.8146110946558329
0.0
-0.47154414723857957
-0.4437542397483538
-0.40000998593965137
-0.2736265187386239
-0.009146533964186387
-0.2538551603999671
0.0
-0.4610354036622622
-0.22934207878274226
0.0
-0.6219976714585916
-0.1697538215391577
0.0
-0.36770053235726147
-0.19196921554220792
0.0
-0.4863252921360367
-0.24991372971356884
0.0
-0.5394057731736602
-0.1029959729143668
0.0
-0.4709670936590821
-0.22956993441275414
0.0
-0.5748029635692317
-0.224687143271108
0.0
-0.5053282992497959
-0.4717460803558104
0.0
-0.4466804332065152
-0.177327779072306
0.0
-0.3989678711848783
-0.2113809891004039
0.0
-0.4712714394194728
-0.31132735507969334
0.0
-0.48614779282617765
-0.15464682595987683
0.0
-0.5560905576340999
-0.3987258458504791
0.0
-0.4056470521315103
-0.25923399418274284
0.0
-0.7596071618554648
-0.43566596189701806
0.0
-0.4827605516653067
-0.21441606158624146
0.0
-0.6264863075341406
-0.23674716523178221
0.0
-0.5607279826740857
-0.33645950709194894
0.0
-0.4850073072256486
-0.23281720348411702
0.0
-0.48207336057811273
-0.25988857187619435
0.0
-0.5615782424414029
-0.31832044347697447
0.0
-0.765163754773397
-0.2842547631149423
0.0
-0.6585305691351924
-0.21082964169042795
0.0
-0.656199392156022
-0.296128067847589
0.0
-0.5180140184868942
-0.3463846850855868
0.0
-0.6724564709526251
-0.20407619042940378
0.0
-0.6100658959050758
-0.27645374718571153
0.0
-0.8707062489107676
-0.37651174185689296
0.0
-0.7396276142807376
-0.4443612098697638
0.0
-0.5255235500592453
-0.2637612895966041
0.0
-0.7873391596793304
-0.2806830230382862
0.0
-0.8028011752120829
-0.5756436881044921
0.0
-0.4754567611714417
-0.3699849070248165
0.0
-0.7461544491128151
-0.544233804837792
0.0
-0.6029261912586878
-0.4367649512027991
0.0
-0.7470161386436835
-0.1983506546543735
0.0
-0.985430435192107
-0.35616123454404625
0.0
-0.8276198553024362
-0.5145678056140869
0.0
-0.6692132842323962
-0.27567299661974604
0.0
-0.9081080932267367
-0.2861470519590085
0.0
-0.8976340378874753
-0.29667803423687067
0.0
-0.887103055609613
0.0
-0.5227052593592941
-0.49414972896578263
-0.450868538169664
-0.33085703938969563
-0.012966304205690896
-0.24714961705067298
0.0
-0.43775075498790295
-0.20711953034155867
0.0
-0.6142300278761248
-0.15102709469816783
0.0
-0.33584811093058275
-0.18415563549732955
0.0
-0.4641486801572619
-0.24082803740029243
0.0
-0.5185012734632873
-0.09182448991345724
0.0
-0.4415348732535014
-0.23226246046759055
0.0
-0.5421202454907468
-0.22538356706162357
0.0
-0.4746416834356266
-0.46465617438469464
0.0
-0.4237801471539769
-0.16492201236293516
0.0
-0.3720272966879798
-0.22325770669546585
0.0
-0.4294045298007562
-0.29284345993314603
0.0
-0.4746414959490711
-0.1346716119936565
0.0
-0.5460755795766655
-0.3811065433901528
0.0
-0.39327616256818265
-0.24715908554254787
0.0
-0.7416918784720139
-0.4181429711728462
0.0
-0.47029335036582565
-0.19796631686133734
0.0
-0.6129458602353937
-0.23269009480664563
0.0
-0.5347948610755747
-0.3280575959388314
0.0
-0.46341902635511334
-0.21715931818882714
0.0
-0.46774105384974884
-0.2598098540603979
0.0
-0.531666768233544
-0.2994756985966833
0.0
-0.75401830763003
-0.27763952694857486
0.0
-0.6351556132779075
-0.20039427900678083
0.0
-0.6366445628160196
-0.28996417752075526
0.0
-0.49418771679007356
-0.33899593419225227
0.0
-0.6498550298223075
-0.183833722451701
0.0
-0.6003181718591263
-0.27215112658110974
0.0
-0.8450186774917237
-0.3734903574157707
0.0
-0.7126588066982096
-0.43036077861942634
0.0
-0.5095337892859284
-0.2563174768606782
0.0
-0.7647927803915996
-0.2684966577102232
0.0
-0.7849973485164952
-0.5640280409849613
0.0
-0.45708221626731643
-0.36235772271177613
0.0
-0.7237914414022035
-0.5327199135813029
0.0
-0.5844498904915243
-0.4210575278702435
0.0
-0.7327333699525883
-0.18939948383018887
0.0
-0.9643914139926445
-0.3532491296300772
0.0
-0.8005417681927537
-0.5187984319140716
0.0
-0.6349924659087579
-0.26502508486714893
0.0
-0.8887658129556835
-0.2706719968019201
0.0
-0.8831189010209104
-0.28240365912565096
0.0
-0.8713872386971794
0.0
-0.5091982418117778
-0.4817769377958376
-0.43965784480203446
-0.3236489876061958
-0.013629995634943994
-0.2064295667306772
0.0
-0.39014742038857714
-0.1792035176185866
0.0
-0.5538226556797794
-0.1332311474008487
0.0
-0.2913467464618872
-0.1613415890798599
0.0
-0.39863934165541015
-0.2298359182370454
0.0
-0.44117000770721
-0.08166505928105534
0.0
-0.37398443034941914
-0.18506737262368664
0.0
-0.5009919484153286
-0.18631488328675555
0.0
-0.4253869822911762
-0.41514782809667644
0.0
-0.3849651085226741
-0.13926356729037148
0.0
-0.31871850602384094
-0.18225901275011547
0.0
-0.38207983882678676
-0.26218851040791763
0.0
-0.41697306055498046
-0.12142931270781115
0.0
-0.4709944939431933
-0.35575884667321156
0.0
-0.3303004743658044
-0.22238792223931825
0.0
-0.6781396568559206
-0.40277734125181847
0.0
-0.3973355953675323
-0.1685341941961929
0.0
-0.5540545979812215
-0.19807318267844204
0.0
-0.4810883882844543
-0.2909369112035829
0.0
-0.4122163261710408
-0.1895716863896
0.0
-0.407005300729654
-0.2123935756059658
0.0
-0.49075966176865854
-0.28162735768077773
0.0
-0.6835432636266223
-0.240228257723301
0.0
-0.5842434975838688
-0.17069897948460802
0.0
-0.5780164774188723
-0.2623026596235516
0.0
-0.4335258497679555
-0.30144647145265646
0.0
-0.5990811076425895
-0.16665297662400763
0.0
-0.529175532767505
-0.23131550606272505
0.0
-0.7975309130907892
-0.3278178508977071
0.0
-0.670007928296952
-0.4026623579399293
0.0
-0.44890882504610347
-0.22048360958662636
0.0
-0.7123032627463358
-0.2331122484821167
0.0
-0.7320583728252833
-0.5233301517305443
0.0
-0.4094567206024177
-0.3198139995427331
0.0
-0.6780117796519233
-0.5051358343512926
0.0
-0.5237105848022163
-0.39201147427612804
0.0
-0.6734560386273811
-0.15324777209926885
0.0
-0.9122197408042455
-0.30769650451634345
0.0
-0.7577710083871657
-0.4729234348068625
0.0
-0.5925440780966496
-0.23024155313936515
0.0
-0.8352259597641438
-0.24766496149666703
0.0
-0.817802551406845
-0.2508564182476802
0.0
-0.8146110946558329
0.0
-0.47154414723857957
-0.4437542397483538
-0.40000998593965137
-0.2736265187386239
-0.009146533964186387
-0.2593375695674369
0.0
-0.47207996274754316
-0.22923590456721224
0.0
-0.6386308139268762
-0.16567673675019307
0.0
-0.3608565792598337
-0.19958717154520128
0.0
-0.495234304385792
-0.26215862897576026
0.0
-0.5436878421642204
-0.10146041839609174
0.0
-0.4628594046526035
-0.2265674724222948
0.0
-0.5943323938124483
-0.22979912947539613
0.0
-0.5167432812982548
-0.4691104182487904
0.0
-0.465843063566286
-0.17325244596918263
0.0
-0.39423645405941177
-0.22212756618624716
0.0
-0.47705183058637896
-0.3171130487851913
0.0
-0.4968890673734296
-0.15288783938651307
0.0
-0.5743765124602164
-0.4152143802922033
0.0
-0.4056854859425359
-0.2579059673460537
0.0
-0.7774621569449198
-0.45060545849851186
0.0
-0.4843480233165641
-0.21262939361231145
0.0
-0.6447999437608286
-0.24633898324513953
0.0
-0.5676631329134825
-0.34661155247063724
0.0
-0.4913822300997113
-0.22849468489245847
0.0
-0.5029228474225209
-0.2627361333129953
0.0
-0.575257649257357
-0.3163275776198839
0.0
-0.7836835888832441
-0.3041608768428504
0.0
-0.6551514236600405
-0.2127412488065629
0.0
-0.6708147532926487
-0.3120984298789571
0.0
-0.5185706247082754
-0.3600542503958985
0.0
-0.6753138738950714
-0.20236180524685515
0.0
-0.6283072493403826
-0.29288873410573785
0.0
-0.8707982302435037
-0.39484544734481036
0.0
-0.7378208770455807
-0.44201731067857547
0.0
-0.5443944175031813
-0.2721710456324613
0.0
-0.7954563718962325
-0.28521341159643
0.0
-0.8147977549066995
-0.5765557226402006
0.0
-0.49107169488848706
-0.3767305509641431
0.0
-0.7559357734262442
-0.5403998322478484
0.0
-0.6232871321013926
-0.4344240417109693
0.0
-0.7658840163882707
-0.19833881658279043
0.0
-1.0019692415164516
-0.36422790375098424
0.0
-0.836080154348255
-0.53262432494788
0.0
-0.6676837331513615
-0.29385899955042105
0.0
-0.9064490585488192
-0.28617443066573683
0.0
-0.9141336274335035
-0.30865689123618445
0.0
-0.8916511668630592
0.0
-0.5300422838659068
-0.5006171212973448
-0.45870813926409504
-0.3450514392740138
-0.014616591180908642
-0.24341218106399784
0.0
-0.46897008082104674
-0.20743980777410256
0.0
-0.6413916402900508
-0.15243259441096485
0.0
-0.33314238187872947
-0.20149462109216662
0.0
-0.46776271997068286
-0.2717784382200471
0.0
-0.515032762489997
-0.09213886471993814
0.0
-0.43371527680712635
-0.22113122536403668
0.0
-0.5807333704407749
-0.22065794405025316
0.0
-0.5068491962934674
-0.46357245957158866
0.0
-0.4523457518135527
-0.15985909881365234
0.0
-0.369448730317807
-0.22071145924961302
0.0
-0.45405388210023434
-0.3173780388073632
0.0
-0.47758880692132305
-0.1410850032254852
0.0
-0.5669548556381647
-0.413231375059101
0.0
-0.38863322074570356
-0.2616608774506471
0.0
-0.7546719764103862
-0.45288309188830583
0.0
-0.4630351194968355
-0.19659974658352336
0.0
-0.6417943203596811
-0.23857421786248453
0.0
-0.5563926278662018
-0.3429632592499707
0.0
-0.47599525289044303
-0.21954554502661258
0.0
-0.4928367168584331
-0.2541408209194687
0.0
-0.5648176912209488
-0.30228918983495706
0.0
-0.7786867062382355
-0.29549859668442297
0.0
-0.6447784333885324
-0.19873556335188544
0.0
-0.6657851683173889
-0.3131005274118207
0.0
-0.49853325674547694
-0.35453852290628396
0.0
-0.6617943309547515
-0.1909634266035055
0.0
-0.6206703575537978
-0.2820717408220066
0.0
-0.8625799530972963
-0.39544116565159143
0.0
-0.7181898883088603
-0.4374796587359204
0.0
-0.5298967990159044
-0.2702584768145514
0.0
-0.7783336702842016
-0.27825964144409154
0.0
-0.8027162546290982
-0.5728974016540332
0.0
-0.4756947454447171
-0.3727894673221927
0.0
-0.7408415866382607
-0.530544874366405
0.0
-0.6141068195528965
-0.4223347883493311
0.0
-0.758937999319973
-0.18676205089087664
0.0
-0.9945107367784268
-0.35629077363443534
0.0
-0.8249820140348675
-0.5416134073610593
0.0
-0.6396593803082452
-0.28535914792789796
0.0
-0.895913639741406
-0.2731160840344584
0.0
-0.9081567036348468
-0.30054428825592955
0.0
-0.8807284994133736
0.0
-0.5221324757969011
-0.4922149967170511
-0.4516262139152075
-0.33994791845524924
-0.01412766702775885
-0.2064295667306772
0.0
-0.39014742038857714
-0.1792035176185866
0.0
-0.5538226556797794
-0.1332311474008487
0.0
-0.2913467464618872
-0.1613415890798599
0.0
-0.39863934165541015
-0.2298359182370454
0.0
-0.44117000770721
-0.08166505928105534
0.0
-0.37398443034941914
-0.18506737262368664
0.0
-0.5009919484153286
-0.18631488328675555
0.0
-0.4253869822911762
-0.41514782809667644
0.0
-0.3849651085226741
-0.13926356729037148
0.0
-0.31871850602384094
-0.18225901275011547
0.0
-0.38207983882678676
-0.26218851040791763
0.0
-0.41697306055498046
-0.12142931270781115
0.0
-0.4709944939431933
-0.35575884667321156
0.0
-0.3303004743658044
-0.22238792223931825
0.0
-0.6781396568559206
-0.40277734125181847
0.0
-0.3973355953675323
-0.1685341941961929
0.0
-0.5540545979812215
-0.19807318267844204
0.0
-0.4810883882844543
-0.2909369112035829
0.0
-0.4122163261710408
-0.1895716863896
0.0
-0.407005300729654
-0.2123935756059658
0.0
-0.49075966176865854
-0.28162735768077773
0.0
-0.6835432636266223
-0.240228257723301
0.0
-0.5842434975838688
-0.17069897948460802
0.0
-0.5780164774188723
-0.2623026596235516
0.0
-0.4335258497679555
-0.30144647145265646
0.0
-0.5990811076425895
-0.16665297662400763
0.0
-0.529175532767505
-0.23131550606272505
0.0
-0.7975309130907892
-0.3278178508977071
0.0
-0.670007928296952
-0.4026623579399293
0.0
-0.44890882504610347
-0.22048360958662636
0.0
-0.7123032627463358
-0.2331122484821167
0.0
-0.7320583728252833
-0.5233301517305443
0.0
-0.4094567206024177
-0.3198139995427331
0.0
-0.6780117796519233
-0.5051358343512926
0.0
-0.5237105848022163
-0.39201147427612804
0.0
-0.6734560386273811
-0.15324777209926885
0.0
-0.9122197408042455
-0.30769650451634345
0.0
-0.7577710083871657
-0.4729234348068625
0.0
-0.5925440780966496
-0.23024155313936515
0.0
-0.8352259597641438
-0.24766496149666703
0.0
-0.817802551406845
-0.2508564182476802
0.0
-0.8146110946558329
0.0
-0.47154414723857957
-0.4437542397483538
-0.40000998593965137
-0.2736265187386239
-0.009146533964186387
-0.25736786152446106
0.0
-0.46586156735979334
-0.2196169362290453
0.0
-0.6598118784233993
-0.15532752610541173
0.0
-0.3452983778289472
-0.193323402432639
0.0
-0.48249280817562085
-0.28315628272824234
0.0
-0.534252284570093
-0.09568009980873496
0.0
-0.44986621402307875
-0.23127338428552366
0.0
-0.6011885781075733
-0.23241781496715164
0.0
-0.5133052495879307
-0.4985884366267669
0.0
-0.44792714134666345
-0.16677594202443077
0.0
-0.38268644747794184
-0.22672431141497926
0.0
-0.45424991446134083
-0.3217637267065634
0.0
-0.503800485610412
-0.14226566132411472
0.0
-0.575134460182158
-0.43106320298292067
0.0
-0.40139875941017383
-0.2687180717540099
0.0
-0.7782121486953106
-0.4657045572230893
0.0
-0.4808110207503415
-0.20703308510898935
0.0
-0.6619583484225015
-0.24191390872543317
0.0
-0.5836503035915446
-0.36122428575340654
0.0
-0.48833159297529655
-0.226399389112492
0.0
-0.4968300397717646
-0.26431148184588465
0.0
-0.5852443968828188
-0.31319032891441273
0.0
-0.7983829337470671
-0.2964336926256414
0.0
-0.674440704035602
-0.20910127986121915
0.0
-0.686016818396344
-0.3121371748380887
0.0
-0.5300939759074972
-0.35993316187347557
0.0
-0.6869970585758494
-0.20033071167038713
0.0
-0.6419004390752072
-0.2907743589819506
0.0
-0.8844747015256406
-0.41127049870573196
0.0
-0.7329579218430091
-0.46004421879017987
0.0
-0.5379296055499327
-0.27740096220353433
0.0
-0.8017885514835071
-0.2854268474359494
0.0
-0.8261464152255299
-0.5966002887623516
0.0
-0.4825892249246918
-0.37945241785338396
0.0
-0.7647760026953565
-0.5419581825132791
0.0
-0.6332908779943128
-0.4488570553471329
0.0
-0.7630130989104604
-0.19708010955445313
0.0
-1.0147900447031397
-0.37711124871760526
0.0
-0.8347589055399841
-0.560996913699695
0.0
-0.6508732405578994
-0.2849971566825662
0.0
-0.9268729975750238
-0.2797629017756177
0.0
-0.9321072524819782
-0.30155423757976346
0.0
-0.9103159166778265
0.0
-0.5352403318824888
-0.5049885832819037
-0.46399254826782727
-0.356861557888385
-0.01566626872108493
-0.22643890083379814
0.0
-0.43240063347107904
-0.19960809949437114
0.0
-0.5956806209896159
-0.15188307550192956
0.0
-0.3349573655464252
-0.17793933544026008
0.0
-0.4443041424806321
-0.24401844889924318
0.0
-0.4892500242306355
-0.0963067726732162
0.0
-0.4216052641428817
-0.20417669378742084
0.0
-0.5441451744372182
-0.20479547743690932
0.0
-0.4691689353266415
-0.4347466983654742
0.0
-0.4276287854395013
-0.15713366411605978
0.0
-0.3631109563837721
-0.19863680607209905
0.0
-0.42796459269042414
-0.28810636730683026
0.0
-0.4533177508416892
-0.1458149941190641
0.0
-0.5088713597175594
-0.3771937970545758
0.0
-0.3711280711700621
-0.24208093820991933
0.0
-0.7207091880709421
-0.4260870471548337
0.0
-0.43628843665014055
-0.1901979029053679
0.0
-0.5946534364576682
-0.21970418670717326
0.0
-0.5217199314413451
-0.30977301015285374
0.0
-0.4556427744073931
-0.212729102951287
0.0
-0.446110431353591
-0.23657540623211143
0.0
-0.5288403783281354
-0.30457003185735054
0.0
-0.7228631366356714
-0.265504257605786
0.0
-0.6212300448869962
-0.19298042727008408
0.0
-0.6179975768190207
-0.2798772130969353
0.0
-0.47821384348019513
-0.325127404144155
0.0
-0.6376627221367116
-0.19187663723584422
0.0
-0.5662144193412864
-0.2543821896565395
0.0
-0.836726776682592
-0.35199005506469955
0.0
-0.7080982713155813
-0.4227292368515713
0.0
-0.49110449332008527
-0.2440270334086595
0.0
-0.7510223861099276
-0.2588544109574563
0.0
-0.7685787575355632
-0.5465229657622825
0.0
-0.4485264537563028
-0.3447458599274692
0.0
-0.7153424664528122
-0.5248988994583822
0.0
-0.5662100668807525
-0.41308853092188397
0.0
-0.7146415291672497
-0.1760450652535925
0.0
-0.9516849948355393
-0.3317480179038358
0.0
-0.795982042185297
-0.49263678963153495
0.0
-0.6350932704576001
-0.25565586411704294
0.0
-0.8720741959720879
-0.27064551215690236
0.0
-0.8570845479322284
-0.2743470445817402
0.0
-0.8533830155073922
0.0
-0.49868118290343966
-0.4702262702621995
-0.4263985467198858
-0.3014739690383636
-0.011327095148799532
-0.2064295667306772
0.0
-0.39014742038857714
-0.1792035176185866
0.0
-0.5538226556797794
-0.1332311474008487
0.0
-0.2913467464618872
-0.1613415890798599
0.0
-0.39863934165541015
-0.2298359182370454
0.0
-0.44117000770721
-0.08166505928105534
0.0
-0.37398443034941914
-0.18506737262368664
0.0
-0.5009919484153286
-0.18631488328675555
0.0
-0.4253869822911762
-0.41514782809667644
0.0
-0.3849651085226741
-0.13926356729037148
0.0
-0.31871850602384094
-0.18225901275011547
0.0
-0.38207983882678676
-0.26218851040791763
0.0
-0.41697306055498046
-0.12142931270781115
0.0
-0.4709944939431933
-0.35575884667321156
0.0
-0.3303004743658044
-0.22238792223931825
0.0
-0.6781396568559206
-0.40277734125181847
0.0
-0.3973355953675323
-0.1685341941961929
0.0
-0.5540545979812215
-0.19807318267844204
0.0
-0.4810883882844543
-0.2909369112035829
0.0
-0.4122163261710408
-0.1895716863896
0.0
-0.407005300729654
-0.2123935756059658
0.0
-0.49075966176865854
-0.28162735768077773
0.0
-0.6835432636266223
-0.240228257723301
0.0
-0.5842434975838688
-0.17069897948460802
0.0
-0.5780164774188723
-0.2623026596235516
0.0
-0.4335258497679555
-0.30144647145265646
0.0
-0.5990811076425895
-0.16665297662400763
0.0
-0.529175532767505
-0.23131550606272505
0.0
-0.7975309130907892
-0.3278178508977071
0.0
-0.670007928296952
-0.4026623579399293
0.0
-0.44890882504610347
-0.22048360958662636
0.0
-0.7123032627463358
-0.2331122484821167
0.0
-0.7320583728252833
-0.5233301517305443
0.0
-0.4094567206024177
-0.3198139995427331
0.0
-0.6780117796519233
-0.5051358343512926
0.0
-0.5237105848022163
-0.39201147427612804
0.0
-0.6734560386273811
-0.15324777209926885
0.0
-0.9122197408042455
-0.30769650451634345
0.0
-0.7577710083871657
-0.4729234348068625
0.0
-0.5925440780966496
-0.23024155313936515
0.0
-0.8352259597641438
-0.24766496149666703
0.0
-0.817802551406845
-0.2508564182476802
0.0
-0.8146110946558329
0.0
-0.47154414723857957
-0.4437542397483538
-0.40000998593965137
-0.2736265187386239
-0.009146533964186387
-0.2675405731544139
0.0
-0.482276309769874
-0.22531860839847384
0.0
-0.6609474607049179
-0.1601944941353784
0.0
-0.3531077703104357
-0.2084122144217347
0.0
-0.5016963176455076
-0.2700639217336571
0.0
-0.5541819000156281
-0.09646100468914749
0.0
-0.4657913328542142
-0.24273832586603714
0.0
-0.5965608909780115
-0.24159611576553797
0.0
-0.5233456456174279
-0.48741950839608816
0.0
-0.4659333240282963
-0.17297121951378402
0.0
-0.3934382139080353
-0.2405558046742975
0.0
-0.47477121974333863
-0.32541284282712996
0.0
-0.5069886239408006
-0.14406541898357136
0.0
-0.601598283472467
-0.4228495213891498
0.0
-0.41644969545489824
-0.2663677899698038
0.0
-0.7873996849304655
-0.4528162861874231
0.0
-0.5005365462369611
-0.2125072303185053
0.0
-0.6633214576639365
-0.25450295531246947
0.0
-0.5778985114554612
-0.35988061623217676
0.0
-0.49651251694747994
-0.22857115607298165
0.0
-0.5212457268513078
-0.27601326962730294
0.0
-0.5803798635523554
-0.31001088406991
0.0
-0.8083996330425193
-0.3122387502151101
0.0
-0.6654729008970848
-0.214141837275437
0.0
-0.6878135154330766
-0.3248810800829838
0.0
-0.5241873251135569
-0.3708158325275525
0.0
-0.6829516423727238
-0.19526758000771965
0.0
-0.6538008251888188
-0.3036629645007846
0.0
-0.878423350457757
-0.4137747024947169
0.0
-0.7372909725049769
-0.44718897918177447
0.0
-0.5576220996092913
-0.28347924986462136
0.0
-0.8025475182733689
-0.2932422792478879
0.0
-0.8251682378645414
-0.5887361882541476
0.0
-0.49729057988384423
-0.3910837515335828
0.0
-0.759981923466109
-0.5423401134055229
0.0
-0.6397462015530184
-0.43415392853506535
0.0
-0.7845534801734751
-0.20335156030077947
0.0
-1.0153558484077614
-0.37713117927407824
0.0
-0.8415762294344651
-0.558501264421302
0.0
-0.6602061442872403
-0.3006860170122601
0.0
-0.9180213916962828
-0.2829195834794587
0.0
-0.9357878252290845
-0.31309276412300735
0.0
-0.905614644585532
0.0
-0.5374715319157015
-0.508524555166771
-0.4677972152234534
-0.3587340723638642
-0.01615117900016142
-0.24605575517290684
0.0
-0.47006644729339564
-0.20583564427760848
0.0
-0.6694563047563373
-0.14750214135309664
0.0
-0.3224074465626129
-0.19750533884233368
0.0
-0.4665552951801429
-0.3006756918222434
0.0
-0.512596009857595
-0.08942827964818893
0.0
-0.42304835736328805
-0.21768979983815967
0.0
-0.6106352969364368
-0.22338542086132004
0.0
-0.5155593415424464
-0.4903700417194619
0.0
-0.4520086706354723
-0.1540552170243379
0.0
-0.3624257897649888
-0.2245293020964867
0.0
-0.44543223722635317
-0.32780465418066945
0.0
-0.49362269251781105
-0.1366940619219502
0.0
-0.5734094723998756
-0.4432944580752509
0.0
-0.3850306386993469
-0.27105681080835187
0.0
-0.7717365440224693
-0.48193350225617565
0.0
-0.4604452100987591
-0.19482284673186917
0.0
-0.670031721181125
-0.23934507034278338
0.0
-0.5820822763556968
-0.36314894301089357
0.0
-0.48227007009931366
-0.2174707654732078
0.0
-0.4986514369930943
-0.2544147287675024
0.0
-0.5910042843427049
-0.3064167998954221
0.0
-0.8010195971475582
-0.2997404923694779
0.0
-0.6669970386732688
-0.19824247979363263
0.0
-0.692738752845432
-0.32286168796453163
0.0
-0.5152325971625612
-0.36456269211948533
0.0
-0.6782306627113374
-0.19408296992284096
0.0
-0.644011315204251
-0.2890254020723282
0.0
-0.8820867928167655
-0.41875667552194923
0.0
-0.7213348794082922
-0.4583146921884649
0.0
-0.535522266533154
-0.277189492880414
0.0
-0.7978631551881268
-0.2810426708423106
0.0
-0.8263937262006669
-0.5935686556534691
0.0
-0.4814839924150749
-0.3786835121515179
0.0
-0.761408042778728
-0.5349636767944523
0.0
-0.6361485180946386
-0.4416001562195691
0.0
-0.7661331324195262
-0.18651795167297117
0.0
-1.0212153369661208
-0.37279978060119257
0.0
-0.8349335080379015
-0.5736873603756695
0.0
-0.6340459282634245
-0.28943591356928633
0.0
-0.9182973750698081
-0.27165449674114484
0.0
-0.9360787918979476
-0.30243186095244395
0.0
-0.9053014276866486
0.0
-0.5336938756657653
-0.5027337161691596
-0.4627600215990842
-0.3587102304708843
-0.01538142210570911
-0.2064295667306772
0.0
-0.39014742038857714
-0.1792035176185866
0.0
-0.5538226556797794
-0.1332311474008487
0.0
-0.2913467464618872
-0.1613415890798599
0.0
-0.39863934165541015
-0.2298359182370454
0.0
-0.44117000770721
-0.08166505928105534
0.0
-0.37398443034941914
-0.18506737262368664
0.0
-0.5009919484153286
-0.18631488328675555
0.0
-0.4253869822911762
-0.41514782809667644
0.0
-0.3849651085226741
-0.13926356729037148
0.0
-0.31871850602384094
-0.18225901275011547
0.0
-0.38207983882678676
-0.26218851040791763
0.0
-0.41697306055498046
-0.12142931270781115
0.0
-0.4709944939431933
-0.35575884667321156
0.0
-0.3303004743658044
-0.22238792223931825
0.0
-0.6781396568559206
-0.40277734125181847
0.0
-0.3973355953675323
-0.1685341941961929
0.0
-0.5540545979812215
-0.19807318267844204
0.0
-0.4810883882844543
-0.2909369112035829
0.0
-0.4122163261710408
-0.1895716863896
0.0
-0.407005300729654
-0.2123935756059658
0.0
-0.49075966176865854
-0.28162735768077773
0.0
-0.6835432636266223
-0.240228257723301
0.0
-0.5842434975838688
-0.17069897948460802
0.0
-0.5780164774188723
-0.2623026596235516
0.0
-0.4335258497679555
-0.30144647145265646
0.0
-0.5990811076425895
-0.16665297662400763
0.0
-0.529175532767505
-0.23131550606272505
0.0
-0.7975309130907892
-0.3278178508977071
0.0
-0.670007928296952
-0.4026623579399293
0.0
-0.44890882504610347
-0.22048360958662636
0.0
-0.7123032627463358
-0.2331122484821167
0.0
-0.7320583728252833
-0.5233301517305443
0.0
-0.4094567206024177
-0.3198139995427331
0.0
-0.6780117796519233
-0.5051358343512926
0.0
-0.5237105848022163
-0.39201147427612804
0.0
-0.6734560386273811
-0.15324777209926885
0.0
-0.9122197408042455
-0.30769650451634345
0.0
-0.7577710083871657
-0.4729234348068625
0.0
-0.5925440780966496
-0.23024155313936515
0.0
-0.8352259597641438
-0.24766496149666703
0.0
-0.817802551406845
-0.2508564182476802
0.0
-0.8146110946558329
0.0
-0.47154414723857957
-0.4437542397483538
-0.40000998593965137
-0.2736265187386239
-0.009146533964186387
-0.25857366273988
0.0
-0.4607176367359762
-0.22699446260834152
0.0
-0.6287460230466271
-0.1641513666192037
0.0
-0.36647951835871734
-0.19458099714324184
0.0
-0.48811424594863173
-0.24767442860354036
0.0
-0.5460458096973188
-0.10067489681253
0.0
-0.4737854751557929
-0.24235342974076143
0.0
-0.5664202036548556
-0.2324431722384583
0.0
-0.5019730056960743
-0.48102944538517506
0.0
-0.44179780359078014
-0.1792734207209458
0.0
-0.39836212710998387
-0.22169785592250651
0.0
-0.46535530801099645
-0.3081945475784064
0.0
-0.4936813357410937
-0.1482996291583849
0.0
-0.5668384898492249
-0.39691727075644645
0.0
-0.4118563626391722
-0.25952076457971657
0.0
-0.7637211268721315
-0.4304671562060665
0.0
-0.4923600927698878
-0.21398801068790016
0.0
-0.6313150938461133
-0.24060184785248465
0.0
-0.5612740354670162
-0.3396109695458517
0.0
-0.4862565801853747
-0.23359177037695028
0.0
-0.4856995290989052
-0.26838657501011587
0.0
-0.5574809747211116
-0.3142336782265361
0.0
-0.7736512554374674
-0.28744876971873284
0.0
-0.6597372979450341
-0.21376885129595047
0.0
-0.657660917964134
-0.29712330220737954
0.0
-0.5214195195407321
-0.3482188429641135
0.0
-0.6750230484877325
-0.19967184257273496
0.0
-0.6188709791753844
-0.2810848380393655
0.0
-0.8704758934707463
-0.3834775503404728
0.0
-0.7370625412107915
-0.4433007670748423
0.0
-0.530984728267796
-0.2687700917628414
0.0
-0.7867310929267205
-0.28336307072901123
0.0
-0.8045218629349924
-0.5805733114710224
0.0
-0.4749278732185426
-0.3758021804786957
0.0
-0.7447379110725687
-0.5440008594746544
0.0
-0.6075598720354631
-0.4361955918041667
0.0
-0.7519862334559461
-0.20163250793927442
0.0
-0.9865493173208431
-0.36178239213157015
0.0
-0.8263994331285445
-0.524040977256074
0.0
-0.6641408480040428
-0.2755672326625808
0.0
-0.9126145925975371
-0.2839805723422606
0.0
-0.9042012529178562
-0.2983480929642984
0.0
-0.8898337322958194
0.0
-0.5240837634047569
-0.496107666808092
-0.4537314135022855
-0.33635168181575453
-0.01422284237828883
-0.23729863524412503
0.0
-0.4629188834027749
-0.20489667415786453
0.0
-0.6321137391278956
-0.1467460976294351
0.0
-0.32856541516333676
-0.1988046803505664
0.0
-0.45659203816279614
-0.27149461667884245
0.0
-0.5034955492528119
-0.09022559562958106
0.0
-0.423957623170035
-0.21658563631822172
0.0
-0.5734579247081939
-0.21662130520541525
0.0
-0.4990648003599147
-0.4610841506830752
0.0
-0.4430130259236754
-0.1578555221211638
0.0
-0.3597011979559335
-0.21522027272209387
0.0
-0.4457936354062307
-0.3114184815905509
0.0
-0.47172732935974565
-0.13604181463332085
0.0
-0.5595469507475315
-0.4116145514714095
0.0
-0.37842900955500514
-0.2589843008103391
0.0
-0.7455275182723053
-0.4490974343163496
0.0
-0.45499974229040113
-0.19290646631216324
0.0
-0.6336665658526498
-0.23293536345167876
0.0
-0.5502104474986205
-0.3410558494325481
0.0
-0.46608162792947516
-0.21655586321057946
0.0
-0.4836616554363208
-0.24722091739913404
0.0
-0.5599165599628958
-0.29949543336599377
0.0
-0.769659427928805
-0.287567417879504
0.0
-0.6408885774150621
-0.1954993140431326
0.0
-0.6572003828477528
-0.3086480343934369
0.0
-0.49116471498547043
-0.34684836621533405
0.0
-0.6576634528673104
-0.1882318501214578
0.0
-0.6115808992574548
-0.27639959188993285
0.0
-0.8564310672509754
-0.3905112326987896
0.0
-0.7112987864832745
-0.4345542663624833
0.0
-0.5210011566109511
-0.2662176678076025
0.0
-0.7705534445127624
-0.27468173597000844
0.0
-0.7944731253247929
-0.570424929344868
0.0
-0.4663461829754896
-0.36854224638068855
0.0
-0.7332677728013715
-0.525486419164586
0.0
-0.6073442399763272
-0.41918396328426943
0.0
-0.7502677896066405
-0.18226957328948334
0.0
-0.9871821796014308
-0.35188728898350313
0.0
-0.8175644639074138
-0.5375780568737383
0.0
-0.631873696017176
-0.27790118684990556
0.0
-0.8915505660410069
-0.2691330610931936
0.0
-0.9003186917977214
-0.296760726119697
0.0
-0.8726910267712165
0.0
-0.5170628043302229
-0.4874933306725688
-0.44676819103251864
-0.3348081143736784
-0.01364682581051325
-0.2064295667306772
0.0
-0.39014742038857714
-0.1792035176185866
0.0
-0.5538226556797794
-0.1332311474008487
0.0
-0.2913467464618872
-0.1613415890798599
0.0
-0.39863934165541015
-0.2298359182370454
0.0
-0.44117000770721
-0.08166505928105534
0.0
-0.37398443034941914
-0.18506737262368664
0.0
-0.5009919484153286
-0.18631488328675555
0.0
-0.4253869822911762
-0.41514782809667644
0.0
-0.3849651085226741
-0.13926356729037148
0.0
-0.31871850602384094
-0.18225901275011547
0.0
-0.38207983882678676
-0.26218851040791763
0.0
-0.41697306055498046
-0.12142931270781115
0.0
-0.4709944939431933
-0.35575884667321156
0.0
-0.3303004743658044
-0.22238792223931825
0.0
-0.6781396568559206
-0.40277734125181847
0.0
-0.3973355953675323
-0.1685341941961929
0.0
-0.5540545979812215
-0.19807318267844204
0.0
-0.4810883882844543
-0.2909369112035829
0.0
-0.4122163261710408
-0.1895716863896
0.0
-0.407005300729654
-0.2123935756059658
0.0
-0.49075966176865854
-0.28162735768077773
0.0
-0.6835432636266223
-0.240228257723301
0.0
-0.5842434975838688
-0.17069897948460802
0.0
-0.5780164774188723
-0.2623026596235516
0.0
-0.4335258497679555
-0.30144647145265646
0.0
-0.5990811076425895
-0.16665297662400763
0.0
-0.529175532767505
-0.23131550606272505
0.0
-0.7975309130907892
-0.3278178508977071
0.0
-0.670007928296952
-0.4026623579399293
0.0
-0.44890882504610347
-0.22048360958662636
0.0
-0.7123032627463358
-0.2331122484821167
0.0
-0.7320583728252833
-0.5233301517305443
0.0
-0.4094567206024177
-0.3198139995427331
0.0
-0.6780117796519233
-0.5051358343512926
0.0
-0.5237105848022163
-0.39201147427612804
0.0
-0.6734560386273811
-0.15324777209926885
0.0
-0.9122197408042455
-0.30769650451634345
0.0
-0.7577710083871657
-0.4729234348068625
0.0
-0.5925440780966496
-0.23024155313936515
0.0
-0.8352259597641438
-0.24766496149666703
0.0
-0.817802551406845
-0.2508564182476802
0.0
-0.8146110946558329
0.0
-0.47154414723857957
-0.4437542397483538
-0.40000998593965137
-0.2736265187386239
-0.009146533964186387
-0.24443605355099385
0.0
-0.45493777141761044
-0.20366890706562563
0.0
-0.7004344431099189
-0.14688815303008712
0.0
-0.3221363892211889
-0.1898810768565119
0.0
-0.4628017135128515
-0.2816633702452359
0.0
-0.5089744996922219
-0.08983268461041706
0.0
-0.4194982410613533
-0.2143609235225965
0.0
-0.6005713380230168
-0.22129360186696434
0.0
-0.49989658825895805
-0.5258757535729108
0.0
-0.4936330145009982
-0.15314506569199932
0.0
-0.3605921135428291
-0.22136128348673015
0.0
-0.4368822598108224
-0.3117399702238526
0.0
-0.49000440590429795
-0.13752086343203823
0.0
-0.5566503408000287
-0.43139490040756184
0.0
-0.38353736113804954
-0.26121673865031864
0.0
-0.8743734379767247
-0.5574931910570277
0.0
-0.46201557701688173
-0.1929630024725851
0.0
-0.6907083130306644
-0.23805406150136382
0.0
-0.5636903146267875
-0.35068072141164336
0.0
-0.4941172451881487
-0.2115274230241485
0.0
-0.4878464019444565
-0.25411796977857687
0.0
-0.5906799968212137
-0.3908823683937678
0.0
-0.8093508504454291
-0.3036034449610335
0.0
-0.7508045304001777
-0.2016412192838264
0.0
-0.7305901587918385
-0.31572679779752943
0.0
-0.5143382330033415
-0.3816022195700303
0.0
-0.7539879570570142
-0.1898859038161792
0.0
-0.6401791269846917
-0.2944514869961807
0.0
-0.9694575296891331
-0.4108285888257859
0.0
-0.822059787900675
-0.5481531003489845
0.0
-0.5384806801688523
-0.2761829427312894
0.0
-0.8916665271334777
-0.2841190011467576
0.0
-0.9161142176924418
-0.686250499073521
0.0
-0.4815989707912453
-0.3921806356658414
0.0
-0.8407077410606204
-0.6076775426584078
0.0
-0.6562314740269066
-0.5419001227405442
0.0
-0.75862998769477
-0.1879795449050242
0.0
-1.112550565530286
-0.3714025913859844
0.0
-0.929127519049328
-0.5981739588279466
0.0
-0.7023561516073683
-0.29248790148607645
0.0
-1.0080422089492367
-0.27465355395373847
0.0
-1.0258765564815735
-0.363184993387243
0.0
-0.9373451170480689
0.0
-0.5724970968303774
-0.5468995399885378
-0.5087197480542204
-0.40406712428736685
-0.017402216692524012
-0.23529905522820851
0.0
-0.4542638670437052
-0.19547358461246273
0.0
-0.700210154578364
-0.14014740557729705
0.0
-0.3102797153775878
-0.19001939407640853
0.0
-0.44878809476209625
-0.2957355247656794
0.0
-0.4941028840715589
-0.08622631239121945
0.0
-0.4041666847701099
-0.20914094060031121
0.0
-0.6056971344322407
-0.21554936010965048
0.0
-0.49698016553635627
-0.5211387740015239
0.0
-0.4511635885822709
-0.14735325008218425
0.0
-0.34716788920612635
-0.2185918323637558
0.0
-0.4260395378606013
-0.31286327644932177
0.0
-0.48898291433804103
-0.13179189852262016
0.0
-0.5520158067543278
-0.4433251222435668
0.0
-0.37151295278898383
-0.26240177359443956
0.0
-0.8103152314652411
-0.5267499272727467
0.0
-0.44555243531104965
-0.1858822381383417
0.0
-0.6929991883399711
-0.2335788890725703
0.0
-0.5682673017147926
-0.35260391796250545
0.0
-0.4918124700915049
-0.20877921779787337
0.0
-0.4807837044740415
-0.24700720306153692
0.0
-0.5974091849924732
-0.35564677635230907
0.0
-0.7817132709195339
-0.2946338345170321
0.0
-0.7020273467545739
-0.19339630830172325
0.0
-0.7244130695015073
-0.3214327991570376
0.0
-0.5089498130454103
-0.381107199786745
0.0
-0.6916098052729384
-0.18763906611062697
0.0
-0.6427435460918236
-0.28398067281370853
0.0
-0.9170551723042453
-0.4108657822000129
0.0
-0.7591494229590893
-0.5004353175005543
0.0
-0.5233252914499235
-0.2717342768130451
0.0
-0.833242021484362
-0.2750111830236835
0.0
-0.8623488642481573
-0.6332601362084056
0.0
-0.4717161620889996
-0.3886550283202926
0.0
-0.7813601768388112
-0.5619252785256813
0.0
-0.6391105665922744
-0.4852495007657102
0.0
-0.7524074381022441
-0.17971248084544456
0.0
-1.05794445802251
-0.3653619849797941
0.0
-0.8722949538881561
-0.6002602791011779
0.0
-0.6373966597667768
-0.28333357098603185
0.0
-0.9543233678819268
-0.2664654151602329
0.0
-0.9711915237077196
-0.3444278048561738
0.0
-0.8932291340117815
0.0
-0.5461293122137855
-0.5164689798085017
-0.4788758444247445
-0.3916946041980813
-0.015815308904071478
-0.2064295667306772
0.0
-0.39014742038857714
-0.1792035176185866
0.0
-0.5538226556797794
-0.1332311474008487
0.0
-0.2913467464618872
-0.1613415890798599
0.0
-0.39863934165541015
-0.2298359182370454
0.0
-0.44117000770721
-0.08166505928105534
0.0
-0.37398443034941914
-0.18506737262368664
0.0
-0.5009919484153286
-0.18631488328675555
0.0
-0.4253869822911762
-0.41514782809667644
0.0
-0.3849651085226741
-0.13926356729037148
0.0
-0.31871850602384094
-0.18225901275011547
0.0
-0.38207983882678676
-0.26218851040791763
0.0
-0.41697306055498046
-0.12142931270781115
0.0
-0.4709944939431933
-0.35575884667321156
0.0
-0.3303004743658044
-0.22238792223931825
0.0
-0.6781396568559206
-0.40277734125181847
0.0
-0.3973355953675323
-0.1685341941961929
0.0
-0.5540545979812215
-0.19807318267844204
0.0
-0.4810883882844543
-0.2909369112035829
0.0
-0.4122163261710408
-0.1895716863896
0.0
-0.407005300729654
-0.2123935756059658
0.0
-0.49075966176865854
-0.28162735768077773
0.0
-0.6835432636266223
-0.240228257723301
0.0
-0.5842434975838688
-0.17069897948460802
0.0
-0.5780164774188723
-0.2623026596235516
0.0
-0.4335258497679555
-0.30144647145265646
0.0
-0.5990811076425895
-0.16665297662400763
0.0
-0.529175532767505
-0.23131550606272505
0.0
-0.7975309130907892
-0.3278178508977071
0.0
-0.670007928296952
-0.4026623579399293
0.0
-0.44890882504610347
-0.22048360958662636
0.0
-0.7123032627463358
-0.2331122484821167
0.0
-0.7320583728252833
-0.5233301517305443
0.0
-0.4094567206024177
-0.3198139995427331
0.0
-0.6780117796519233
-0.5051358343512926
0.0
-0.5237105848022163
-0.39201147427612804
0.0
-0.6734560386273811
-0.15324777209926885
0.0
-0.9122197408042455
-0.30769650451634345
0.0
-0.7577710083871657
-0.4729234348068625
0.0
-0.5925440780966496
-0.23024155313936515
0.0
-0.8352259597641438
-0.24766496149666703
0.0
-0.817802551406845
-0.2508564182476802
0.0
-0.8146110946558329
0.0
-0.47154414723857957
-0.4437542397483538
-0.40000998593965137
-0.2736265187386239
-0.009146533964186387
-0.2660426141931321
0.0
-0.4669729998454506
-0.2330789952484902
0.0
-0.6363858049692012
-0.1669684197901405
0.0
-0.36685777659481855
-0.1979747173300959
0.0
-0.49844484032449965
-0.2527633827937516
0.0
-0.55468117006983
-0.10021711110375806
0.0
-0.4787117540218637
-0.24342305559507743
0.0
-0.5790748923632661
-0.23678559601656057
0.0
-0.5113548964806983
-0.48606866706487617
0.0
-0.45048289647380285
-0.18009299539782112
0.0
-0.4022668383294975
-0.2267929679987276
0.0
-0.4739845104975009
-0.3152486703384463
0.0
-0.5003515275437775
-0.14880545102606188
0.0
-0.5800569825442717
-0.40618069802638207
0.0
-0.41631724993196084
-0.2614296328678698
0.0
-0.7755365731467001
-0.43674882845076163
0.0
-0.4998027350879174
-0.21765186451981555
0.0
-0.641375554576926
-0.2454233689039912
0.0
-0.5701768289782319
-0.3471134392463981
0.0
-0.4924784250475531
-0.2340604369332221
0.0
-0.4989551771053609
-0.27252078915114053
0.0
-0.5670710751428092
-0.3154080467205928
0.0
-0.7862012015061343
-0.2968347838448205
0.0
-0.6640755983816735
-0.2166193043846101
0.0
-0.6685347794381987
-0.30532195786714267
0.0
-0.5269451784436937
-0.3562061199804195
0.0
-0.6807600860341527
-0.20020452352565685
0.0
-0.6320626127851796
-0.2901960083578862
0.0
-0.8750890377149518
-0.3927138179956649
0.0
-0.7415505881183234
-0.4463546201796727
0.0
-0.5416551897256885
-0.27339300846778686
0.0
-0.7958324907845032
-0.2880561314648717
0.0
-0.8135531167618587
-0.5851018816581379
0.0
-0.48412361759415357
-0.38130036820603463
0.0
-0.7529640379079522
-0.5459479542674851
0.0
-0.619337091805355
-0.43882753306181677
0.0
-0.7630786067610236
-0.20486812687208322
0.0
-0.997038012950757
-0.3678652511177847
0.0
-0.8340408887050572
-0.5332425906507203
0.0
-0.66866354917212
-0.28528545286175705
0.0
-0.9166206869610842
-0.2864508912776552
0.0
-0.9154552485451843
-0.30509403085551723
0.0
-0.8968121089673259
0.0
-0.5299293658932633
-0.5016927096703496
-0.4595947638131037
-0.34527124281231564
-0.014937249714846787
-0.24169394750726075
0.0
-0.437203971647724
-0.21761180417119763
0.0
-0.597735301162899
-0.1612185880958162
0.0
-0.34501340577681233
-0.17994379541605432
0.0
-0.46235806735494256
-0.24443372536744698
0.0
-0.5088931326125369
-0.09843135704573137
0.0
-0.4395390646204744
-0.21017381519320644
0.0
-0.5582064378815402
-0.21159468214008162
0.0
-0.482428115473578
-0.450852249325604
0.0
-0.4315816193294772
-0.16510427714595
0.0
-0.37519872820399125
-0.19876502863702028
0.0
-0.44789475497561076
-0.2979683101715263
0.0
-0.4635141928271002
-0.14630980698982468
0.0
-0.528434931696911
-0.38850875305992266
0.0
-0.3798715000148218
-0.24623565883477475
0.0
-0.7366128522961963
-0.42790523709642664
0.0
-0.45452863155865414
-0.2015300371582754
0.0
-0.6033796870548688
-0.22413045708929671
0.0
-0.5373520459093282
-0.3221084090677643
0.0
-0.463365760342589
-0.21855317996452295
0.0
-0.46034473919046226
-0.2423517988003377
0.0
-0.5431223706100161
-0.3086681197352113
0.0
-0.7388234336079181
-0.2721853947742853
0.0
-0.6346072925686115
-0.19938001150877924
0.0
-0.6316563774304338
-0.28626761261918054
0.0
-0.49188182880805686
-0.33087634875447414
0.0
-0.6519721623764995
-0.19551674138001615
0.0
-0.5826327000472239
-0.26363367727935516
0.0
-0.8475336739098855
-0.36071081024067275
0.0
-0.7194359009897193
-0.4322376504333692
0.0
-0.5016544645883935
-0.25029650098874345
0.0
-0.7648113033799488
-0.26734151245490534
0.0
-0.7801500408882251
-0.5574332618088425
0.0
-0.45767454255984863
-0.35472654220848376
0.0
-0.7254201690219113
-0.5316445047823763
0.0
-0.5795228464068681
-0.4236323833338239
0.0
-0.7241560616054175
-0.18419783497069703
0.0
-0.9635906099685417
-0.3409154259031371
0.0
-0.8068730190361075
-0.49840624282853374
0.0
-0.6493822021107089
-0.2644516912930992
0.0
-0.8833367536461469
-0.2765367641014827
0.0
-0.8712516808377557
-0.28332571307662235
0.0
-0.8644627318626218
0.0
-0.5072661687199309
-0.4788244733689153
-0.43553689637642956
-0.31355381832439216
-0.01207097606977223
-0.2064295667306772
0.0
-0.39014742038857714
-0.1792035176185866
0.0
-0.5538226556797794
-0.1332311474008487
0.0
-0.2913467464618872
-0.1613415890798599
0.0
-0.39863934165541015
-0.2298359182370454
0.0
-0.44117000770721
-0.08166505928105534
0.0
-0.37398443034941914
-0.18506737262368664
0.0
-0.5009919484153286
-0.18631488328675555
0.0
-0.4253869822911762
-0.41514782809667644
0.0
-0.3849651085226741
-0.13926356729037148
0.0
-0.31871850602384094
-0.18225901275011547
0.0
-0.38207983882678676
-0.26218851040791763
0.0
-0.41697306055498046
-0.12142931270781115
0.0
-0.4709944939431933
-0.35575884667321156
0.0
-0.3303004743658044
-0.22238792223931825
0.0
-0.6781396568559206
-0.40277734125181847
0.0
-0.3973355953675323
-0.1685341941961929
0.0
-0.5540545979812215
-0.19807318267844204
0.0
-0.4810883882844543
-0.2909369112035829
0.0
-0.4122163261710408
-0.1895716863896
0.0
-0.407005300729654
-0.2123935756059658
0.0
-0.49075966176865854
-0.28162735768077773
0.0
-0.6835432636266223
-0.240228257723301
0.0
-0.5842434975838688
-0.17069897948460802
0.0
-0.5780164774188723
-0.2623026596235516
0.0
-0.4335258497679555
-0.30144647145265646
0.0
-0.5990811076425895
-0.16665297662400763
0.0
-0.529175532767505
-0.23131550606272505
0.0
-0.7975309130907892
-0.3278178508977071
0.0
-0.670007928296952
-0.4026623579399293
0.0
-0.44890882504610347
-0.22048360958662636
0.0
-0.7123032627463358
-0.2331122484821167
0.0
-0.7320583728252833
-0.5233301517305443
0.0
-0.4094567206024177
-0.3198139995427331
0.0
-0.6780117796519233
-0.5051358343512926
0.0
-0.5237105848022163
-0.39201147427612804
0.0
-0.6734560386273811
-0.15324777209926885
0.0
-0.9122197408042455
-0.30769650451634345
0.0
-0.7577710083871657
-0.4729234348068625
0.0
-0.5925440780966496
-0.23024155313936515
0.0
-0.8352259597641438
-0.24766496149666703
0.0
-0.817802551406845
-0.2508564182476802
0.0
-0.8146110946558329
0.0
-0.47154414723857957
-0.4437542397483538
-0.40000998593965137
-0.2736265187386239
-0.009146533964186387
-0.25371166143236434
0.0
-0.48022590772442475
-0.21185834814738275
0.0
-0.6976539914539865
-0.1496572924078602
0.0
-0.3336935551449145
-0.20269165503295666
0.0
-0.479195212184597
-0.30821484139331595
0.0
-0.5300367231868344
-0.09116727236946212
0.0
-0.43834491751644056
-0.23035635712182106
0.0
-0.6288101523495198
-0.2325612011976471
0.0
-0.5249849813296685
-0.5177113914973039
0.0
-0.45888771142506335
-0.1604307906025209
0.0
-0.37345888362315127
-0.2330976119233714
0.0
-0.454598761001067
-0.33206788539242593
0.0
-0.5173083093085995
-0.1392217570267708
0.0
-0.588635373265047
-0.4597717441437485
0.0
-0.39939476532759616
-0.2769254874967819
0.0
-0.8000882579014746
-0.49932764648869854
0.0
-0.47727145643367
-0.2015631529660981
0.0
-0.6975118055143241
-0.2476462253505484
0.0
-0.6017299693504721
-0.3727320890473667
0.0
-0.5069073146302734
-0.2244065827258782
0.0
-0.5095309864309091
-0.265968614152043
0.0
-0.6136707895255952
-0.32469343277077084
0.0
-0.8169633548396376
-0.30824703034337086
0.0
-0.6927108912668035
-0.20586665883176677
0.0
-0.7193349643747275
-0.3352558310082769
0.0
-0.5359261653857426
-0.38612560576900773
0.0
-0.6908881396292431
