0.0
0.0
0.0
0.0
0.0
0.0
0.0
0.0
-0.31654915466364936
-0.28448060834599737
0.0
-0.0479147866400286
0.0
0.0
-0.21548248811741025
-0.10413007664777262
0.0
-0.004619017169142373
0.0
0.0
0.0
0.0
0.0
-0.13849066603474217
0.0
0.0
-0.0535513502368351
-0.009499033763592415
0.0
-0.32289636122243354
0.0
0.0
-0.3735349172651565
-0.08598213779057916
0.0
-0.2050054867596982
-0.09268437630117288
0.0
-0.020540603280368722
0.0
0.0
-0.39738195014693206
-0.09780471396092753
0.0
-0.20529705086824956
-0.05063647906036421
0.0
-0.085103004707921
-0.20775821471363787
0.0
-0.1896237354332944
-0.20921871326149055
0.0
-0.24614700564393863
-0.12321777168087945
0.0
-0.16776985286939802
-0.054295459104286875
0.0
-0.2966449764396613
-0.15983128640953034
0.0
-0.26530230933457244
-0.10424662533990052
0.0
-0.2123025293237488
-0.021702935438597207
0.0
-0.498038318279822
-0.08401278801012992
0.0
-0.34112080773397285
-0.05544639744823873
0.0
-0.4319735706294204
-0.1177262146579081
0.0
-0.18537555017126894
-0.21883127131783064
0.0
-0.1547036459473259
-0.3154762457949859
0.0
-0.1398894731104434
-0.14451119227895992
0.0
-0.3429087757986991
-0.36865639139185535
0.0
-0.18371895760188883
-0.06548456394114599
0.0
-0.5178729130163329
-0.3292625686059714
0.0
-0.22311278038777263
-0.036129394852563675
0.0
-0.31481104069138455
-0.06856634622621702
0.0
-0.514791130731262
-0.3171555454303974
0.0
-0.20258570828802192
-0.08014907688372724
0.0
-0.5398294938237521
-0.15046014699037538
0.0
-0.46951842371710373
-0.4153205868980338
0.0
-0.20465798380944517
-0.31592025687649716
0.0
-0.30405831383098186
-0.07807723688672784
0.0
-0.5419013338207515
-0.07753378617639982
0.0
-0.5424447845310794
-0.058579676334352036
0.0
-0.5613988943731271
0.0
-0.2788476404426813
-0.26885773503699406
-0.24240518579966214
-0.15578759757491967
0.0
0.0
0.0
0.0
0.0
0.0
0.0
0.0
0.0
-0.31654915466364936
-0.28448060834599737
0.0
-0.0479147866400286
0.0
0.0
-0.21548248811741025
-0.10413007664777262
0.0
-0.004619017169142373
0.0
0.0
0.0
0.0
0.0
-0.13849066603474217
0.0
0.0
-0.0535513502368351
-0.009499033763592415
0.0
-0.32289636122243354
0.0
0.0
-0.3735349172651565
-0.08598213779057916
0.0
-0.2050054867596982
-0.09268437630117288
0.0
-0.020540603280368722
0.0
0.0
-0.39738195014693206
-0.09780471396092753
0.0
-0.20529705086824956
-0.05063647906036421
0.0
-0.085103004707921
-0.20775821471363787
0.0
-0.1896237354332944
-0.20921871326149055
0.0
-0.24614700564393863
-0.12321777168087945
0.0
-0.16776985286939802
-0.054295459104286875
0.0
-0.2966449764396613
-0.15983128640953034
0.0
-0.26530230933457244
-0.10424662533990052
0.0
-0.2123025293237488
-0.021702935438597207
0.0
-0.498038318279822
-0.08401278801012992
0.0
-0.34112080773397285
-0.05544639744823873
0.0
-0.4319735706294204
-0.1177262146579081
0.0
-0.18537555017126894
-0.21883127131783064
0.0
-0.1547036459473259
-0.3154762457949859
0.0
-0.1398894731104434
-0.14451119227895992
0.0
-0.3429087757986991
-0.36865639139185535
0.0
-0.18371895760188883
-0.06548456394114599
0.0
-0.5178729130163329
-0.3292625686059714
0.0
-0.22311278038777263
-0.036129394852563675
0.0
-0.31481104069138455
-0.06856634622621702
0.0
-0.514791130731262
-0.3171555454303974
0.0
-0.20258570828802192
-0.08014907688372724
0.0
-0.5398294938237521
-0.15046014699037538
0.0
-0.46951842371710373
-0.4153205868980338
0.0
-0.20465798380944517
-0.31592025687649716
0.0
-0.30405831383098186
-0.07807723688672784
0.0
-0.5419013338207515
-0.07753378617639982
0.0
-0.5424447845310794
-0.058579676334352036
0.0
-0.5613988943731271
0.0
-0.2788476404426813
-0.26885773503699406
-0.24240518579966214
-0.15578759757491967
0.0
0.0
0.0
0.0
0.0
0.0
0.0
0.0
0.0
-0.31654915466364936
-0.28448060834599737
0.0
-0.0479147866400286
0.0
0.0
-0.21548248811741025
-0.10413007664777262
0.0
-0.004619017169142373
0.0
0.0
0.0
0.0
0.0
-0.13849066603474217
0.0
0.0
-0.0535513502368351
-0.009499033763592415
0.0
-0.32289636122243354
0.0
0.0
-0.3735349172651565
-0.08598213779057916
0.0
-0.2050054867596982
-0.09268437630117288
0.0
-0.020540603280368722
0.0
0.0
-0.39738195014693206
-0.09780471396092753
0.0
-0.20529705086824956
-0.05063647906036421
0.0
-0.085103004707921
-0.20775821471363787
0.0
-0.1896237354332944
-0.20921871326149055
0.0
-0.24614700564393863
-0.12321777168087945
0.0
-0.16776985286939802
-0.054295459104286875
0.0
-0.2966449764396613
-0.15983128640953034
0.0
-0.26530230933457244
-0.10424662533990052
0.0
-0.2123025293237488
-0.021702935438597207
0.0
-0.498038318279822
-0.08401278801012992
0.0
-0.34112080773397285
-0.05544639744823873
0.0
-0.4319735706294204
-0.1177262146579081
0.0
-0.18537555017126894
-0.21883127131783064
0.0
-0.1547036459473259
-0.3154762457949859
0.0
-0.1398894731104434
-0.14451119227895992
0.0
-0.3429087757986991
-0.36865639139185535
0.0
-0.18371895760188883
-0.06548456394114599
0.0
-0.5178729130163329
-0.3292625686059714
0.0
-0.22311278038777263
-0.036129394852563675
0.0
-0.31481104069138455
-0.06856634622621702
0.0
-0.514791130731262
-0.3171555454303974
0.0
-0.20258570828802192
-0.08014907688372724
0.0
-0.5398294938237521
-0.15046014699037538
0.0
-0.46951842371710373
-0.4153205868980338
0.0
-0.20465798380944517
-0.31592025687649716
0.0
-0.30405831383098186
-0.07807723688672784
0.0
-0.5419013338207515
-0.07753378617639982
0.0
-0.5424447845310794
-0.058579676334352036
0.0
-0.5613988943731271
0.0
-0.2788476404426813
-0.26885773503699406
-0.24240518579966214
-0.15578759757491967
0.0
0.0
0.0
0.0
0.0
0.0
0.0
0.0
0.0
-0.31654915466364936
-0.28448060834599737
0.0
-0.0479147866400286
0.0
0.0
-0.21548248811741025
-0.10413007664777262
0.0
-0.004619017169142373
0.0
0.0
0.0
0.0
0.0
-0.13849066603474217
0.0
0.0
-0.0535513502368351
-0.009499033763592415
0.0
-0.32289636122243354
0.0
0.0
-0.3735349172651565
-0.08598213779057916
0.0
-0.2050054867596982
-0.09268437630117288
0.0
-0.020540603280368722
0.0
0.0
-0.39738195014693206
-0.09780471396092753
0.0
-0.20529705086824956
-0.05063647906036421
0.0
-0.085103004707921
-0.20775821471363787
0.0
-0.1896237354332944
-0.20921871326149055
0.0
-0.24614700564393863
-0.12321777168087945
0.0
-0.16776985286939802
-0.054295459104286875
0.0
-0.2966449764396613
-0.15983128640953034
0.0
-0.26530230933457244
-0.10424662533990052
0.0
-0.2123025293237488
-0.021702935438597207
0.0
-0.498038318279822
-0.08401278801012992
0.0
-0.34112080773397285
-0.05544639744823873
0.0
-0.4319735706294204
-0.1177262146579081
0.0
-0.18537555017126894
-0.21883127131783064
0.0
-0.1547036459473259
-0.3154762457949859
0.0
-0.1398894731104434
-0.14451119227895992
0.0
-0.3429087757986991
-0.36865639139185535
0.0
-0.18371895760188883
-0.06548456394114599
0.0
-0.5178729130163329
-0.3292625686059714
0.0
-0.22311278038777263
-0.036129394852563675
0.0
-0.31481104069138455
-0.06856634622621702
0.0
-0.514791130731262
-0.3171555454303974
0.0
-0.20258570828802192
-0.08014907688372724
0.0
-0.5398294938237521
-0.15046014699037538
0.0
-0.46951842371710373
-0.4153205868980338
0.0
-0.20465798380944517
-0.31592025687649716
0.0
-0.30405831383098186
-0.07807723688672784
0.0
-0.5419013338207515
-0.07753378617639982
0.0
-0.5424447845310794
-0.058579676334352036
0.0
-0.5613988943731271
0.0
-0.2788476404426813
-0.26885773503699406
-0.24240518579966214
-0.15578759757491967
0.0
0.0
0.0
0.0
0.0
0.0
0.0
0.0
0.0
-0.31654915466364936
-0.28448060834599737
0.0
-0.0479147866400286
0.0
0.0
-0.21548248811741025
-0.10413007664777262
0.0
-0.004619017169142373
0.0
0.0
0.0
0.0
0.0
-0.13849066603474217
0.0
0.0
-0.0535513502368351
-0.009499033763592415
0.0
-0.32289636122243354
0.0
0.0
-0.3735349172651565
-0.08598213779057916
0.0
-0.2050054867596982
-0.09268437630117288
0.0
-0.020540603280368722
0.0
0.0
-0.39738195014693206
-0.09780471396092753
0.0
-0.20529705086824956
-0.05063647906036421
0.0
-0.085103004707921
-0.20775821471363787
0.0
-0.1896237354332944
-0.20921871326149055
0.0
-0.24614700564393863
-0.12321777168087945
0.0
-0.16776985286939802
-0.054295459104286875
0.0
-0.2966449764396613
-0.15983128640953034
0.0
-0.26530230933457244
-0.10424662533990052
0.0
-0.2123025293237488
-0.021702935438597207
0.0
-0.498038318279822
-0.08401278801012992
0.0
-0.34112080773397285
-0.05544639744823873
0.0
-0.4319735706294204
-0.1177262146579081
0.0
-0.18537555017126894
-0.21883127131783064
0.0
-0.1547036459473259
-0.3154762457949859
0.0
-0.1398894731104434
-0.14451119227895992
0.0
-0.3429087757986991
-0.36865639139185535
0.0
-0.18371895760188883
-0.06548456394114599
0.0
-0.5178729130163329
-0.3292625686059714
0.0
-0.22311278038777263
-0.036129394852563675
0.0
-0.31481104069138455
-0.06856634622621702
0.0
-0.514791130731262
-0.3171555454303974
0.0
-0.20258570828802192
-0.08014907688372724
0.0
-0.5398294938237521
-0.15046014699037538
0.0
-0.46951842371710373
-0.4153205868980338
0.0
-0.20465798380944517
-0.31592025687649716
0.0
-0.30405831383098186
-0.07807723688672784
0.0
-0.5419013338207515
-0.07753378617639982
0.0
-0.5424447845310794
-0.058579676334352036
0.0
-0.5613988943731271
0.0
-0.2788476404426813
-0.26885773503699406
-0.24240518579966214
-0.15578759757491967
0.0
0.0
0.0
0.0
0.0
0.0
0.0
0.0
0.0
-0.31654915466364936
-0.28448060834599737
0.0
-0.0479147866400286
0.0
0.0
-0.21548248811741025
-0.10413007664777262
0.0
-0.004619017169142373
0.0
0.0
0.0
0.0
0.0
-0.13849066603474217
0.0
0.0
-0.0535513502368351
-0.009499033763592415
0.0
-0.32289636122243354
0.0
0.0
-0.3735349172651565
-0.08598213779057916
0.0
-0.2050054867596982
-0.09268437630117288
0.0
-0.020540603280368722
0.0
0.0
-0.39738195014693206
-0.09780471396092753
0.0
-0.20529705086824956
-0.05063647906036421
0.0
-0.085103004707921
-0.20775821471363787
0.0
-0.1896237354332944
-0.20921871326149055
0.0
-0.24614700564393863
-0.12321777168087945
0.0
-0.16776985286939802
-0.054295459104286875
0.0
-0.2966449764396613
-0.15983128640953034
0.0
-0.26530230933457244
-0.10424662533990052
0.0
-0.2123025293237488
-0.021702935438597207
0.0
-0.498038318279822
-0.08401278801012992
0.0
-0.34112080773397285
-0.05544639744823873
0.0
-0.4319735706294204
-0.1177262146579081
0.0
-0.18537555017126894
-0.21883127131783064
0.0
-0.1547036459473259
-0.3154762457949859
0.0
-0.1398894731104434
-0.14451119227895992
0.0
-0.3429087757986991
-0.36865639139185535
0.0
-0.18371895760188883
-0.06548456394114599
0.0
-0.5178729130163329
-0.3292625686059714
0.0
-0.22311278038777263
-0.036129394852563675
0.0
-0.31481104069138455
-0.06856634622621702
0.0
-0.514791130731262
-0.3171555454303974
0.0
-0.20258570828802192
-0.08014907688372724
0.0
-0.5398294938237521
-0.15046014699037538
0.0
-0.46951842371710373
-0.4153205868980338
0.0
-0.20465798380944517
-0.31592025687649716
0.0
-0.30405831383098186
-0.07807723688672784
0.0
-0.5419013338207515
-0.07753378617639982
0.0
-0.5424447845310794
-0.058579676334352036
0.0
-0.5613988943731271
0.0
-0.2788476404426813
-0.26885773503699406
-0.24240518579966214
-0.15578759757491967
0.0
0.0
0.0
0.0
0.0
0.0
0.0
0.0
0.0
-0.31654915466364936
-0.28448060834599737
0.0
-0.0479147866400286
0.0
0.0
-0.21548248811741025
-0.10413007664777262
0.0
-0.004619017169142373
0.0
0.0
0.0
0.0
0.0
-0.13849066603474217
0.0
0.0
-0.0535513502368351
-0.009499033763592415
0.0
-0.32289636122243354
0.0
0.0
-0.3735349172651565
-0.08598213779057916
0.0
-0.2050054867596982
-0.09268437630117288
0.0
-0.020540603280368722
0.0
0.0
-0.39738195014693206
-0.09780471396092753
0.0
-0.20529705086824956
-0.05063647906036421
0.0
-0.085103004707921
-0.20775821471363787
0.0
-0.1896237354332944
-0.20921871326149055
0.0
-0.24614700564393863
-0.12321777168087945
0.0
-0.16776985286939802
-0.054295459104286875
0.0
-0.2966449764396613
-0.15983128640953034
0.0
-0.26530230933457244
-0.10424662533990052
0.0
-0.2123025293237488
-0.021702935438597207
0.0
-0.498038318279822
-0.08401278801012992
0.0
-0.34112080773397285
-0.05544639744823873
0.0
-0.4319735706294204
-0.1177262146579081
0.0
-0.18537555017126894
-0.21883127131783064
0.0
-0.1547036459473259
-0.3154762457949859
0.0
-0.1398894731104434
-0.14451119227895992
0.0
-0.3429087757986991
-0.36865639139185535
0.0
-0.18371895760188883
-0.06548456394114599
0.0
-0.5178729130163329
-0.3292625686059714
0.0
-0.22311278038777263
-0.036129394852563675
0.0
-0.31481104069138455
-0.06856634622621702
0.0
-0.514791130731262
-0.3171555454303974
0.0
-0.20258570828802192
-0.08014907688372724
0.0
-0.5398294938237521
-0.15046014699037538
0.0
-0.46951842371710373
-0.4153205868980338
0.0
-0.20465798380944517
-0.31592025687649716
0.0
-0.30405831383098186
-0.07807723688672784
0.0
-0.5419013338207515
-0.07753378617639982
0.0
-0.5424447845310794
-0.058579676334352036
0.0
-0.5613988943731271
0.0
-0.2788476404426813
-0.26885773503699406
-0.24240518579966214
-0.15578759757491967
0.0
0.0
0.0
0.0
0.0
0.0
0.0
0.0
0.0
-0.31654915466364936
-0.28448060834599737
0.0
-0.0479147866400286
0.0
0.0
-0.21548248811741025
-0.10413007664777262
0.0
-0.004619017169142373
0.0
0.0
0.0
0.0
0.0
-0.13849066603474217
0.0
0.0
-0.0535513502368351
-0.009499033763592415
0.0
-0.32289636122243354
0.0
0.0
-0.3735349172651565
-0.08598213779057916
0.0
-0.2050054867596982
-0.09268437630117288
0.0
-0.020540603280368722
0.0
0.0
-0.39738195014693206
-0.09780471396092753
0.0
-0.20529705086824956
-0.05063647906036421
0.0
-0.085103004707921
-0.20775821471363787
0.0
-0.1896237354332944
-0.20921871326149055
0.0
-0.24614700564393863
-0.12321777168087945
0.0
-0.16776985286939802
-0.054295459104286875
0.0
-0.2966449764396613
-0.15983128640953034
0.0
-0.26530230933457244
-0.10424662533990052
0.0
-0.2123025293237488
-0.021702935438597207
0.0
-0.498038318279822
-0.08401278801012992
0.0
-0.34112080773397285
-0.05544639744823873
0.0
-0.4319735706294204
-0.1177262146579081
0.0
-0.18537555017126894
-0.21883127131783064
0.0
-0.1547036459473259
-0.3154762457949859
0.0
-0.1398894731104434
-0.14451119227895992
0.0
-0.3429087757986991
-0.36865639139185535
0.0
-0.18371895760188883
-0.06548456394114599
0.0
-0.5178729130163329
-0.3292625686059714
0.0
-0.22311278038777263
-0.036129394852563675
0.0
-0.31481104069138455
-0.06856634622621702
0.0
-0.514791130731262
-0.3171555454303974
0.0
-0.20258570828802192
-0.08014907688372724
0.0
-0.5398294938237521
-0.15046014699037538
0.0
-0.46951842371710373
-0.4153205868980338
0.0
-0.20465798380944517
-0.31592025687649716
0.0
-0.30405831383098186
-0.07807723688672784
0.0
-0.5419013338207515
-0.07753378617639982
0.0
-0.5424447845310794
-0.058579676334352036
0.0
-0.5613988943731271
0.0
-0.2788476404426813
-0.26885773503699406
-0.24240518579966214
-0.15578759757491967
0.0
0.0
0.0
0.0
0.0
0.0
0.0
0.0
0.0
-0.4266177777421634
-0.39334339126047496
0.0
-0.04912062680406519
0.0
0.0
-0.29859051672081566
-0.13970966766853074
0.0
-0.0070253589168012475
0.0
0.0
0.0
0.0
0.0
-0.1877155469505848
0.0
0.0
-0.0653036073083113
-0.011854502776273554
0.0
-0.4306095152882667
0.0
0.0
-0.48360354034367065
-0.11959036570153973
0.0
-0.28146588192725186
-0.12699991124539395
0.0
-0.026596859285571886
0.0
0.0
-0.5074505732254465
-0.1296692497418576
0.0
-0.2835011381658338
-0.06130697074067465
0.0
-0.12282605336219489
-0.27079602242083484
0.0
-0.2366545508046119
-0.26140278372746834
0.0
-0.30403155825647515
-0.17286438488814618
0.0
-0.22819186274064562
-0.07971911796132089
0.0
-0.38128994066114147
-0.17501734846799952
0.0
-0.3601848703546174
-0.13657652319333527
0.0
-0.2900412545488284
-0.029211915888243838
0.0
-0.6005979609086897
-0.12026199495642739
0.0
-0.4149402238661899
-0.08091802754314327
0.0
-0.5165705636130306
-0.16915966968348992
0.0
-0.2440107182242015
-0.2670590496463836
0.0
-0.21654449069728723
-0.38350592394076755
0.0
-0.18192841804317594
-0.17730276060531686
0.0
-0.4201858305508566
-0.41829794733230186
0.0
-0.2441460247399565
-0.09069394983517115
0.0
-0.6027321502008219
-0.3777278781827601
0.0
-0.2847160938894984
-0.044797821864108474
0.0
-0.41621123675835386
-0.10302177497597775
0.0
-0.5904043250600154
-0.3742113967268312
0.0
-0.25559848007010266
-0.11795817224771127
0.0
-0.6120890215382818
-0.2192485571646385
0.0
-0.5107986366213548
-0.4597090351654191
0.0
-0.2703381586205744
-0.3339166748786536
0.0
-0.3961305189073396
-0.10979015066962591
0.0
-0.6202570431163674
-0.10735752828670618
0.0
-0.6226896654992871
-0.09404336885009769
0.0
-0.6360038249358954
0.0
-0.32932816837589807
-0.31319499039927956
-0.28908550047680326
-0.19201778800400623
0.0
0.0
0.0
0.0
0.0
0.0
0.0
0.0
0.0
-0.415238957074222
-0.38317041075657005
0.0
-0.0479147866400286
0.0
0.0
-0.30037250895334744
-0.14121421568082929
0.0
-0.007011639912090208
0.0
0.0
0.0
0.0
0.0
-0.18967725403949678
0.0
0.0
-0.06670220887470159
-0.011978956626441993
0.0
-0.4191062407701568
0.0
0.0
-0.47222471967572927
-0.11922480993392931
0.0
-0.2704526170269207
-0.1282298094471527
0.0
-0.026861753274248543
0.0
0.0
-0.4960717525575049
-0.1312888809606855
0.0
-0.2705026862790639
-0.0626675808579445
0.0
-0.12334111379212073
-0.25794207007639836
0.0
-0.23812968248110628
-0.2470650899535432
0.0
-0.3069904313624586
-0.15933494497392722
0.0
-0.2303424819869225
-0.0797831082950336
0.0
-0.36984712965948724
-0.16405318084465553
0.0
-0.35977021731001974
-0.12446303237099227
0.0
-0.2907759247032297
-0.02954504277888575
0.0
-0.5888860133501064
-0.12093739310447106
0.0
-0.40288600505020405
-0.08101663221608071
0.0
-0.5050931382721511
-0.16860667356958808
0.0
-0.23318489367016138
-0.2582331906845731
0.0
-0.21399152899115592
-0.37126061182126724
0.0
-0.1827949094947346
-0.17090018071578642
0.0
-0.41520958977244543
-0.4139113028003858
0.0
-0.23715384860393107
-0.09124010051703348
0.0
-0.5908071788510179
-0.3649426292362553
0.0
-0.28612252216806155
-0.04562701469813831
0.0
-0.40400322325638244
-0.10074585688068206
0.0
-0.5813014224873699
-0.36600033245634417
0.0
-0.2524307236726476
-0.1175223312789094
0.0
-0.6011460418391424
-0.2117066996156545
0.0
-0.5069616735023972
-0.45354127415784196
0.0
-0.2651270989602097
-0.3317074881902233
0.0
-0.3869608849278284
-0.11040642894012496
0.0
-0.6082619441779265
-0.10802895578382204
0.0
-0.6106394173342291
-0.09322611680561826
0.0
-0.6254422563124333
0.0
-0.3243184776658278
-0.3090912228782128
-0.28460711812549516
-0.18849729591055292
0.0
0.0
0.0
0.0
0.0
0.0
0.0
0.0
0.0
-0.31654915466364936
-0.28448060834599737
0.0
-0.0479147866400286
0.0
0.0
-0.21548248811741025
-0.10413007664777262
0.0
-0.004619017169142373
0.0
0.0
0.0
0.0
0.0
-0.13849066603474217
0.0
0.0
-0.0535513502368351
-0.009499033763592415
0.0
-0.32289636122243354
0.0
0.0
-0.3735349172651565
-0.08598213779057916
0.0
-0.2050054867596982
-0.09268437630117288
0.0
-0.020540603280368722
0.0
0.0
-0.39738195014693206
-0.09780471396092753
0.0
-0.20529705086824956
-0.05063647906036421
0.0
-0.085103004707921
-0.20775821471363787
0.0
-0.1896237354332944
-0.20921871326149055
0.0
-0.24614700564393863
-0.12321777168087945
0.0
-0.16776985286939802
-0.054295459104286875
0.0
-0.2966449764396613
-0.15983128640953034
0.0
-0.26530230933457244
-0.10424662533990052
0.0
-0.2123025293237488
-0.021702935438597207
0.0
-0.498038318279822
-0.08401278801012992
0.0
-0.34112080773397285
-0.05544639744823873
0.0
-0.4319735706294204
-0.1177262146579081
0.0
-0.18537555017126894
-0.21883127131783064
0.0
-0.1547036459473259
-0.3154762457949859
0.0
-0.1398894731104434
-0.14451119227895992
0.0
-0.3429087757986991
-0.36865639139185535
0.0
-0.18371895760188883
-0.06548456394114599
0.0
-0.5178729130163329
-0.3292625686059714
0.0
-0.22311278038777263
-0.036129394852563675
0.0
-0.31481104069138455
-0.06856634622621702
0.0
-0.514791130731262
-0.3171555454303974
0.0
-0.20258570828802192
-0.08014907688372724
0.0
-0.5398294938237521
-0.15046014699037538
0.0
-0.46951842371710373
-0.4153205868980338
0.0
-0.20465798380944517
-0.31592025687649716
0.0
-0.30405831383098186
-0.07807723688672784
0.0
-0.5419013338207515
-0.07753378617639982
0.0
-0.5424447845310794
-0.058579676334352036
0.0
-0.5613988943731271
0.0
-0.2788476404426813
-0.26885773503699406
-0.24240518579966214
-0.15578759757491967
0.0
0.0
0.0
0.0
0.0
0.0
0.0
0.0
0.0
-0.3551744915328535
-0.3188475146239596
0.0
-0.05217321723127052
0.0
0.0
-0.23123163457794163
-0.10920850938547022
0.0
-0.005108823813199749
0.0
0.0
0.0
0.0
0.0
-0.14560798273185852
0.0
0.0
-0.0537368672877246
-0.009704323463727496
0.0
-0.3613164083915026
0.0
0.0
-0.4121602541343607
-0.09409348842938514
0.0
-0.23373612117778006
-0.09804583567909118
0.0
-0.021211089056661803
0.0
0.0
-0.4360072870161365
-0.10185184127449316
0.0
-0.2398752604238879
-0.05063383942610358
0.0
-0.0921779512430165
-0.23885702650528315
0.0
-0.19715026051085313
-0.23986434275428453
0.0
-0.25412671302034867
-0.15041129990892133
0.0
-0.17741830969824393
-0.05934205995698345
0.0
-0.33022371245616877
-0.1777125931336232
0.0
-0.28604633947968355
-0.12719268833134229
0.0
-0.227981803201511
-0.02269648891446833
0.0
-0.5356701016731554
-0.09079312943799302
0.0
-0.3729658031753141
-0.06049981466326803
0.0
-0.46554549028359543
-0.13011668762594655
0.0
-0.21161041407243444
-0.2409341961485048
0.0
-0.1712260579858558
-0.3457912797268593
0.0
-0.14819977604777393
-0.16092070183261004
0.0
-0.36512460311425343
-0.38619877443362466
0.0
-0.2048019114293237
-0.06993587353216768
0.0
-0.5520469402945155
-0.3559160276332886
0.0
-0.2350846582296596
-0.03643433072774692
0.0
-0.35313144168540544
-0.07898232567656417
0.0
-0.543000488150119
-0.3417985652455139
0.0
-0.21656802534210973
-0.08950982347063062
0.0
-0.5690940841060529
-0.17432179834737646
0.0
-0.48428210922930665
-0.4337062564129545
0.0
-0.22489765116372865
-0.3247353801565638
0.0
-0.33386852742011947
-0.08386488220165433
0.0
-0.5747390253750286
-0.08278833248386003
0.0
-0.575815575092823
-0.0685419572816277
0.0
-0.5900619502950556
0.0
-0.29605715780964653
-0.28273994645748374
-0.2605916175565927
-0.1708576329744313
0.0
0.0
0.0
0.0
0.0
0.0
0.0
0.0
0.0
-0.31654915466364936
-0.28448060834599737
0.0
-0.0479147866400286
0.0
0.0
-0.21548248811741025
-0.10413007664777262
0.0
-0.004619017169142373
0.0
0.0
0.0
0.0
0.0
-0.13849066603474217
0.0
0.0
-0.0535513502368351
-0.009499033763592415
0.0
-0.32289636122243354
0.0
0.0
-0.3735349172651565
-0.08598213779057916
0.0
-0.2050054867596982
-0.09268437630117288
0.0
-0.020540603280368722
0.0
0.0
-0.39738195014693206
-0.09780471396092753
0.0
-0.20529705086824956
-0.05063647906036421
0.0
-0.085103004707921
-0.20775821471363787
0.0
-0.1896237354332944
-0.20921871326149055
0.0
-0.24614700564393863
-0.12321777168087945
0.0
-0.16776985286939802
-0.054295459104286875
0.0
-0.2966449764396613
-0.15983128640953034
0.0
-0.26530230933457244
-0.10424662533990052
0.0
-0.2123025293237488
-0.021702935438597207
0.0
-0.498038318279822
-0.08401278801012992
0.0
-0.34112080773397285
-0.05544639744823873
0.0
-0.4319735706294204
-0.1177262146579081
0.0
-0.18537555017126894
-0.21883127131783064
0.0
-0.1547036459473259
-0.3154762457949859
0.0
-0.1398894731104434
-0.14451119227895992
0.0
-0.3429087757986991
-0.36865639139185535
0.0
-0.18371895760188883
-0.06548456394114599
0.0
-0.5178729130163329
-0.3292625686059714
0.0
-0.22311278038777263
-0.036129394852563675
0.0
-0.31481104069138455
-0.06856634622621702
0.0
-0.514791130731262
-0.3171555454303974
0.0
-0.20258570828802192
-0.08014907688372724
0.0
-0.5398294938237521
-0.15046014699037538
0.0
-0.46951842371710373
-0.4153205868980338
0.0
-0.20465798380944517
-0.31592025687649716
0.0
-0.30405831383098186
-0.07807723688672784
0.0
-0.5419013338207515
-0.07753378617639982
0.0
-0.5424447845310794
-0.058579676334352036
0.0
-0.5613988943731271
0.0
-0.2788476404426813
-0.26885773503699406
-0.24240518579966214
-0.15578759757491967
0.0
0.0
0.0
0.0
0.0
0.0
0.0
0.0
0.0
-0.31654915466364936
-0.28448060834599737
0.0
-0.0479147866400286
0.0
0.0
-0.21548248811741025
-0.10413007664777262
0.0
-0.004619017169142373
0.0
0.0
0.0
0.0
0.0
-0.13849066603474217
0.0
0.0
-0.0535513502368351
-0.009499033763592415
0.0
-0.32289636122243354
0.0
0.0
-0.3735349172651565
-0.08598213779057916
0.0
-0.2050054867596982
-0.09268437630117288
0.0
-0.020540603280368722
0.0
0.0
-0.39738195014693206
-0.09780471396092753
0.0
-0.20529705086824956
-0.05063647906036421
0.0
-0.085103004707921
-0.20775821471363787
0.0
-0.1896237354332944
-0.20921871326149055
0.0
-0.24614700564393863
-0.12321777168087945
0.0
-0.16776985286939802
-0.054295459104286875
0.0
-0.2966449764396613
-0.15983128640953034
0.0
-0.26530230933457244
-0.10424662533990052
0.0
-0.2123025293237488
-0.021702935438597207
0.0
-0.498038318279822
-0.08401278801012992
0.0
-0.34112080773397285
-0.05544639744823873
0.0
-0.4319735706294204
-0.1177262146579081
0.0
-0.18537555017126894
-0.21883127131783064
0.0
-0.1547036459473259
-0.3154762457949859
0.0
-0.1398894731104434
-0.14451119227895992
0.0
-0.3429087757986991
-0.36865639139185535
0.0
-0.18371895760188883
-0.06548456394114599
0.0
-0.5178729130163329
-0.3292625686059714
0.0
-0.22311278038777263
-0.036129394852563675
0.0
-0.31481104069138455
-0.06856634622621702
0.0
-0.514791130731262
-0.3171555454303974
0.0
-0.20258570828802192
-0.08014907688372724
0.0
-0.5398294938237521
-0.15046014699037538
0.0
-0.46951842371710373
-0.4153205868980338
0.0
-0.20465798380944517
-0.31592025687649716
0.0
-0.30405831383098186
-0.07807723688672784
0.0
-0.5419013338207515
-0.07753378617639982
0.0
-0.5424447845310794
-0.058579676334352036
0.0
-0.5613988943731271
0.0
-0.2788476404426813
-0.26885773503699406
-0.24240518579966214
-0.15578759757491967
0.0
0.0
0.0
0.0
0.0
0.0
0.0
0.0
0.0
-0.3891145348481688
-0.357045988530517
0.0
-0.0479147866400286
0.0
0.0
-0.2880478683019298
-0.14475911469484448
0.0
-0.006879986033054269
0.0
0.0
0.0
0.0
0.0
-0.19314830584734297
0.0
0.0
-0.07012133489999127
-0.012794409997656252
0.0
-0.3921663651728894
0.0
0.0
-0.4461002974496761
-0.10726198083750682
0.0
-0.25629102389729014
-0.13041855043320041
0.0
-0.027963935208857645
0.0
0.0
-0.46994733033145175
-0.1340715841531745
0.0
-0.24159556086052217
-0.06600885510990645
0.0
-0.12344742396496668
-0.2291469486985576
0.0
-0.24080038163289422
-0.21813493603221978
0.0
-0.3097961630577289
-0.13610730649046532
0.0
-0.2274456982443317
-0.07959825890351761
0.0
-0.34390755682494994
-0.15983128640953034
0.0
-0.33786768951909196
-0.11226025060221657
0.0
-0.2768542842459523
-0.029583666903600356
0.0
-0.5627229669993391
-0.1219296215068123
0.0
-0.37576935442180986
-0.08096516671220787
0.0
-0.47902018154997084
-0.14925891751033882
0.0
-0.2264082275033578
-0.2532149932730646
0.0
-0.1928853041766114
-0.3503186673573891
0.0
-0.17761243173255972
-0.16997043898300393
0.0
-0.3900149092791751
-0.41567482145259277
0.0
-0.20926590772567097
-0.09325414314526957
0.0
-0.5626687139967291
-0.3469927359110564
0.0
-0.27794799326720726
-0.0472133382981517
0.0
-0.37629247743031613
-0.08671654413530502
0.0
-0.5692063130066942
-0.3421392982000778
0.0
-0.250167335702861
-0.10711954032043491
0.0
-0.5854244105715639
-0.1878195315551403
0.0
-0.5047244193368584
-0.4392502810802563
0.0
-0.2532936698117423
-0.33191255197003994
0.0
-0.3606313989219587
-0.111807999125668
0.0
-0.5807359517663305
-0.10998953308230763
0.0
-0.582554417809691
-0.08582849951705887
0.0
-0.6067154513749399
0.0
-0.312441496182893
-0.2978543015732384
-0.2730104963199142
-0.18429529216057308
0.0
0.0
0.0
0.0
0.0
0.0
0.0
0.0
0.0
-0.3448264596245358
-0.31275791330688385
0.0
-0.0479147866400286
0.0
0.0
-0.24375979307829665
-0.13240738160865897
0.0
-0.004619017169142373
0.0
0.0
0.0
0.0
0.0
-0.1667679709956285
0.0
0.0
-0.07282847721567016
-0.01326914197725294
0.0
-0.34740355796965955
0.0
0.0
-0.40181222222604296
-0.10031722421136961
0.0
-0.2189477052997942
-0.11485438120904011
0.0
-0.02664790333338783
0.0
0.0
-0.42565925510781855
-0.1196005365076686
0.0
-0.2117785332823949
-0.06856545729606069
0.0
-0.09545133143311088
-0.2111412404853972
0.0
-0.21451801462242148
-0.20921871326149055
0.0
-0.2744243106048251
-0.12940205030723287
0.0
-0.18986287920393102
-0.06115128602067372
0.0
-0.3180664544841608
-0.15983128640953034
0.0
-0.29357961429545887
-0.10638689546667854
0.0
-0.23843956415785722
-0.024556418706477054
0.0
-0.5234621399728288
-0.10216412084240263
0.0
-0.35124677986258646
-0.06327488025235299
0.0
-0.4524223927861925
-0.1177262146579081
0.0
-0.21365285513215537
-0.23655952948148593
0.0
-0.16525269274455706
-0.32921337391048305
0.0
-0.15442964995583267
-0.1560257285699024
0.0
-0.3596715444686432
-0.38853186463252565
0.0
-0.19212078932210488
-0.0845631504376926
0.0
-0.5270716314806727
-0.33420461690710496
0.0
-0.24644803704752566
-0.04599254620451318
0.0
-0.33322519430032144
-0.08108373353664869
0.0
-0.5305510483817167
-0.3233459366049458
0.0
-0.22467262207435998
-0.08438787747525134
0.0
-0.5638679981931137
-0.16538549857215254
0.0
-0.4828703770962129
-0.41909730983351806
0.0
-0.22915856583484737
-0.31592025687649716
0.0
-0.3323356187918683
-0.09875739648588845
0.0
-0.5494984791824769
-0.0996332713539074
0.0
-0.5486226043144579
-0.06838979691774344
0.0
-0.5798660787506217
0.0
-0.29235480783920975
-0.2802726435232253
-0.2537838190971315
-0.16771816798706402
0.0
0.0
0.0
0.0
0.0
0.0
0.0
0.0
0.0
-0.31654915466364936
-0.28448060834599737
0.0
-0.0479147866400286
0.0
0.0
-0.21548248811741025
-0.10413007664777262
0.0
-0.004619017169142373
0.0
0.0
0.0
0.0
0.0
-0.13849066603474217
0.0
0.0
-0.0535513502368351
-0.009499033763592415
0.0
-0.32289636122243354
0.0
0.0
-0.3735349172651565
-0.08598213779057916
0.0
-0.2050054867596982
-0.09268437630117288
0.0
-0.020540603280368722
0.0
0.0
-0.39738195014693206
-0.09780471396092753
0.0
-0.20529705086824956
-0.05063647906036421
0.0
-0.085103004707921
-0.20775821471363787
0.0
-0.1896237354332944
-0.20921871326149055
0.0
-0.24614700564393863
-0.12321777168087945
0.0
-0.16776985286939802
-0.054295459104286875
0.0
-0.2966449764396613
-0.15983128640953034
0.0
-0.26530230933457244
-0.10424662533990052
0.0
-0.2123025293237488
-0.021702935438597207
0.0
-0.498038318279822
-0.08401278801012992
0.0
-0.34112080773397285
-0.05544639744823873
0.0
-0.4319735706294204
-0.1177262146579081
0.0
-0.18537555017126894
-0.21883127131783064
0.0
-0.1547036459473259
-0.3154762457949859
0.0
-0.1398894731104434
-0.14451119227895992
0.0
-0.3429087757986991
-0.36865639139185535
0.0
-0.18371895760188883
-0.06548456394114599
0.0
-0.5178729130163329
-0.3292625686059714
0.0
-0.22311278038777263
-0.036129394852563675
0.0
-0.31481104069138455
-0.06856634622621702
0.0
-0.514791130731262
-0.3171555454303974
0.0
-0.20258570828802192
-0.08014907688372724
0.0
-0.5398294938237521
-0.15046014699037538
0.0
-0.46951842371710373
-0.4153205868980338
0.0
-0.20465798380944517
-0.31592025687649716
0.0
-0.30405831383098186
-0.07807723688672784
0.0
-0.5419013338207515
-0.07753378617639982
0.0
-0.5424447845310794
-0.058579676334352036
0.0
-0.5613988943731271
0.0
-0.2788476404426813
-0.26885773503699406
-0.24240518579966214
-0.15578759757491967
0.0
0.0
0.0
0.0
0.0
0.0
0.0
0.0
0.0
-0.3191741935520836
-0.28710564723443177
0.0
-0.0479147866400286
0.0
0.0
-0.21810752700584454
-0.10675511553620683
0.0
-0.004619017169142373
0.0
0.0
0.0
0.0
0.0
-0.14111570492317643
0.0
0.0
-0.05442346377004442
-0.009622673849504155
0.0
-0.3253977600249562
0.0
0.0
-0.3761599561535907
-0.08673614897355067
0.0
-0.20687651446516095
-0.09510403302528059
0.0
-0.020745985444695244
0.0
0.0
-0.4000069890353663
-0.09907165207140954
0.0
-0.20665515164620182
-0.05145550050090784
0.0
-0.08690902215581159
-0.20790173226923123
0.0
-0.1921052567661353
-0.20921871326149055
0.0
-0.24877204453237292
-0.12376300843680942
0.0
-0.16984965500190227
-0.055850477754482965
0.0
-0.29771499667789936
-0.15983128640953034
0.0
-0.2679273482230068
-0.10432485469755218
0.0
-0.21484933885453142
-0.021816430278744005
0.0
-0.5005498623281094
-0.08614556357264966
0.0
-0.3416130710598873
-0.05708806554860348
0.0
-0.4329569414174898
-0.11778271560417422
0.0
-0.1879440881134371
-0.21977144916574584
0.0
-0.15638850698784496
-0.31708717861939495
0.0
-0.14090357917446855
-0.14502072536316585
0.0
-0.34502428160292764
-0.3707795985823083
0.0
-0.18422078929987004
-0.06721991578226937
0.0
-0.5187626000636435
-0.3302351866472331
0.0
-0.22476520123494523
-0.036821014512703316
0.0
-0.316744459919679
-0.0695831531784534
0.0
-0.5163993626674594
-0.31744168033544257
0.0
-0.20492461227141098
-0.08045706532506133
0.0
-0.542146544270852
-0.15179263824308029
0.0
-0.4708109713528329
-0.41569615841326696
0.0
-0.2069074511826461
-0.3160909983148503
0.0
-0.3065126112810629
-0.08014713773529542
0.0
-0.5424564718606179
-0.07957512960486056
0.0
-0.5430284799910527
-0.05968049182976084
0.0
-0.5629231177661523
0.0
-0.28010779333287916
-0.26982179950933516
-0.2435630487749447
-0.15692142283609123
0.0
0.0
0.0
0.0
0.0
0.0
0.0
0.0
0.0
-0.31654915466364936
-0.28448060834599737
0.0
-0.0479147866400286
0.0
0.0
-0.21548248811741025
-0.10413007664777262
0.0
-0.004619017169142373
0.0
0.0
0.0
0.0
0.0
-0.13849066603474217
0.0
0.0
-0.0535513502368351
-0.009499033763592415
0.0
-0.32289636122243354
0.0
0.0
-0.3735349172651565
-0.08598213779057916
0.0
-0.2050054867596982
-0.09268437630117288
0.0
-0.020540603280368722
0.0
0.0
-0.39738195014693206
-0.09780471396092753
0.0
-0.20529705086824956
-0.05063647906036421
0.0
-0.085103004707921
-0.20775821471363787
0.0
-0.1896237354332944
-0.20921871326149055
0.0
-0.24614700564393863
-0.12321777168087945
0.0
-0.16776985286939802
-0.054295459104286875
0.0
-0.2966449764396613
-0.15983128640953034
0.0
-0.26530230933457244
-0.10424662533990052
0.0
-0.2123025293237488
-0.021702935438597207
0.0
-0.498038318279822
-0.08401278801012992
0.0
-0.34112080773397285
-0.05544639744823873
0.0
-0.4319735706294204
-0.1177262146579081
0.0
-0.18537555017126894
-0.21883127131783064
0.0
-0.1547036459473259
-0.3154762457949859
0.0
-0.1398894731104434
-0.14451119227895992
0.0
-0.3429087757986991
-0.36865639139185535
0.0
-0.18371895760188883
-0.06548456394114599
0.0
-0.5178729130163329
-0.3292625686059714
0.0
-0.22311278038777263
-0.036129394852563675
0.0
-0.31481104069138455
-0.06856634622621702
0.0
-0.514791130731262
-0.3171555454303974
0.0
-0.20258570828802192
-0.08014907688372724
0.0
-0.5398294938237521
-0.15046014699037538
0.0
-0.46951842371710373
-0.4153205868980338
0.0
-0.20465798380944517
-0.31592025687649716
0.0
-0.30405831383098186
-0.07807723688672784
0.0
-0.5419013338207515
-0.07753378617639982
0.0
-0.5424447845310794
-0.058579676334352036
0.0
-0.5613988943731271
0.0
-0.2788476404426813
-0.26885773503699406
-0.24240518579966214
-0.15578759757491967
0.0
0.0
0.0
0.0
0.0
0.0
0.0
0.0
0.0
-0.31654915466364936
-0.28448060834599737
0.0
-0.0479147866400286
0.0
0.0
-0.21548248811741025
-0.10413007664777262
0.0
-0.004619017169142373
0.0
0.0
0.0
0.0
0.0
-0.13849066603474217
0.0
0.0
-0.0535513502368351
-0.009499033763592415
0.0
-0.32289636122243354
0.0
0.0
-0.3735349172651565
-0.08598213779057916
0.0
-0.2050054867596982
-0.09268437630117288
0.0
-0.020540603280368722
0.0
0.0
-0.39738195014693206
-0.09780471396092753
0.0
-0.20529705086824956
-0.05063647906036421
0.0
-0.085103004707921
-0.20775821471363787
0.0
-0.1896237354332944
-0.20921871326149055
0.0
-0.24614700564393863
-0.12321777168087945
0.0
-0.16776985286939802
-0.054295459104286875
0.0
-0.2966449764396613
-0.15983128640953034
0.0
-0.26530230933457244
-0.10424662533990052
0.0
-0.2123025293237488
-0.021702935438597207
0.0
-0.498038318279822
-0.08401278801012992
0.0
-0.34112080773397285
-0.05544639744823873
0.0
-0.4319735706294204
-0.1177262146579081
0.0
-0.18537555017126894
-0.21883127131783064
0.0
-0.1547036459473259
-0.3154762457949859
0.0
-0.1398894731104434
-0.14451119227895992
0.0
-0.3429087757986991
-0.36865639139185535
0.0
-0.18371895760188883
-0.06548456394114599
0.0
-0.5178729130163329
-0.3292625686059714
0.0
-0.22311278038777263
-0.036129394852563675
0.0
-0.31481104069138455
-0.06856634622621702
0.0
-0.514791130731262
-0.3171555454303974
0.0
-0.20258570828802192
-0.08014907688372724
0.0
-0.5398294938237521
-0.15046014699037538
0.0
-0.46951842371710373
-0.4153205868980338
0.0
-0.20465798380944517
-0.31592025687649716
0.0
-0.30405831383098186
-0.07807723688672784
0.0
-0.5419013338207515
-0.07753378617639982
0.0
-0.5424447845310794
-0.058579676334352036
0.0
-0.5613988943731271
0.0
-0.2788476404426813
-0.26885773503699406
-0.24240518579966214
-0.15578759757491967
0.0
0.0
0.0
0.0
0.0
0.0
0.0
0.0
0.0
-0.31654915466364936
-0.28448060834599737
0.0
-0.0479147866400286
0.0
0.0
-0.21548248811741025
-0.10413007664777262
0.0
-0.004619017169142373
0.0
0.0
0.0
0.0
0.0
-0.13849066603474217
0.0
0.0
-0.0535513502368351
-0.009499033763592415
0.0
-0.32289636122243354
0.0
0.0
-0.3735349172651565
-0.08598213779057916
0.0
-0.2050054867596982
-0.09268437630117288
0.0
-0.020540603280368722
0.0
0.0
-0.39738195014693206
-0.09780471396092753
0.0
-0.20529705086824956
-0.05063647906036421
0.0
-0.085103004707921
-0.20775821471363787
0.0
-0.1896237354332944
-0.20921871326149055
0.0
-0.24614700564393863
-0.12321777168087945
0.0
-0.16776985286939802
-0.054295459104286875
0.0
-0.2966449764396613
-0.15983128640953034
0.0
-0.26530230933457244
-0.10424662533990052
0.0
-0.2123025293237488
-0.021702935438597207
0.0
-0.498038318279822
-0.08401278801012992
0.0
-0.34112080773397285
-0.05544639744823873
0.0
-0.4319735706294204
-0.1177262146579081
0.0
-0.18537555017126894
-0.21883127131783064
0.0
-0.1547036459473259
-0.3154762457949859
0.0
-0.1398894731104434
-0.14451119227895992
0.0
-0.3429087757986991
-0.36865639139185535
0.0
-0.18371895760188883
-0.06548456394114599
0.0
-0.5178729130163329
-0.3292625686059714
0.0
-0.22311278038777263
-0.036129394852563675
0.0
-0.31481104069138455
-0.06856634622621702
0.0
-0.514791130731262
-0.3171555454303974
0.0
-0.20258570828802192
-0.08014907688372724
0.0
-0.5398294938237521
-0.15046014699037538
0.0
-0.46951842371710373
-0.4153205868980338
0.0
-0.20465798380944517
-0.31592025687649716
0.0
-0.30405831383098186
-0.07807723688672784
0.0
-0.5419013338207515
-0.07753378617639982
0.0
-0.5424447845310794
-0.058579676334352036
0.0
-0.5613988943731271
0.0
-0.2788476404426813
-0.26885773503699406
-0.24240518579966214
-0.15578759757491967
0.0
0.0
0.0
0.0
0.0
0.0
0.0
0.0
0.0
-0.31654915466364936
-0.28448060834599737
0.0
-0.0479147866400286
0.0
0.0
-0.21548248811741025
-0.10413007664777262
0.0
-0.004619017169142373
0.0
0.0
0.0
0.0
0.0
-0.13849066603474217
0.0
0.0
-0.0535513502368351
-0.009499033763592415
0.0
-0.32289636122243354
0.0
0.0
-0.3735349172651565
-0.08598213779057916
0.0
-0.2050054867596982
-0.09268437630117288
0.0
-0.020540603280368722
0.0
0.0
-0.39738195014693206
-0.09780471396092753
0.0
-0.20529705086824956
-0.05063647906036421
0.0
-0.085103004707921
-0.20775821471363787
0.0
-0.1896237354332944
-0.20921871326149055
0.0
-0.24614700564393863
-0.12321777168087945
0.0
-0.16776985286939802
-0.054295459104286875
0.0
-0.2966449764396613
-0.15983128640953034
0.0
-0.26530230933457244
-0.10424662533990052
0.0
-0.2123025293237488
-0.021702935438597207
0.0
-0.498038318279822
-0.08401278801012992
0.0
-0.34112080773397285
-0.05544639744823873
0.0
-0.4319735706294204
-0.1177262146579081
0.0
-0.18537555017126894
-0.21883127131783064
0.0
-0.1547036459473259
-0.3154762457949859
0.0
-0.1398894731104434
-0.14451119227895992
0.0
-0.3429087757986991
-0.36865639139185535
0.0
-0.18371895760188883
-0.06548456394114599
0.0
-0.5178729130163329
-0.3292625686059714
0.0
-0.22311278038777263
-0.036129394852563675
0.0
-0.31481104069138455
-0.06856634622621702
0.0
-0.514791130731262
-0.3171555454303974
0.0
-0.20258570828802192
-0.08014907688372724
0.0
-0.5398294938237521
-0.15046014699037538
0.0
-0.46951842371710373
-0.4153205868980338
0.0
-0.20465798380944517
-0.31592025687649716
0.0
-0.30405831383098186
-0.07807723688672784
0.0
-0.5419013338207515
-0.07753378617639982
0.0
-0.5424447845310794
-0.058579676334352036
0.0
-0.5613988943731271
0.0
-0.2788476404426813
-0.26885773503699406
-0.24240518579966214
-0.15578759757491967
0.0
0.0
0.0
0.0
0.0
0.0
0.0
0.0
0.0
-0.31654915466364936
-0.28448060834599737
0.0
-0.0479147866400286
0.0
0.0
-0.21548248811741025
-0.10413007664777262
0.0
-0.004619017169142373
0.0
0.0
0.0
0.0
0.0
-0.13849066603474217
0.0
0.0
-0.0535513502368351
-0.009499033763592415
0.0
-0.32289636122243354
0.0
0.0
-0.3735349172651565
-0.08598213779057916
0.0
-0.2050054867596982
-0.09268437630117288
0.0
-0.020540603280368722
0.0
0.0
-0.39738195014693206
-0.09780471396092753
0.0
-0.20529705086824956
-0.05063647906036421
0.0
-0.085103004707921
-0.20775821471363787
0.0
-0.1896237354332944
-0.20921871326149055
0.0
-0.24614700564393863
-0.12321777168087945
0.0
-0.16776985286939802
-0.054295459104286875
0.0
-0.2966449764396613
-0.15983128640953034
0.0
-0.26530230933457244
-0.10424662533990052
0.0
-0.2123025293237488
-0.021702935438597207
0.0
-0.498038318279822
-0.08401278801012992
0.0
-0.34112080773397285
-0.05544639744823873
0.0
-0.4319735706294204
-0.1177262146579081
0.0
-0.18537555017126894
-0.21883127131783064
0.0
-0.1547036459473259
-0.3154762457949859
0.0
-0.1398894731104434
-0.14451119227895992
0.0
-0.3429087757986991
-0.36865639139185535
0.0
-0.18371895760188883
-0.06548456394114599
0.0
-0.5178729130163329
-0.3292625686059714
0.0
-0.22311278038777263
-0.036129394852563675
0.0
-0.31481104069138455
-0.06856634622621702
0.0
-0.514791130731262
-0.3171555454303974
0.0
-0.20258570828802192
-0.08014907688372724
0.0
-0.5398294938237521
-0.15046014699037538
0.0
-0.46951842371710373
-0.4153205868980338
0.0
-0.20465798380944517
-0.31592025687649716
0.0
-0.30405831383098186
-0.07807723688672784
0.0
-0.5419013338207515
-0.07753378617639982
0.0
-0.5424447845310794
-0.058579676334352036
0.0
-0.5613988943731271
0.0
-0.2788476404426813
-0.26885773503699406
-0.24240518579966214
-0.15578759757491967
0.0
0.0
0.0
0.0
0.0
0.0
0.0
0.0
0.0
-0.3585438674649715
-0.3264753211473197
0.0
-0.0479147866400286
0.0
0.0
-0.25747720091873255
-0.14207158756709695
0.0
-0.005717100550048066
0.0
0.0
0.0
0.0
0.0
-0.18048537883606441
0.0
0.0
-0.073657981979699
-0.01326889839047823
0.0
-0.3611212093968701
0.0
0.0
-0.4155296300664787
-0.10175330120061421
0.0
-0.23122903615098558
-0.12563065560830727
0.0
-0.02761023994269955
0.0
0.0
-0.43937666294825434
-0.12629476136246243
0.0
-0.21880171626803693
-0.06939891902986735
0.0
-0.10833527753974012
-0.21123449328147845
0.0
-0.22814216966677617
-0.20921871326149055
0.0
-0.288141718445261
-0.1313388569737544
0.0
-0.2016434803778454
-0.07131291328918944
0.0
-0.3216222350560809
-0.15983128640953034
0.0
-0.30729702213589466
-0.10644921074918712
0.0
-0.2520946567157845
-0.025283594834542143
0.0
-0.5364523716851993
-0.11383702226827162
0.0
-0.3532912862771532
-0.07326047755145489
0.0
-0.45615420332752643
-0.12240878360847311
0.0
-0.22268769402202623
-0.23914013867007144
0.0
-0.17638949139640742
-0.33958401295290797
0.0
-0.15777641875384363
-0.15658458540870474
0.0
-0.37283009547027696
-0.4009952463182838
0.0
-0.19337481547678254
-0.09100098480286394
0.0
-0.5343512049559372
-0.34138911639681474
0.0
-0.2529809453982516
-0.047750088479122314
0.0
-0.34518505986614806
-0.08465044133509744
0.0
-0.5407017484237037
-0.32389758245490485
0.0
-0.23783838406483662
-0.08947544410557538
0.0
-0.5724978394032261
-0.17040222920961642
0.0
-0.4915710542991848
-0.4246354698756146
0.0
-0.23733781363318646
-0.32021927944341355
0.0
-0.34175400406538764
-0.10747102077382699
0.0
-0.5545022627349743
-0.10705803916816414
0.0
-0.5549152443406372
-0.07302701771776025
0.0
-0.588946265791041
0.0
-0.2988570650144055
-0.28568485348034434
-0.2597285601453379
-0.1744163019547276
0.0
0.0
0.0
0.0
0.0
0.0
0.0
0.0
0.0
-0.31654915466364936
-0.28448060834599737
0.0
-0.0479147866400286
0.0
0.0
-0.21548248811741025
-0.10413007664777262
0.0
-0.004619017169142373
0.0
0.0
0.0
0.0
0.0
-0.13849066603474217
0.0
0.0
-0.0535513502368351
-0.009499033763592415
0.0
-0.32289636122243354
0.0
0.0
-0.3735349172651565
-0.08598213779057916
0.0
-0.2050054867596982
-0.09268437630117288
0.0
-0.020540603280368722
0.0
0.0
-0.39738195014693206
-0.09780471396092753
0.0
-0.20529705086824956
-0.05063647906036421
0.0
-0.085103004707921
-0.20775821471363787
0.0
-0.1896237354332944
-0.20921871326149055
0.0
-0.24614700564393863
-0.12321777168087945
0.0
-0.16776985286939802
-0.054295459104286875
0.0
-0.2966449764396613
-0.15983128640953034
0.0
-0.26530230933457244
-0.10424662533990052
0.0
-0.2123025293237488
-0.021702935438597207
0.0
-0.498038318279822
-0.08401278801012992
0.0
-0.34112080773397285
-0.05544639744823873
0.0
-0.4319735706294204
-0.1177262146579081
0.0
-0.18537555017126894
-0.21883127131783064
0.0
-0.1547036459473259
-0.3154762457949859
0.0
-0.1398894731104434
-0.14451119227895992
0.0
-0.3429087757986991
-0.36865639139185535
0.0
-0.18371895760188883
-0.06548456394114599
0.0
-0.5178729130163329
-0.3292625686059714
0.0
-0.22311278038777263
-0.036129394852563675
0.0
-0.31481104069138455
-0.06856634622621702
0.0
-0.514791130731262
-0.3171555454303974
0.0
-0.20258570828802192
-0.08014907688372724
0.0
-0.5398294938237521
-0.15046014699037538
0.0
-0.46951842371710373
-0.4153205868980338
0.0
-0.20465798380944517
-0.31592025687649716
0.0
-0.30405831383098186
-0.07807723688672784
0.0
-0.5419013338207515
-0.07753378617639982
0.0
-0.5424447845310794
-0.058579676334352036
0.0
-0.5613988943731271
0.0
-0.2788476404426813
-0.26885773503699406
-0.24240518579966214
-0.15578759757491967
0.0
0.0
0.0
0.0
0.0
0.0
0.0
0.0
0.0
-0.31654915466364936
-0.28448060834599737
0.0
-0.0479147866400286
0.0
0.0
-0.21548248811741025
-0.10413007664777262
0.0
-0.004619017169142373
0.0
0.0
0.0
0.0
0.0
-0.13849066603474217
0.0
0.0
-0.0535513502368351
-0.009499033763592415
0.0
-0.32289636122243354
0.0
0.0
-0.3735349172651565
-0.08598213779057916
0.0
-0.2050054867596982
-0.09268437630117288
0.0
-0.020540603280368722
0.0
0.0
-0.39738195014693206
-0.09780471396092753
0.0
-0.20529705086824956
-0.05063647906036421
0.0
-0.085103004707921
-0.20775821471363787
0.0
-0.1896237354332944
-0.20921871326149055
0.0
-0.24614700564393863
-0.12321777168087945
0.0
-0.16776985286939802
-0.054295459104286875
0.0
-0.2966449764396613
-0.15983128640953034
0.0
-0.26530230933457244
-0.10424662533990052
0.0
-0.2123025293237488
-0.021702935438597207
0.0
-0.498038318279822
-0.08401278801012992
0.0
-0.34112080773397285
-0.05544639744823873
0.0
-0.4319735706294204
-0.1177262146579081
0.0
-0.18537555017126894
-0.21883127131783064
0.0
-0.1547036459473259
-0.3154762457949859
0.0
-0.1398894731104434
-0.14451119227895992
0.0
-0.3429087757986991
-0.36865639139185535
0.0
-0.18371895760188883
-0.06548456394114599
0.0
-0.5178729130163329
-0.3292625686059714
0.0
-0.22311278038777263
-0.036129394852563675
0.0
-0.31481104069138455
-0.06856634622621702
0.0
-0.514791130731262
-0.3171555454303974
0.0
-0.20258570828802192
-0.08014907688372724
0.0
-0.5398294938237521
-0.15046014699037538
0.0
-0.46951842371710373
-0.4153205868980338
0.0
-0.20465798380944517
-0.31592025687649716
0.0
-0.30405831383098186
-0.07807723688672784
0.0
-0.5419013338207515
-0.07753378617639982
0.0
-0.5424447845310794
-0.058579676334352036
0.0
-0.5613988943731271
0.0
-0.2788476404426813
-0.26885773503699406
-0.24240518579966214
-0.15578759757491967
0.0
0.0
0.0
0.0
0.0
0.0
0.0
0.0
0.0
-0.32634772128210693
-0.29427917496445505
0.0
-0.0479147866400286
0.0
0.0
-0.2252810547358679
-0.11392864326623026
0.0
-0.004619017169142373
0.0
0.0
0.0
0.0
0.0
-0.14828923265319982
0.0
0.0
-0.06334991685529284
-0.01247666009635524
0.0
-0.32971730150812834
0.0
0.0
-0.3833334838836141
-0.0920688925659271
0.0
-0.20871729860280797
-0.09778390268651824
0.0
-0.02523964351348104
0.0
0.0
-0.4071805167653897
-0.10594646438910232
0.0
-0.20695386705853241
-0.05948317585810727
0.0
-0.08605487452863567
-0.2092571612650324
0.0
-0.1979233555003575
-0.20921871326149055
0.0
-0.2559455722623963
-0.12330371216137041
0.0
-0.17748247900736472
-0.054295459104286875
0.0
-0.3064435430581188
-0.15983128640953034
0.0
-0.2751008759530301
-0.10590344153018338
0.0
-0.2204442797519236
-0.023645468359667257
0.0
-0.5058943519772097
-0.08820524276605196
0.0
-0.34672691959650837
-0.05544639744823873
0.0
-0.44177213724787795
-0.1177262146579081
0.0
-0.1951741167897266
-0.2260249871733567
0.0
-0.1573084967102575
-0.3218822626832259
0.0
-0.14328202284066102
-0.14998827042383814
0.0
-0.34723026427227877
-0.3732096251942047
0.0
-0.188964290417997
-0.07069804938754194
0.0
-0.5224579941883948
-0.3311922114921895
0.0
-0.23098170412001223
-0.04228012952293359
0.0
-0.31845887263947226
-0.07132468998185465
0.0
-0.521831353594082
-0.32010914887800906
0.0
-0.20943067145886785
-0.08349454503313515
0.0
-0.5462825922928015
-0.1549033239207068
0.0
-0.4748738134052298
-0.41663775645511064
0.0
-0.21313938087082604
-0.31592025687649716
0.0
-0.3138568804494395
-0.08440913608333718
0.0
-0.5453680012425995
-0.08515772904918874
0.0
-0.544619408276748
-0.05875870936249676
0.0
-0.57101842796344
0.0
-0.28351606725969536
-0.2730640010873602
-0.24612032606725293
-0.15905245139791205
0.0
0.0
0.0
0.0
0.0
0.0
0.0
0.0
0.0
-0.3167977791929251
-0.28472923287527313
0.0
-0.0479147866400286
0.0
0.0
-0.215731112646686
-0.10437870117704841
0.0
-0.004619017169142373
0.0
0.0
0.0
0.0
0.0
-0.13873929056401793
0.0
0.0
-0.053799974766110904
-0.00974765829286821
0.0
-0.32289636122243354
0.0
0.0
-0.37378354179443224
-0.08623076231985495
0.0
-0.2050054867596982
-0.09268437630117288
0.0
-0.020789227809644522
0.0
0.0
-0.3976305746762078
-0.09782691853735617
0.0
-0.2055234708210967
-0.05080977923652979
0.0
-0.08517832906103122
-0.20775821471363787
0.0
-0.18987235996257015
-0.20921871326149055
0.0
-0.2463956301732144
-0.12321777168087945
0.0
-0.1680184773986738
-0.054295459104286875
0.0
-0.2968936009689371
-0.15983128640953034
0.0
-0.26555093386384826
-0.10447304529274767
0.0
-0.21232473390017742
-0.021702935438597207
0.0
-0.49828694280909774
-0.08401278801012992
0.0
-0.3413694322632486
-0.05544639744823873
0.0
-0.43222219515869614
-0.1177262146579081
0.0
-0.1856241747005447
-0.21890659567094087
0.0
-0.15487694612349145
-0.31556400563956455
0.0
-0.14005033779514048
-0.14451119227895992
0.0
-0.34315740032797487
-0.36865639139185535
0.0
-0.1839675821311646
-0.06573318847042178
0.0
-0.5178729130163329
-0.3292625686059714
0.0
-0.2233614049170484
-0.036129394852563675
0.0
-0.31505966522066037
-0.0688149707554928
0.0
-0.514791130731262
-0.31731641011509454
0.0
-0.2026734681326006
-0.08039770141300304
0.0
-0.5398294938237521
-0.15070877151965115
0.0
-0.46951842371710373
-0.4153205868980338
0.0
-0.20490660833872093
-0.31592025687649716
0.0
-0.30430693836025763
-0.07832586141600363
0.0
-0.5419013338207515
-0.07778241070567561
0.0
-0.5424447845310794
-0.058579676334352036
0.0
-0.5616475189024027
0.0
-0.2789553853506968
-0.26895526396653296
-0.24242739037609076
-0.1560140175277668
0.0
0.0
0.0
0.0
0.0
0.0
0.0
0.0
0.0
-0.31654915466364936
-0.28448060834599737
0.0
-0.0479147866400286
0.0
0.0
-0.21548248811741025
-0.10413007664777262
0.0
-0.004619017169142373
0.0
0.0
0.0
0.0
0.0
-0.13849066603474217
0.0
0.0
-0.0535513502368351
-0.009499033763592415
0.0
-0.32289636122243354
0.0
0.0
-0.3735349172651565
-0.08598213779057916
0.0
-0.2050054867596982
-0.09268437630117288
0.0
-0.020540603280368722
0.0
0.0
-0.39738195014693206
-0.09780471396092753
0.0
-0.20529705086824956
-0.05063647906036421
0.0
-0.085103004707921
-0.20775821471363787
0.0
-0.1896237354332944
-0.20921871326149055
0.0
-0.24614700564393863
-0.12321777168087945
0.0
-0.16776985286939802
-0.054295459104286875
0.0
-0.2966449764396613
-0.15983128640953034
0.0
-0.26530230933457244
-0.10424662533990052
0.0
-0.2123025293237488
-0.021702935438597207
0.0
-0.498038318279822
-0.08401278801012992
0.0
-0.34112080773397285
-0.05544639744823873
0.0
-0.4319735706294204
-0.1177262146579081
0.0
-0.18537555017126894
-0.21883127131783064
0.0
-0.1547036459473259
-0.3154762457949859
0.0
-0.1398894731104434
-0.14451119227895992
0.0
-0.3429087757986991
-0.36865639139185535
0.0
-0.18371895760188883
-0.06548456394114599
0.0
-0.5178729130163329
-0.3292625686059714
0.0
-0.22311278038777263
-0.036129394852563675
0.0
-0.31481104069138455
-0.06856634622621702
0.0
-0.514791130731262
-0.3171555454303974
0.0
-0.20258570828802192
-0.08014907688372724
0.0
-0.5398294938237521
-0.15046014699037538
0.0
-0.46951842371710373
-0.4153205868980338
0.0
-0.20465798380944517
-0.31592025687649716
0.0
-0.30405831383098186
-0.07807723688672784
0.0
-0.5419013338207515
-0.07753378617639982
0.0
-0.5424447845310794
-0.058579676334352036
0.0
-0.5613988943731271
0.0
-0.2788476404426813
-0.26885773503699406
-0.24240518579966214
-0.15578759757491967
0.0
0.0
0.0
0.0
0.0
0.0
0.0
0.0
0.0
-0.4320961780244903
-0.39576920111559644
0.0
-0.05217321723127052
0.0
0.0
-0.2973870168139151
-0.1391175158658045
0.0
-0.007020812604640335
0.0
0.0
0.0
0.0
0.0
-0.18683729057664006
0.0
0.0
-0.06459868006188137
-0.01176577036556145
0.0
-0.4361766479813057
0.0
0.0
-0.4890819406259977
-0.11943307852701608
0.0
-0.2853182175717859
-0.12654201305117108
0.0
-0.02643986935648339
0.0
0.0
-0.5129289735077736
-0.12889190838833878
0.0
-0.2897568798016792
-0.06064124538119202
0.0
-0.12266809197441829
-0.2768903667461414
0.0
-0.23603860676163196
-0.26833303103677936
0.0
-0.3025797112294909
-0.17784385874050204
0.0
-0.22690743735830016
-0.07981283021628804
0.0
-0.38667462868850105
-0.18121726628886586
0.0
-0.3594633528160778
-0.1427328609578949
0.0
-0.2893633170665954
-0.029032175572977367
0.0
-0.6062561015062831
-0.12006204013496681
0.0
-0.4206185789699771
-0.08101573032503001
0.0
-0.5219512611134705
-0.16874850975102523
0.0
-0.24990027843899268
-0.27189456476165663
0.0
-0.2171873758643407
-0.3898308273163144
0.0
-0.1810819149499559
-0.18168653582495084
0.0
-0.4212804556135493
-0.42232889485457487
0.0
-0.24559347750001045
-0.09054601027401836
0.0
-0.6083584900443022
-0.38411261160563237
0.0
-0.2838097607489528
-0.04442639101120025
0.0
-0.4220610678935887
-0.10357518479195368
0.0
-0.5953293155263666
-0.3788163636898148
0.0
-0.2564719133894455
-0.11788996240694607
0.0
-0.617635631661374
-0.22113290764418425
0.0
-0.5143926864241359
-0.46370683162219006
0.0
-0.27181876244613007
-0.33723720008597086
0.0
-0.3982883939823493
-0.10956544520811735
0.0
-0.6259601488602029
-0.10717009624837774
0.0
-0.6283554978199425
-0.09440162598972238
0.0
-0.6411239680785981
0.0
-0.3313921248481998
-0.3143132990395414
-0.2929980767593919
-0.19591155698124924
0.0
0.0
0.0
0.0
0.0
0.0
0.0
0.0
0.0
-0.31654915466364936
-0.28448060834599737
0.0
-0.0479147866400286
0.0
0.0
-0.21548248811741025
-0.10413007664777262
0.0
-0.004619017169142373
0.0
0.0
0.0
0.0
0.0
-0.13849066603474217
0.0
0.0
-0.0535513502368351
-0.009499033763592415
0.0
-0.32289636122243354
0.0
0.0
-0.3735349172651565
-0.08598213779057916
0.0
-0.2050054867596982
-0.09268437630117288
0.0
-0.020540603280368722
0.0
0.0
-0.39738195014693206
-0.09780471396092753
0.0
-0.20529705086824956
-0.05063647906036421
0.0
-0.085103004707921
-0.20775821471363787
0.0
-0.1896237354332944
-0.20921871326149055
0.0
-0.24614700564393863
-0.12321777168087945
0.0
-0.16776985286939802
-0.054295459104286875
0.0
-0.2966449764396613
-0.15983128640953034
0.0
-0.26530230933457244
-0.10424662533990052
0.0
-0.2123025293237488
-0.021702935438597207
0.0
-0.498038318279822
-0.08401278801012992
0.0
-0.34112080773397285
-0.05544639744823873
0.0
-0.4319735706294204
-0.1177262146579081
0.0
-0.18537555017126894
-0.21883127131783064
0.0
-0.1547036459473259
-0.3154762457949859
0.0
-0.1398894731104434
-0.14451119227895992
0.0
-0.3429087757986991
-0.36865639139185535
0.0
-0.18371895760188883
-0.06548456394114599
0.0
-0.5178729130163329
-0.3292625686059714
0.0
-0.22311278038777263
-0.036129394852563675
0.0
-0.31481104069138455
-0.06856634622621702
0.0
-0.514791130731262
-0.3171555454303974
0.0
-0.20258570828802192
-0.08014907688372724
0.0
-0.5398294938237521
-0.15046014699037538
0.0
-0.46951842371710373
-0.4153205868980338
0.0
-0.20465798380944517
-0.31592025687649716
0.0
-0.30405831383098186
-0.07807723688672784
0.0
-0.5419013338207515
-0.07753378617639982
0.0
-0.5424447845310794
-0.058579676334352036
0.0
-0.5613988943731271
0.0
-0.2788476404426813
-0.26885773503699406
-0.24240518579966214
-0.15578759757491967
0.0
0.0
0.0
0.0
0.0
0.0
0.0
0.0
0.0
-0.31654915466364936
-0.28448060834599737
0.0
-0.0479147866400286
0.0
0.0
-0.21548248811741025
-0.10413007664777262
0.0
-0.004619017169142373
0.0
0.0
0.0
0.0
0.0
-0.13849066603474217
0.0
0.0
-0.0535513502368351
-0.009499033763592415
0.0
-0.32289636122243354
0.0
0.0
-0.3735349172651565
-0.08598213779057916
0.0
-0.2050054867596982
-0.09268437630117288
0.0
-0.020540603280368722
0.0
0.0
-0.39738195014693206
-0.09780471396092753
0.0
-0.20529705086824956
-0.05063647906036421
0.0
-0.085103004707921
-0.20775821471363787
0.0
-0.1896237354332944
-0.20921871326149055
0.0
-0.24614700564393863
-0.12321777168087945
0.0
-0.16776985286939802
-0.054295459104286875
0.0
-0.2966449764396613
-0.15983128640953034
0.0
-0.26530230933457244
-0.10424662533990052
0.0
-0.2123025293237488
-0.021702935438597207
0.0
-0.498038318279822
-0.08401278801012992
0.0
-0.34112080773397285
-0.05544639744823873
0.0
-0.4319735706294204
-0.1177262146579081
0.0
-0.18537555017126894
-0.21883127131783064
0.0
-0.1547036459473259
-0.3154762457949859
0.0
-0.1398894731104434
-0.14451119227895992
0.0
-0.3429087757986991
-0.36865639139185535
0.0
-0.18371895760188883
-0.06548456394114599
0.0
-0.5178729130163329
-0.3292625686059714
0.0
-0.22311278038777263
-0.036129394852563675
0.0
-0.31481104069138455
-0.06856634622621702
0.0
-0.514791130731262
-0.3171555454303974
0.0
-0.20258570828802192
-0.08014907688372724
0.0
-0.5398294938237521
-0.15046014699037538
0.0
-0.46951842371710373
-0.4153205868980338
0.0
-0.20465798380944517
-0.31592025687649716
0.0
-0.30405831383098186
-0.07807723688672784
0.0
-0.5419013338207515
-0.07753378617639982
0.0
-0.5424447845310794
-0.058579676334352036
0.0
-0.5613988943731271
0.0
-0.2788476404426813
-0.26885773503699406
-0.24240518579966214
-0.15578759757491967
0.0
0.0
0.0
0.0
0.0
0.0
0.0
0.0
0.0
-0.4433465922846412
-0.39696165189692906
0.0
-0.06555040626547753
0.0
0.0
-0.29438268154060565
-0.13851797621070253
0.0
-0.0069425395159939925
0.0
0.0
0.0
0.0
0.0
-0.18519570685635886
0.0
0.0
-0.06322434784961195
-0.011904324971631864
0.0
-0.45060773319077463
0.0
0.0
-0.503651580441537
-0.11886046087132913
0.0
-0.28915633900087057
-0.12583280239567168
0.0
-0.026369905504151723
0.0
0.0
-0.527498613323313
-0.1267731156905
0.0
-0.2984519942645949
-0.05928171322530472
0.0
-0.1225555506224808
-0.2924137368219399
0.0
-0.23508487650137275
-0.28595010168200524
0.0
-0.2995322803998046
-0.18405977135291185
0.0
-0.2239570285192878
-0.08039927298290518
0.0
-0.4006578257374236
-0.19841009047655062
0.0
-0.3568401684439327
-0.1515324592233043
0.0
-0.2918141330613368
-0.028446235999728724
0.0
-0.6214116808950714
-0.11990288867338571
0.0
-0.4353473702470978
-0.08164505326607631
0.0
-0.5358915779879638
-0.16643090433898652
0.0
-0.25879420561610833
-0.28544971966146065
0.0
-0.21820186078007633
-0.40676378315047246
0.0
-0.17871859893133743
-0.19187035661092594
0.0
-0.4256662746431139
-0.43590082743802067
0.0
-0.24659118473210387
-0.0909349628596995
0.0
-0.6225391772741602
-0.4007932769993085
0.0
-0.2816987351708164
-0.043619455918293776
0.0
-0.43743764280203495
-0.10442297503998142
0.0
-0.6090511650938782
-0.39227970443247573
0.0
-0.25757821246232454
-0.11760653008002661
0.0
-0.6324887038038333
-0.22343136329614757
0.0
-0.526663870587712
-0.47604811818803994
0.0
-0.2740471156958197
-0.3499150067919476
0.0
-0.40018022709191203
-0.10970661741189032
0.0
-0.6403886164719695
-0.10750377281855099
0.0
-0.6425914610653087
-0.09541446372084177
0.0
-0.6546807701630177
0.0
-0.3384260669368539
-0.3226208985688066
-0.29885096870226474
-0.2103018936109295
0.0
0.0
0.0
0.0
0.0
0.0
0.0
0.0
0.0
-0.35343120980888754
-0.3213626634912356
0.0
-0.0479147866400286
0.0
0.0
-0.25236454326264846
-0.11907272749734635
0.0
-0.005523178879901147
0.0
0.0
0.0
0.0
0.0
-0.15952393761462588
0.0
0.0
-0.06079965725709584
-0.011292057324839316
0.0
-0.35798539280642494
0.0
0.0
-0.4104169724103947
-0.09883233019441841
0.0
-0.22903734950109716
-0.10591367675554664
0.0
-0.024089711295154727
0.0
0.0
-0.4342640052921704
-0.1123550382145715
0.0
-0.22762878175984377
-0.05721110696922838
0.0
-0.0990748371999186
-0.2252765331497977
0.0
-0.20898747214237282
-0.21813493603221978
0.0
-0.2741128380184476
-0.12991128279309505
0.0
-0.19795839690242062
-0.06282072588871038
0.0
-0.325001764800476
-0.15983128640953034
0.0
-0.3021843644798105
-0.11059794196739871
0.0
-0.24283326784148881
-0.025457316792783784
0.0
-0.5311659920708739
-0.09750837488445564
0.0
-0.3645072760048854
-0.0638576458806273
0.0
-0.46044437734227023
-0.13853154527433936
0.0
-0.20145227470007593
-0.23721344969577296
0.0
-0.17320352271462186
-0.3304893423599745
0.0
-0.16175843169069287
-0.16059322252953107
0.0
-0.3637088006933665
-0.38661854513147825
0.0
-0.20263885900750414
-0.07533877288673184
0.0
-0.5449007592159852
-0.3360091120325714
0.0
-0.2532482921064108
-0.041104550729969346
0.0
-0.34671793995921707
-0.07528947715345523
0.0
-0.544950054949262
-0.33546070518264354
0.0
-0.22116260368101404
-0.09816347959056702
0.0
-0.5586971462621503
-0.17148922853859275
0.0
-0.48537139731412443
-0.42651368628419273
0.0
-0.23034693956852442
-0.32357778628705286
0.0
-0.3332828395656642
-0.09066089049523722
0.0
-0.5661997353574806
-0.08967481861200206
0.0
-0.5671858072407158
-0.07403432531604344
0.0
-0.5828263005366737
0.0
-0.29560469945740214
-0.28372714256103915
-0.2584975701706442
-0.1685234280522625
0.0
0.0
0.0
0.0
0.0
0.0
0.0
0.0
0.0
-0.31654915466364936
-0.28448060834599737
0.0
-0.0479147866400286
0.0
0.0
-0.21548248811741025
-0.10413007664777262
0.0
-0.004619017169142373
0.0
0.0
0.0
0.0
0.0
-0.13849066603474217
0.0
0.0
-0.0535513502368351
-0.009499033763592415
0.0
-0.32289636122243354
0.0
0.0
-0.3735349172651565
-0.08598213779057916
0.0
-0.2050054867596982
-0.09268437630117288
0.0
-0.020540603280368722
0.0
0.0
-0.39738195014693206
-0.09780471396092753
0.0
-0.20529705086824956
-0.05063647906036421
0.0
-0.085103004707921
-0.20775821471363787
0.0
-0.1896237354332944
-0.20921871326149055
0.0
-0.24614700564393863
-0.12321777168087945
0.0
-0.16776985286939802
-0.054295459104286875
0.0
-0.2966449764396613
-0.15983128640953034
0.0
-0.26530230933457244
-0.10424662533990052
0.0
-0.2123025293237488
-0.021702935438597207
0.0
-0.498038318279822
-0.08401278801012992
0.0
-0.34112080773397285
-0.05544639744823873
0.0
-0.4319735706294204
-0.1177262146579081
0.0
-0.18537555017126894
-0.21883127131783064
0.0
-0.1547036459473259
-0.3154762457949859
0.0
-0.1398894731104434
-0.14451119227895992
0.0
-0.3429087757986991
-0.36865639139185535
0.0
-0.18371895760188883
-0.06548456394114599
0.0
-0.5178729130163329
-0.3292625686059714
0.0
-0.22311278038777263
-0.036129394852563675
0.0
-0.31481104069138455
-0.06856634622621702
0.0
-0.514791130731262
-0.3171555454303974
0.0
-0.20258570828802192
-0.08014907688372724
0.0
-0.5398294938237521
-0.15046014699037538
0.0
-0.46951842371710373
-0.4153205868980338
0.0
-0.20465798380944517
-0.31592025687649716
0.0
-0.30405831383098186
-0.07807723688672784
0.0
-0.5419013338207515
-0.07753378617639982
0.0
-0.5424447845310794
-0.058579676334352036
0.0
-0.5613988943731271
0.0
-0.2788476404426813
-0.26885773503699406
-0.24240518579966214
-0.15578759757491967
0.0
0.0
0.0
0.0
0.0
0.0
0.0
0.0
0.0
-0.4008284445484593
-0.3687598982308074
0.0
-0.0479147866400286
0.0
0.0
-0.2833678295562743
-0.13714152036301874
0.0
-0.006636426380927715
0.0
0.0
0.0
0.0
0.0
-0.1826931855301532
0.0
0.0
-0.06470312906258319
-0.011375652312701198
0.0
-0.4052990325581347
0.0
0.0
-0.4578142071499664
-0.1132232719244609
0.0
-0.26204364251062634
-0.12461917219471892
0.0
-0.025610260015270846
0.0
0.0
-0.4816612400317422
-0.12638499910928647
0.0
-0.2609960556047004
-0.06087071819555682
0.0
-0.11842884122022773
-0.24981689690606726
0.0
-0.2318443431256748
-0.24398028099002317
0.0
-0.29566472780021613
-0.1588589230319244
0.0
-0.21640799140316289
-0.07703821154148302
0.0
-0.3581815138872751
-0.16601677517719682
0.0
-0.343396110451716
-0.12322782095482533
0.0
-0.2776006235936339
-0.027872391021477212
0.0
-0.5761481525817519
-0.11707407988731332
0.0
-0.3923388057415994
-0.07844677223636774
0.0
-0.4932524857261014
-0.1568355698752143
0.0
-0.23054548483877255
-0.2517770133047129
0.0
-0.20603719384525343
-0.36766737409350014
0.0
-0.17197763469673896
-0.16360983262707526
0.0
-0.40808942533539394
-0.4083480605329886
0.0
-0.2283065783455654
-0.08880977056510214
0.0
-0.5788269962771863
-0.36504888883346454
0.0
-0.2716057500450896
-0.04389985913391138
0.0
-0.3913198662948466
-0.09975615129911479
0.0
-0.5678806155431739
-0.3569924066035494
0.0
-0.24702813699967954
-0.10753400146502284
0.0
-0.5967238591272658
-0.20364642972798438
0.0
-0.5006114308643045
-0.4494720335947446
0.0
-0.2547858269975444
-0.32780339483674115
0.0
-0.37645446575554786
-0.10695582053211485
0.0
-0.5973020400601737
-0.10478619768442826
0.0
-0.5994716629078601
-0.08589312045455673
0.0
-0.618364740137732
0.0
-0.3180294680015563
-0.30286559348387115
-0.27780193783121665
-0.1838982187558428
0.0
0.0
0.0
0.0
0.0
0.0
0.0
0.0
0.0
-0.3460329691673065
-0.31396442284965465
0.0
-0.0479147866400286
0.0
0.0
-0.24496630262106753
-0.1336138911514298
0.0
-0.004619017169142373
0.0
0.0
0.0
0.0
0.0
-0.16797448053839936
0.0
0.0
-0.07248199778501771
-0.012733601384895018
0.0
-0.3491456081047883
0.0
0.0
-0.40301873176881375
-0.10002094775412372
0.0
-0.2204504912998109
-0.11665859134910857
0.0
-0.026050202736090246
0.0
0.0
-0.42686576465058934
-0.11993717318445336
0.0
-0.2126484061483809
-0.0683043358418891
0.0
-0.09691896243005328
-0.2111826479020298
0.0
-0.21568311674855972
-0.20921871326149055
0.0
-0.27563082014759577
-0.1297674194042495
0.0
-0.1907040196496852
-0.06256907945834835
0.0
-0.31785517058925705
-0.15983128640953034
0.0
-0.29478612383822955
-0.1060496041435453
0.0
-0.2399833650237613
-0.024567920332631187
0.0
-0.5246571478894452
-0.10377895685750842
0.0
-0.35083845339025155
-0.0647511879025455
0.0
-0.4521525946787708
-0.11778271560417422
0.0
-0.2148028637286601
-0.23673997144923686
0.0
-0.16627876031957695
-0.33005777164877304
0.0
-0.15479176176031345
-0.15614164445821063
0.0
-0.36076213812310576
-0.39009049852806227
0.0
-0.19176866496933911
-0.08518153989727921
0.0
-0.5276597515638567
-0.3350559696600869
0.0
-0.2468031938373146
-0.04618466449537854
0.0
-0.334239585552227
-0.08124711270820358
0.0
-0.5315941787529325
-0.32322371113341186
0.0
-0.22600135708866476
-0.0839868691246548
0.0
-0.5654755160864814
-0.16569610325470513
0.0
-0.4837662819564312
-0.41935772715650743
0.0
-0.23010465805462882
-0.3160909983148503
0.0
-0.33337138689628587
-0.0998128043357171
0.0
-0.5496495808754192
-0.10043826122647284
0.0
-0.5490241239846633
-0.06923379383479833
0.0
-0.5802285913763375
0.0
-0.29294530834406596
-0.280641716545879
-0.2543878226737172
-0.16815081100606022
0.0
0.0
0.0
0.0
0.0
0.0
0.0
0.0
0.0
-0.31654915466364936
-0.28448060834599737
0.0
-0.0479147866400286
0.0
0.0
-0.21548248811741025
-0.10413007664777262
0.0
-0.004619017169142373
0.0
0.0
0.0
0.0
0.0
-0.13849066603474217
0.0
0.0
-0.0535513502368351
-0.009499033763592415
0.0
-0.32289636122243354
0.0
0.0
-0.3735349172651565
-0.08598213779057916
0.0
-0.2050054867596982
-0.09268437630117288
0.0
-0.020540603280368722
0.0
0.0
-0.39738195014693206
-0.09780471396092753
0.0
-0.20529705086824956
-0.05063647906036421
0.0
-0.085103004707921
-0.20775821471363787
0.0
-0.1896237354332944
-0.20921871326149055
0.0
-0.24614700564393863
-0.12321777168087945
0.0
-0.16776985286939802
-0.054295459104286875
0.0
-0.2966449764396613
-0.15983128640953034
0.0
-0.26530230933457244
-0.10424662533990052
0.0
-0.2123025293237488
-0.021702935438597207
0.0
-0.498038318279822
-0.08401278801012992
0.0
-0.34112080773397285
-0.05544639744823873
0.0
-0.4319735706294204
-0.1177262146579081
0.0
-0.18537555017126894
-0.21883127131783064
0.0
-0.1547036459473259
-0.3154762457949859
0.0
-0.1398894731104434
-0.14451119227895992
0.0
-0.3429087757986991
-0.36865639139185535
0.0
-0.18371895760188883
-0.06548456394114599
0.0
-0.5178729130163329
-0.3292625686059714
0.0
-0.22311278038777263
-0.036129394852563675
0.0
-0.31481104069138455
-0.06856634622621702
0.0
-0.514791130731262
-0.3171555454303974
0.0
-0.20258570828802192
-0.08014907688372724
0.0
-0.5398294938237521
-0.15046014699037538
0.0
-0.46951842371710373
-0.4153205868980338
0.0
-0.20465798380944517
-0.31592025687649716
0.0
-0.30405831383098186
-0.07807723688672784
0.0
-0.5419013338207515
-0.07753378617639982
0.0
-0.5424447845310794
-0.058579676334352036
0.0
-0.5613988943731271
0.0
-0.2788476404426813
-0.26885773503699406
-0.24240518579966214
-0.15578759757491967
0.0
0.0
0.0
0.0
0.0
0.0
0.0
0.0
0.0
-0.320038557311434
-0.2879700109937821
0.0
-0.0479147866400286
0.0
0.0
-0.218971890765195
-0.1074576605905153
0.0
-0.004780835874184347
0.0
0.0
0.0
0.0
0.0
-0.14198006868252688
0.0
0.0
-0.05522860690915877
-0.01038751271434688
0.0
-0.3254972849194638
0.0
0.0
-0.37702431991294116
-0.0875583696928484
0.0
-0.20691865750521374
-0.09510846234291902
0.0
-0.021605919886407234
0.0
0.0
-0.40087135279471675
-0.0995116028023152
0.0
-0.20707956467464658
-0.052132248469091924
0.0
-0.08709663794697792
-0.20788898802645273
0.0
-0.1929823647682643
-0.20921871326149055
0.0
-0.24963640829172337
-0.12372642748144913
0.0
-0.1707505997166131
-0.055921816764749964
0.0
-0.29850802142698285
-0.15983128640953034
0.0
-0.2687917119823572
-0.10481775412837985
0.0
-0.21522080318305423
-0.021814136045802773
0.0
-0.501416520320401
-0.0862023845520622
0.0
-0.3424206138398252
-0.05715264566485055
0.0
-0.4337567250605932
-0.11799717027822436
0.0
-0.18859399719873746
-0.21999571573388702
0.0
-0.15702860417905432
-0.3177096536088046
0.0
-0.1411454679444094
-0.14502679027711404
0.0
-0.34588258044832987
-0.3708146170561768
0.0
-0.185050134585352
-0.06793127089846546
0.0
-0.5189156087067981
-0.33035020761666084
0.0
-0.22551454402486812
-0.03701869079845247
0.0
-0.3174111473932804
-0.07022417332348845
0.0
-0.516622706281775
-0.31773550682183943
0.0
-0.2054951495443646
-0.08147326051935892
0.0
-0.541994712835905
-0.15256714066819357
0.0
-0.4709008326870703
-0.4158806183827068
0.0
-0.207587354972557
-0.31629334183961816
0.0
-0.30717463151564556
-0.0807503055088646
0.0
-0.5427176678463993
-0.08027153446519798
0.0
-0.543196438890066
-0.05960076315044754
0.0
-0.5638672102048162
0.0
-0.28050173950824303
-0.27028176360429973
-0.2438491326232018
-0.15755820724463449
0.0
0.0
0.0
0.0
0.0
0.0
0.0
0.0
0.0
-0.31654915466364936
-0.28448060834599737
0.0
-0.0479147866400286
0.0
0.0
-0.21548248811741025
-0.10413007664777262
0.0
-0.004619017169142373
0.0
0.0
0.0
0.0
0.0
-0.13849066603474217
0.0
0.0
-0.0535513502368351
-0.009499033763592415
0.0
-0.32289636122243354
0.0
0.0
-0.3735349172651565
-0.08598213779057916
0.0
-0.2050054867596982
-0.09268437630117288
0.0
-0.020540603280368722
0.0
0.0
-0.39738195014693206
-0.09780471396092753
0.0
-0.20529705086824956
-0.05063647906036421
0.0
-0.085103004707921
-0.20775821471363787
0.0
-0.1896237354332944
-0.20921871326149055
0.0
-0.24614700564393863
-0.12321777168087945
0.0
-0.16776985286939802
-0.054295459104286875
0.0
-0.2966449764396613
-0.15983128640953034
0.0
-0.26530230933457244
-0.10424662533990052
0.0
-0.2123025293237488
-0.021702935438597207
0.0
-0.498038318279822
-0.08401278801012992
0.0
-0.34112080773397285
-0.05544639744823873
0.0
-0.4319735706294204
-0.1177262146579081
0.0
-0.18537555017126894
-0.21883127131783064
0.0
-0.1547036459473259
-0.3154762457949859
0.0
-0.1398894731104434
-0.14451119227895992
0.0
-0.3429087757986991
-0.36865639139185535
0.0
-0.18371895760188883
-0.06548456394114599
0.0
-0.5178729130163329
-0.3292625686059714
0.0
-0.22311278038777263
-0.036129394852563675
0.0
-0.31481104069138455
-0.06856634622621702
0.0
-0.514791130731262
-0.3171555454303974
0.0
-0.20258570828802192
-0.08014907688372724
0.0
-0.5398294938237521
-0.15046014699037538
0.0
-0.46951842371710373
-0.4153205868980338
0.0
-0.20465798380944517
-0.31592025687649716
0.0
-0.30405831383098186
-0.07807723688672784
0.0
-0.5419013338207515
-0.07753378617639982
0.0
-0.5424447845310794
-0.058579676334352036
0.0
-0.5613988943731271
0.0
-0.2788476404426813
-0.26885773503699406
-0.24240518579966214
-0.15578759757491967
0.0
0.0
0.0
0.0
0.0
0.0
0.0
0.0
0.0
-0.31654915466364936
-0.28448060834599737
0.0
-0.0479147866400286
0.0
0.0
-0.21548248811741025
-0.10413007664777262
0.0
-0.004619017169142373
0.0
0.0
0.0
0.0
0.0
-0.13849066603474217
0.0
0.0
-0.0535513502368351
-0.009499033763592415
0.0
-0.32289636122243354
0.0
0.0
-0.3735349172651565
-0.08598213779057916
0.0
-0.2050054867596982
-0.09268437630117288
0.0
-0.020540603280368722
0.0
0.0
-0.39738195014693206
-0.09780471396092753
0.0
-0.20529705086824956
-0.05063647906036421
0.0
-0.085103004707921
-0.20775821471363787
0.0
-0.1896237354332944
-0.20921871326149055
0.0
-0.24614700564393863
-0.12321777168087945
0.0
-0.16776985286939802
-0.054295459104286875
0.0
-0.2966449764396613
-0.15983128640953034
0.0
-0.26530230933457244
-0.10424662533990052
0.0
-0.2123025293237488
-0.021702935438597207
0.0
-0.498038318279822
-0.08401278801012992
0.0
-0.34112080773397285
-0.05544639744823873
0.0
-0.4319735706294204
-0.1177262146579081
0.0
-0.18537555017126894
-0.21883127131783064
0.0
-0.1547036459473259
-0.3154762457949859
0.0
-0.1398894731104434
-0.14451119227895992
0.0
-0.3429087757986991
-0.36865639139185535
0.0
-0.18371895760188883
-0.06548456394114599
0.0
-0.5178729130163329
-0.3292625686059714
0.0
-0.22311278038777263
-0.036129394852563675
0.0
-0.31481104069138455
-0.06856634622621702
0.0
-0.514791130731262
-0.3171555454303974
0.0
-0.20258570828802192
-0.08014907688372724
0.0
-0.5398294938237521
-0.15046014699037538
0.0
-0.46951842371710373
-0.4153205868980338
0.0
-0.20465798380944517
-0.31592025687649716
0.0
-0.30405831383098186
-0.07807723688672784
0.0
-0.5419013338207515
-0.07753378617639982
0.0
-0.5424447845310794
-0.058579676334352036
0.0
-0.5613988943731271
0.0
-0.2788476404426813
-0.26885773503699406
-0.24240518579966214
-0.15578759757491967
0.0
0.0
0.0
0.0
0.0
0.0
0.0
0.0
0.0
-0.445056833447532
-0.3957172347828589
0.0
-0.07143778850150816
0.0
0.0
-0.2927550745962074
-0.13839805468842212
0.0
-0.006861810871003369
0.0
0.0
0.0
0.0
0.0
-0.1842662449854742
0.0
0.0
-0.06251203253816287
-0.011933735765631972
0.0
-0.45522128751873503
0.0
0.0
-0.5123894776312684
-0.11847599773346873
0.0
-0.2887962588588405
-0.12565257886091197
0.0
-0.026247096568742526
0.0
0.0
-0.536236510513044
-0.12547124751002295
0.0
-0.2998531243711613
-0.058589917328861554
0.0
-0.12241630177395842
-0.29766418656160676
0.0
-0.2385723239514374
-0.2962812359425965
0.0
-0.2979390433289447
-0.18487855096672914
0.0
-0.22239370562557986
-0.08080243951482272
0.0
-0.40899255639523746
-0.20884517403506606
0.0
-0.3551429820751487
-0.15292597605847774
0.0
-0.29213085738905425
-0.028032454032491622
0.0
-0.6305633600520398
-0.1198837079897587
0.0
-0.44410444812045596
-0.08209583391908501
0.0
-0.5441786945246863
-0.16481656372269876
0.0
-0.2605078081584854
-0.2938829412642254
0.0
-0.21850653636704317
-0.4167779276681013
0.0
-0.17744235160343977
-0.19382375937852686
0.0
-0.4324507690652442
-0.44497448518436394
0.0
-0.24625542417549212
-0.09130814118036568
0.0
-0.6309038961432255
-0.4105699921575463
0.0
-0.2806599172023099
-0.043247356438048834
0.0
-0.446547639472011
-0.10454727797394896
0.0
-0.6176647593496424
-0.40095655258420676
0.0
-0.2576392615003245
-0.11727185200494031
0.0
-0.641561279068651
-0.2238257992189234
0.0
-0.5350073318546675
-0.4841186654444691
0.0
-0.27471446562912183
-0.3589074103062425
0.0
-0.39992572076734845
-0.10992835126370484
0.0
-0.6489047798098864
-0.10786545358068564
0.0
-0.6509676774929054
-0.09615696475527868
0.0
-0.6626761663183127
0.0
-0.3441061084131548
-0.32648812605508876
-0.2998676272727341
-0.22017743213785915
0.0
0.0
0.0
0.0
0.0
0.0
0.0
0.0
0.0
-0.34714384899992495
-0.3150753026822732
0.0
-0.0479147866400286
0.0
0.0
-0.24607718245368598
-0.1306715691020505
0.0
-0.005717100550048066
0.0
0.0
0.0
0.0
0.0
-0.16908536037101787
0.0
0.0
-0.06940710460429945
-0.012931386425867882
0.0
-0.3500587028964338
0.0
0.0
-0.40412961160143207
-0.09780670853090573
0.0
-0.22377561035564744
-0.11483854466776751
0.0
-0.027002332418192845
0.0
0.0
-0.42797664448320777
-0.1188645610981575
0.0
-0.21483189806729533
-0.06531983455314805
0.0
-0.10101434355141291
-0.21041194609003638
0.0
-0.2175646983931717
-0.20921871326149055
0.0
-0.2767416999802145
-0.12765585520438882
0.0
-0.1939264636821644
-0.06549578772067505
0.0
-0.3160393421595488
-0.15983128640953034
0.0
-0.2958970036708482
-0.10622819312410094
0.0
-0.24091565587582417
-0.02490255392483389
0.0
-0.5254333941298609
-0.10452841155138798
0.0
-0.3511998785289905
-0.06679558522005624
0.0
-0.45121907719387855
-0.12240878360847311
0.0
-0.21128767555697972
-0.23400629794759004
0.0
-0.17012331365384228
-0.3345945857315274
0.0
-0.15136582751017763
-0.15392874649748758
0.0
-0.3640859159164474
-0.3915130877835396
0.0
-0.1914569555464801
-0.08180383498784906
0.0
-0.5321483363059054
-0.3393572688903705
0.0
-0.24361277443964935
-0.046101844900253305
0.0
-0.33543328497997044
-0.07834204483096695
0.0
-0.5356101264627877
-0.32241810244026975
0.0
-0.22791784561442524
-0.08909654331837137
0.0
-0.5614767217253832
-0.16300507593037739
0.0
-0.48756818911337724
-0.42349662137931643
0.0
-0.22707664366443817
-0.32021927944341355
0.0
-0.3303539856003411
-0.09805307258209593
0.0
-0.5525201924616586
-0.09753045847343361
0.0
-0.5530428065703209
-0.06618029735757075
0.0
-0.5843929676861839
0.0
-0.2934981912908664
-0.28104624537500217
-0.2551003827550266
-0.16864687317698177
0.0
0.0
0.0
0.0
0.0
0.0
0.0
0.0
0.0
-0.31654915466364936
-0.28448060834599737
0.0
-0.0479147866400286
0.0
0.0
-0.21548248811741025
-0.10413007664777262
0.0
-0.004619017169142373
0.0
0.0
0.0
0.0
0.0
-0.13849066603474217
0.0
0.0
-0.0535513502368351
-0.009499033763592415
0.0
-0.32289636122243354
0.0
0.0
-0.3735349172651565
-0.08598213779057916
0.0
-0.2050054867596982
-0.09268437630117288
0.0
-0.020540603280368722
0.0
0.0
-0.39738195014693206
-0.09780471396092753
0.0
-0.20529705086824956
-0.05063647906036421
0.0
-0.085103004707921
-0.20775821471363787
0.0
-0.1896237354332944
-0.20921871326149055
0.0
-0.24614700564393863
-0.12321777168087945
0.0
-0.16776985286939802
-0.054295459104286875
0.0
-0.2966449764396613
-0.15983128640953034
0.0
-0.26530230933457244
-0.10424662533990052
0.0
-0.2123025293237488
-0.021702935438597207
0.0
-0.498038318279822
-0.08401278801012992
0.0
-0.34112080773397285
-0.05544639744823873
0.0
-0.4319735706294204
-0.1177262146579081
0.0
-0.18537555017126894
-0.21883127131783064
0.0
-0.1547036459473259
-0.3154762457949859
0.0
-0.1398894731104434
-0.14451119227895992
0.0
-0.3429087757986991
-0.36865639139185535
0.0
-0.18371895760188883
-0.06548456394114599
0.0
-0.5178729130163329
-0.3292625686059714
0.0
-0.22311278038777263
-0.036129394852563675
0.0
-0.31481104069138455
-0.06856634622621702
0.0
-0.514791130731262
-0.3171555454303974
0.0
-0.20258570828802192
-0.08014907688372724
0.0
-0.5398294938237521
-0.15046014699037538
0.0
-0.46951842371710373
-0.4153205868980338
0.0
-0.20465798380944517
-0.31592025687649716
0.0
-0.30405831383098186
-0.07807723688672784
0.0
-0.5419013338207515
-0.07753378617639982
0.0
-0.5424447845310794
-0.058579676334352036
0.0
-0.5613988943731271
0.0
-0.2788476404426813
-0.26885773503699406
-0.24240518579966214
-0.15578759757491967
0.0
0.0
0.0
0.0
0.0
0.0
0.0
0.0
0.0
-0.40940991056134146
-0.37734136424368975
0.0
-0.0479147866400286
0.0
0.0
-0.28696492750490643
-0.12977450074574623
0.0
-0.006485071284068601
0.0
0.0
0.0
0.0
0.0
-0.17598837901840178
0.0
0.0
-0.05966975157383866
-0.010455250555176033
0.0
-0.4148009003285421
0.0
0.0
-0.4663956731628487
-0.11498326808110595
0.0
-0.2688651123668637
-0.11872594073691264
0.0
-0.02391013546611348
0.0
0.0
-0.4902427060446244
-0.1218984811312946
0.0
-0.2740640395955747
-0.056110195244394825
0.0
-0.1162549994726934
-0.2644655278274976
0.0
-0.22577717821712692
-0.2554666689734047
0.0
-0.2927598058297168
-0.16571030294474276
0.0
-0.21813807750322686
-0.0748959013040644
0.0
-0.36890529013757606
-0.17011439139531132
0.0
-0.3478799602464838
-0.13060949618305345
0.0
-0.2788004143782882
-0.02800059710463279
0.0
-0.5846014125114791
-0.11223984589094843
0.0
-0.40575450575084654
-0.07613553274466528
0.0
-0.5041451912306864
-0.1669044297093414
0.0
-0.2290580910175278
-0.2572978644206148
0.0
-0.20909780874223394
-0.3700008647941534
0.0
-0.17822561000896783
-0.17042801020794873
0.0
-0.4098527137674027
-0.40645431722935227
0.0
-0.2387817876620842
-0.0845904771163717
0.0
-0.5916277557387997
-0.36781857591358574
0.0
-0.2774175289778505
-0.04094246898075769
0.0
-0.40285872246088267
-0.0987481147474405
0.0
-0.5774701181077304
-0.36855027430362264
0.0
-0.24405173531248903
-0.11375227867372616
0.0
-0.599087047931445
-0.21205837299020508
0.0
-0.5007809536149659
-0.453186223984909
0.0
-0.25965310262026214
-0.3300858963587962
0.0
-0.3827534302463751
-0.10214625615429164
0.0
-0.6106930704508803
-0.0997497981845148
0.0
-0.6130895284206568
-0.09111507131587536
0.0
-0.6217242552892959
0.0
-0.3210402556567827
-0.30658795513349757
-0.2814969511821358
-0.1846757854333943
0.0
0.0
0.0
0.0
0.0
0.0
0.0
0.0
0.0
-0.3260944936902414
-0.2940259473725895
0.0
-0.0479147866400286
0.0
0.0
-0.22502782714400246
-0.11367541567436483
0.0
-0.004619017169142373
0.0
0.0
0.0
0.0
0.0
-0.14803600506133435
0.0
0.0
-0.06309668926342737
-0.012350504805855457
0.0
-0.3295902292067626
0.0
0.0
-0.3830802562917486
-0.09184279742194511
0.0
-0.20869016615492453
-0.0977567702386348
0.0
-0.02501354836949904
0.0
0.0
-0.40692728917352416
-0.10575710055454503
0.0
-0.20689000330122426
-0.05924324635223322
0.0
-0.08604157644264425
-0.2092571612650324
0.0
-0.19767012790849206
-0.20921871326149055
0.0
-0.2556923446705309
-0.12330371216137041
0.0
-0.17722925141549928
-0.054295459104286875
0.0
-0.30619031546625325
-0.15983128640953034
0.0
-0.2748476483611646
-0.10583957777287525
0.0
-0.22025491591736632
-0.023569212593926164
0.0
-0.5057173801510851
-0.08811269004822324
0.0
-0.3465662447224716
-0.05544639744823873
0.0
-0.4415189096560124
-0.1177262146579081
0.0
-0.19492088919786116
-0.225865898969947
0.0
-0.15721435732180178
-0.3216661064082656
0.0
-0.1432449515237558
-0.1498806349250552
0.0
-0.34708467217919625
-0.3731503652700516
0.0
-0.18877032275028466
-0.07053737451350522
0.0
-0.5223654414705661
-0.3311922114921895
0.0
-0.2307284765281468
-0.042111257022348504
0.0
-0.31837451754819185
-0.07121725250740753
0.0
-0.5216855634766637
-0.32007207756110384
0.0
-0.20921451518390763
-0.08334895294005268
0.0
-0.5461749567940186
-0.15470935625299445
0.0
-0.4748145534810767
-0.41660362168000337
0.0
-0.21292028805406785
-0.31592025687649716
0.0
-0.31360365285757397
-0.08428109547107204
0.0
-0.5452428142629994
-0.08493707170207962
0.0
-0.5445868380319917
-0.05875870936249676
0.0
-0.5707652003715747
0.0
-0.28339490243723553
-0.2729416147760806
-0.24603859773147857
-0.15894490211961912
0.0
0.0
0.0
0.0
0.0
0.0
0.0
0.0
0.0
-0.31654915466364936
-0.28448060834599737
0.0
-0.0479147866400286
0.0
0.0
-0.21548248811741025
-0.10413007664777262
0.0
-0.004619017169142373
0.0
0.0
0.0
0.0
0.0
-0.13849066603474217
0.0
0.0
-0.0535513502368351
-0.009499033763592415
0.0
-0.32289636122243354
0.0
0.0
-0.3735349172651565
-0.08598213779057916
0.0
-0.2050054867596982
-0.09268437630117288
0.0
-0.020540603280368722
0.0
0.0
-0.39738195014693206
-0.09780471396092753
0.0
-0.20529705086824956
-0.05063647906036421
0.0
-0.085103004707921
-0.20775821471363787
0.0
-0.1896237354332944
-0.20921871326149055
0.0
-0.24614700564393863
-0.12321777168087945
0.0
-0.16776985286939802
-0.054295459104286875
0.0
-0.2966449764396613
-0.15983128640953034
0.0
-0.26530230933457244
-0.10424662533990052
0.0
-0.2123025293237488
-0.021702935438597207
0.0
-0.498038318279822
-0.08401278801012992
0.0
-0.34112080773397285
-0.05544639744823873
0.0
-0.4319735706294204
-0.1177262146579081
0.0
-0.18537555017126894
-0.21883127131783064
0.0
-0.1547036459473259
-0.3154762457949859
0.0
-0.1398894731104434
-0.14451119227895992
0.0
-0.3429087757986991
-0.36865639139185535
0.0
-0.18371895760188883
-0.06548456394114599
0.0
-0.5178729130163329
-0.3292625686059714
0.0
-0.22311278038777263
-0.036129394852563675
0.0
-0.31481104069138455
-0.06856634622621702
0.0
-0.514791130731262
-0.3171555454303974
0.0
-0.20258570828802192
-0.08014907688372724
0.0
-0.5398294938237521
-0.15046014699037538
0.0
-0.46951842371710373
-0.4153205868980338
0.0
-0.20465798380944517
-0.31592025687649716
0.0
-0.30405831383098186
-0.07807723688672784
0.0
-0.5419013338207515
-0.07753378617639982
0.0
-0.5424447845310794
-0.058579676334352036
0.0
-0.5613988943731271
0.0
-0.2788476404426813
-0.26885773503699406
-0.24240518579966214
-0.15578759757491967
0.0
0.0
0.0
0.0
0.0
0.0
0.0
0.0
0.0
-0.35125823083173063
-0.31918968451407875
0.0
-0.0479147866400286
0.0
0.0
-0.2501915642854918
-0.13539957994569046
0.0
-0.005634451849352518
0.0
0.0
0.0
0.0
0.0
-0.17319974220282358
0.0
0.0
-0.06748762939052921
-0.01144355978791004
0.0
-0.35566091136619726
0.0
0.0
-0.4082439934332377
-0.0978866713124571
0.0
-0.22781002940590184
-0.12172749953305624
0.0
-0.024668296850969943
0.0
0.0
-0.43209102631501334
-0.12043521318439197
0.0
-0.21737562781286657
-0.06381187831525485
0.0
-0.1066366816211118
-0.2102231509226255
0.0
-0.22186787539238825
-0.20921871326149055
0.0
-0.2808560818120202
-0.13117909703698719
0.0
-0.19451760368137175
-0.0706780790822248
0.0
-0.31497143262980454
-0.15983128640953034
0.0
-0.3000113855026539
-0.10542406903408576
0.0
-0.24583416179764514
-0.023846298989677564
0.0
-0.530604030896823
-0.11050223372197195
0.0
-0.349340438190212
-0.07265732073089921
0.0
-0.44947172351484105
-0.12175409555090834
0.0
-0.2160567454463502
-0.23422375077925925
0.0
-0.1740202426539788
-0.3348610729969185
0.0
-0.15521372207659218
-0.15293735846563508
0.0
-0.36919168578010564
-0.39701780980336526
0.0
-0.19006661535846017
-0.08735920682417808
0.0
-0.5307073463013823
-0.33965276776179715
0.0
-0.24743165740002845
-0.04383414612816751
0.0
-0.3418153655838619
-0.08275001713845702
0.0
-0.5353165359871034
-0.32181171755084775
0.0
-0.2326386123356529
-0.08688779793809313
0.0
-0.5677998489374673
-0.16739602587809463
0.0
-0.48729162099746565
-0.42319221238132376
0.0
-0.23149543449423654
-0.31985280143845335
0.0
-0.33483484543710695
-0.10300926479909743
0.0
-0.5516783820764631
-0.10192118359453754
0.0
-0.5527664632810229
-0.07264038917079348
0.0
-0.5820472577047667
0.0
-0.29543705766144485
-0.2826299079463581
-0.25695894709009093
-0.17196949031598374
0.0
0.0
0.0
0.0
0.0
0.0
0.0
0.0
0.0
-0.41609288158526797
-0.3797659046763741
0.0
-0.05217321723127052
0.0
0.0
-0.2813837203746927
-0.12464746342704447
0.0
-0.006569362056880264
0.0
0.0
0.0
0.0
0.0
-0.17083399413741726
0.0
0.0
-0.05730495456574898
-0.010403652662202587
0.0
-0.4215354692454421
0.0
0.0
-0.47307864418677537
-0.1135701706508573
0.0
-0.27517782900872234
-0.11384196491615341
0.0
-0.02381437416608352
0.0
0.0
-0.49692567706855106
-0.11824582152121421
0.0
-0.2843996702295811
-0.05378458448375567
0.0
-0.11352145643263196
-0.27553471965748905
0.0
-0.2213909574110616
-0.26833303103677936
0.0
-0.2865764147902685
-0.174846758643765
0.0
-0.21390124101581454
-0.07283472005151208
0.0
-0.3776494424140546
-0.18121726628886586
0.0
-0.3434600563768555
-0.14199177538942828
0.0
-0.27410110619583944
-0.027831575327885036
0.0
-0.5914534053121527
-0.10864108273154169
0.0
-0.4160362399341796
-0.07374733679896724
0.0
-0.5132163582003105
-0.16696203365828763
0.0
-0.2356834580925077
-0.264609272434386
0.0
-0.20846937175238892
-0.38047148067049424
0.0
-0.17443796515655344
-0.17725538951935652
0.0
-0.40970830547992126
-0.40990635422146715
0.0
-0.24201272169389562
-0.08063717856742049
0.0
-0.602264025311677
-0.37940324986364665
0.0
-0.27251582605171604
-0.04007103929624277
0.0
-0.4104131231693239
-0.09752654982220561
0.0
-0.5853746540568917
-0.3765110208170207
0.0
-0.24277395982301692
-0.11433589692560586
0.0
-0.6051864007034914
-0.21355362113069645
0.0
-0.5059686764984012
-0.46024894864809446
0.0
-0.2592733489810031
-0.3355032587860826
0.0
-0.3840190388430152
-0.09829024755130826
0.0
-0.6212320500777891
-0.09582652753114201
0.0
-0.6236957700979552
-0.08883660378362411
0.0
-0.6306856938454732
0.0
-0.3238552924722451
-0.307769181351359
-0.2864363031937751
-0.18890291356407876
0.0
0.0
0.0
0.0
0.0
0.0
0.0
0.0
0.0
-0.31654915466364936
-0.28448060834599737
0.0
-0.0479147866400286
0.0
0.0
-0.21548248811741025
-0.10413007664777262
0.0
-0.004619017169142373
0.0
0.0
0.0
0.0
0.0
-0.13849066603474217
0.0
0.0
-0.0535513502368351
-0.009499033763592415
0.0
-0.32289636122243354
0.0
0.0
-0.3735349172651565
-0.08598213779057916
0.0
-0.2050054867596982
-0.09268437630117288
0.0
-0.020540603280368722
0.0
0.0
-0.39738195014693206
-0.09780471396092753
0.0
-0.20529705086824956
-0.05063647906036421
0.0
-0.085103004707921
-0.20775821471363787
0.0
-0.1896237354332944
-0.20921871326149055
0.0
-0.24614700564393863
-0.12321777168087945
0.0
-0.16776985286939802
-0.054295459104286875
0.0
-0.2966449764396613
-0.15983128640953034
0.0
-0.26530230933457244
-0.10424662533990052
0.0
-0.2123025293237488
-0.021702935438597207
0.0
-0.498038318279822
-0.08401278801012992
0.0
-0.34112080773397285
-0.05544639744823873
0.0
-0.4319735706294204
-0.1177262146579081
0.0
-0.18537555017126894
-0.21883127131783064
0.0
-0.1547036459473259
-0.3154762457949859
0.0
-0.1398894731104434
-0.14451119227895992
0.0
-0.3429087757986991
-0.36865639139185535
0.0
-0.18371895760188883
-0.06548456394114599
0.0
-0.5178729130163329
-0.3292625686059714
0.0
-0.22311278038777263
-0.036129394852563675
0.0
-0.31481104069138455
-0.06856634622621702
0.0
-0.514791130731262
-0.3171555454303974
0.0
-0.20258570828802192
-0.08014907688372724
0.0
-0.5398294938237521
-0.15046014699037538
0.0
-0.46951842371710373
-0.4153205868980338
0.0
-0.20465798380944517
-0.31592025687649716
0.0
-0.30405831383098186
-0.07807723688672784
0.0
-0.5419013338207515
-0.07753378617639982
0.0
-0.5424447845310794
-0.058579676334352036
0.0
-0.5613988943731271
0.0
-0.2788476404426813
-0.26885773503699406
-0.24240518579966214
-0.15578759757491967
0.0
0.0
0.0
0.0
0.0
0.0
0.0
0.0
0.0
-0.386478859931087
-0.340547106228585
0.0
-0.06802994353933696
0.0
0.0
-0.25776466514592855
-0.13492610223282628
0.0
-0.005714306571803334
0.0
0.0
0.0
0.0
0.0
-0.1727561503327941
0.0
0.0
-0.06589492608325052
-0.012373068103033576
0.0
-0.3962039816648884
0.0
0.0
-0.4538115041148234
-0.10423617378971863
0.0
-0.24597692769595114
-0.12023352029961573
0.0
-0.02585014810311284
0.0
0.0
-0.4776585369965991
-0.1188948424390687
0.0
-0.24785155592567054
-0.06195157100156495
0.0
-0.10813948138520789
-0.2510466946163036
0.0
-0.2266118423802955
-0.2550474841437158
0.0
-0.28059482161138016
-0.1518006172263538
0.0
-0.19841248425931587
-0.07199740935676109
0.0
-0.359219613036854
-0.1934116650822946
0.0
-0.3119985175114751
-0.1270033563256225
0.0
-0.25947550360546434
-0.02434694325866046
0.0
-0.5756708973094261
-0.1111411140493392
0.0
-0.39426906854443067
-0.07380163271826848
0.0
-0.49389492220905784
-0.13097355766329996
0.0
-0.2357728407014392
-0.26717250487718797
0.0
-0.18663899923763547
-0.3769419314614763
0.0
-0.15870037429361966
-0.17328712805822125
0.0
-0.39440942686910496
-0.42409428315406816
0.0
-0.20855765268934298
-0.08830774784124891
0.0
-0.5753263159658976
-0.3781501837848896
0.0
-0.25450175205852144
-0.043525375313137396
0.0
-0.38769164708047776
-0.08992072436697558
0.0
-0.573713339440171
-0.36100217799927803
0.0
-0.23901566256880832
-0.09566715491320486
0.0
-0.6045880026439415
-0.1865557015604817
0.0
-0.5136994559966646
-0.4544328634405295
0.0
-0.24582229411661646
-0.34519644335057814
0.0
-0.355058714206568
-0.10445123546928066
0.0
-0.5958039220878654
-0.10378183124816757
0.0
-0.5964733263089785
-0.08022376357938797
0.0
-0.6200313939777584
0.0
-0.31829525332456066
-0.3038365642224586
-0.2740487111011305
-0.20253801418541628
0.0
0.0
0.0
0.0
0.0
0.0
0.0
0.0
0.0
-0.4217302168465992
-0.3753452764588871
0.0
-0.06555040626547753
0.0
0.0
-0.2727663061025636
-0.121535025813652
0.0
-0.006233804525195586
0.0
0.0
0.0
0.0
0.0
-0.16428658134904212
0.0
0.0
-0.05506613260178182
-0.010181334533740654
0.0
-0.43071434819062393
0.0
0.0
-0.4820352050034952
-0.1124458985083648
0.0
-0.27395452592579295
-0.11088382584952722
0.0
-0.022939112318726643
0.0
0.0
-0.5058822378852711
-0.11278113451623291
0.0
-0.29082760000082003
-0.05166946987638243
0.0
-0.10945947791628413
-0.2901005941960052
0.0
-0.2157816436892655
-0.28595010168200524
0.0
-0.27791590496176255
-0.18085353134732426
0.0
-0.2055468930868336
-0.07131452138429395
0.0
-0.3881262018979928
-0.19841009047655062
0.0
-0.3352237930058906
-0.15036844501951918
0.0
-0.27136177182708
-0.025864716285379164
0.0
-0.6023768251713789
-0.10572366199434374
0.0
-0.42791022148809776
-0.07237966506281938
0.0
-0.5235405907531786
-0.16141946034055515
0.0
-0.24218927417649774
-0.2752674072244582
0.0
-0.20676779777903684
-0.39427947876431896
0.0
-0.169586527879449
-0.18542403036665397
0.0
-0.410496225449344
-0.41918575108291906
0.0
-0.24168988564916372
-0.0794845279387457
0.0
-0.6123732367570719
-0.3943338221823738
0.0
-0.26654181454970904
-0.038367609259792046
0.0
-0.42107311402249487
-0.09753199727125342
0.0
-0.5943257674245642
-0.3881468816144846
0.0
-0.24009465984227366
-0.1119987740107522
0.0
-0.6164800844350656
-0.21361086792350928
0.0
-0.5148679905223082
-0.46949904311379537
0.0
-0.25897981533202225
-0.3459489010295958
0.0
-0.38252995741622187
-0.09627213354258594
0.0
-0.6322067249032317
-0.09412515913940568
0.0
-0.634353699306412
-0.08908227383233694
0.0
-0.6393965846134807
0.0
-0.32829758147717314
-0.31384894536082797
-0.2902155652463754
-0.2011444707795226
0.0
0.0
0.0
0.0
0.0
0.0
0.0
0.0
0.0
-0.31654915466364936
-0.28448060834599737
0.0
-0.0479147866400286
0.0
0.0
-0.21548248811741025
-0.10413007664777262
0.0
-0.004619017169142373
0.0
0.0
0.0
0.0
0.0
-0.13849066603474217
0.0
0.0
-0.0535513502368351
-0.009499033763592415
0.0
-0.32289636122243354
0.0
0.0
-0.3735349172651565
-0.08598213779057916
0.0
-0.2050054867596982
-0.09268437630117288
0.0
-0.020540603280368722
0.0
0.0
-0.39738195014693206
-0.09780471396092753
0.0
-0.20529705086824956
-0.05063647906036421
0.0
-0.085103004707921
-0.20775821471363787
0.0
-0.1896237354332944
-0.20921871326149055
0.0
-0.24614700564393863
-0.12321777168087945
0.0
-0.16776985286939802
-0.054295459104286875
0.0
-0.2966449764396613
-0.15983128640953034
0.0
-0.26530230933457244
-0.10424662533990052
0.0
-0.2123025293237488
-0.021702935438597207
0.0
-0.498038318279822
-0.08401278801012992
0.0
-0.34112080773397285
-0.05544639744823873
0.0
-0.4319735706294204
-0.1177262146579081
0.0
-0.18537555017126894
-0.21883127131783064
0.0
-0.1547036459473259
-0.3154762457949859
0.0
-0.1398894731104434
-0.14451119227895992
0.0
-0.3429087757986991
-0.36865639139185535
0.0
-0.18371895760188883
-0.06548456394114599
0.0
-0.5178729130163329
-0.3292625686059714
0.0
-0.22311278038777263
-0.036129394852563675
0.0
-0.31481104069138455
-0.06856634622621702
0.0
-0.514791130731262
-0.3171555454303974
0.0
-0.20258570828802192
-0.08014907688372724
0.0
-0.5398294938237521
-0.15046014699037538
0.0
-0.46951842371710373
-0.4153205868980338
0.0
-0.20465798380944517
-0.31592025687649716
0.0
-0.30405831383098186
-0.07807723688672784
0.0
-0.5419013338207515
-0.07753378617639982
0.0
-0.5424447845310794
-0.058579676334352036
0.0
-0.5613988943731271
0.0
-0.2788476404426813
-0.26885773503699406
-0.24240518579966214
-0.15578759757491967
0.0
0.0
0.0
0.0
0.0
0.0
0.0
0.0
0.0
-0.3862479014793867
-0.3452797084780458
0.0
-0.06340504548425763
0.0
0.0
-0.2649057263480878
-0.13848255596691672
0.0
-0.005901629844849581
0.0
0.0
0.0
0.0
0.0
-0.1784594225141687
0.0
0.0
-0.06604668586857586
-0.012565911447483473
0.0
-0.3961188425148199
0.0
0.0
-0.4716889512494915
-0.10493938675321514
0.0
-0.24927986251338902
-0.12368094644441101
0.0
-0.026321257673375256
0.0
0.0
-0.5022073707352038
-0.1220666659341779
0.0
-0.2468933672019103
-0.06202083290885204
0.0
-0.11356952744851675
-0.24557135616552225
0.0
-0.25663601456968166
-0.26635891830360237
0.0
-0.2938322211900985
-0.14958306134513444
0.0
-0.20463618792146981
-0.07540138935627044
0.0
-0.3624411827774623
-0.21119856688147418
0.0
-0.31876044945090026
-0.12263283660827219
0.0
-0.2636150648711144
-0.025746376808018175
0.0
-0.598820297498673
-0.11519506948027393
0.0
-0.4147639468521007
-0.07727744691412297
0.0
-0.514967941751808
-0.13434230532209354
0.0
-0.23461772781399454
-0.26982949656148614
0.0
-0.20185945468800523
-0.3979230957695595
0.0
-0.1622680437241414
-0.1690046995234115
0.0
-0.4232406891425194
-0.4475598595362342
0.0
-0.20964091004578173
-0.0913218009031072
0.0
-0.5968610966426434
-0.39690930549702974
0.0
-0.2602914640849861
-0.044014862117282096
0.0
-0.3938277100164506
-0.09122935773067176
0.0
-0.5969535398150797
-0.38090368631052907
0.0
-0.24366298799616212
-0.09833276623705275
0.0
-0.6264712250586981
-0.19023447047397024
0.0
-0.5345695208217804
-0.47476237932675874
0.0
-0.2500416119689919
-0.3660999782255722
0.0
-0.3587040130701786
-0.10812244460131014
0.0
-0.6166815466944405
-0.10735397319206802
0.0
-0.6174500181036827
-0.08374100252513668
0.0
-0.6410629887706139
0.0
-0.3310308417791278
-0.3099648457594211
-0.28032230715813783
-0.2181458626811626
0.0
0.0
0.0
0.0
0.0
0.0
0.0
0.0
0.0
-0.38479519783566
-0.3527266515180082
0.0
-0.0479147866400286
0.0
0.0
-0.2673345828434751
-0.11960994704886325
0.0
-0.005865397442648635
0.0
0.0
0.0
0.0
0.0
-0.16113891682350992
0.0
0.0
-0.05819627032750596
-0.01013297020838331
0.0
-0.3905084679496533
0.0
0.0
-0.44178096043716725
-0.11098467194320645
0.0
-0.24824899577908174
-0.1084023228936117
0.0
-0.022798931210453056
0.0
0.0
-0.46562799331894306
-0.11283494958411228
0.0
-0.25851285841707544
-0.05474853967281797
0.0
-0.10315568653921896
-0.2542344629720029
0.0
-0.21139353034693995
-0.24819242317313875
0.0
-0.27541933890430115
-0.15634240681653216
0.0
-0.20289126090575588
-0.06604542356651164
0.0
-0.35314105514944716
-0.16601677517719682
0.0
-0.32736286373891677
-0.12413348059762365
0.0
-0.26066171723803633
-0.02567426717878801
0.0
-0.5623130297116419
-0.10113442163374946
0.0
-0.39224521728236394
-0.06707211904726483
0.0
-0.48859389220240507
-0.1569519583390294
0.0
-0.21439584966215833
-0.2452384144553835
0.0
-0.1965425459817837
-0.3552028897778477
0.0
-0.16840887229959217
-0.1622456246246379
0.0
-0.39342038662503204
-0.39062859468684435
0.0
-0.22999279747891047
-0.07642258038068807
0.0
-0.5751809397488015
-0.35754049517491004
0.0
-0.2630808969908449
-0.039597500715577466
0.0
-0.37958897800038144
-0.09151282835419285
0.0
-0.5600906917752966
-0.35894226560990544
0.0
-0.22904503128052459
-0.107852581169826
0.0
-0.5803720327096636
-0.198288232875842
0.0
-0.4899363810036478
-0.4432143993818395
0.0
-0.24501021449765034
-0.3241379529818074
0.0
-0.3640866608976825
-0.09268349457863737
0.0
-0.5955411193008523
-0.09076080882766693
0.0
-0.5974638050518227
-0.08329965306702891
0.0
-0.6049249608124606
0.0
-0.310369591111994
-0.29692035679236745
-0.27258106582303737
-0.17464838417441447
0.0
0.0
0.0
0.0
0.0
0.0
0.0
0.0
0.0
-0.31654915466364936
-0.28448060834599737
0.0
-0.0479147866400286
0.0
0.0
-0.21548248811741025
-0.10413007664777262
0.0
-0.004619017169142373
0.0
0.0
0.0
0.0
0.0
-0.13849066603474217
0.0
0.0
-0.0535513502368351
-0.009499033763592415
0.0
-0.32289636122243354
0.0
0.0
-0.3735349172651565
-0.08598213779057916
0.0
-0.2050054867596982
-0.09268437630117288
0.0
-0.020540603280368722
0.0
0.0
-0.39738195014693206
-0.09780471396092753
0.0
-0.20529705086824956
-0.05063647906036421
0.0
-0.085103004707921
-0.20775821471363787
0.0
-0.1896237354332944
-0.20921871326149055
0.0
-0.24614700564393863
-0.12321777168087945
0.0
-0.16776985286939802
-0.054295459104286875
0.0
-0.2966449764396613
-0.15983128640953034
0.0
-0.26530230933457244
-0.10424662533990052
0.0
-0.2123025293237488
-0.021702935438597207
0.0
-0.498038318279822
-0.08401278801012992
0.0
-0.34112080773397285
-0.05544639744823873
0.0
-0.4319735706294204
-0.1177262146579081
0.0
-0.18537555017126894
-0.21883127131783064
0.0
-0.1547036459473259
-0.3154762457949859
0.0
-0.1398894731104434
-0.14451119227895992
0.0
-0.3429087757986991
-0.36865639139185535
0.0
-0.18371895760188883
-0.06548456394114599
0.0
-0.5178729130163329
-0.3292625686059714
0.0
-0.22311278038777263
