-0.6852421950758396
0.4400011510224914
-0.9729007305401336
0.012554326408842863
-0.3991375074263901
-1.103777021323887
-0.3532584962330796
-0.324430734829785
-1.1422241809414955
-0.3416704917070117
-0.3499999106821499
-1.0638131556646064
-0.4302022583346932
-0.3591378629087366
-0.5052809753606482
-0.839532565291534
-0.2499903120947006
-0.205951284338284
0.1318791357255894
0.1000008870914354
-0.2597624507556624
-0.34346514011794466
0.4308620815915616
-0.6220187925953522
-0.4968039907108005
0.16086243880351017
-0.2986796672277149
-0.7870080869188332
0.2608625363360503
-0.3784757714537575
-0.561806809839877
0.11086253339392155
-1.083676713558122
-0.7125426569868027
-0.48913892654160335
-1.1229412037794912
0.14533887865610612
0.030862271667169636
-1.2908227054894141
-0.05152534108561849
-0.4599997745032085
-0.5839586144190624
-0.10761214865464798
-0.10999408578582405
-0.867010558211572
-0.60703882986703
0.19086256163452525
-0.9684451541613321
-0.6395057998312836
-0.36999938166054325
-0.8059780675610727
0.07057218712176867
-0.18999962596012537
-0.555197698838756
-0.3371258674761195
0.3208623788254382
-0.46835752218945215
-0.3507232703244579
0.19000031352934624
-0.9938996900695618
-0.3046301775829477
-0.05999955712912624
-0.7008530702414659
-0.46187580091389707
0.3308622716787254
-0.3736080717970786
-0.10471545454776275
-0.37913859372366615
-0.20076835212257388
-0.06163007310085874
-0.2600000748175323
-0.5056488358215824
-0.271564783960624
0.14929392788184678
-0.8580770041731541
-0.1406166519374653
0.37963799258516007
-0.3305414299351707
0.04643748696707455
0.1999999941942567
-0.24759550577600012
-0.6521960836618014
0.2692939509885299
-0.7489619620364655
-0.05425539970566278
0.3099993702771469
-0.38690260595629605
-0.30640941911822245
-0.41000005766176817
-0.8420612819919864
-0.46465180423621727
0.2592939545960621
-0.5865061960252396
-0.6129226078024198
0.14929393137695326
-0.30823541031965845
-0.585776923486048
0.44929392503724747
-0.6653810816076174
-0.43165694680890127
0.47929392522848857
-0.2695010800584298
0.13744760827156324
0.42929402012565526
-0.5486056132096411
-0.4450516596612248
0.15929394224097082
-0.38610634748253353
-0.347565003014902
-1.4657501134974637e-08
-0.7035929957650955
0.045490481968080525
-0.16000038442942097
-0.857354472009279
-0.7132203845060231
0.11929392339282306
-0.24793761241990364
-0.38431878242022555
-0.3300000401926397
-0.5968392220871546
-0.5032080640683503
-0.24000002431293965
-0.2286557436549461
-0.06578512653398141
-0.34070606472441634
-0.4353729090260816
-0.05840851120388575
-0.350000020379699
-0.29345546235777614
0.05272568692316031
-0.1900000287870186
-1.043883731703004
-0.5121374577589068
0.40929394224021964
-0.24902054640275167
-0.4707281088206912
0.22929399849217985
-0.1304298996336712
-0.520492783618217
-0.2700001849682569
-0.9352138754682953
-0.5986935910947125
0.49825440742321453
-0.470309895309534
0.0951827358739387
-0.26089497579615345
-0.5000267052795163
-0.35934474679888834
-0.25000001435329644
-0.48549906669691295
-0.29837456939087686
0.45825446454890106
-0.4364693105823207
-0.6849896436742903
-0.10000155683748096
-0.5598541373187943
-0.11015438829052025
0.19999985744522136
-0.6479052651610464
-0.7021626559638506
0.2282544734676521
-0.7126811116777967
-0.5056241227606527
0.36825441606402015
-0.539219689037052
-1.0024001256485597
-0.08174559960936945
-0.622443653939568
-0.2272192081860216
-0.041745599136572054
-0.3076246252322332
-0.4190854525098321
-0.3317453645262745
-0.29575832669364727
-0.36464031277786996
0.12825444292267651
-1.320203471878588
-0.5647052693741783
-0.22000003623712722
-1.1801384946049027
-0.23830584907248886
-0.3400009504087845
-0.9882833075841567
0.034901333330671025
0.48825439632518886
-1.1597450927260258
-0.5047471148429296
0.0599999006334174
-0.5100966632957383
0.14173534946160707
0.1899999398921358
-0.6883240553813136
0.12491282092923939
0.44825442570244123
-0.34975667583816616
-0.12079010631132335
-0.4500000503838779
-1.2457990096036455
0.11099550542599108
-0.2400000711689425
-0.5958393831286631
0.05176434492117946
-0.4017455570791805
-0.3766081222051559
-0.8846719875161171
0.06825458199018876
-0.5601718003805168
-0.6281253886065151
-0.2900001898804274
-0.8044069262274869
-0.49369404450974924
0.37820805001772967
-0.7901365928605725
0.19766837600731174
-0.38091874351631516
-0.9922972051961271
-0.6676016924339342
-0.3200000147344745
-0.667026976704634
-0.019535650882025645
-0.19179189133950666
-0.6050930864993697
-0.9856051310000249
0.2799984018178506
-0.5590235047726705
-0.6820718456497944
-0.030000146340581697
-0.8492260226415946
0.07893956240672846
-0.10179188218390184
-0.3535681844734174
-0.1515291039518767
0.08820805888800773
-1.0930995634435072
-0.2885987791782831
0.4082080427983826
-0.7760298551521464
0.007961678840829321
0.448208043283736
-0.5725903684309237
-0.47711009728242454
0.10820828412453934
-0.8375185366531269
-0.530134026991033
0.21820808645994486
-0.7144946125423308
-0.5969161905525414
0.14999996280052955
-0.7777124277543241
-0.16271413555283798
0.21999902435137092
-0.6937062275283743
-0.3275941763243478
0.09820803862497567
-0.8770344372770553
-0.39622735471056497
0.47999989799455595
-0.6784012781318971
0.02017045713155056
0.35999993829586147
-0.7465903575056799
-0.6630026483693512
0.2682080687823947
-0.45162606328214194
-0.30329479667636317
-0.06000005172191397
-0.7031255245811947
0.12500575978979406
-0.15000007305896404
-1.0096344948403706
-0.042576944884402064
-0.061791913541961445
-0.29205168708067153
-0.24733036197592978
0.3182082292206494
-0.9272982808836547
-0.28964290817422855
-0.03000002430430072
0.30266713251185107
-0.04926750646401058
-0.24022936587953456
0.9741289550657134
0.6250386369384294
0.1198824027362531
0.3913017152932904
0.16046657515365076
-0.38000000188598215
0.7258737975641667
0.2568235508636637
0.2297706416266175
1.2395168131191967
0.9372604064190585
-0.270000204563999
-0.06092002943047491
-0.12281596212326824
-0.4800000187312908
0.03945722618612001
0.0032476046218754963
-0.23022935720148408
0.9030927741210438
0.18852890251724616
0.08977063525584261
0.4078114704237036
0.2746068907008872
0.209770633196404
0.4217334864723101
0.35837226169670494
0.4797706332585282
1.117968108403359
0.7732085951336758
0.12977066408565133
0.4031317820900558
0.3416125853964523
0.42977063878499333
1.00472779111077
0.4019216975201926
0.13999999523854498
0.4544186817039854
0.5222321477860843
-0.2500001248810001
1.0538788918247282
0.15055831897117838
0.48977063266221654
0.7857820608552817
0.08977957895585235
-0.10000001305648519
1.0165607984077774
0.22200798824123902
-0.4200000078980017
0.44410311059513685
-0.15569339735969692
0.16977063652230365
1.1420337646359455
0.6187826594391533
-0.10000000662029768
0.5673283855250015
-0.06939518134762947
0.059999990648604194
0.9757355456288458
0.20395518178438135
0.029770638784749358
0.2723851956915785
0.154312332345016
0.049770657058067325
0.5920280437364627
0.054796346603877215
-0.21999984256734187
-0.543083828689671
-0.6152710662294826
0.3114857321143507
-0.6822424714885734
-0.6305224300558101
0.43076174377663795
-0.5493592390028559
-0.3419591724074106
0.15000001221656975
-0.987922629351266
0.1466853450801177
0.44148568349277195
-0.776567090257666
-0.7411416752499785
-0.23999867492364882
-0.5287401541728355
-0.07914158698682026
-0.23999987866686903
-0.6397315792610003
0.0021859714661140884
-0.23851432409827483
-0.6620678122527868
-0.7440122177871465
-0.3085142752401274
-0.7158695854168328
-0.3826469800191537
-0.18851426189998233
-0.9272348505994601
-0.042598389116186706
0.28148573769760404
-0.597283395685822
-0.8372227801939074
-0.038514461987052086
-1.1126590507521097
-0.27198764147360566
-0.29851429810042646
-0.44789418483117466
-0.5958271691635756
-0.049999969157371336
-1.1340546747404083
-0.04803456978173055
0.17000080892464348
-0.6603617121488251
0.0693566600069158
0.4314857415602508
-0.3092385078122613
-0.08002280712871156
0.18000008457421554
-1.2698590247235952
-0.11235240444614028
0.24000005115980977
-0.6560442611216708
0.19376027011822214
0.29148571655629063
-0.7136420366288022
-0.29453761775251636
-0.4499999571165996
-1.1438586988546455
-0.18690638426737546
0.16000006057426278
-1.1829753628426984
0.008321148096076737
-0.1585142980988459
-0.5082029806758483
-0.17742221355922314
0.23148558353457147
-0.7724596099877488
0.14250871761742417
0.3600004935888204
-0.5417507307507831
-0.5007944989353513
0.31465812348299194
-0.630737572856598
-0.3429831322723995
-0.04761175211890009
-1.0564131522800178
0.18968978429233352
0.05000003830185125
-0.6790864848908509
-0.6492507683060856
-0.10534202895721967
-0.6801457548971351
0.639620932169659
0.1700041544294618
-0.859017719501837
0.15494419017673272
0.5000003804082184
-0.9958510265331338
-0.37588397753840497
-0.14534205275695644
-0.9835128454221582
-0.22958501855146443
-0.11534189957504587
-0.17981168657842578
0.15352335633726447
0.30465814224948123
-1.242920147418566
-0.16843868601386294
0.1346581409878188
-0.1909579614214946
0.0598558234432591
0.2146575149289372
0.10074738444896268
-0.04297941403783394
-0.02534197124751952
-0.5064173635185986
-0.6483160658254234
-0.3399999033010248
-0.9110807669086842
-0.5039775760161589
0.36000253617111816
-0.3507616666671812
-0.04687365939966992
-0.14534184690186502
-0.8725231855661535
-0.47663598417762737
-0.4099997348397226
-0.40276081077159387
-0.2648957646293929
-0.25999983960183065
-0.1898446808479764
-0.26594146069809177
0.224658074704774
-0.1634551293892806
0.12196565192253521
0.4400001344496579
-0.6667050033252858
-0.4618967072947602
0.2300001899147183
0.20250017803261414
-0.3417895939766461
0.3246580287574359
-0.22760720325334
-0.01986472393015689
-0.06534234234994805
-0.5795320449798683