0.14322932643840522
0.29256961192496594
-0.09862324252812825
0.39
0.7182240923071237
-0.2510483964718818
0.16906804564167166
0.6414209011266614
-0.0033132509330907668
-0.2868128119049398
0.6301545004954612
0.45383400724472084
-0.4939790673906806
0.3248408061828759
-0.43368604295695246
0.2634150426756723
0.7350005416037111
-0.051239888444141894
-0.07088834700633712
-0.06733569034002578
-0.41460026681839385
0.2758713102750456
0.7140465643563672
-0.24274217879617083
-0.4357849477739045
0.6218279827320452
-0.4588673391228986
-0.4900398785110178
0.5055690808808299
0.15164649346543013
-0.23412655363474388
0.23711061720463986
0.03419163226534725
-0.12447898923483025
0.6237788214544333
0.41787586361563883
-0.38339490696201617
0.3102384266109766
0.010332176186282467
-0.3230333061821401
0.14226535042422564
-0.26205634840684233
0.264754401957776
0.13494318373077646
-0.3725218898533096
-0.3772840178808595
0.5789311177406252
0.4355285959754764
0.07375931059031288
-0.236456705969834
-0.09012690878523609
0.4463380033081652
0.30118578055760226
-0.4703480880305245
0.1878397534952175
0.1353835204884857
-0.22604757814846
-0.22004161600666183
0.17433261491703253
0.20288469692487252
-0.38855379612945146
-0.14124510840306098
0.4569746003677556
-0.17533713541941215
-0.2557450024444902
-0.191742166300855
-0.12583248409234024
0.4962885876488273
-0.4632804077212446
0.10492600216409037
0.33962699342190017
-0.4373772997507477
0.2532141388008532
0.4694282583668733
-0.09546670133248414
-0.2639519516794436
0.2943513127648761
0.15677633474981065
-0.37573995468299753
-0.2665233349398697
0.09943898545810988
0.03059527870696733
0.11267652456159392
-0.026096107433318163
0.007195713273836979
-0.2859447717418137
0.335924754303219
-0.36600865263500115
0.18509741776794197
-0.42191306929769784
0.5334841329789831
0.3996973092957193
0.4639942535605399
0.20946881161681571
-0.1716967098861151
-0.2805964058954575
-0.3876436590204566
-0.3411317698511926
-0.29404887529310847
0.47505907751510384
0.38502767327844256
0.08708894504169598
0.4278718713810316
-0.11531415219454051
0.31461797664875163
0.4641351508297295
0.3766785991430861
0.20636194586242745
0.4082195075138774
0.4227724124600883
-0.3338162241387234
-0.193847797052419
0.26604437906770084
0.36497911381996073
0.29388134638712177
0.274151486325671
-0.19085713687754996
-0.3018741353449467
-0.19237394538492184
0.26142377656511145
0.5077191579324122
0.4910107220600753
0.2984458158427544
-0.10474361018890084
0.18
0.6519193060241439
0.14
0.2971909388094066
0.40044823923881817
0.3400949149802195
0.3667083590257472
-0.2647178865415195
-0.1446872895547154
-1.0190314388539583
-0.28737264730383255
0.42
-0.366881775435568
0.05579039972306144
-0.34474281278275415
-0.8704259830424316
-0.11592257988732035
-0.47635112166938404
-0.8504441645451298
0.33570391050200815
0.39133530125549476
-0.9144223053806312
0.05199562841263057
0.04288623983961435
-0.5325901002274506
0.35861248467532975
-0.3949944333020798
-0.1592446161732595
-0.366852326237167
0.009370294111849496
-0.9679087612914056
-0.3925529085329501
-0.03652311969756183
-0.4190575551431838
0.1844892991282391
0.046064990044979416
-0.25388135202153417
-0.13327501373595133
-0.06901083882970858
-0.4899276813219174
-0.02215285556088077
-0.39126914326357026
-0.551642304919088
-0.14817992752984874
-0.3829448408316031
-0.5682545441398377
0.1001080092589338
0.0392360689588279
-0.25152232197081215
-0.27880512270052205
-0.15587198802366223
-0.565496077558645
-0.47972331013020025
-0.46207793400462077
-0.03065445932229504
0.15164101761440954
-0.19098222483489116
-0.055342957232573285
-0.4247661936450421
-0.04669426022822503
-0.64436172938326
0.2399646138989784
0.012396192763253438
-0.34641641860954653
0.34292885013378643
-0.28240569261678944
-0.06066231553459677
-0.2980233675611202
0.32045436655262755
-0.3334870445146939
0.07194130224955984
0.056072751936232325
-0.3007437695804349
0.06357964193169618
-0.00771721888597633
-0.15791910515219337
0.13454494832566374
-0.28158146905115783
-0.6492005969521054
0.14969069029075627
0.2251229298766751
-0.058842169789852634
-0.557372135799329
0.01350774199391358
-0.32606346634426914
-0.06853565136215083
0.32936584182519346
-0.16496961914213643
0.23451240160443682
-0.3460883280314524
-0.07755019663676416
-0.5674528510442901
0.22544701488605762
-0.33444846843798803
-0.002089922160576006
-0.508320085462486
-0.7380661702022983
0.20529487995227724
-0.504154352294917
-0.7876373266023462
-0.4992996968152437
-0.0036414870951751066
-0.3269372773577064
0.04948738874037494
0.23976800977468152
-0.11597220564455475
-0.4448871798426334
-0.06778510993773573
-0.004678890632744244
0.061372624857973825
-0.39294091390837355
-0.29939681129096046
0.04124634948682752
-0.29737013585887245
0.15975998601858687
0.15651877412777962
-0.3669703607809991
0.23994007785033894
-0.38406109278184664
-0.6641354910585079
-0.5152955691971365
-0.5516603154568624
-0.6363599428242718
-0.2571216048097649
-0.2476098280784705
-0.6190615983139316
-0.19406846776502007
-0.5879613096335549
-0.5172448820497123
-0.08325824669863477
-0.0905882469641585
-0.3144109682377466
0.45
-0.63668040747476
-0.4
-0.00692399421093229
-0.24011674824975246
-0.30209867742895863
0.09918097945422223
-0.4670753709261866
-0.09260827843128705
-0.06598604647130824
0.2064142734506096
0.32
-0.10929447669827981
-0.35288557475370597
0.3288734449088141
-0.5464431510026359
0.11538965464183593
0.11834269232653734
-0.3493383285674071
0.49881558478888377
0.35610448872574657
-0.6956076012386293
-0.3126769389391021
-0.2068509116271189
-0.3851549803479404
0.4098258405230731
-0.22979347851308374
0.05539205117793142
-0.4377786241168336
-0.03807566111110471
-0.4898111218303001
-0.014293268510581426
-0.3782788997285523
-0.8244354155634028
-0.019465736160029744
-0.381766899024233
-0.7316779844075079
-0.4487351680202437
-0.3761525205008379
-0.2845564930786552
-0.43147103787249286
-0.17695755518071565
-0.04848611570341772
-0.44673638056785236
-0.26923048407830247
-0.21457427960736544
0.35162471223368164
-0.345129156267223
-0.12082401273145187
-0.006226882453310958
0.25744410850314986
-0.002946552286114222
0.32332239233097854
-0.19196756486520714
-0.15166148946339975
0.04144900287662099
-0.13846873663512385
-0.38398818460666007
-0.43972313021020276
-0.4814187486542261
-0.8966089048451313
-0.2541523979526276
-0.35181275094850306
-0.5030820718437388
-0.027285228659744167
0.06051718813524786
-0.8429316840754426
0.31023444448821047
-0.0956719278919074
0.18322199050680504
-0.209730114066884
-0.5106743392954738
-0.48532349000398833
-0.2561822221525242
0.3324325982067723
0.09500985019570406
0.17037750014553735
0.21909374564660936
-0.28243610699392474
-0.01883769010467072
-0.2834007989699012
-0.6176593904139904
0.2388801379319063
-0.5387522690193616
-0.24272544764738438
-0.07070233478524009
-0.13610528070369918
-0.04035809817678473
0.02428332742849818
0.2544661200303808
-0.09900166692275758
-0.3976445045596095
-0.21196533008059476
-0.5854347377541538
0.23522001638276335
-0.11300938381864428
-0.583576709169133
0.19440604153579216
-0.014939434782909405
-0.6921096575690364
0.12486904089996172
-0.48034050612049844
-0.4913057030365912
0.2994661577051032
-0.3619115452497883
-0.1884254253271826
-0.14184308087501532
0.060781429792001705
-0.6932558634621186
0.16029438221813205
-0.11698248714672904
-0.35480925401136865
0.03961168970611189
-0.5617747584602135
-0.5364330725655826
-0.32397222042618923
-0.2623027403624802
0.1761792229039976
-0.16605653399350317
-0.19650161461318988
-0.5202049129536088
-0.17547352388518667
0.21276893137210173
-0.06858601946386879
-0.4763629633602197
0.0771938485068123
-0.4088692994191348
-0.5305046005396623
-0.16367980073284238
-0.19749939098196573
0.2189991402628215
0.15162422462233402
-0.49
-0.40380427607432057
0.06
-0.3848092718620018
0.17711565298413623
-0.5849613403420763
-0.5794744412776299
-0.36441638653463554
-0.016790616877913226
0.5708559556220401
-0.4350979277293463
-0.39
0.8568431000604
0.19212431095438073
-0.44106895534895335
0.42779601295968195
0.17224035340405225
0.33397387069170487
0.5437010639358226
0.2712924763872535
-0.194277311083451
0.17842976952988276
0.21481495256835026
-0.05746363918814823
0.0008924166281034908
0.16553863357482673
-0.10874117453271774
-0.031048527813476445
0.4887571133609764
-0.35103776071460047
0.7035642906439724
-0.3835591189145911
0.08070104887585665
0.27628461088028716
0.09198175125863778
-0.21172039813795726
0.34669153301734007
0.2639962761353983
0.30538645831951666
0.7522285233536654
0.491352429341599
-0.26620438594104573
0.6386473754669265
-0.21347557851109994
-0.005490811436367152
0.3645374992506437
0.1499207232005043
0.03507048323566801
0.7884646825902978
-0.094567754811185
-0.3915993131130219
0.3972699754852726
0.43329674864253015
-0.09629997381561764
0.1861400254342533
0.24912735939614644
0.11375736289392022
0.1989194460714109
0.40629060204945094
0.09764621486695177
-0.06411521882948375
0.005436414977313937
0.3220192751649324
0.005844156732463322
0.4711039791173865
0.023636975423574125
-0.08785784935681268
0.12318828494802055
0.007623405638610324
0.6002435962876636
-0.18889959091149283
0.2380745141866234
0.05685567298893195
-0.2759627761607732
0.3513654523444864
0.5970877869554903
0.05051417171480396
0.31705710526386743
0.36616890840011074
0.2757413973508027
0.4985974077560898
0.41225515211797975
0.10811485114071161
0.2103412096288274
0.4224808390790223
-0.35385463769306896
0.5164002948324035
0.5403652220902935
-0.007798105907915838
-0.37590810259842067
-0.12297981832496013
0.01785533193816263
0.5411657707072736
0.47233311008661727
0.5054685302208901
-0.0925383780415991
0.4568087528624307
0.024697036193949487
0.3619186363168886
0.661920197242953
0.3151285774549394
-0.04966914438735859
0.11605513782483531
0.13258141757730527
0.2523520625172689
0.5055450713466946
-0.34892972284918244
0.12661733208704307
-0.27946878555669064
-0.058181135515571296
0.4010440572870942
0.21226003574082886
-0.04433668201314128
0.32241436050034866
0.3914614037370505
-0.1749083532226182
0.43011068188317586
0.23097960333084722
0.5478771258007573
0.14831067357297373
0.3158473619880875
0.5648093754537198
0.5991947733402597
-0.24514887565070856
0.45492151332523056
0.013492616965063096
-0.17023180788388237
0.3857066019336013
-0.23453926245004125
-0.07732453024691023
0.08083120371173352
0.08510767113011977
-0.42
0.6638597398846604
-0.34
0.5227611284049755
-0.16509364968579243
0.0013953504077698785
0.24633392954871278
0.49257523879432247
0.23182221508634848
0.26923009809669324
0.10261174722848976
-0.08
0.40184404070757984
-0.03817998029604827
-0.38996696516042834
0.37171016875912416
0.08192085681283559
-0.4175437534021758
0.3682970013276691
-0.33708918751396194
-0.07398851069636334
0.32389697634231834
-0.17624440523442358
-0.39940890293338044
0.3338608992102542
-0.22078793586534243
0.42319690343018895
0.5885056560518691
0.32196150092947307
0.5050304401610626
0.4332158226435114
0.0754177976069577
-0.16926778636368314
0.2466650476685706
0.3862667991066439
-0.41167731143323455
0.8790480666131484
-0.12370669476838292
0.14562369284280466
0.2053998162016639
0.3826405513670628
0.14082496277897086
0.9403018419925447
-0.15746274435998397
0.08972665529802099
0.37576601638129675
-0.20182861126778612
0.2559431814569949
0.4018505650344767
0.33587031392006006
-0.1375814351067635
0.8842216998071614
-0.3529762042888662
-0.27485262725977033
0.5329768181808471
-0.14446013050954568
-0.15966162587248486
0.12431861347973079
-0.41099292719571456
0.1922177162904563
0.6476647919302183
0.023781552190856446
-0.19528272021527926
0.2483003604088473
-0.4693535797820366
0.0535599278177748
0.36549098529090895
-0.28538685269715225
0.5044942539772613
0.4769029188680515
0.5222668875662182
0.31858070431577457
0.25043240395317934
-0.11534904785742264
-0.2918173197097236
0.05866242782602573
-0.40318104770477103
-0.14210771833931413
0.5670603380024977
0.11871144074834779
0.18456377111090663
0.18159652286321074
0.20750376643741417
0.48135860967881683
0.5828408888321157
0.15946456190059893
0.22630754077140397
0.9645701191361199
0.4527864005040079
-0.29360340019467007
0.03092336083690778
0.35634409976929365
0.07512554469054121
0.5780350514009224
0.3705034643200677
0.08559747996984118
-0.10723369519345735
0.6853002756351474
-0.0857163254567662
0.06968408043051863
0.5096963054377783
0.45490063806885384
-0.004069753795128712
0.4028331761378066
0.25969918049632523
0.018843590541206226
-0.2948787106259997
0.08610439680913048
0.069206963647733
0.5283526999546673
-0.13795336149009893
-0.16297439847904732
0.504591820380678
0.22059404487003087
0.17271225298144546
-0.3696422374399447
0.563576197917247
0.5709692124549394
0.0591186500393455
0.051487389837895324
-0.20044550044662257
0.07262217102025874
0.07005249816306931
0.35436193228799767
0.3392496299604647
0.23774868861342016
-0.0428691518425033
-0.11121547635938546
0.28339447415183083
0.5208515331189095
0.0694180531407909
0.47269870168883266
0.21
0.45096535872269883
-0.05
0.7793695812007342
0.6444327734131532
0.24422788737992593
0.24377213914457505
0.32990476599727014
0.02511996138297573
-0.8270892364638186
0.30540585612181753
-0.33
-0.6599511205753551
-0.09661229838367097
-0.4955569183266997
-0.876020339444505
0.2950138388121795
0.3355663127191441
-0.39025252800269733
-0.21187720367547286
-0.44933492297812505
-0.2881270381006307
-0.3891014578802703
0.3112688621579714
-0.4244477195707507
0.046615438453753454
-0.39087837171950307
-0.61859309886135
0.25290805162182695
0.3049426771629857
-1.0315181696582643
0.10001207353625303
0.11220898602251705
-0.6422431845450407
0.2934707795634974
-0.3446537777541899
-0.1325750950232747
0.010665453818438786
0.4388599092023851
-0.3955499026039588
-0.3698734255574523
-0.13474362008364119
-0.6807877966670394
-0.42103200220834536
-0.15815416838159357
-0.11612495340719158
0.397715702829759
-0.04028584278048366
-0.5472453664584069
0.33096779027986384
-0.08344087373128999
-0.40717175472108774
0.1240492094933515
-0.2827694265175729
-0.9096897687848403
-0.17410422365661213
-0.12756123834064656
-0.8388779637367145
-0.20012421688166437
-0.09070084333917537
-0.3485124475275807
-0.09735012809227025
0.19366677638083865
-0.12215150534893161
-0.1880786899909331
0.005463534060170966
-0.18727526454069557
0.33524831152149864
-0.19508576642260206
-0.017689877835879622
0.15621222529945536
-0.44045875470753937
-0.07966455311272562
-0.16644011113876106
-0.5360209157703363
-0.11875492430721123
-0.351787578881478
-0.16004347352912768
-0.784306587498574
0.08778664206867631
0.22670477256317398
-0.8820243047279878
-0.14124388679421232
-0.4460112128021074
-0.43842105831121136
-0.35213114784570704
-0.46660997142402094
-0.44691905870876686
0.17696561117376192
-0.08351500631076467
-0.33894804458713973
-0.0841003680611217
-0.45357635202505986
-0.44502622921331736
0.16203916227935097
-0.24181556599019755
0.0022555956928776945
-0.45700344866170584
-0.08784263481570505
0.0900935084150914
-0.31881429255841204
0.3093284335955628
0.052215611355629514
-0.1981074639102183
-0.3905722700136005
-0.3901980163705624
0.304206867425137
-0.5380771135075151
-0.21976151962484566
-0.21872478582666519
-0.4772724286135825
-0.388871278474029
-0.14041971187141486
-0.8165948603679701
-0.4576957726368544
-0.6022727859542014
-0.3452503749913378
-0.017855221422709722
0.03654217745502153
0.05389559326250649
0.29634414210473425
-0.22680315432626727
0.03202948778325906
-0.02444488567329701
-0.09414802106898837
-0.5881590351088207
0.15099109710110858
0.10060451904868631
0.2130466934939905
-0.5864199798260356
0.27680986737301866
0.14298645775761537
0.08
-0.6195498767166415
-0.39
0.13392428906781978
-0.42024705359853326
0.03680264861372636
0.23853633567933638
-0.1730517965355288
-0.05736697292286817
-0.587931852056811
-0.037508648342047785
0.01
-0.39301248592830595
-0.15979498739342013
-0.14006805655598867
-0.3539964805496088
0.09125706378387131
0.1488971916345304
-0.9365970043651898
0.014892339408932616
-0.4079552263960894
-0.7875079755043591
0.2826557285787219
0.10152418409521717
-0.2586809529874532
-0.33565070442949035
-0.13948537032216543
-0.9144158931492803
-0.21890620985028103
-0.30293586847842163
-0.8000267007893017
-0.2998449040540036
0.036129504729782984
-0.2561194667780365
-0.40281751127347293
0.3346501569088076
-0.12040574109160351
-0.12705188913893034
0.3865408828783904
-0.5480305175722375
-0.4213178386278796
-0.09060050161038234
-0.18930086644882835
-0.5129061052625159
-0.18362450943699854
-0.25865100112871137
-0.2805319627560163
-0.28612463487846146
-0.6374114423121742
0.07072860386890896
0.16434510203655486
-0.7465208499689859
0.2893682746107047
0.3066398417564387
-0.050139846639649745
0.09069253156148506
-0.0001307441560232641
-0.7172979690729632
-0.04537876009274023
-0.21625641798224018
-0.02264409593762174
0.3560930405981359
-0.06463473895197296
-0.6367020558717381
0.3185293215019846
-0.12240509737491029
-0.33939135240317553
0.09898897645635958
-0.2981283964793464
-0.681683382027949
-0.5829956948144315
-0.5342146115346065
-0.6761121356268103
0.1975192738396901
0.3513161795766175
-0.5030165967402336
0.1088929438418898
-0.4190965326162795
-0.49996217874481175
0.01625123803936491
0.010110289711582293
0.0984194478932511
0.07866278907344043
0.1541561868027734
-0.5891250628043092
0.09216140267980927
-0.1724757188948538
-0.6975973976604533
-0.40273435676641883
-0.09874182912280541
-0.3408344511151926
-0.3332311930837286
0.20060900283921693
-0.44188160477661614
-0.07153487138432722
0.14852887393624714
-0.359499384688526
-0.6118369625694478
-0.00453414875009849
-0.343266780127987
0.08499345555635894
-0.05707411945095946
0.14931075455672208
-0.25504410842748904
-0.41152746649817024
-0.7046479186096446
0.19336791178608873
-0.4856452221811949
-0.7893438238425003
-0.6078184272980309
-0.39204302640781186
-0.015777573979219413
-0.4649868729346948
-0.7448498585836425
0.09493338975108892
-0.5828910044891732
0.1970840066021499
0.1129419580003361
-0.6228334379242121
-0.44214203816458375
-0.24591994904024134
-0.21474548611690147
-0.3311539466439599
0.3018501705551283
0.016496302767105443
-0.5721683015829576
-0.5426253024362864
0.0819861306975176
-0.18650125182313718
0.2095699514367345
0.09412382706467651
0.2883262114890081
0.4
-0.921133684810734
0.22
-0.606362705439703
0.1326946479201383
-0.6338140237740327
0.0712483868149132
-0.4466740364142103
-0.3582371927583681
-0.31103511975210735
0.4661061415462141
0.35
-0.5480552500259612
-0.19511092093829985
0.4126223986293319
-0.20067643894650314
-0.4851121306470897
-0.24596527215352534
-0.7239836986951088
0.39678279988437376
-0.04908127406844435
-0.18398942924213127
-0.1300954676536852
0.25835375197476584
-0.9469251035471135
-0.4245948193919129
0.11296472029839272
-0.725306105769535
-0.4308247854931185
0.19837614808801102
-0.781389753236966
0.37984743418469485
-0.32346901863735644
-0.237847838350596
0.24815068602369167
0.18077251015840265
-0.7243744529364379
-0.2895642281862257
0.15705036526977648
-0.5309543512903153
-0.43926218494372227
-0.25284200799315903
-0.8266395895844129
-0.4836845733866883
-0.0813259341227147
-0.9044140048616568
-0.527426231979889
-0.3367922291617048
-0.4612821466749141
-0.35509179512764244
-0.004190758974369857
-0.7418425320710711
-0.18713287991881916
-0.0465288560517201
-0.8236679745467088
0.09703065963416825
0.023771765655386492
-0.1604456193848916
-0.39649231723475553
-0.004250350289857835
-0.6030227986732538
-0.3158930220011496
0.053052389849447684
-0.47833615647811345
0.22211759566440475
-0.13745358262913865
-0.107413324052922
-0.42829926428220033
-0.401844076079314
-0.33204280590753754
-0.35927928897740985
0.06351385602050458
-0.10542939550308972
-0.2612506314816757
0.11703055675813821
-0.6404356797853196
0.1702389520629207
-0.5640722670720499
-0.3727282346345348
0.323634330742324
0.2691981079073744
-0.6687323262952026
0.016368047423567525
0.056537390547669604
-0.7304088575044928
-0.16929470400743707
-0.12987835283771865
-0.1344751056846526
0.06118728755811061
-0.1831039663395976
-0.3720747461674997
-0.6379874584571632
0.014840454954469742
-0.2024978372335364
0.38449121131480557
0.23730446886165327
-0.08743662243244815
0.26696598260653415
-0.5753797667783972
-0.6831200206973482
-0.46466638348851574
0.3488620310421974
-0.2242388189402537
0.17221061693379489
-0.399823932505379
-0.13251544125981166
-0.29082679719907084
-0.5002635302883323
-0.6632633492612829
0.18036070858535422
0.17616877202775902
-0.05137031573652394
-0.2679646272554961
-0.26443436534263953
0.2748854857536895
0.3163827086246886
0.23174982628296142
0.0961456799889507
-0.6210616772361736
-0.5953284288036136
-0.24602495272140049
-0.6318127894392471
0.2144061235369792
-0.015445932255210168
0.05787363775396979
0.1778093930669616
0.20006101702107432
-0.05103658105229687
-0.5282445292432812
0.3791833908529844
0.1358949674260368
0.025001434695234265
0.1
-0.37816760565949536
-0.42
0.036902864714886977
-0.4274550834370389
-0.27999098539336215
-0.1864724922431442
-0.2008357528017171
0.0767037868392477
0.36824635395664024
-0.29619931273733563
-0.01
0.7296919123269062
0.049058915731644975
-0.24998684210381814
0.8309443852883179
0.35779328487405154
-0.1680749329316587
0.8236756596567515
-0.09684989866654121
-0.43127264754180117
0.45345430746020904
0.3565691681401443
0.5075561122032989
0.6853801397399552
0.3858145761152972
-0.40893237437213104
0.907217760803649
-0.24953455837296648
-0.3042134959117821
0.13250720172479452
-0.28954287775446097
0.29505106787088453
0.8422003303302242
0.41149942985744276
0.014067389319566732
0.4343102953296648
-0.25962685659067936
-0.3839005888320475
0.2857205595268814
-0.3630691426362814
-0.41826897660916557
0.4603602470415599
0.26665955762615773
-0.0987243268580065
0.5303685173971443
0.257106637519414
-0.34449397253412206
0.45898784914427193
-0.025743048551598004
-0.3532172600153392
0.0397755434427267
0.07219254463116444
-0.04888779366323304
0.35387554967692214
-0.22623692795513692
-0.07236020890262364
0.2513010989885103
0.019809937972665666
0.08315830924266132
0.8587522585068589
-0.22315973969096844
-0.012176367338575718
0.5103553026385287
-0.11942810724140117
-0.24494862683107396
0.510146741896496
0.4535527129931298
-0.04003378596126488
0.2741426549721395
0.11464195904767771
0.5266809387679445
0.0369347243263507
-0.2748648350357433
-0.022781222974948993
0.7898925208040247
0.27163953022947607
0.11678582834127149
0.7947266082707753
-0.04276160855349587
0.3552567960962482
-0.13123235247977816
-0.22527361555791814
0.22722630388747328
0.4466286974485377
-0.0051041732774591685
0.06169184633761614
0.5147897074030825
0.2022692743178527
-0.251507207545665
0.29216046594401746
0.2780975696602001
-0.28622284443214235
0.7696041794891159
0.5253694930015775
-0.07007614737420187
0.4477032920696124
0.051123683363141145
0.45667305009937725
0.47671246088281893
0.16536531707635557
-0.16500140271912334
0.5231052699033631
-0.0493530391256884
0.43509888196500596
0.5649097016054551
-0.29125775551190947
0.4925255187316787
0.030019285154331332
0.24620602417254173
0.4474506726129104
-0.31274543427658164
0.14404558972222295
0.7151848392099531
-0.3248301964358273
-0.30160381471557407
-0.11187816277816337
-0.16356749574905957
0.31419648658577487
-0.17796533935040162
0.07459391534470307
0.3321222520642508
0.2213099927335792
0.2753143887885546
0.1821264465364182
0.04433253400615262
-0.040608163167889
-0.164973542779712
0.2182658686436365
-0.18257012976340936
0.13305508917832468
-0.03218129183258016
-0.25
0.6309321198911318
-0.3
0.4560131960983906
-0.02504699057950745
0.28957642968253255
-0.0027303079299071534
0.05159571545402409
0.03716949434392699
-0.6003650958226237
-0.5030430487159058
-0.45
-0.15187494660951026
0.005636296414908919
-0.12726975717640918
-0.9140965674797762
-0.10487232553841694
0.3951556241354711
-0.4001440311712072
-0.4912502431588659
-0.17522423306275714
-0.6241565046553906
-0.49685791247645505
0.4317356860306395
-0.9737825620286685
-0.054191774196573
0.32677409254082657
-0.6845087457383964
-0.06850399699703259
-0.4060526827483757
-0.025132335633924897
0.2549463681876991
-0.10483977106511361
-0.3973227098891582
-0.22407616924033028
-0.2868311412093333
-0.26337398460361416
-0.34603352438165386
-0.08680015754124155
-0.26071715229006315
0.2612786596367032
0.05811834003953982
-0.07406995780355684
-0.20028703243058457
0.1973465588653356
-0.13898310841832412
-0.4246021006416129
0.21456037700806463
-0.7152160950223012
-0.0355829321803653
0.09217464260698145
-0.6490138993563087
-0.26939939344527586
0.3463246868944427
-0.23052403468645385
-0.5220393024025901
-0.29029740170244833
-0.43028656672549387
-0.2756546817666598
-0.4057387426062948
-0.22696724466530924
0.2664673370770028
-0.5170974568256086
-0.027751702524045137
0.2786105091550521
0.3857697004138065
-0.15928859211109528
0.1772802415026877
-0.18204558974523358
0.05191064364054572
-0.3261037040899136
0.12965038160520675
-0.7850715808461448
-0.5208174509536639
-0.3619015946433429
0.09741188200367551
0.37825106244506607
-0.357259841422101
-0.6683804663997749
0.009401657627273395
-0.3227244910927733
-0.5281266624878316
-0.4853874966139974
0.31397598662817544
-0.18625349623124982
0.17603885940847305
-0.1578695333648003
-0.30771699307039113
0.2693478762405896
-0.11980315456863362
-0.36673971214989665
-0.0696957834760715
0.1855158111501292
-0.02157800007698641
-0.510176461267744
0.2716746504331077
-0.4732179412711836
-0.26469535935652594
0.3748112299047076
0.06661622728345183
0.07233389261723913
-0.14999209719368511
-0.5358210304638478
0.1695744774629306
-0.03276293719059938
-0.21289750912995634
-0.0505782038740453
0.007119998850232007
0.12298058729680515
-0.4863392363416386
-0.28310068176257414
-0.2330124380714172
-0.63012553036061
0.1227015584668924
-0.5404965897466955
0.10155638108520128
-0.6804514615521993
-0.05622314720419309
-0.00956404143820913
-0.016967288260695074
-0.27054524676869074
-0.17872611516521547
-0.01985644131889507
-0.43821134080058183
0.2118291319248754
-0.03699086350376618
0.23731472328245645
-0.4765625099732919
-0.33580996231564836
0.3002741291241245
0.16929718299692184
-0.4381039673727907
0.33
-0.8781346828218104
-0.06
-0.09967299465282914
0.06946291435187042
-0.13655237074756554
0.016333756306721507
0.31569213557235914
0.2978543147603738
-0.6292828158585543
-0.39237942710496715
-0.19
-0.40756613340646763
0.07375820520332117
0.4625786735391724
-0.8198653646544843
0.3234787629121635
-0.4840400049216145
-0.5064210644878353
-0.20334685879369674
0.1964824136518723
-0.2101289676561845
-0.480161374198834
-0.09197939530536747
-0.34674356506178583
-0.2250849678359932
0.4656806179838295
-0.703707689120232
-0.4557808570667459
-0.2760564286120712
-0.9063505766878667
-0.21140092290321047
0.1784864088282763
-0.8027595716031335
-0.029534765428291282
-0.3839476284793468
-0.5510872629483469
0.21122696322454648
0.14579253053232874
-0.8283973926025004
-0.05120306613297665
-0.10820343822607587
-0.5309479401092672
0.03534345013219655
-0.3566468941085047
-0.702802192637269
0.1256411585426251
0.204334962472293
-0.6154494233733605
0.19730653269791934
-0.2808620444744895
-0.047484437171596505
-0.45546144655706045
0.37319218522166747
-0.7785550418385558
0.4015549284137404
-0.5310441476463249
-0.24024130060576837
0.24747752004894694
-0.08855368102093346
0.010178143519831344
0.2645676092979554
0.06541213411302634
-0.48756001196420584
-0.05166005035196718
-0.2287559118129416
-0.2966417429316368
0.3215897265414317
0.27723490785645166
-0.07216444102200525
0.2311216049624071
-0.45152207824546364
-0.0687512778457409
-0.3335345721119422
0.37061853290930097
-0.14379358901745143
-0.380632872094996
-0.12039788328857852
0.10788544723578736
-0.18129549215035504
0.03513226902582047
-0.6014901904350796
-0.517450006793889
-0.5369103583406645
-0.537211661265914
0.4003140914034317
-0.27184200729417946
-0.5967504130544385
0.4147844921454701
-0.15494534388751263
0.25943394734685377
-0.18829653166248753
-0.19961352434028898
0.1242297470449575
-0.5384241509078146
-0.09158699531254853
0.11190638068870501
-0.3241273135793027
-0.022127594847265283
-0.5893334907947282
0.30765315743884564
-0.02976195285816061
-0.46207279409425983
0.3280268187492741
-0.08320565720058133
-0.27699651075312165
-0.3136057602494435
0.025330674493330606
-0.50787800996079
0.09873940726431354
-0.4298070437632424
-0.11099024149278262
0.05698935705287844
-0.4264972048560395
-0.16676584217805715
-0.5505448811690505
-0.046078312954312195
0.20299589687990988
-0.5707255121287446
-0.038845393063749144
-0.48676158812012554
-0.438200947019272
-0.2557824567488621
-0.0003730426627078927
-0.13765242879157633
0.1814838688961001
-0.16735439276462252
-0.18793740433462358
-0.09558895467745092
0.07295040003762686
-0.5111693735633225
-0.25752467744818386
0.08
-0.806283250754964
-0.03
-0.4083860228347377
-0.4946562610531788
-0.31878719928750787
0.12169594642456054
-0.09645204679726677
0.23739878835999492
0.2592293383552324
0.1734672437588483
0.05
0.3844632343433581
-0.03436786386928207
0.1275491825114917
0.7393066175504298
0.09323957041215514
-0.25212178862736007
0.7600300373826702
0.49218712171876666
0.3576296673140004
0.7558538617127167
-0.2933881585526404
-0.10306763053624989
0.5033628145797524
-0.43019981356942655
0.3505625228489339
0.316689014097373
-0.1871561664722311
0.17727619073443923
0.6946110001616218
0.01820817957801525
-0.00515121958303167
0.16226131512806766
0.4929852749290396
-0.28490413876750403
0.6267860244288497
-0.3017865151872699
0.3813488357639638
0.7593446811325303
0.3794018535775831
0.5033993793436639
0.6858094251190264
-0.09911343398861418
0.4019520973262612
0.35571328540279434
0.38242998774502057
0.31517722861378755
0.31990273754548815
0.2850154043148002
0.2029024560443629
0.6685745042965962
-0.33138158986688304
-0.43498093202123805
0.9000582080151449
0.44501809448017027
-0.20449380515165397
0.6825169651883297
0.35207221043740006
-0.05990887898536125
0.7025326644935431
-0.4325284150341046
0.51797095335137
0.5968723570908379
-0.40474793996813235
0.10190983747184632
0.6392983771983786
0.228887155803851
0.004026556946632894
-0.08886942301269195
0.5549382365401352
0.05792851072193076
0.04700997287997829
-0.3648431131278333
0.10049330818902015
0.5510315436309017
-0.31142948134584625
0.2786970411409168
-0.053204908390646476
-0.17539676227619505
0.5521356548946005
0.5671612389990077
0.020798476580467743
0.426225518718776
0.1625097632336157
0.2913600885216842
-0.010268479163800819
0.3827184248515247
-0.4323545752136481
0.5484692969545913
-0.03787229806315236
0.20949837158263676
0.06314636170878925
0.7459121833564334
0.5110368254088532
-0.22945326482974934
0.5895501557174159
0.62999847958641
-0.3481001020282838
-0.17098164700811763
0.019177119510477233
0.5944983089087267
0.19269818100581212
-0.17710111944046292
0.6316433124253431
-0.16675422865927306
-0.2947937132919935
0.19269233901328442
0.5959250151249396
0.031478016335852024
0.16205050183116557
-0.34259302813179066
-0.1993621032252993
0.4541911377437075
0.4875751176286156
0.4283291151017529
-0.04459060334010829
0.10023873345260699
0.6044472403615777
0.5446682531194473
0.5720362272464208
-0.13660910989179226
0.5489814045862158
0.40391581192213405
-0.23280184603427462
0.43476370893171423
-0.33779888228444793
0.3131305438268099
0.3728657844496747
0.1178255845705016
0.5494040014538993
0.18581679713798113
-0.24
0.41427857333609464
-0.28
0.1252555389576677
-0.06690561020196115
0.4695138232141215
0.0466763150498771
-0.17009875235855978
0.21553118796403556
-0.8154930829852103
-0.5035175353214513
0.32
-0.8356069185700856
-0.11787251177254038
-0.017982541476703442
-0.4574327525583582
0.13193586369243485
0.3750152827306737
-0.25429464800094737
0.16579993492764702
0.4694852422151146
-0.8100921808762137
-0.07287249168152685
-0.06591112913090695
-0.33198544556339155
-0.5155828556483283
-0.04643967450447273
-0.24678743313762147
-0.3302523227005325
-0.05609549046795403
-0.38986309885358134
0.08247915897890858
-0.5308297745666172
-0.7678986548057155
0.4952489990297065
0.3875432668372045
-0.7586951189566155
0.23767242177678455
-0.2384202312514148
-0.6752612134101618
-0.3297979856810499
0.23208792723638244
-0.5847734290844937
-0.19079392849451554
-0.21088811879713015
-0.49949743692488485
0.20690612537938846
0.2895821595306882
-0.023303078113322107
0.34024148824000705
0.018050418556257927
-1.0120319747981061
-0.45949787410077825
0.26075723095233
-0.8137819060920336
-0.22045475520292263
0.24372632358066226
-0.5723312200682954
-0.28487453385499373
-0.020937738680322202
-0.4510455902253312
-0.04149610143697311
-0.10581595976867458
-0.8980525932139181
-0.4496108773600337
-0.03463960186064889
-0.10563067056395985
0.23679084208198203
0.40972210292942807
-0.3659222920641657
0.06272075879211082
0.24442893560938567
-0.7484343705480627
0.06052600459605045
0.32854884904585474
-0.10323459269052197
-0.04879368669795958
-0.49351949410688273
-0.2105478947359729
-0.48941204149977074
-0.3274542377249618
-0.33879132955569774
-0.2872338630619672
0.0753306216748007
-0.436052653934307
0.027242601916879626
0.381115376211377
-0.5125272569104468
0.137932450356443
-0.43056766730175833
-0.35547198503610034
-0.3774397780047679
-0.29105543544661344
0.09334089944439172
-0.005764894340405036
-0.15716035895829025
-0.49303841501846835
-0.24328065636586813
-0.18677707734241616
0.0569526683766077
0.10634497862318174
0.10473619592383751
-0.46574288333923897
-0.2324727429272252
-0.5382803269237372
0.026496456484322365
0.06830444009678845
0.01948106701700283
-0.059536481784929686
-0.3334240155747
0.2487540149208775
0.2736719470239513
0.24409460771254451
-0.17875969782776685
-0.42753530128591133
-0.07718443122894812
-0.21759050829219959
-0.11730931315194862
-0.518579608898479
-0.35491550696961144
-0.13230011820985774
-0.39626380516315746
-0.5277229881635811
-0.051144231196289844
-0.3546122109827558
0.08727383930754985
0.2143369975859825
-0.5450902672361586
-0.04739984173881699
0.028117779982638536
0.03580263141355172
-0.07406955428269144
-0.16
-0.04940987605993528
0.49
-0.13821918933828384
0.0891018585882222
-0.6391437717455458
-0.16900368801847393
-0.47021517812805597
0.4802030834669752
-0.8873533955714252
-0.17573876557116824
-0.28
-0.43766544789211703
0.2447763702164992
-0.04620059411163225
-0.10048798855367518
0.2037995049896895
-0.2248927761787739
-0.6781396396200622
0.08014333812321742
0.33159729248093833
-0.8443010433436442
0.22981467318708773
-0.33614155487649927
-0.7568589548858466
0.010111432086727904
0.44721738169186614
-0.04571546881006625
-0.21439099055741787
-0.29081128161511927
-0.9736112388403184
-0.3684665572201803
0.259867397666631
-0.18506621599791792
-0.24769025934433114
0.11210556906730751
-0.4773962871433503
-0.28759835959957514
-0.4834803210666185
-0.5778655431139365
-0.5315432134950638
0.2995500817397618
-1.0166992697143693
-0.22573988970100953
-0.35040421757477186
-0.1659238285442763
-0.41656103155656987
-0.37078518664605337
-0.05565338985068807
-0.1964505011788767
-0.4513630546448914
-0.5802852344105227
0.17875921137979592
0.0674831605567381
-0.136252943464056
-0.37411929476830014
-0.24967246582164404
-0.1970042861591465
0.35378767430517233
0.3879263851789141
-0.7986838323976739
0.03786836954314162
-0.24724084838738375
-0.5445694608165039
0.2189212315282694
-0.06336015226727666
-0.7170783933231469
-0.21245053208519446
0.196480289866419
-0.6657680429317504
0.18639867538971322
0.15588455494739228
-0.468261059072444
0.2994874264494336
0.12516039519213787
-0.36125685875204855
-0.5367926141157073
-0.11303474978592983
-0.056226975304279114
0.4563726474145914
0.20673916785454366
-0.788444655327952
-0.5511835902022099
0.053849560197203404
-0.04417644715355047
-0.41256219071927086
-0.18273930802626093
-0.8678591130982444
0.03770934344888716
-0.4155127032172835
0.1724545046346005
-0.05983087909293495
-0.5272016177879134
-0.6908129123349768
-0.1548745475527284
-0.1917547375356032
-0.2272542686018904
-0.4638800715381243
0.08230174085568936
-0.15753630008242872
-0.6176545184488783
-0.04521960862547532
-0.572928994819266
-0.474740474230877
0.09318084081873658
-0.06674978543932761
-0.549320133055027
-0.3668015730524311
-0.6410590882921136
-0.6250284163310735
-0.2803175968153875
-0.5689210485546049
-0.3036504323056252
-0.2699130115504748
0.06826416806185255
-0.43124023418699586
0.058420320247895965
0.08376465341833637
-0.525074051341851
-0.3061077145242621
-0.47544549480460463
-0.03133586834675088
0.17101906056572708
-0.380200378806961
-0.053707759434384286
-0.4405802232659219
-0.5970539136723063
-0.7552549407373892
-0.29639516465349736
0.08615227889778343
-0.16264619191990465
-0.4103161154694822
0.15
-0.9025729622061359
0.11
0.06252498873023284
0.0021796201841916716
-0.5268082743720474
0.18523322261711647
-0.27392357547831686
-0.3793230269073625
-0.8193466219327842
-0.3038651985115185
-0.16
-0.42819808949199195
0.13566324214032646
-0.5086170320686006
-0.15934839450828414
-0.4545694207747813
0.24183596113768202
-0.8203598470601495
-0.30401096142919753
0.08247845838103442
-0.14863458031840407
-0.2763787254142964
-0.28608622192011113
-0.20353353524202333
-0.4129150901895316
-0.1248287036209395
-0.5691255907563951
-0.1685805529743319
0.06916235282309434
-0.7751692043667228
-0.296527995808037
-0.3589776290486558
-0.6099698305508048
-0.19358738775220533
-0.1918270783527211
-0.3033821845506481
0.38267441555170345
-0.23265689233184983
-0.592437475886178
0.3025595208663621
-0.21175459727527343
-0.7550331654238082
0.16425291534741684
0.0802421677567663
-0.15623325840899988
0.1934562433005677
-0.2459260255324902
-0.21385213796363853
-0.48275668385553705
-0.10256036518103614
-0.8861707896522047
-0.02380369251842434
-0.37651671772545575
-0.2323158793373154
0.08629774971110522
0.009331354551355487
-0.6990215303838471
0.27715532848082636
0.25493104481914347
-0.8306325886802033
0.3631666965093945
-0.1937443706166135
-0.7026277425195213
0.37383726578447024
0.07165540018707983
-0.48131790747459907
-0.06287234006414645
0.3983151845929059
-0.7383718205176881
-0.162478211426883
0.345837010122767
-0.6773411393712863
-0.4710307181031457
-0.34782074219065834
-0.35732401063520913
0.012609905474201955
-0.48545396512947686
0.07867410347000432
-0.10575498569219374
-0.5139689204781726
-0.164821061455071
0.3162551345815775
-0.15047331138811917
-0.3115950907895148
0.04953355482596799
0.3917186835862753
-0.22554287215733113
-0.29871065878061
0.13892144590596261
-0.41818370428391893
-0.34327258897370916
-0.39947261516731414
-0.44553703578840925
0.34247480360405774
-0.2555739306550865
-0.3210368936492647
0.2240759769526856
0.34493124583996637
-0.4133130301092975
-0.3741530630823345
-0.10281660126672691
0.14832242676727667
-0.4580406728522161
-0.3273536929815952
-0.02115502198258376
0.2759738676125137
-0.3094767167145764
-0.1669486101964819
0.013890479559392193
-0.4783368132244623
0.1526308713919957
-0.33682890551919914
-0.5583008439978601
-0.09416013068379532
-0.040073872670009766
-0.41077107238671445
-0.09375884550876805
-0.668004929456183
0.01835792114099662
0.212584376124743
0.01652285538259405
0.07060445326722027
0.22894978443277114
-0.2820890850516571
0.06014258885996165
-0.2393828445019141
-0.2732945917097139
0.057561481165995354
0.07490585094589895
-0.6050021794635592
-0.4757957121822975
-0.21
-0.7567391351693679
-0.22
-0.29228187808883666
-0.6976551344770433
0.019295265041422677
0.12566200176594247
0.16016926428398312
-0.43743828193680007
-0.08106190536687181
0.011643693251646093
0.08
-0.1652905784578411
0.3084340844058153
0.10488223106108975
-0.11859852328213566
-0.08314020183097956
-0.35791757487159426
0.099795853588196
0.3912652272313722
-0.17608919547120985
-0.04323306330693008
-0.06753423527388618
0.2116308487564308
0.1485403168569226
0.3429723403346208
0.20942758557985686
0.08318154445589385
-0.40946562408777654
-0.15168239366932776
0.10092031905330423
0.40390558056399756
-0.23749394455486353
0.7279418766004613
0.03269557390237646
0.49646954598135756
-0.1303788660502966
0.3470528260169135
-0.23379495417246143
0.5832315587527795
0.053706901367656004
0.24988496774817356
0.5368663954755147
0.4963921427242856
-0.04503098298443844
0.4908308715869144
0.027343617345498266
-0.2342870541978906
-0.1793308335242476
0.15676139367011263
-0.0405731535961069
0.5452741922257333
0.1184424673183482
-0.2793245614111231
0.7618661027452973
0.2606019646138001
-0.2568751445061863
0.6593308604264156
0.2506877900277444
0.10126903581861864
0.513577205794363
-0.2817027356650075
0.1855336400077367
0.45628408250582364
0.20132578343441399
-0.22544602559007731
-0.23252635070795363
-0.028884117753994867
0.41567962846265055
0.38009586784642596
-0.04263199036110217
-0.02696255197392761
0.02451739341911395
0.16558866450278772
0.32548591123683385
0.21063440388093713
0.007023190830203453
0.3415589399597778
0.06873391516885324
0.3228506508193432
0.1925311659105056
0.33734187341131294
0.3732704666261555
-0.3691490060462523
0.2605494261830258
0.16174308581120092
-0.0016164767167252169
0.6516750980733399
-0.29691511540864013
0.14909097933394333
0.3509219646802956
0.21313056193373517
0.054667109658256316
0.5281859688401707
0.41029042744954763
-0.15207860709398108
0.18012896315538748
-0.24490685011343188
-0.3145919271621595
0.15628038914326406
-0.008544956033130385
0.4020462306885733
-0.2373559571095216
0.5384532323689226
-0.15908899753277794
0.41586869664764203
0.3063638068331104
0.09189998309800305
0.4668765561901968
-0.23563303334022553
0.313902587651439
0.0377129465311591
0.021527971765376155
0.02339443442361192
0.2815923162649268
0.49815675525943554
0.030675818885115617
0.45908342225549864
0.10338426480735957
0.028927521697510804
0.2682004924620416
0.006015491788421588
0.589721475584842
-0.1602403224651115
0.3136623528282437
0.3809268188956135
-0.16231971368570536
0.0645364007380661
0.46902126903083485
0.46150281740966015
-0.12738058049252096
0.04165118711347111
0.11
0.39149231883450314
-0.06
-0.18428215195002545
0.5827554403950882
0.49758771326708906
0.15470342717512817
0.3813519427366756
0.23611691570456123
-0.49779044673879935
0.31421772005079657
0.09
-0.24242612341916425
0.06497031243572257
0.3956337218475246
-0.44813377065610716
-0.29495576217485886
0.022550149079340425
-0.9085881170680364
0.038582157005252686
0.21855605213174764
-0.5647917680125479
-0.1412200951026426
-0.09539213194577882
-0.8001427301941493
0.41807905115648514
0.05989327603224939
-0.49793544098440157
-0.17941364603128962
-0.13835726969495835
-0.6942319973582873
0.14513345606980285
-0.27822249717096076
-0.15105257764128913
0.4418192638288084
-0.35467246002271463
-0.7309288909962436
0.31814554003551543
-0.2186066100957198
-0.5026964094078573
0.41384720852013523
-0.3147027230321364
0.06311911897126174
0.10412779307743264
-0.39828242947366754
-0.11218442215168115
-0.34698895935809304
-0.41335506044764736
-0.6050454251232508
-0.12905532541254466
0.17976758145236899
-0.7977199144090952
-0.17950347802671673
-0.2716382303566623
-0.6137495104965702
0.4479319298697897
0.2040712613300647
-0.6468440620421387
-0.23468301027136879
0.36243226493701397
-0.24566921647355744
-0.03421885944689796
0.18295612859466717
-0.608716880962183
-0.15169505861592736
0.4064872673608141
-0.4492163267166901
-0.09472675162756573
0.2625257052063782
-0.5321282883183662
-0.3978532278714541
-0.07483792314652639
-0.38315757021010466
-0.19946031762681046
-0.5583701948495936
0.08739783272453648
-0.22648344885838448
0.15400238771530889
0.19975421228653775
-0.02121241098528856
-0.061187883815864964
-0.5957966021698212
-0.41047132499775685
-0.49914924264833793
-0.27353154943878794
-0.03477501889631549
0.25799530349247296
-0.25437102508208265
-0.5410800893938322
-0.49909995980462785
-0.04846967265059774
0.040113821471783516
0.09372442570475714
-0.46669319796875347
0.12551296128055467
-0.07766950662471703
-0.03591476268828037
-0.563871541670445
0.37560645092618844
0.10765190935212039
0.3392858287382492
0.03303813749111922
-0.22185442935426095
-0.2886395191202997
-0.25347845842675754
0.14993766408664394
-0.2339150166433282
-0.1587855024084885
0.23740630430337906
-0.4960766128783326
-0.349637944410537
-0.42802705481030334
-0.18979081176260115
0.23853813652909522
-0.5399204828137725
-0.36607346469876434
-0.17390176758177167
-0.3641660383760645
0.07061199497439449
0.4271087568517212
-0.17894074278640343
-0.27562382504875954
-0.5493939754108778
-0.020669185641248214
-0.42739264993131604
-0.17894646147958815
-0.4923620005668676
0.11385265106301434
-0.2730449566925146
0.3922648447716339
0.24332430093743898
-0.3349474843916815
0.44
-0.6125083265917606
0.3
0.048456546847992055
-0.6984144866308252
-0.14763546954726225
-0.0019181884786107768
-0.2144010586945716
0.3440409921817199
0.816803949400393
0.014858847244684625
0.49
0.5289520481909794
-0.3532482593641828
-0.3095801431885756
0.8972246560474891
-0.4719407240321163
-0.2155645296569939
0.22534400148413913
0.2559243169996526
-0.4775297643771938
0.10861520701675244
-0.1453816538127607
0.06631710509802134
0.5465041419748108
0.10288254175396469
-0.3902290472395553
0.3819827281855883
-0.036049892119235406
0.36196614305733626
0.8014593724679504
-0.1777217266984888
0.16898563655010737
0.1629657770537849
-0.13624762477709418
-0.36114719422299196
0.30313904314201395
0.42371193990777567
0.23574388444354147
0.2840063274200236
0.38595357696323285
-0.2617180288130117
0.13427752300614923
-0.3868557053663395
-0.028690189833436384
0.4671973139418594
-0.36280333528162556
-0.3964499498264432
0.16369139844231276
-0.2815376597890714
0.10197759724458352
0.00991175316640173
0.29381443841581295
-0.04418916636846649
0.3208238007696924
-0.08093084557442852
0.196518303473124
0.7568029338779516
0.46238255147572216
0.08255564307468968
0.32518038769658414
0.1779677580555237
0.25368348684970704
0.5642339537147207
0.3677863482623693
0.1574180899459065
0.08501866088944858
-0.2367329620085572
-0.07660839836540662
0.3687982218713932
0.27351396532081074
0.09727796320939855
0.7130156806978779
0.29541014491952144
-0.28844723018607316
0.4745066857705151
-0.33035566675764433
-0.25499674164040653
0.39031777453194216
0.4703827559352618
0.33588963635672786
-0.1522895789206116
0.042103731390681805
0.31832436084578974
0.5536938376498687
-0.41631440966886113
0.1482479380286513
0.3713413893580932
-0.24388553855994696
0.5341925677671854
0.1936066039453883
0.07790461711422453
-0.25094087724248465
0.35417841998949506
0.15246624607978712
0.12402943080616019
0.6645707332847267
-0.2628963752640883
0.017816987342144
0.6709249305997953
-0.023038129115141717
-0.19299375364082913
0.6056965932745013
0.02300094919312575
0.48380302957289156
0.4373746835010302
0.11452607575287567
-0.2696332582753786
-0.06495515673141271
0.5402922038335887
-0.1972941502318808
0.014768515463025924
0.09822942359565319
0.24864646277452646
0.16758062836288234
-0.14052330231061091
0.0552721472246135
0.444410103141634
0.4460215384605502
0.044903000914252866
-0.25940131506413083
0.12020210297667569
0.649993709193492
0.30864683187199327
0.5570632477613118
0.1471283867630011
-0.2792287977864008
-0.3121958001498026
0.17204477476944618
-0.09031009359674222
0.523969107654094
0.4954719820195078
-0.25
0.7402318068072894
-0.05
0.6029434235797366
0.6554269170459733
0.1127308934460113
0.11313971864635562
-0.4483501090143236
0.2733971254866477
-0.826846727772557
-0.1735587444873311
0.27
-0.4411244674104376
0.37411612063719824
0.30351626758976247
-0.3847155482815063
0.1341909339185046
-0.28635778717578814
-0.6144160400696799
0.2437654804722278
0.3948418740400345
-0.5047183069047027
-0.4671319139085711
-0.46461305074641024
-0.3149670264583042
-0.4574282695685246
0.31398349588017777
-0.7957846810392509
-0.19520716161416726
-0.0541484458517891
-0.029829942707727347
-0.03302995821372276
-0.2629365664515144
-0.19278746598285856
0.12871568566113414
-0.2979898282379865
-0.6762113898734399
0.3871928713381862
0.4338842469662184
-0.747927831988367
-0.2729647617510915
0.3612743710561859
-0.6663911950457644
0.2681084772163383
-0.17337047464565303
-0.4331015135680304
-0.08053635855955561
-0.18204050126139074
-0.87093667991578
0.33596883440393055
0.014933179659679843
-0.5773170287005152
0.445375502267595
0.339107133095194
-0.8224817222201715
-0.03363375764826262
0.11702177441928976
-0.18712836891966184
-0.12690175227286674
0.37397793713087973
-0.19640607092944987
0.2054197870253312
-0.49550513677164715
-0.05301747328187768
0.19151426328028542
0.3164082288791543
-0.8876937285227231
0.3142771528703284
-0.2757754159556708
-0.18540754962971065
0.0341746188121426
0.11563954473381514
-0.6078691896942072
-0.22477870181284798
-0.004236419982628004
-0.28671218336658905
-0.25605974342402193
-0.6324203370106926
-0.5591003435304227
-0.08548766623212486
-0.389757477120086
-0.7630491471363611
-0.14420172251679242
-0.6655222536848471
0.07807738801751979
-0.4395634811059118
-0.1738126076829856
-0.72593812252092
0.10274238343066533
0.14939147915612425
0.20539536747856244
0.16820480659207432
0.33540042558534877
-0.2391516736937525
0.036742901335164654
-0.4881073663013955
-0.637466308408785
-0.5814346720630597
0.20570383527667213
-0.3082659027194659
-0.23444627933044526
-0.2633667435409589
-0.539502754260248
-0.054138848972033166
0.1677925465174321
-0.4166247301960693
-0.20817616309460202
-0.00638424648001594
0.22768948003318615
-0.018313580326409066
-0.5036591618311662
-0.024237117582618376
-0.4791120673594553
-0.014929215016049335
-0.5828024248267589
0.12072329306956876
-0.6473238408776596
0.11818597582486066
-0.4478704817204404
-0.1283247938644379
-0.2515356097744824
-0.40714794313431857
-0.5641183125304097
-0.4796803018927561
-0.44320973235007366
-0.19689128363434868
-0.584038572654144
-0.6160784904847472
0.2324654393746476
-0.010807803335596137
-0.48866598281229107
0.3925036196876376
-0.33
0.00048803353912297307
-0.11
-0.575950525241048
0.07149111820772464
-0.2796234835767759
-0.12629098303692324
-0.41053491591828384
-0.25632263148330825
-0.8245094697392137
-0.4252730199326807
-0.06
-0.04514671874158498
-0.46095840241361535
-0.2747703191749349
-0.8990594367572864
-0.2922753652229813
0.47246666785611074
-0.20397071134553096
-0.46460107766577996
-0.21509013422585638
-0.17102970076162494
0.4700147138322813
0.013417237081220407
-0.6027936042892358
0.04327124605281294
-0.2986730542347208
-0.7428292612103305
0.11539719428984933
0.0009084312461771302
-0.5920476294272703
0.2350340770258913
-0.3316527085877942
-0.051859109341532296
-0.13259330322587376
-0.47758143331331104
-0.30822275343274463
-0.20030093440914473
0.04937716666982213
-0.8588888711030197
0.3734065832779953
-0.10978664402650268
-0.7713181474619694
-0.4450003296667305
0.03675600719967233
-0.43720237283156566
-0.3656587555233078
-0.15108985017141352
-0.49333034680394894
-0.31168492417983823
-0.03864826255510558
-0.4125029448766005
-0.09495391372349465
0.20559745551774297
-0.20410031530907352
0.45239773863613025
-0.021796827533797566
-0.6422932330655113
0.4479849394441071
0.1280361870538226
-0.009971949306420693
0.1158306410973979
-0.44782540757690414
-0.8798126888155642
0.10153297523726589
0.3395370166651038
-0.9067134485942759
-0.10892868922603025
-0.18567415315234106
0.10540127583288232
-0.055832243835741605
0.3264405902905594
-0.8200448621617537
0.25749915071599144
0.2681717130796913
-0.4198761213646991
-0.3044007128701931
-0.05010488522829524
-0.47623668708492106
-0.03976354884198444
-0.3562382919291455
-0.6995393404037782
-0.16032748882227818
-0.1238266099663259
-0.8367305966144216
-0.08554791457445425
0.11306975686664608
0.09343889431829913
0.14738622765985446
-0.2645473448901499
-0.6143472298302896
-0.3372105464347622
-0.41690082601315753
0.01642684422007165
-0.035631139362114525
0.037315037778990194
-0.5324046710250114
-0.10101548790917983
0.09315146154813109
0.13307056202238834
-0.6123271447257203
-0.5152406424727209
-0.32040558906156247
-0.5504588896209178
-0.57681338833897
-0.45308235309044875
0.06379062027421781
0.10458346790878466
-0.05756952797975883
-0.36311906108422654
-0.020025296970389145
-0.3470195265835453
-0.4990602976012661
-0.666795193567112
-0.26433749569461196
0.10502756810652189
-0.6618647298340621
-0.2700782894926745
-0.07416210182846499
-0.00034272348340570475
0.2610902184492867
-0.4868526161210813
-0.6618554371735528
0.0508305249116015
-0.13508020889324956
-0.24177442728679968
0.06709723379267175
-0.08142792766107257
0.17312640111910294
0.15539868581858798
0.29536979190710894
-0.2686079762551305
-0.04
-0.3974971449000702
-0.45
0.14763576853635602
-0.3960759894584422
-0.1448235312552535
-0.39333545602410247
-0.5063375386230793
0.027080849599663483
-0.5818954007676318
0.1415638602464222
-0.41
-0.8385141633556785
0.21526347243413235
0.15949023265533402
-0.658749405404562
0.08600848182768184
0.2460717329565662
-0.026187795445213664
-0.3631346284328998
-0.21103507558660778
-0.5063867282120015
-0.14582888712293735
-0.4683688353657107
-0.32473611388346724
0.039854258327630974
-0.35009434268505063
-0.3090832593820436
-0.20407308885445272
0.4405292756878355
-0.12462563017751827
-0.27915433643186444
-0.05818540313309796
-0.11715828686073611
0.2920929990722869
-0.09339271216959023
-0.2267480660702754
-0.2331099126816815
0.29938243222730765
-0.20861099872433111
0.3159778755754766
0.4230266996554515
-0.0445555403033532
0.07827814972635427
0.22390594129077615
-0.8648515584052577
-0.04230507380706437
0.09551357625466667
0.05219670200925602
0.009039030814530183
-0.1610126697928255
-0.11238441224498043
-0.03985360888374122
-0.472849311052787
-0.8617480982540866
-0.4286532816146725
0.15635915959856786
-0.5319334559682929
-0.027676394551821287
-0.002636488720748465
-0.33666095069360996
0.4460467484928116
-0.4174962691638964
-0.7587636546393131
-0.4469907671183369
-0.24570908340191336
-0.5408284138039942
-0.1267131937156391
-0.0030115358632681086
-0.7827886934666429
-0.4374504615916344
0.4149199646010814
-0.30546133047508356
0.32729067495245545
-0.4445262443566249
-0.49750695216120455
-0.31121749440371727
-0.2794260261250367
-0.7746546882215931
0.19083002342508468
0.17734175114849182
-0.2774785541927846
0.14688611212274583
0.24394788181008248
0.06226464369854538
-0.4294632164301749
0.05414576534411472
-0.726969941957765
-0.35042651430789584
0.34500355565883617
-0.4789753759130696
-0.5692788706673133
-0.05630077328273365
-0.023333251774090572
-0.38361666586472265
0.10468861728536627
-0.4956511294205735
-0.5022881787863398
-0.15251744496266298
-0.751505759731166
-0.46922748622771726
0.05274546712154464
-0.007834382508306356
0.18183822446521453
0.012313964496985694
-0.22652048626490645
-0.2490441691536263
0.13777780665372338
-0.36946998322053265
0.06844148564526231
-0.22726975988250087
-0.014259898047042722
0.2482789670079964
-0.05487739482110359
0.1704254015858084
0.02120130231374783
-0.11984298045789103
0.2601261668043369
-0.3235338772679924
0.0978378536776284
0.005952964847333252
-0.3470415094465087
0.11481194990785923
-0.5186234054596578
-0.2994392353697482
-0.49418551083812834
-0.18313416771304153
0.15406898762962293
-0.6482947126237855
0.2434066185350863
-0.3483625968328475
-0.14039234941590678
0.46
-0.13285834150564022
-0.5
-0.4117985234090813
-0.405651066054559
-0.01436089975585583
-0.28892174606336374
0.396711736061159
0.30421983436989763
0.846603160699518
-0.34011537242858464
-0.42
0.3784197284314686
-0.4377121057906376
-0.21353914881038363
0.12314501541134949
-0.46889824396013485
0.3031896181947815
0.19316251527618258
0.3943554891698665
-0.1602213361570927
0.4215792911946631
-0.4306503323967395
0.23051962327229533
0.9950497431047225
-0.044861743736186774
0.2134267769379665
0.4358129448474094
-0.41853209914454487
-0.2254274555591212
0.4679887787027373
0.22814629949721485
-0.13367962910245057
0.1408348482600253
0.10355240348325619
0.0253208623406426
0.7391623076663791
0.3962244526338094
-0.20340000274690812
0.1488880389363164
0.5052195864514223
0.18147619756282501
0.11764596878491074
0.16158545629309526
-0.24724290415830488
0.5215429017178518
0.3564076250812842
-0.335853037538099
0.4342035186182687
0.09235714156066134
-0.38616703947110204
0.8281276754115166
-0.44125301329958355
-0.2686735263552047
0.7373185360034752
-0.2779373870074395
-0.27950244133772995
0.666838809288893
-0.136628745310332
0.33640182936606705
0.20229067103797377
0.43201512223678984
0.1791189547655633
0.3825674830287074
0.44902118484656023
0.40727378919210283
0.6902137382829399
0.5032200951657886
0.0176698270377737
0.0023666109232991163
-0.339328815320242
0.03879416853176384
0.105129979831099
-0.07321652572203187
0.042088416677902765
0.3065070075747444
0.0021121983881838636
0.4659578889209002
0.4511010554941753
-0.3763513217742446
0.37921716384081927
0.1860372623959169
0.05545319640409454
-0.2245502396613301
0.6378291371906103
-0.42257127488844953
-0.3631923442989078
-0.032672315102506594
0.03657228204224526
-0.0725438666769925
-0.08233587991647538
-0.014412630765701123
-0.34873378437417957
0.45002098471636054
0.0694204222986501
0.1405831304328596
0.1679969534174395
0.4121275387905315
0.29343090150010703
0.5161426184166323
0.42113410272409185
-0.09976440299454196
0.28503198758892034
0.3654400380464524
-0.2279612375577367
-0.10837670289161154
-0.08295443690982088
0.3961484795197244
0.8204442530041447
0.6541148901169614
-0.2502840961184275
-0.02096842164244527
0.44196014040170295
0.12770663410936983
0.26986042770681967
-0.2668594391753584
-0.21140932493700273
0.21465525637508176
0.23746169120275137
0.4926470378561068
0.2314044365625576
0.3166561482221661
0.31608842620151634
-0.28352372439708473
0.5081429208363988
0.36893697335781567
0.3422045229260873
0.5695661263569277
-0.05954231418795796
0.39906230420956296
0.5111876326192262
0.30132114764738704
-0.44
0.2493864749934434
0.48
0.24663361075227536
0.7009027231595975
0.17022277889804407
0.5644064803936127
-0.2446707791387396
0.4567536572801014
-0.599594557511277
0.013364641294725846
-0.17
-0.29636529396647876
-0.4031109649699724
-0.13018426944574918
-0.49623952573004276
-0.4430524637606591
0.34548346730028534
-0.8916784992856057
0.2867187730488696
0.073642268846632
-0.48697263626328546
-0.07614589151979728
0.01935657925036871
-0.9157439332360244
-0.44308890495079484
0.08533637551245839
-0.10420107709414325
-0.21061155735476608
0.026344897713340924
-0.6332888896134168
-0.0925322670363738
0.1165256965738548
-0.4408467854906049
-0.39515517001970096
-0.3768472834363541
-0.7062937818421012
-0.5063351936579948
-0.45610509999895116
-0.5162346641081206
-0.007136494829378778
0.2887192787558799
-0.5263807623148282
-0.041814775377502
0.17289037920079053
-0.8650593527464856
-0.0773072853907555
0.05267467107907493
-0.3685515441139105
0.22640061409838486
0.3137169527570133
-0.34854634287716824
-0.1446468688162959
0.2972227646547388
-0.3535863070278788
0.40688728343668873
-0.05191417025674579
-0.05159417541883924
-0.315967913260866
0.1425802077443942
-0.11986160444925544
-0.12219486223158954
0.16342057691254527
-0.683207961528998
0.29031112568000284
-0.43117513769484284
-0.881024347351882
-0.16727677388972553
-0.24362037998579122
-0.49877650884076613
-0.5570793701098932
-0.3150566175939002
-0.8176843157996075
-0.04673532554294246
0.37795891486202055
-0.26724552509651367
-0.37018964870195775
0.13069271564167248
-0.5563832451728159
-0.38378572940530664
-0.10645872683137103
-0.7123101666335278
0.16929263452844862
0.08514050412986209
-0.1842393833853404
-0.27037737968097275
0.09369505058940894
-0.5585601419610783
0.38538883243521993
-0.4693511886899451
-0.5157750973917318
-0.39434997285477347
-0.09878370011255094
-0.7910353931945766
-0.19965716562932284
0.2229528906114381
-0.6541520456307639
0.13172289608287546
0.21605458728713864
0.08935938142549799
0.235109772350913
-0.6475956277002881
-0.4057463926466925
-0.5761342385894702
-0.49795392929182636
-0.0187034104740355
0.18718108082941096
-0.14770939602461775
-0.153863164554782
-0.5379036983570505
-0.551078586928512
0.17843984259262105
-0.4668375146005593
-0.19163548724405002
0.3100241186015712
-0.19786489029397222
-0.17657408998400617
0.23187677537837736
-0.6047789443308226
0.18846425575924136
0.049887024691483255
-0.4478275393871751
0.11439460783000523
0.07416347218795015
0.10196566104559394
-0.028042052448662314
0.2747219900648339
-0.05615619655262217
-0.13309378379227516
-0.3769260924667141
0.13054361732253858
0.06399507910941707
0.0
-0.673471338045867
-0.49
-0.4100821240292965
-0.699035160702782
-0.6228531846229767
-0.43920130708720573
0.4405007807853534
-0.41532354994194237
-0.46301089510515686
0.09635120724909535
0.06
-0.15702579127914423
-0.12495744651885986
-0.48026829439494534
-0.1370214134963321
-0.3146935299067264
-0.46630877770191176
-0.4850282548416123
-0.010646205254479738
-0.012035414319704037
-0.42999148684057265
-0.3199563366377274
-0.13744722892476693
-0.6532233850014879
0.06868737612825168
0.2716431238057979
-0.5604877362571816
0.17686137465338
0.3053615000138389
-0.41815322998438237
-0.3691915078274604
-0.09756846046117228
-0.16327349585684742
-0.30114128147998453
-0.28679936146784724
-0.8920064429288901
-0.09317743340126562
0.20600870650999623
-0.7480639723895509
-0.3199279719184484
-0.08730022159350061
-0.08900213633682333
0.30431912013232015
0.10821910362062737
-0.48571683730311904
-0.3844855041155121
-0.5295636379497275
-0.11844939770419415
-0.3639702021440821
-0.05552575648551498
-0.9021623550436912
0.11570487373120289
-0.4834042740293289
-0.40821421072649683
-0.48036475304217796
-0.04855234811139234
-0.9826913501571386
-0.2907395395294719
0.08432516573523122
-0.7082281296059045
0.39191972607267006
-0.02152433185207539
-0.7075952549815722
0.22713634903564417
0.44450200505901744
-0.5635032174061437
0.06701797454912248
0.3392806017753913
-0.47952704486287845
-0.17173679471051673
-0.4040162083214866
-0.46811772869891094
-0.0598493007776066
0.4091803470856755
-0.08883218070882572
0.22766859582514634
-0.564105867909646
-0.44436669396610995
-0.2135106759222483
-0.006397411942487379
-0.7221436953213802
-0.0034421305341357056
-0.2833930568965404
-0.45749895293811077
0.12890877203664752
0.37036526233193084
-0.5581371336665683
-0.01421136646336599
-0.24090441443230656
-0.5957903645689799
-0.4052884587967169
-0.4734128991770397
0.07142316257190086
0.19000649880713516
-0.0954452527367781
-0.16760378599579004
-0.5689341990654364
-0.5331804227887215
0.1732252788240217
-0.23202809383330364
0.07301202049709334
-0.5460642488369656
-0.5289310094581307
-0.6236877962346189
-0.23699278717120115
-0.17130265439218362
-0.2455804399481516
-0.12707238949663235
0.14066959164677995
-0.1970661346024353
-0.550972058480591
-0.12394504471497794
-0.7346498933673552
0.219683443226321
-0.5070167876569686
-0.24268701122513983
0.2741280961459617
-0.553424322718825
0.004051930173174971
-0.44194727879272383
-0.004087889178454873
-0.23017350313845106
0.014709566604392203
-0.07651930126394507
-0.13931512915059255
-0.07502837883601107
-0.07763972981140026
-0.15771214817322235
0.2566119926428673
-0.5108830822676484
-0.20667580640181854
-0.02
-0.5053074313961851
-0.3
0.19824596452213245
-0.6827393312684702
-0.6729274577509936
-0.5868069879265779
-0.17754230341508992
0.44724305852149504
-0.6572774269341605
0.4145532743096043
0.43
-0.6613794564999121
-0.3141016376031489
0.21590577597705776
-0.23765024091893838
0.09626337083882089
0.49162290555936256
-0.6464951656727754
-0.4906088339896481
0.1673550848395228
-0.9307250654088335
0.12788888646625002
0.14909139567005583
-0.47934355138317536
0.414771061610059
0.12205369308185375
-0.7446026645987976
-0.062932122586117
-0.2711863877258118
0.03907497634145884
-0.5233696827187077
0.3647497976971983
-0.9142420661081728
-0.11598882569208616
-0.08941058635112951
-0.3645145604811504
-0.011555947270780242
0.3359638640699403
0.06052081854504146
0.3080342232819578
0.4038237555601691
-0.8395586253024301
0.4502537756392006
-0.06590179687904862
-0.328379421306348
-0.17119987591766359
0.3659174081394411
-0.6583830494950825
-0.033015452747419766
-0.35571805783791854
-0.8291059921961834
-0.21065704406895905
-0.20544911232043075
-0.6801808259272534
0.12014884414462314
0.3163806095296602
-0.2061865914277278
-0.2556751122049923
0.4042355309351062
-0.643001946435746
-0.3667146786024216
-0.05561446467134922
-0.709176774205986
0.43931014477427427
-0.0888364245681622
-0.2592293243104434
0.032584654775545716
-0.3060728321894105
0.20349882590203738
-0.4629070878156873
0.0968121822920153
-0.5011790457502449
-0.33111423064483064
-0.037159442443753674
-0.032171547758911845
-0.3761501039003946
-0.06664089482885695
-0.8146749739303936
0.12583477465619022
-0.1353462649565382
0.11163611106436586
0.10822905978911215
-0.2527411809532738
0.09215058217886384
-0.41489049532865013
0.26124183885601326
-0.4355744854274582
-0.15114844753161544
-0.05857819944229072
-0.48849667710724
-0.29840621755352964
-0.11674235240439487
-0.21800350247901723
-0.4707352392196481
0.3272610257400052
0.15415467628608048
-0.3468967961291462
0.351494914645319
-0.6210371292386577
-0.5259388795097225
0.16512857790904237
-0.04922752010707503
-0.601382151905027
-0.6139777260863797
-0.16142000118617272
0.0299166331694921
-0.2174975060514036
-0.5165526373968885
0.2485690493452311
-0.5084499233707848
0.2981287086770857
-0.2851598794093611
0.18824412713428143
-0.5066598462208775
-0.28706537501646456
-0.453455140707286
-0.4892340998935963
-0.6527918535021787
0.07644940235290963
-0.013081528399623281
-0.12884896805634635
-0.45931875798361665
0.1430687264318342
0.2207689374487218
-0.12118673207460674
-0.6070403738670967
0.13274601183864312
-0.24560397655210087
-0.33616012556247404
-0.30371699198848556
0.14540679153139707
-0.47
-0.720887885634458
0.36
-0.4978411268699485
-0.12883829785804882
-0.1663822361604237
-0.3431969233263323
-0.020117747907393957
0.09538067531746881
-0.27829174676209545
-0.40377764294172974
0.22
-1.0513414175707676
-0.46534729681558773
-0.20013686260751207
-0.5306088982973411
0.0440570465184967
0.18302481015941122
-0.5408971671326755
-0.27881635741309246
-0.06135749891633789
-0.8167918318503169
0.08146061638029911
-0.44473016674345595
-1.0225901888298812
-0.2693683588130184
-0.31152033256661826
-0.839579732870317
0.054411351050579815
0.14030741792426107
-0.5216309331374684
-0.10536519917314949
-0.36272495816860656
-0.987115339220358
0.21315158300260886
-0.16649822589814836
-0.7052915892139987
0.26510110072579074
-0.3996037185422678
-0.8332357625661648
0.08615076672207701
-0.05034153204820103
-0.1299477057405353
0.19360052340237938
0.46541794419341376
-0.02053629124349115
-0.22157036733627963
-0.29030035926220504
0.08807729156895591
0.2855343533068921
0.15243799607927672
-0.6161459349504474
-0.012980775515185696
-0.5212887139749142
-0.23902399509844105
-0.12637600531300167
0.1260007529004121
-0.19433373664606884
0.35164426935929993
0.36600242624776247
-0.43570083456823655
-0.2769903060658829
0.16102502277536232
-0.949113993364449
-0.028599743797269365
-0.07877451058081378
-0.03518542404862001
0.21727122024307682
0.20368201069785288
-0.03981832949703396
-0.5105523955871758
-0.3596010128397727
-0.8825790970008951
-0.5045086045456879
-0.2896745824631786
-0.8249472988843772
-0.35206683303880065
0.021321785976279067
0.035038867631439846
-0.26304936799407586
-0.5285018213922678
-0.12817918073947285
0.0999922877453837
0.07604177925237447
-0.03569096254698218
0.29296046890825045
0.17783045268535919
-0.5070886058552838
0.2925694387835674
0.07876502979871157
-0.20528174687631923
0.029828002691250778
0.09009474420259947
-0.17419479421552722
0.12741133562657056
-0.20930666210668908
-0.2472378068483914
0.10985575456872362
-0.38572616871968685
-0.562535790064294
-0.07842675560237682
0.15752895560595276
-0.5015531839829329
-0.1826644860093769
0.06320055552226256
-0.5297377879012692
-0.3201514820073503
0.14583422672072646
-0.28986684174022187
-0.04265609936686125
-0.18701867536259276
-0.06539111303314989
-0.034278925990614224
-0.22289607501810368
0.2643346875157677
-0.2681273268840211
-0.7623266429966393
-0.031543303831221274
-0.20281876755849568
-0.09163638237841168
-0.4720846339706566
-0.6529676980372878
-0.014996485698468984
-0.2655491326786688
-0.06614309600921944
0.3758917364270922
-0.5964883634442001
-0.3060920873692489
-0.034905668973501926
0.3846032441042298
-0.3663862895170851
0.08949829255259324
-0.02
-0.23618700693895014
-0.3
-0.26906930489097686
-0.5892130568754596
0.09767183197797202
-0.5714050450299932
-0.20353324945307902
0.41382950256596995
0.5513974501380577
0.023230233899170394
0.22
0.23959835705674454
0.11885882954645403
0.07301049046184167
0.6678331462651474
0.26761354987620883
-0.005943291753891018
0.6979631681237306
-0.15356268976664122
0.09252553194478617
-0.06816763390787757
0.22409928856628994
0.3812223952541429
0.22764112652387808
0.12959366482517753
0.20043731934255027
0.3053157823536079
-0.2272959150929595
-0.1799551857523211
0.2951816438607318
-0.48676927150521226
-0.10925378601321198
0.595712256171204
0.05199871644520619
0.2459599755373411
0.03746199522447732
0.42503521584137993
0.166778053338872
-0.05810325363089009
0.18978238689521673
-0.2621705313717773
0.7192342272165713
-0.2986065092415954
-0.11073982998477441
0.21863582985862967
0.5005611867293432
-0.21897010569553121
0.4666663996991533
-0.3592391074004236
0.3489699351565001
0.7357476838357913
0.3637395676109071
0.014518508537956379
0.04606997484502254
-0.14213129677978054
-0.08904111859298318
-0.20982425422955847
0.4673225594257403
-0.12927095960223103
0.4803363553009563
-0.16260820909552687
-0.2954600866752466
0.3063874597771104
0.3975298135013349
-0.40335269652822875
-0.15920769221180595
0.18101757534323298
0.5429392322474932
0.6166478162348948
0.058870138120810135
-0.30482026037877286
0.33654814728560506
-0.1932707003036334
-0.16402875894904842
0.38078661413797227
-0.3183006685857252
0.37087147276962973
0.6764694293906773
-0.04888371555710846
0.3907243918048289
0.2437263687722015
-0.22599357397383202
0.35968367598380446
0.5001372168790769
0.21863629374031715
0.10405582196017119
0.0823982120565493
0.38200315258647766
0.2367766385269649
0.08114979300780083
-0.3594692449315672
0.2708498359751822
0.5018691989378145
-0.3042618483097987
0.23609586462118418
-0.1763433413737121
-0.07129533664427352
-0.13015826924763696
-0.22856952626775576
0.2771849821185915
-0.07345381148601379
0.3799866200147523
0.11192437807446035
0.302512755738995
0.6245982424337366
0.5113461884304661
0.052797674115242485
0.22550279641136323
-0.2798432839234074
0.1642823402063371
0.3773139589767669
0.4668608874200946
0.01644927901384497
0.2994893362443216
0.512518571345031
0.06535064308022988
-0.20206818478739613
-0.2748252716896351
-0.2592519616968284
0.49286010360732496
0.4148490446927019
-0.27287268527417136
-0.06995095098605784
-0.018719177136572823
-0.28663030203128387
-0.29117986593979495
-0.2837326454257228
-0.1566242195815973
0.04897398132683458
0.22610742485796131
0.37161585348042014
0.34
-0.13315866687722158
-0.36
0.337427338251607
0.19678718019692598
0.22382412364890816
0.45973613922987505
-0.2933704985019596
0.116425139447386
-0.6040214250973113
-0.1350749020395606
-0.38
-0.9911276735835979
0.12845648589411207
0.0020044001858914163
-0.6646124885656213
0.09993690069024325
0.2515226742325398
-0.13007721986637244
-0.3741166420556544
0.24742643269356557
-1.0171782885206975
0.26708066813764625
-0.17079197506094707
-0.667747119206487
0.2958679065779482
0.35361406489878844
-0.2100321297203424
-0.2962531228679332
0.3875511223551668
-0.20129022602617844
-0.09893208401847574
-0.1400044478329455
-0.056148033564147035
0.20348129370760526
-0.3158985957039554
-0.956832475570231
0.10005988358470046
0.2202198420019842
-0.37230315381619755
0.2794121241247258
-0.10936871487320872
-0.8081965067368668
0.32489403392058985
0.4678677968010266
-0.669398208535643
-0.07114077595486931
0.3586946958012139
-0.11533131020222867
-0.1260345732884726
0.05739411469955412
-0.17838812689627634
-0.47167717549276506
-0.48660126588847014
-0.5555503521671514
0.37948043036613516
-0.2100138601813927
-0.35707519889640144
0.1244178713883068
0.4388617801916858
-0.028329415180046367
0.05679644729887311
0.21987282435127203
-0.4362873845550902
-0.35625662748566883
0.11973568287174485
-0.14285098836331103
-0.3095558821979209
-0.08775901981720387
-0.3396394754758428
0.014727307603559387
-0.28838308808608937
-0.7980232400639153
0.17373514046051944
0.3886829122578219
-0.35696950661903615
0.37561540667172727
-0.4839218000425287
-0.24723401674193252
0.28848462909497424
0.14979383208638095
-0.44947999865387095
0.03701497887800292
-0.18974569219552842
-0.5295734849448515
-0.20335201054910654
-0.1345556356577651
-0.6068547227119973
-0.12126082931972337
-0.33827238540936916
-0.05054670648823361
-0.4338520957918839
-0.5289051805163326
-0.2001050395380238
-0.4736609676351303
-0.375551991953454
-0.5653066615602736
0.008187465824242311
0.11574626172647691
-0.6618333971382859
-0.11658405227767724
0.2276604379367962
0.14630530579403506
-0.0866369314203181
0.09077530101654414
-0.1462994657039076
-0.13714702300212406
0.17357583631225793
-0.6941905283127597
0.2779435043110161
-0.055295018015774196
-0.09161101098727091
0.014234841313557846
-0.11134148331304679
-0.3399024758752282
-0.6014272285012122
-0.6351622779088711
0.11044210793953643
-0.7479510177201518
-0.5820106296470738
-0.13778356018357338
-0.42287699785883986
0.17481227074926167
-0.10205089913464671
-0.6754325593041015
-0.6961791007892629
-0.49382085200419523
-0.5926712348960288
-0.6672196355928576
-0.2764491812168947
-0.6690023708797345
-0.5031627044200742
-0.19
-0.8095084832694118
-0.11
0.02358583227792596
-0.6300221302780435
0.10878853359718131
-0.2875889713380683
0.23400681151907418
0.13351713520432043
0.2171994940769749
-0.47729326813008316
0.12
0.6522175306715843
-0.2887941695203732
-0.021930594337446138
0.8636421108691105
0.3117118446195465
-0.3552144306247365
0.7164680182871932
-0.4378302265112454
0.4352432196001732
0.6632252810064402
0.21495486054459773
-0.1015776002815706
0.19627269864048133
0.43872826279230137
0.03953957834415884
0.6352296016796188
0.1886541811274336
0.5038706952036489
0.27403961727702675
0.03551304867053607
0.5078142334986243
0.20855737930734997
-0.42294825165476174
0.2553650388575376
0.9244963688426265
0.16356195345104674
0.19591689641164597
0.35393686849636496
-0.2764304037567993
0.200339261009392
0.3391746543638538
-0.3460905542220345
-0.22954708284911374
0.07408183087501154
0.20888861312531407
0.4039249508122562
0.7282894688494933
0.5412089414894614
0.0070265030114365565
0.35034746896599306
0.18604938917378175
0.14876675403408962
0.03296777912493147
-0.11831117200780963
-0.1020955408971583
0.29521092704668406
0.07030797500168583
-0.2753534686637145
0.05160718723057262
0.027169642584353875
0.3514953238187122
0.7128563882205725
0.18907164911192617
0.23141676475114598
0.44722245640764613
-0.3952158600075803
-0.01302126629817656
0.30897728804986946
0.26746733939951833
0.12288052068587228
0.25638869149882626
-0.04584585103348684
-0.024008225947514995
0.49666464889161843
0.1307669382071081
0.025888925043301023
0.047530494494600235
-0.18999605838668931
0.4348863656664156
0.7466989446584135
0.09183805082638216
0.5844270732703793
0.4960650443127307
-0.38706875643189836
0.2045940715053641
0.6706532719544579
-0.09182398230861046
-0.23102036464411282
0.4413660978049605
-0.016922372009635877
-0.2179065305667801
0.6218135447816847
0.0895163469363069
0.07211491657754363
0.17753426959175075
0.10377417498191747
-0.38458914654810544
0.3183633983804089
0.7496491093189084
-0.30220413020574416
0.14794027648350783
0.4176872148734484
0.546193127843286
-0.18633804115503202
0.1935682744629584
-0.09465876304638528
0.3498335101361805
0.17824861406141648
0.0742629981646061
-0.24526916853330205
0.2644295315199078
0.7843856907705226
0.25768512408724653
0.05135254629344193
0.5617526034580542
0.2588329374456699
0.24283782024748732
0.08727250873772113
0.1268611482853959
0.16928970412809471
-0.25619448669809114
0.2559068687696637
0.3137109790796392
-0.1275803882517085
0.40519397302026117
0.4358097763826591
0.0316189429484573
-0.04688121597469231
-0.24131436582255322
0.5961347056196563
-0.48
0.9672886555315543
-0.5
0.7074732619520306
0.6232872441202482
0.22710509910940668
-0.2025424963984712
-0.2430238369034012
0.2503392487535553
-0.36644060766809955
-0.3652671994605678
-0.42
-0.6562743932138383
0.004905834838724725
0.3347954513471457
-0.1619497467955835
-0.3642142629266746
-0.06368089258876926
-0.8904498044401422
0.03276213865379832
0.020135039166385958
-0.5322306683360101
0.26072707079451124
0.17780768647684003
-0.8615613547402707
0.03238510988831777
0.29555624316878
-0.862492751397015
-0.39443205014687815
-0.3754231944897503
-0.5940678202528032
0.4381224563674404
0.39530103447272025
-0.6511854886736603
0.49451589582582656
0.14691615492218288
0.0351781917845439
-0.23346290508183912
0.4554358538670807
-0.2803939976960827
-0.46641041454610993
0.19792635205142944
-0.41219997928432733
-0.09709493114221404
0.31859547386874687
-0.5330760726908488
-0.2768879595530111
-0.38344178237850834
-0.16520945914538362
-0.14271731685122022
-0.22642138932448672
-0.8777464006853792
0.16279923163475296
0.16009043259426348
-0.09908899661287061
0.44763000564349464
0.3814990297308562
0.08419205818656457
-0.2070596462925333
-0.17206055188248084
-0.47535251936729855
-0.1539554871253329
-0.2834737909582223
-0.4637326475929905
0.14583788017610053
-0.23289929171418708
-0.8649155339932656
0.19644626733233966
0.21440938622053216
0.05514314086973183
-0.2909210854653763
-0.5040956320535712
-0.34699670660539295
-0.14027621971614798
-0.31736676938678277
-0.5903747300663257
0.24637294107799507
-0.43459707316783114
-0.816334380000644
-0.08043710520663709
-0.16071945408057597
0.12314979945304043
0.35620109625242363
-0.23524452690801395
-0.5447780326980474
-0.1613459987690517
-0.3138123595568853
0.1164165092388991
-0.06397270805712592
0.36168985507665957
-0.31946253149418535
0.08640411804241334
-0.08369429280040391
-0.16335038449256128
-0.2743238810821465
-0.34424450158672015
-0.34653299326667736
-0.6105910635217151
0.24150596184698994
-0.1992570323046895
-0.2336174879174125
0.257558372688314
-0.5391586752345554
-0.3097682558288704
-0.18151210851619584
-0.026959005716093488
0.36710255585717744
-0.24220424116308278
-0.42441903820723353
0.1852547209952042
0.23681192989419042
-0.1808744988459764
0.21269401057667364
-0.43483459747698383
-0.20873289675003848
-0.3178010641480899
-0.6305928810825508
-0.41691311036320094
-0.48386256692936036
-0.2668102111929228
0.0035035212150693173
-0.2780618683972585
-0.61310929084584
-0.5683420441608301
0.17008277663155683
-0.20168902284306625
0.15461294438999643
-0.13429247992204246
0.06514835340771896
-0.5293181981669842
0.2328012863841531
0.0013387176643632512
0.45
0.04729272396052419
0.24
-0.08899821495487671
-0.11057315315876583
0.06078733792374787
-0.06432312468821215
-0.11046794448099773
-0.34185607792217254
0.3699547151533976
-0.026244328056545252
0.11
0.8585767572489418
-0.2767224480742632
0.03460164114626112
0.6873495025962694
-0.11009683456785184
-0.4634309863756407
0.6252035295592434
0.24008176599107572
-0.06641651973235581
0.4204529104385585
0.36781791846847706
0.10339788016606763
0.12185956520160496
0.34659686380700727
-0.44950059387036784
0.10744088866915597
-0.3860859856241081
-0.16360654194699098
0.7456038725649562
0.5198569785567139
0.05079454172277205
0.928586968295805
0.4424727991561013
0.17601315544065346
0.5414619893611343
0.24437916437289062
0.3124611810153844
0.6776536773675215
-0.41826054920822736
-0.30878771042590797
0.7425950487546761
0.5080469708459104
-0.04466880163640847
0.12546292800505837
-0.10893981719397001
-0.05455182649473245
-0.009179609538328557
-0.34441425479225896
0.00397803338620072
0.94113431342787
-0.2832580376393917
-0.19518910040566217
0.19993278517064966
0.5071106244096925
-0.3287749634548033
0.23703738053493117
0.383591892094552
-0.33347788024858
0.7711078686263918
-0.35577567920313274
0.18648412712375412
0.47853008867575403
-0.033159906624828456
-0.05028745202094066
0.43964588942772714
0.03249587176789351
-0.021874403782517923
0.004592038858191918
0.22913667409900584
0.06456300154124305
0.4392154744540485
-0.2319241668206116
0.1683840178283755
0.8744574788754902
-0.25098718752918703
0.27707758536911997
0.28754534442047713
0.4872313793850827
-0.23606699215608568
0.6425755233921221
-0.17465422206135756
0.6176653660204234
0.778320241657534
-0.33413129850327916
0.4479303867168452
0.5586186789760049
0.08530524348182804
0.4120803810138064
0.3302299405759323
-0.14045601241505906
0.6167945719238673
0.7970406017628326
0.6380191354879787
0.4035564847629621
0.39114490767600957
0.3971529167357081
0.01673788775104464
0.5761504167743523
-0.17103399535071856
-0.14751490666397785
0.14508947422205962
0.004279741616598166
0.607185450466469
-0.16861303891415255
0.3532818976223633
0.24593926387813744
0.5557971896929202
0.3801178556036211
0.07929510432431237
0.396623440367046
0.3759357644833216
0.07462327773395507
0.017978291141114103
-0.35074725970039006
0.1876407099059055
-0.40471894476574355
0.3389325440345175
-0.14528102221500538
0.15062292867859645
0.2965124027110885
-0.11010051191787126
-0.3300986398932489
0.6020534609857994
-0.17551863266681003
0.173175973496555
-0.20580303165506486
-0.170349666786202
0.4852163384162047
-0.06301236245532267
0.5723765148635656
-0.37
0.04947779431111417
-0.12
0.7022951781767155
-0.19710670057854177
0.03638220633358821
0.3520885810422893
-0.3692495798321378
0.17838485694793563
-0.5724706257054247
0.46213497049967844
0.2
-0.8746455451551837
0.032694746897373436
0.159689689783105
-0.6343474247210894
-0.21729306331982556
0.12587672050449059
-0.8131595071578693
0.3153319883955683
0.0860976846869404
-0.2473653411795326
-0.4106831417652181
-0.1278123954619932
-0.34012889842629906
0.005990495630481966
0.20667384574136902
-0.7405257668422867
0.19190112284310776
0.11440937419849743
0.015073892703221396
-0.38143406515952843
-0.10770184683090252
-0.6053553228927254
-0.48889362853418195
0.254126693852427
-0.5316084569509048
-0.26446903515933207
0.11318153889793743
-0.08740442689190477
-0.36772791026384266
-0.3559713107624491
-0.41849824886884357
-0.2774812386265174
0.3159059196750084
-0.749102213710924
-0.048754504221894465
0.06836760177777086
-0.24609761116153092
-0.48422078887405035
-0.14909952363149143
-0.5601764674618198
-0.5226748071644999
0.4174968129203525
-0.44452644491307375
-0.33492116626508894
-0.22158505522866
-0.5066686882022523
-0.4236970548268975
0.015255576432595213
-0.23462337249515422
-0.402583002195251
-0.4949349916881452
-0.7440529887831869
0.3070371822135224
-0.33446326487976996
-0.7373059145761689
-0.43018161880187117
-0.49766628605920293
-0.32809257344758685
-0.32619193875102037
-0.24614625193222825
-0.3494847829542439
-0.2963197633713379
0.4060256821834123
-0.2548993635165013
0.026922883075278282
-0.42040839176736555
0.11622824547815366
0.16222934803140235
0.45784840476396105
-0.46040566652634785
0.17060646350457667
0.4505756225883518
-0.36929288538209126
0.34676646453592935
-0.0054415260458825845
0.06558368657747973
-0.3720929587894068
-0.32457798685792494
0.14753805452854285
-0.35491086592842785
0.185735836105346
0.12559220711334385
-0.19327884147649982
-0.528475914867099
-0.5498416563040343
-0.05363322708667641
-0.23932152305272927
0.0053602602908248646
-0.2779895354959053
-0.41632355118802084
-0.36276188636362344
0.4971346392938347
-0.18743919210417312
-0.4199079987676367
-0.1646036073860004
0.15468069040818017
0.16918690337512482
-0.27581839204111513
-0.561883724558619
0.3457134985353865
-0.20578057223457724
0.1909649654624141
-0.33733144727354963
-0.06558431644667438
0.2928174042931852
-0.1543122918433877
0.13954408929239262
0.36499283081787826
-0.18974608301012547
-0.6771975460655633
-0.6793752614440379
-0.47219058116349033
0.39961504434971784
0.37569628597006277
0.19398165521927885
0.3383712605528484
-0.26044244988450527
-0.1187500475788462
-0.5127583007944588
-0.09531389084798486
-0.3
-0.7666369074098256
0.41
-0.21929294535537994
-0.014421636649654145
-0.6120909388696172
0.14380343162502712
0.42853076375318616
0.1560190877466872
-0.31345150483522255
-0.49488988334194545
0.06
-0.8616181929453943
-0.12070410748508602
-0.0986038395131071
-0.8527469720807913
0.369028511163418
-0.316372896553185
-0.06368340368863903
0.2577339998113433
-0.0888233703458592
-0.2046396699919911
0.3111407399073697
-0.1964832514378299
-0.12929428327278825
0.2934552342801376
-0.4808769746431359
-0.18671865221117212
-0.31472667357617257
0.2668755112795098
-0.2504331953316702
0.1512353836216796
-0.16726784840086137
-0.23770197565697704
-0.40735247637264227
-0.2999345401148321
-0.7855832790951276
-0.2868044812205205
0.11028197736723057
-0.12366757222926458
-0.39893670556844674
0.19821083982220758
-0.4423239719432327
-0.2682091683094552
-0.04927706871368648
-0.8257974850003282
0.21275225328353403
-0.3665610653724488
-0.37738205301009997
-0.34837918204793156
0.14973026751147195
-0.4055661183677537
-0.06648644957419841
-0.44415575402339064
-0.20022259118789007
-0.37794395521919993
-0.27251482254351816
0.011188579501423475
0.0790039426116138
-0.4069958235504677
-0.7343375514456502
-0.5209889254343621
-0.1123488792062279
-0.7086247699670458
0.30865134874279254
-0.208215165818633
0.020564731581966478
0.23532813380618572
-0.19680533765426073
-0.6608597162805144
-0.6346572464957051
0.07696735675859287
-0.8225472990083625
-0.09674235818071071
0.28029862622481494
-0.7441822079570587
-0.04843871869823729
-0.5371401598518436
-0.12963924270485483
0.4444571021262175
0.23561262159016605
-0.1663114848268662
0.1883765628062196
-0.49730286155938835
-0.7064573097908299
0.2314378709197373
-0.01127506919020117
-0.7821579141860715
-0.45888931705420816
0.04958214694241936
-0.5583032145339355
0.08639876716103531
0.32209266157884053
0.14437522523687005
0.17120981275380864
-0.24917065005703098
-0.1241760627188589
0.15102441234540906
-0.5175223681483677
-0.4341235756817969
-0.3406763566003153
-0.21364270093635376
-0.6572902000842592
-0.0013893994098671061
-0.3174780935754158
-0.15620701847131852
-0.08863718838374621
-0.33580196100334425
0.16428078489494496
0.13919887567791833
0.22433990371041088
-0.40550500674192774
-0.5311571973989632
0.148529668372751
-0.28783053188161095
-0.003021436921620167
0.11020471637807022
0.11035142669095147
0.10712155650049741
-0.50982738386544
-0.364356510320873
-0.5981384062441667
0.23910459971827533
-0.049099713916581904
-0.14232718623217383
-0.5178995781317908
-0.22419069511289547
-0.13023202718579358
0.1564382867605937
0.008273670545740372
0.24296574226318543
-0.08059970236239347
-0.18
-0.6117225980680866
-0.41
-0.6974666390021249
-0.07701522277544597
-0.2673431702262924
0.09641476878683192
0.09005892002203485
-0.3861986755019226
-0.5813565383474659
0.1570728623648608
0.3
-0.9929597754814649
-0.3875225760030625
0.3627869101567878
-0.3347700254843981
0.2515007638430833
-0.2838271860812513
-0.16086936900302068
-0.07578579640025457
-0.36579448588413516
-0.9149846230087186
-0.35970324259167347
-0.18230165848894966
-0.16263573789164146
-0.3555449551039356
-0.17902299106269817
-0.7502281019859715
-0.38123125843585814
-0.07019952385883463
-0.8274556510459552
0.3871728234202629
0.21362732079200367
-0.3114372633260921
-0.39267240895043837
0.08857834923099157
-0.8196600012568366
0.09059930054131785
0.1804625162813907
-0.3097877385001688
-0.4311571292657488
0.4225517780904534
-0.9076071878839561
-0.2654269416910246
-0.06941502241330309
0.03915608330403324
0.17977658762474324
-0.38303722578553995
-0.8274268088086034
-0.5000183168903842
-0.11912901774702225
-0.6134649968169448
0.12211166307943978
-0.2682131698303432
0.006935253991174641
0.2707955643546419
-0.44777087543481514
-0.35811712399889634
-0.44459435205081577
-0.05370717092433902
-0.8293282622278569
0.3125530816676685
-0.34508430279230495
-0.3770696728438395
-0.34832837584838283
-0.10522882696341886
-0.805816953862447
-0.48943657065866164
-0.1360316905107464
-0.8316653155649546
-0.32278534540882636
-0.14947918013941822
-0.028917586232486667
-0.2720855851126216
-0.40217553142327317
-0.4654928840205958
-0.0028139360406585177
0.16064043971867661
-0.5265558011066966
0.465433009903493
-0.47493611377711425
-0.5583575731002884
0.32281133539287515
0.08990811008948156
-0.10137797711112748
-0.4790124844628809
-0.40403189949154594
-0.29731012630064163
0.2508596743076603
-0.13847895597246412
-0.35951104381038584
-0.5624923517016774
-0.5184994104735865
0.02766906892925903
-0.23965200994019878
0.06345207771676956
-0.0867755992663839
-0.13715882993491207
-0.014158831688536249
-0.5483077819409072
-0.018015737855082935
-0.41375936428257637
-0.6276425316060885
-0.529080455595863
0.11511647109109722
0.1226503593934352
0.0017508180309409689
0.1623081850480299
-0.6993727075280317
-0.5334178290045256
0.11368923530373685
-0.4035721541011447
0.21940056731288055
-0.10538900509772588
-0.410954808381957
0.07586146199515621
0.14222032733105422
0.06893246615202034
-0.22163514496760156
0.0740034722133965
-0.4973050247784988
-0.11718079891942426
-0.48476340411572416
0.27076385349701537
-0.23648280086581855
-0.022367518431563423
0.17141360347551343
-0.4695284365284768
-0.07635927060480416
0.1982066849968866
-0.6223297658766089
-0.08368940327615267
0.4
-0.006792948208373971
-0.47
-0.3297839032161553
-0.02987832916314882
-0.31330157175321804
-0.1408989872692965
-0.229610360767534
-0.1930011457437459
0.30225260053343567
-0.4079127297808957
0.03
0.42875843676528735
0.08258028824350659
-0.301845435501058
0.3705834287360847
0.4726007317737675
-0.37574624536036133
0.19358487774214148
0.2535000926270142
-0.3978036579725262
0.31504770720356023
0.4740946757777599
0.11452737583771988
0.25420945113396987
-0.44739810196289553
0.2651291318892619
0.19204316186571282
-0.10583356874618037
0.38907723442640507
0.40185426885677
0.3104072217256188
0.006083779665233622
0.3825948836490627
-0.04733993830550229
0.15157438285054559
0.48578340229156475
0.3739809398666836
-0.03073932834586846
0.9017849262198311
-0.09970687286517024
0.06121595174006675
0.3634811068248155
-0.06335833355608844
0.22948281545016944
1.0115429010097268
0.37031300854889754
0.48619671876098036
0.6366176731001728
-0.23147566685236073
0.26998901540071296
0.38853528549507155
-0.3571855758869906
-0.3597070447524084
0.2605461225408215
-0.19950035277961864
0.40630958967661124
0.07978478867182451
-0.0747556533396417
-0.18155944854719566
0.35001066581184537
-0.0071124922558555214
0.5182505935168487
0.47251994287631244
0.4905681886156326
-0.3596230495423817
0.336581290668122
0.5043804838830536
0.0708754824052692
0.4688149334420051
0.5216483091615192
0.33999900225972657
0.7501556671398926
0.3111840556091734
0.5729750588442177
0.020834744147473796
-0.14247107798289785
0.4168216622804882
0.6077794729107248
-0.12326241018242026
-0.38510675311039205
0.7313132153324168
-0.2748677372132319
0.5283225894583418
0.336579506332761
0.11643662921769053
0.34242968143944186
0.2102586338830132
-0.29134959031366087
-0.0378820757253919
0.06662409097658128
0.3325967097576049
0.195390944871256
0.42319690751453803
-0.3272491273769999
0.042454146101223354
0.5336505755953885
-0.08476599668781828
0.2701241338123184
0.7365347678536353
0.5646798233428392
0.018519223456654018
0.30424512137119436
0.15857438018094566
0.3841852670822772
0.41123973437887545
0.25591372354764147
-0.2682017807716705
0.25754871651062017
0.621991789269844
0.43467415555841654
0.5230007710657515
0.2236637983846255
0.46184012136825603
-0.31152543280495804
-0.028975963554503815
0.40627970858183304
0.547013512291073
0.5780455041358871
0.08643134103680082
-0.18037300931888448
-0.05471960670912193
0.6325461366840679
0.3223750630372316
0.09641752528749421
0.03548897249498052
0.27348430592347445
0.45236544659033884
0.5509280865365614
-0.288747491068738
0.4591581295409695
0.5394771603114827
-0.08
0.6518615646973098
0.17
0.06772528812314589
0.47849929535828056
0.07432236960557441
0.13258924668037259
0.5052285104825116
-0.18671433450012603
-0.06660518537883031
-0.10296841533379678
0.35
-1.0088491788664704
-0.3474387563462831
0.2168382641580775
-0.8532590144651232
0.22013281509429242
0.12407415357538089
-1.0276756096452546
0.4673135208571208
0.03308394725454123
-0.8051898723281063
-0.16418201013918832
-0.1747863373214832
-0.3519765567463085
-0.3995250411449611
-0.2774571207652096
-0.21819325614789087
-0.5206375582996523
0.36589772367174866
-0.9051903541183484
-0.3169953047661531
0.3637193092445105
-0.176462281060681
0.27645503660341775
0.12901630655716909
-0.9031167871668109
0.39781254539688826
0.11261421083150508
-0.4256144643158689
-0.15328768172838925
0.1685459761301185
-0.8437587082223623
0.45892479687949084
0.4915902421933243
-0.37475870497353786
0.27688052756746057
-0.35882519511299527
-0.007046631388163896
-0.34041610871159395
-0.12899599264642647
-0.9631504008928309
0.09585845832650397
0.24692007664722865
-0.07139068424147749
-0.36181732761850416
-0.41856924342352786
-0.006706501835182824
0.08898781004595757
-0.4660506636583434
-0.4072472796570312
0.4270100081026217
-0.39814425456793934
-0.1849726440838899
-0.04317103656092344
0.06939114482120755
-0.6692839820440861
-0.47639509798987495
-0.10732844016404733
-0.7657091059069491
-0.17325038914175656
0.05847998350431976
-0.006992927083117738
0.212225008366045
0.2559632879992012
-0.7108312910065738
0.08858006779461919
-0.19987757394459763
-0.6240312077988804
-0.24237915346927555
-0.41425408576258926
-0.5518575073957144
-0.11017634205444914
-0.5713550960455871
-0.43864127963821536
0.22370844047104924
-0.08385692966183189
0.018604414340215366
-0.21103541989113656
-0.3153066463990932
-0.4526444784305052
-0.6283368103831543
-0.5700431627364188
-0.04339060585132132
-0.20285416662501296
0.3107174080110801
-0.5119972770219421
0.2449919337981089
-0.15515762098788594
-0.3178868527003461
-0.373243461524521
-0.576478572678773
-0.19641489836474707
-0.4733944641692328
0.13314025835426466
0.13243459146870265
-0.07186278503572004
-0.3274104745447948
-0.4567418502906789
-0.27213561037727907
0.14149384236378848
-0.3223813903115245
-0.08540038726501693
-0.3871999075753415
-0.031268310195077864
-0.2278197174423337
0.0009144877494041457
-0.23945164068947092
-0.45775078227268623
0.014736196117245198
-0.3112848309770267
-0.7097393003529708
-0.3727609813198796
-0.5037403726388544
-0.619786581254019
-0.18995279117918148
-0.25956779506217914
-0.3767673489713919
0.2024014939589851
0.19506523393265607
0.14624533689560584
-0.13332682040856203
-0.32
-0.26296111480419077
0.0
-0.021823116528697985
-0.30745249002059943
-0.6215195386921837
-0.011334712979884937
-0.20755187356773883
-0.033055782748752274
-0.5170900258326891
0.10838482608432323
-0.19
-0.7270256231244345
0.47526464062731616
0.2677769202106023
-0.8135949726983498
-0.22594293000937088
-0.2963805800295641
-0.7960195310690624
0.2906391286015078
0.25511935588901596
-0.5096430025763588
0.3827626641902245
-0.35657776034880784
-0.9634738206670947
-0.10170940148121599
0.17403672014178445
-0.9322844687879538
-0.2435132338509491
-0.2612342565887287
-0.6151510486185727
0.12462432271018342
-0.4974898499739401
-0.12167905310984814
-0.22259207941333
0.0026666879041296345
-0.393662273182893
0.4292346027816451
-0.25562699625969476
-0.3083849358006211
-0.20774905043680247
-0.45264196154238007
-0.11440837304138812
-0.004710647913350068
0.1462600754332505
-0.3137009315279703
0.06567987359760137
0.390743011961536
-0.4281789653667042
0.36567497090805
-0.023052067270732418
-0.07381837473314522
0.17510945950675919
-0.5127086385434181
-0.4354473575431815
-0.23360498641051877
-0.45079407091956875
-0.09497576913643092
-0.01599114244111864
-0.1204894963485216
-0.5401241271060598
0.31885264095746374
0.18875829049611056
-0.43898509024469257
-0.1215341827485363
0.10133959130135355
-0.6090311422557476
0.3959305684572759
-0.08192766658215546
-0.8839380166268025
0.05410470071183956
0.37004308275794945
-0.6192656295079431
0.09746156425287478
-0.15042103053740058
-0.31758881031480213
-0.24375114164491574
-0.27113772277017933
-0.9074424908533758
-0.10318076887356306
-0.25253711033406995
0.005396330969137881
-0.5546202031321859
-0.3487318031083217
-0.846250649277818
-0.5267785301109793
-0.5597429564422096
-0.12503254627788524
-0.1269854797770241
0.3421200108153474
-0.7312823191983888
0.04740132588592352
-0.35074375641730915
-0.08843814120163818
0.127420915121829
-0.2510037404757443
-0.5293134844870022
-0.011443757534371487
0.14235117437042907
0.16823505128478766
-0.5423472081523345
-0.17679436342268026
-0.3986414053658327
-0.5063252137086051
-0.1483475795939295
-0.36694815506664025
-0.46646524783654847
-0.12677423815382047
-0.3825091435188114
-0.05247760082448656
-0.18722484783641816
0.21312568010346203
-0.027661814764161918
-0.28495543606853846
-0.2446709899713533
0.27786544354277354
0.14698660934230634
0.16252163713869158
-0.33126922897811584
-0.2319139099916751
0.1770935218522923
-0.5969405943577356
0.14043807353821
0.1691639605048676
-0.1513630165401955
-0.5082469758725943
0.00022184029808924516
-0.30373584692261346
-0.6388147048177194
0.018892191075059794
-0.5018384687544588
0.09130478507847664
0.34
-0.5930657675755941
-0.05
-0.6534788642836223
0.05750122050153183
-0.3434719660864059
-0.5667486689215521
0.26355804532751415
0.48962580316950305
0.3459456271740201
-0.35039404164435356
0.14
0.7379166376244995
-0.19273924892532981
0.0768165400844526
0.24145743731628777
0.19690341129842912
-0.21103135280800472
0.2949295339932357
-0.20872079248606143
-0.3986063300885155
0.2926210594193609
-0.018837340631675827
-0.30165289584237626
0.06570639235394121
-0.03887610781239515
0.2970352455204174
0.19664092944828612
-0.11849878626953342
0.34745813897360583
0.07664538494184342
0.0010738647837204554
0.35269672723675966
0.49440785932043907
0.20807280214197202
0.4593036035426006
0.6097575453399817
0.18611623981658718
0.42024754159549454
0.4811219088914328
0.32380793821224235
-0.21524740477652052
0.5319004293239263
-0.14147563584823583
-0.45639037614254785
-0.05838865824008308
-0.19004357691819931
0.3107832257692336
0.7324302535797347
0.04196390935020071
0.29040552985450024
0.7354579392525419
0.10931391959212768
-0.05783292921528508
0.3152201184415268
0.15779019947292797
0.3561957995445114
-0.008482356973504055
-0.2325360538718375
-0.22048693030385877
0.13337347064020066
0.06229084836282825
0.44068912975910535
-0.028153999304634404
-0.37735774175530123
-0.44014803896815863
-0.10837617165638225
-0.036298400676289484
-0.3085688485752389
-0.06174890983403375
-0.41450485289155786
0.07517725314976849
0.4382894945620991
-0.2582893590126979
-0.4074436284161716
-0.014470141524650577
0.45709115863999183
0.24150373792094076
0.036115963034553875
0.3175576877436751
-0.0930712952498684
0.7135121969267889
-0.015263512977750094
0.5487887018237436
0.29475136296644133
0.13163732390898458
0.06042369023892655
0.1406430382681656
-0.28588933980792236
0.09417807742713095
0.5039583014256428
-0.1729589901536036
-0.42684531895255584
-0.14978256113107036
0.08180526878279595
0.2670061303328865
0.3884209545191659
0.609750303847118
0.29171332406104233
0.7039769038886464
0.26948716074948104
0.2986591036645577
0.512356892104493
0.21416139293011932
0.01966897481140485
-0.017535288862276954
-0.11695629724995808
0.16206451178888306
0.10052649851973643
-0.29741362160944995
0.07264408084329983
-0.21562671527564373
0.29816002313151374
-0.1451074418041881
0.10718103608425303
-0.03689620558089508
0.06903201954851831
0.16866193423546155
-0.08251656508480978
0.43568372457300425
0.029571762847003594
0.6099219012791632
0.2637905803670429
-0.320391449481033
0.5117782578131601
0.40052150312133644
-0.12425624666261773
0.3789121322404511
0.5340748866491841
0.43094722102184574
-0.3298447189718605
0.3837648798446022
0.45
0.12141250885456747
-0.37
-0.1723926267032076
0.3240139814873456
0.28153210590241123
-0.1292224022436913
0.04997094575884822
-0.26426824264447074
0.4459821339579291
0.3717039427903009
-0.33
0.399328081784551
0.2340897523192085
-0.3932381387761221
0.14266988377459328
-0.0860139108947109
-0.4733943605797744
0.28038224038994825
-0.35357004570641387
0.41253194703735546
0.653681126065245
0.027204761001158664
0.24530955582331496
0.5964591802020347
-0.46835090192159023
-0.3534454351662622
0.4777062988546293
0.1491569704153924
0.1612991963804869
0.8081574241489713
0.1739612135743012
0.4713413239692819
0.9031383002664185
0.018938209868058824
-0.40238617758956613
0.7367125031913228
0.18909150850200263
-0.10888434992737948
0.4283903918833482
0.023911792147790756
-0.20696244791277052
0.4184462408030179
-0.14806595878648826
-0.1596637020263181
0.0016948637172634427
0.03138667241281516
