-0.4937935721786082
-0.21
0.14483096829327233
-0.07190514697115163
0.05
-0.19705745691418483
0.3866256700023377
0.36
-0.4055882738876738
0.24189962929433548
0.13
-0.9008622331796731
-0.0618876350799934
-0.44
-0.4670749688053428
-0.3075410601887627
0.02
-0.8914215436965743
0.15867370917174967
0.27
-0.24763631305708603
0.19152391804568417
0.14
-0.5604865219310204
-0.3944612361688769
0.4
-0.2145013677164593
-0.7218312348638656
-0.48
-0.4971313690214709
0.30250329311735663
0.04
-0.4314658970026927
-0.034349414186065304
-0.39
-0.3146131896992711
-0.6414333164106563
0.25
-0.11752928747467961
0.391770771266873
-0.36
-0.21073337515220883
-0.15471104217738998
0.2
-0.18425156170794638
0.026401194105483954
-0.46
-0.2953637979908197
0.25713222962342974
0.33
-0.2860948335087658
-0.8143436348831304
0.47
-0.7846189690022071
0.22970359988094532
-0.2
-0.6686662037662826
0.018664592288912953
-0.31
-1.0176271961742516
-0.3649642611408925
-0.41
-0.25399834274444394
0.14209720856145078
-0.36
-0.40105981244678707
-0.17272301547800104
0.41
-0.8662395884073364
-0.2841274135964425
-0.06
-0.7548351902888937
-0.6501717531104031
0.32
-0.8087908507749341
-0.05759164474045429
0.18
-0.6513709591448816
-0.5049630575776441
0.1
-0.9239995463076929
0.19441952555602565
0.42
-0.2733821294413614
0.31737020450774595
-0.09
-0.11633280839308269
-0.2521608536041215
-0.24
-0.596801750281216
-0.25826274836044527
0.03
-0.06069985552489179
-0.7591682693566264
0.25
-0.6097943345287102
-0.5820287321919186
0.1
-0.12693387169341774
-0.17846803297162905
0.02
-0.18049457091370702
-0.2995744467195906
0.35
-0.8293881571657451
-0.021612134162822677
0.4
-0.5873504697225144
-0.49575529125462653
-0.42
-0.39320731263070946
-0.03548429231709634
-0.37
-0.39347831156823987
-0.3467009342315183
-0.46
-0.10226166965381782
-0.2867725176352902
0.36
-0.562190086250045
0.22720879953486528
0.15
-0.5561714034202017
-0.08256685966663119
-0.13
-0.466395744218705
-0.45
-0.7798899859256765
-0.059911300045250214
-0.2886421120618458
-0.22380952191189932
0.3058596243800711
0.4000601974872174
0.33
0.2967176895214049
0.13158696381549845
-0.18
0.6651909231931247
-0.21985423677874852
-0.44
0.5866321237873707
0.5396082382313387
-0.03
0.28716964877728396
0.59485756832024
0.35
0.8619203186883829
0.4689206187735978
-0.14
0.1578572682350254
0.19474891176820333
-0.01
0.9420289752404193
0.27850922187940946
0.48
0.13826866512921354
0.6383352949392989
0.48
-0.0015574079306756076
0.9234869041217878
0.31
0.03329098288683637
-0.38918494217139143
-0.4
0.3459628291800135
0.6145915948450608
-0.41
-0.03781370783643882
0.39081519987102464
-0.12
0.8159626871375989
0.2654051540184189
0.25
0.4813727329902032
0.1695129503951152
0.0
0.22726493661350788
0.02907824033308958
-0.34
0.3576996466755325
-0.27113121892289077
0.01
0.5079091059315124
-0.037306792535025106
0.22
0.4740846795436469
0.1919363019812612
-0.21
0.20484158502736186
0.058468913066305916
-0.34
0.8983089739423172
0.6858214971535687
-0.48
-0.09904361014494653
0.6068609614978923
-0.1
0.35991692551073057
0.520230686947382
0.19
0.2965472000612404
0.07651063872509362
-0.03
0.08026724828352969
0.48963885438233695
0.24
-0.02286096737371396
-0.1849105718379298
0.37
0.7816884588465528
0.6237663422954784
0.07
0.7630115447131445
-0.037202033049971675
0.43
0.8139799200585947
0.13972942626915308
-0.01
0.7470484607394708
0.07213428133801895
-0.24
0.9146436056706032
0.3616277386697069
-0.47
0.1051501483389159
0.2456896592947179
-0.4
0.06108822771390519
-0.12480908878962085
-0.12
-0.05841302420175614
-0.020960738812458777
0.1
0.13773862582108196
0.5154607117846478
0.09
0.3313171752239743
0.32996096522916135
0.43
-0.013183078220538602
0.2315834170478653
0.1
0.6551944699607581
-0.23834659649985032
0.39
0.24512448350847352
-0.19013895059619074
-0.33
0.4469168376048129
0.6636860829088264
-0.34
0.3730918040997961
-0.11636926941939978
0.3
0.11314715642802309
0.19639880101144166
-0.44
0.3603790859971804
-0.34
0.7295658158866658
0.2863152192054855
0.6652468206865841
0.24366953176586378
-0.3232957064953665
-0.46106749441232486
0.35
-0.7830557388354964
-0.540730244622067
-0.03
-0.013392988625754956
-1.0540651135539052
-0.07
0.579941880306083
-0.382558524323357
0.08
-0.0015647089244646023
0.17510532681078222
0.41
-1.0392285600586033
0.43858901680745643
0.29
-0.8827122500552783
0.034162052396482075
0.01
-0.7682852856443041
-0.12379572890129437
-0.47
-0.4903275043465274
-0.4211161229890849
-0.32
-0.25300711025873657
-0.12995495103670202
-0.47
-0.9241682822111194
0.016687089399456057
-0.2
0.03918967735272198
0.09292783369849812
0.5
-0.45705106694632025
0.15073670001019807
-0.19
-0.8048599332580195
-0.472585258532086
-0.41
0.5584620252842646
-0.6069971836323069
-0.3
-0.5171260496155149
-0.2686988888867941
0.05
-0.3254243443610282
-0.40250446210703067
-0.13
-0.15161877114079134
-0.4475199944393221
-0.4
-0.44660323880849956
-0.4372492305226718
0.04
-0.8768740027251498
-0.13541950579487924
0.25
-0.6887037274529422
0.2506936150993987
0.2
-0.8348168483472201
-0.12103126676951048
0.45
-0.023091966478311198
-0.06182232228018252
0.38
-0.7223009109676393
-0.4667411402656266
0.0
-0.26738209298219523
-0.4249227062305855
-0.04
-0.6292005270172364
-0.6535477150851925
-0.5
0.009424481837371311
-0.2565117318055781
0.03
0.08238849855775657
-0.2815659477982745
0.2
-0.11255728544954813
-0.5864120955029773
0.36
0.13228886225515596
-0.30898856163694677
-0.32
-0.4851346716108752
0.17731185160497964
0.15
-0.6514350848528012
-0.6314931996889517
-0.24
-0.64263003355887
0.32274385277128326
-0.33
-0.5568670860191058
-0.3696973470165158
0.11
-0.464425886231306
-0.007039087643464318
0.26
-0.057084145604357886
-0.12126436494958426
0.37
-0.2728588682982381
-0.6200039665855435
0.49
-0.24411926666227873
-0.1677621626421056
0.23
-0.7463610706057163
-0.6635313009489691
-0.46
-0.30059193229885345
-0.03091137315078766
0.36
-0.23321186009703435
-0.07204825740949707
0.46
-0.5120749758383246
0.06176027226648454
-0.39
-0.3358835055143071
-0.15
0.01904098516981487
-0.15183102939193643
-0.082373637506399
-0.13305830918146824
-0.22089986732354855
0.037878881723178284
0.16
-0.32697146329379184
-0.20852005719805475
-0.4
-0.9905725243725587
0.3047679207396427
-0.04
-0.49386050231025663
0.23239141240693958
-0.44
-0.17148399397755337
-0.24507572349736695
0.11
-0.964016858073246
-0.18635433809652485
0.13
-0.5627382434740892
0.4194295303416193
0.39
-0.7785221119122324
-0.13799871450113016
-0.19
-0.43109386706948377
0.11973936163618659
-0.42
-0.11883194320680014
-0.06949937977594822
0.34
-0.17959320179466562
-0.5307146667453496
-0.39
-0.4983779148252645
-0.7512854231808052
0.32
-0.0778071583898074
-0.5351390705856042
-0.06
-0.8439535109850089
-0.11251439141443402
-0.35
-0.996578190156178
-0.31264482880186695
0.35
-0.5964477527687468
0.0999932949189356
-0.35
-0.17908587648954907
-0.6208884422392983
0.03
-0.9282041393313145
-0.022960737894041173
-0.22
-0.19613184367657244
0.17405596487788672
-0.09
-0.2331485464485005
0.0010975608872252232
0.31
-0.18019014245783896
-0.8629861678145925
0.48
-0.7261064137560204
-0.703714049692285
-0.37
-0.3153785318783277
-0.2862277596864101
0.49
-0.4428648218842035
0.3338269685083879
0.42
-0.762919550079
-0.6385747896361846
0.07
-0.2405177919344288
-0.6960537301970605
0.01
-0.3130388513735526
-0.15402184520017828
-0.23
-0.005070736370435465
-0.22294599057183237
0.0
-0.2361465909987814
-0.34909044716385124
-0.09
-0.17000213440676246
-0.5989456255527277
0.34
-0.25014695601788606
0.05251388156582303
0.48
-0.11160646313643655
-0.2586436273978674
-0.31
-0.17044895417274608
-0.07411879798082043
-0.37
-0.29497378358979315
0.15101875794872452
-0.28
-0.5301113395193375
-0.7055582165348615
0.39
-0.30353436503575226
-0.20385094936093087
-0.16
-0.955241632209682
0.24305487642591858
0.02
-0.1621474579965323
-0.6355442480234573
-0.01
-0.4935483335471565
0.13075122389305
-0.22
-0.899843805463663
-0.6104370900100521
-0.4
-0.25865549156056145
0.13691649043862597
0.14
-0.48600907200924015
-0.7078458864164846
0.48
-0.21124669515412844
-0.01
-0.3081905226401079
-0.22412504352302673
-0.024578583555652518
0.07325175972398582
-0.2916885616091091
-0.0677625063537088
0.28
0.25414435265449475
-0.09189252873616383
0.41
-0.8517256249630516
0.17275935942874845
-0.45
-0.5963775131279621
-0.45977873685999304
-0.14
-0.09383941683922122
-0.21505214153146712
-0.25
-0.03856601216774681
-0.265299753924792
0.37
-0.6283183997744215
0.29649532794062083
0.16
-0.940113481639835
-0.397900644620705
-0.4
-1.0457175090785114
0.316606324762589
-0.33
-0.37022447846180256
-0.16046577217454921
-0.11
0.25684761847533566
0.3578069961567396
0.25
-0.09142514985595389
-0.15780699620152194
-0.09
-0.26581115749769146
0.3264034331392971
-0.02
-0.38002158683851034
-0.3425282788182585
-0.38
-0.7010898748809563
-0.04607628302949816
0.02
-0.6575418706697154
0.05927874886188397
-0.46
-0.5528969025610979
-0.5397010774906817
0.29
-0.5539170762085325
-0.4596258256309553
-0.11
-0.6139923280682585
-0.47874694893462205
-0.3
-0.8248712047645921
0.1435356731773651
-0.45
-0.30715382687657855
-0.5169900347754035
0.4
-0.6166281189238103
-0.525102431049957
0.06
-0.2685157226492561
-0.4699245752014303
0.13
-0.6636935784977842
-0.17091408450011386
-0.35
-0.11270406919910021
0.16537005877160837
-0.24
-0.36898821247082164
-0.4563423427061637
0.38
-0.5472758109930504
-0.321727086112611
-0.19
-0.9118910675866028
0.2373618643885371
0.15
-0.17098001808775123
0.007055547361921342
-0.02
-0.1306737010611354
-0.07713333921684867
-0.22
-0.9164848144823654
-0.5732861387350203
0.44
-0.7403320149641939
0.09201320171482859
-0.17
-0.11563135541404249
-0.39408822967777096
-0.12
-0.009529924021442968
-0.45970953141406834
-0.41
-0.6339086222851458
-0.5954034102827086
0.44
-0.5382147434165054
0.13857715521559158
-0.4
-0.5021953089148055
0.1796808186147227
0.44
-0.29329897231393615
-0.35440124469750645
0.19
-0.4292169090017072
-0.576501856658779
-0.35
-0.497116297040435
-0.331526211971365
-0.32
-0.13209194172784916
0.13377233251787876
0.06
-0.6573904862170927
-0.5897699604563943
-0.12
-0.09384819324281944
-0.07
-0.4790899099980917
-0.32508897979912543
-0.37871214633148886
-0.08256281285292699
0.39621296238858067
-0.058747577460378744
0.36
0.2368614035690782
-0.3330604725877616
-0.2
-0.6688257013035382
-0.13283399788712175
-0.17
-0.21905217600417887
0.38254687078499144
0.09
-0.7944330446762912
0.02445979409303426
-0.17
-0.7863459679843342
-0.17959940628874868
-0.29
0.08771323239744828
-0.058938089507244655
-0.03
-0.6829480843840553
0.2964219864622435
0.11
-0.8683081603535431
-0.2581711755493104
0.02
-0.013714998341990707
-0.48047112756730714
-0.48
-0.26141504632399337
-0.09785844960411669
-0.02
-0.044027724287184565
-0.6257621751603011
-0.39
0.1338760012690017
0.21225788412824953
-0.16
-0.5941440580195501
-0.11980351233582273
-0.3
-0.4320826615554777
-0.3484268369292269
0.49
-0.803459336962073
-0.3782147373731462
0.48
-0.4136714365181542
-0.4445231830616984
-0.37
-0.8373629908296025
0.18125638565989072
-0.18
-0.6931425595511905
-0.5083487314449157
0.11
-0.24353744244638498
-0.19621222836863877
-0.33
-0.1256739455226619
-0.7266516134054789
-0.15
-0.6352345604858207
-0.17225284173354305
0.27
-0.10963333215775795
-0.4807855079683348
-0.11
-0.5111006659229658
0.24639576484809897
-0.24
-0.8382819387393984
0.20611259642934265
-0.24
-0.6179987703206425
-0.24005852041695455
0.38
-0.6618276534743461
-0.6427933554302309
-0.44
-0.2690928184610695
-0.6045356509099147
-0.46
-0.27735052298138474
-0.28051538342359605
-0.18
-0.3713707904677048
-0.5200653140626259
0.23
-0.6418208598286742
-0.2483015062523807
-0.02
-0.24358466763891992
-0.6797879509382203
-0.32
-0.4020982229530806
-0.5184153956794082
-0.42
-0.6134707782118923
-0.027969832597983593
0.23
-0.3639163412933173
-0.28926482722642577
-0.05
-0.4326213466648749
0.05897792615450443
-0.07
-0.6308641000458038
-0.00988121548049617
0.36
-0.1620049584108048
0.20087028479117847
-0.33
-0.602756458682478
0.061031141314016525
0.42
-0.732917315205315
-0.47794051675889193
-0.11
-0.7439456571324091
-0.32986275660105
0.04
-0.4320234172902503
-0.2951912908672974
-0.3
-0.7366948830240021
0.15
-0.2901719835032222
-0.4951714273419722
-0.015622409382385379
-0.45847669658827345
-0.3033763704155581
-0.5482569144625762
-0.01
-0.5610423055608688
-0.026926225880967485
-0.33
-0.28237299414247874
-0.22371959107364983
0.13
-0.6255796289497947
0.20997681784052188
-0.27
-0.46927603786396743
-0.20971057657483672
0.12
-0.7595886434486082
0.2623437079695146
-0.06
-0.55164292799296
-0.09612989731153078
-0.23
-0.5131693227119153
0.2523037065225689
-0.2
-0.30160292654601495
-0.29003736561175697
-0.48
-0.23926185441168896
-0.6139567892518142
-0.46
-0.49534243077163104
-0.14546741153012652
-0.47
-0.733831808493319
-0.5281509148185292
-0.19
0.11885169479508412
-0.5422029592672334
-0.07
-0.2870962607562126
-0.06587233023224644
-0.45
-0.7234268897911984
0.2791628753476348
-0.17
-0.13846209537108065
-0.32522073560906434
0.19
-0.7140784844143813
0.3128682137639904
0.34
-0.6121674337874353
-0.084585137454861
-0.43
-0.03471408256858526
0.2553983468455738
0.14
-0.2646975668690202
0.24973470491582697
-0.38
-0.5590339249392718
-0.1205990890589683
-0.45
-0.8187001309644767
-0.28658787062107655
0.47
-0.47271134940236936
-0.2787744077166207
0.14
-0.060524812306825236
-0.10518242555647328
0.09
-0.8041167944669715
0.1992122196735671
-0.18
-0.24851143969701373
0.08974634032904454
-0.36
-0.08904556035249045
0.04794561098574403
-0.13
-0.6572448310091888
-0.22093764499109395
0.07
-0.2583615750323524
0.32810349683978546
0.09
-0.2574027168632314
0.32990412169001626
-0.07
-0.6792033417134613
-0.1847658209495739
-0.09
0.04546660092612806
-0.21901711963157672
-0.24
0.04971789960813063
-0.4094341074206148
0.0
-0.4598651126028313
0.17194202384033194
-0.48
-0.6612412438637767
0.06252915825945633
0.13
-0.3218283782829023
-0.2404768403291299
0.19
-0.778822379694316
-0.2134034775445027
0.21
-0.795895742478943
-0.551554079099103
0.48
-0.8577451409243422
-0.28545858077715125
-0.43
-0.8738406392462943
-0.17373676526783557
-0.36
-0.6355624547556097
-0.4920530425813824
-0.08
-0.2872461774420638
-0.486994972831918
0.42
-0.05230424719152754
-0.28
0.20549475247197968
-0.5264481519518818
-0.013358594792684914
-0.3290286895176975
-0.1946794418667643
-0.5294469835444788
0.4
-0.5350112107356271
-0.5626311964485513
-0.15
-0.0718269978315532
-0.15546147540171798
-0.1
-0.5889967188783876
-0.37170900893430775
0.17
-0.4027491853457975
-0.5200405093537693
0.43
-0.8144176849263364
0.16317151578420683
-0.09
-0.1576297100643112
-0.2514232133782653
0.37
-0.5430349809018407
0.1731322817598041
0.28
-0.967590476039909
-0.4395904239987338
-0.3
-0.24486777028137077
-0.04497874133841367
-0.21
-0.36947945294169066
-0.13751839434367932
-0.38
-0.48693979993642583
-0.29840838583107837
0.33
-0.5160498084490266
-0.3176390671113714
-0.14
-0.6668191271687344
-0.35833905159529245
-0.08
-0.6161191426848129
0.18658414065094225
-0.34
-0.10104233493104692
0.10629087042451033
-0.05
-0.47074906470461514
0.1512613428145851
-0.3
-0.5057195370946908
-0.6108183874385654
0.16
-0.13363980684153862
-0.2663026930652542
0.07
-0.8081555012148512
-0.17366926534485655
0.03
-0.25078892893524773
-0.5810705046582493
-0.35
0.05661231037814424
-0.22085885262997787
-0.03
-0.46359934165012645
-0.5096129390652921
-0.18
-0.6748452552148143
-0.15582516912231453
-0.39
-0.8386330251577906
0.28085361817619414
-0.48
-0.595311812456299
-0.6797162524550967
0.43
-0.7147419418250088
-0.6539502505010493
0.14
-0.580507943779056
0.20345326928462887
0.45
-0.3979114635647342
0.3742525604630785
0.34
-0.6587107547431831
0.16760716645324408
-0.49
-0.7820653607333493
-0.46566978269191006
-0.49
-0.5587884115881953
-0.7126033113577181
0.38
0.12814511707761303
-0.06163057501572461
-0.12
-0.3728276192643799
-0.3510205851855987
0.34
-0.16343760909450616
0.1075228776912869
0.34
-0.15198107197139119
-0.5679746255868747
0.22
-0.4764835686932308
0.013516166314094417
-0.2
-0.30797436059419925
-0.20207102135694682
0.04
-0.8123871729231579
0.2724008048817389
0.17
-0.6768589991618444
0.15224402763258096
-0.41
-0.036702221912685365
0.07167371341449319
-0.09
-0.6661319076945988
0.17675007075711324
-0.41
-0.07120826503721782
-0.14
0.09864624333693363
-0.5612949810643189
-0.17110722946872442
0.15685794384154508
0.19703282531718952
0.14354497520835593
-0.16
-0.0069889170360435005
-0.1306890260238098
0.19
-0.6127549158038788
-0.4872188243579501
-0.02
-0.526225117469738
-0.5632910080385588
0.02
-0.15015293378912806
0.20314416895358856
-0.17
-0.6965881107812751
-0.02758278032689518
0.23
-1.0458611615007913
0.2727859190442461
0.1
-0.7162298608719326
-0.5306898629853051
0.16
-0.22275407884238288
-0.6281482876322182
-0.45
-0.4252956541954702
-0.3883837647278205
0.39
0.0049398229001323
-0.0802395036595115
-0.24
-0.3932044381681771
-0.6649438105106341
-0.09
-0.3085001313170536
-0.40049874498251065
0.38
-0.5829451968451775
-0.5763055785150769
-0.3
-0.8771383633126095
-0.5752139875556644
0.49
-0.4282299542720237
0.283348812052077
0.46
-0.39679275387976554
0.03126718012618156
-0.43
-0.2747111219538694
0.1277961073437932
0.12
-0.19124004917148077
-0.5605815609971768
-0.35
-0.3928623808305108
0.05940926337787403
0.15
-0.762853205205561
-0.6921670030173784
0.25
-0.641276938810308
0.0005137453265896645
-0.3
-0.503957687154278
-0.10969871143584317
0.01
-0.4837452303918452
-0.15578107561759502
0.25
-0.02766286621009258
-0.29802591572458265
-0.4
-0.45541802610310606
-0.36515903514865167
0.06
0.22171509332096284
-0.7799149353080054
0.07
0.13647099348031874
0.12058932220039666
-0.09
0.045966735971915924
0.10587121404321193
0.06
-0.11931515587089954
-0.15416644890229764
0.21
-0.6692774929253884
-0.22098135091513169
0.02
-0.4224625909125565
0.09940556885326611
0.26
-0.22284951068095368
0.10642666547856668
-0.3
-0.49987060730625493
0.025290062729869865
0.26
0.07126599544244298
-0.5962878547744916
0.27
-0.31715608705319576
0.2877562265952724
0.14
0.028799831577039914
-0.24378466846089936
0.09
-0.8296592733667867
-0.37665494977680747
-0.33
-0.8267889920508795
0.07449144970154413
-0.15
-0.6979353915292305
-0.6862946412589136
-0.26
-0.2771493005687742
0.12998739377986762
0.14
-0.313431335607556
0.021047525484572827
-0.26
-0.8244914673122594
-0.45
-0.4534898869211334
-0.627942404192558
-0.6454857226677246
-0.5674392221891496
-0.4248599110682782
0.9172892847569233
-0.21
0.48578587258673434
0.027399059204416345
0.24
0.0456760981392411
0.2662406664179461
-0.15
0.44683449092571115
-0.42235084153605523
-0.07
0.18542599887971262
-0.1465497467293616
0.19
0.40962490407301877
-0.25113828370418323
0.42
0.14421344104784123
-0.2561958492984043
-0.37
0.15927100664206184
0.23971215948692315
0.21
0.34336299785673424
0.493620428235562
0.21
0.6794547291080959
0.025778740028965172
-0.13
0.02729641731469241
0.4088856598652018
-0.46
0.4341894974784554
0.4617365246392072
0.09
0.5413386327044514
0.1570003070411568
0.48
0.6360748503024999
0.3140143041866123
0.46
0.7290608531570449
-0.35277417453375653
-0.13
0.3858493318774139
0.23820863935731149
-0.28
0.16486651798634616
-0.36958278475989975
0.48
0.452657942103557
0.7875831639203998
-0.46
0.44549199342325735
0.40750396385251625
0.5
0.5355711934911408
0.4109141062229259
-0.21
0.07216105112073141
0.22699950964418544
0.46
0.3760756476994718
-0.05525543685291446
0.01
0.0783305941965721
0.10767053047113416
0.04
0.025404626872523272
0.41549354919133497
0.32
0.5575816081523223
-0.16496427664969737
0.27
0.7680394339933557
0.27730296418484435
0.45
0.5857721931588137
-0.01927717225695598
0.38
0.1023523296006136
0.12024049685033042
-0.14
0.4728346604933269
0.5274295097655196
-0.1
0.9856456475781386
-0.3693916388717621
-0.17
0.042466796215419426
-0.2930696402142449
0.42
0.946144797557903
0.3469241878957734
-0.24
-0.18384903055211577
0.04400706744374604
0.39
-0.030931910100088552
0.3400137783279775
-0.29
0.5230613790156802
-0.08915729342474295
-0.23
0.03223245076840042
0.17791171403221295
0.27
0.9951634433114441
-0.06850332766104633
0.19
0.9415784850047035
0.4611499526231974
0.28
0.3719252047204596
0.51183852776338
-0.28
0.6812366295802781
-0.16910107452844347
0.22
0.37217623187210136
-0.01100634190690782
-0.2
0.3840814992505652
0.15738008965385256
-0.4
0.2756950676898053
-0.38
0.6303883331292417
0.648671431178814
0.40326111535954706
0.34405916282513527
0.38215859858718787
-0.005280838564441704
0.28
-0.1252188225917946
0.05583595910273085
0.02
-0.3663356202589673
-0.15175850933454485
-0.36
-0.09874115182169155
0.003136496042000471
-0.37
-0.43363615719823656
-0.38369280579196013
0.09
-0.9768068553642769
0.1766662032501835
0.35
-0.8371658644064206
0.31679738963993764
0.01
-0.7272970507961741
0.02451398768539045
-0.34
-1.005013648841626
0.30628871301655713
-0.11
-0.15678837417279382
-0.9675128056615449
-0.04
-0.1829868554946927
0.29812601381967907
-0.3
-0.2586256749759161
0.0945372071936082
-0.48
-0.07503686834984456
-0.3575735800345548
-0.45
-0.6629260811216824
0.18720553250218808
0.03
-0.9177051936584251
0.16646223163832383
-0.11
-0.9369618927945592
-0.08749468680122809
0.48
-0.5130049743550084
-0.05212393317318595
0.08
-0.5783757279830505
-0.03565516370970801
0.45
-0.5048444974465285
0.14900379666628408
-0.02
-0.429503457822521
0.2107281650202194
0.01
-0.2312278261764558
-0.631291480116337
-0.03
-0.7292081810399
0.16637385770715452
0.29
-0.2868735188633908
0.20913718241935356
0.47
-0.31963684357558997
-0.5540762904371765
-0.01
-0.7364233707190606
-0.059717410239095846
-0.16
-0.8107822509171412
-0.25571814677632554
0.16
0.025218485620089277
0.08874318870199903
0.0
-0.05924284985823502
0.08746332370080938
-0.37
-0.43796298485704593
-0.47604346059948377
0.22
-0.49445620055675293
-0.008910351761721913
0.26
-0.34158930939451454
-0.32971146802898116
0.42
-0.4907881931272556
-0.11502921173195643
0.33
-0.56547044942428
-0.3772722886102475
0.25
-0.303227372545989
-0.4151418309673143
-0.35
-0.3053578301889224
-0.495155978773394
-0.13
-0.44534368238284266
-0.593298465224699
0.33
-0.7272011959315379
-0.589195947167988
0.1
-0.9213037139882491
0.2863256503062271
0.46
-0.03682531146246322
-0.4158819654925093
0.12
-0.6246176956637272
0.02311666850679148
0.4
-0.5736163296630286
-0.4944032775807941
0.5
-0.016096383575442526
0.13051274325933285
-0.37
-0.021012404415569265
-0.27
-0.2905607562723409
-0.027650183605138542
-0.04144204569230564
0.0853487608613964
0.47487965756466266
-0.04253184746291649
0.39
-0.4678892960906304
0.24031278513643609
0.38
-0.26073392868998285
0.144053357298635
0.44
-0.24447450085218145
0.26973245774406296
-0.35
-0.29015360129760975
-0.26201617138555405
0.28
-0.2984049721679922
-0.38464924219743996
0.08
-0.8357719013561072
0.011144533677632138
-0.3
-0.38156567723117873
-0.48971791589099334
0.4
-0.6107032276625527
-0.13745694353984822
-0.3
-0.772964200013699
-0.273249277169935
0.03
-0.37717186638361155
0.2106285089672215
0.18
-0.26104965252076806
-0.5918501012824519
0.19
-0.9485710422710952
-0.598527510882447
-0.13
-0.9318936326711
0.2962014335451621
-0.32
-0.23662257709870863
-0.32268146557963645
-0.4
-0.67773967797391
-0.5462909442015556
0.05
-0.5741301993519908
-0.2899479856423529
0.04
-0.25047315791119334
-0.5090537679634539
-0.41
-0.1513673755900924
0.163799633793684
-0.33
-0.4842207773472304
-0.26098638705518123
0.35
-0.8894347564983653
-0.3239267668478175
0.33
-0.30649437670572915
-0.31158712198111177
-0.34
-0.16883402157243485
-0.32064401581635876
0.25
-0.11977712773718778
-0.2861856533492727
0.49
-0.274235490204274
0.05448100045974881
0.28
-0.7749021440132958
-0.7040239303928694
0.05
-0.8063972131606779
-0.41550005408656493
0.13
-0.7449210894669821
-0.5765264430801045
-0.11
-0.15389470047344303
0.17555796726401962
-0.41
-0.22597911081756603
-0.2055388648483644
-0.22
-0.28488227870518223
0.09132994736392412
-0.37
-0.35175109091747075
-0.4366666109370377
-0.43
-0.7837545326165091
0.2983950595316679
0.49
-0.5888162030852139
0.03158458500608941
-0.29
-0.30200572855963553
-0.7809735772369858
-0.44
-0.3194475663165604
-0.11425127377763697
-0.21
-0.4161698697759095
-0.03925118559936325
-0.04
-0.9111699579541835
-0.6344564674090382
-0.19
-1.01596467614451
-0.5724690109709358
0.3
-0.687952132582611
-0.20661609366480105
-0.04
-0.20380504988874545
-0.41620536381625284
0.01
-0.35421577973729385
-0.2963775801747961
-0.48
-0.5640435633787501
-0.35
0.08006182780801928
0.03331806832656835
0.15405205499812843
-0.19089030420601374
0.35356591684892685
-0.6141102458492427
0.43
0.11283115768030028
0.03129653309712795
-0.49
-0.7725756212660712
0.08456176509822953
-0.23
-0.8758408532671721
-0.48244957847130554
0.0
-0.3888295096976368
0.052906666717778536
0.34
-0.06418575488672176
-0.29877813599406894
-0.11
-0.1925009521748745
0.04636634825906934
-0.11
-0.8676454364280125
-0.3236342051160149
0.34
0.08235511694707198
0.18170836102698223
0.01
-0.09298744919592541
0.030421455867305065
-0.26
-0.3917005440362479
-0.5174778455017645
0.05
-0.47380124266717694
0.10365440501947196
-0.5
-0.48493349318841444
-0.5682399035230955
-0.16
-0.24303918464584745
0.05736804367556359
-0.48
-0.3486471318445067
-0.5980350715063507
0.3
-0.13324401666259308
-0.47028735174497815
-0.44
-0.18099173642396493
-0.4921366439444078
0.06
-0.46914244422453427
-0.2223073244186363
-0.11
-0.3889717637503066
0.26587091713186456
0.27
-0.43715000530080683
-0.5510400461979886
-0.3
-0.6302390419709547
-0.605900739960995
-0.48
0.04462165179205052
-0.06002872410960341
-0.2
-0.48125036405933885
-0.6251845491546504
0.48
-0.3460945390142917
-0.1926298057999685
0.07
0.0013507176310252201
-0.374922987523063
-0.11
-0.5863561006458793
-0.6915217769507348
0.4
-0.619757311218208
0.20210663275062563
0.09
-0.26338572091956874
-0.6366114233028426
-0.4
0.10533233513390042
-0.376645382222898
0.06
-0.2646337059460446
0.02632126853348631
-0.11
-0.8276003567024296
-0.2728181513453114
-0.31
-0.558460936823632
-0.4469980440633035
0.43
0.005718955894360795
-0.5213724310504416
-0.23
-0.2999066571185006
-0.6131900086870494
0.39
0.13191092051810602
0.11855956904440931
-0.22
-0.5598386572133522
-0.08983145119431797
-0.28
-0.0114476369746255
-0.6190307660523847
0.03
-0.6522483221165586
0.34300124758456546
0.06
0.045719664246491674
-0.26271666580751335
0.13
-0.8185624223614295
-0.06987193198995462
-0.44
-0.33140715617898836
-0.5206807949178305
-0.26
-0.1505982932511129
0.12232898443788764
0.12
-0.6736080726068295
0.28
-0.43892246627804504
-0.49601007092185856
0.13666924363740957
-0.09986289433766336
-0.11359459283881768
-0.027899883328913938
-0.4
-0.12853455624905977
-0.04874557382544973
-0.11
-0.23768886575252388
-0.383190040358779
-0.23
-0.6732443992191949
-0.45669353388484407
-0.01
-0.41974090569313005
0.06778307976773924
0.42
-0.46421751934571315
-0.11614586415476245
0.35
-0.18028857542321128
0.12956592236238068
0.49
-0.5760003619403543
0.28394301296973995
0.43
-0.9103774525477122
-0.30233366133620304
0.19
-0.28410077824177055
-0.6637109128830294
-0.39
-0.5827235266949443
-0.4953218828596313
-0.45
-0.391112556718343
-0.46922090701068675
-0.12
-0.05721353256728695
-0.17109828716379283
-0.38
-0.7753361524141796
-0.20037863373429662
-0.35
-0.43605580584367737
0.03177242550677308
-0.18
-0.16820686508474675
-0.35056948277293615
0.22
-0.08586495680503826
-0.5428980895911806
-0.08
-0.523536349986793
0.041871251961732595
-0.09
0.13169430846029317
0.19007916936710115
0.24
-0.17651360894507484
-0.17663649527786843
-0.34
-0.3397979443001055
0.022961623938269355
-0.18
-0.029396063516242917
-0.44852055090967075
0.09
-0.017913888668303006
-0.1977159209650149
0.39
-0.19871851861295878
-0.2978882532359329
-0.1
0.011453813657959487
-0.43879973871854017
-0.31
-0.027634700859433356
-0.16161926678202562
0.19
-0.6048151727959478
-0.4847186493831411
0.4
-0.5517157901948326
0.06642623399800988
-0.16
-0.2028606735759837
0.10154101747479492
-0.25
-0.6479754570527677
-0.5659397605486934
0.25
0.019505320970720757
0.021449885999495603
0.38
-0.7678843255774683
-0.03490885461587098
0.15
0.06847441503789743
-0.33172421633326094
-0.04
-0.7247102232447128
-0.33518552438211047
0.18
-0.4012489151958635
-0.633926024187193
-0.02
-0.2925084153907807
-0.3683578560268846
0.01
-0.7280765835510902
0.0720103692617214
0.44
-0.2684448088396948
-0.08408442077401167
-0.14
-0.04235001880396193
0.3477025121724749
-0.27
-0.2241369517504485
-0.6252801432106571
0.16
-0.641154296367316
0.13607913317160047
0.38
-0.7125135727495745
-0.25291256068974344
-0.28
-0.3535218788882303
0.07
-0.4734511765143212
-0.4181405743948162
0.20744683744064527
0.30544649594604034
0.2591018614326444
-0.3467440676390735
0.12
-0.7261194045490251
-0.492361763519108
-0.26
-0.7305017086689901
0.2856514696280831
0.28
-1.0385149418161816
-0.07556082437044111
-0.34
-0.14730264781765712
0.20096330254414915
-0.39
-0.39382677473224703
-0.6922829678439839
0.17
-0.3905805043441142
-0.07794395950700214
0.32
-0.3049195126810957
-0.528798883164534
-0.35
-0.30406458902356404
-0.28895467832783267
-0.47
-0.693908793860265
-0.708072926424689
-0.41
-0.05479054576340952
-0.43041512613933713
-0.45
-0.812448346048762
-0.5495543833738344
-0.45
-0.3033090888142644
-0.38060303261896633
0.06
-0.4722604395691314
0.12486523215359803
0.23
-0.37772870434169575
-0.4109587029987
0.39
-0.6919047691893981
-0.5401997151273301
-0.08
-0.9126637570607684
0.08352366524538823
0.4
-0.14638713743348647
-0.7094422709628244
-0.39
-0.02342120122527346
-0.24834470173448386
-0.37
-0.9645187704536156
-0.48492676969030396
-0.06
-0.4279367024977942
-0.3280706065513654
-0.49
-0.09479286563673289
-0.6154720469952357
-0.49
-0.8673914251928628
-0.6491128709644192
0.06
-0.4037506012236782
-0.2370547326661003
-0.06
-0.7158087395219989
-0.037370012368321395
0.29
-0.08549345981977681
-0.6915064916251206
0.25
-0.01135698056297706
0.13794039517119294
0.35
-0.4208038673592911
-0.42657903560921734
-0.23
-0.11628443657888013
0.2267112433913626
0.22
-0.8195747155794616
0.014649920274795263
0.06
-0.16751339246289354
-0.3323500180032931
-0.28
-0.8205134541848046
-0.2744415992128594
-0.06
-0.7784218729752395
-0.005663498316093019
0.09
-0.7371999738720062
-0.25287524207478923
0.45
-0.3299882301133086
-0.2094169449376117
-0.19
-0.0034465272504863634
0.15641155823897135
0.33
-0.549275030427069
0.26069043079691884
0.42
-0.7035539029850165
-0.23163671076755601
-0.28
-0.22122676142054193
-0.07195817193962542
0.16
-0.9309053002484736
-0.5892568082414336
0.41
-0.8336066639466652
-0.629234898905716
0.48
-0.023628573282381566
-0.6590595486877067
0.13
-0.023803923500391573
0.09
-0.4172984522722574
-0.7740804285849076
-0.07992463629993565
-0.42382914995157256
0.2655973077917224
0.27084194686870877
-0.32
-0.7052089675516021
-0.2534274187317186
0.47
-0.5309396019511743
-0.5761730382579375
-0.35
0.2818060175750445
-0.45832590156940356
-0.06
-0.3160411191134889
0.6887439004230239
0.44
-0.583110921105918
-0.42143909823168885
-0.33
-0.31292792245120404
0.1807639460258025
0.03
-0.49513096670869544
-0.33583230204709763
-0.01
-0.6685347186357963
0.3218657956935799
0.5
-0.496232816376473
-0.3299752546879454
0.02
0.4656082340050527
-0.11578924030297816
0.42
-0.16857778037991472
0.057358201258917274
-0.17
-0.14172522194181014
-0.1237274932000758
0.14
-0.7406395274828178
-0.4213445437555512
-0.4
-0.07302247692734218
-0.4719344145516592
-0.47
-0.25243260613123375
0.12740647081686204
-0.25
-0.4917734914997549
-0.2048306290391203
-0.35
-0.18953639164377237
-0.40488605135245304
-0.16
-0.3094809693304396
0.32291774359975656
-0.48
-0.027284764282648956
-0.14042936421787147
0.28
-0.11393765646502194
0.12349847055760353
0.0
-0.7678654912404977
0.2782564242563976
-0.24
-0.11262344493929055
-0.5834929096192388
-0.25
-0.6008741110636546
-0.2108189701406643
-0.38
-0.6835480505422288
0.1357247822334805
0.0
-0.22009180291637348
0.1863231277194183
0.16
-0.30069014840231173
0.10839968539609078
-0.28
-0.042766706078984335
-0.030086461979405718
-0.29
-0.024280558703487398
-0.3110703340527087
-0.31
-0.6132966866301844
-0.4780352663742129
-0.14
-0.8063317543086808
-0.05048731654430204
0.29
-0.373879704138591
-0.782652661727812
0.42
0.2582856410449178
-0.7144231455480732
-0.37
0.040056124865179496
-0.010936082709614041
0.08
-0.6034309379732795
-0.1839431465295986
0.27
-0.2504238741532946
-0.5774260874883221
-0.01
-0.26694093319457046
-0.3939050568837164
-0.05
-0.990461963799177
-0.3140077673025305
-0.49
-0.4303592533803624
-0.029971764781775215
0.25
-0.09439525590111782
-0.17100142261343945
-0.17
-0.3633655980694534
-0.4725079902420734
0.17
-0.17185903044081888
-0.10492123797024262
-0.48
-0.19944578271265054
0.14
-0.3860547423333334
0.150208592369017
0.1940533610628827
-0.31185850986479063
-0.04501582269523314
0.18730804226156594
-0.5
0.18204587518427162
0.12180288961299607
-0.12
-0.16244897216715828
-0.054171278034994726
0.43
-0.2864748045191675
0.1694716709321445
-0.11
-0.11011775348630685
-0.19817369746997163
0.49
-0.49247238508419094
-0.27478743839825803
-0.41
-0.6358586441559042
0.41015264102727955
-0.42
-0.7607987235814406
-0.5067008826210947
0.34
-0.12394519993306771
0.2984046540413366
-0.16
-0.7090507365954976
-0.028456712479198103
-0.15
-0.172189370074964
0.003945080517246377
-0.48
-0.624591163071408
-0.46410626239950814
0.45
-0.646539820154654
-0.5427698608807162
-0.34
-0.6278762216734459
-0.3912409630719436
-0.1
-0.37940511948221883
0.3046134719750166
0.1
-0.29525955452917885
-0.2354974297615822
-0.15
-0.40514865279258033
-0.1837141456823069
-0.3
-0.10693193687185543
-0.448509078167017
0.12
-0.6921370043871451
-0.21831273614249372
0.42
-0.4123333464116686
0.3416124055922974
0.25
-0.22225848814646024
-0.5769427602701312
-0.49
-0.4237033222840297
-0.5128118500021333
-0.33
-0.5878342325520296
-0.02340434130001119
-0.44
-0.057241741254151074
0.10772882212917054
-0.04
-0.6383749046833326
-0.34059311724006736
-0.38
-0.5900529653140951
-0.506796197462552
-0.46
-0.03384988509161033
0.08686695587517163
-0.22
0.05248696157066645
-0.3925775199261723
0.15
-0.12806856262799
0.10464488866487892
0.2
-0.11529097121904108
-0.3640468701318823
-0.46
-0.10659921242227972
-0.21756250673738406
0.07
-0.1530835758167782
0.11856161345259965
0.38
-0.08920769600676176
-0.4375336867337191
0.45
-0.1431123958204428
0.272472365229098
-0.23
-0.17311844778326058
0.13556039837995662
-0.17
-0.726206480934118
-0.2554863853430749
-0.46
-0.8751596972110862
0.2652341202577845
-0.28
-0.7158802028119452
-0.4455524030812412
0.44
-0.4250936794729212
-0.08300650722237005
-0.41
-0.19763957533179227
0.039079358811383795
-0.03
-0.529725441365546
0.07069037247522154
0.42
-0.07133645502938386
-0.29484900981165246
0.33
-0.08579707274250982
-0.23
0.14995133644452457
-0.031328113944251404
-0.007372378069546494
0.08700939137840821
-0.21722100799661057
-0.26548530101560375
-0.06
-0.7005428289206799
-0.5159551459178535
0.49
-1.0200729840184295
-0.005164813219511406
-0.38
-0.6208633167167719
-0.43148863865559994
-0.09
-0.6245394912806831
0.07155419294658265
0.2
-0.8075823228828659
-0.5252939393336142
0.28
-0.4107341906026678
-0.45196306177502166
0.12
-0.9540650681612622
-0.027046206747896127
-0.08
-0.34898192318838606
0.1472090583000738
0.03
-0.11323718823635465
-0.8604998095834008
-0.49
0.12447167964711901
-0.38215618361168335
-0.05
-0.8638719463246004
-0.08181953277129532
-0.29
-0.7242085971649872
0.1362171840751152
-0.44
-0.062245314011396526
-0.4209727155787317
0.32
-0.6850554143575514
0.3889944253213875
0.3
-0.06502255525766969
-0.27961993329798634
-0.02
-0.17640819663829502
-0.2753369306100343
0.24
-0.7706911993262483
-0.10326812374792152
0.32
-0.5727600061883609
-0.26739087109349147
-0.36
-0.0686372588427907
0.22511170874430736
0.11
-0.03113983868058916
-0.4470316177434467
0.41
-0.4489965121928356
-0.7030030557913075
-0.48
-0.623025074144976
0.2496691191339524
-0.29
-0.1556972490702337
0.24860119822070098
0.38
-0.25462932815698297
-0.6301488556412348
-0.41
-0.815879274295049
-0.36917938021271374
-0.31
-0.15684874972356774
0.07873555056231556
-0.38
-0.5347636804985977
0.21112789418894842
-0.22
-0.9171560241252319
-0.31183703761491993
0.41
-0.8541910923213627
-0.4296617361735983
0.41
-0.8663663937626839
-0.6681147909871108
-0.13
-0.3779133389491714
-0.2667562223153558
-0.47
-0.2592719076209259
0.04971855767034436
0.04
-0.6657466876066269
-0.28511997704991826
0.37
-0.48090815288636407
-0.4544686076378839
0.13
-0.3415595222983986
-0.10136703119373375
0.2
-0.3346610987425481
-0.5547312321188927
-0.2
-0.36129689781738905
0.159192625774208
0.02
-0.6452207557104904
-0.11377840607232563
0.47
-0.8322497238639572
-0.26791088028831245
-0.1
-0.8781172496479706
-0.2471631458280171
-0.41
-0.2088649841082639
0.17191895553110634
0.29
-0.20794708546738766
-0.01
-0.5266371934634932
0.02327833761061096
-0.5611727915120752
0.021734982936702497
0.302057597457156
0.7377815848252591
0.37
-0.2675959759557852
-0.12445726334472315
0.0
0.39464287221419725
0.18135577786793455
0.26
0.028829831001539134
0.32298260992032685
-0.46
0.12720299894914663
0.41936228929774083
-0.04
0.770823319571733
-0.019558996045402836
-0.13
0.6197446049148772
-0.45363902508691045
-0.22
0.41382463395638414
0.48796361928150495
-0.37
0.8222219895879684
0.003108196726241472
0.16
0.3970774121432326
0.4021865402392889
0.33
-0.052000931369814964
0.22391680388604762
-0.42
0.17626880498342634
0.0943633031622
-0.46
0.37582230570727376
0.27582685600261675
-0.3
0.664358752866857
0.16707680657840096
0.27
0.20310880229107298
-0.302264745388605
0.36
0.6024503542580794
0.280535315407407
-0.42
0.879650293462067
0.2875166663751686
-0.27
0.17266894249430484
0.34578213408288055
0.18
0.424403474786593
-0.09210098861005679
0.21
0.46228659747953055
0.47280090375831435
-0.05
0.327384705111159
0.2850894803828647
0.45
-0.1449038715133907
0.6657597288640603
0.41
0.2044258800054142
0.5924214096315471
0.17
0.10776419923792749
-0.22706055753723975
-0.35
0.7872461664067134
0.11008660875221281
-0.01
0.1100990001172609
0.6078766901649981
0.37
0.7423089187044757
-0.12263228971237819
-0.33
-0.0871821014181478
0.2788245615576207
-0.35
0.771361047311852
-0.14971454437988402
-0.48
0.1699001532493579
0.6026395243265676
0.16
0.6975460845429061
0.029158141408526232
-0.03
0.12102746746094749
0.727030701120185
-0.31
0.43315490774928855
0.41887929242577776
0.17
0.06130631644369577
0.3423705690881564
0.24
0.607815039781317
0.632367069779022
-0.32
0.15781853909045176
0.326553690312755
0.07
0.09363191855671837
0.11733502148840189
0.41
0.4228505873810719
-0.13505904919044232
-0.33
0.31524465805991625
0.31474521516905807
0.08
0.3554403937004156
0.31312437826198564
0.16
0.4970612306074881
0.12914388333850782
0.15
0.4110417255309662
-0.12491436727316398
0.13
0.14509997614263753
-0.38
0.22957275170526154
0.45183265296318986
0.673366288412632
0.36660754029918424
-0.14682824505922482
0.558832175844915
-0.48
0.4597826194816594
-0.19586741989328116
-0.42
0.16448221521985495
0.3222960568126785
-0.46
0.3163187385138962
-0.2610745938635588
-0.14
-0.05031061080986661
-0.2774972829717092
0.44
-0.28388792170171634
-0.14456920601858342
0.1
0.7331840013451576
-0.26488894536144536
-0.11
0.7935037406880203
-0.38338173487657595
-0.14
0.08199653020315037
-0.24240340914833566
-0.37
-0.10898179552508984
-0.27611428933515314
-0.48
0.17472908466172704
-0.06920779350899178
0.14
-0.18217741116443453
0.3240324352550488
-0.29
-0.1454176399284746
0.3709716564796279
0.29
0.6176431388469469
0.41014683005776814
0.25
-0.031532034731193086
0.4624786523522641
0.37
-0.1338638570256899
-0.14116793710613706
0.22
0.009782732432711463
-0.22463095866566024
-0.27
0.5732457539922343
-0.25742844253821817
0.21
-0.04395676213520766
-0.4010319616751066
0.41
0.04964675700168121
-0.28583070407070527
0.1
-0.15555450060272052
0.3194815958609978
0.41
0.23913319946557576
0.37673291880999143
0.33
0.36188187651658277
-0.12737624057783248
-0.4
0.4059910359044064
-0.011083993864731512
0.21
0.489698789191306
0.389253189000897
0.16
0.5993616063256773
-0.2927269875266795
0.49
0.3613417828532538
0.5564183759455053
-0.16
0.1221964193810693
-0.23719747826063362
0.49
-0.27418772641279193
-0.09550586293721271
-0.42
0.4941206582637871
0.5894963773296058
-0.12
0.5991184179969687
0.36899972628788097
-0.17
0.5996150690386931
0.3425285323842049
-0.24
0.36608626294236957
-0.1631471091843639
0.05
0.5917619045109375
0.20904838130882705
0.48
0.6195664140177461
0.5260407439624762
0.1
0.1625740513640973
0.48051721270128905
-0.3
0.6280975826252855
0.5817054288006224
0.43
0.16690936652595098
-0.11044405297871587
-0.01
0.6090588483052897
-0.08771896501450416
-0.44
-0.21366623965892206
0.24924766643522556
-0.46
-0.27063287110865136
-0.16693160433121415
0.12
0.27554639965778904
0.17496203365138457
-0.29
0.563652761675188
-0.46
0.4102840989094786
0.34378159484515813
0.09836823072490945
-0.33697888973128554
-0.09489826740095378
-0.163771835367364
-0.24
-0.38682046864070696
-0.38003928350496713
-0.35
-0.940553020503103
-0.39989707185857676
-0.2
-1.0006952321494924
0.24137475265201216
0.38
-0.19196705666008168
0.21220041965690906
-0.49
-0.8727927236649778
-0.3423178212997168
0.06
-0.20827448270835355
-0.3120739519261332
0.1
-0.9985183520819357
0.02403276205248715
-0.3
-0.9846250660605566
0.15175718889756248
-0.15
-0.14234949290563234
-0.6551808521208194
0.29
-0.36541145188724955
0.11648142477323936
0.14
-0.96707372878131
-0.4598371289929705
0.29
-0.06075517501509878
-0.15204473153402692
0.44
-0.928547572474042
0.19520973970297334
-0.46
-0.9658020437110431
-0.039814487359292675
-0.27
-0.1007778166487778
-0.5418606484571995
0.18
-0.31873165555087046
-0.1313836975432788
-0.14
-0.6192086064647895
-0.3658558574270925
0.06
-0.6947364465809772
0.07271616886446318
0.28
-0.19330847287253342
-0.2365321948467222
0.48
-0.784060109161347
-0.09164857395965037
0.48
0.06105626995158066
-0.4095359080857062
-0.33
-0.7410563959223624
0.213043544813131
-0.46
-0.8036358488212003
0.12999971672018337
-0.39
-0.9205920207282537
0.08115290815423214
-0.21
-0.921745212162301
0.008870685813481724
-0.31
-0.7994629898215514
0.10125521248754679
0.38
-0.18184751649561734
-0.41394913736379707
-0.1
-0.2266431666442726
0.19676962164115064
0.07
-0.6173619256492194
0.17742119869622933
-0.47
0.001986497295700346
-0.6307023227917012
-0.27
-0.7998899812163677
-0.037677323753574826
-0.16
-0.2129149802544957
-0.44918088911115905
-0.1
-0.9314114148969099
-0.32997356040523795
-0.31
-0.060618743602832405
-0.060973750681397806
-0.49
-0.06961855332667265
-0.02301942574163786
-0.21
-0.2675728782664319
0.049729301261020716
-0.34
-0.5703216052690903
0.0687821445824947
0.03
-0.769374448590564
0.25716665369598246
0.41
-0.38775895770405194
-0.014715055554984821
0.3
-0.4058772484530844
-0.27884681398860056
0.45
-0.7317454900194694
-0.0891872530768491
0.17
-0.1514050509312211
-0.04
-0.0029140969230406024
-0.6383066420100044
0.10499609828441758
-0.43175149579645633
-0.09512830643120325
0.1602460409459832
-0.08
0.44546026727529653
0.345047493737913
0.17
0.10065881448336705
0.2056926297678031
0.46
0.2600136784534759
-0.41943116234925015
0.11
0.015137470570529535
0.5196696522093907
-0.45
-0.003963343988110826
0.46766749335368357
0.4
0.12803881486759622
0.19136415295481818
-0.01
0.914342155266462
-0.016000209741317238
0.15
0.5417065179625975
0.33047705512718356
-0.17
0.37522925309409694
0.6771390731180466
-0.26
-0.23143276489676706
-0.015795237524737753
-0.29
-0.00849845425398293
0.32130232746549237
-0.15
0.024403980755787584
0.3718975000052895
-0.18
0.8538088082159901
0.4144803024938203
0.26
0.4912260057274603
-0.46227874435263405
-0.11
0.8379850525739136
-0.05735698525293176
-0.02
-0.066936706525789
-0.16332941599875206
-0.19
0.7690357242200321
-0.06616572466190698
-0.18
0.1618720328831864
-0.31275745444782516
-0.08
-0.02153623733089504
0.3829564621429414
-0.44
-0.10725015392166237
0.7430037440749914
0.44
0.5027025641462894
-0.007138333800571093
0.4
0.42284464202185057
-0.016177875586063113
0.42
0.23188418380734294
-0.25997434466033764
0.22
0.3656806528816178
0.4016447932307091
-0.2
0.15406151499057053
-0.2667540375248309
0.21
0.14246034574611055
0.04965898932572927
0.27
0.41604731889555097
0.24616038752441216
-0.22
0.599545920696868
0.18036904017020627
0.31
0.625337268051073
-0.3683640163356972
0.25
0.034070324556976866
-0.13570555499980463
-0.48
0.45141186322108445
0.2886177950030722
0.11
0.34708851321820805
0.5605289365058908
-0.29
0.08517737171538807
0.37603268648672566
-0.34
0.7196736217345543
-0.15607567409449377
0.42
0.21178198231577303
0.5723486959201324
0.26
-0.10664238769885258
-0.27465407330657715
-0.21
-0.08963961847214338
0.5990613370570961
-0.12
0.7066449711641842
0.2764790541161285
0.24
0.6892272541051508
0.5032692923461222
0.34
0.7524370158751583
0.03594408380247832
-0.31
0.319762224418802
0.19766817264140746
-0.47
0.4780381355798727
0.31
0.6216417786728552
0.5009628721637106
-0.15807384504990923
0.5431118531990204
-0.2970306954302191
-0.7557824615072767
-0.39
-0.48555169839060436
0.15127163947059227
-0.14
-0.14260579936847442
-0.2531356191491116
0.3
-0.5781985407487699
0.1436069829314714
-0.01
-0.6949411428293522
0.08216912872258797
-0.44
-0.3335032886204698
0.20509765078580364
-0.38
-0.8264318106836843
0.35927477326036256
-0.2
-0.2606089331582443
-0.218591632689331
0.03
-0.10274252720855083
-0.22878931766201785
0.44
-0.032544842235863965
-0.9548732628760073
0.04
0.07353910297812527
-0.15511002791200387
-0.15
-0.3562241319858781
-0.32183195400976655
0.31
-0.24950220588811536
-0.33919773172573625
-0.05
-0.7421364281721448
0.26290783416155217
0.4
-1.0342419940594325
0.18709569070821847
-0.06
-0.7684298506060997
-0.33845326286572824
-0.36
-0.7128808970321525
0.09475474648789856
-0.3
-0.8260889063857801
-0.2516723972260275
-0.1
-0.4996617626718547
-0.41170728714792115
0.24
-0.24962687274996082
-0.1185818235555569
-0.12
-0.40275233634232505
-0.2575853542075094
-0.35
-0.20374880569037285
0.1599939143896552
0.12
-0.6413280742875368
-0.5008194322217938
0.06
-0.04051472767608772
-0.0467406535758918
-0.09
-0.3145935063219904
0.10936691784732148
-0.33
-0.3007010777452037
-0.4262968085201215
-0.06
-0.20503735137776108
-0.2985538500384377
-0.08
-0.7727803098594445
-0.04690181172616201
0.2
-0.9944323481717192
0.12446137534875186
0.48
-0.23579553524663388
-0.3407959076171944
-0.24
-0.9405382522806865
0.17819815345506762
-0.22
0.11046768664705074
-0.6496180495145427
0.15
-0.4317161103833383
-0.28214672746977
0.09
-0.6391874324281113
-0.09740968519901844
0.28
-0.4839244746988634
-0.6995906764694576
-0.39
0.04825651657157632
-0.06358249660118957
0.32
-0.5977516632966914
-0.020760804187166144
0.49
-0.26057335571071555
0.13389016590157007
0.34
-0.40522432579945245
0.04638932254291162
-0.11
-0.10772348244079355
-0.16395882060409056
-0.13
-0.5873753392937903
-0.4089855272090129
-0.09
-0.7823486326888683
-0.3458062403683789
0.1
-0.07552791952950344
0.18
0.03560262956534133
-0.09574388445852047
-0.39491293197967703
-0.6088743588774387
-0.36394881961009584
-0.31939268787810904
0.09
-0.2693299557497948
0.34963117967936214
-0.16
-0.08835382330726611
0.16078798751064743
-0.32
-0.5795106311385508
-0.44638023760780837
-0.44
-0.6223424060200965
-0.32802354387818233
-0.2
-0.29069909974972186
-0.5896407553017506
-0.37
-0.41908188832615334
-0.43261282430347775
0.43
-0.42610981932442643
0.2888835249857366
0.16
-0.877606168613641
0.03177100093564477
0.08
-0.6104936445635489
-0.983070592229475
0.14
0.14434794860157113
-0.3127249056822009
0.21
-0.12599773794570313
-0.4319832071629125
0.18
-0.0767394364649911
-0.40253267288756506
0.05
-0.06618997074033874
-0.5668762269064419
-0.13
-0.8818464167214626
0.048232837184731474
0.33
-0.2469554808126354
-0.24817639771481637
0.1
-0.10054624591308779
-0.3936890436169575
0.0
-0.7450336000109463
-0.1386641400554237
0.17
-0.0700585035724801
-0.5780219214069412
-0.48
-0.5407007222209629
-0.4150893539470564
-0.05
-0.5836332896808475
-0.30200085018719675
0.22
-0.5167217934407076
-0.710663379696785
-0.18
-0.8180592639311194
-0.4802948157397828
-0.29
-0.20842782788812142
0.0341353134004695
0.22
-0.5028579570283739
-0.406212575797451
0.04
-0.8725100678304522
-0.24668162460949267
-0.49
-0.3820410190184109
0.10287767574044043
-0.44
-0.9216003193683447
-0.6338669781636779
-0.07
-0.4648556654642272
-0.6196622288109499
0.46
-0.189060414816954
0.09213006299422416
0.18
-0.8508527066221285
-0.21996468567603555
0.49
-0.6787579579518696
-0.5230542275382225
0.24
-0.805668416089682
-0.7691647931340823
-0.01
-0.869557850493822
0.09337637305594498
-0.37
-0.6320990166838489
-0.7257918529248975
0.08
-0.5029307907030072
-0.35437120152896606
-0.1
-0.27435144209893814
-0.5499253030571297
0.16
-0.2987973405707736
-0.47456198047851256
-0.22
-0.45416066314939196
-0.4476908554638187
0.02
-0.2510317881640857
0.24949675588532003
-0.37
-0.7682193995132242
-0.47964333050319896
-0.45
-0.6590793131247065
-0.19676401737347118
-0.47
-0.9119586262544321
0.4
0.0226459340031722
-0.3209103128750446
0.04070357455176606
-0.13140518497092368
0.37197939590632995
-0.1810759458295186
-0.1
-0.7876010792275816
-0.6780449003936999
-0.35
0.06936787533659954
-0.7326266912733675
-0.04
0.6439496662162661
-0.44229709563696845
0.1
-0.3263799294201322
-0.27257717008389926
-0.37
-0.4860998549732003
0.04542309720205053
0.41
-0.26410012225915125
-0.4065648477201714
-0.17
-0.1821121773369295
0.2497374117305152
0.17
-0.4884144367876149
-0.680464554326643
-0.3
-0.22821247073045658
0.21295802721708396
0.5
-0.7916350522741846
-0.20593197494721954
0.49
-0.7327450501098811
-0.8615950121758904
0.07
-0.06708201288120973
-0.17038209207807092
-0.18
-0.648294932979029
-0.27966771068345697
0.0
0.030990685626356786
-0.8054739314281982
0.32
-0.07320309362890152
-0.4798298150130305
-0.35
-0.06884721004406927
-0.2746213258894183
0.41
0.07594430083231797
0.337012554212289
-0.28
-0.7956895792693897
-0.6573422031645499
0.17
-0.4413348218925501
-0.5205338351193999
-0.38
0.06185681006229977
0.04239910496734677
-0.06
-0.621076130024447
-0.6173557212902747
0.16
-0.021321303766825794
0.33402107220407967
-0.43
-0.38269809726117937
-0.502422777135476
0.11
-0.6262542479216237
-0.42231667684975405
-0.02
-0.18636034820734576
-0.08765338738223148
-0.48
-0.2310236376748682
-0.25535074923099443
0.47
-0.4433262758261056
-0.24574343329629203
0.33
-0.7129335917608084
-0.5694388780898952
-0.29
-0.04923814696720532
-0.7591208094569747
0.1
0.03044378439987408
0.0799507972293598
0.4
-0.3086278222864594
-0.05611312855076801
0.3
-0.9125638965063325
-0.41158259872930597
0.36
-0.4770944263277935
-0.00022677134127799297
-0.47
-0.10845025371582201
-0.18050508587740563
0.32
-0.7481719391796943
-0.5156995969757355
0.08
0.1570225719186355
-0.1456394564857867
-0.14
-0.42303756857131214
0.46961837730060335
-0.19
-0.5682954023577029
-0.22886200377187482
-0.19
-0.3198150212852247
-0.23974768547193856
0.25
-0.7789293395851611
0.007667666150829938
0.16
-0.5063446912079297
0.09088276969901414
-0.28
-0.5695597947561146
-0.18
-0.3283953069812678
-0.31136496124293594
0.24702607709440128
-0.08867444893960569
0.07568575920150471
-0.8595535061689431
-0.48
0.22539289778317434
-0.383820923024851
0.31
-0.23033968536091798
-0.41221802528933116
-0.4
-0.24194258309643824
0.1710008772334352
-0.11
-0.21516148561920445
0.30220249030862745
-0.09
-0.10636309869439646
-0.41141646948310034
-0.13
-0.48274413890266893
0.3657362954748512
0.16
-0.89989690386062
-0.33090543727197536
0.28
-0.9832551711137925
-0.5648921655632163
0.15
-0.7592684428225518
-0.2676641734825859
-0.36
-0.5164964349031836
-0.011310213681945467
-0.25
-0.9428503947038237
-0.6360479672431439
-0.48
-0.6481126411426243
-0.29660411948131027
-0.3
-0.10755648890445862
0.2250928812112285
0.21
-0.8392534895969965
-0.1612639797211188
0.03
-0.74289662866465
-0.5785171877031985
-0.34
-0.7156434206825699
-0.2016515309257048
-0.32
-0.25250907746006446
0.1359221961464086
0.29
-0.15008280453217757
-0.38695704940633624
-0.26
-0.327203558979433
0.22675325534174223
0.16
-0.7109138637275111
0.02488192660208794
0.49
-0.4990425349878574
-0.6960215193057028
-0.21
-0.48813908908006526
-0.40799927444610296
0.49
-0.036161333939666064
0.0700357930247029
0.09
-0.7441964014104714
-0.3981236024164592
0.18
-0.09603700596930995
-0.5971751766201113
-0.07
-0.10698543176565765
-0.19753670433113957
-0.32
-0.25662390405462954
0.0011945961280550792
-0.2
-0.9453552045138243
0.34423334647479337
0.17
-0.6383939548605622
-0.3552231810562725
0.2
-0.15893742732949703
-0.05588897234378993
-0.03
-0.3482716360419791
0.1929437484400182
-0.14
-0.04710435682578739
-0.5459975598311572
0.47
-0.8481630485546113
-0.4049577102805217
-0.36
-0.3892028981052476
-0.46139899299887277
0.4
-0.10276161538689664
0.03573422249864173
0.01
-0.6498948308844102
0.15871826832271993
-0.08
-0.8928788767084881
-0.1719740713455713
0.07
-0.14218653704019765
0.3853195801193092
-0.45
-0.10948018850507792
0.09961862241616666
-0.39
-0.9437792308019362
-0.26350798814927867
0.08
-0.6206526202364893
-0.22416075863225826
0.32
-0.21999984975351092
0.41
-0.16295402969521244
0.01645395049162699
0.10804367409728988
-0.2875937282675332
-0.36172081959151176
-0.6439321203841587
0.03
-0.1408774064894746
-0.5414989199771362
-0.2
-0.7333106068964963
-0.5591770283314851
-0.27
-0.8556324985421476
-0.16852282889703005
-0.32
-0.2762866979766018
0.02103283650013971
-0.47
-0.10584236337377219
0.2581871566460774
-0.14
-0.7629966835197093
-0.07166449210159648
0.45
-1.0531450347720348
0.38033168855207067
0.49
-0.4851412154257025
-0.14563966385975108
-0.32
-0.8791698630138811
-0.43532360585578084
-0.26
-0.5494859210178509
0.047487485539738195
-0.24
-0.21229701241337035
-0.20543010896264688
-0.17
0.15062058208901485
-0.33417783784039773
-0.34
-0.6706316890332352
-0.2948191848256764
0.04
-0.8299903420479561
-0.4861586166027645
0.23
-0.34865091027086736
-0.33241681656604405
0.23
-0.4723927103075876
-0.5230571610350273
-0.02
-0.4917523658386038
0.1529387547301598
0.0
-0.5177482816037916
0.15517747279741376
-0.29
-0.6199869996710464
-0.5460741412840309
0.17
-0.36873538558960123
-0.7583122199831726
0.48
-0.47649730689046016
0.09450421079800335
0.1
-0.03931373767163556
0.09389263489344
0.07
-0.37870216176707205
-0.37067609782227334
-0.18
-0.7341334290513584
-0.24767060460270285
-0.39
-0.06713892227092941
-0.02863371364399044
-0.24
0.0638241867703582
0.02006601982223943
-0.31
-0.674875546695871
-0.2383502809441267
0.2
0.02354075407049419
-0.13547339991415058
0.32
-0.16933612695948144
0.1593405926955732
0.28
-0.06415011956920533
-0.2257163772527474
0.23
-0.7590931496208854
-0.7793001107676659
-0.19
-0.8055094161059665
-0.2739667153583579
-0.41
-0.31084281151527415
-0.4535122745191447
-0.39
-0.3612972523544873
-0.16969245568907146
-0.15
-0.27511707118456014
0.09281874465638071
-0.27
-0.7376282715300121
-0.01412853049404772
0.24
0.00931900362041487
0.3182964752445178
0.47
-0.4431060021181496
-0.25997451841708413
0.16
-0.8948350084565483
-0.3372490945859507
0.42
-0.10756043228768136
0.2522626401008264
0.25
-0.36707216697445844
-0.45978871069363086
-0.32
-0.3450208161800008
-0.4
-0.5104304371014011
-0.1106433882651665
-0.2371195509284574
-0.11553004890687071
0.04656406452397824
-0.5265013530076916
-0.47
-0.19566250391960602
0.022060492706426578
0.4
-0.7042243496337239
0.24379043940974204
-0.41
-0.9059542963370377
-0.2781121349666902
0.09
-0.5440517219606072
-0.5190844870758384
0.0
-0.3530793698514588
-0.41659111100157287
0.11
-0.3655727459257253
0.01321040082629451
-0.13
-0.7153742577535906
0.3295078553242155
-0.19
-1.0616717122515131
-0.2694279859993319
0.39
-0.1427358709279662
-0.4445951416767136
0.28
-0.0075687152505842445
-0.15520564410951762
-0.29
-0.6469582128177797
-0.10998224212572123
-0.22
0.037818385198423905
-0.694494486722023
-0.1
-0.31766937020527425
0.1103301181406092
0.06
-0.23249397506790664
-0.21591906037007239
0.32
-0.7862447965572233
0.0022408427299427072
-0.19
-0.6644046996572401
-0.6339379980151713
0.18
-0.8282258589121249
-0.4435379761957772
0.0
-0.5386258807315202
-0.4563975311265179
0.05
-0.025766325800779682
-0.024403539472750698
-0.01
-0.8577603174545464
-0.5682209542409699
0.42
-0.6839429026863264
-0.19183313372237903
-0.46
-0.7703307232049174
-0.19812981583589362
-0.5
-0.5240340410914032
-0.42586661484116045
0.17
-0.6862972420861357
-0.5567658642795987
-0.09
-0.9053979926476977
-0.15393637602948143
-0.13
-0.6482274808978155
-0.3463455396387243
0.04
0.004181682711427395
-0.5768533174688607
-0.45
-0.06531053945843654
-0.41618485631081203
-0.32
-0.10597900061648524
-0.4692475282058187
0.41
-0.5829163287214778
0.22806807507506063
0.49
-0.8602319320023571
-0.26721929786449045
0.16
0.005055440937193234
-0.07976597323420895
-0.14
-0.09239788369308823
-0.6738145580218308
-0.21
-0.04834929890546635
0.02769655677309862
0.13
-0.3798604137003964
0.17586445737513842
-0.27
-0.3380283143024362
0.005317557419417117
0.35
-0.057481414346714534
0.34768140840069733
-0.21
-0.33984526532799536
-0.09573377997500801
0.23
-0.21643007695228966
-0.06089495957614048
0.18
-0.7812688973511568
0.17724198435499416
-0.48
-0.6594058412822911
0.19035416272173067
-0.36
-0.06251801964902809
0.36
-0.35043567104677564
0.12498252329854401
-0.5094686529331807
-0.06479851682653567
0.0852108796270064
-0.17234892686512743
-0.02
-0.14427684231934718
-0.47582973123984407
0.34
-0.8207960379446283
-0.2206684579372122
-0.23
-0.8459573112472599
0.00016844297171614476
-0.32
-0.20679421215619087
0.20133625780349765
-0.01
-0.9479620269879687
-0.4171172809428705
-0.45
-0.589508488241602
0.4883252440125908
-0.25
-0.08495101319706541
0.2846330833463387
-0.26
-1.0012588525308104
0.05359461343467797
-0.3
-0.7002203826191501
-0.5639362888590558
0.24
0.0073105196745819265
-0.08224316797985776
0.15
-0.2843826012046169
-0.4155511654433506
-0.25
-0.0110746037411242
-0.48137649170903807
-0.19
-0.7252492774754346
-0.25890612369927307
-0.12
-0.11771964548520177
0.21289066925035838
0.43
-0.9495164384348312
-0.3205076086546824
0.43
-0.406118160529792
-0.41397122522609947
-0.23
-0.04265454395837548
-0.5395206639732425
-0.04
0.15289489478876836
-0.40867550230003363
-0.14
-0.6879502668844384
-0.006864569098544694
-0.49
-0.29976120008593
0.015592062811842018
-0.45
-0.6022178319963148
0.1483266552782933
0.09
-0.6249524244627651
-0.6225300569707413
-0.18
-0.7240957122137298
-0.05238400739918001
-0.05
-0.0342417617852947
0.22159280625423006
-0.49
-0.25821857543870486
-0.15971474406864444
0.19
0.03308897488416993
-0.05304378976065881
0.32
-0.5235819794238158
-0.18569215226456612
-0.04
-0.9109336169199066
-0.5542172665322446
-0.31
-0.7424085026522268
-0.12347219408794538
0.4
-0.5331535750965278
0.09986548355488976
-0.49
-0.6464912527393628
-0.0488913138791933
-0.09
-0.19773445530528133
-0.6373808502027285
-0.39
-0.3992449189817451
-0.4575066442866071
-0.2
-0.6291191248978655
-0.1584469648678083
0.47
-0.2481788043166666
0.023335658310232998
-0.22
-0.4199614274947069
-0.3319456274440633
0.48
-0.09468014174041127
-0.03723554094546844
-0.27
-0.8793902282390034
-0.020928073682344242
0.1
-0.8356976955021279
0.24019790905396116
-0.1
-0.8368236782384335
-0.12435219508705002
0.37
-0.8222735740974214
-0.28530495053417987
0.22
-0.6213208186502931
0.23
-0.14265356333641221
0.07909023121524006
-0.5389871479230806
-0.042139849824853956
-0.07320451403447915
-0.18029531389729922
-0.49
-0.3386654986270402
0.015743358582627688
-0.37
-0.8147041711069688
0.17195828443952713
0.41
-0.7509190969638679
0.14334231772779857
-0.17
-0.8223031302521395
-0.6191693700998104
0.13
-0.21979144242452903
-0.35068582381269425
-0.2
-0.29827498871164554
0.4302915129554616
-0.03
-0.7892523254798031
-0.04589664176590673
0.19
-0.14306417075843256
0.038370861413740166
-0.32
-0.3973316739380796
-0.2105450633579743
-0.35
-0.4084157491663654
0.0161110644547756
0.48
-0.9250718769791165
-0.3530012295747432
-0.31
-0.2959595829495964
0.24386761684550212
-0.41
-0.13282842936984157
-0.3242617983860447
-0.34
-0.45469901413829517
0.2318847234655021
-0.38
-0.920845535989844
-0.09203301708722329
-0.24
-0.5469277954371164
0.08506985542116982
-0.24
-0.28403066794550935
-0.0999924448013851
-0.18
-0.4289683677229543
-0.5282548119422088
0.02
-0.9207060005821326
-0.17231002569210632
-0.39
-0.22665078683223328
-0.7293723697410833
0.32
-0.4095884427832572
-0.5101273686586362
0.31
-0.05883344386570428
-0.28180010409170747
-0.02
-0.41716070843263214
-0.5273966847489566
0.21
-0.2115641277753834
0.2607948335636235
-0.08
-0.1997556460879631
-0.5143474178324999
-0.45
-0.5146133946918405
-0.2937870994142031
-0.03
-0.8351737131101381
-0.05648379708064853
-0.43
-0.8824770154436926
-0.0024857200734093466
0.39
-0.9464750924509324
-0.027728221461547135
0.15
-0.501232591062792
-0.0027512653656524702
-0.1
-0.19620954715868688
-0.09729823785994235
-0.3
-0.571662574664398
-0.03247616617598793
0.3
-0.17648464634835132
-0.5049889335161181
0.46
-0.09397187900822153
-0.14871197775338543
-0.21
-0.5302488347709543
-0.5438727782605899
0.39
-1.025088034263752
0.240481183501521
-0.42
-0.3694419960258605
0.009762294438519904
0.41
-0.7787231069628615
0.09548511513825747
-0.18
-0.9644459276625986
-0.5135993362892974
0.37
-0.16536147623504197
-0.6470769095399469
-0.25
-0.6318839029843941
-0.6606811153810751
-0.18
-0.33827969714326556
-0.36
-0.20351804391879189
-0.6505161057519958
0.2129008662982717
-0.27234682831424817
0.17609400852130697
-0.6855596633569977
0.02
-0.536483270302314
-0.33035303668314947
0.26
-0.25168989697616323
0.02063319893137661
0.45
-0.1326761325906899
-0.1461502775671501
0.44
-0.11589265609216287
-0.4091745008774861
0.13
-0.49286843278182635
-0.13873249884810154
0.48
-0.2633104348112117
0.42318360925556664
-0.36
-0.5752265429148782
0.13894883242639827
-0.07
-0.8709917660857085
0.10708988543005687
-0.5
-0.019132819089370506
-0.3854563749757899
0.11
-0.06658655868352271
-0.527920956765398
-0.4
0.025878023106084874
0.17087301086594534
-0.34
0.17708405547474135
-0.2185096219196381
-0.2
-0.5835333117396737
-0.21877763137846065
-0.11
-0.8732653022808504
-0.16338044030348794
-0.12
-0.5086624933558253
-0.33551508894498694
0.33
-0.4665278447143258
-0.5655571782507791
-0.33
-0.16648575540853353
-0.3016577608476923
0.37
-0.25038517281162065
0.03316187690056297
-0.19
-0.49520481055987575
-0.5161954786937806
-0.36
-0.21584745496553234
0.11906128369191105
-0.05
-0.06110421735122462
-0.5497701080846721
0.04
-0.5822728255746399
-0.0035206131544907307
0.08
0.07147767949517729
0.023733015580249133
-0.49
-0.4857759492395617
-0.6394409224243375
0.02
-0.4826020112349745
0.11801127177411258
-0.1
-0.13005420543342577
-0.04409791474490247
-0.23
-0.7979450189144084
0.2692448000258315
0.11
-0.1512877336851448
-0.18878125010013622
0.24
-0.24326168355917685
-0.546166826865841
-0.24
-0.7558761067934704
-0.6339549933707763
-0.28
-0.718087940288535
-0.5971134475490859
-0.26
-0.244929486110226
-0.2989953421053524
-0.5
-0.31304759155396
-0.509126355569143
0.4
-0.6429165780901684
-0.42001992662139875
0.01
-0.03202300703791477
0.17754080942187245
0.1
-0.44958374308118504
0.1805665568481866
-0.37
-0.8226094905074987
-0.6484907526575531
0.28
-0.17355218100175898
-0.10040880046570425
-0.05
-0.5916341331936078
-0.15711197371663493
-0.33
-0.7649309599426768
-0.36406489187815166
0.27
-0.7879780417811602
-0.4479521702177581
0.44
-0.6640907634415539
-0.3
-0.18848657079916165
0.1520969308639675
0.20342285175293415
0.0778383024734921
0.2865636562951447
-0.5227062409704625
-0.29
0.03718611808615742
0.3574805388719023
-0.38
-0.1430006617562059
-0.5264163783986344
0.38
-0.6391037444856709
0.053925470070565834
-0.37
-0.31944559295487024
-0.3226386488315071
0.27
-0.3828814740527978
0.09208769325579368
-0.22
-0.4276078161400982
0.34287626089197826
-0.5
-0.6183963837762841
0.03387504550654421
-0.37
-1.1693951683908468
-0.22282392430462164
-0.25
-0.23269619857968213
-0.6480709606361958
0.17
-0.47744916224810846
-0.0060178370641211865
-0.12
-0.5895022858201847
-0.10531005008885372
-0.2
-0.6802100727954495
-0.06657285077906555
0.01
-0.16894727210523824
-0.4023425975947271
-0.36
-0.6731775252895781
-0.32856782549113306
0.22
-0.8669522973931728
-0.4470680118974703
0.06
-0.728452110986835
0.3107907973286143
0.22
-0.2963109202129193
-0.3865555542149056
0.16
-0.5989645686694002
-0.3471737786874141
0.05
-0.5283463441968914
-0.1117172437015272
-0.3
-0.6938028791827784
-0.2561161752412763
0.08
-0.3094039476430282
-0.5471470551195328
0.45
-0.2683730677647724
-0.5148953728447067
0.05
-0.7706247500395992
0.165661372174487
-0.4
-0.5511814950587918
-0.3525088091173829
-0.44
-0.5630113137669218
-0.41565930383845173
-0.05
-0.3698608190458531
0.07074186350755958
0.17
-0.8662619863918648
-0.3732228369176358
-0.11
-0.6622972859666691
0.23065876765323046
-0.19
-0.48617889053753505
-0.6045150879694696
0.16
-0.2910050349148347
0.031664626750273164
0.37
-0.5171847496345773
-0.24078065837836335
0.37
0.04526053549405943
-0.3470821609476782
-0.24
-0.47843796193662647
-0.19266618263807136
-0.29
-0.3828539402462332
-0.32286313971550085
-0.43
-0.09265698316880314
-0.5831524623209577
-0.31
-0.20236766056334687
0.01036414114642758
0.08
-0.295884264030732
-0.4234092759872493
0.37
-0.8921108468970564
0.006577167299900607
0.08
-0.3920972901842049
-0.002235006562169111
0.45
-0.5032851163221348
-0.0995909306944353
-0.5
0.004070807810130805
0.02856896824708116
-0.46
-0.6640890911313869
-0.31
-0.5525814244011179
0.04931100898310539
0.013669544522080936
0.22838211431892982
-0.20316146753046854
0.02297881560481071
0.05
-0.23389911686898424
-0.6915190396600556
-0.13
-0.07940126160411774
-0.49980646247735167
0.04
-0.5211138387868219
-0.06076553941120314
-0.05
-0.23015476185297054
-0.5513735335793266
0.14
-0.8895467676848468
0.4168589448590793
-0.06
-0.7577792461232531
-0.4476714008143016
0.22
-0.2432489004498723
-0.24597813974526353
0.48
-0.9149421615189095
-0.833780071680216
0.07
0.08285977041604253
-0.8423393053988146
0.47
-0.6085809958653585
-0.47807712366220056
0.44
-0.06284317760197294
-0.6714248099137231
0.18
-0.66949549135045
0.09139894059064793
-0.4
-0.4723192418548214
-0.3794152058424548
0.02
-0.49150509542171866
0.18612185160520767
0.26
-0.34704215286938117
0.025346446434791087
0.34
-0.08626674769896475
-0.0323955150717014
-0.21
-0.028524786192472337
0.10529615165368363
-0.35
-0.5162164529178572
-0.39091937838433105
0.23
-0.2800009228798429
-0.16880993099429925
0.37
-0.47211037026987457
-0.2679852221799019
-0.1
0.04706492091572793
-0.7432738404466608
0.27
-0.4376464608175118
-0.5742003523610935
-0.5
-0.19671994890308
-0.5802870684204482
-0.24
-0.9306332328437256
0.16491494455896566
-0.37
-0.8758352458231393
-0.38445806424370865
-0.19
-0.08646223702046539
0.09602719097339307
-0.16
-0.296947492237567
-0.013602122707206071
-0.22
-0.1973181785569674
0.10642795304387856
-0.06
-0.43734825430805185
-0.47290831036333064
-0.09
-0.7080119909008432
-0.21930370065992258
0.49
-0.4916166006042507
-0.018400457687215342
0.37
-0.6825198435769575
-0.613303500882574
-0.36
-1.0876168003815987
0.01430613680096684
-0.29
-0.1352264380651404
-0.5556322311180081
0.47
-0.38528807014616556
-0.252348714359545
-0.04
-0.1585715869046288
-0.0451022163217869
0.07
-0.39581808494238674
-0.0012520446052489758
0.1
-0.1596682566589247
-0.5215596152790343
0.43
-0.4393606859851392
-0.40635904337738404
-0.37
-0.3645612578867895
-0.10392832292191055
-0.42
-0.2769919783422631
0.04802641642145021
-0.24
-0.4389467176856232
-0.35
-0.22578711167067259
-0.211931032459598
-0.2756370348115408
-0.39826219533556306
0.051478851363288086
-0.7034333159484197
-0.17
-0.7421642699577701
-0.3412600181077453
0.2
-0.3843375677984415
-0.37175491044348785
0.32
-0.15384267546269845
0.26501649905171276
0.32
-0.8006140849579026
-0.5526246636088563
0.13
-0.05297292229732998
0.05533378921592773
-0.48
-0.050931375122113855
-0.17720234590378015
-0.43
-0.5583952400024083
0.24851479185893996
-0.48
-0.14411237776512634
-0.00434901012779367
-0.16
-0.4312485757783934
-0.2908568014340736
0.49
-0.42474078447211305
-0.5700481996919851
-0.18
-0.005549386214202042
-0.6509202137500698
-0.12
-0.64467737215612
-0.2852297316752875
-0.03
-0.8403678542309017
-0.05379092894263743
0.37
-0.5218066569635503
-0.3506250604142043
0.31
-0.7849725254919855
0.2641177841975261
-0.49
-0.7497153701037154
-0.282086355824475
0.04
-0.6035112300817127
-0.07057015939353403
-0.05
-0.11502742651265231
0.27487855859835947
0.13
-0.7904761445045495
-0.2057978709698179
-0.23
-0.8397997149363715
-0.04454078303619906
0.06
-0.351056802869988
-0.5212146618763053
0.12
-0.41438292402988225
0.18094728327932547
0.3
-0.546544869185513
-0.20528421555998777
-0.14
-0.10031337034619829
-0.41193719843487303
0.25
-0.39366038747131393
-0.6732171960562775
0.24
0.017619610150089244
0.18239319584584196
-0.22
0.012009218247972088
-0.49692163980484155
0.32
-0.008675946101344572
-0.09980925681476022
0.07
-0.3957883290914267
-0.5390499981585612
-0.48
-0.8265475877476285
-0.5256401271684467
0.47
-0.5599574587377419
-0.2863401735133628
0.16
-0.34925741239282393
-0.6514982341925658
0.04
0.015900648286379188
-0.15227734296369078
0.36
-0.7433202429424962
-0.23536372212288997
0.3
-0.10023386378329613
-0.5724327485354176
0.26
-0.24316483737076902
0.2792040698878512
0.49
-0.8148016557940402
0.24263869994156523
0.42
-0.7582362858477544
-0.3004901784865649
-0.12
-0.8751074074196253
-0.17724934486314786
-0.33
-0.72834824104304
-0.5642718022892725
0.28
-0.6513257836169168
-0.4674591702405144
0.5
-0.6881384156656745
0.38
-0.09285222387216278
-0.18512427947775895
-0.09034516265485788
-0.19155519555302217
-0.3036579984288192
-0.4337002686445459
-0.37
0.2215576772999459
-0.1002873614408876
-0.48
-0.3018552299037121
0.30939718947897643
0.36
-1.0415397808235776
0.042259813444097766
-0.23
-0.9344024047886993
0.00566025768943984
0.31
-0.31780284903404066
-0.5027664323748018
-0.2
-0.3993761589697984
0.05155819285083
0.16
-0.24370078419542932
-0.45860059542214293
-0.07
-0.953541995922458
-0.4135426783579526
0.4
-0.918599912986648
-0.01042583023895631
0.08
0.05828323889435682
0.22552038785524378
0.32
-0.8676629791998441
-0.037889786994031185
0.48
-0.014252804350568332
-0.01688140218074271
-0.43
-0.3952611891638573
-0.15256677019761525
0.13
-0.8495758211469845
-0.14209034721594768
-0.12
-0.6000522441286515
0.28675743503092854
0.22
-0.4789000263755288
0.3438723158180868
0.36
-0.9060149071626872
-0.07916088693356046
-0.16
0.13701829558896106
-0.32367537804788676
-0.22
-0.48846721329671344
0.26148570695431006
-0.24
-0.613628298298911
-0.06517727297101011
0.02
-0.35696531837359
-0.15408524270746105
0.39
-0.14805734863713826
-0.4988483070780413
0.41
-0.2132942842665583
-0.33478429376605323
0.41
-0.6573582975785479
-0.18600766805223692
-0.49
-0.11613492329236245
-0.6870943216203858
0.27
-0.5050482697242146
-0.22346219048815807
-0.17
-0.21868040085644155
0.23445333539139446
-0.03
-0.3465959267359949
-0.4626033783681297
0.49
-0.26953921297647093
-0.44016460441395133
-0.46
-0.441977986930649
-0.22878689712941933
0.45
-0.2533556942151805
-0.4395461119246679
0.09
-0.5225964794199319
-0.30274307096018704
0.03
-0.45939952038441345
-0.5642074507379106
-0.02
-0.11793514060668805
0.12448172095774383
-0.08
-0.3466243123023443
-0.627607592548314
0.05
-0.37453499879628704
0.2900664480737747
-0.2
-0.31220903941837524
-0.5783952765455592
0.06
-0.7837473147990413
-0.14384501968620617
0.08
-0.20829757165839313
-0.2334746535397493
-0.17
-0.6886679378048507
-0.49976404556675086
-0.04
-0.8623785457778506
-0.07266006559347027
0.05
-0.7394825257511295
0.28
-0.34891589472599094
-0.3317055858622206
-0.1582280633490109
-0.042867232947091535
-0.08323000819993563
-0.2738903569067588
0.05
0.06622982396241295
0.15043324131794927
-0.24
-0.48809377426229544
-0.6530549450509154
-0.35
-0.27460558789343104
-0.30263357795111717
-0.09
-0.9250269549932284
-0.17338782955311793
-0.5
-0.31427270339122787
-0.44104715280452006
0.41
-0.9166133801398252
-0.4107704956867024
-0.11
0.013109962742356911
-0.3159422756673039
0.48
-0.8017182572770417
-0.5319278054716721
0.08
-0.07573272747267308
-0.8249821774864889
-0.36
-0.7326783554578565
-0.3654942100844735
-0.2
0.25783367714012784
0.1316934455303788
0.38
-0.2893539784747243
0.4274668508799575
-0.39
-1.0251273838243038
-0.03778113780541114
-0.03
-0.039879395138934015
-0.13742500628780602
-0.05
-0.560235526656539
-0.13337235439315712
-0.4
-0.8742881785511882
-0.3576560153225794
-0.3
-0.3400045176217664
-0.22532426116430754
-0.46
-0.17233627178003752
-0.12032555311739998
-0.35
-0.7973349798269457
-0.20208237933198495
0.18
-0.8255781536123612
-0.021502923786179
0.47
-0.2861576091581667
-0.740325663012928
0.18
-0.7273348699314167
-0.34979514632777575
0.2
-0.8178653866165708
-0.582789740834874
0.1
0.08512920789052876
-0.5046049489151421
0.49
-0.1530555840292025
-0.6847749297599932
0.44
0.04711439681564846
-0.1867630253224445
-0.11
0.1291024923780993
0.14067615559939328
-0.44
-0.01833668854373885
-0.20168969541062848
-0.26
0.15402916246628265
0.06065361509144814
0.09
-0.11831414803579386
-0.28830604469781845
-0.39
-0.9593544882465269
-0.018951566337317188
-0.06
-0.808708966607028
0.11497430183004513
0.42
-0.4926348347743908
-0.06527369001053665
-0.01
-0.46238684293380944
-0.25044559324296445
-0.32
-0.1972149397013813
-0.37106233388541393
0.01
-0.3565981990589319
0.3023483602994496
-0.1
-0.660008893243795
0.19155080983297496
0.48
-0.19921134277732058
-0.3142830062509007
0.01
-0.6533775266934447
-0.21557190061137227
0.26
-0.26208863233297347
-0.48365765628947904
0.09
-0.5940028766548661
-0.6324997115498339
-0.13
-0.24516082139451226
0.06
0.17277179157457698
-0.0717648323289167
-0.2324832697819289
0.3151549599695529
0.2057646181179102
0.01877461255795187
0.4
-0.179338784437397
-0.11955465280289784
-0.11
-0.3310095190765476
-0.5067040733961033
-0.06
-0.4438600984833416
-0.44735349407881764
-0.13
-0.29321067780062726
0.2130341426545641
-0.16
-0.11359831453400913
-0.03972104596834217
0.41
-0.6508431259111018
0.23402824807915884
-0.48
-0.6745924199586034
0.3750163759322475
0.3
-0.6555805478116907
0.08857693233837814
-0.45
-0.4291411042178229
-0.706043412175244
-0.06
0.34547924029579946
-0.31027322404666274
0.16
-0.41029094783278247
-0.5935848785098184
0.36
-0.6769792933696248
-0.5700289396052028
-0.05
-0.8005352322742405
0.0938218295592006
-0.02
-0.8843860014386439
-0.3487847065351991
0.32
-0.781779465344245
-0.5481791828151428
0.05
-0.5123849890643024
-0.46187573923019076
-0.36
-0.4486884326492543
-0.4645910880287306
0.18
-0.005973083850714409
-0.6033213987138225
-0.2
-0.7672427731656206
0.25731164438025234
0.33
-0.11787581625969713
-0.29958321542961064
0.31
0.03901904355016554
0.19589839713108845
-0.12
-0.3364625690105331
-0.6049017813412358
0.1
-0.15566239053820924
0.16525165727812693
0.14
-0.8058158291575686
0.17258069830093883
-0.17
-0.07314487018038365
-0.04851784869988893
0.45
-0.15204632317955616
-0.4388909721297597
-0.16
-0.4616731997496854
0.07550347665183135
0.37
-0.47606764853127664
-0.345734302207656
0.09
-0.20482986967178962
-0.014155050626075484
-0.24
-0.14640912125336963
0.005769217742883601
0.32
-0.4063333896223287
-0.5888852106957803
0.18
-0.05167896118366366
-0.14237316056776714
-0.12
-0.6481910113116771
-0.3864319076116883
-0.42
-0.7541322642677555
-0.5198279916627148
0.44
-0.7807361802167297
-0.1285646733642781
-0.24
-0.531999498515167
-0.29997428413924265
0.31
-0.9105898877402012
0.268012992826181
-0.43
-0.6085771647056255
0.22819184089414882
0.36
-0.12875601277359364
-0.6691407925096132
-0.41
-0.281423379369832
-0.363632119502168
-0.3
-0.22693205237727787
-0.37040943244123564
0.46
-0.12015473943820912
0.02
0.11777040882030011
-0.6848860118139952
-0.27677142225280127
-0.2722471870891111
-0.2539526387595806
-0.3198565556134693
-0.03
-0.28239338829819427
-0.22487229307907985
0.36
-0.7773776508325846
0.36527190919094177
0.29
-0.35752185310260554
-0.2590694701662952
-0.1
-0.9331804737453686
0.10209347489096794
0.45
-0.6643434188026318
0.01135349558284577
0.07
-0.26360343949450976
0.2992113560085989
-0.39
-0.5714612999202633
0.2296903971888739
-0.07
-0.3519403411005377
-0.4180159061735094
-0.04
-0.1442340377381546
-0.0487517736437447
-0.5
0.1765018297320805
0.13747128083042773
0.34
-0.8997212247420913
0.15625890038985574
-0.38
-0.6285088443015204
-0.5881212703239065
0.08
-0.27412867358775744
-0.5120992874189002
-0.05
-0.2901506564927633
0.06129485160360571
0.15
-0.6035447955152702
-0.22329377437751147
-0.1
-0.2989561695341527
-0.3252643274139114
0.24
-0.7569856164977529
0.12182189527423469
0.45
-0.13407183918589904
-0.02641277726449747
-0.5
-0.145837166647167
0.012550360720117285
-0.19
-0.42480030463178053
-0.7866701129573817
-0.13
-0.5055798309542824
-0.3320978049591697
0.06
-0.310152138952494
-0.6531473703816901
-0.05
-0.9291025735299737
0.1588222947776343
-0.22
-0.7310722386892979
-0.3671830231896244
-0.26
-0.3350669207220392
-0.2807787378393585
-0.28
0.0785287939276944
-0.47949806435166153
0.01
-0.06275187956000199
0.06266281590239517
0.31
-0.08491275981405964
-0.20527675643784377
0.43
-0.7669731874738203
0.04567029025769125
-0.28
-0.09792023416935564
-0.46133826851137993
0.26
-0.2309116754002839
-0.09489920527988924
0.14
0.012649261368225072
-0.276434173140173
-0.17
-0.4658157707714907
-0.12322141704321457
-0.16
0.0009714731315503223
-0.6156104286017542
0.32
-0.026639515309910478
0.28025358115927895
0.22
-0.7825035250709432
-0.32607152166152253
0.03
-0.4261784222501411
0.07667055487141647
0.26
-0.1689204987830806
-0.20076681485801579
-0.32
-0.8914831290536487
0.056924589636872844
-0.46
-0.9091745335485361
-0.18298783030491625
-0.24
-0.8392621136067479
0.025887677234560483
-0.46
-0.1581376211462247
-0.1
-0.6817071417251709
-0.4730243064640869
-0.597785305923892
-0.49326189415056565
-0.32307387928798126
-0.6880860652158843
0.46
-0.3369981930225678
-0.33557670927804034
-0.28
-0.08950754896041199
-0.013795546788020325
0.03
-0.3612887114504324
0.017252082655923748
0.39
-0.4223363408943762
-0.061757150160440026
-0.06
-0.6433271080780117
-0.04588743010036372
-0.46
-0.7391968281380882
-0.05524858686815065
0.33
-0.5698356713703009
0.04850658339697185
0.36
-0.8635908416354242
0.07919508971008238
-0.08
-0.7842793479485348
-0.22330837624607577
-0.19
-0.13177588199237722
-0.29472523722886956
-0.09
-0.2903590210095833
0.03902405055427192
0.34
-0.07410830879272517
0.13271224929341288
0.36
-0.29779650753186593
-0.08236710330080317
0.04
-0.40271715493764926
0.18022636974801506
0.2
-0.7653106279864668
-0.41058563552719074
-0.08
-0.23449862271126212
-0.3802349088087161
0.31
-0.7748493494297356
-0.3455007436780934
-0.07
-0.6195835145603588
-0.36074210093488174
-0.36
-0.6243421573035705
0.01131482213846382
-0.2
-0.5263990803769155
-0.10199878391446603
-0.2
-0.053085474323986935
-0.12876289809409172
-0.23
-0.016321360144361356
-0.2744920448310225
0.33
-0.8305922134074297
0.3497628004202173
-0.18
-0.3348470586586698
-0.3282923448413055
-0.13
-0.1767919133971471
-0.014907960576262171
0.18
-0.260176297662191
-0.12597602694847204
0.01
-0.5991082312899806
0.019288540405675087
-0.06
-0.7243727986441267
0.3584556102468537
0.43
-0.3435398684853061
-0.23380831265979346
0.49
-0.17127594557865944
-0.43411972809837623
0.11
-0.3209645301400762
-0.20887581060877158
0.27
-0.3862084476296812
0.3103526080155689
-0.12
-0.8354368662540206
-0.42601452683026725
-0.34
-0.7190697314081852
-0.6215681376692502
0.34
-0.8735161205692019
0.27536866080575007
-0.09
-0.9304529190442027
0.16487439954722546
-0.05
-0.8699586577856769
-0.17127721680288147
-0.37
-0.45380704143557077
0.23410676942542957
0.34
-0.9291910276638821
-0.5484286899700856
-0.37
-0.0666555682683674
-0.2146215223905554
-0.48
-0.8004627358478971
-0.39756179082797094
-0.45
-0.1375224674104812
0.25
-0.5321055693538543
-0.6793012621810148
-0.056306363137269194
-0.5704353906087194
0.20515631445479704
0.2110094934686708
0.42
-0.4680101357819979
-0.7403626155985641
-0.25
0.28336197328523977
-0.8871440438193485
0.12
0.4001434015060228
-0.18390869487116854
-0.01
-0.4730919474421571
0.22801843235767166
0.17
-1.0750190746709969
-0.0498711432407886
-0.33
-0.19712949907253774
-0.12873680976115118
-0.31
-0.9082638325521742
0.03309237426751365
-0.41
-0.5500930165808396
-0.520372909452214
-0.44
0.33337226713888873
-0.1547698575983057
0.41
-0.4322307847150206
-0.496469311559755
-0.01
-0.3405313307535713
-0.2963945522141339
0.31
-0.06060609009919172
0.003630783039644449
0.31
-0.34063142535297075
0.15384139687190349
0.42
-0.07084203918523073
-0.3660849495419529
-0.11
0.18908430722862646
-1.0284418357107385
-0.18
-0.27855880660258686
0.17513594819401962
0.37
-0.8321365905073458
0.10357860178455314
0.23
-0.4905792440978796
-0.7015369190345195
0.26
0.054536276721194175
-0.08161390847421582
0.15
-0.8453867338391102
0.26538280420156035
0.46
-0.7023834465148855
-0.24528296658406748
0.12
-0.3417176757292578
0.3695490684365357
0.34
-0.8665497107498609
0.07344061637355498
0.4
-0.06044125868688054
0.39287314216833424
-0.41
-0.5398737844816603
0.016751037529793962
0.4
-0.40375167984312016
-0.17857465096940173
0.09
-0.1184259913439247
-0.13735006483039328
0.24
-0.829650577482932
-0.33035002192321206
-0.1
-0.5766506203901142
-0.11879940645551954
-0.06
-0.10820123585780667
-0.30674274350410907
0.27
-0.13025789880921698
-0.11531087840839298
0.02
-0.7416897639049322
0.23573857542824
-0.13
-0.8927392177415657
-0.39316203799044436
-0.33
0.026161395677119097
-0.4368469033809069
-0.12
-0.08015373893241881
-0.8134627602446323
0.48
-0.40353788206869406
-0.5666110776453561
-0.39
-0.7903895646679693
-0.11671008001456354
0.44
-0.30029056229876233
-0.3436185931643929
0.02
-0.7633820491489322
0.04491691125641612
-0.14
-0.11191755356974224
0.0868088166584785
-0.19
-0.6338094589718043
-0.4388948887391274
-0.39
-0.17810575357419828
0.26
-0.17365239683264352
-0.0622991234183764
0.17624447652384478
-0.1642274437943368
0.4681717285020021
-0.10491178329521521
-0.04
-0.20745956947384805
-0.4547212944009882
0.02
-0.42765005836807474
-0.2815915220925062
0.37
-0.1807798306765566
-0.46924637729206076
-0.42
-0.2131249754770025
0.1528865569562219
-0.05
-0.07525790972528512
-0.6419099347226296
0.19
-0.5704614180464346
0.42950239428729764
-0.25
-0.991873747056362
-0.34704945393292197
-0.09
-0.7853218988361421
-0.16667841391906477
0.04
-0.6656929388499987
-0.9397687882072456
-0.03
-0.4426025645618174
0.2420768807244173
0.36
-1.0144482334934808
-0.46775601169454833
0.11
-0.12461534107451488
-0.36070090374364266
0.14
-0.04167044902542093
-0.019998217836660163
-0.14
-0.12237313493240311
-0.33808552907146655
0.4
-0.254285823697596
0.03920173922152639
0.32
-0.9315730919905907
-0.40794190269044023
-0.4
-0.4244294500786227
-0.7611246452605841
-0.25
-0.5112467075084798
-0.5089421957491523
0.04
-0.723429157019913
-0.5147327478720846
-0.35
-0.6176386048969796
-0.5356748822011573
0.44
-0.4166964705679062
-0.06914627996329722
-0.35
-0.613225072805767
0.2534013196349498
-0.08
-0.3957726724040126
-0.13008492832404572
-0.26
-0.6422864244450183
-0.3180291796802082
0.02
-0.9243421730888555
-0.3482089743415058
0.34
-0.5241623784275579
-0.4891582603585534
-0.07
-0.11321309241050964
0.19989960005318091
0.34
-0.13227095282224396
0.05179086927976581
0.03
-0.7541622220488293
0.34472055549623426
0.35
-0.7170919082652987
-0.5967280541248617
0.4
-0.26564329864420233
-0.58102388636087
-0.27
-0.47134746640819325
-0.4360777901600131
-0.23
-0.3862935626090498
0.317537645167432
-0.2
-0.14990899793649518
-0.329042433091032
-0.39
-0.38332891967803095
-0.46795278710546256
-0.22
-0.6144185656636016
0.08149628489911755
-0.33
-0.1338676376681808
-0.4825490438881742
0.09
-0.7398223088808908
-0.44946774375193194
0.17
-0.30290360901713137
0.20602664787911143
0.08
-0.6083980006481755
-0.145158171723045
0.3
-0.42721318104601813
-0.4028561754168816
0.14
-0.9095151773521823
0.23
-0.18053435751252928
0.1465953564121037
-0.3643883847648706
-0.3832344444461237
0.017857123521991744
-0.33406976552343115
-0.32
-0.348442628942425
0.33246618204133405
0.46
-0.2849785765071894
-0.007816122229144034
-0.09
-0.3646962722367121
0.0028820521551336806
0.17
-0.3453944466209891
-0.38293362430115685
0.42
-0.4395787701646993
-0.005406083417971555
-0.04
-0.8271063110478847
-0.40060116977823673
-0.47
-0.2819112246876194
0.08679381674540845
-0.47
-0.6393062112112646
0.2392760624158299
0.18
-0.39178845688168584
-0.2505114025897669
0.39
-0.12200099187608832
-0.5412048761630264
-0.34
-0.41130751830282963
-0.7457961557680862
-0.26
-0.2067162386977691
-0.574145530579983
-0.45
-0.928366863885873
-0.13683040513458503
0.25
-0.12568198933127037
0.31966235402951515
0.46
-0.9021747484953718
-0.36984127418724033
0.06
-1.072671120278613
-0.20080927467390186
0.44
-0.7717031197919548
-0.7394314084717424
-0.22
-0.7630809859941134
0.1413519770159501
-0.19
-0.6738643714818066
0.18317231531654354
-0.17
-0.9356847097824003
-0.5107106071528735
0.14
-0.5618017873129831
-0.5816059958765069
-0.39
-0.19090639858934835
-0.24607896050618433
-0.39
-0.13643343395967114
0.3397189944543629
-0.24
-0.6022313889202185
0.24652740596506803
0.33
-0.15903980043092333
-0.2638844112468623
-0.19
-0.16862798321899303
0.12266143827651928
-0.14
-0.6351738327423748
-0.5608791730721973
0.15
-0.8516332213936588
0.08843928210854259
-0.37
-0.5909516765743983
-0.0044888548879594425
0.15
-0.7080235395778969
0.2598787022982016
0.26
-0.3923910967640576
-0.5926241937091762
-0.35
0.07011179924332045
-0.14838850199668466
0.4
-0.07412389246917059
-0.17718386574643186
-0.4
-0.6853285287194234
-0.3037407696488433
-0.16
-0.6787716248170131
0.061230394691876806
-0.49
-0.8437427891577329
0.24962855836056946
-0.19
-0.612140952826426
0.06080693978681647
0.37
-0.9033193342526722
0.10441423639622201
0.09
-0.4269266308620776
0.2612295252864008
0.39
-0.0937419197522563
-0.026387083366232463
-0.28
-0.836125311099623
-0.7642002064801177
0.27
-0.638312187985738
0.43
-0.6547544711891955
0.07636091121819705
-0.2780809215062412
0.003566041674865721
0.024081273129056686
-0.1330845626745529
0.08
-0.12035464253783283
-0.26044802600755645
0.14
-0.16299117920482917
-0.13646024879834553
-0.13
-0.656978956414042
-0.5201891732815057
0.16
-0.05325003193088055
0.2831291202660006
0.35
-0.14656832547838664
-0.03922079907083704
-0.15
-0.7242184061415502
0.47901284364241536
0.21
-0.44245204885480044
-0.08289498117704311
-0.33
-0.520544224035343
-0.38415990361602226
-0.32
-0.219279301596363
-0.871642764039627
0.29
-0.6117964411727612
-0.5350761743608214
-0.26
-0.718363030851566
-0.35736415134120847
0.4
-0.2160750538711771
0.09255226685089599
-0.18
-0.8859914720632828
-0.4235323398390353
0.35
-0.10990686537335005
-0.22800559469893109
0.3
-0.7354336105134576
-0.3614197428364059
0.01
-0.5820194623759806
-0.5656735945906003
-0.46
-0.8377656106217881
-0.41603625360437013
0.12
-0.11740295160801556
-0.13496138725012038
-0.15
-0.24847781796226542
0.21146748540454272
-0.37
-0.014906690616928345
-0.7253471570294084
-0.14
-0.7480920481829799
-0.13533465169719833
-0.48
-0.848104553515189
0.11163752470598144
0.06
-0.3550767299183666
0.3793317608067138
-0.42
-0.19277096601909965
-0.13282337249345053
0.02
-0.0006158327189349083
-0.2177688192576483
-0.49
-0.04567038595473739
-0.5218298261884151
-0.49
-0.0516093790239715
0.11223686198032748
-0.5
-0.4356760671927127
0.03082752080015035
0.04
-0.9542667260125381
-0.5416655352395212
0.28
-0.4817736699728645
-0.10547045422059916
0.45
-0.2779687509917865
-0.10392531239535173
0.34
-0.1195138928170338
-0.6142858880546823
0.34
-0.6491533171577051
-0.08589248025645783
-0.42
-0.7175467249559291
-0.07937502592575468
0.46
-0.3640641792866303
-0.11814741297215191
-0.06
-0.7852917922402354
0.19708092115504092
0.01
-0.1605201263674268
0.1599430190727538
-0.26
-0.33338222428513925
-0.5087083089635619
0.25
-0.4547308962488237
-0.40254608249831886
-0.39
-0.8608931227140684
-0.49842488862616874
-0.14
-0.485014316586217
-0.5678310957997804
0.45
-0.2956081094126054
-0.47
-0.6950106007808934
-0.02560659252359833
-0.4197639043295136
0.3377675615743247
-0.3319632936273706
0.5851000891943715
-0.04
0.05729325871504331
-0.20354015544643597
0.11
0.255933503355851
0.18735310551981083
-0.09
0.7050402423896034
0.27846074035597407
-0.26
0.28393260755344113
-0.18116990534423935
0.38
-0.21643674674634542
-0.21141070949483773
0.19
0.5638040574042513
-0.4411578169257942
-0.29
0.5835511648352083
-0.29902802029616543
0.15
0.7414213682055798
-0.1209313557877649
0.33
0.15332470369718007
-0.20738322347267404
0.01
-0.1802234286179109
0.2964653303193839
-0.49
0.07592801759003134
0.22833932313644362
-0.07
0.624054024772972
0.12019138500400428
-0.22
0.3922019629054106
0.16216971886985654
-0.28
0.0902236290395585
0.31118279159543777
-0.37
0.4812105563139769
-0.23319765708882687
-0.09
0.28559100499824175
-0.3188273105128788
-0.39
0.15122065842229412
0.19504617082530637
-0.5
0.6873471770841075
0.540310537436477
0.27
0.46208281047293753
0.04848488548179197
-0.23
0.463908462427623
0.4254165326734943
0.5
-0.2630231847640796
-0.00649933394137015
-0.44
-0.0511073181492146
-0.32108851713908443
0.11
0.3534818650484992
-0.0869989812667077
-0.15
0.4093923291761224
0.2240388673372009
-0.07
0.41835448057221386
-0.22285546897405945
-0.28
0.3552488168834743
-0.21355734347027772
0.39
-0.00404930862030718
0.28972987076341505
-0.29
0.09266347714599994
0.5506138136280692
0.02
0.7417795342813451
-0.10065663435364237
0.08
0.6130499822630564
0.5036549734971584
0.4
0.26873837441225595
-0.060065162320611744
-0.19
-0.10754148976997321
-0.00579878009629736
0.08
0.7481921280057127
0.050090603720323014
-0.12
0.35230274418909213
0.6061078084605117
-0.34
0.4362855394489024
0.07814195096094576
-0.16
-0.04574860305153059
0.11747635991294562
0.19
0.5249169879964688
-0.04447293543476772
0.19
0.586866283344181
0.05836078762334302
0.22
-0.02596743971392779
-0.08317298608160131
-0.29
0.19556633399101672
0.1915276874314822
0.15
-0.11913433952206708
0.5535655728612439
-0.3
0.4588277750481708
-0.09
-0.0018918438656190758
0.32283476540029593
-0.08879253326672139
-0.2815076366585033
0.22634175781792523
-0.9290681566405512
0.33
-0.13756858153477017
-0.39314366767624265
-0.05
-0.5234930704990799
-0.075346791728099
0.35
-0.6212899464472228
0.3741148261046703
0.41
-0.5807515642799925
-0.18807600299319766
0.39
-0.5385607351821253
-0.4349212621399606
-0.05
-0.1817154760353629
0.3416398926050844
-0.49
-0.6882766307804058
-0.460388286752408
-0.1
-0.1762484514229157
0.06544767345767538
-0.09
-0.8620844116329975
-0.9141839372476573
0.31
-0.5824528009276643
0.05077835084001049
0.13
-0.9974150890153327
-0.27834304970500895
-0.19
-0.5982936884703134
-0.6100631726970117
0.34
-0.30657356547831116
-0.09494573018383268
-0.1
-0.8116910079914896
-0.5899341598126808
-0.17
-0.6767025783626406
0.16943079145638726
-0.11
-0.5960675296317101
-0.4136570188610387
-0.2
-0.33297971931428466
-0.09177956797500948
0.32
-0.4448571702003135
0.030428543979814978
0.02
-0.8770652821551362
-0.5553775663291661
-0.16
-0.921259171846155
-0.05612278372588609
0.07
-0.4405139544494379
-0.3519727385902663
0.06
-0.43466399958505725
-0.03817538024914275
0.47
-0.20846135792618042
0.23913336381033495
-0.36
-0.5257701019856577
-0.12541414656620287
-0.43
-0.9312225916091198
-0.09525840120838949
-0.26
-0.5413783369669335
-0.11684668626605532
0.11
-0.7597900519092663
0.08695078458734411
0.07
-0.1635875227626673
0.2548882202850036
0.25
-0.901524958460325
-0.20513217849340748
0.22
-0.7515045596819148
0.06136270049341526
-0.03
-0.14799943866873827
-0.22007065846952792
-0.04
-0.6865660797057939
-0.690108096273858
-0.18
-0.22652864190146496
-0.12946286415815592
-0.42
-0.1971738740171672
-0.38060876807569377
0.39
-0.6260279700996285
-0.1990878151776712
0.23
-0.5675489229976513
-0.03869295038904806
-0.23
-0.25794378778627536
0.036864173045775196
0.03
-0.1635009112210983
-0.31413671597927667
-0.34
-0.21250002219604655
-0.40778033918878
-0.17
-0.47885639898654336
-0.5652538309859091
0.14
-0.261382907189414
0.0391282864175356
-0.08
-0.745765024592858
-0.42
-0.009065696172669438
-0.23395281995026915
0.19295922914847768
-0.11550170595756509
0.0653970976649782
-0.6288607966848642
-0.12
-0.2837467498148001
0.06579131319267131
0.23
-0.6683988596923368
0.22334017853200822
-0.34
-0.15594772503167367
0.2536382437550064
0.37
-0.356245790254671
-0.4051438210662776
-0.43
-0.7374637254333865
-0.29808337853097344
-0.44
-0.16452416796869193
0.27849770505417204
-0.48
-0.17110525155383757
-0.4327771905013796
0.41
-0.7698303559982841
-0.0059580438131991405
0.01
-0.6466495026864651
-0.720118463907984
0.17
-0.30248908259168006
0.22046806298282312
0.03
-0.5230756094824872
-0.01842024994398647
-0.03
-0.7641872965556792
-0.21714085937649538
0.24
-0.8054666871231695
0.16244672750474934
-0.49
-0.2950542740044141
-0.19814991759608713
0.19
-0.6644576289035776
-0.26614207424271186
0.46
-0.09646547225695355
-0.542794625730582
-0.15
-0.6598129207690822
-0.5628788862018465
0.13
-0.7097286602978177
-0.23350910658071358
-0.37
-0.7290984399189522
-0.4625312835363155
-0.18
-0.480076262963349
-0.041595501611397384
-0.06
0.0189879551117318
-0.5661660207456989
-0.18
-0.35644152575396526
-0.5517953788625047
-0.46
-0.8308121676371606
0.12198955712772466
-0.23
-0.41459710362738955
0.2781234068154404
0.41
0.13926904668489481
-0.6319078040245899
0.04
-0.010699742475075661
-0.4191923877474391
0.17
-0.06341515875222578
-0.38553463415407624
-0.13
-0.2570729123455887
-0.07524546672756735
0.28
-0.397362079772098
0.03762259512313015
-0.19
-0.680230141622794
-0.30650808979216027
-0.18
-0.41609945670750453
-0.5762540760250031
-0.47
0.1336465295253385
-0.2280626659316042
-0.21
-0.5845448805680609
-0.1130970211576727
-0.06
-0.08951052534199284
-0.4638242654906487
-0.36
-0.4887832810090157
-0.2383238624263853
0.28
0.03571631592671983
-0.2404787423086023
-0.5
-0.3521288041910628
0.07139739532660835
-0.41
-0.7840049418262729
0.03141817393775953
-0.17
-0.5040257204374243
-0.44816653914493426
-0.42
-0.7144410073547296
-0.5670847407914733
-0.03
-0.5955228057081913
-0.15202326585487233
0.09
0.02941571935520676
0.28
0.015423186901289687
-0.4213915846831024
-0.2690386692030079
-0.17513783276377784
0.335631036811199
-0.813005432483714
-0.42
-0.05610497834608308
0.06212932791857981
-0.05
-0.7012397387483777
-0.4729333756771001
0.26
-0.8961770351526961
-0.5856120121005713
-0.26
-0.5134983987292259
-0.1468922401111479
0.13
-0.7722181707186491
0.2901454192995509
0.14
-0.6992558301293474
-0.46355392048338295
0.03
-0.7955564903464133
-0.12297997407438
-0.32
-0.41613043675541744
-0.47036115381620197
0.14
-0.24874925701359493
-0.6235276290099006
-0.06
-0.19558278181989652
-0.14331180350115044
0.1
-0.275798607328646
0.21996217039409424
-0.11
-0.5590725812238924
-0.018365073682028984
-0.17
-0.2507453371477679
0.40402986745616526
-0.08
-0.6331402782859623
-0.38109522732466267
-0.01
-0.16801518350513447
0.07617116136091004
-0.36
-0.2952815721907073
-0.11666077519327833
-0.5
-0.3324496356365187
-0.5281959213517983
0.38
0.11908551052200106
0.20797119496409733
-0.31
-0.08708160579389461
-0.02767706057348691
0.33
-0.5714333502563107
-0.32978715878142983
-0.43
-0.48932325204836774
-0.4674632009343796
0.05
-0.8116472098954177
-0.6247988943746202
0.39
-0.21431151645517674
0.08172612827073866
-0.47
-1.0008365391005347
0.1743656939577487
-0.16
-0.1934761047875454
-0.5034539617038275
-0.11
-0.43565644912597
-0.14098303909624574
0.09
-0.7381273717335511
-0.25389855985746623
0.42
-0.8952118509723304
-0.3301995157103929
-0.41
-0.5589108951194048
0.10607424597585022
-0.19
-0.25518465680564706
-0.4109626104451796
-0.37
-0.06814780038461703
-0.7455737963814127
-0.5
0.01646338555161666
-0.3320403781164968
-0.11
-0.47707003271330084
0.07593226323145781
-0.45
-0.7250426740612546
-0.6988814357175795
-0.33
-0.08022897511221656
-0.33318261520816694
-0.06
-0.9059277956216295
-0.5921836348753564
-0.41
-0.18692677595443977
-0.36800297423152356
0.14
-0.30110743659827344
-0.3430572628651994
0.36
-0.6460531479645973
0.17486539017181438
0.34
-0.7639758010016111
-0.4571892022775697
-0.07
-0.39192120855222784
0.0008896819235673345
0.09
-0.5700000927533648
-0.48
-0.03820424392940421
0.0566205162460722
0.14988764789624648
0.22175825474479086
-0.37307195811049304
0.0755012902199554
0.4
-0.2167063442238234
-0.37366521250634765
-0.45
-0.7275398414975223
-0.2908689033137293
-0.09
-0.20033615069013874
-0.4024480210284063
-0.33
-0.2287570329754615
0.24390224691916088
-0.29
-0.6251073009230304
-0.5764246168331908
0.26
-0.6647804371706793
0.28543613152682273
-0.41
-0.17664118553069053
-0.24298104531714854
0.19
-0.8782240086867213
0.05154238884584816
-0.28
-0.19274744284971634
-0.5908422093897736
-0.36
0.009637155385904416
-0.4385216047989498
0.27
-0.5926834492049191
-0.4007126569261437
-0.33
-0.42049239707772484
0.006166015500364494
0.17
-0.5473710695042322
0.20348046460854446
-0.27
-0.8446855186124156
-0.4246229331061999
-0.12
-0.626582120897669
-0.26885263363164286
-0.1
-0.8723524203722276
0.23194970070173104
-0.14
-0.8631547547056019
0.18060707948507027
0.19
0.04818786651106128
-0.5925865717870238
0.48
-0.7886184822168473
-0.3111421418553694
-0.09
0.04993708785150072
-0.10852026750389007
-0.23
-0.1526847864999779
-0.11873632633722911
-0.11
-0.3724687276666389
-0.0313795284971355
-0.22
-0.18982552550673246
0.34719791774522984
0.46
-0.7984029717490999
0.12227640433225906
-0.33
-0.5134814583361279
-0.5068915084412232
0.48
-0.09431354556264554
-0.6261662406282652
-0.23
-0.3750388133756053
0.2657140194161951
0.38
-0.3069190734200631
-0.5509794315352209
0.43
-0.8202256224686489
-0.5859140116251714
-0.2
-0.6452910423786989
-0.43755524437590854
0.4
-0.11364980962796001
-0.36436666060289974
-0.18
-0.7768383934009702
0.034793966513360176
0.29
-0.4359990205172288
-0.12230300836484972
-0.17
0.12109795436098147
-0.5566261917450462
-0.19
-0.8445788622588247
-0.5800821418874688
0.05
0.06887708788359943
-0.4406816054575104
0.06
-0.12052344854635805
-0.4867671619746063
-0.22
-0.25443789202926215
0.2950839462019806
0.14
-0.826289000205851
-0.21989458884050994
-0.01
-0.7113104651633602
-0.5658089630531611
0.02
-0.7953960909507101
0.11569186150093744
-0.4
-0.7468969155048079
-0.48
0.11268220792813065
-0.6290059551058677
-0.5048145240717079
-0.41864724716235274
-0.4352829028973928
-0.37307212301875264
0.18
0.13090399499427974
-0.42355721564428883
0.44
-0.4586109123801841
-0.06591522121417999
0.39
-0.5662529068102934
-0.5663487679961026
0.43
-0.5458193600283715
-0.6330568671327428
0.21
-0.6791112608917309
-0.09964868203772224
-0.21
-0.4825194459867507
-0.38511742747799493
0.33
-0.45705070054647773
0.2200407005808048
-0.23
-0.1422088286052774
-0.5221207880136417
-0.44
-0.6700473400108323
-0.3355889954912438
-0.47
0.053420867466770924
0.2997482444922809
-0.31
-0.6319163725167538
-0.27991696001077543
0.37
-0.7022511680136975
0.008400984104938287
-0.24
-0.4505691121294104
0.03105611170077708
-0.08
-0.5332242397252509
-0.48432515146005967
-0.18
-0.677842976564413
-0.5099050275267099
0.1
-0.5522631004977641
-0.30933161528717834
-0.01
-0.9428365127372954
-0.7259949891137302
-0.48
-0.7561731389107437
-0.5450375709777551
0.12
-0.24713055704671738
0.21277788334208347
-0.33
-0.8149460113665584
-0.5931042870987137
-0.42
0.03093615907423969
-0.6587601247573499
0.18
-0.8134080032671243
-0.07856004412027096
-0.01
-0.06360808390420133
0.18007672570817326
0.4
-0.7022448537326477
-0.538148298371754
0.31
-0.5840198296527199
-0.5104470133644751
-0.14
-0.46172111465999865
-0.5988144981185656
0.37
-0.16335362990590804
-0.5098795589003813
0.33
-0.7822885691240923
-0.6094206150555154
-0.27
-0.2127475129689579
0.00731262244564146
0.35
-0.24948075047011425
-0.5532005492232377
0.49
-0.7289675788012364
-0.6511234501767733
-0.32
-0.021044677847699794
-0.05102450921113118
-0.41
0.048856381186658346
-0.08805591201658367
0.1
-0.15411221600788863
-0.5507092038242165
0.22
-0.03145892420025669
0.14641514298904984
0.36
-0.39858327101352226
0.10277036748065696
0.35
-0.41493849550512985
-0.2752223913550227
-0.19
-0.5769457366694515
-0.10259886604615148
0.22
-0.09956926197832083
0.1868742207047726
-0.05
-0.5490423487292461
-0.6567794455859017
-0.39
-0.39538868243857095
0.08250304595522422
0.43
-0.16467117397969688
0.4
-0.21037907635529268
-0.4769867735784557
-0.39099298323518195
-0.03264937793677369
-0.49239512839376176
0.4131898868630317
0.44
0.041110553485328265
-0.02875802135894887
0.12
0.34305846170730886
-0.2698305754605887
-0.08
-0.1558689841910517
-0.24672886600746194
0.43
-0.4189706936441786
0.6089974734550139
0.32
-0.5346970331066544
-0.04645009141770637
0.41
0.09075053176606605
0.004284557447329752
0.42
-0.4399841170989704
0.14575097683952462
-0.11
-0.17145053649116496
-0.1317278582227255
0.21
-0.28397170142891487
-0.2414808609998161
0.31
-0.11421869865182438
-0.3958943746560825
0.22
