0.48730000795198924
0.9532964059014455
-0.07117606501148256
-0.3159108449292173
0.6734582041197574
0.25187298964433796
0.1385121452324727
0.7488024067994572
-0.2378942031970547
0.19784798925327488
0.5103067241491467
0.46126563544657206
0.3101736439846717
1.0047225329325926
0.36452417192468767
0.08191544721598874
0.7023566156744656
0.005148285951497509
-0.2650085352887677
0.05181279945087256
-0.3473839153272218
0.05517185835975002
0.20846106522777028
0.40578742525443035
0.23063126514126972
0.09007966336880524
0.37870942032480515
0.5171644226010788
0.9219588467137116
0.18029707952013316
-0.10953254803995434
0.2752906381703961
-0.21633774129555355
0.2172139623586864
0.7202105056263918
0.31199588084982294
-0.11852445071486287
0.3480931061913175
-0.12014830663450442
0.5194003089583384
0.43446054607186874
0.005559493811744946
-0.16760240490671527
0.9111805029377212
0.20584225081094934
0.4028356364490416
0.9158109588750691
0.39077375351076893
0.5451460474746241
-0.022888270958964577
-0.2028374276807802
-0.3309295790154178
0.06586039925400332
0.05448952859629482
-0.23379971876681666
0.8083246851734972
0.454895382435265
-0.36707989105082706
0.16226597186556369
-0.3257657319727796
0.06818662430658573
0.14875378822654137
0.532479936308827
0.20183553639635052
0.36162030059383254
0.39596451184469494
-0.1397850836125209
-0.07982181786755799
0.07902725032203696
-0.26310627575431794
1.0865980698761097
0.17617926109716847
0.4625653500230194
0.45765361917032266
-0.2705479139744027
0.3733847446144063
0.6164542235717249
0.1998320870328078
0.2791037294502191
1.0971536443437138
-0.42658631857495455
-0.4711045886207144
1.043414806180072
0.22736083765959733
-0.4401954012307687
0.5389050313421581
0.40096142510756844
-0.3815286569282417
0.8124736706218023
0.3187260415253776
-0.36211282159981295
0.3176585777447502
0.19412529907402093
0.41848078520187926
0.283638291056917
-0.26244802103985654
-0.36143033438596545
0.6890469684894845
0.3620544211154196
0.2548589703835525
1.0567309740982354
-0.04191888926284771
-0.06093191656625784
0.344266354544661
-0.21366338275946312
0.2266495091361638
0.8792245501346955
0.333796995948096
0.22028470320462712
0.5941288113960036
0.035257540618326304
0.053594967527935376
0.52766640811372
0.09840967957730282
-0.18278726666324885
0.9607329098122867
0.4617254120698995
0.0451887302639176
0.9265929142204048
0.287889410734616
0.16835611375102255
0.5643540285109961
-0.3630390870430796
0.3115413522286333
0.6630911776965086
0.33503852529381456
-0.014164214777402293
0.34722268165353354
0.5666125883428265
-0.32986115853359005
0.577260414609852
0.022271799142694004
0.30330762275648593
0.15615587440423023
0.670207558058223
-0.12196403866995989
0.17593019847288063
0.24570489541603638
-0.17682882830351457
-0.08586414808051679
-0.438767455982233
0.36015461435137125
-0.6595835956389445
0.12796854905025415
0.16849283688485409
-0.5093641881703485
-0.4005890809517756
-0.4905985716145277
-0.3266712336720503
-0.15419062720801432
-0.43287699596137663
-0.06647196631878065
-0.09211147008611378
-0.454449939102135
-0.022672516324240923
0.2856620230601141
0.4475549556028071
0.04965019727760738
-0.4686655851177984
0.14437644102509886
-0.10507924012324152
-0.030757633268074767
0.2882141655220331
-0.7899502037207863
-0.22972439403857564
-0.5454961291981464
-0.9070564936335578
-0.29890780940645184
-0.43289404085036526
-0.6354646974123844
0.2168983060252722
-0.42940077965337253
-0.745064915479128
-0.07699473710522606
-0.3163022073429246
0.02588948083771892
0.24895229413900288
-0.5257462556643122
-0.45940853290592054
-0.43630564379600767
-0.5154156038485382
-0.3303467497804614
-0.29569807873731496
0.20948238656132862
-0.7386007778268643
-0.0823420409718025
0.2419681529161901
-0.790870574163137
0.23744198900965147
-0.1617298742349997
-0.7002074464775384
-0.12952311152479473
-0.3912111373038036
-0.12006678652036144
-0.26018250854197456
0.20504178223369282
-0.41411408650376186
-0.41238812809626574
-0.008638093585462716
-0.3235729460175235
-0.2192493927632804
-0.4886340512644387
-0.6567121756795695
-0.4061142052932753
0.2697836921234736
-0.5394979129098177
-0.3117462115799918
0.4097128109092816
0.11416890243374019
-0.11012900115944331
-0.37390452235368415
0.5315047078033373
0.3661525267339254
-0.11784487828212051
0.999195276646683
0.22240231381901615
0.2862624355374228
0.969069952925077
-0.24157967627892152
-0.42713949526902006
0.7504503567801177
0.4904418506724811
0.3809999090710285
0.884129403584747
0.2486233995278031
0.3506070493530199
0.7817739597366078
0.1113717030939512
-0.32808277550698317
0.7096010257316044
0.2522344619589581
-0.09582385842950027
0.6456827659366162
-0.1361061953235368
0.012317959188769627
0.7777222169308794
0.28371253606393
0.10410908856256396
0.3251761898252663
0.3544674337957492
0.23935789751993886
0.29960847784273936
0.08478633682090121
0.4687027035053792
0.6028913414912944
-0.11784133281309535
0.34623888537104947
0.19833416589351158
-0.030820339080982584
-0.15220139710208772
0.40834885202827625
0.1476052572573911
0.16721496968824193
0.8194066311001162
0.447131111395221
0.05972094350105843
0.47962313735704515
-0.25559136867452426
0.3631073287832825
0.8139222325899038
0.2467231508103918
0.06747124125161628
0.815706327583983
-0.19942485665201923
0.15713353658460436
0.8201717765897764
-0.10355260099080225
0.2142844833980292
0.30888707730451964
-0.25941884851896924
0.5261336151540452
0.10258620778893843
0.04503288924059426
0.5667163002113599
0.1204304378804087
0.5066059740918087
0.32013967215460826
1.0468220756176643
0.21339282571235668
0.45509878374279544
0.15574803869471376
-0.07049224895292752
0.06911840660570251
0.9163949944952621
0.37484117238361836
-0.15609572142759776
0.30885592490237973
0.3875943700098873
0.44672867595974824
0.8604436213033242
-0.10681772377844526
-0.21480822781728845
0.13518095947879613
0.43998184182311784
0.32435237257879984
0.43468336664162865
0.1813188342641528
0.4667144417179061
0.9440792048969425
0.20956092686977784
0.2685685062291554
0.23509297809027024
0.4566930891651553
0.015302665033754837
0.06565352405519967
-0.12060161560437213
0.3987442360362347
0.8851870822967068
0.25642325515164066
-0.4302468406413606
0.49883190053787685
0.32176951358806527
0.18384883454170214
0.5085315612806746
-0.3520258223377508
0.21094790538823888
0.8590611712582543
0.3903454968381335
-0.21066676091967876
0.16694274249508334
0.3840785919092205
-0.2665223467951047
0.46841307788258707
0.21846384239709896
-0.36107555124616886
0.43328515238767185
0.3681449723430785
0.33259685655585675
0.6172367577134596
0.48052095921526616
-0.04889988263456811
0.3725082416429708
-0.023253785523776934
-0.27955952658550526
0.5702667078547536
0.0896473922153793
-0.2379596326819506
0.4483574273705879
0.5099567787959882
0.4292587222268835
0.652617767370461
0.04847808388723799
0.5871458040102344
0.07570813317133303
-0.2524993636969409
-0.25722039211840353
0.7710046669125961
0.31496038191320735
-0.3598288773165135
0.5175531013575182
0.21102043255499034
0.308107725092726
1.1186610226049591
0.4119759088982664
-0.25199598074289664
0.44105318974978136
-0.2703125521886124
0.2481297484345262
0.6982968686591986
-0.13768196038631866
-0.2359690043947116
0.5918881626981354
-0.2871745015960258
-0.08888594038035345
0.8382519904208333
0.0893786065555717
0.16772034718898435
0.5156294484512508
0.015394861067123894
-0.37683587038903704
0.37869674001829123
0.4368837869667499
0.3946274533603586
0.2233878630184559
-0.1992706597820955
0.0751538496330638
0.14040729981622335
0.19318350714684593
0.28821841582773294
0.10066998404544766
0.2798562567231678
-0.0032197021994955595
0.21360996707906638
-0.14164560817222321
0.24920076798299245
0.3862206035049404
-0.21667671478055378
0.4814980152073197
0.37533331487678895
-0.19808667337666402
-0.128670599413645
0.37061038664142304
-0.20319513063176542
0.07468712924219124
0.07308348788945847
-0.05902596053567478
0.4419779276314499
0.9312854245453196
-0.19451869558076199
0.5606047200137672
0.697695716579282
-0.24955577988575633
0.22910804404112314
0.048223371330162246
0.5114132413361754
-0.24315944167758125
0.17590714577689173
0.35599695260809167
0.5636414636675072
0.4252952614214394
-0.0901920684929813
-0.0604065253586869
0.12478530840295023
-0.27563412633680023
-0.024385080151217108
0.5579978446157057
-0.2583889920885858
0.49492891751019524
0.542908681100804
-0.24261382623618524
0.42160205065764816
0.5913206759613417
0.23230104575582347
0.12752126495822091
1.0376305761704707
0.23007193124829212
-0.43594105061697896
0.2566398987895658
0.124524924203314
-0.0846859999568773
0.5049187517012296
-0.2050089793684506
0.18780993998595014
0.9703059727059157
0.35710785968294795
-0.33046945035976716
0.23946342957764696
-0.02377020684197924
-0.31402109619539126
0.7865065307290221
0.49273833784118226
0.098885851430735
0.857502182561457
0.3788357383826281
-0.14814917150816181
0.6160738872630216
0.047299056619955517
0.26619276460514685
0.6923098443510043
-0.08327883658133362
0.39129955726772825
0.19988415848345426
-0.09595994337528219
0.0939592719093345
0.3310546961048236
-0.2197901956382568
-0.3189252381633498
0.7110745296646196
0.21307448087463288
0.14609092511448937
0.36414941351416424
-0.20501656625384007
0.13674611595823039
0.6271435292690676
0.2313341271475142
-0.2703266094649497
0.19297025452127267
0.32258012731848973
0.5850567414780701
0.18783720938194126
-0.05767017848411178
-0.2868552359899926
0.1895022325953593
0.012576775770534647
-0.29008356670324104
0.09325137494070902
0.5520559641384332
-0.13490107435712684
0.028167789993202248
0.22195705673873703
0.39323416605821715
0.7277313492336216
-0.15574174291593806