0.4873000079590634
0.9533317418291134
-0.07117606501147855
-0.31591084492214005
0.6734935400474255
0.25187298965141286
0.1385121452395504
0.7488377427271252
-0.23789420318997762
0.1978479892532825
0.5103420600768144
0.4612656354466028
0.3101736439846725
1.0047578688602605
0.3645241719317647
0.08191544721598991
0.7023919516021334
0.005148285958574858
-0.2650085352816914
0.0518481353785404
-0.3473839153201494
0.05517185835975433
0.20849640115543688
0.40578742526150813
0.23063126514834453
0.09011499929647297
0.37870942033188215
0.5171644226081097
0.9219941826413797
0.18029707952720836
-0.109532548032888
0.27532597409806386
-0.21633774128847624
0.21721396236574128
0.720245841554059
0.3119958808568985
-0.11852445070778575
0.3481284421189854
-0.1201483066344999
0.5194003089654163
0.43449588199953587
0.005559493811747462
-0.16760240490671424
0.9112158388653891
0.20584225081802374
0.4028356364561154
0.9158462948027372
0.3907737535178461
0.5451460474817017
-0.02285293503129714
-0.20283742767370375
-0.3309295790083418
0.06589573518167101
0.054489528603370425
-0.23379971875973946
0.8083600211011652
0.4548953824352728
-0.36707989105082567
0.1623013077932316
-0.32576573196570663
0.06818662430658781
0.14878912415420803
0.5324799363159042
0.20183553640342844
0.36165563652149996
0.39596451185177167
-0.13974974768485376
-0.07982181786048385
0.07902725032203783
0.03477269961854813
0.2080299806209111
-0.13334699546275963
0.3976076947762287
0.10525329915795191
0.1665946908425187
0.0058742950129009285
0.5618715849750541
-0.008290195211256167
0.08491854700408936
0.18320078791947533
0.16133634985313483
-0.04014168629376015
-0.10018267841611021
-0.17021995051342953
0.0024138920136425124
0.6168682616257658
0.24017353113729087
0.015365808407531918
0.5927248686774078
0.07136500769175942
0.27309731059401593
-0.1676535686968003
0.09401194287948447
-0.0880518531707696
0.6190490402172109
0.03845849773025835
0.31202046281189016
-0.11051936021329914
0.027954582178108818
0.23456093994594124
0.6205356071566072
-0.25564086232584915
0.02103181221981356
0.5721831821602122
0.34624069039667255
0.529023483711246
0.15689430503970545
0.1535378960257475
0.5096855698016878
0.26567840376831675
0.15409171120669568
-0.022148514778171147
-0.16038121576599412
0.33198541532086484
0.6443391238923445
0.1278113330534124
0.6473052278309407
0.3800354124269077
0.19377065741161187
0.22564961493818003
0.5711862880851785
0.18544813509745708
0.7028212615940627
-0.24483521990089177
0.31
0.8742909046775913
0.25
0.019379921494562243
0.31904137938518357
0.2521238585285253
-0.0021883012568353604
-0.2676561539220747
-0.2631062757542999
1.086621099068971
0.17617926109716847
0.46256535002303745
0.45767664836318417
-0.27054791397438466
0.37338474461442434
0.6164772527645864
0.19983208703282587
0.2791037294502191
1.097176673536575
-0.4265863185749545
-0.4711045886207144
1.0434378353729334
0.2273608376596154
-0.4401954012307687
0.5389280605350196
0.4009614251075865
-0.3815286569282237
0.8124966998146639
0.31872604152539563
-0.36211282159981295
0.3176816069376117
0.194125299074039
0.4184807852018973
0.2836613202497785
-0.2624480210398385
-0.3614303343859475
0.6890699976823461
0.3620544211154376
0.2548589703835705
1.0567540032910967
-0.04191888926282965
-0.06093191656623984
0.3442893837375225
-0.21366338275944505
0.22664950913618187
0.879247579327557
0.333796995948096
0.2202847032046452
0.5941518405888652
0.03525754061832631
0.053594967527935376
0.5276894373065816
0.09840967957732087
-0.1827872666632308
0.9607559390051482
0.4617254120699175
0.04518873026393566
0.9266159434132664
0.28788941073463403
0.16835611375104062
0.5643770577038577
-0.36303908704306154
0.3115413522286513
0.6631142068893702
0.33503852529381456
-0.01416421477740229
0.34724571084639505
0.5666125883428446
-0.32986115853359005
0.5772834438027136
0.022271799142712063
0.30330762275650397
0.15617890359709174
0.6702075580582411
-0.12194100947709838
0.17593019847289867
0.24570489541603638
0.20297372313183196
0.8061181771404513
0.23060218413955225
0.6940422879057285
0.141708425446029
0.23394337106007967
0.39362951459128376
0.5845937544897544
0.5614708153307982
0.0018478952502005259
0.5949536054375579
0.47289258372407583
-0.03742940668839836
-0.1646916139398465
0.6718151050400827
-0.08876283956454913
-0.015251411813023459
-0.14629166421059034
0.6198904151601868
0.7261101490862601
-0.22630647983461133
0.006748828087320134
0.010011212967127382
0.3229340433573894
0.32862542869828654
0.5205350623224175
-0.0594664066088662
0.21021124861176727
0.4996734175154657
0.769809418284605
0.5119379384540008
0.15098828335531306
-0.0032321373974768344
-0.05640656678782248
0.40987343088007744
0.006227220319581987
0.30933178742135214
0.325115713664213
0.7452465833262722
0.1689039333434301
0.09876616655797894
0.3720239845104276
0.011789104334332083
0.10582911729674992
0.5620758627807539
0.13011986292378933
-0.006407522564190885
0.23598174405223835
0.2227769276929127
0.6753264901113906
0.5815906666075312
0.4450854100255117
0.059397494142091875
0.5752111802442348
0.4205049066448477
-0.25
0.19918917776698955
-0.25
0.18601495455391137
0.7971288008042082
-0.15849366635595577
0.6384740213580988
-0.19500729552266022
-0.17682882843246364
-0.08587645447257007
-0.43876745598230604
0.3601546142223667
-0.6595959020309983
0.12796854892129242
0.1684928367558408
-0.5093764945624029
-0.4005890810807778
-0.49059857161466663
-0.32668354006409883
-0.15419062720857446
-0.4328769959613917
-0.06648427271083365
-0.09211147021511447
-0.45444993910215614
-0.022684822716291096
0.28566202293110743
0.4475549554738192
0.049637890885555896
-0.46866558524671487
0.14437644102502026
-0.10509154651527103
-0.03075763339708911
0.2882141653930725
-0.7899625101128359
-0.22972439416757648
-0.5454961293263076
-0.9070688000256126
-0.2989078095354193
-0.4328940409791712
-0.6354770038044342
0.2168983058962662
-0.42940077978196994
-0.7450772218711685
-0.07699473723420058
-0.3163022074719271
0.025877174445666846
0.24895229413892048
-0.525746255793328
-0.45942083929795874
-0.4363056437960535
-0.515415603848557
-0.3303590561725144
-0.29569807886626764
0.20948238643238554
-0.7386130842189186
-0.0823420411008057
0.2419681527871804
-0.7908828805551812
0.2374419888806609
-0.1617298743639822
-0.7002197528695873
-0.12952311165376962
-0.39121113743280767
-0.12007909291241622
-0.2601825085421161
0.2050417822336673
-0.4141263928958149
-0.4123881282251924
-0.008638093585500545
-0.3235852524095538
-0.21924939289228576
-0.4886340513934556
-0.6567244820716126
-0.4061142054222707
0.2697713857314345
-0.5394979130387659
-0.31174621158000776
0.08710169780254447
-0.6361485164428066
0.23757407975292247
-0.5186305582494212
-0.5789957197305724
0.1661535390926531
0.09044421628425797
-0.21502845679404656
0.12311150162244888
-0.14999999815724574
-0.5324354303178241
-0.38903731041226985
-0.09477830269946497
-0.3479298026722652
-0.038764633515610034
0.1760298422241029
-0.5602169893390913
-0.2872855917723521
-0.44354852293723335
-0.4458618232833033
-0.5220623926668034
-0.5819113712744513
-0.44693439334572993
-0.2726269742671583
-0.0008118876228522269
-0.2112990065503979
0.09063815528591053
-0.20178095345321626
-0.26336412452097807
0.14367233908685428
0.29926283604906073
-0.1691720585796335
-0.23156351635676692
-0.5517298976533216
-0.1274980135413075
-0.31224482769270984
-0.1643895843627534
0.2147660110992342
-0.061849165623820326
0.17810843768826293
0.4117511248867085
-0.40133230146231125
0.07518832708522548
-0.2635065668884548
-0.7031544990841088
-0.3525955180427854
0.1537098450436188
0.36741293411182685
-0.05351569880857639
-0.14153973572723283
-0.08641730435153029
-0.03956176230746727
-0.07074796759032367
-0.6011630089895481
0.1780052774237805
-0.19
-0.7594780163111206
0.01
-0.48551928334231476
0.15957212557868033
-0.371299941366767
-0.05622007991757794
-0.06455898581573785
0.4097128109092816
0.114181618093174
-0.11012900115944331
-0.37390452235368415
0.5315174234627711
0.3661525267339254
-0.11784487828212051
0.9992079923061168
0.22240231381901615
0.2862624355374228
0.9690826685845109
-0.24157967627892152
-0.42713949526902006
0.7504630724395516
0.4904418506724811
0.3809999090710285
0.8841421192441808
0.2486233995278031
0.3506070493530199
0.7817866753960416
0.1113717030939512
-0.32808277550698317
0.7096137413910383
0.2522344619589581
-0.09582385842950027
0.6456954815960501
-0.1361061953235368
0.012317959188769627
0.7777349325903132
0.28371253606393
0.10410908856256396
0.3251889054847001
0.3544674337957492
0.23935789751993886
0.29962119350217314
0.08478633682090121
0.4687027035053792
0.6029040571507283
-0.11784133281309535
0.34623888537104947
0.1983468815529454
-0.030820339080982584
-0.15220139710208772
0.40836156768771004
0.1476052572573911
0.16721496968824193
0.8194193467595501
0.447131111395221
0.05972094350105843
0.47963585301647893
-0.25559136867452426
0.3631073287832825
0.8139349482493377
0.2467231508103918
0.06747124125161628
0.8157190432434168
-0.19942485665201923
0.15713353658460436
0.8201844922492102
-0.10355260099080225
0.2142844833980292
0.3088997929639534
-0.25941884851896924
0.5261336151540452
0.10259892344837224
0.04503288924059426
0.5667290158707937
0.1204304378804087
0.5066059740918087
-0.22839342921714936
0.2546216011221452
0.30753725593801673
0.22684070302977616
0.134070577393312
0.0728541474199243
0.6599762555736711
0.11865994239133311
0.34512922987800715
0.4127415030932767
-0.04402120979086625
0.6450451345406019
0.13595056510229925
0.0060143972706769465
-0.15819953452996405
-0.11464136268103757
0.21624279221764486
0.6621639983064048
-0.21749918570285665
0.1995533212750733
-0.06828870772920397
0.21947738353922858
0.18568960930428774
0.12859843499949583
-0.272092240778227
0.006067428868221062
-0.09020976024698153
-0.17024623888845927
0.57378924723736
-0.04977758050588704
0.5395018349446506
0.5578065678050469
-0.32354297490668416
0.3561583823436561
0.5016655375200234
0.19594150797933296
0.08100461293241264
0.644379156290679
0.00838165861992028
-0.20691715937774074
0.05683268272563382
0.043849904495119545
-0.22434160731084773
0.1082603985329683
0.029846636620891973
0.16355667147063369
0.47526638318960845
0.034942373182770714
-0.02432096729363503
0.41855827925725536
0.5595281158793914
0.23762993128151932
-0.007019923778371389
-0.03684457966013573
0.5401446938514756
-0.28
0.6536207339915369
0.23
0.4514856070283757
0.46872493005363225
-0.1426994910626261
0.6250891702788169
-0.14620084830601848
0.32013967215465244
1.0468327480446706
0.2133928257123567
0.45509878374283963
0.15575871112172018
-0.07049224895288335
0.06911840660574671
0.9164056669222684
0.37484117238366255
-0.1560957214275977
0.30886659732938615
0.38759437000988745
0.44672867595974824
0.8604542937303306
-0.10681772377840107
-0.21480822781728845
0.13519163190580255
0.439981841823162
0.32435237257884403
0.4346940390686351
0.18131883426419695
0.4667144417179061
0.9440898773239489
0.20956092686982203
0.2685685062291996
0.23510365051727666
0.45669308916519946
0.015302665033798743
0.0656641964822061
-0.12060161560432794
0.39874423603627884
0.8851977547237132
0.25642325515168485
-0.4302468406413165
0.49884257296488327
0.32176951358810946
0.18384883454174633
0.5085422337076809
-0.35202582233775076
0.21094790538828306
0.8590718436852607
0.3903454968381335
-0.21066676091967876
0.16695341492208976
0.3840785919092647
-0.26652234679506054
0.4684237503095935
0.21846384239714314
-0.36107555124612467
0.43329582481467827
0.3681449723431227
0.33259685655590093
0.617247430140466
0.48052095921531035
-0.04889988263452392
0.3725189140699772
-0.023253785523776885
-0.27955952658550526
0.57027738028176
0.08964739221542348
-0.2379596326819506
0.44836809979759434
0.5099567787960324
0.4292587222269277
0.6526284397974673
0.04847808388728218
0.5871564764372408
0.0757081331713772
-0.2524993636969409
0.3556648252771861
0.8995157121955882
0.33518470843890197
0.38505220366447596
0.7233046934036229
0.22200834884357787
-0.2458341581332995
0.7862955629442425
0.10990384110073399
0.05774139759820275
0.47176396962537576
-0.14914012131190216
0.45188882795787544
-0.059307467595024296
0.18778388554882453
0.19231523450584437
0.7441619099739741
0.3138881014318575
-0.26632593116170644
0.30718873934523894
0.26950243772814386
0.1211572441917451
0.6217147304352385
0.5574932712846931
0.3663658760125865
0.562819363827695
0.13118000607139543
0.4874922893648852
0.4545078443438435
-0.03163488779705244
-0.2197893519260358
0.6406174511564476
0.5995371466812658
0.7218125744479406
0.34475432567088216
0.44379834579285476
-0.10184330214313778
0.10417621080476375
0.7380323372500505
0.3059667912487235
0.13311848913180044
0.16127996553115193
0.06454464105838097
0.043419768958532286
0.8924008358947638
-0.2669794145046466
-0.07486120349504374
-0.2077941360886333
0.5123857995257637
-0.2589898436534185
0.7169692900393315
0.07980023724953741
-0.23554936382257996
0.5061143724847185
0.5589356434530011
-0.26
0.15142960245867526
-0.26
0.7274140956225391
-0.09902397772940855
0.6500665751526484
0.5927479255703184
0.39634235292565834
-0.25722039200699515
0.7710267127106016
0.31496038191327047
-0.3598288772050572
0.5175751471555241
0.21102043266640963
0.30810772520418983
1.1186830684029654
0.41197590900972064
-0.2519959807427766
0.4410752355477827
-0.27031255218812844
0.2481297484345392
0.698318914457204
-0.1376819602748657
-0.23596900439469334
0.5919102084961383
-0.2871745014845677
-0.08888594026891154
0.8382740362188373
0.0893786066669519
0.16772034718905224
0.5156514942492358
0.015394861178588643
-0.3768358702776187
0.37871878581629353
0.43688378707820297
0.39462745347108624
0.22340990881646267
-0.19927065967067126
0.07515384974434852
0.14042934561422576
0.19318350725830347
0.2882184159388375
0.10069202984344214
0.27985625683459814
-0.0032197020880410207
0.21363201287707081
-0.14164560817215202
0.24920076809445849
0.38624264930293284
-0.21667671478051415
0.48149801520733587
0.37535536067479414
-0.19808667326525256
-0.12867059930224184
0.3706324324394294
-0.2031951305203103
0.07468712935365199
0.07310553368745612
-0.05902596042423058
0.44197792774288713
0.9313074703433213
-0.19451869546933134
0.560604720125223
0.6977177623772888
-0.24955577988563402
0.22910804404114518
0.04824541712816752
0.5114132414475644
-0.24315944167754855
0.17592919157487735
0.3559969527195486
0.5636414637789742
0.42531730721943606
-0.09019206838153292
-0.060384479560693705
0.12478530851435778
-0.27563412633678647
-0.2109612616963175
0.4654277744473592
0.08430018986583551
-0.38162772158273295
0.8728124881943564
0.06758193600525376
-0.22683120651688293
0.6303260656495987
0.20527184348416197
0.3360848070193396
-0.07247273049716493
-0.25484537390529705
-0.05068204769399944
0.4907444083024515
0.7687043420084259
-0.2894302846284038
0.6227959722926234
0.3954010149526578
0.017274570977416807
-0.042054889815113405
0.42354702145457407
0.38625813887498517
0.13504761990177022
0.0374609438401225
0.07935412554113289
0.4730243208922947
0.1863882561834498
0.3483192377121521
-0.021804531164483932
0.3422519960692088
0.1092571874227211
0.3197616903520496
0.30974782484210706
0.245278755191093
-0.32386187167911185
0.5473498191048972
0.06900065666639846
0.27602780595535303
0.29373823999512644
0.4279258058320804
-0.1925026377313374
0.6833435345161353
0.19877704446958466
-0.04130183285359409
0.16129149100088694
-0.05831430138915712
0.23462381279913447
-0.05754280879309929
0.6951475980095037
-0.07907033340161683
-0.047310561991009296
0.4205496428952766
-0.19238704668411793
0.0006041064057185285
0.3312456265264959
-0.27
0.43752107609038154
-0.28
0.25675775741546225
0.5672381707228736
-0.15068020816264902
-0.049775387469623227
0.39642634549863837
-0.024385080150128906
0.5580103036592053
-0.2583889920885852
0.49492891751128393
0.5429211401443037
-0.24261382623509695
0.4216020506587369
0.5913331350048414
0.23230104575691213
0.12752126495822208
1.0376430352139703
0.23007193124829683
-0.43594105061697885
0.2566523578330655
0.12452492420440264
-0.08468599995687712
0.5049312107447292
-0.20500897936736193
0.18780993998703865
0.9703184317494153
0.35710785968403586
-0.3304694503597665
0.23947588862114647
-0.023770206840890484
-0.31402109619430296
0.7865189897725218
0.4927383378422709
0.09888585143181655
0.8575146416049567
0.3788357383837164
-0.14814917150707482
0.6160863463065213
0.0472990566210442
0.2661927646062321
0.6923223033945038
-0.0832788365802452
0.3912995572688169
0.19989661752695395
-0.09595994337528149
0.09395927191042326
0.33106715514832313
-0.2197901956382564
-0.3189252381633496
0.7110869887081193
0.21307448087572112
0.14609092511557753
0.36416187255766397
-0.20501656625275141
0.1367461159593191
0.6271559883125671
0.23133412714860274
-0.2703266094638612
0.19298271356477234
0.32258012731957814
0.5850567414791588
0.18784966842544099
-0.05767017848411059
-0.28685523598999235
0.189514691638859
0.01257677577162266
-0.2900835667032407
0.09326383398420852
0.5520559641395218
-0.13490107435603807
0.028180249036701858
0.22195705673982563
0.39324662510171676
0.7277313492347098
-0.15574174291593793
0.5136718135513972
0.7174129884932017
-0.1858485706241092
-0.31628446584559733
0.18956697453969265
0.5219537227263937
-0.039660783565090126
0.5026392775550543
0.07225773743052614
-0.10665704503834629
0.35596712517575274
-0.18407384871691562
0.4451722518824501
0.47886441316339534
0.11119956637464427
0.457592073202154
0.017854739046054034
0.22978941917228143
0.27668242115051556
0.6638849540079749
-0.17533114373800135
0.4046114553674657
-0.04635990220287152
-0.14301532174410458
0.2310252628697856
0.503767632357333
0.5104433361933712
0.5556194644597265
0.17554932762451542
0.6640674393362472
0.41433595510597704
0.6519563586580782
0.4689439176564355
0.5091506777319282
-0.2971358563832011
0.033221410071763
0.03503383851622083
0.7783975731191517
0.8018048197851184
-0.3536920694941367
0.19420480236672147
0.7647234985479056
0.26225226791872597
0.4993469010400724
0.5836370624616907
0.25268192794401323
0.28125635853639686
0.18129794494008028
0.03462101985675971
-0.01591350533938076
0.6265287169031113
0.12063621687142427
0.647174799047251
0.09742521550181464
0.6234270726115908
0.28
0.44180915880890087
0.2
0.7264915557920432
0.43978480712529966
0.44174512205349836
0.5201417763934882
-0.25246000386130285
0.3096204782144975
0.7919448568059243
-0.24509726601523504
0.38624934473291367
0.25548875386681247
-0.2752700295945402
-0.23304253434294256
0.6920814286202653
-0.13257082527213535
0.2527856747790735
1.0999314859141003
0.10375090831201268
0.4637297185123778
0.46110908420793567
-0.33837073371512677
0.46678566542160327
0.5695369655619172
0.3301454380216674
-0.4447336298777114
0.4282182859137173
-0.337016587030819
0.39465613408260886
0.6389630500897484
-0.03715111516717025
0.5538765214030302
0.8159343474725267
-0.0033427998703696943
0.13514476195346334
1.0517611433135623
-0.430437836261839
-0.009528344557843309
0.2566661125775331
-0.38066969901450415
0.4954580122509453
0.15342530276348565
-0.1124152460092452
0.05014744973460836
0.3534723105761958
0.46284830869438315
0.4313556644503142
0.4536188690654137
0.09149353548945885
0.20281464643145442
0.512171933761039
0.49148148881269316
0.37946580986185563
0.728158244675827
-0.13115598553249583
-0.27087967516309247
0.47113224360917666
-0.2437844994408974
0.5538024440481494
0.31701348400764945
0.15565214094938698
0.3576712622502073
0.660276364346699
0.13852044240828043
-0.27036801285503564
0.8660385112985794
0.2907975705616432
-0.2880784333323772
0.5996827551877564
-0.2451362528501911
-0.32442537478497485
0.10094732584752804
-0.21005388205736727
-0.036875539999271914
0.8276398605461036
0.31570374845835597
0.36696780248743144
0.7568499174508255
0.3726503490669307
0.12356243841333386
0.40698486626895714
0.3059207643228957
0.40293007223265775
0.2201540635497286
0.043383933222799376
-0.1307179120272307
0.8178560048450753
0.2893299761873421
0.6353833389208448
0.32205110478233995
0.17903362530200176
0.42703580959073445
0.7109466287297189
0.48848563068473405
0.33402281635372383
0.24907825526300528
-0.06663300261154305
0.39407346659538683
0.4065529534569394
0.34584164895286057
0.3011940509932831
0.4778563283555576
0.6474176896563455
0.12120827741048823
-0.2038255142589498
0.6690853058536484
0.28632907506216526
-0.15030360616494756
0.26044260010796927
0.29666676762322614
-0.11430853903411807
0.6941098404160791
0.3851628581568946
-0.061645427981093154
0.18295063882938445
0.6616672332990297
0.5629532019383883
0.9418476337677697
0.3996189505254074
0.5809605633794281
0.31588855510035246
0.7479827714338576
0.6465924503765792
0.5918928471947504
0.5034617408994093
-0.09020422580791795
0.4632105539136957
0.16355526801908327
0.3982339567806728
0.43467884420543057
0.4258606944229055
0.22
0.5706073745822822
-0.48
0.15858405780095872
0.3839971933232269
0.23154768659298156
0.4342524033388104
0.2815505716310415
0.07076266958350692
0.9584613963362476
-0.3653803551164718
-0.3684833521664178
0.7159179118289196
0.39640915114078074
0.3374648049368932
0.2892452988724633
-0.2828663930060734
-0.19433128587359538
0.749308011069259
-0.23113301439238113
0.3653064977547569
0.27459165925227713
0.3539455537962494
0.052619163476201054
0.9691368644210261
-0.2679123170939449
-0.24355491301365373
0.7549979862274103
0.032400637589525424
-0.04021491533033911
0.2330274601115035
-0.06896883397788126
-0.27204235888315104
0.5356438955879703
0.3702421740984638
-0.3059169823653977
0.6408700948507088
-0.2011094016820283
0.11295319929312628
0.5308127088214729
0.3600778026886836
0.5232903358892637
0.8648055994634537
0.05574777545056544
-0.35376244792864237
0.6570927567091562
0.2705134020227693
-0.1130882683155705
0.5755443039547115
-0.2686123248358596
-0.3310035455287616
0.4643028953210225
0.43054436101102267
0.011416242026777407
0.1420304585443781
-0.07960298976787211
-0.20613061705317037
0.9054044821888696
-0.15543015433241625
-0.2824713543594541
0.4952686104541071
0.40104645470863043
-0.02042143758533362
0.7478193606550638
0.3464457877335527
-0.014515734734757202
0.7615826653708481
0.2667767801671922
-0.1724194502369629
0.7616542580466541
-0.1553910970064088
-0.24786178430681202
-0.03135701562731398
0.41306251073740996
-0.24398121760770353
-0.03373127926892823
0.2615562076799152
0.161810787869941
0.16441733802101058
0.6476155849123312
0.4519439354586754
0.3851208606322445
0.35677891471236356
0.2133988084407944
0.7121799949419491
0.2082649074205401
0.2735783101977635
0.35805366893529555
0.45221173167022455
0.5359489068857436
0.24817095821019602
0.7597238457073441
0.49641161713939724
-0.1730011165746973
0.09043321023858365
0.4150635867296172
0.08241970351291802
0.3263604205607487
0.09848098883309155
0.4075224409074278
0.3878402810627645
-0.2757299140257598
0.1933868333385976
-0.023813208509554477
0.5011948940185327
0.05677449529106372
0.5358743214936874
-0.11237036437978536
0.11400660816901831
-0.2377925329859493
-0.05156993230332206
0.056653612172822734
0.2887600309337827
0.13519359922407265
0.38904584187871677
0.21960426970049374
-0.17835367074646544
0.3870765292915687
0.32512085225818044
-0.11058298483740447
0.39204087540460775
0.4823858202360804
0.13478306976397447
0.04561151354042192
0.5634491274988866
-0.12468968851502497
-0.30714703879371147
-0.18431956188798013
0.5122850181732442
-0.029246306867934915
0.5108049994979744
0.5506272582680188
0.29
0.37321645253526453
-0.04
0.4147492928082826
0.4043396755066394
-0.018163453143186237
0.2876901612987857
-0.3982036654858248
-0.4860822652325772
-0.5304412518115101
0.08793294676982955
-0.28861495925332803
-0.0229449757633162
0.45296936474238525
0.0984868910920773
-0.4913272353443249
0.004249773977989069
-0.22705906287675684
-0.49964903660424137
0.13811752920673953
-0.17252001729713343
-0.35669457559759826
-0.22937597737952706
0.2911650071895508
-0.1719115062208863
0.3121559287570771
-0.10245834936153483
-0.6291341053613491
-0.25699811555137436
-0.47293210292282756
-0.29153108414042567
0.27587261678899444
0.332611242701009
0.035569314077194734
-0.39677112705246276
-0.14951320382985658
0.08115272113377589
-0.1602300875781777
-0.13908766127924788
-0.636513543422178
-0.28298936557283144
-0.16145243359488573
-0.24962604807096353
-0.007512088608409121
-0.0755894497844069
-0.6038483787720094
-0.12915274171784152
-0.10861753831275982
0.17480272131108987
-0.004775753272588403
-0.32789236366511476
-0.8373117058365223
0.1066134992273802
-0.4607056954161667
0.10043432039974926
-0.16831919525784106
-0.10429734837818538
-0.7686789079699291
-0.09561431392614239
-0.12334452633917059
-0.16162776591114236
0.43638172197605435
-0.13619870205042103
-0.4414230171734699
0.11903114894963242
-0.18421812784349448
-0.6932944666376335
0.3189220242068705
-0.5158196033768172
-0.653502393698697
-0.3592685731987442
0.3812645964234325
0.09876951811491635
-0.25862468481260736
0.15978556406625377
-0.4571912265719603
-0.5011849077685526
-0.20274821434683826
-0.16075186042067915
0.3849095044932589
0.1493653862067893
-0.6449471644606193
0.026991207979572558
-0.5509773185251011
-0.5492727792807066
-0.1683404724684491
0.34545525109361186
-0.23840033123980134
0.20435450987193113
-0.4668217961055608
-0.4861273039161563
-0.40564147025254194
0.2201703244832534
-0.0750283780728713
-0.5237325166846399
-0.32520509533589564
-0.07078191801066255
0.29739644307229984
0.14762501951624685
-0.5515621398900309
-0.4346534499004731
-0.4230805138745922
-0.14717259165302166
0.03166253525335494
-0.3754053757353145
-0.2748425304706285
-0.13834266406831594
0.15007489584869155
-0.46134049187754356
-0.3073249742454072
-0.1456514043239541
0.077033092804319
-0.2199722587546231
0.3405974220557061
-0.5803627759349635
0.11117478360499859
0.26323938817637443
-0.3134199129889491
-0.2584100454616837
0.13748717364482657
-0.06541328076396179
0.19933553684487654
0.20748264551662668
-0.2448104783398492
0.05873726254896412
-0.2672187348108741
-0.03793132074141319
-0.5134405147219698
-0.11519082615029594
-0.5124776683365307
0.13907792421256868
-0.025448576880883436
-0.24
-0.7531419933933747
-0.31
-0.22847008289744294
-0.5390798699491942
-0.6786984710476281
-0.5771043402959688
-0.4506926268459654
0.06330704231813247
0.5487325776010955
-0.3905295305246265
-0.3271146843698116
0.3524748949400891
0.5161498788243227
0.09153205267956982
0.8255704925427816
-0.4255924558277525
0.5094071662999009
1.0670519316297065
-0.4749490085350064
-0.2824647955285252
0.7553452688980121
0.24862961602511258
0.4410267786531938
1.001055025875347
0.3994282848660591
0.3937699018775234
1.1285857303796547
0.4391544571374212
-0.340718203516697
1.1856096073141669
-0.1633813144028716
-0.35687197923941916
1.2125755641577052
-0.034193495523687556
-0.24481380448664883
1.0296251389225888
-0.20330124504134195
0.1686767515718778
1.0969839404452555
0.375849397377466
0.41750909088232785
1.0003366322586402
0.29366436625363046
-0.08798657178205972
0.5298247991480963
-0.3803281379714359
-0.2819303030750985
0.5830887236570552
-0.2096483311873562
0.5251255508174644
0.22892883257352795
0.3374557060036069
-0.18470300370923295
0.33268522338765844
0.5835278697161743
0.3560182287105618
0.18712796681034966
0.47836389387368755
0.3089121548424357
0.34575928151267243
-0.42316134696050867
0.27263636216281834
0.3317513363768212
-0.012877609145039565
-0.34468988582548843
0.7469868266129244
-0.12078685139283651
-0.05442363209431863
0.5650993401388947
0.560834381350024
-0.08353986902939842
0.3161413666038232
0.35890859182017537
0.2874287608633502
0.14465050409928873
0.07943082443196053
-0.33783557623082744
-0.0180592716443214
0.2974049372697491
-0.2952078764024403
0.5201314610229306
-0.1634134952258888
0.2549551028315498
0.1135613037370737
0.2929936828259762
0.23679750914899544
0.5784030926726966
0.22630948757290778
0.6179961054994428
-0.17192048398200874
0.21543446787716472
0.6086749417000197
-0.028983269438951714
0.45181841713353166
0.46761700672319373
0.10762975336485156
0.6062633293065554
0.07484393631913011
0.6431169091693647
0.3735492439061054
0.03382318512939093
0.2249076127061717
-0.21722070844096308
0.03329586816088842
0.1664414208098274
0.7817728004238845
0.28759066458002425
-0.13047191079072443
0.5443913356053004
0.05836740654887249
0.4264448138080614
0.1666978690376655
-0.08234036040263652
0.600226338587226
0.47362411121000975
0.3732163875111069
0.36387004899932085
0.5344236528841723
0.3932566782309261
0.41586173709578744
-0.03760832593211409
0.30194225505463373
-0.07473722218184664
0.4343050565218133
0.4154024687028383
0.5203449797336109
-0.2142373590418497
0.33934714457382875
-0.25098851963610475
-0.1268485355431245
0.35223597592833855
-0.39
0.6192741134662603
0.05
0.7852994472326603
0.14010269798621083
0.005652878996147477
0.32218604548846025
0.4146542005957738
0.4336399157801982
-0.2280112312800267
0.19296913551069814
-0.4028995907120344
-0.5658656119821095
-0.2826369772949857
-0.17262935751514605
-0.7726671444558588
0.4638943219818752
-0.2642044964400155
-0.7426099067458507
-0.1445877768032639
0.27636744956692266
-0.601240533120145
-0.16652909643590663
0.34598986600543136
0.07456295514437128
-0.41195500113893274
0.17173941227519218
0.026366805176273614
0.3504916025594044
-0.4451485358666705
-0.637854748037847
0.03160110391538874
-0.35629277486624206
-0.5818489090192367
0.11673950389634954
-0.28390203444459483
-0.20219207042421658
-0.02530807512031926
0.45182426439067697
-0.39946574067320745
-0.3937607037066008
0.4969223441632329
-0.1233617994267508
0.13503727527438794
-0.4386340487574982
-0.7078649952214172
0.45509686398978616
-0.15413345727434385
0.1542199825772494
-0.4714887052920356
-0.17700032009143743
-0.5774239013840232
-0.1369779585136678
0.46695193211265695
0.1475715967459703
0.1340742911522422
-0.3680318868461623
-0.8113987827871773
0.028028489644209828
-0.28624101104989996
-0.6784428428912656
-0.03671832604796471
0.35251126621745005
-0.21516497994856076
0.08125153374198012
0.1681458866346245
-0.6288963053314582
-0.39065176129229573
0.27326930556339857
0.09062154244505001
-0.5652930279975791
-0.4745732006652869
0.04421830209300245
0.13895271858315386
-0.4378852780500392
-0.4302578434500511
-0.493259058489041
-0.29310114419061645
0.08049242859914099
0.29120653560234505
-0.5001217333458159
0.053771497603294555
-0.365051944246609
0.4070557973406169
0.009943830306604999
-0.39840180763635225
-0.10609822477233909
-0.3209037958502972
-0.46440015936649537
0.17350433923342545
-0.0513839603290329
0.2664774411064768
0.25565035740594266
-0.5864153372687372
0.11936279987366602
-0.08007934433768282
0.324408442558298
-0.04573127820974562
-0.001014058995165161
0.1622361255547315
0.22737575345130343
0.44897203117311685
-0.3521558140845103
-0.04821839707773756
0.11196545414236812
0.05940002939143387
-0.3727676635229321
-0.5869467598561887
-0.05404009386071162
0.15958467372776977
0.3501650364114504
-0.022482724474949006
-0.09908449192563204
0.03007030459504662
-0.5811828991727208
-0.45028958541145575
-0.5133063374638358
-0.2519266336761027
-0.5561692088491915
-0.41693449670449245
0.19446946797904255
-0.5389371512636805
0.23745563084870497
-0.24187558808881843
0.32301777725098274
-0.05726318081298992
-0.0007586946553886262
-0.23338030452075173
-0.48160737923503155
0.23978368579977785
-0.46957848655387735
-0.18508353351097961
-0.4
0.07368135352184944
-0.21
0.2983437839721686
0.2894857278591177
-0.5382991869348198
0.06824880566238221
0.2755599669253604
0.10051105626515688
-0.21320610580719798
-0.3861460091827994
0.06286386176644705
-0.7535079033773483
-0.2081970171139381
-0.36291942092539753
-0.44318462250267904
-0.1727370152967623
0.44168618162854
-0.3037014713585503
-0.1268257689948292
0.17191274324635353
-0.22937701075095848
-0.11137679122023544
0.15428533971537328
-0.9138139190444139
-0.2293124793957989
-0.02252767325438738
-0.6309016406811403
-0.03541174478931104
-0.37376462850695563
-0.8305893110085996
-0.0044871192092840444
0.2868059075843521
-0.7351900414014803
-0.02045692490771131
-0.28185473883634166
-0.6848400577228961
-0.002146262165601148
-0.4267428389637467
-0.5054056303512149
-0.11669258940987706
-0.13630503274982075
-0.26890598469993343
0.38636995872491425
-0.337659291390315
-0.25979725960406413
-0.41138450773046054
0.2209338882277713
-0.004856500726107491
-0.084918446226504
-0.11384545431423049
-0.7187790768367996
-0.5262165275738091
0.14852235831191565
-0.7541511049507323
0.3067876879139763
0.024440972520382295
-0.3042244065496332
0.2909423753044113
0.2697158418108373
-0.3919093563184992
0.40335245578282297
0.3293334710266336
-0.29367125965458424
-0.09450327009688904
-0.17019364958491168
-0.21267835403409482
-0.005969055105833975
-0.587315406393359
-0.4581248607887511
0.2065992084572714
-0.03489809940601067
-0.556148300952567
-0.24779465836626272
-0.49316679156303045
-0.6607677348334686
-0.5949065323283409
-0.5125143409324725
-0.09169626053135618
-0.46463045726101104
-0.09171042179488417
-0.430674742586407
0.26354410565645225
-0.25712917961161674
-0.11843292120121562
-0.5032789579120079
0.14102134781869063
-0.46620430107201305
-0.3436581054715168
0.2988702617093393
-0.46842575252338553
-0.7392855679107928
0.10995254994673251
-0.6244446781272188
0.19565106945564656
-0.6850859222531784
-0.21538148384798877
-0.5783736526236715
-0.11170257268681566
-0.41401397335219375
-0.49312451268583024
-0.5263732404707859
-0.331354666475666
-0.10111315177838742
-0.4044270311454339
-0.32479817866003746
-0.41961584891936776
0.17841836157035212
0.08678835535299693
-0.31404777564818964
-0.4556859081406822
-0.19055059910902097
-0.6726045514751362
-0.2982304112023049
0.11649749338432715
-0.7471081409068614
-0.3675698752135655
0.3825682717706
-0.6138394552818728
0.06470679911371834
-0.21511562498296788
-0.6084322328555891
-0.012493341788650416
-0.4259618509579343
-0.550385865978255
0.026791167800098874
-0.4175707153438266
-0.5880615111811119
-0.1958349937037573
-0.12166286949754626
-0.11134319552353687
-0.6179803432309687
0.33
-0.8008607154938703
-0.16
-0.35049738445986517
-0.40009626165364326
-0.15906200986689017
0.04046006964331688
0.3128811807554529
-0.3425143030132729
1.1270375130244468
0.23427502247655316
-0.24402399716618145
0.9642022820897692
-0.42138005243586146
-0.33202148658107833
0.24650427354898813
-0.3156845544801812
0.09645543804963723
0.5028668561788641
0.06947593825922635
0.45563443889258654
0.47074795920648593
0.4124158343886554
-0.312397264264568
0.7063567242246314
0.014838772527663077
-0.13515645229171344
0.382250377846798
0.551704306932642
-0.36020354296086793
0.908404032199462
-0.3294022567508679
0.31314515946697646
0.8780719240751654
0.3675811489455847
0.1530954065373809
0.6285375858449457
0.08716524010540072
-0.21965345954358018
0.22566807793667706
-0.10721638590536849
0.32794069705990525
0.9079998855365848
-0.41714235010876294
0.22778476659365632
1.0743068278649974
0.39670663802907424
-0.04897507725247493
0.6627050212174234
-0.04493171147722079
0.3769083165524292
0.6119567225313756
-0.3100668065960776
0.2035580182254677
0.6879783517353909
0.3872618625268685
-0.027534818805929506
0.0015035321218158182
0.11482951917184166
0.48988512975011544
1.0068381041534422
0.28207499858416746
0.3703122686605017
0.6045420017494353
0.5639439620777912
0.5949912969127914
0.6781534457208926
0.46565348985404276
-0.1402656991899848
0.3307601700248073
0.5683037616529052
0.4612979441276471
0.08751503885563809
0.07998524950444275
0.43103262193728087
0.13030118212339592
0.19746442842705114
0.2461628980926298
0.45539592550473956
-0.20276059110964073
0.293446606150627
0.9060590831077694
-0.25070745677066963
0.5785809204780892
0.3471566224450043
0.023060689564633557
0.2902355562535562
0.7089743958932342
-0.19041171965906384
-0.2541810228588301
-0.07706400926244017
0.2900432646089977
0.5647751048840163
0.3165286013155424
-0.10250547371183093
-0.019815169813002503
0.6934716935693221
0.36514170873140867
0.17458327612127003
0.4254678769460818
0.40874707942037597
-0.24687035453964962
0.07761041977836615
0.5780581672490116
0.2157713491148933
0.7048383015969251
0.8181885817759094
0.7476714060929414
-0.11960565645845062
0.6307324828532355
0.7884846916432803
0.1886199091491473
0.29169363169529994
0.30088319813599446
-0.0009650777671471845
0.6888801121188801
0.6599840301525804
-0.09817618059689742
0.5869903829320439
0.41547256227785323
0.1995066763601739
0.4038189938497004
0.010635914360545095
0.24365453819868094
0.6745077799285014
0.17675552130881403
0.6294450080556176
0.07259770312329658
0.3169780116540113
0.420695631899187
0.2511245889345302
0.10810304001892304
0.46
0.42069519246880477
-0.32
0.41418953364964756
-0.011998506120797293
0.22163317536920799
0.477398350383066
0.24006505720474083
0.06329781634335556
0.45031106742311633
-0.07245526767223145
0.038308933550595115
0.5760913377630129
-0.40324665521936803
0.23223727699864902
1.0291776035658964
0.08973873552969373
0.23131503320124278
0.4724195613425867
-0.2625809784495894
-0.44096566149538863
0.44042525850806735
0.2716940190815617
0.45061097768365704
1.0108945289663906
0.2696481094441933
-0.2834903928552394
0.3217822793257061
-0.13713827037622656
0.1631998341543854
1.1461956720483057
0.43175810989154817
-0.2066991777320569
0.5184552717329227
0.35939752209337406
0.059326740209819935
0.5405395596441027
0.4312873162403175
0.06621459673554037
0.3709911629247633
-0.326052143566063
0.12508191398979088
0.39530503777350645
0.1307666643309429
0.5778497788750839
0.4514386707047956
-0.14813483348563933
-0.1097376297323159
0.6910440263025045
0.24984721952405053
0.39667965288585816
0.46209024102378665
-0.26761627781540465
-0.16471191562026224
0.3575714110710917
-0.211705879356589
0.29668701012514187
0.3449443895925589
0.35952221637653947
0.5771529490691407
1.0611577522313262
0.4028429147937713
0.5972239926197574
0.15212948083467587
0.27180014263980656
-0.28843186367773577
0.1713054268449778
0.16828005292699721
0.40886800310347093
0.18708250243969232
-0.08479688944892343
0.448222617615848
0.0709548230762373
0.19197617540215456
0.6124836745600468
0.8065762423895797
0.31209369914461377
0.6155006650635105
0.49335845967845604
-0.14770550864772627
0.12409274714840493
0.5506242136809564
-0.28356334473512157
0.2501118325765946
0.36100489010680753
0.520036893410838
0.16881684894516538
0.5136028518520585
-0.13126608470298334
0.11675001761034597
0.6391646443417953
0.7152389541420985
0.46824382439535883
0.32816080661895447
0.3147489850799266
0.051455651648464745
0.4542582412925197
-0.10456027684674403
0.35555750892742427
0.5122631538239135
-0.22666704665709747
0.3867581037974681
0.33368915162233187
-0.12929363932556032
-0.22916051328061418
-0.052856737509379595
-0.046829133115766614
0.7224862172242332
0.4855619567456391
0.413105442124368
0.20538433264820624
0.47140202405369747
0.18436725939233695
0.3918525257452737
0.40385671018198455
-0.054555619833018126
0.519881892346326
0.49955054539471344
0.12172117835320079
0.02817084896795353
0.48510741100027255
-0.01212464387398618
4.6651809448050455e-05
0.34896453340993505
0.23214243087485664
0.3073222428233005
0.19327877947173394
0.02055259379920539
0.5755132404482696
0.0140066632462625
0.08163371239970804
0.32219952720727374
0.18
0.5689540888869667
-0.39
-0.0012629300565337922
0.3475478084238493
-0.07647927622496781
0.7272103205176803
0.429131886289253
0.11374354264137923
-0.7839957532828816
-0.4905318846428006
-0.1350682786792039
-0.21379093592839804
-0.1619248806766996
0.12841410204990816
-0.5502405250027852
0.21104232766857456
-0.46284343689959256
-0.8427362086864834
-0.03520444969822702
-0.05524877966534531
-1.0615017950548564
-0.19403352056410259
0.2017592319455311
-0.7887478258360776
0.006204498606243688
-0.37388971601295
-0.4782643485698203
-0.5586300307015308
0.2069417659925122
-0.4100974045014549
0.18237154322464139
0.2435221787697454
-0.21499970116545555
-0.16930657288859138
0.1462254228106573
-0.8773109486187507
-0.45969856947620885
0.3372293738562989
-0.7564319969260381
-0.3115814722145633
0.026097488918802297
-0.2850406868707639
-0.021840897332339706
-0.4284905274153678
-0.7702649176460225
0.06797134977708755
0.03195169762063382
-0.4910221657092075
-0.30171362719572753
0.06593269486403767
-0.3810688981793033
-0.3956478919690359
0.18121106047904617
-0.19138955402077734
0.3493943982574295
-0.14886588542243182
-0.9785546837803476
-0.103363526081523
-0.3250738994360922
-0.2929191416220212
0.2572089457738124
-0.012030686596111732
-0.6489052258740805
-0.45984818281411116
-0.009289492632722425
-0.2670904345621596
-0.37440416808941956
-0.48932175885205215
-0.9193607405800291
-0.012101595852222896
-0.27743831867199614
-0.43889769259375155
-0.3944480840185534
-0.28787809623838395
-0.3117543322517414
-0.351151666794176
0.27328957672653614
-0.6996116647406958
-0.2844620072701432
-0.20598122734929097
-0.2496154906593089
-0.45518737727570135
-0.38488191093438523
-0.47297228328502694
-0.0029299010648892324
-0.14973526109135682
0.05087229254225227
0.278078873264803
-0.6396178522918948
-0.20927203680902726
-0.4818942061833786
0.19415386352259445
0.13573093969218122
0.11933110150092269
-0.030118909898892873
-0.674470381160236
-0.05619480422517302
-0.27082795549507727
-0.34398444432411723
-0.10597169546510667
-0.18534774946102095
0.007745367153107903
-0.45318171297638954
0.2260526228402606
0.044220849144736195
-0.5510575672692997
-0.2799991755543682
-0.6753484423694635
0.0045635226395282485
-0.07826898882955925
-0.00825898853957991
0.15574388208483747
0.20970933163327377
0.02350160953590189
-0.653995036453478
-0.35253389756906817
0.1646376227963562
-0.6828878205115902
-0.3405331857480924
-0.08843211280911935
0.15818120327291005
-0.24781237142142484
-0.5887353391112886
-0.10423638475158842
-0.09084368745386254
0.2777758692614515
-0.16771627709189002
0.1142187621280734
-0.48106313611579254
0.03606027870341785
-0.29875277697649844
0.03
-0.6620313183078043
0.09
-0.7999575720759796
-0.5268949210843494
-0.350468231734015
-0.4681532009830503
0.1469128024529618
0.14627760927264816
0.5915578844998827
0.3701825191523903
0.44197829994730803
0.8208677568209083
0.40517195615670415
0.3482609602039922
0.7819950093300935
-0.3822379566091646
0.3911548310640898
1.1319429896101734
-0.05507980774933978
0.32152006292720103
0.4507533630837008
0.3557445869140198
0.3195440489905988
0.5518356882355507
0.1866382756987714
0.008388613805364646
0.7597673711672301
0.3298620279523255
-0.04547284362205056
1.0435723470236098
0.40991850952336256
0.05073755920480466
0.5814350973354082
-0.30415464361529215
0.10861340117133284
0.4301458286146284
-0.37074121686103934
0.4668547980053076
0.9947491377783528
0.006414077141260556
0.4109412846592344
0.8126373270372714
-0.06556059877158499
0.49935324846713797
0.09758337184089984
0.10108139261688373
0.5628377318251288
0.06293493041581187
0.5622453506839811
-0.010922606282044877
0.801875759898022
0.24706485930894437
0.5197511106238745
0.6881429521525423
0.4701239501485043
0.3495902970174181
0.5454156317463922
0.3830120841611116
-0.39755839995887965
0.18291297140074422
-0.357336558516943
0.12437877213828187
0.8896055306248281
0.3540337101618114
0.04561712457777612
0.22279134805268194
0.09960954029446384
0.4584846184203408
-0.09664272860709493
-0.12382387688832366
-0.3536090979298372
-0.0013378990470297092
0.18296500990178893
0.48984085201410377
0.6339279410057936
0.5642492199050239
0.5339458318162159
0.34165438942813176
0.2424177916805748
-0.23242827274999353
0.6465719833629713
0.1538743023119425
-0.15476668954186662
0.5051691555891611
0.1776155468776263
0.4139178585940538
0.6765265647775699
0.48757358955329705
-0.3128708680624091
0.7763252998717197
0.5845635811156108
0.032200589518968516
0.7933075732646281
0.5325098501413249
0.5116650322351228
0.3461594340697455
-0.2998064533799464
0.2667747246166029
0.39085931929410445
0.47038396901421375
0.5475756252740208
0.03363411022902299
-0.18319172257812222
-0.2002347681306051
-0.0283283915083419
0.5865811725638683
0.42452502917559426
-0.11533271359089561
0.18882569734022295
0.08591996243529591
-0.20421032009520476
0.5263083705848316
0.15705625641471854
-0.12261043228014827
0.19357218879035165
0.6625102756338753
0.6129747362255972
0.15253300106544787
-0.11802002316589036
0.6933577069886696
0.5826803291021422
0.34288345274179566
0.22537548087263823
0.06975907931048822
0.5434322760456625
-0.20907712795948574
-0.15633713516125494
0.5563097965541477
-0.1826972656770895
0.08440548204786322
0.6433463425708512
0.39
0.85467167035407
-0.15
0.24163205585525618
0.5531890342633121
0.2141003536535811
0.4788594231806778
0.12531361150485437
-0.1679092545859741
0.5608232991755778
0.11981127923151345
0.46959232675349294
0.8861634797653827
0.19696951730224163
-0.05518947057482514
0.3084063911396957
-0.16049159674375316
-0.37687218389810695
0.743883450978739
0.0957140567404855
-0.4113806102942018
0.27523338802984715
0.1688725460854718
-0.021696857967018264
0.6595167753936136
-0.16509459360547823
-0.3358011354299625
0.6806374032635986
-0.012110944012518894
0.02781428863938788
0.18217435362417925
-0.23726331844245074
-0.27800597822239004
0.5501355117803003
-0.05940420973679301
0.5034787560096109
1.0982386062457006
0.33100796156581014
0.2856150865619447
0.4081145257401048
-0.031004288480932465
0.39593953479366256
0.06394027490355474
0.002845514123899316
-0.43556089612290777
0.7150929996091987
-0.3568067796651737
-0.3287120448980934
0.9249035315859124
0.44653383713329814
-0.19849376028199503
0.18374809145900028
-0.18252900735588878
-0.14261520077458134
0.5349476036911298
0.36039292090456887
-0.40783665764617716
0.7511277884494127
-0.12056580698211748
0.35663321600255155
0.4859211382686936
-0.24982903045012805
0.3300847904388922
0.7845687749421089
0.6480717584401162
0.34735336900786684
0.915914935161158
0.2194570196520929
-0.2077958223504325
-0.10079930850477437
0.6313204546763244
0.24313046377853698
0.4633189480672477
0.18627591197533247
0.5427864435709223
0.6522278141889243
0.10771106606127033
0.057318955230681916
0.6193267360132904
0.5160796325771448
0.6417978710718454
0.409839572971946
0.3910878797773252
0.15419694722403443
0.4231176058151939
0.5154107707818888
-0.26010489533912123
-0.037874875171685606
0.14070509433192355
-0.14291811573932353
0.6780455882630068
0.31759785129743345
-0.2794149510876974
0.05819430316043344
-0.09605402825161886
-0.06361113720969633
-0.16489380810060825
0.5412302691314216
0.4057167794682107
0.41517801554333217
0.4718305288095743
0.1440507104148633
0.3586335863766936
0.5100410270295604
0.051985605430099294
0.07607304721247493
0.03466667117854265
0.5049548288638684
0.0807697850904203
-0.02299929013317116
0.555351362748958
0.49387587648839065
-0.05650191541623223
0.10248153121925575
0.5833688235843911
0.4368749690174693
-0.006041822012828935
0.17683220932394034
0.2519349365100055
0.07283956215457264
0.05248195928521454
0.4274038023813306
-0.061348825922454574
0.5016926044006182
-0.09761845465704684
0.10926330170206315
-0.2059784932370563
0.2794405153561096
0.4712977554400966
-0.04476166228753699
-0.12381076933144301
0.4024149463198886
0.04
0.17031037750122843
-0.33
0.7313577427400128
-0.13644076155114862
0.6437829396769571
0.6624971425806256
0.04320023084356091
0.4551937086344465
0.8625114484197741
0.3331808199462771
-0.142975825901201
0.14476251384103161
-0.1709007109393321
0.12147531875668707
0.9549709369364358
0.19443972130737508
0.3102036675405313
0.5152334129794859
-0.18455110351951864
0.02385277348844537
0.19651763306791262
0.2905155704441407
-0.40531242344364987
0.08389306729987324
-0.28769466685572503
-0.30875487605851243
0.5236869571539369
0.2259538959050735
-0.18865382324997887
0.511098892306314
-0.3715590920558368
0.046361630807130474
0.05805061717228619
0.4064737290210816
0.17926897077855697
0.7353578135195634
0.36625919270237794
0.22564100046035676
0.36705338732930626
0.2581915892108353
0.5155272238687436
0.20767618804153098
-0.4523174349097762
-0.21063389635993815
0.4616838517408369
0.40983602161960014
0.24280185963095371
0.4755493158836197
0.31253480148592505
-0.3020965971625594
0.7875975176331914
0.25538505652986604
0.03553509330708883
0.6635417790087476
0.11180910468466251
0.27392428408439895
-0.03944485314377818
-0.17359345394012257
-0.3109678133766818
0.9829275086037584
-0.22107371822657815
0.17815714414273326
0.5880251360800304
0.41470369677773455
0.5078263681849631
0.23105517529655106
0.17200443351898412
0.39538263610857305
0.6023015510036397
-0.18679821011171363
0.4763682833259572
0.43337577960436624
0.5611419140701758
-0.04878865849984618
0.87692132743433
0.5227533080660142
0.08212752304808599
0.7742647770669527
0.6544936768854597
0.012626208296027765
0.32128847823999646
-0.1930287095355252
0.2659671783503364
0.2488899835602853
0.3360288150898764
-0.18218100106121168
0.3684633041125277
0.18460367394918278
0.591252211493375
0.1116900501325272
-0.19205628462540353
0.12203364755935177
0.6648230097829718
0.36402931965817487
0.4625669934298527
0.22877819073643804
-0.0004592071657923309
0.695556992795249
0.3271405497681127
-0.24181156556286296
-0.2628702017493846
-0.044881830851050165
0.5486380096009338
0.3087501431718766
0.47850664235832363
0.5736291914702979
0.5994049759060921
0.6988555744527457
0.5026254266416599
0.774462876548336
0.0971950554657938
0.3392280449863684
-0.3392693543136425
0.5263646168234329
-0.006209285509292204
0.5740177192821837
-0.22770511002622915
0.4045733677445443
-0.15611645422308937
-0.19099099412255277
0.6779934253461402
-0.26489625266959654
-0.07651106713876195
-0.23770670319114262
0.3340162345922694
-0.2304309309324441
0.31730067334067347
0.0077772032013165675
0.3820415110988976
0.4510672627002843
-0.1774645480847649
-0.02
0.698350525085264
-0.06
0.12578515033709584
-0.05637439173338847
0.4997959434818158
-0.12410559728292751
0.23360767388160622
-0.29975313056614583
0.47010883173203066
-0.16882219921999955
0.47555280142769313
0.6816243117030527
0.26435638881514045
0.2942056303714646
0.6748618969739203
0.4224659746005017
0.4992750602348167
1.0020731700801346
-0.2098147283690636
0.0008135917345302516
0.6098776192559632
-0.07915770904460703
-0.12467495205007884
1.1352885662646361
0.36091988773132844
-0.03312520680195598
0.6340332377428256
-0.00937452899498207
0.08343386092629627
0.4941654513912253
-0.23606581037163565
0.3816760839176293
0.6263500442224799
-0.16649262619422298
-0.216690561760911
0.9649797772916672
0.45324428641513115
-0.1657431756758886
0.3555683087514619
-0.04829163112968765
0.5269305855725844
0.552646373298827
-0.388043456925525
0.23993547624924935
0.19647978519248718
0.395118240504149
-0.17090442263058955
0.3706210697496861
0.0018168548267888734
0.051718228907196566
0.8884135329720205
0.06140174006667063
-0.2458028043382103
0.8545065947002837
0.29282971158381454
0.5995888982058803
0.5726521335466324
0.23929247019337205
-0.09792390730851817
0.8428137357667375
0.06664367348766827
-0.025752450785984676
0.9004949904757268
-0.3032090377438554
0.35985671406477
0.635852852734448
-0.22417606485333005
-0.17907574145462316
0.7420330221425916
0.4285762212579192
0.4668338562399344
0.858680010019947
-0.0739803643139937
0.05104483278404969
0.2521494543527115
-0.09166078519087573
0.5224540154848882
0.5986115781063815
0.15046790835461682
0.47861203393345747
0.5370022388656066
0.15591922914682174
0.4612041974870196
0.18640855023352326
-0.20607924577465675
0.4586125132784667
0.24313123594731093
0.17978975272010753
0.3433805630017075
-0.0747690509071547
0.7729219898513322
0.7116686321182567
0.8109691346672592
-0.06110426483962773
0.005140291296350813
0.28549784118541577
-0.20910463053588038
0.7031240765656003
0.2493543267408524
-0.11094490136056664
-0.2681112592756246
0.4411351529260986
0.20850960829541132
-0.31028216214971466
-0.18264038220578152
0.5944560463013816
0.5234617090152986
0.32943091824514154
0.598640874685445
-0.08400336779989144
0.029652117182504965
0.22588475256327184
-0.02469310386693993
-0.1169974710125561
0.7532240768253802
0.4962587280452172
0.024738931810432796
0.6105358420902339
0.4598352422399211
0.5464544099006083
0.6052438498053576
0.19202487431131984
-0.16556225750174183
-0.23492911486369256
0.08191952032393637
0.29702826225525186
0.5425857193666976
0.03343566157978315
0.004715279381532574
0.16338256098457024
0.44075756394733395
0.29
0.9707759379985531
-0.1
0.5068754793676539
0.10060445033260645
-0.021340300191180595
0.19353017965584962
0.4903283987677897
0.5237876041069786
0.18883817952252155
-0.4181242957602891
0.42010315613308885
0.33809207019572224
0.16630626154039915
0.3222363719971096
0.2275448966671656
0.034720219204935794
0.04634552312769481
0.29394379849573127
0.004212166245784286
0.02486869782446424
0.513201252408994
-0.40356846236424904
0.17294809063531374
0.6755915566846099
0.38596184054928645
0.5211702742265386
0.20188364052762459
-0.22855242688495178
0.15201890525894932
1.0271021290656996
0.2853804535445632
0.4774118224591461
0.2969808814251916
0.05010878398487268
0.4649674845282676
0.9728884045935238
0.41664559874741897
0.3223649544787867
0.8241067572088057
-0.20197022381838148
0.1289928606542213
0.1796990680336394
-0.3541904408186502
-0.3485500200251077
0.17053475918810923
-0.14748325129379067
-0.09800499166763961
0.4094243667646549
0.3930821127721939
0.37082982468711234
0.14526548015772583
0.03840618302437257
-0.13927429416780834
0.43671569033266217
0.10706009170435567
-0.1908039980774599
0.7793398897048247
0.39596559624184546
0.07930504086161624
0.4390146131510854
0.2361818338565077
-0.1930402517140859
0.12192388945546762
0.10561785012782851
-0.19728600144923067
0.37265858837062693
-0.38087109905218686
-0.3157339475499012
0.18921464159059384
0.001020793828517674
0.2807928619251782
0.6201168061992636
-0.2664081802552311
0.389659640067925
0.4021291940126791
-0.41728734621139485
0.19803577996113914
0.10825037488672522
0.5482153330213458
0.4158705475884109
0.31144400909308867
0.5171869311877101
-0.32544780421630576
0.16299368546937776
-0.26304439338386115
-0.20351584349940396
-0.011624778688191943
0.14964211005680655
-0.033707977069009486
-0.20211405932685286
-0.13967647573492661
0.24345468938849313
0.4114618790483402
-0.0004150805676233828
0.07345610637983659
-0.10943237876534606
0.01047776025471977
0.017413964787093967
0.6945741186279482
-0.0574865955458321
-0.07861827072706469
0.536211330783102
-0.1530915721868271
-0.06576082514212764
0.7368353137345433
0.4034269992767939
0.2944847923999702
0.1287753098928128
0.26124138557642684
-0.13047402679986725
0.3331371986322397
0.6418383160368385
-0.04017895818893173
0.1511181716501244
-0.09643772559198185
0.3562396210289373
0.4533066980461035
-0.07504483120583066
0.05742097176426699
0.2108435625851716
0.6962369535197706
-0.17194290312356772
-0.03031734912566078
0.6267617401184393
0.5701482326402166
0.5844068958114542
0.5099463594175382
0.012700306703422152
0.24519034657533664
-0.09338916540954802
-0.11804295222147483
-0.36
0.8125444400906862
0.05
0.7933379888677488
0.3269916142314485
0.02218059832348315
0.28402398780604804
0.43677559668138904
-0.023987958451935878
-0.4574368119681354
0.1715349177435204
-0.11305787858835191
-0.5591703031979303
-0.04766167089026668
-0.4459852402429524
-0.45533112354811683
-0.28857348888548173
0.011178384069461261
-0.46024293345754624
0.41917469671153407
0.09749588432728357
-0.19354685030013236
0.11616111329629727
0.35755188645460395
-0.8310506741286562
-0.02639106500249709
0.1073204911792498
-0.7171969455572221
-0.12001339829857641
-0.17714334269313578
-0.6482208972596483
-0.154525612723765
-0.5257481686999506
-0.9130556081298631
-0.051086075846735315
0.17040471205830243
-0.5320179107778824
-0.39827665395697054
-0.16653498897603078
-0.4054567763941852
-0.26789808730633485
-0.4617179276078585
-0.23753279475813222
0.3093608696894388
-0.20611014760270335
-0.1657764859404838
-0.3780032191333644
-0.44789222169770454
-0.36293547747146065
0.060937846492614224
0.24613426902291013
-0.49267628813462216
-0.5533478335648382
-0.35201007025955816
-0.2562879648887321
0.3584081824717385
-0.44013131577199305
-0.7617529405573101
0.07199440365275417
0.2213232109142331
-0.2819765408019311
-0.009236522788853344
0.21138524826814176
-0.09343717794296663
0.11216207699827378
-0.22405949338091016
-0.7238362473364212
0.24800588804078172
-0.057758984142723804
-0.2929379622460248
-0.12919290628780222
0.15146608520082555
-0.028381442190954106
0.2670255043135774
-0.380784500016976
-0.6996320586541293
-0.37947329400544494
-0.25084452067796714
-0.7365038952640074
-0.41254143673457555
-0.17095020589477344
-0.29819280441367907
0.19925315763190118
0.016527042357046266
-0.0478127580892981
0.3313958630557011
-0.10795656835778557
-0.7699886776899945
-0.4919446066287703
0.26060457523571423
0.03172846604074523
0.007777106046989287
-0.07471619040252953
-0.002670834163261243
0.03749717188923964
-0.3252997948058861
-0.39595683002889415
-0.21863322784177053
-0.018623055051272746
-0.31958840826296464
-0.4816783893623136
-0.5060617682965172
-0.7467793002343378
-0.3170487841456939
-0.24434540899451132
0.1752767474106775
0.05917880890728237
-0.7239105571822373
-0.18779808719429217
0.31181879169997834
-0.35654174026680796
0.2704734631127685
-0.29382157552251137
0.38591994093547927
-0.1883307317072915
-0.14747906190473886
-0.21636275680895892
0.15388117424135203
-0.587408270108945
-0.5417880980518341
0.32378544995799546
-0.7518872045827099
0.08476863118025953
0.12140260806537775
-0.37606109192218884
-0.14662621748072566
-0.47559234710099046
-0.1576712880948356
-0.7644318519754373
-0.23374230114912878
-0.5217156995519834
-0.010291727636914935
-0.34
-0.7295981250396351
0.27
0.09476667309358781
0.022045953768024863
0.15937507826369057
-0.03190222979680351
-0.3800458371327128
0.4679886165467523
0.6122164715098308
0.45152462980941815
0.3969822256951761
0.8149133720301349
0.4998341201406891
0.42688322678574175
0.6188175950580574
-0.10397110397779841
0.14231256283132784
1.107845031771237
0.25157212326343786
0.24831689252344502
0.8518481938185293
-0.05843536847597403
0.41992787205415943
0.24477198288109517
-0.12297013706925201
-0.0783354816752066
0.41143664431344235
0.21862855522776606
0.024360188314318704
0.7421431663685955
-0.34477363681691375
0.19622472401993013
0.16873616306957334
0.5267688307764985
-0.2085181801911922
0.2068644062293505
0.3233834918278439
-0.34341598445098687
0.6168578069512666
-0.13171210463427932
0.09766304557856713
0.4396243270340412
-0.4455576547466069
0.4722779727709149
0.6259547286714326
-0.08650298357634756
0.02968600844377843
0.030713710595360887
0.541329998826863
0.1660326482263084
0.21303239059247647
0.3026646790472175
0.5349751390709785
0.06990642147658062
-0.12315184268155698
-0.1301947175618412
0.40305211308882843
-0.05112767766098592
-0.3568397241723243
0.6930776954079566
0.09549174663036814
0.3689218801560137
1.0547357321232056
0.45807210558678385
0.3040378596052251
0.43455465519411995
0.33313720306665645
0.5589226922843179
0.7093618150961061
0.4934452104855768
-0.01596336377085344
0.3213462692145786
-0.13365318757772301
-0.30066560925948155
0.7869723371807588
0.5454229899447229
0.4291179019320897
0.45238773704833524
0.630224078885577
0.6194392181206846
0.8891868944439455
-0.09689639469862986
0.021002972724402647
0.5531532379520925
0.3575735071895052
0.10397034164697451
0.27218258027664455
-0.33442320405761716
0.03756915991621475
0.4452697915411074
0.6288907664086797
-0.12720909076384235
0.666684845275136
0.20225396335470697
0.10089493284457422
0.6182011622133353
0.34263362280809123
0.7896222104900406
-0.031189014056716244
0.1732965214326794
0.0899371605872815
0.5501068119773608
0.021685745301358632
0.5938628411101381
0.3693528178241579
0.728514058931706
0.36733644819757877
0.6276636554786126
0.4367296141898087
-0.12100755519755739
-0.17697850344661153
-0.15028422348982867
-0.26772196408372734
0.4630888936208441
0.2663627883288849
0.7276693667153386
0.39823752496655
0.1658228261841132
0.1588017519703669
-0.15267840173117314
0.43560636762680827
0.7227694926350732
0.3867845651951302
0.4421756600357976
0.6764362039470005
0.11207899575387023
0.2732145181651309
0.10637416870407342
-0.1048836472604814
0.6802391964224086
0.16129667255690536
-0.26
0.7204330453090954
0.28
0.43983481645194494
-0.0035350505126090807
0.37472896567621816
0.27642285884630335
0.501792454936041
0.40386533096950783
0.534579224304518
-0.29969984284536383
0.3129824368068494
0.7346313244774667
0.2211309511443452
0.36224709756000956
0.22998456771311823
0.39651304715553554
-0.14052615316221767
0.29734792360139917
-0.4380770580105182
-0.013164978029623912
1.0552062623078982
0.35670342815038864
-0.43757590512775096
1.0205409843693776
0.005779633187034429
-0.028752359230934547
0.868991960082041
0.5185051115775547
0.29702501601832115
0.7573114820854541
-0.30559178567511497
-0.1327993299927641
0.4117010269364034
0.4198430154850242
0.0013970100651137171
1.1228345952206145
-0.1654868928570642
0.07666334650314652
0.2548392608132122
-0.02275789488769531
-0.03691105313547288
0.576692206111912
-0.3510364405477775
0.07156701519933222
0.6701455009571182
0.4870321962722108
0.1892520677817864
0.2177287713465537
0.35176387330032316
-0.3985304905544926
0.11919455016993526
0.39808065281322
0.033834604507843584
0.4008218911922065
0.5240882167286132
-0.10613526693290352
0.42419201008822766
0.4106879692733387
0.02470058692535358
0.9882128866337543
0.5058312388695528
0.1429937822711172
0.8793271277307136
0.026423802426830068
-0.32697246198620716
0.5950985006013524
-0.009381326186484445
0.30928487133252924
0.5248757458710847
0.6445840952250479
0.28651704886183504
0.24184381179006464
0.05038385177676369
0.10061711221884355
0.147701477686386
0.2704261225234336
0.37826314143936773
0.5702621770057311
-0.019780606016439075
-0.08053227504622239
0.5988833782591078
-0.2996063907842237
0.03140602736983236
-0.019462497612703217
0.4068011826715341
-0.20412981200181468
0.4006453346343176
0.0022291897961603784
0.19848022864053708
0.6343696308249199
0.01589485296320378
0.2439008737556924
0.6603684974220572
-0.03552465874908833
0.19605854773875514
0.6184732239996492
-0.13578705930974277
0.3144835326255739
0.6490150966119088
0.19524608319117923
0.22756185051492003
0.09762184368453283
0.4235610182292106
0.045719047198445856
0.10761688979266353
0.19540877543755372
-0.07218885447503148
0.1950965661794419
-0.004162999275747068
0.06253344330568564
0.5475108894589519
0.6587003796640232
0.31287613493582744
-0.07290421346920437
0.14877279096204046
-0.03260271366090309
-0.30961106943358263
0.8609584955231478
0.023270356863414637
0.6542339125023727
0.49124044306287534
-0.04553159000872641
-0.1679322663834086
-0.09779143117920173
0.8041124835058899
0.03160126354596974
0.42303096537680235
0.7844544510867181
0.04289241373520313
-0.12860215239325815
0.16831032070602164
0.18
0.14043439172264152
-0.29
0.16809290318925107
0.04298484713977361
0.07648692073805202
0.23363235647393119
0.22680971194692184
-0.2534945857345995
0.875832137830299
0.318154961481705
-0.3662563962094659
0.9936349223402042
0.0031139874466661315
-0.3370026482200838
0.37479748317853795
-0.41730232138104867
-0.15247687354073877
0.35567877974094714
0.48729060737719726
0.3631467136824196
1.1196867140869664
0.09765908580801924
0.30674640260435215
0.5979297185451018
0.4758163924279511
0.4082175603349869
0.557640526633062
-0.17536557339064437
-0.1986800718350409
0.051149577589721384
-0.19197699217727462
0.05945088987777008
0.3884529070110215
-0.07741128331138608
0.38087309870578906
0.963757632926877
-0.2841382180552609
-0.10755585435953101
0.15017947507897275
-0.32213110714203586
0.3120605111115942
0.19214652648297972
-0.3637145240171679
-0.08902717003457139
0.8343685286334697
0.16515115497850588
-0.27156498854020383
0.523454100170584
0.16860340194702478
-0.3796782870380509
0.08175904330771878
-0.21158824269226184
0.24520952746900218
0.02471627717809986
0.20056670893030396
-0.339082977492104
0.8268833315720149
-0.327307840502506
0.5077895773126836
0.3800154974515918
-0.27731256118687
0.05954813845581305
0.7757250893199014
-0.23478071419830873
0.3157522477260971
0.44087619056528593
0.2638640752860224
0.15188218546883145
0.10534850919650027
0.45326181891207334
0.34585566826509456
0.40888620389075275
-0.2542493585784416
0.1885289708168974
0.07261684798917932
0.4093466947713293
-0.26180627190335803
0.42904889925816125
0.6132498862226019
0.4166595551293715
0.5698763991122711
0.5039565593357628
-0.03401988426648069
-0.03902516904969541
-0.3564624331064174
0.37349158467106036
0.5809795203589662
-0.10397859145262159
0.36446283898901116
0.08382747013332806
0.062202204455066135
0.12832104933472274
0.7521119197190635
0.22005954452361853
-0.02697178055785178
0.7230088181745543
0.5844554759607012
0.23610569519405974
-0.04218904461317163
-0.0034241370034819524
0.040425386859173205
0.13005888384279882
-0.009991757124566202
-0.31746152069974076
0.4569833571177129
0.13097067715943364
-0.058275320800657414
0.03447538016010702
0.25429245421795615
0.38412207847992014
-0.10868158749087305
0.1350520225883586
0.01141895512766774
0.21631559747047036
0.17275796097926793
0.2684820434913866
0.16844349739946013
0.5535669726865587
0.2983802549279785
0.06673745225143146
0.5953748063979948
0.20974835578437984
-0.03915915779970663
0.009903315592732508
0.04187742550841516
0.033937188179155524
0.6846778998898353
0.18624347630638877
0.14367511999306473
0.3405739172779522
-0.31932931453402025
-0.25
0.019821828111426056
-0.44
0.7102476912455823
-0.010375265442346654
-0.09461370161291661
0.648584685780517
-0.11547522464281221
-0.061586893765828106
1.0663218765573939
-0.22940486686395042
0.3939409204624262
0.9171860256083443
-0.4457968301431562
-0.19677355957469556
0.9738868017693153
0.5182168737329939
-0.450049095249499
0.31208787529524434
-0.33670866411813105
-0.4694479986141671
1.26537295029829
-0.2005948357565068
-0.2638358823343283
0.7368386493879744
-0.15767265112603213
0.36549051732348337
0.980823437574301
-0.04098383897017054
-0.05660926001408939
0.5393094316776372
0.12262994426406668
0.5002723758858372
0.3655599799899653
-0.22050223994818824
-0.34516831354726396
0.03164025046148185
0.09885817901339737
0.5142174155560285
0.5498405574551877
-0.4087278570836022
0.06814163755178179
0.8944940363728605
0.052694442002971915
0.3892689935416459
0.08965190968248672
-0.023590787296517163
0.43060520171154937
0.8097992411296111
0.44492567308645375
0.7233213331316262
0.3665267425939332
-0.18451795979794577
-0.3799833571031751
0.45123531807785044
0.4940781549529383
0.28699457935036937
0.5961588869946146
0.4321766495826299
0.529117453558308
0.1551716167399326
0.07104104562937447
-0.09296062472210807
0.4566855129505248
0.35160522769919733
0.25261249946503445
0.17705959525729673
0.025658021205283793
-0.040976361994277344
0.27413587661096445
0.19217060131092736
0.1842341008413441
-0.03229050644163937
-0.1766134784720896
0.08337477673096086
0.47874126984052695
0.08321406935612573
0.41533405978490173
0.5260576270642309
0.25393842907848224
-0.09462862200914411
0.9469822077576512
-0.08702346982089249
-0.30176480504336867
0.31272974931175135
0.0043651716592313285
-0.04511951559276735
-0.011671814650982314
0.5221214461713646
0.2493974473630676
-0.027028295698440064
-0.2170390357370125
-0.2584215578325769
0.4246282699479815
0.6891234038122088
0.6084707174915701
0.27235563534709206
-0.19549623691104803
0.6050306889280214
0.029094102966782907
0.26120532403280977
-0.19781152849881117
0.961353422410787
0.4817882220156387
0.4844583646144043
0.15772469587597762
0.3531470554372327
0.551066577903029
0.4332875297604291
0.08097600826415514
0.34054993367424274
0.019397703179406173
0.13538247907396536
0.16276232674893415
0.132564951750272
0.3100028374284086
0.3475950055747691
0.24702156680272347
-0.27928645644987804
-0.05391405670424011
-0.287676675701756
0.756920848333611
0.018541714745732227
-0.015668742037634263
-0.27754285678048374
0.07699957641045604
0.4538379369785629
0.04449260253859555
0.6002509415975604
0.2627367455596672
0.5823424287703857
0.7742876729150502
-0.14
0.42104244301256283
0.19
0.7396628182545518
0.2346593935495834
0.6080663961000906
-0.06195375941469266
-0.18239573213592142
-0.27077256130582106
0.8078814190232899
0.1419562677137281
-0.09560605391507776
0.9368047302011645
0.26786644914511065
0.27978728687312204
0.18998355238772108
-0.25070571382964685
-0.16621043556235848
0.6839315491740783
-0.1586559881805232
-0.22184344199455738
0.5991571097996107
-0.2782485423738559
-0.3905127071145747
0.5132358338293025
-0.1436580012835312
-0.25448266378976125
0.8617604749162605
-0.21821268569530206
0.48042452500662236
0.7078955314358423
-0.359254931011268
0.12709773726503337
0.20729211379391085
0.41467527437225205
0.5303585812841096
0.7891550439917179
-0.3204484998446303
0.42391838650661573
0.2506698120706512
-0.2955230731460708
0.6264380869413835
0.9807279782351781
0.12189906025463579
-0.42856364566698163
0.4323371675595569
0.3052916035386215
0.31370615957215625
0.04634895547510147
0.5590100103839379
-0.3535293018068753
0.4451628567640617
0.44743157047401055
-0.11900622856537971
0.9097227215399599
0.49834863245661676
0.25999341721443475
0.3480562075661264
0.6110155006506355
-0.1746792246373195
0.9050607424653939
-0.23131639239687643
0.5214741716284168
0.5584039131154418
-0.1108129593126621
0.4036705219896027
0.20130472367986124
0.25408987976173236
0.6071076313977111
0.6331207370865719
-0.1411632430530857
-0.19991390437681533
0.23835215292770445
0.1506268768803072
0.1751079102423791
0.5358725495167693
-0.001915334327951926
-0.34428785864211975
0.3031978076000375
0.5501551764732787
0.4769124827518688
0.17736830074709942
-0.2252156580677719
0.6472881181878763
0.588267775231593
-0.14649076798827232
0.3897183800414715
0.46582274124028844
0.12352400414943686
0.6745601574285583
0.30169253069841756
0.41281243730422096
0.28470231216587366
0.3226079517997386
-0.05824513853441595
0.017741433600901486
0.3341306803077761
0.337193011522519
-0.1740844922785582
0.6739379159478256
0.12921170176193
-0.11387022520379883
0.4196206485477639
0.44331470208723195
-0.11908475063464824
0.19326461050976704
0.35488526555607697
0.4732825358218611
0.22538798030434998
0.08039460930498472
-0.13245637592546314
0.07881625370848647
-0.1572947523518271
-0.0007235697493038401
0.5962410656570799
-0.006452370476580213
0.03037564530371685
-0.22513826064833353
0.6638277407758144
-0.04795759568477869
0.26464229957842367
0.36238042153755123
0.5327847645849606
0.19014899650041625
0.49613136434581995
0.2991341112425007
-0.2272046235237471
-0.13286436228755832
0.047193466254491404
0.5180128165469544
0.2638588426297501
0.34411460123344834
0.01
0.47495052419774825
-0.1
0.4295772005755166
0.5473682595867089
-0.1504061839933402
0.7347522717907001
0.20553751434898446
0.3557706469117044
0.7629436341126864
0.4462501226046852
-0.2511944359306093
0.6398399346587329
-0.39368109509904614
-0.29070100809743543
0.4331262603392463
-0.44746084861273394
0.17997640675386162
0.21614997762376725
-0.42116198074855177
-0.4150021435178245
-0.010542833203254125
-0.3094906196498448
0.4046707412764927
0.14999677354119112
-0.2497031111886073
0.4446054039297545
0.4111870686467017
-0.13082806894737986
-0.18072564871683147
0.40623940043071416
0.3794506519151938
0.4923036092441789
0.4822669319045419
-0.26960613751964363
0.12571575960290393
0.2603611784576622
-0.17111253443148974
0.2980818286299686
0.468340202467674
0.0785423725314343
0.3117910725544784
0.6297842919999327
0.05338903907466622
0.18278101688894874
0.085815521516009
0.506367865224118
-0.42904745142049383
0.1338685769741796
-0.25985672192460885
0.04035451176334492
0.23599752712582217
0.5386123647399093
-0.07508434047137029
-0.2581025616318816
0.34815130573232883
0.2980861866841062
0.053242029775116266
0.24363618716985325
-0.2690615713730286
0.5408522276436617
-0.34682625264155587
-0.19742817132315263
0.4613815482048259
0.0410110267474035
-0.30853390112564244
0.5795567947925152
0.16394150996220427
-0.4358309191113453
0.019037675874672633
0.39175764686574943
-0.259513622022045
0.3804417694662568
-0.14596374381513452
0.3447927819288923
0.5461032423872655
-0.05593162068708092
-0.06144214353435798
0.37744619043649663
-0.2010396432730619
0.23308235600407137
0.5891831625316875
0.2626988850933172
-0.2581590105012362
0.6103663923038344
0.4627570218264788
-0.15742335062636087
-0.08303328839795902
0.3754210426533965
-0.4177735826058307
-0.07728059837045557
0.37001858460536274
0.268838591666527
-0.22170019079731512
0.01782600275986498
0.4295476735559808
0.5299891779733248
0.16542755209977195
-0.16145063117822475
0.5076745971198385
-0.3312595623125367
-0.2564356257698621
0.0842740198144943
-0.18287399041555563
0.020487313519587897
0.010434910212528181
-0.4359578201030395
0.13066490273011525
-0.11529203095590754
0.08959153185486841
-0.44962877607146523
-0.14109679175037684
0.29568997145091946
0.43636804191687945
0.3220612782099554
0.556535083502242
0.5707583136082764
0.35585486558478824
0.4083512244360116
0.1594258982143159
0.28790059389775136
-0.32236208848299075
0.4311449308624795
-0.39449893036874506
0.11831840313534281
-0.2957318265712796
0.46494582429924086
-0.3242495940988838
-0.4626917323576148
-0.18844283747316656
0.3260989734598584
0.2870454197861896
0.31
0.5679189838428867
0.39
0.5005394897276523
0.2850861622826861
0.03557904318289673
0.3638428207122704
-0.35127106481348314
-0.3830516711461171
0.3226939441978805
0.13504535391303804
0.5779546703921464
0.2595238786964828
-0.3227909221238281
0.475769728173393
0.768208860473297
-0.34929096168188994
-0.12603984145393987
1.1740489265426595
-0.4533214581239156
0.01721850146295591
0.8955268275499119
-0.09805770204806777
-0.18617209019103595
0.6675454679653596
-0.14668575080952287
0.3371672924621529
0.17648720208755092
0.4410331324150973
0.4355785122246865
0.7107655269471788
0.43834358779293486
0.16120409762774898
0.4624807383487468
0.07100279098830618
0.4513162361300993
0.1889077096199106
0.13446368121479108
-0.13335750805941496
0.2680215359458287
0.08002359907838784
0.3148834956669214
0.6226712963362477
-0.17286716503836883
-0.05776289913454268
0.43826181940252407
0.3841887066968208
-0.23106185061469553
0.6203033752349985
0.2954461023444983
0.17629775715615695
0.3320481071763344
0.4763417626323097
-0.14981813135978786
0.6219780933779719
0.38252766494661633
0.3510820758263291
0.8216885319961346
0.27191701914233574
0.11419573282632385
0.9952482920172756
-0.30475639787879893
0.14929026635657014
1.0359857079031447
-0.0005883472949147975
0.002566577985387196
0.9760215204775826
0.4160995285018318
0.08486616095072043
0.11261638349372383
0.30720508252035733
0.30413494255856877
0.46318002383343115
0.337372660572802
0.3713751164497082
0.32019319277352504
-0.04688068225843145
-0.23171939420223903
0.16369704159975113
0.5427099795672895
-0.23452642405768015
0.5179618354386416
0.04125221558383975
0.5464419441227147
0.11671433572853178
0.16153134711355469
0.6007362198932398
0.7410281564522577
-0.08707674938069683
-0.17518651656466783
0.23075650540866202
0.40911763812080715
0.5091026077128357
0.0437685478020013
0.31181647144996383
0.6644384110059759
0.5664755956601586
0.013773620298665907
0.031687900244682835
0.5578436942084287
0.3951560325116879
0.4677572076728604
0.19354017682099325
0.27339024247094745
0.4105971046006002
0.26543293275555496
0.6586575896086464
0.061127087219312794
0.5542526545054647
0.019307885240022714
0.03346901479936591
-0.06669792375699851
-0.07208346407756641
0.2005301011369545
0.4965603105536312
0.4875972152742158
0.7297312685994052
-0.10627250938695797
0.4312288677523549
0.28934685911864955
0.0927986449102765
-0.047457877064124986
0.5490214736909134
0.67873599055734
0.03693016271654663
-0.017098799561181054
0.5966364968849874
0.4651499296409936
0.46947650409728936
0.5677220757252245
0.5874890471422867
0.4958458488262272
0.05
0.12884177813857414
-0.45
0.4903263922202921
0.3035328457513021
0.4990615622977602
-0.07379622459760643
-0.13905330909296804
-0.2754348941642748
0.6995629634682821
-0.4566987530928688
0.4559270415475543
0.5205921069886073
0.3909101676749761
-0.2997293048511969
0.45271900899033624
-0.3655603879280012
-0.004330648068652235
0.835332282339278
-0.05357231805948771
0.22724928271137626
0.6855981026640094
0.25458193083575253
0.42014072670642433
0.0694305104259806
0.1678580790787336
0.35993835280646735
0.1958294487721973
-0.07833848536752616
0.42297669891407963
0.3026439166908439
0.3118087006062145
0.22899615909609655
0.1510822323950507
0.28735092471999096
-0.2564581605330418
0.6138970077982354
-0.3400095310540558
-0.1577643234861638
0.03956553486211972
-0.054371895164817455
0.2829852437845653
0.5034184447067646
0.21102562771980776
0.07550397470853187
0.04041340018383268
-0.2884880586812261
0.07524982636039973
0.8663302137180426
-0.23415072386730473
0.24263266220466104
0.9121758524836803
0.20262080152279657
0.26319185234855386
0.4691456237359952
0.23509184012658915
-0.030137095176054313
0.6100537654459189
0.017512645941273074
0.11108995131243367
0.9463872114664121
-0.12004784656770806
-0.3092746180442276
0.32970892755683345
0.1669950066985321
0.276123468940456
0.4500962436943409
-0.12879039642365897
0.3408974920481462
-0.13725763735158789
0.38378946151458
0.5826545577190593
-0.09243761415023881
-0.042787627357681504
-0.08101434140000363
0.36546052778373583
0.18298312982740664
0.5565912100441129
0.42217777530854134
0.07866033085848395
0.010208803811128053
0.4250075803571751
-0.3077870679571652
0.5742731571866343
0.20363615190373974
-0.3904799928792345
-0.34836714911402805
0.7572136859940597
-0.2114172206688932
0.36693354952035956
0.5338865240717975
0.0066092426189810205
0.015320524100491768
0.6806762057856349
0.021432586325011233
0.5612885882911243
0.6001446120866482
0.40599611583336515
0.48686496253768224
-0.02529439222568814
0.0858587458991437
-0.33720510829990996
0.45480773220662146
0.18982669230442595
-0.1448332746828864
0.08304715285681867
0.7192154380372058
0.6291493581955999
0.26562409812664517
0.38265585988889295
-0.10245960136291027
0.3998477639498481
-0.03995884637579964
-0.09562136301228498
0.2588810652800202
0.6441696139434036
0.054058548092016205
-0.17072391837245726
0.7740946864915796
0.6332736255356809
0.6415420216564717
0.2026136690189855
0.3386246978973266
-0.2068386703635792
-0.16435671132260854
0.36923873309840277
0.3580434489806573
0.4701471341320777
0.06320302532972973
0.5601389370969897
0.024087353784418432
0.37956186499056455
-0.28
0.8378674512205735
-0.14
0.09952085479661893
-0.022462840452008997
0.38229497491756065
0.6329436538710385
0.21776210956955463
0.23800219032056083
0.7727655200985082
0.48687212478327274
0.4617338873674493
0.005325344069738901
-0.249419396234848
-0.14348231791464386
0.1831215847642679
-0.09199943164728443
0.19472281433928743
0.02451877121179419
0.40839824965125854
0.42627330214806264
0.05308349336574766
0.14828303968852974
0.08374168528906346
-0.07847124946662067
0.12236939937989713
-0.053284166220656605
0.2244787884046581
0.09644521301833804
0.39565999454848333
0.7078367604422404
0.18414308021161777
0.5053095911011096
0.42446999137748676
0.05786025272374351
-0.03512673255748041
0.4342800662441673
-0.09151349848434727
0.12616304150203486
0.9119422249124335
-0.40046543121212597
0.11591528877992742
0.9940852182383416
0.3476393281840726
-0.18773133394897973
-0.08463475044482131
0.31000591959614193
-0.25958647907445126
-0.0020731219106399986
-0.26070056381256834
-0.07376092588663528
0.287380843665705
0.3140199174232703
0.47387313441099105
0.45186528556377453
-0.08809858477242562
0.21826587891577157
0.263198530454888
0.34617542583168015
-0.2345800574638193
0.3507728133632828
-0.38855292069712327
-0.30503961188630624
0.1965768504449879
0.08610259664365823
-0.10133311327454408
0.5693865942093499
-0.11041364573246416
-0.03772004307815466
0.08420775193012954
0.49115212635036504
0.13785190728318839
0.3643985818593282
-0.24461065394017698
0.08476747788719786
0.19216753460609473
-0.029295177290953264
0.30961531088362587
0.31211025762636346
0.4659142666923504
0.4028919213564755
0.6964724150097504
0.1982754988361154
-0.18332469356821104
0.48506803904476314
0.16589648972578738
-0.41188732478251533
0.4566117803320168
-0.14708462034716097
-0.021563249772598114
0.7589128646144109
0.21029022036052747
-0.032913626098038044
-0.1444259932908582
0.3449794545912367
0.5481856892600526
0.4344992846161521
0.06495486132613452
0.10170801283632576
0.019748668256054626
0.20618315410995966
0.12066973227693752
0.22699835136995766
0.4399717515554442
0.009653834777064841
0.585851199150743
0.4421348012745329
0.04545486147621745
-0.18733138929042845
0.2595163630165511
-0.0867554945680672
0.5258909768279376
0.18850435294246978
-0.10343451444889906
0.24596263289117015
-0.02488828323993158
0.2124776570260592
-0.016455913552976962
-0.14838190827074274
0.5749631230564298
-0.32324436887319213
0.09592108101910346
0.44255185752288884
-0.18568301657421452
-0.16922900574633493
-0.27329889351275793
0.3537426795351262
0.5971960491799724
-0.3746777392111173
0.6170696756383024
0.5552478987751563
0.3744239591826858
-0.16
0.6532158760196553
0.1
0.12046566437306014
0.299121027139096
-0.1301563416262815
0.28031644914127135
-0.18095238181226778
0.4896545419786917
0.24291904424360064
-0.13664853153636652
0.4622176435728341
0.8985344666752653
0.25517294443782873
0.35285902278558656
0.6525186597009468
-0.2094526278006051
-0.3665967914718158
1.1646660916171017
-0.3721442454593636
0.4474091957655821
0.7523316555662815
-0.1838157966459354
-0.10464287395468498
0.3721862564830463
-0.29161832784243436
-0.11451631087402896
0.3585177531156406
0.18192361244431487
-0.1535557338160736
0.7234217907753445
-0.12394100227334275
0.28889340611224806
0.43705461610578
-0.39002296753210125
0.6084592568202308
1.0666789774228231
0.14078682044286955
-0.08328966712072547
0.8967843228949988
0.3524303989116547
0.5355722579096341
0.6369010022921078
0.19345179448418592
0.21782149102919718
0.45007631163051076
0.438027252026219
0.6178579867562253
0.060272038688319894
0.4077950292413809
0.11620947696842429
0.628796516927889
0.12091906078961462
0.12114369175320222
0.744647012923223
0.23013435000950389
-0.3403875692094476
0.9866474536657603
0.0896651702296143
-0.2063005849157706
0.9504904512605853
0.4817351883411129
-0.22696615570251458
0.9692366483169931
0.3036545620714492
0.4666864173402379
0.8616832366234961
0.06755540072219406
0.48455619204012296
0.3484727047748316
0.7728961578709732
0.1725391627673867
0.389777395002693
0.6436084969158482
0.15085381741294462
0.1385766385932346
-0.03350540132025348
-0.05010236894723817
-0.011659670063316162
0.6376870936964807
-0.16873591154584866
0.15536770613960918
-0.24070673990783506
-0.1243147981549124
0.4148904960367202
0.49534935680411896
-0.0035486013489457358
0.7762085692130262
0.3932650868218473
0.18390701795051162
-0.1551317661058227
0.037149802841236576
-0.21423941520139697
0.5011433767159158
0.30902109317140675
0.2466981245411036
0.13172746142129682
0.2374994687235252
0.4735561330933887
0.5532363790731744
0.2391325425193637
0.3808261985902349
0.24001334391192855
-0.15491448781623737
-0.10172795086168011
0.26072064923068605
0.16693235631691988
0.1986120533837848
0.21395743178767562
-0.20664443048553494
0.24507859750300404
0.21716649605410976
0.20367996112881173
0.16102177178880794
0.4759816757549595
0.29892160714215904
0.1286443088166084
-0.3139209061682414
-0.12879834796244052
-0.013513024469616825
-0.15857483894306762
0.28801291809860946
0.4130034314558363
0.548511805818021
-0.045590182587932036
0.24935729638042695
0.4050070531406414
0.37156070516485845
0.2846369716208484
-0.40796302445343335
0.40925110751851207
-0.16811072941308822
-0.01
0.8840357840990145
-0.5
0.6328082348744132
0.6716924073136055
0.5457306547622498
0.4377879754332869
0.32788171919452574
-0.3643881384204947
0.4804974557504827
-0.14582255005611056
0.04291496425270229
0.8897045422377834
-0.34233273921660656
0.3944921997342789
0.8668746591089861
-0.07108009156938598
-0.43408655385814865
0.9413167844227565
-0.22694346329072898
-0.2018405156498946
0.3212357075808734
-0.2991084246571008
-0.354756184323938
0.03212697260793782
0.44291597898987817
0.003948337081475258
0.4303024425329229
-0.15396401234052037
-0.14272463360602408
0.17101490863054888
0.20199649224935282
-0.4103757957894973
0.9240475281527326
0.14661503491064415
0.35661909790874247
0.6589153300891619
-0.26524766072402567
0.28050217220340534
0.118331758948191
-0.4485471638777186
0.34741314647586435
0.7620815087630681
-0.2892078879650529
0.5277396237680174
0.8608224339500237
-0.4082752904441623
-0.16492875230393966
0.5554886187415504
-0.13027309916373267
-0.3783446560180417
0.9305301164954703
0.07810130679645075
-0.3930763820343363
0.20415129842703325
0.26921185088118044
0.4363950978790712
-0.02941644311880659
-0.14669188748638662
-0.35802985357522693
0.8641543618315077
0.40416225901759734
-0.027248149789740578
0.4928875705017321
-0.29535265343811423
0.45547970821250994
0.7516635424857043
0.5831435165756649
0.5679956478065075
0.6064249155167672
-0.1441337960493957
0.2223952391764622
0.3638022101975143
0.3840893178999009
0.19318079631866297
0.16906030339257352
0.5780456675626411
0.23324484547023416
-0.15348603978391723
-0.29947203841243897
-0.30026234410803493
0.19135041715799717
0.5091986942239158
0.3057018784969532
0.36373070906009725
0.6108541797168267
0.5207481502013365
0.43217720188236497
0.557361415190176
-0.0024027779095933933
0.5356383611163554
0.47705118406711633
0.32994765099192097
-0.14857666023225954
0.6289157765142143
0.006865999817654505
0.5434206592055576
0.6000001082506667
0.6228927116381998
0.5513262294016948
0.1660678262339836
0.4058138909633587
0.6624880175431754
0.14198485876734376
-0.12298624092163876
0.49949542225274585
0.45377758594277073
0.4687324037913852
-0.1071468623479614
0.14870122583045442
0.17857315324144127
0.4268588240413945
0.6248547899910433
-0.17936254504693858
0.6219904215947221
-0.0023411092739058503
0.024638977651034878
0.0018780712865750658
0.7037697183362694
0.22626405217286602
0.5237076788882035
0.2103150362128082
0.5965683307247308
0.4730135264383046
0.290704910110843
0.35169799479269626
-0.05017138249023205
0.5087601549714135
-0.15552834348134523
-0.2639532172755265
0.029768328030749726
-0.19942542731307988
0.17
0.08971219458695771
-0.12
0.37434992425074154
-0.13113355318120423
0.02298462347477049
0.05101135138664693
0.004305415858812918
0.4682083806404223
0.024094145158367226
-0.0019902000875240233
-0.13442228072306828
0.5759996407399494
0.11873496569438452
0.2115545343577356
0.27878490542932954
0.42997288592420047
-0.13371078331348935
-0.10239447201744144
-0.2535824189578036
0.25287368164850366
0.6554690109726243
-0.0780303669098625
0.12454260530109958
-0.1271976842408996
0.09296740465106579
-0.33908555186223055
0.6300654027152378
-0.15066752514174084
-0.04820550061943898
0.5903896748086498
-0.3918718484779463
-0.10004728498633116
0.18731560040893325
0.26304401028866364
-0.3914373274821336
0.45087263588892046
0.350877017304478
-0.24218198360598275
0.35248796700493634
0.4400063423123115
-0.13499777361425677
0.6920385388611993
-0.0467284395356769
-0.20638006886933807
0.5081607915811036
0.3385316029994997
0.07271213980724002
0.3036927009194237
-0.20609251501539824
0.4545362254310282
0.517954682560438
0.29782141771979836
0.04113148194386921
-0.09072954710456685
0.4299103908719626
-0.21892878539284533
0.31583699590502123
-0.2065958848009105
-0.13673679670948316
-0.23009662373342776
-0.45285425384582384
-0.11017555797896822
0.472901236944478
-0.4524133532542451
0.3336372636516339
0.3571849029618173
0.5594901590978145
0.2631284201587299
0.16190480124475767
0.405279104307778
0.2982200451212585
0.04875039590262785
0.08334188468737938
0.4591203838245525
0.32637874314957155
-0.185186801262859
-0.23603190468420474
0.4453744823029777
-0.3990302519075075
-0.25043347278312555
0.5894683881935827
0.33127741030080826
-0.3976165816384439
-0.2118667873739433
0.36979569472365204
0.3523558061406933
0.5126493431973931
-0.3246928236268212
0.04963744176060364
0.003751270185336846
0.4769236137653254
0.12585411487804188
-0.13597119089641463
0.5504294017296387
-0.2984364525359126
0.2119949936756877
0.2267537845714908
0.19809103792991195
0.30391100547260885
-0.2816897176912553
0.16310187344464877
0.5701343037372503
0.3070761485293655
0.5138089100633891
0.6207562549603652
0.3657471606875102
0.007965807690748445
0.5394917734841768
-0.327145255463661
-0.03095272218382074
-0.14604374988713936
0.5273087977822254
-0.1287548547524487
-0.3461293291739506
-0.3048034903623347
0.036319753677787656
0.028615978864497727
0.14537659316898044
0.00698242140077626
0.5298044496044797
-0.17647454529399098
-0.4584014936869172
-0.05576790900591168
0.5344817284040931
-0.3139941909313937
0.2832902226034811
0.051016294039178366
-0.3404153262300632
-0.2570866190604477
0.47781427100177526
0.4108463793196205
0.05
0.10946594639164521
-0.37
0.09255742071477285
-0.12442920673154458
0.25213696079944414
-0.29373631920600934
-0.1499421426995617
-0.2660501173338534
1.03427208748824
0.28289644353293186
-0.24655688495726719
0.2843575425383137
-0.25668224389372857
0.5062343623462593
0.3380726771798031
0.43681137416125576
0.089790426632481
1.1102273132834586
0.04110067377137984
-0.44835638287013974
0.6270741412348703
0.302400655322586
0.34795359577001084
1.0381027718827796
0.2650620460345285
-0.4067913099477236
0.7762917822343673
-0.39838205859932563
0.2224448644410224
0.11066600113038123
0.32800754811591465
-0.29707666937847765
0.5290251480109291
-0.4008300649451344
0.022354558346956103
0.2597914902455243
-0.09102763490516244
0.16760870530845143
0.514873025837741
0.1086366825411246
0.23937939408484404
0.8266521253942312
0.005086894208242275
0.47418204956199694
0.4175441402732651
0.5493922238520561
-0.3060060755034607
0.34363722958006165
0.4834872596107166
0.36539363360139115
0.2547464309705557
0.67097834911537
0.551104325454381
1.0078500208779562
0.41216406735498023
0.15347238986272005
0.3309081262388188
0.37673789758577875
-0.14471378530434453
0.8959201913928776
0.4199120075987844
-0.0793172334548673
0.9445227634939736
-0.18408711635178862
0.4996104256034733
0.6258441443202956
0.43566384376354844
-0.17710724896303112
-0.020975204771336683
0.029200867421685053
-0.20134506516849812
0.3577014436379807
0.1647620352178354
0.4159465753382489
0.3352040098605639
0.2599678284885046
0.7393612029536677
0.04683608969230906
-0.3850788789586604
-0.2759095578277168
0.8790057926490483
-0.2719778211340137
0.26090188256135133
0.2017665699226257
0.48844996120334094
0.8425048330296275
-0.28137639043767326
0.4599899710953627
-0.10172427617220303
0.8023397940388207
-0.18949710417929966
-0.09799294019694224
0.5161017052783602
0.06300964860589969
0.22430789603973006
0.6081275600775528
0.35868295757003493
-0.039787497605850555
-0.025834974683782028
0.2867408859769501
-0.1071826810785404
0.07361039639002614
0.5046906983758324
0.24119407808070534
0.04672169715586827
0.19320263845074373
0.14166313686559545
0.08427905511587704
0.04517622170584521
0.6429583960136072
-0.06112469409013302
0.8092847117638434
0.16879857933283152
0.3169352736054828
0.655384560749003
0.6582311588592477
0.5364414964524302
0.3764457583756402
0.08264671621692449
0.1580223531760252
0.17044934429436812
0.3423591545995781
0.1275580103631725
0.1612012487245669
0.5400864309714956
0.6002488075368372
0.27078317517898404
-0.015693357120178972
-0.019847136601558815
0.20665890740905596
-0.04201061239196447
-0.11
-0.13687097392071804
-0.07
0.7928892515093824
0.03755929213691826
0.7461742548511009
0.3931494509968894
-0.1963145866600749
-0.009964225097189548
1.0835651854376591
0.15228430621491892
0.013811024971314144
1.036896457113028
-0.12482221552895237
0.3418529871720416
1.1422161234905919
-0.33818384410724395
0.0697990956791085
0.20997464819831158
0.3561115226779708
0.5073110812727323
0.25523790191628387
-0.19666371663362475
0.10892184228481372
0.8743591824743473
-0.1973957582037702
0.02253075356501076
0.08999908573413393
0.3933554272562459
0.3752377444609626
0.30163798807617664
-0.27099046598174786
-0.30403044099733634
0.24817808929663054
0.41173761825609706
-0.20062182778335072
0.9761391165974618
0.48036797774128004
0.32919931398717317
0.2299943161739811
-0.06330836360576314
-0.2472557574517566
0.28556008719411724
-0.03241906318696924
-0.0649930352367034
1.0288546897481674
-0.15797638795607463
-0.3318367976349551
0.5722416220203608
-0.30451955783001505
-0.1877416385942074
0.7884295047103914
0.535197400439207
0.34101247143504876
0.26712312155594437
0.13774967356439835
-0.013952265813023534
0.18721351512486148
0.12262401724355308
-0.30166345222882984
1.1161109467467492
-0.17856222796253096
-0.39646547068837873
0.8923616708464696
-0.060010933602700066
0.24913351235973438
0.537904573457703
-0.32115281926204725
-0.00771289718119518
0.5499438019942618
0.06365436174232386
0.2606021199465822
0.22925682336868258
-0.2339736767598736
0.0888551161795533
0.06807391664958677
-0.0010437662737492602
-0.05581859276418687
0.20959259345508577
0.06211126586449211
0.11017097080994494
0.45601324237870006
0.009701053366745819
0.6697834019965677
0.6593465543988025
0.6167553101600205
0.21759716420810662
0.732838403849869
0.31544969849741467
0.4677813240558033
-0.13210858013528956
0.7702125226348774
-0.10379985816943316
-0.10242031647951015
0.45210544120433477
-0.1346329354277697
0.304052706683191
0.28646549529996995
0.27658589216688195
0.16095971630808598
-0.3216603419195768
-0.22209969784280903
-0.014758883823346388
-0.037256151778453664
-0.07363625404706796
-0.05806832533237482
0.0975898459348334
0.7043944276876338
-0.1923657233248319
0.22385656219258981
-0.03964497960806311
0.3593887135607531
0.6861415326027006
-0.18087622173041015
-0.0028770727325615787
-0.020361438981637805
0.05772661760338285
-0.21362234485867546
0.47178099381068345
-0.01767363879701056
0.525508576898588
0.17805032845381294
0.2707334644652603
0.27714415818798716
-0.051992356097856345
0.751720285612264
-0.2247234890692679
-0.09111152998760519
0.6775251920507046
-0.2601100964161905
0.6284701709208768
-0.28974895322889554
-0.2
0.2956342197842873
0.44
0.016967062448839526
0.49131202752887526
-0.13603925009118145
0.6057844880198954
0.4347754276466891
0.4875777239700134
0.472876296358768
-0.10028418910049723
-0.41273073496910256
0.34894542724554245
-0.3760448610481561
0.15841019009274773
0.5437832874406675
-0.38202364630513147
0.35896134676487457
0.3713271754727486
0.009881308990661027
0.3306715929700407
0.3127161953870994
-0.03321795712885604
-0.13664806790079656
0.21091522340210805
0.11590267572697338
0.29761978545916584
0.49854955182680516
0.21400049394231316
0.10299927934444846
1.0185329994771757
0.1386375524066606
-0.016626928667952158
0.6035667850274641
0.16322997486877247
0.46733426175581727
0.8492184950859283
0.3136170743865394
-0.09937446247727456
0.40454454064674905
-0.1250002469411903
0.5039070182844949
0.575371221346779
-0.11910840840299033
0.4979717940511227
0.6500924925684312
0.29210554460873106
-0.030372676520948445
0.4053574269289095
0.555185080820323
-0.26100741503080005
0.5401057602879962
-0.3189285140289123
0.3819650190279871
0.12568417229635528
-0.32747936009605755
0.137086412555637
0.5009185105104693
-0.14783509183782206
-0.009807530820688474
0.8834443494806525
-0.1834669874316782
-0.11541600460537757
0.29803762721375976
-0.3924517913800981
-0.27733970219504056
0.8728402298373176
0.024669303586007777
0.26600381224078706
0.24601709070257768
0.5581489282849196
-0.19032063031182964
0.876203844059668
0.40428661748044586
-0.2795733575365786
0.05764342529060301
0.48209976347426
0.46453755290285836
0.5909422337742709
0.5346900445511549
0.06231297770802902
0.3512996257679586
0.24655722775229638
0.0771307696667201
0.3738712793872373
0.5991677821743262
0.5391656455570102
0.2721193690285784
-0.10111518335730368
0.2540975468480457
0.20414939245236322
0.20192289192787571
-0.15020938783215476
0.0860317147678558
0.2943475042925839
0.44772598466931907
0.6421779289108787
0.4802659176480863
0.2762415942340622
0.663382306737939
-0.14945406974371614
-0.434669634606216
0.011273283451121168
0.24356618238337926
0.5363318016995042
0.38212099622614976
0.2617170333026297
-0.2094440073468292
-0.0779959105466324
-0.06239025087825361
-0.23252951210472675
0.14922737056363491
0.5634719727693775
-0.24489846083616448
0.28145536813482375
0.03361292392962524
0.04912321841582077
0.20458640950882595
0.1764602033036382
-0.0783088129725236
0.20591446040250477
0.7425641837983044
0.4366480584270883
0.17559154571910104
-0.21206977291790513
0.5335314962889416
-0.03603051752994166
0.3826688524692842
-0.02342565004602218
-0.010676049774994248
0.6442715310493007
0.5257631665881951
-0.03
0.8744066646400893
-0.11
0.30899708555446703
0.17247760003159682
0.3729859822064825
0.7600148983441134
0.44589997947157545
0.4323052105288537
0.2232848341114568
0.17309853216588855
0.537104862825848
0.7390138129134131
-0.2774300989330607
0.16090621702818617
0.6497232839545951
-0.21194092417658233
0.30187955861325616
0.6041024869510403
-0.44729346875809706
0.5111196832050318
0.8132231982439987
0.05434569535716976
-0.22678943180118616
0.44549098385767477
-0.0700129752502892
-0.08362161975013555
0.9796015740151913
-0.29729137745885537
-0.042466330425710776
0.9387182492888273
0.20243665794308427
-0.016747004693786257
0.7040419865099402
0.4613935949900461
-0.14668406807332984
0.22633328889908405
-0.3609606440195551
0.4124448767015264
0.47144422491275834
-0.1752005248080855
-0.13981396697610052
0.8879435576203261
0.3105589861619749
0.023282821580340594
0.6966621941410985
0.5887435610847614
0.28656400281785444
0.8037545651035806
-0.07162999111523517
-0.12941437568216135
0.8663823746769305
0.411720577811432
-0.38164798140031214
0.70331699877378
0.09701955943273215
-0.10401908775156286
0.9451714665231857
0.5275361980345771
-0.10563897684128234
0.4994669552858015
-0.025139401638320104
0.19947251618270742
0.6036401802649551
-0.4244241196414634
-0.09721723064592362
0.7070467017325681
0.36885910571955594
-0.25008369672366393
0.6650399426444844
0.6237323308853799
-0.054828638273238785
0.31857093174485085
0.5149462833345868
0.4309299626436244
0.7638542586417161
0.05390435552086024
0.36666924749416036
0.4254187550956995
0.5466005742163402
0.330979401551082
0.5347612656657024
-0.06705209041058492
0.4942476662113739
0.12463411245093398
-0.000193201856108999
0.4645730448596833
0.1477402842051232
0.4963752477413923
0.6204597346033279
0.3040618041636818
0.054167038039189576
0.5458809948777833
0.10044878109378319
-0.07764119916536753
0.44952344851013404
0.1913629058898217
0.5378022224062429
0.7075559354032582
-0.07111321447082222
-0.11775414412623585
0.11884845583542131
0.2743386973646581
0.3755014236061197
-0.0310968508833304
0.2565517178334386
0.29323370985609065
-0.10473324970091397
-0.1683387846838739
0.6517606111909877
-0.019872680280037337
0.3064578993445238
0.07210335774171292
0.25757522974214003
0.40853226428653955
0.13258108277751987
-0.049182593361910665
-0.1214554194264891
0.34932658959459867
0.3361717404626353
0.34936768640755517
0.40314914993600875
0.8035464749360842
-0.2423038567330298
0.5074459586031456
0.08438498668916299
0.04232992321875824
0.5219736668982773
0.13807375842460334
0.3052731832111018
-0.11465836482950575
0.5355257481994192
-0.19
0.8231628286067822
-0.39
-0.020506012457615852
-0.15431170875151662
0.4515992258349273
0.6906200617580017
-0.27287876067376027
-0.5295358596090574
-0.9372462421529802
-0.16388199637519796
0.28478557265057874
-0.6383723313200889
-0.34707733946772495
-0.04888452255429968
-0.7211595638229491
0.389379988240013
0.09715966931100396
-0.654588870643897
0.3267651031956582
0.13474043035712344
-0.3042351149331534
-0.5611694135612046
0.07559013858109441
-0.7262177523171592
0.02996351559882971
-0.4474403551053775
-0.06527946226782332
-0.32794428076403337
0.39572330782913595
-0.5825157389327494
-0.4938716670336214
0.420601899102593
-0.25560817975127265
0.30434218251144574
-0.5060618538987233
-0.8782558548316065
0.013653610593093883
-0.4355025467019494
-0.24261436873104703
-0.5025471827042377
-0.21692222381401835
-0.5014490033612723
0.47770712903805596
0.20466166954470966
-0.16395154891512384
-0.2113742187668198
0.0770075143776455
-0.16905132727095915
-0.15862028524392052
0.2617911445863652
-0.4907043152705748
0.2882490725469749
-0.07844943995865818
-0.7058079297964864
0.34359327161790876
0.23698209599207148
-0.23512542140938647
0.03747922728008082
0.37357987310284185
-0.7349570206352454
-0.5092869506048313
-0.42870138316817696
-0.720976071407098
-0.4009866435619601
0.4401464471518702
-0.17592150664898104
0.3951109613598764
0.14280113381321155
-0.5473238188823575
0.25385858693191016
-0.08264866089991914
-0.7172340894487871
-0.3407813477885286
0.19821497786694553
