0.32087022435720647
0.5680914960775484
0.5108194419368907
0.5145352172377528
0.7355198657094042
0.23972607942449173
0.5497140304575275
1.0335353352799979
-0.40346820336586164
0.1187403590462607
0.9593333107508899
0.17170749257450213
0.050735681779168984
1.00433189815723
0.08471358243525247
-0.29535424271051475
0.887117277644568
0.23801812743759948
-0.3400146921024197
0.8653929299641623
0.25440292450990887
0.07465502579780858
1.0890232820404986
0.1161028545333561
0.38246803564584714
0.23364335503269046
-0.27633022830688847
0.20937034845769917
0.5834808867099441
0.2069299272040043
0.28672514106217545
0.36550065327039216
0.007555368039080779
0.389986630718592
0.6339862990243063
-0.18419176737125
0.4883192070301387
0.8769512228191977
-0.2354892674776817
0.06715856398685643
0.7730972233320254
0.3995253750527696
0.06449895458788157
0.7332157767747589
-0.29793356899098916
-0.29789750594959197
0.22916222552918267
0.3985164427920585
0.37556315220842784
0.7717308981884264
-0.03751288802520045
-0.044546826993114755
0.2093042981690948
0.5650236911956728
-0.12785943197989175
0.8479525280165185
-0.20031193366497704
0.4795814079710197
0.17833521584345374
0.4018645385571768
0.48572558123636783
0.5334410314833525
-0.01938545034807314
-0.1666160191490441
0.09238147483987275
0.39401570668082114
0.10441341817906716
0.06903640514859334
-0.1836686609560112
0.5596665210728599
1.4635449582907412
0.4473817817756422
-0.21868262267790012
1.5325855714857577
-0.1133096876686198
0.047906874069224996
1.2014439909190209
0.031242396150995118
-0.1686125957487181
1.3154791956647367
0.2837266612232196
0.41141889645607005
0.8761078169652815
0.29306654771789253
-0.12138563303838344
0.8223433459131859
0.33963554826443904
0.23997057697977056
0.6250787046631944
-0.05445602050371981
-0.152263136189646
0.8217021851144181
0.021154212214467488
-0.0028319997237961467
1.1482613196897524
0.4051639411732844
0.42167324358039315
0.7502101912637817
0.6087098262950695
0.3664107690657426
0.9025491219938895
0.6516333700796106
0.3773073993784311
0.7117818939676378
0.021503967793175507
-0.19336470350867088
0.6207220759123032
0.37323588873561175
0.2780359834747513
0.4773593838247607
0.5551978938397347
0.018051504747987387
1.0433430499271807
0.23919870646407002
0.1936341236599781
0.5277272936353125
0.46923184384395283
0.20722350274817938
1.2656563529074774
-0.23228659451641961
0.2692125733463379
0.42779947070668806
0.0035812170862196753
0.34209675379646737
0.8282764352847258
0.590220072058049
0.5328370214830823
1.2501954761880527
-0.1824392365318951
0.07017985747920316
0.39849679037630265
0.07191661328373859
-0.03178578152001447
0.058590704063445354
0.2737883385958153
0.4344266624568492
0.40205884148634463
-0.16589224280394893
0.11999461295127836
0.4002907449496006
0.40195794304590415
0.4435265415369079
1.193195875866892
0.3055208835429887
0.39391168347865546
1.0144447670366479
-0.09611314956851826
0.3695284878147625
1.165333800823381
0.01738101230863962
-0.18614079617294574
0.737449452415064
-0.16906535529533356
0.1588777577929234
0.6100081170592787
-0.3166425739054176
0.1926745558779248
0.5477008247133336
0.20186792035552378
-0.01738452796908514
0.47949856399143176
0.15012926492443754
0.16110101404485025
0.7739394693967971
0.22720281750513663
0.18098278691447375
0.881500352535228
-0.3602398385029197
0.13730655178642298
0.7136785905418258
0.171258158618535
0.29175375549149896
0.49968745326718783
0.41080209218809627
0.19489931111053835
0.7293887931414834
0.18795519669476413
0.013200100133635165
0.6129196570823983
0.656123543730749
-0.12532644842990104
0.6411725838107928
0.516397165565894
0.6255281113413065
0.8199009257314871
0.27681426387398933
0.6210139612868996
0.5346912077811501
0.5865381318787329
-0.05115248231569141
0.5238470968786563
0.5695486863838163
0.5083186882973512
1.0165755163296633
0.18734909631976515
-0.21890011844880353
0.6365975207335267
0.024545898662062582
0.2520821860352408
0.7025714604572197
0.2975896544543203
0.3664986340548373
0.20979985353176386
0.6059448133601794
0.7978552951808485
0.5593195462810081
0.21506845948492823
0.06927709561485773
0.726079418862873
-0.18520686060414138
0.34794123605483745
0.677982457425086
-0.17577403960633545
0.2534177779637641
0.753328718863463
-0.036596842953637986
0.18579105461724224
0.7283270717678129
-0.203968472511466
0.2911996492443969
0.5000718255560376
-0.0011218209268461818
0.5419699724990676
0.4898795031781954
0.2583001781963253
0.4712375606859937
0.45501096645523337
-0.05609887326764022
0.4827141616627571
0.938612237904253
0.1288232543065781
0.5667577713003131
1.0328630321658547
-0.24947114959258385
-0.29336124403595787
0.7264088975178611
-0.14289799960831429
0.5249483713934018
1.211156296151232
0.6040449863289618
0.2441327844390493
0.46889303876311694
0.4971238306714216
-0.16989492189495298
0.48857791169929166
0.3214666640692485
0.24490876000664216
0.46231997384764256
-0.11707907998069907
-0.07727265342198918
0.41398565402552606
0.2234366532700515
0.1784285683232005
0.933072022574478
-0.18135093702409052
-0.07798387498583471
0.41086210613039165
0.23727142272903132
-0.08460520399653665
0.5592373018382517
0.21551755603187303
0.4401943654322042
0.5597924240085185
0.47016286443286454
-0.015403662964541171
0.7427346089339384
0.4028187079041946
-0.0848352032948794
0.8300126512659503
0.014972205902518276
0.05858002083606419
0.620009023376806
0.66156060966072
0.3745402050525072
0.384822643150472
0.47078680567060766
-0.3395583888075643
1.2782724666984533
0.08764096436673466
0.29848624597472223
0.6855387610392482
0.08233003524365633
-0.09732246342938637
1.383919542356731
-0.020242036669721953
-0.3816778478579441
1.0107780253109764
0.37725486480459397
-0.3151171658167374
1.2275787763821786
0.5438934316921806
-0.277163165587824
0.6270873785023238
0.5864308293431242
0.20167272607509995
1.0376650951951853
0.5370172209873443
-0.11859651154856067
0.8980824558348082
0.5068690979713806
-0.0714155426069967
0.6454489352861293
0.2923216495784944
0.3761324444398863
1.100964189807262
-0.19074159198952112
0.14291366803143365
0.81097981776361
0.40246155646258697
-0.019245236416623627
0.4897437927446526
0.32585648592959104
-0.0068194537128734535
1.1654357847510157
0.5877387112194772
0.2624091448743739
0.8643045563501938
0.029641341033059484
0.47509255884517787
0.2692897899539693
0.8219726934584741
0.13947815608954056
0.5532381766766412
0.043638709491442336
0.6742438359013198
0.8458093110745157
0.08630189528179012
0.015685652269225636
0.7935678918490023
0.5871014981394019
-0.1824702058513362
0.6812561158616572
0.14756913224729984
-0.10206524703830071
0.5185518218857311
0.21986846741019145
-0.20102065665051266
0.6227114372821131
0.11466426162602766
0.6697546298038378
0.5687543467066053
0.4178460657471844
0.19466432220582064
0.6359276818305397
0.7157630382212695
-0.026215322168986144
1.0110090454868312
0.1450212954835709
0.05957779129803594
0.4596442697016658
0.47059295780172733
0.5855303692061253
0.7172133550030967
-0.07292870540780026
-0.02930304136327489
1.301180972930778
-0.3420629127661052
0.3414969947357512
0.5738960710449434
0.27442195302073064
0.05879643632133698
0.4923655160090128
0.348653066471079
0.32264170072909804
0.361657422365447
-0.2344841042931146
-0.01680191299217515
1.134601353669938
-0.25798442187637105
0.5667624590723589
0.48280298040064895
0.5102495793284204
0.3376581418936509
0.8242372826715813
-0.302080405763809
0.2923698017751214
0.7341782370206829
-0.19673301999438153
0.2542142973279218
1.0157718316145519
0.22982888985894026
-0.28068123122561445
0.6636926457715361
-0.23319639574449974
-0.3297685670660012
0.9715535490449518
0.4580300368224702
-0.056738967917332156
0.6120882907053592
-0.04553430398660795
-0.09953267520999998
0.8786759478263255
0.0006717461850957343
-0.024630131895936522
1.101460852375219
0.012984298322116151
0.2354348877109698
1.126260238655246
0.6581198924351839
0.5584536901731973
0.2675415017773631
0.32381982685086685
-0.18140892622854082
0.6323384043315076
0.3288855406984523
-0.25061301184299195
0.6991003549566933
0.5613276756877212
0.3030170839367374
0.4450907258144458
0.09170720905024467
0.47538580787189016
0.1309608096978646
0.23346840123167206
0.07606158688297708
0.7645572924251626
0.11061541655535852
-0.11518072921987585
0.42669233203156043
0.24972269305181435
0.11908346452779696
0.8203167641620089
-0.28816593282630687
0.4670484830847551
1.4007590993049988
0.46342671347374353
-0.10428906603057107
1.3064173764899927
-0.14089401459592468
0.5434555025834451
0.6233671102781958
0.4844116830018577
-0.3179576040982123
1.2527313964555684
0.6364605035061388
-0.11126718499006474
0.3669709577754044
0.405530523078159
0.09908401482292299
0.2961183038437242
0.5860319771968551
-0.1491316577000117
0.29899719210112374
0.6113687614623884
-0.3948060174169905
0.5222555574132092
0.42378475586728115
0.17834299350257835
0.39530624005202114
0.4075850623088988
-0.10017004712014511
0.5053893667879569
0.12601497619568938
-0.032696804172418895
0.5588678856289417
0.42506321440697614
0.0444392900908831
0.7866431192621509
-0.10984811348953454
0.1942465623544294
0.20434715454686944
0.3326405789622005
-0.27235172498509397
1.1650853907715044
0.06850063007708979
-0.22416687327350593
0.6743492317759423
0.6010519373610602
-0.3278872233797532
0.979992942755767
-0.09087142351251651
0.5119630429574751
0.44494882141172293
-0.15567756850569908
0.12672539134013
0.34743465620693315
0.8070742483164314
0.05891107321450602
0.6001413681620538
0.012181854486939906
0.048883470049798525
0.2302842354382068
0.29206659037549454