0.05018947555737665
-0.11000134172398923
-0.14793472788247483
-0.16733242313964902
-0.26002633575245127
-0.470414041829527
0.3157775064805118
0.4282859588716187
-1.003525365628427
-0.6805100894784888
-0.1717132229436649
0.23445732084347043
0.29230561764697877
-0.270001891635369
-1.050052450999778
-0.09447622611858221
0.1982881572552988
-0.24156081330446985
0.3253144372679316
0.11830203410202353
-0.5330629202184903
-0.4936662969217815
0.07999776840464816
-0.064089753272253
-0.0412033332787669
0.4482876256367259
-0.6648310711764125
0.22064118195897636
0.12829329219621216
-0.8166744236027924
0.057728177279433086
-0.09001489359520477
-0.9154737469504796
-0.3130445370889871
0.42828878922075747
-0.8529924857770619
0.3531327563072586
0.0982867488927856
-0.8208206546011036
-0.8246015515465828
0.4499900927363332
-0.42143268637256637
0.2194879087609284
-0.46000066343265483
-0.24727926961479293
-0.7619169070385139
-0.500004853357362
0.07246446937086667
0.2927368525383511
-0.3600074562031296
-0.17219654467422774
0.2502258235216999
-0.14170644092572932
-0.6179722093115697
-0.2927692322138926
0.07828592972106148
-0.2366873103580411
0.09773692968290913
-0.43000369569924096
-0.10548211293436213
-0.1443122957459886
0.028307246471788592
-0.37172202835095836
0.06643698424380354
0.478288800039389
-0.2858954619514791
0.04544192499921877
-0.36170297660952305
-0.6831880269945252
-0.279938031869723
-0.17999973788489704
-0.5531480632683815
-0.12277018197577147
0.010005144872209753
-0.7703156762638863
-0.5145009483320533
-0.18966515015722019
-0.21858463754510324
-0.7174625525980565
0.3903346900047111
-0.13595418098748444
0.09625681147184804
-0.3199996304558885
-0.7793425977452054
0.2032819954778306
-0.2596655796267454
-0.2067018018742088
-0.1277606300905988
-0.4996682905651629
-0.6553248339223775
-0.20057120746857227
0.010000435957656055
0.18748722176918284
-0.5539290666133032
0.4103345242286362
-1.0394912545423531
-0.6364613188196295
0.12033341722687199
-0.9069592294993066
-0.13942834376545554
-0.15999709043270308
-0.6936576893769124
0.23085470992379098
-0.1696657030855884
-1.0342745195546916
-0.00806101729632816
-0.4096653044933438
-1.035036282350248
-0.13218466186391647
-0.009998064547211697
-0.35123569182571324
-0.30196150825371876
0.28000012960617837
-0.15111557926295152
-0.3092216362899282
0.2100009481370795
0.11646905166920958
0.3134634701150741
-0.26999854337891643
-0.14621463752502287
-0.20897863068964795
-0.06966663490961089
-0.954107243018238
-0.05543717246883752
0.1403348555375437
-0.1573146102303093
-0.08530588045740208
0.4300007219805227
-0.8077802281747188
0.12409817732165986
-0.3796693088378096
-0.1675185141758576
-0.23174495176872387
0.4403342948009168
-0.031006452888211383
-0.3132884266841261
-0.2996673116878502
-0.009797502465000467
-0.31927821957379576
-0.5000000000290833
0.6830455448485147
0.35481048401081694
-0.10000000057085509
0.3989568412376145
0.36092974030714386
0.06999996284635877
0.9028375849110674
0.3070638850227834
0.1299999628640938
0.18670347693829417
0.3967212306540905
-0.18000000004100317
0.36704609458635584
0.5351300114817176
0.36999996289401105
0.9886373508203082
-0.35789678406820924
-0.09000003680519374
0.6016641092728994
0.607531427734307
-0.2600000000483722
0.6462358973063552
-0.42026615008450013
-0.25000003711751234
0.2940335124436407
-0.11340388259795152
-0.10000003699468372
0.6071712449822977
0.2677032863603975
-0.3100000003228343
0.44606403890744023
0.42226179206972037
-0.30000003709229045
0.5215055702326639
-0.06974077918838369
0.4799999628634833
0.14350810570630876
0.8325077391732272
0.3899999997852497
-0.3887403768104764
0.3242763728081349
-0.3600000000143806
0.5894909514671314
0.7267593383139817
0.3199999998947984
0.07700794995570061
0.40717176792784054
0.23999999983837897
0.8865955201845935
0.5266642862441626
0.11999996301110114
0.37710303900598596
-0.002467913242191273
0.4299999628457269
0.7862352014228958
-0.32306905229667215
0.25999999991989187
0.9668363775728868
-0.2783160078474263
0.13999996330778985
0.14208337020830816
0.10064703800394573
0.3899999629079441
0.323120250134812
0.06188360708803384
-0.04000003691380617
0.26188371816826517
0.27899980682209036
-0.2900000055716303
0.7310416993583929
-0.08986909752221445
0.19999989063840445
0.6399105986670836
0.01055952251429104
0.3999928822890856
0.09948197284112323
0.17282956302468738
0.40999288568667164
-0.2727810286525042
-0.0006379641585907379
-0.35000000785518703
0.01067946377371209
-0.054191625482971635
0.14999289141807276
-0.005759774827869139
0.48083469231475007
-0.2300070509570653
0.5392068004502679
0.3091096377122902
0.17999999073309833
0.570931823629064
0.4620204725210195
-0.10000711078952149
0.5880281381100827
0.38199595295398997
-0.07000708725862037
0.13805266250579115
0.4896731476030253
0.199999938152998
0.28036835725964954
-0.2276975962987632
0.2099928940423665
0.18774619605667672
-0.09972361719378699
-0.050007114430280046
0.8397653615420757
0.09408083966137935
-0.45000004114080905
-0.3140322283387215
0.16991680388797745
-0.49000000275496414
0.5101245108226661
0.4036515640373911
-0.0600000201540057
-0.3136171470985519
-0.1240574473643725
-0.5000000309625583
0.2540918341783752
0.33548752450985886
-0.47000708615038506
0.19455397696380786
0.22630167919031227
0.3699928821680352
0.12373272070254009
0.21477527517815034
0.08999998465327443
0.09526623128916621
0.15344230866729328
0.2199929706877719
0.5966063022975039
-0.08348713258091899
-0.03000710591270813
0.593521524437946
0.3820431041414807
0.27999292823550154
-0.11200160148933062
0.20275153098589055
-0.4500013411386342
0.24161701051549422
-0.4264641500557535
-0.15002632426293058
-0.7291685205578972
0.19900922528972315
0.3782867066577681
-0.10464328947387345
0.006706534561865319
0.1482875244855344
0.00935375224833188
0.0938713210267148
0.4699981091898963
-0.2195043598632765
-0.4367529257687824
0.038288904082357536
-0.37717106507125064
-0.14448121607244663
-0.041697225124981196
-0.45115347164220115
-0.05030763790637029
0.10999776937822812
-0.19533461375038536
-0.2416023424491136
0.11828837269571432
-0.5723190145726066
-0.6011735628039999
0.44829403678304597
-0.36274663191365675
0.3366306074932843
0.2399851129024364
-0.6322623831993978
-0.2701779380013628
-0.2617104642278919
0.01625396371110938
-0.164922875645077
-0.47171250366572814
-0.42065125384417584
-0.5851940712025767
-0.4800099029414166
-0.45872711935576727
-0.511963212239966
-0.23000066314321851
-0.12371433467160807
0.16935319659357417
-0.5000048512399838
0.06330890436043259
0.3399068807120853
-0.10000745295020569
0.0027479689386039614
0.05788678386968099
0.43829430354467336
-0.653519375338569
0.20374026463909464
-0.31171332248007155
-0.1510822667985247
-0.3275315760024321
-0.3000036940869152
0.2619001865473277
-0.29554604833839165
0.27830798497077897
-0.5183752283601537
-0.017278732567149378
-0.4017104534139802
0.08993479611622018
-0.11817514067391809
0.3382977663494995
0.012542832875781089
-0.6345639878971248
-0.4100004582286305
-0.7319587282793375
0.34998323868505765
-0.12000899424611684
-0.11650636900648444
0.32216150688840034
-0.020585383227291986
-0.22868511335292344
-0.07908804229214711
-0.4505851037989855
-0.4668566530024157
0.1707012176682582
-0.05000064603561654
-0.42722447380089945
-0.590813363760044
0.11941536756970593
-0.8151259596582487
0.2916003529475164
0.33942010682198287
-0.3081241724545385
-0.1927755341427575
-0.31000076213952366
-0.383750869746479
0.3211594454903911
-0.11058481398987904
-0.7370978690084591
-0.20831514261993692
-0.17058287873358632
0.012377116227852999
0.03812954510563281
-0.09000508649453189
-0.5546523696628053
-0.2978739608043983
0.2994155833999877
-0.7280653569593092
-0.3566523284432406
0.04941488658253502
-0.14985080005393028
-0.24131919722718229
-0.14000338355123623
-0.5146191694151206
-0.6211971376910064
-0.26000022657703026
-0.38534132557514233
-0.5855858131757984
0.2699983424703476
0.11848005517562621
0.2093550125071619
0.46999745354053696
-0.056463248069835444
-0.05829351809682771
0.24941721241121567
-0.018229585183102602
0.40340890232554216
0.46941460681714337
-0.39051606224196916
0.03403570116739495
-0.27000126216361614
-0.8905583937536682
-0.35809044464687495
0.08942188696236825
-0.8178479514270662
0.06995123822745229
0.04941558709479139
-0.3970590590358423
-0.24665057518160807
-0.10058160444762887
-0.05987243117615697
-0.17491068734226092
0.4299999995195336
0.20196994514828287
0.1499517810745667
0.3299999905692644
0.25710747629721203
-0.44221881448994116
-0.5000006137917957
0.14927807136246926
0.6754998916514315
0.20999938650119318
0.1815599722267467
0.5623721724549756
-0.12000000067738763
0.704687084784885
-0.17996238402910664
-0.30000061300456266
0.04702225353985797
0.076793427378924
0.4799993919646849
0.11026582927022296
-0.18189413492308112
-0.38000000079912605
-0.20104661113757344
0.1657366756499279
0.28999938680506665
0.31132319480439585
-0.25948401895755163
0.10999938883424071
0.22654388982827353
0.3896036793316177
-0.10000000533334143
0.2874555783607634
0.11046768221835586
0.009999387221741828
0.7865921872983234
0.2752191403410041
0.4999993864911079
0.03184013800328461
0.2813976244681925
0.1399999964522455
0.37566224604576703
0.5151101160836963
0.4499999997624272
0.7119491252110322
0.40957763882200837
-0.05000000173796934
0.12748100764724993
0.3859761729668939
0.1099999973299612
0.39108247090456544
0.12076697409184098
-0.12000061107019125
0.046292283308291396
0.33939967379298536
0.41999938619776556
0.5376589712063217
-0.320947649363893
-0.16000000132341624
0.6280069071946497
-0.15656054143615297
-0.35000060616878476
0.2536204119192528
0.5105118916718395
-0.44000061277438407
0.7965467526345009
0.5010013189587078
0.4399993901703676
-0.033942061456949765