-0.4937612864059255
-0.22157796145925743
0.14481803679287003
-0.07190784061166557
0.04999820462970222
-0.1970240039465482
0.3866571255849834
0.3599967552295329
-0.4055968015799731
0.23032382182486488
0.12999901812907574
-0.900829639786272
-0.061901248181052415
-0.4400088880395213
-0.46704133572251116
-0.3075236954376606
0.019986475597089878
-0.8914219208063769
0.14709699633055295
0.25858915058758186
-0.2476024599977826
0.17995791854763982
0.13999635766305735
-0.5604537973668509
-0.39447121727164863
0.3999994151348558
-0.21447026272897896
-0.7218004823897969
-0.4800023739903469
-0.4971316727143481
0.30249861733644556
0.03999934880754296
-0.43143772019140497
-0.0343506789981316
-0.3900011682832157
-0.31458300640962483
-0.641435834024179
0.24999772200657744
-0.1174955689997316
0.3917671082892658
-0.36000141539833275
-0.21070018618641803
-0.15471429489239208
0.18845027938744632
-0.18421773146380713
0.02639948900016427
-0.4600022147861471
-0.2953305479699523
0.25713054387988904
0.32921029459133494
-0.2860613357589504
-0.8143439757788951
0.46999881916336217
-0.7845858986411813
0.22970188255741464
-0.20000165637255168
-0.6686332868055835
0.018641552695646803
-0.31000092852071853
-1.0175973600142871
-0.36496489844975893
-0.4100009654724844
-0.2539645903511658
0.14212922617546164
-0.36004064425012755
-0.40106278365226267
-0.17272458984258252
0.3984205290594201
-0.8662059851461217
0.40003537914319637
0.3209970066332074
0.29670763401960054
0.13158486924748966
-0.18000139607537463
0.6651670124569294
-0.21987970067642967
-0.44000252312525784
0.5866254926755403
0.5306069198015229
-0.03000076350033202
0.28714506963835074
0.5948469828074995
0.34999308868308676
0.861896548009305
0.46888419788116714
-0.14001051654128563
0.15785697499540255
0.1857468893236372
-0.01887304746444191
0.9420053756144859
0.269515530103215
0.4799971677280625
0.1382441879883361
0.6383275336591838
0.4799995452103522
-0.0015831444502651117
0.9234608934886664
0.30999815399114766
0.03329074673602793
-0.3891885780467288
-0.4000005063655974
0.34593481571806833
0.6145906113304167
-0.4100009084540554
-0.03784016106591854
0.3908132421811562
-0.12000177136188829
0.8159389828592133
0.2654023056963532
0.2499988993898584
0.48134861696684456
0.16951042109220715
-0.008981033356263903
0.22724131924656102
0.02907691444753219
-0.34000172221207176
0.357675578128446
-0.2711325297527781
0.009385927083886846
0.5078852300178255
-0.037307057614704146
0.21999908178443547
0.4740604712935248
0.191934966594854
-0.21000128799108098
0.2048172574935361
0.05845099753721397
-0.3400007220153478
0.8982822507856802
0.6858210015838159
-0.48000075074894694
-0.09906728804852485
0.6068359346343704
-0.10003160486546654
0.3599146151089139
0.5202294627254899
0.1809958328643724
0.29652340619294915
-0.4608888372421834
0.3389570858365359
-0.7830680727380965
-0.5407328137825438
-0.030001712401631308
-0.013213218199732191
-1.0538872482085897
-0.07000309482130118
0.5799337467003178
-0.39359938403842715
0.07999906350384958
-0.0013857583495471089
0.1750923428060399
0.4099915226995822
-1.0390486178409706
0.43875344249469606
0.2899871005944376
-0.8827126097378697
0.02312032914923551
-0.0008835247929414002
-0.7681051336158766
-0.1348272338964547
-0.47000347401521014
-0.490148428662579
-0.4211256428394966
-0.3200005578370258
-0.2528295793066846
-0.1297777563075128
-0.4700022642821638
-0.9241685718695697
0.016682629698374005
-0.20000062109918335
0.039364415447113804
0.09292662733664157
0.4999988857061483
-0.45687441509808135
0.15073429874205366
-0.1900021727215036
-0.8046799095944592
-0.4725887522341026
-0.41000134998914534
0.558641543908644
-0.6070002860310058
-0.3110159783987225
-0.5169459193479043
-0.26870051519482346
0.049997887564801544
-0.3252447675030839
-0.4025060699480385
-0.13075321109618473
-0.1514389580020891
-0.4475203195814191
-0.400001126267148
-0.4464238333078548
-0.4372508684842773
0.039998420172672446
-0.8766947435358091
-0.13544148066944542
0.24999911438860548
-0.6885274066926321
0.2506930072422096
0.19999907914447548
-0.8346367923327828
-0.12085286536574083
0.4499612340249209
-0.023094800376760816
-0.06182382388933853
0.3689556461122171
-0.7221209971934901
0.037927955417650476
0.15844240975411664
-0.3269732029764607
-0.20852041957516276
-0.4000002415322657
-0.9905232936546345
0.3048168827481408
-0.04000043652095816
-0.4938616495459243
0.2308341119386214
-0.4400001320916968
-0.17143487889867753
-0.24507755487618957
0.10999880428659983
-0.9639676031243143
-0.18630727173622408
0.12999818055379367
-0.5627382942069019
0.41787210807308833
0.38846489144012347
-0.7784728273697313
-0.1395546954970456
-0.1900004900058196
-0.4310447343441241
0.11973801887231791
-0.420000078682266
-0.11878302836408437
-0.06945051235707761
0.33999968062562475
-0.17959324265065438
-0.5307152957810192
-0.39000008760532007
-0.49832939391188524
-0.751285593336747
0.3199998428301435
-0.07775836754366573
-0.5351394092816932
-0.060000306459850265
-0.8439042445482235
-0.11251488419705485
-0.3500001904144045
-0.9965289949545838
-0.3126452663916083
0.3484462090125194
-0.5963984712955838
0.09999306553007267
-0.35000029795653675
-0.17903667307417806
-0.6208886690234092
0.029893760447727645
-0.9281549025888164
-0.022960783754957165
-0.22000015885867608
-0.19608266443094993
0.17405573384530038
-0.0900002228328138
-0.23309938783991788
0.0010944613566328336
0.30999987508553906
-0.180141398311266
-0.8629862535521446
0.4799998701143954
-0.7260571427561813
-0.7036650120733632
-0.3700054678958617
-0.31537893159642
-0.2862279714866415
0.48844220668266985
-0.44281557094719226
-0.06774045277117177
0.2679734731444662
0.25413092014848604
-0.0918953267364935
0.4099981350716032
-0.8517023589648827
0.1727805506571646
-0.45000337048273137
-0.5963863712089648
-0.4718030262736327
-0.14000101991158642
-0.09381704371780468
-0.21506628204541248
-0.2500092323891708
-0.03854255907617305
-0.2652931994495359
0.36998595162063924
-0.6283187914946035
0.28447009807840423
0.14814705961962144
-0.9400898000492327
-0.40991474607231254
-0.4000037834521398
-1.0456949997043723
0.3165959569615772
-0.33000060752459653
-0.37020365141167344
-0.1604453112952721
-0.1100024659659442
0.2568473030164739
0.3578021392218729
0.2499993235783691
-0.09140736442845768
-0.1578083100162497
-0.09000121354605621
-0.26579128785477024
0.32640081798577886
-0.020002366249807422
-0.3799980450464703
-0.3425320837107449
-0.3800014702351636
-0.7010668831128666
-0.04607966176455993
0.008002808127355952
-0.657518212778206
0.059276977695604756
-0.4600023005936901
-0.5528738473724725
-0.5397028285450478
0.28917969900498525
-0.5538937636931871
-0.45962617973405734
-0.11000122658583605
-0.6139694595000428
-0.47874873279248287
-0.3000017205454557
-0.8248484955398976
0.1435117409602705
-0.45000096449443167
-0.3071343178121975
-0.5169906967755514
0.39999899712217885
-0.6166045418993409
-0.5250806560153733
0.05995778106816108
-0.2685188089682572
-0.46992621056167794
0.11797190518125207
-0.6636701563832074
-0.05872929533610335
0.34867910199787977
0.23684875918452192
-0.33306310642184545
-0.20000175550800448
-0.6688062778993347
-0.13281652752031892
-0.17000317272739487
-0.21906051435761467
0.37122807894799886
0.08999903992938446
-0.7944144617613464
0.024446483241281645
-0.17000869069993138
-0.7863263684640018
-0.17959571389721646
-0.2900132241229532
0.08771286366054876
-0.07025776661415295
-0.04115749631488446
-0.6829282697713505
0.28511278483199975
0.10999643853322864
-0.8682894491801915
-0.2581809350433997
0.019999428120514473
-0.013697870786149965
-0.48045434469808435
-0.48000232128105363
-0.2614153432740306
-0.0978630215694804
-0.020000636734144595
-0.04401345989375155
-0.6257634118899659
-0.3900011423440274
0.1338922275913045
0.21225542241286027
-0.16000222741553227
-0.5941243750030476
-0.11980709398497756
-0.30000138397249065
-0.4320634962915331
-0.3484300174247656
0.4787067158179941
-0.8034395446579711
-0.37821640462031014
0.4799978343883631
-0.41365221155472826
-0.4445248313769695
-0.37077217171733384
-0.8373435236375111
0.18125605233297526
-0.18000115461872804
-0.69312351025865
-0.5083504106390118
0.10999838040359895
-0.2435185431482505
-0.1962347564178376
-0.3300009079049351
-0.12565805862278123
-0.7266522365642879
-0.15000094403626738
-0.6352148443040709
-0.17223482181405933
0.26996025816706287
-0.10963623739407705
-0.4807870473775743
-0.12132237396869236
-0.5110810955621262
-0.5482213038775872
-0.022857505180349277
-0.5610566661919693
-0.026929217210398294
-0.3300019937864697
-0.28233608736945026
-0.22368490242753064
0.12999639663223647
-0.6255890990839198
0.1971217046991287
-0.2700010903828398
-0.4692400856614153
-0.20972569413400313
0.11999012969471437
-0.7595515366548712
0.2623627485293792
-0.06001501905850092
-0.5516433467792254
-0.10898601588222165
-0.2426719246690049
-0.5131319716309058
0.23945948528506272
-0.2000040448714805
-0.30156682867629664
-0.2900484497806795
-0.4800006495017839
-0.23922755510692062
-0.6139228814186388
-0.46000263635297894
-0.49534276802726585
-0.14547260405710957
-0.4700007231592901
-0.7338007609734781
-0.5281523194118811
-0.19000129739657107
0.11888497054015949
-0.5422057551159695
-0.07000252974691051
-0.2870590591332104
-0.06587639802550398
-0.4500015718217287
-0.7233902761963007
0.2791592631573423
-0.18282614328351893
-0.13842476962666375
-0.3252226291548805
0.189997540445746
-0.7140418030168773
0.3128663417197291
0.339123019935885
-0.6121304772831049
-0.0845855160248774
-0.43000131133734043
-0.03467760068611267
0.25539643973124543
0.13999816057267608
-0.2646612553399817
0.24970911909134352
-0.3800010311366116
-0.5590010346870743
-0.12059979680031647
-0.4500010721721189
-0.8186628916746445
-0.2865525578304381
0.4699548639319274
-0.4727146489719809
-0.278776156072826
0.12714081851730757
-0.06048773863045484