-0.29239666283130417
0.4699994440546954
-0.9415727982261664
-0.832715727028297
-0.43000011892740897
-0.16125374567095407
-0.04864098995725527
0.26675471475383317
-0.8453284837442734
-0.44380991076150106
0.2899998880074232
-0.1001595806998718
-0.6454262659752803
-0.18000004401513547
-0.618543226804739
-0.40155936649641455
0.009999962161141093
-0.97241021222142
-0.25364190204421994
0.08999994593545735
-0.770327558565972
-0.2956510453183664
-0.2500000893973383
-0.9083184630060817
-0.012751169035000086
-0.25000018671424173
-0.5412183163232638
-0.3069265579019744
0.09675434874649382
-0.6470428983195148
-0.801002507863065
0.46675442929309285
-0.9129669477821919
-0.7096192313774295
-0.12000004622703271
-0.6143502596820299
-0.43806470176525586
-3.04442535632485e-08
-1.2459047716375438
-0.1494983592490417
-0.10000083875592136
-1.0544711117705998
-0.20837097230489823
0.19999991561794922
-0.35559850599711484
-0.646457387933966
0.1599999813933086
-0.667512103360209
0.009622123764424654
-0.35000009263773774
-0.7135915928212827
0.15386253671129038
0.28999964020552427
-0.36783211986748704
-0.02430753595378782
-0.3100000600880818
-0.45966194751238765
-0.5182371238302912
-0.43000014442654977
-0.8857323546613121
-0.15366237130947444
-0.10000119148784782
-0.28030708915289165
-0.6298261745230858
-0.2300000410460894
-0.5341433067715363
-0.2149383578932066
0.3767557877071573
-0.24903113651792438
-0.39758486114557984
0.12999735734394768
-1.0228343074046848
-0.28727846191016587
0.24999943468496905
0.036859238021351666
-0.419647467143453
0.2645737114297911
-1.0807717615096266
-0.548809739185829
-0.5000005323506796
-0.031609573887717735
-0.6058979513694741
-0.10000020922357512
-0.6445213679721986
-0.11056312324833496
-0.14000017986497718
-0.9498566045941047
-0.5455582164626673
-0.41000025699289055
-0.43486094996146285
0.09277609340830581
-0.02000042494543108
-0.25319548663960667
-0.5028683195213133
0.31999911246391166
-1.087550964541431
-0.5809998925783316
0.3745719716336229
-0.7394192529843383
-0.5512145999843685
0.41457235450754204
-0.31920454283922184
-0.5573758268025529
-0.3500002197377094
-0.7230434843605408
-0.28392349784904486
0.019999855284880946
-0.10649572938403659
-0.25021610421791357
0.10999601301891783
-0.4202031116869642
-0.13669418897146368
-0.3100004011055321
-0.11372506154976879
-0.6792131154799276
-0.02000008844590509
-0.7212061967988699
-0.27633473214404713
-0.5000004403484952
-0.524084474430858
0.10599142900569553
-0.3000017102636556
-0.8564111779456501
-0.5237497645184619
-0.40000028562545953
-0.706669510550341
-0.6706230520825543
0.009999313476177017
-0.8697961993399128
-0.557928507553602
0.27999433632670967
-0.9424906581678407
-0.734873021501677
-0.4900001951103744
-0.4855462432447894
-0.29241960171785797
-0.3654211883443908
-0.9479997253772129
-0.5202109776472942
-0.33000269926875264
-0.515734439109689
-0.6084333863794165
0.369999422574422
-0.5275120869016177
-0.16911450603685338
-0.25575676057798774
-0.5768309721105129
-0.4896838099028698
-0.0600005437550429
-0.6862617544734713
0.09709316211688619
0.3899997862943011
-0.743038732895628
0.08441151120907009
-0.05000018371816192
-1.1003574992397522
-0.5817179222614204
0.49999973750164023
-0.7242274923238847
-0.6496794984014426
-0.33000043404888907
-0.996266147849842
0.19596181435513907
-0.3400009065494649
-0.6319073490991958
-0.07410158751014909
0.25424146235479667
-1.0818438057667892
-0.29249301209740125
0.30424185343089044
-1.0734523783817689
-0.5205850873705189
0.31999977555492615
-0.055360475054448875
-0.5420612533726541
-0.2700001478153007
-0.9838842233242906
-0.6059686319900953
0.37999592760721057
-1.1799768331359686
-0.530687096626367
-0.14000040969827626
-0.8352584038576231
0.07042673707415546
-0.3300000903406509
-1.0263723006387135
-0.16486452889204184
0.11999955021807229
-1.1010809267041726
0.15656095207218793
-0.16000174690203825
-0.8525069616523491
-0.6061064749598231
0.4399997082556858
-0.5098390505976154
0.03364789312197442
0.08999929876901624
-1.3195933945265208
-0.10731777462966367
0.02999421499580915
-0.6086276392379064
-0.8319096448735056
-0.010000199290155998
-0.34403587014046527
-0.09721029109009599
0.25424844890819187
-0.3887352876081542
-0.6337397408284778
0.22999762911854957
-1.1124203364070893
-0.7565648294129707
-0.18000050717720883
-0.23959529747004943
-0.4904132074266352
0.3261601734406391
-1.3557469237306976
-0.20731425131694603
-0.13000047760295952
-0.5588459555789221
-0.7190788130852109
-0.11000018770671756
-0.6970813994341544
0.03713171514005478
-0.2900001613674006
-0.8732922941493747
-0.5820210873998497
0.149999769436633
-0.49413898792823713
-0.5033108581536521
0.45999961875657674
-0.7928494206564279
-0.5031106131773172
-0.35000079626058284
-1.2430495676912665
0.21828142035649536
0.37615861256764577
-0.45444147696854925
-0.47291236424506294
-0.0038410439337472242
-0.17324768990960282
-1.011273254026361
-0.42000019713956294
-0.6748869511555212
-0.649625449446579
0.18999987016759481
-0.466534680436784
0.12668397094903508
0.19999642304586607
-1.0328440906692147
-0.3421747695044148
0.35999964014474567
-0.5239853812721078
0.05238427724221607
-0.5000000793499992
-0.7585444834250636
-0.02775561785470409
0.4199996049375861
-0.728404493494993
-0.44846318113347855
-0.33000153437764734
-1.157697416803665
-0.21709993169139627
0.09999974374867927
-0.2790602411081857
-0.07427998623910272
-0.26000061592071194
-0.47188016534597227
-0.12257832592251505
-0.4800050812128705
-0.5435817487751482
-0.04616383309950547
0.19999982495506102
-0.13999633043930873
-0.42229500914445844
0.246164749151797
-1.093865210330942
0.0529507321927389
-0.3700025011159365
-0.615436117163705
-0.46288798997546754
0.05999946496312608
0.0004025526298621086
0.1687599351684697
0.27539994027976217
-0.1912453770231608
-0.7335121810475925
0.3999994961619135
-0.7389733407060288
-0.042541418533353186
0.06999980198239664
-0.8799441091526718
0.010623372797446856
-0.09000017023144588
-0.6531092871050178
-0.47719834081507806
-0.19000024322840411
-0.45528704214363874
-0.6134389245281792
0.309999597814559
-0.7690466730899623
-0.40226581398569805
-0.37000083999983757
-0.5302196803109334
-0.6757308730107888
0.24539829366671975
-0.9767544902038025
-0.4369912855885766
0.025398656033990386
-0.9454940750336372
0.054192154589367186
0.06999979203139721
-0.2666776745348558
-0.11402525548194527
-0.42000013696420696
-0.5584601850288131
-0.6058921819774353
-0.11000377343919364
-0.6165932478118514
-0.5086907014285059
-0.21000037962240212
-0.3437947611230898
0.01756201237942303
0.16999991629123945
-0.15004753338085852
0.17548604161289502
0.1799995832364798
-0.7679714625719197
-0.13270621788206957
0.08999838133771483
-0.6297797163930372
-0.4269810136823788
-0.010000270327418488
-0.37550447210201937
-0.21343853760654308
0.46999935024625206
-0.5590469257980156
-0.6472322682154118
0.41999463967188877
-0.9652531140782517
-0.21094060236838238
-0.3300001846603028
-0.5615448736465488
-0.42254356651733377
0.2954047673385322
-0.9199419685068196
-0.9924964698384824
0.059997328459290226
-0.9281438887910287
-0.27925901601696446
-0.010000571494015547
-0.6813813985559732
-0.1233382961616732
-0.0555949003956518
-0.9073021232275943
0.05405653747753988
-0.3400005381693586
-1.1146970422100129
-0.7298532776889192
0.05999978848957742
-0.18078723338018748
-0.07389469585628591
-0.2100001818309304
-0.7367462281785673
-0.39211787210593885
-0.01000025980186439
-0.25852248437421566
-0.44920262905506897
-0.4400004295901533
-0.7014379567112864
-0.8908589307247775
0.19999910276299887
-0.6397815446797991
-0.31032756978878606
-0.035596659208073075
-0.9403127656018825
0.006945093035300362
0.23440372785071986
-1.4075854256569642
-0.286639557881316
-0.3200002221394781
-0.8840009449198101
0.07773760029163031
-0.22000014629687867
-0.3683780182453857
-0.7225084748781204
0.1099959694405707
-0.29813193162361323
-0.14878144109096114
-0.3700004054896804
-1.081859000405484
-0.34340458341689556
-0.14000008941263314
-0.19723592051214026
-0.7141260062853284
-0.2100004451615754
-1.0365143907844472
-0.8350584570353766
0.039998271042886474
-0.6355824883275837
-0.5209535569227455
0.18999971125260812
-0.5096869093895773
-0.7468261167292782
0.22999930597236076
-0.06381432567825318
-0.033318821434719606
0.13999427442184592
-0.8973215343350607
-0.5728431179817525
0.4299998027570377
-0.2977973378954144
-0.8601274948408524
0.25441025557645824
-0.5705130240663978
-0.3898755154341685
0.02999831694212391
-0.8998748898584249
-0.8836916184830372
0.24999963996150218
-0.5460588220536453
-0.49144765979325
-0.029824712699204625
-0.43830278377769877
-0.6739312236409416
0.46999966095587675
-0.42581927369581707
0.00021377633959701093
-0.17000013325055513
-0.30996427766840734
-0.11203369418744927
-0.44000011455261695
-0.3677170673078033
-0.42282728125296964
0.029999836326067394
-0.7269231226855404
-0.1110941696668247
-0.3500002706397429
-0.3886563787208965
0.10657104408029583
0.4799994347449784
-1.0963215229406316
-0.6295632152976469
0.14017417925737782
-0.9101871753545921
-0.5953283387955183
0.08017442310256706
-1.1444220501122555
-0.3207941042064676
0.37999986005319075
-0.3089563919135562
-0.06343464452389247
-0.2200000921663342
-1.0463157981426923
-0.14334862138518553
-0.06000253923317272
-0.5764018140666816
0.07940937506826422
0.1399997445434398
-0.2491598325666314
-0.038469363758957466
-0.4900000563295314
-0.5512811330716434
-0.31327426116032075
-0.24000028044966445
-0.45647616834945476
-0.3537982426886731
0.3999989107652836
-1.3059525322431849
-0.21938275546537275
-0.4100001819094765
-0.7803677176668817
-0.6041432321637403
-0.47000043723409496
-1.195607225908615
-0.469784932565561
0.2899963929131335
-0.8399654709254205
-0.24545228871663824
-0.08000012426212334
-0.8542981778415183
-0.6658985371535402
-0.399821464461423
-0.3038519691132642