-0.6852424594074811
0.44
-0.9729065594156954
0.012548475367356588
-0.41
-1.1037770574895414
-0.3532655945652413
-0.33
-1.1422242661160606
-0.341670780299778
-0.35
-1.0638190803815144
-0.43020826444378674
-0.37
-0.5052815962374987
-0.8395385022478009
-0.25
-0.20595135843348855
0.13187896819248218
0.1
-0.2597682294231059
-0.3434652655574298
0.42
-0.6220245951238709
-0.49680425484963064
0.15
-0.2986856058316554
-0.7870082651176915
0.25
-0.3784815955635975
-0.5618129209411602
0.1
-1.0836769397401442
-0.7125485730749274
-0.5
-1.1229412876063865
0.14533301216885655
0.02
-1.290822872850165
-0.05152542186801124
-0.46
-0.5839644388132924
-0.11847925351474768
-0.11
-0.86701060716655
-0.6070446268601999
0.18
-0.9684452338210945
-0.639511642538778
-0.37
-0.8059782181425174
0.05971365260174712
-0.19
-0.5552035132830401
-0.33712614772236443
0.31
-0.4683637129589212
-0.36159015087955604
0.19
-0.9938997098017336
-0.30463660194617637
-0.06
-0.7008532587351117
-0.4618759831703009
0.32
-0.3736138775109853
-0.10471565339153512
-0.39
-0.20077420728975573
-0.3824398634908513
0.21
-0.40304999719043333
-0.37526764061286266
0.03
-0.7902222200684363
-0.3520578548974719
0.48
-1.0134320057838182
-0.6535303652007801
0.39
-0.9019594954805151
0.039917436952323464
-0.22
-1.2754072976336392
-0.23758201149378932
-0.04
-0.27790784918750155
-0.30791543428823054
0.3
-0.3875744263930563
-0.5896895363613859
0.24
-0.6358003243199097
0.02974700662710546
-0.27
-0.43523686730839173
-0.404170284594011
0.35
-0.5213195760872816
0.005864158654267255
-0.46
-0.7313540193355605
-0.5287407023710975
0.39
-0.606749158310199
0.22008338474639055
-0.25
-0.3755732454276777
-0.012427810441858318
0.4
-0.39306205023942564
-0.5775924419883921
0.17
-1.1778974186929223
-0.2819501861778015
0.45
-0.5335396745034923
-0.17157861103920383
-0.06
-0.38391124964208306
-0.2938336803230974
-0.39
-1.0216561803581998
-0.25434412240017334
-0.45
-0.9111457382811162
0.16
-0.10594868030115513
-0.30916962930922126
-0.18416476111694802
-0.5527932255229174
0.36550859636260147
-0.061630055919056244
-0.26
-0.5056510779776053
-0.2715670246758413
0.15
-0.858077001822353
-0.14061881157762887
0.38
-0.3305414243987448
0.04643750572587272
0.2
-0.24759774170224652
-0.65219831429748
0.27
-0.7489619216788929
-0.05425763483633947
0.31
-0.3869026011400389
-0.30640940822841467
-0.41
-0.8420635274115837
-0.4646517960825341
0.26
-0.5865084398938448
-0.6129225906331502
0.15
-0.3082376453432348
-0.5857769119029566
0.45
-0.6653833240734168
-0.43165917061998993
0.48
-0.26950106535638807
0.13744537178443791
0.43
-0.5486056077608149
-0.4450538993724531
0.16
-0.38610633660392907
-0.3475649977639714
0.0
-0.7035952382124092
0.04619423285078976
-0.16
-0.8573544688271598
-0.7132226287344312
0.12
-0.24793760724194502
-0.38432102367716003
-0.33
-0.5968392122992207
-0.5025022492273609
-0.24
-0.22865798674901558
-0.06578510831771489
-0.34
-0.4353751276586641
-0.0577047749012102
-0.35
-0.2934554610751666
0.05272348347438938
-0.19
-1.0438837194507418
-0.5121374459120711
0.41
-0.2490227900643038
-0.4707280958956611
0.23
-0.13043214008071446
0.02630013478828032
0.37
-0.1674603707646536
-0.7256785387882466
0.13
-0.8554816971881274
-0.5647853366862352
0.35
-0.4663748992901403
-0.4967180332053206
0.22
-0.4644422027710612
-0.6979705202135142
-0.2
-0.8831897157628597
-0.4732838758084971
0.0
-0.8778763601678828
-0.015075755336643692
-0.17
-0.4860844806397344
-0.7088191033210253
0.37
-0.6223411326553481
-0.8571898084550076
-0.23
-0.413970427521372
-0.07240301065029572
-0.29
-0.6287572253260749
-0.1977529889640327
-0.09
-0.523407247012347
0.1732253721255915
0.31
-0.3343856081019706
-0.42260220530750714
0.24
-0.6085580306688717
-0.17176931142233426
-0.47
-0.8993909245540387
-0.6444579153874829
-0.4
-0.5767023205888904
0.15849084017285273
0.26
-0.10965107614922444
0.1371071059355723
-0.29
-0.9082673419119461
-0.538887658535243
0.32
-0.5222725774411341
0.09566018919202547
-0.46
-0.9968204251684044
-0.39
-0.050291295468349734
-0.7740120498701271
-0.8103448240445515
0.06440472400080803
0.15041827765647459
-0.5204927411403651
-0.27
-0.9352177895566186
-0.5986975016209921
0.5
-0.4703098894977466
0.0951790257861247
-0.26
-0.5000266915920419
-0.35934470042229594
-0.25
-0.48550296538362003
-0.2983784549979345
0.46
-0.43646921080798123
-0.6849935403941436
-0.1
-0.559854125411763
-0.11015436136810385
0.2
-0.6479091873177683
-0.7021626358058406
0.23
-0.7126850300000657
-0.5056240803137854
0.37
-0.5392235854921257
-1.002400097012167
-0.08
-0.6224475687937384
-0.22722307692093077
-0.04
-0.30762458888499006
-0.4190893525831767
-0.33
-0.2957583132227422
-0.36464422082202963
0.13
-1.320203444983869
-0.564705256392522
-0.22
-1.180142409413372
-0.23656436608877285
-0.34
-0.9882832997171367
0.03489741411887663
0.49
-1.159745079924775
-0.504751026708474
0.06
-0.5100966390974385
0.1434803059828173
0.19
-0.68832797178873
0.12491286596455348
0.45
-0.34976053177047106
-0.11904865937321502
-0.45
-1.2457990064327036
0.11099168703198874
-0.24
-0.5958393528379075
0.051764374209616104
-0.4
-0.3766120400155359
-0.8846719555621055
0.07
-0.560175710243801
-0.6735420568194246
-0.09
-0.8113056089864807
-0.3944718005383946
-0.1
-0.5803758652675155
-0.41937904522621827
0.25
-1.0054686205796963
-0.6203270310797628
-0.43
-1.1245206347261343
-0.14218269967677735
0.15
-0.8626649661291365
-0.5097028934108033
0.23
-0.4151447723951106
-0.6157743312610212
0.28
-0.6990733345448851
-0.4642852373782891
-0.43
-0.39056242842762606
-0.5195418966973199
-0.15
-0.7553057691085813
-0.4104814981890669
-0.43
-0.9643661676168489
-0.07186141450694336
0.33
-0.662986251298964
-0.7838888331528784
-0.48
-0.3409588326530353
-0.18512735385867266
-0.38
-1.2297203119472262
-0.3833738180249394
0.38
-0.4214738477809777
-0.4615440197716358
-0.49
-0.8633036460342699
-0.39519782794252084
-0.37
-0.9496498378633856
-0.028075367673043455
0.36
-0.676772298132872
-0.23352772458897944
-0.03
-0.611319941216935
-0.6237818685640416
0.19
-1.0010657972418648
0.41
-0.4964073450204635
-0.2358062134924742
-0.4258488201007788
-0.156534435569127
0.4048914114306656
-0.6281253450005861
-0.29
-0.8044099619848746
-0.49369707661049667
0.38
-0.7901365868944424
0.1976655496680402
-0.38
-0.9922971911451568
-0.6676016448257265
-0.32
-0.6670299966513873
-0.019538657401775517
-0.19
-0.6050929840753401
-0.9856081489276911
0.28
-0.5590234925494262
-0.6820718180124039
-0.03
-0.8492290666816519
0.07893958310007132
-0.1
-0.3535712245771909
-0.15152906037775513
0.09
-1.0931025810993622
-0.28859874978139843
0.41
-0.7760328916957197
0.007958689641298654
0.45
-0.572590331118413
-0.4771131186526401
0.11
-0.8375185228244774
-0.5301370565437432
0.22
-0.7144945849333735
-0.5969161772261334
0.15
-0.7777154642509826
-0.16092542202468785
0.22
-0.6937062194524312
-0.32759721734126973
0.1
-0.8770344241358441
-0.39623038818614387
0.48
-0.6784012532909671
0.021961754166625793
0.36
-0.7465933956437485
-0.663002602138042
0.27
-0.4516290393390717
-0.3015061201510778
-0.06
-0.7031255213260427
0.12500282226806514
-0.15
-1.0096344637451884
-0.04257691481815738
-0.06
-0.292054726658962
-0.24733032917332098
0.32
-0.9273013123037996
0.06725598817045478
-0.12
-0.7418876296475694
-0.46806429282037326
-0.36
-0.6165673486567456
-0.06484941543471202
0.16
-0.23978222604240462
-0.6189888933257892
-0.49
-0.8456427481513258
-0.28743191638171817
0.37
-0.6571997250954046
-0.08336218248199127
0.06
-0.4512694589951296
-0.8780350296090996
0.0
-0.17659661186801304
-0.07946071261416127
-0.39
-0.6351709288629528
-0.15985013084648594
0.47
-0.4747815106306337
-0.7164784724686912
-0.49
-0.9081531690084249
-0.42839214599533737
0.28
-1.0662394954817804
-0.82416216851455
-0.2
-0.5904694729625667
-0.23851961762529944
-0.22
-0.9861120238518151
-0.5561249231890246
0.21
-0.838506718288089
0.0552020674727704
0.17
-1.049833708949886
-0.5848919924867897
-0.1
-0.4197396489903329
-0.1981680205861554
-0.18
-0.6664636208909605
-0.3627473479326797
0.41
-0.34188429354444344
0.23834076050056827
-0.42
-0.9429724019776818
-0.14
-0.4337016116176822
-0.8338852758964257
0.027197919296403947
0.04579586571840198
-0.02967688148047844
-0.2896429025927601
-0.03
0.30266907124922476
-0.0492655672585945
-0.24
0.9741289558293657
0.6250406024808874
0.12
0.3913017170917854
0.16046658124740257
-0.38
0.7258757383252687
0.2568254933433944
0.23
1.23951682622926
0.9372623474385995
-0.27
-0.06092002786592501
-0.12281595858573961
-0.48
0.039459163863329205
0.003247607270580445
-0.23
0.9030947123020892
0.18852890809464332
0.09
0.40781341147803596
0.2746068944636274
0.21
0.4217354251090537
0.35837420639338774
0.48
1.117968113179283
0.7732105357125776
0.13
0.40313178386009424
0.34161452492801186
0.43
1.0047277946446591
0.4019216992259451
0.14
0.454420620346734
0.5224634267142272
-0.25
1.0538788928584322
0.15056025703534265
0.49
0.7857820625373294
0.08978151798529287
-0.1
1.0165608015873648
0.22223727054488743
-0.42
0.44410504902778836
-0.15569339144218527
0.17
1.142035711014854
0.6190139336310063
-0.1
0.5673283859416542
-0.06939323003629526
0.06
0.9757355496089646
0.2039551856327983
0.03
0.27238713393988456
0.15431233654368187
0.05
0.5920299830289945
0.7568699062618531
0.34
0.8294724133108072
0.7065880932379467
-0.03
0.3597542263347247
0.6219879571082229
-0.21
0.9143543624644375
0.46199614716439885
0.29
0.1743461724082808
0.5699109965873519
0.16
0.7064313229853095
0.454937921270353
-0.4
0.5914043983023098
0.4049723813484096
-0.29
0.6113699382242563
0.4634926490849567
-0.22
0.5128496704877153
-0.10322139247234717
-0.32
0.3695637120450253
0.2910306014992827
-0.19
0.6753117180733873
0.7472514813737818
0.1
0.6390908381988771
0.6418072366248069
-0.27
0.6045350829478544
0.33544473341328834
-0.39
1.07089758615938
0.15109148239408915
0.17
1.0052508371785793
0.444148136682953
-0.13
0.9421941828897125
0.36121866801389213
-0.42
0.41512365155878705
0.04829518526178151
-0.14
0.22804713431090012
-0.12465852911125067
-0.48
1.081000848683911
0.4380184539652529
-0.21
0.9083238656074134
-0.11
0.5252751696439216
0.6169864002433691
0.7960192004562017
0.014158255238575744
0.39329667570850957
0.054796310449559425
-0.22
-0.5430852809725613
-0.6152725215441471
0.31
-0.6822424764351797
-0.6305240559703439
0.43
-0.5493592506527223
-0.34195921188007655
0.15
-0.9879240947429859
0.14668386855587148
0.44
-0.776567175178937
-0.7411431423157534
-0.24
-0.5287401643073073
-0.0791416099013876
-0.24
-0.6397330246766073
0.0021859543089588394
-0.24
-0.6620692609320246
-0.7440122539150923
-0.31
-0.7158710527079705
-0.38264700439254357
-0.19
-0.9272363022305123
-0.04259988000088172
0.28
-0.597283426622174
-0.8372242444054139
-0.04
-1.1126590622176467
-0.27198909890088535
-0.3
-0.44789420772216776
-0.5958271802126966
-0.05
-1.1340561264103584
-0.0495215877783556
0.17
-0.6603617188447084
0.06935521208478285
0.43
-0.30923851870783303
-0.08002426130348307
0.18
-1.269859045319576
-0.11383759519235778
0.24
-0.6560457114307036
0.19376023178716292
0.29
-0.7136435384102211
-0.29602460506952144
-0.45
-1.14385870155354
-0.18690791799889678
0.16
-1.1829753886241718
0.008321123167710588
-0.16
-0.508204429790772
-0.17742224075634905
0.23
-0.7724610658667109
0.03413161090121567
0.09
-0.5440149175242799
-0.03757371488846216
0.2
-0.9423095917346063
-0.24816584025659674
0.32
-0.7917174663664598
-0.07204957217128048
-0.08
-0.517833734451773
0.13676896692483642
-0.42
-1.196652273547881
-0.7833193414380729
0.19
-0.6565639651849905
-0.15266019150734658
-0.19
-0.20722311511570207
0.03982014703346119
-0.22
-0.8097034536565151
-0.7033647818154183
-0.31
-0.8465185248076447
-0.13139599367096128
0.37
-0.8584873129520899
-0.48212207539995844
-0.06
-0.5977612312231035
-0.7269214220667192
-0.36
-1.0429618845563458
-0.13685486870927768
0.29
-0.783028437913778
-0.44559428019196556
-0.38
-0.63428902643109
-0.3338930458322588
0.09
-0.6559902607908009
-0.37883418651365686
0.45
-0.7310491201094057
-0.3921548397009126
-0.05
-0.5877284669221468
-0.6947145124098691
-0.4
-0.8551687942131942
-0.0022179627544502995
0.3
-0.7576653438686122
0.19
-0.3983921774994612
-0.6944697311653784
-0.32864192198964615
-0.34787516891936754
-0.06794315665877151
0.14250860426504047
0.36
-0.5417577815554041
-0.5008015592453058
0.31
-0.630737588365385
-0.34299072745351233
-0.05
-1.0564131888051191
0.1896896605361392
0.05
-0.6790935767947704
-0.6492578951131224
-0.11
-0.6801460211455139
0.6396138350171793
0.17
-0.8590177512758161
0.15494411833411506
0.5
-0.9958580558071888
-0.3758840313301666
-0.15
-0.9835198849284719
-0.22958513182116558
-0.12
-0.17981878443747146
0.15352327992089124
0.3
-1.2429271961795199
-0.16844585784432148
0.13
-0.19095805841431476
0.059848735239589466
0.21
0.10074734850177774
-0.04298648097133933
-0.03
-0.5064174352873053
-0.6483161004670454
-0.34
-0.9110878157915919
-0.5086422285982714
0.36
-0.35076168766036775
-0.04688069653227998
-0.15
-0.8725232197263618
-0.4766430409137462
-0.41
-0.4027608753448913
-0.26955219079455084
-0.26
-0.18985172546408474
-0.26594158087507747
0.22
-0.16346233538355973
0.11730109552832696
0.44
-0.6667050117869618
-0.4619040134602081
0.23
0.20250009720156434
-0.3417896721330019
0.32
-0.2276142441256321
-0.019864809199614083
-0.07
-0.57953910705903
-0.4372986715607688
-0.36
-0.9821052446978675
-0.48483292026945296
0.26
-0.23457099598918565
0.01233331914706366
0.23
-0.4617372354056986
-0.44015934265663137
0.47
-0.13924457360200937
-0.5470230125542791
0.38
-0.6523809037043603
-0.04896104518230131
0.16
-0.3204428710763361
0.026637717529792618
-0.5
-0.886041633788427
-0.04286441062350181
0.03
-0.8165395056351374
0.13970138238051166
0.15
-0.6091052986391452
-0.8437836423037278
0.02
-0.14562027395490937
-0.38894628326654757
-0.11
0.009542367007910698
-0.6353997631264074
0.13
-0.6440041531322298
-0.40706487291638904
0.27
-0.6323390433422471
-0.33558154909862775
-0.35
-0.7538223671600145
-0.23430142003846507
0.4
-0.17510249622017032
-0.583009377251027
-0.08
-0.22639453900760717
-0.2673051697700935
-0.03
-0.842098746488545
-0.3856468547960613
-0.41
-1.0337570614625757
-0.05443204607468461
-0.25
-0.7249718701839498
-0.13
-0.27620706738538364
-0.4779903899361176
-0.14588119902337562
-0.22267549452357302
-0.2867659680541831
-0.8356069265037436
-0.15
0.26095922456238396
-0.8282818654007705
-0.39
0.3149185845308318
-0.5638936027976983
0.08
0.7320712742131883
-0.7535798792647762
0.01
0.40175755068027114
-0.39446525774782953
0.5
-0.35735707083667423
-0.45635165071230827
-0.47
0.29452932212780064
-0.9335669723141626
0.11
0.5034331321406984
-1.1372944190692205
0.24
0.4054720904847154
-0.647424132383781
0.02
-0.08439819620072703
-0.9894321448005099
0.49
0.9576098162160206
-0.3801474900016181
0.0
0.1383251614171123
-0.5343912285761774
-0.05
0.22256889999167498
-0.42202036348508076
0.42
0.8001980349005718
-0.12188626526867861
0.47
0.3100639366841715
-0.8054368014078511
-0.35
1.0736144728233465
-0.8730589651362411
0.1
0.08123663655173616
-0.42389887327361137
0.36
0.622076544689113
-0.494614371405959
-0.08
0.622792042821459
-0.05455533877949901
0.03
0.0927330101949923
-1.0742574516106242
-0.37
1.1224351230261265
-0.9834143673268334
-0.46
0.45159203874232867
-0.9104093338235543
0.08
0.1985870052390513
-0.4007227338802706
0.13
1.058900405295772
-0.40458705557117186
-0.41
0.9227647269866681
-0.3711229775590004
-0.25
0.7993006489744877
-0.6388515815927642
0.19
0.6470292530082592
-1.2070141365117277
-0.17
0.9051918079272258
-1.0748299303247015
-0.27
0.29300760174020873
-0.8612862309265468
0.2
0.8194639023420472
-0.20074562863712864
0.22
0.9789233000526386
-0.9042840754725819
0.08
0.48246174688807425
-0.7098784343804648
-0.37
0.43805610579595966
-0.5366149001745488
0.29
0.6847925715900468
-1.4459069243369298
-0.27
0.6540845957524302
-0.7411834682219298
-0.32
0.8993611396374308
-0.8532171397850745
0.46
0.6613948112005705
-0.584365588546831
-0.36
0.6625432599623281
-0.6913509562738698
0.35
0.7095286276893636
-1.5458185825903599
0.12
1.1739962540058646
-0.9043204639275889
0.43
0.5924981353430787
-0.7395094789434731
-0.38
0.5076871503589694
-0.3715640217309045
0.06
0.1597416931463974
0.45
-0.14697556849285148
-0.5221391467055514
-0.39987273703977316
-2.7094864152697893
-2.9692978657154296
-0.10602633053176906
-0.35
-0.7625367533138344
-0.3620728829040548
-0.5
-0.3036092436501424
-0.4581127083089001
0.5
-1.2693582509767989
-0.2440979865527161
-0.19
-0.7333729727329822
-0.4190629629213442
-0.13
-0.688407996364358
-1.0383816640234336
-0.41
-0.31908929526225893
-0.5919426385877636
0.43
-0.6925543043784866
-0.8058215578072015
0.21
-0.9716494014785023
-0.6177403813650336
0.41
-0.8397305779206721
-0.2582424831611667
0.44
-0.6992284761245336
-0.5299205944382903
-0.43
-0.5075503648474029
-0.5120718397907799
0.13
-0.9253991194949227
-0.24661992190139329
0.43
-1.080851037384302
0.04045604894110719
0.03
-0.6579270082268058
-0.3778984091175276
0.45
-0.5295725501681683
-0.13662878281539434
-0.23
-0.7808421764703046
0.09098236541435765
-0.16
-0.8784533247000553
-0.7586851057219465
0.0
-1.1787858535637528
-0.25795013147278717
0.38
-0.8795208278129133
-0.10346153103227519
-0.03
-0.44400942825341433
0.10454145814211314
0.34
-0.7420124174278113
-0.3983210177562068
-0.02
-0.3791499415294865
-0.33699021953443276
0.08
-1.0104807397512618
-0.25156238636607775
0.45
-0.6159085729196159
-0.6211645110267767
-0.5
-0.3863064482589291
-0.3415279987896327
-0.07
-0.29594296049605756
-0.7836685321559645
-0.27
-0.7538024271297392
-0.14402838215855965
-0.24
-0.5034425771271294
-0.9877236202709696
0.22
-0.48974733901472856
-0.8367890108204614
0.47
-1.0506819484652377
-0.1504502279276717
-0.05
-0.9570207313580256
-0.058865323896966394
-0.4
-1.0986056353887472
-0.04075627634611722
0.03
-0.6467146829395796
0.11783147592486969
0.2
-0.5953024352105669
-0.0029209679311949597
-0.18
-0.47454999135449216
-0.016167946176439327
0.4
-0.9613030131092565
-0.42749484321802933
-0.46
-0.6499761160676736
-0.2814599171152166
-0.47
-0.9360110421704806
0.02155333737057561
-0.13
-1.0290242966562915
-0.07219314972724901
-0.26
-0.7252778095584512
-0.48998156413953825
0.46
-0.48748939514615475
0.10618326424252056
0.31
-0.5636542235282134
0.45
-0.5092643924260227
-0.8027467008538649
-0.6050122507312868
-0.33369542190131735
0.4510720925652287
-0.44923779709940437
-0.26
-0.3734163775606708
-0.13594895377200392
0.16
-0.8759908789461532
-0.43895154734232844
-0.26
-0.5706498126705054
-0.3747804310765828
-0.41
-0.6948209289362544
-0.6223881377520286
0.12
-0.8072132222608116
-0.9067267400201484
-0.09
-0.9428746199926925
-0.5714489287474165
0.41
-0.5288905849987697
-0.05577764382589162
0.49
-0.8638237161869479
0.173734469638959
0.24
-0.25333582965178547
-0.47195408446496123
0.18
-1.007647275547884
0.08983414286861036
0.18
-0.3194355028814353
-0.5209073334771955
-0.24
-1.0786940265356475
0.15472512545107342
0.07
-0.5243264854639006
-0.19378674220462794
0.28
-0.4858146178081969
-0.3916598465729739
-0.13
-0.34794151343984886
0.1463415942610466
-0.16
-0.13594295427387523
0.16286627541377025
0.5
-0.5024676354265974
-0.7667775639080832
-0.25
-0.9928237961047576
-0.35873749340150635
0.06
-0.6908638666113266
-0.19987018042749863
0.07
-0.9297311795853387
-0.025482865520705385
0.48
-0.7141184944921248
-0.002556915554989937
0.46
-0.3770444444578337
-0.14514672745765228
0.47
-0.8944546325551831
-0.8600987736600832
-0.34
-0.8495025863527575
-0.3655041067396233
-0.02
-0.7540972532732138
-0.8035518424484528
0.32
-0.6360495175643878
-0.6020011004875062
-0.09
-0.6776002595253331
-0.29219995943404287
0.29
-0.707401400578794
-0.6220352655704008
0.07
-0.9775660944424385
-0.4602492204458259
-0.36
-0.6593521395670133
-0.4823456759015838
0.29
-0.6472556841112472
-0.6726503838102061
-0.21
-0.23695097620262565
-0.253786537696827
-0.32
-0.5158148223160012
-0.47310066001208767
0.31
-0.5565007000007492
-0.17581034076395502
0.17
-0.2737910192488737
-0.6983127599145468
-0.46
-0.9512886000982945
-0.4019401323746691
-0.45
-0.16766122763815514
-0.5968929844229848
0.11
-0.7627083755898559
-0.34846574686208703
0.17
-0.7811356131507428
-0.037420943726073345
-0.09
-0.32218041628675514
-0.05709479885730149
0.0
-0.4525065611555274
0.09567876026780883
-0.04
-0.9552801202806371
-0.19
-0.522323787852659
-0.5191423255963212
0.08682676494582581
-0.3346187858338859
0.45881818510186123
-0.14367353237084438
0.1
-0.8125389200536931
-0.5660759902599868
-0.24
-0.2827133412795906
-0.20712246662565373
0.33
-0.4801267183988531
-0.6150270995467157
-0.13
-0.40222208547778715
-0.5665991616965331
0.32
-0.45065002332797827
-1.0176503702065816
-0.35
-0.45959881481793213
0.08929468412767569
0.32
-0.6991884882603315
-0.4304608135055264
0.0
-0.5067883715189773
-0.719348193745615
0.03
-0.7279009912788894
-0.19817949819572858
-0.5
-0.5890696868287685
0.04097617913414194
0.16
-0.7382253641586443
-0.5042149389075019
0.36
-0.3030342461170059
-0.2902597569628895
0.01
-0.9069894280616241
-0.17964690740532288
-0.33
-0.8576022776191848
-0.6266972151694981
-0.15
-0.37055196985500277
0.17499044046747064
-0.28
-0.8622396254919711
-0.3243228917996011
-0.39
-0.4629262932249048
0.10354304610243907
0.1
-1.010792231126949
-0.6447934172222808
0.28
-0.7924557678022235
-0.41792530761195157
0.21
-0.3493238774125551
0.20844284727636553
-0.19
-0.8856920323008733
-0.21989728866960526
-0.5
-0.6373518963548993
0.06566561776552048
0.24
-0.5129148027900269
-0.38908315946663324
-0.37
-0.9881660255578723
-0.6527501873877998
0.27
-0.48449899763670395
-0.03772617891290079
-0.14
-0.8195230061116044
-0.24603385413487164
0.22
-0.1812153308896316
-0.354141337114636
0.39
-0.7631078479098679
-0.47706693416552964
0.27
-0.5101822508589753
-0.1395225149136369
-0.4
-0.7577266701108686
-0.32604238940393443
0.11
-0.6012067956205623
-0.302285927621688
0.07
-0.6949632574028153
-0.6665750967307783
0.28
-1.0106740882937324
-0.16396786505838212
0.5
-0.7632813199661165
-0.8007679047491703
-0.06
-1.0664812802753303
0.0714645076403095
0.36
-0.5787136926648065
-0.49922510381831814
-0.2
-0.41802408120618734
-0.3053453113773662
-0.1
-1.1719038736471195
-0.5612049420183237
0.04
-0.46604424300618197
-0.5169496950263355
0.18
-0.500299489998173
-0.060082342711300744
-0.23
-1.0471668423131988
0.15778882623063983
-0.32
-0.6750380112551455
0.27
-0.2573929187366132
-0.414140779110554
-0.1263315354246666
-0.15513534620804267
-0.15724548626040147
-0.42118582063053817
0.49
-0.7078834448509336
-0.47310306245559014
0.03
-0.5402703303530799
-0.3039746048534335
0.19
-0.7102490801570944
0.04181736034444424
0.04
-0.43604104535497895
-0.06038837305089336
0.14
-0.5238353119596457
-0.3324702298174657
0.38
-0.5217534551930681
0.13701896006695546
0.03
-0.788669190522585
-0.8791040640253049
-0.1
-0.7751196209852171
-0.4865487004179089
0.48
-1.0076749845926072
0.10161512767580243
-0.09
-0.2158388126863432
-0.35691146727625256
-0.06
-0.40731221773428194
0.2572391533343445
-0.25
-1.081462838344866
-0.5416320664887202
0.48
-0.5125916185218126
-0.2221008536995179
0.14
-0.8621228313110108
-0.07356798732141857
-0.06
-1.0906556976891049
-0.4469373726818277
0.38
-0.8872863123287
-0.49402533642493424
-0.25
-0.7201983485855904
-0.4488665778488674
0.28
-0.5253571071616661
-0.2687833506892373
0.07
-1.0554403343212786
-0.2279754786788312
-0.17
-0.33624820633170804
-0.2591103183721743
0.06
-0.785113366638348
-0.46005320487573803
-0.44
-0.6441704801347966
-0.345461461240651
0.31
-0.5787622237698856
-0.6635964695130699
-0.05
-0.36062721549745497
-0.342810150177011
-0.17
-0.4914135348335231
-0.5844880001340482
0.5
-0.319735684876482
-0.18301887601722533
0.03
-0.5912048089933041
-0.10101713664208109
0.08
-1.0632065483684463
-0.19229480491165107
0.12
-0.8719288800988747
-0.7319297529224247
0.23
-1.1722939320880972
0.011744731079095155
0.09
-0.745968416089621
-0.42544730759595595
-0.14
-0.5787763774145709
-0.3576717242517232
0.25
-0.6865519607588071
-0.2699673362607484
0.01
-1.034256348749771
-0.6965800283561442
-0.16
-0.9876436566543756
-0.05163412897648703
0.45
-0.6125895560340431
0.27107804811673736
-0.17
-1.135301733127274
-0.5380344393736378
-0.34
-0.41618924563689635
-0.18432466741521253
-0.04
-0.7998990175953133
-0.610571154620632
0.22
-0.7436525303898899
-0.7720252706140085
0.4
-1.0221984143965024
0.11254754174048258
-0.27
-0.8267712267510096
0.46
-0.23763639725453747
-0.5765307990974576
-0.35171572574029586
-0.5993435610379169
-0.5091721975668914
0.02777241603600711
-0.03
-0.5393919439339936
-0.7242765363158843
0.07
-1.0612427589519549
-0.03648142029746455
-0.46
-1.1293675451626368
-0.024946045199243618
0.2
-0.7609029202608576
0.026772089580531733
-0.08
-0.992621055040634
-0.37482036364421506
-0.15
-0.2910286018158812
0.19745657723303842
-0.45
-0.23322431339213406
-0.44161032581898235
-0.42
-0.41423863964111884
0.012476883456562112
0.39
-0.9583258489166631
-0.26459053578482417
0.4
-0.12125842967527066
-0.2988153676253712
0.18
-0.6170335978347309
-0.29705235034662386
-0.41
-0.46879661511347565
-0.3017010899348185
0.14
-1.1941478755252608
-0.7105238794610067
-0.27
-0.39532508599908894
-0.025339035109777124
0.48
-0.3405099303503173
-0.2251866431081461
0.37
-1.0106623223519573
-0.053527921681666334
-0.42
-1.092321043778421
-0.49842565430473135
0.28
-0.6774233111553717
0.14962326905273796
-0.01
-1.1454722345128179
0.14221831114155017
-0.44
-0.668067276601644
0.02660909162030787
-0.5
-0.4424580570804053
0.09440609592711613
-0.19
-0.8302550613872135
-0.36738851320489135
-0.18
-0.228460452255204
-0.5605999449663914
0.48
-0.8052490204937122
-0.7088505498587783
-0.43
-1.0469984156013283
-0.6954949563773414
0.25
-0.7303540090827604
-0.7980410956523045
-0.36
-0.9178078698078009
-0.7315629125108618
-0.07
-0.3442860529492428
-0.28923249923381833
0.09
-0.546616466226287
-0.8725058022532598
0.11
-0.17334316320684648
-0.5894344047026521
0.19
-0.6364145607574504
-0.750920371579133
0.26
-0.9649285938809725
-0.3072036824106788
-0.28
-0.4386452830494227
-0.021491032171948858
0.38
-0.6443579332881543
-0.2877409303912521
-0.17
-0.9081080350688451
-0.18045710049641414
0.37
-1.0353918649636897
-0.27757707907033374
-0.34
-0.3282718863897641
-0.4794600285296688
-0.36
-0.7163889369304293
-0.49862486972246384
0.14
-0.5072240957376382
-0.4577236513692289
0.29
-0.6281253140908697
-0.4755737350527563
-0.35
-0.7302752304073499
-0.18596469672701801
0.47
-1.0098842687330845
-0.42
-0.09680671085667224
-0.7189863464357819
0.012288538719757425
0.08406831570554142
0.32465627533892827
-0.07412479767697923
0.26
0.19200465291828
0.2578415175025803
-0.16
0.4951039016456107
-0.11138238667673957
0.34
0.5182486943965449
0.37929290587297104
-0.42
0.6675734018468328
-0.20788500130722704
-0.36
1.2647513090270408
0.9879447293856743
0.01
0.32892157833412866
0.5191804215490152
-0.29
0.036053508886814155
-0.04408154851718564
0.16
0.9609478562370014
0.20107403328909948
-0.39
0.8057922744307054
0.2964156484137438
0.45
0.22045065930605845
-0.04913800350930064
0.23
0.9660043112291105
0.657370852463158
-0.49
0.7794954552566536
0.11887020470597819
-0.46
0.7579961030138352
0.2629274588137129
0.43
0.34393884890609167
0.6013290982574332
-0.19
0.9755372094623779
0.2669606686385684
0.18
0.759905639081243
0.4033959308738312
0.31
0.863470376845974
0.1349601603511334
-0.05
1.1819061473686814
0.7411244042373051
0.16
1.075741903482518
0.5109882453094717
-0.08
0.8758780624103422
0.022443129008866424
-0.08
0.41442317871093776
0.5362024661138254
-0.18
0.47066384160597846
0.23343900818150118
-0.09
0.38342729953829874
0.7631661440979856
0.12
0.573700163621821
0.6455047152599183
0.09
0.6513615924598896
0.7186098371347484
0.03
0.9282564705850629
0.27414039395796896
0.39
0.15272591376183572
-0.22355277393620404
0.05
0.4804190816560067
0.8099428415340726
0.5
0.1269234661857371
0.18292409904098914
0.04
0.30394220867881727
0.6719868177439494
-0.25
0.18487948997586415
0.5694431811442343
-0.12
0.8974231265755744
0.33029911579835364
-0.22
0.32656719192145195
0.21238207585361862
0.08
0.44448423186618613
0.13594366832380184
-0.42
0.7409226393960077
0.4846810918432946
-0.38
1.2121852158765265
0.3412006193659976
0.43
0.6856656883538063
0.3296578951411893
0.02
1.1872084125786124
0.19698786318062214
-0.44
0.8398784445391867
0.28315154221169553
-0.25
0.4037147655081073
-0.17148014161775843
-0.48
0.39834644933755964
0.3924079494273699
-0.07
1.0844583582924383
0.37
0.265590581206244
0.5466279677409394
0.3395539295621979
0.4837982198463942
-0.42147540220258534
-0.891823435901122
-0.23
-0.45969001456410435
-0.2906612893817974
0.32
-1.1455211321714116
-0.6378971877391498
0.29
-0.8380691919437047
-0.48920217108189634
0.08
-0.4967642086009722
-0.1618589744537734
0.39
-1.2141074052290783
0.401284193731682
0.13
-0.7972505734145366
-0.8278961329703742
0.18
-0.572609079837032
-0.5789958900307739
0.4
-0.7369704896520829
-0.2522824699854053
0.18
-0.6536839096974513
-0.09519094730296149
-0.24
-0.4607754323799028
0.03701285442325133
0.26
-0.2729792341061127
-0.04090937720195834
0.25
-1.145057002480909
-0.017569939417223186
0.25
-0.6583964402656307
-0.29739948377132436
-0.25
-1.1785668959115652
0.11747537952125156
-0.22
-0.90344175920411
-0.16954867377718255
0.31
-0.6264177059056794
-0.7007709701358802
0.37
-0.5251954095469874
-0.6126289761568049
-0.43
-0.3933374035260658
-0.551003851842424
-0.08
-0.7749625278404304
-0.18449951548498267
-0.01
-0.7914668641978712
-0.11331669896587249
-0.1
-0.8026496807169872
-0.3909257899310494
-0.41
-0.045040589751812674
-0.43675054051676376
-0.15
-0.15921583916609955
-0.5890854891726979
0.25
-0.7068808905101575
-0.5465571794931041
-0.39
-0.39940920018976084
-0.22852680777848922
0.25
-0.327439571904376
-0.7729766976846496
-0.03
-1.0229896819982118
-0.4323440221665225
-0.43
-0.24362235751634193
-0.23785620363585896
0.09
-0.30811017604700575
-0.5604183363316295
-0.14
-0.335548043351226
-0.5715915493762322
0.08
-0.9443748303066263
-0.6149443669024123
0.35
-0.34102201278045
-0.2699447587314605
-0.5
-0.30602162095140384
-0.6972659135973305
-0.28
-0.8987004660855241
-0.13953368570165528
0.0
-0.9764326939811999
-0.6291390740728825
-0.25
-0.6868273056099724
-0.6152824707486555
0.2
-1.270683908934208
-0.3996247885557718
-0.1
-0.8363415911270893
-0.19556613276807613
0.49
-0.42040024691479033
-0.364576127327989
0.04
-0.4213902523548798
-0.30418655704226993
0.14
-0.391779822640597
-0.21664995129087208
0.28
-0.7493164283919818
-0.23
-0.2840766598265018
-0.6343447822888937
-0.7415363186778215
-0.3322590745036364
0.2796450941432961
-0.5568967709320173
-0.14
-1.293201587526476
-0.5279285444137506
-0.36
-0.8003343732367381
0.2772383545116078
0.17
-0.2760725062156712
-0.3793403589207288
0.17
-1.1894937927833502
-0.007994523898371934
-0.49
-0.790839627805692
-0.6421803291574895
-0.1
-0.8066538225465723
-0.38292740704117306
0.46
-1.191439272799712
-0.4510414245694243
0.01
-0.7577927271346342
0.321810323070249
0.0
-0.6306444747743126
-0.4138530477749701
-0.43
-0.6949811039290943
-0.1938979845110562
-0.22
-0.6749361671930055
0.3174845135516671
0.38
-0.806318665255731
-0.09561546159071997
0.49
-1.0132186901133586
-0.5063405413923243
-0.21
-0.2124936103117367
-0.34784181975197725
0.25
-0.8809923319520823
-0.6909482247293677
0.36
-0.19788592697469914
-0.21434177175930952
0.33
-0.9244923799447514
-0.2393568433860312
0.46
-0.8694773083180284
-0.38539705089018006
0.33
-0.9034371008138812
0.002881838486174998
-0.07
-0.5017159901902368
-0.48627191300061934
0.25
-0.8225622387034429
-0.2518722912514941
0.49
-1.206961860452572
-0.2710909013049991
-0.41
-0.8277432503990668
-0.7031735584993348
0.28
-0.7356605932047261
0.00042167977295940856
0.42
-1.0692558314770215
0.0440236363304037
0.13
-0.3528577880344672
-0.9093664782939662
0.28
-0.4494676734101007
-0.5111868411994247
0.2
-0.657647310504638
-0.6435474081293043
-0.01
-1.1152867435747607
0.18241135453431917
-0.1
-0.44124550623837794
-0.07622459674184019
0.16
-0.30260955496222164
-0.1510811662387948
-0.1
-0.9677529854652682
-0.18996269015171546
-0.15
-0.37887146155234747
-0.2303581097382045
0.48
-0.5984760419658506
-0.47627592521286133
0.4
-0.43255822649120035
-0.07805233105317111
-0.35
-0.5107818206508992
0.04648967978571161
0.05
-0.5153238314897748
-0.26779155991232934
-0.11
-0.10104259179173296
-0.44766127374446507
0.04
-0.3111728779595944
-0.5896448583349193
-0.47
-0.5891892933691414
-0.43555552012806387
-0.15
-0.9732786315760014
-0.06880841335456031
0.5
-0.5900257383495012
0.23
-0.3825379898147818
-0.4875967195670085
-0.6374703948135292
0.044448710329904585
-0.4304950162415799
-0.5518211749813345
-0.38
-0.2709671237547541
-0.3158143839265284
-0.25
-0.8267989823127124
-0.4612508809653455
-0.08
-0.35439923110275384
-0.7244748379622727
-0.42
-0.4911752741058243
-0.12740253493640114
-0.12
-0.3082475771316972
-0.30577711914896805
0.39
-0.09987299291913103
0.07029948277425187
-0.39
-0.6642699996087338
-0.14633740767583736
-0.48
-0.5793127043922611
-0.20909666503164814
-0.03
0.10344655296354828
-0.1554794277576573
0.23
-0.990170684310432
-0.025480882216301338
0.02
-0.0201692298517973
-0.30719329411193375
0.04
-0.3384568179561639
0.13937612879372493
-0.44
0.15497375913817757
-0.4597346593571274
-0.34
-0.26591545271097045
-0.7642724855280634
0.13
-0.02137762654003145
0.06201833555276383
0.04
-0.44766844762086155
-0.10612456104987364
-0.31
-0.08952555101822446
-0.4761421262999827
-0.06
-0.5795079857681169
0.21725410692689087
0.28
-0.05290421899498963
-0.6507414509058698
-0.18
-0.7149086611622254
-0.006226733438945364
-0.46
-0.6194233786291504
-0.49010249738827916
-0.42
-0.4155476146798184
-0.42531918186367074
0.34
-0.4603309302044272
0.18117154468368224
0.01
-0.336821656751781
-0.024086748104931704
0.25
-0.20156336396316724
-0.2010148501591887
0.37
-0.22463526190890998
-0.05010851123996113
0.3
0.044458399171863984
-0.178775242980828
0.21
-0.3668748690872682
-0.8117432055772453
0.23
0.18609309350914985
-0.4017047831271109
0.35
-0.1439453289409869
0.1091035306214941
-0.03
-0.5747536426895942
-0.5475498607356619
-0.22
-0.14810025133243926
0.0973268718957953
0.12
-0.7329769839638919
-0.1069909097360978
0.36
-0.5486592023319997
-0.43912716467332574
0.2
-0.5365229473947728
0.106159554265552
0.42
-0.33180966633365233
0.09797952798566648
0.23
-0.21362964005376522
0.1606333175612602
-0.31
-0.05628342962935977
-0.4115064199751502
-0.38
-0.514143692092945
-0.4613337035264789
0.34
-0.564316408541616
-0.17374376073004152
0.32
-0.5119063513380555
-0.3737660502514553
0.26
-0.6018840618166392
0.49
-0.6540205530521747
-0.3777131632168491
-0.17791198510127632
-0.5460531939427048
0.09284304187813838
-0.27903008372378446
0.06
-0.9393182085408551
-0.3117733848995657
0.13
-0.5044462472542949
-0.20890113150821166
0.39
-0.4172114173386888
-0.5309525143425821
-0.26
-1.1751600345043038
0.08287739856481124
0.42
-1.01898994741171
-0.6292121384341396
0.42
-0.21690041041276395
-0.23477857893517484
-0.42
-0.7200664333791391
-0.16327817888105567
0.31
-0.6428343699658494
-0.35030852774529914
-0.37
-0.3358040211016022
-0.9248907497084486
0.35
-0.6012217991384432
-0.690199313045565
-0.39
-0.475913235801324
-0.5597819491893773
0.27
-0.34633059965752655
-0.4576778873104054
0.09
-1.1384346615364769
-0.6671084038482533
-0.39
-0.8790041449986397
-0.6808592884665711
-0.06
-0.5252532603803247
-0.5371403893993714
-0.04
-0.5189721594475304
0.12415077503176629
-0.31
-0.4302633238786666
-0.45721136343124974
-0.38
-0.9689011854156385
-0.19739266679471063
-0.2
-0.4187198820521896
-0.12575242062037917
0.16
-0.6903601282265138
-0.5418954758506074
0.48
-1.2442170729962727
-0.6707105945092809
0.17
-0.6854019543376121
-0.5755342582876813
-0.48
-0.3305782905592153
-0.5792150764855232
-0.03
-1.0068974723613748
-0.6616895333340278
0.46
-0.3744230155128711
0.08552442135681602
0.04
-0.5016369702037182
-0.37768285630719034
-0.08
-0.4884296925397103
-0.08945232085179712
0.39
-0.5166602279950996
-0.5958964261097129
-0.26
-0.950216122737181
-0.5581385989612055
0.09
-0.20797394988569373
-0.2408238912773817
-0.15
-0.9852886575695198
-0.3228171508903704
-0.26
-0.503295397956529
-0.263594743183808
-0.05
-0.8725178056630867
-0.46253195492500376
-0.19
-1.153580593921887
-0.4200773498005159
0.08
-0.8960351990463776
0.14672136674508887
0.33
-0.4628339155919914
-0.05556018431372197
-0.45
-1.0205523645331767
-0.3129741154851272
-0.16
-0.4231384333617714
-0.1283541428559349
-0.32
-0.5477584059909612
-0.20440591956757642
-0.37
-1.0617066292793098
-0.39531615105365425
-0.36
-0.7707963977932443
-0.03709731270936799
0.02
-0.6890152361375321
-0.43
-0.6499281328639285
-0.5213353131323144
-0.16154188050903776
-0.7755412935225074
-0.034022687122784785
-0.10182948275561755
-0.41
-0.5598959246052515
-0.19410813576224545
-0.15
-1.0686066424791123
-0.058717444009611694
0.04
-0.3157031680905575
-0.3312054765423075
0.12
-0.5632151355578615
-0.15773669191850867
-0.21
-0.806683920181664
-0.500648098505605
0.5
-0.4937725135945638
-0.18748119193160268
-0.47
-1.3627316695838805
-0.6875145219206822
0.29
-0.11690609017949136
-0.07280575532189394
0.08
-0.8616148567782744
-0.23360488698784446
0.21
-1.1508157251123066
-0.6696521948158207
-0.1
-0.9847684172843466
-0.9279668764997112
0.31
-0.5164537356004661
-0.2559292349509073
-0.47
-0.16849137714926193
-0.5003088054080868
-0.09
-0.5041118066920861
-0.6156455784762463
0.36
-0.2787750336239201
0.028651821609159536
-0.48
-0.5630724337093275
-0.07035199510571336
-0.2
-0.8540686169944463
-0.05264382861195937
0.47
-0.2417767834882127
0.01770725784776885
0.46
-0.4521278699479391
-0.72609660021482
-0.2
-0.6683240118853478
-0.45663231221877104
-0.21
-0.3177882998813982
-0.7941330881002783
0.46
-0.24028752399989406
-0.4804037129876754
0.23
-0.26401689911249127
0.11892744199912428
0.37
-0.28334805409929165
-0.3653100997600246
0.15
-0.7691105123401423
0.059356631712763216
-0.42
-0.8837772438129271
-0.3331169491675809
0.31
-0.7013036629325876
-0.40505504539917964
-0.44
0.05063443329901045
-0.5274673752761344
-0.4
-0.556953236824032
-0.5515242358153767
-0.23
-0.5028963762847964
-0.7191907588939718
0.02
-0.4152298532062026
-0.6139889100833918
0.28
-0.7104317020167767
0.019231228074481844
-0.23
-0.7936518401746466
-0.05077401580763869
-0.44
-0.4236465962925306
-0.5302469477317638
0.37
-0.644173664368402
-0.002089164354222668
-0.27
-0.7123314477459493
0.011649210452965278
-0.32
-0.6860698225531323
-0.7473635180924031
0.13
-1.007057094007772
-0.3690362793637801
0.25
-0.6653843327363951
-0.4743581329684425
0.28
-0.45006247913172853
-0.5751202381902695
0.44
-0.8193003739098997
-0.9508859109271096
0.07
-0.6135347011730566
0.34
-0.3209967090646569
-0.06814947857770169
-0.6587112498180206
-0.2657755297669216
-0.06182825818763271
-0.07012814002877296
0.11
-0.7042851507398009
0.05322175478864365
0.01
-0.17889842144269788
-0.23832795674175491
0.39
-0.3792755352634365
0.030245374104871353
0.5
-0.34784886611006227
-0.10874823709538489
-0.09
-0.5888552549098166
-0.2630378703908816
0.06
-0.7145656216143208
-0.41668951956340644
0.24
-0.09017673451330119
0.07305632826917673
0.05
-0.4706598202743636
-0.4319248258684168
0.37
-0.36567866613677547
-0.25110412761315354
-0.28
-0.1264993643920346
0.033393710241315815
0.3
-0.5409972022465149
0.05493277729433022
0.41
-0.32253626929952495
-0.5257635149095389
-0.32
-1.0518399770956461
-0.5065147374232422
0.3
-1.1110887545819617
-0.3696671303006842
-0.12
-0.5679363617045183
-0.5210555045339854
-0.11
-0.84654798747122
-0.09874575657464847
0.0
-0.5988577354305545
-0.3541737063070533
-0.07
-0.3934297856981385
-0.6466026907048833
-0.14
-1.001000801300322
-0.38995432370840005
-0.43
-0.49764916829679245
0.12543739590668698
0.19
-0.4230408879118771
-0.10214201747339895
0.19
-0.9054614745318
-0.14822025095133856
-0.31
-0.5193832410538592
-0.47951595310096146
0.24
-0.8180875389042422
-0.4603033197314104
0.29
-0.4173001722737823
-0.7105838389276208
0.26
-0.7070196530775831
-0.500176950956639
0.2
-0.8674265410485609
-0.37963723121838766
-0.19
-0.17796626078680422
-0.18591827109492248
0.15
-0.07168522091026634
-0.3590705720903681
-0.13
-0.5285329199148279
-0.7217054254829347
-0.41
-0.7858980665222678
-0.22714665178251345
0.25
-0.10045684022267323
-0.027114289735538828
0.23
-0.8304892022696568
-0.10686438307501668
0.47
-0.4707391089301736
-0.4622400427913748
-0.02
-0.9053634492138243
-0.6662993611856236
-0.21
-0.7413041308195806
0.014778132703292543
0.04
-0.9223816247084842
-0.5632675317917711
-0.35
-0.3443359602134242
-0.5803307065291015
-0.37
-0.8272727854761034
-0.7338458229308963
0.26
-0.3237576690743004
-0.11532755470635607
-0.24
-0.8922759372988394
-0.48432038334196553
-0.29
-0.40328310866322636
-0.25
-0.5279446097201248
-0.6791611236425424
-0.23697368668561852
-0.20788640330448566
-0.3190396567242025
0.15867464174312415
0.3
-0.8180378708982845
-0.6630631966614265
-0.45
-0.9525123453705361
-0.6589623924214915
-0.15
-1.0668516216219275
-0.5786094304943175
0.17
-0.6172045835491026
0.18533061864646713
0.16
-0.5011446326898953
-1.0047739215178098
-0.42
-0.6910400925256104
-0.2554312494849707
0.49
-0.13651705309770737
-0.7099302295033239
0.39
-1.1758837845400971
-0.10653039399276315
0.47
-1.0792836200506661
-0.1723442055065989
-0.5
-0.3634698085368278
-0.6526753816594096
-0.27
-1.1831386323840394
-0.3680283669500879
0.21
-0.7777856470933273
-0.022592477167987658
0.48
-0.6532215368754295
0.10129755035468092
-0.36
-0.6871115643981015
-0.8197811471339909
0.01
-1.0160328669094316
-0.11440019694197479
0.38
-0.6114138171014453
-0.3561990195470035
-0.02
-1.0596149944964206
-0.3998260595982154
-0.45
-1.2859879544452153
-0.371392453395592
0.34
-0.6644215606478296
0.12425691035019389
-0.32
-0.49007092439362426
-0.19871824558485665
-0.07
-1.0770957684585698
-0.7316402233435411
-0.46
-0.7041737906998802
-0.15797038139393088
-0.14
-0.48784363264949787
-0.03171967876166497
-0.38
-0.9140943352817543
0.05910552823705315
0.36
-0.19491954228048058
0.062098265886450475
-0.43
-0.9779122799298687
-0.16942578374013367
-0.04
-0.5763882303032843
-0.44028462614925606
0.31
-0.42552938789417144
-0.5472558218528046
0.02
-0.3885581921906229
-0.604824923423915
0.39
-0.3909890906195089
-0.13037493367850989
0.18
-0.36543908036491385
-0.593809364288688
0.05
-0.832004649754733
-0.06581537093564194
-0.39
-0.7799986431077863
-0.37931160835085
0.42
-0.6865024056925734
-0.6417098735781711
-0.11
-0.5341041404652499
-0.49544966655390266
0.12
-0.9303643474895246
-0.5136925874842069
0.4
-0.1521214265592204
-0.48459964583143583
0.1
-0.5612143682119843
-0.36693995351317465
0.3
-1.2188740605302502
0.05032827623244506
-0.25
-0.7361422902758729
-0.16381029607969239
0.19
-0.4620037179637344
-0.5941890824100258
0.39
-0.951624931633394
0.49
-0.72588418677105
-0.9384918806918862
-0.7552583049837643
0.06292977727492845
-0.07413994358314446
-0.11376833305610881
-0.36
-0.4152607103921803
-0.5326434215486804
-0.46
-0.7327107697441148
-0.27515856585969967
-0.35
-0.5626032515956408
-0.005655765957597505
0.01
-0.4821060514977462
-0.07653430020261016
0.4
-0.351227517252726
-0.4357318981232208
0.46
-0.8420299193321293
0.24566548690852194
-0.25
-0.8588724960454123
0.16935068951954219
0.17
-0.25711250697488086
-0.36585677866264454
-0.02
-0.6319050387927094
-0.4596503512013756
-0.12
-0.1181114662539626
-0.7429189715055726
-0.05
-0.7448428459497819
-0.22741500733537082
-0.18
-0.6903468101199841
0.2740395573680929
0.17
-0.8518013748234432
0.01898069779709427
-0.24
-0.5667425152524397
-0.5472041849789248
-0.36
-0.8605576324764295
-0.752614521618917
-0.43
-0.8051472958364382
-0.29184000507585817
-0.31
-1.115921812379478
-0.12250819632727603
0.47
-0.8652536211280704
-0.6400799257002737
-0.31
-0.507681891755074
-0.3526644776881502
0.45
-1.025097339767202
-0.5910068709845825
-0.49
-0.7667549464707728
-0.6859977318801754
0.35
-0.8317640855751801
-0.8272098094358838
0.31
-0.8305520080194719
-0.5348192039650428
0.16
-0.9529426134903132
-0.25025063368225714
-0.24
-1.0675111837730829
-0.017138337511697663
-0.06
-0.50062347994364
-0.558120903194383
-0.18
-0.9996409142609725
-0.6267885577932112
-0.38
-0.5109732596621309
-0.3457559286884725
-0.31
-0.5520058887668645
-0.08527033931094018
-0.17
-0.8024914781444097
0.04353612110457186
-0.31
-0.6712979385599208
-0.7864840204660256
-0.08
-0.4612777969893173
-0.7318918627275104
-0.06
-1.1658699547278444
-0.14308992198492465
0.25
-1.0246718954704233
0.04054600425464425
-0.28
-0.32830782170998263
0.12269620543314423
0.04
-0.41045802288848343
-0.2062833902653889
0.42
-0.17147842718994877
-0.15221038837946127
0.14
-0.4755514290758804
0.16415733287343606
-0.37
-0.4819191503287763
-0.46261837348475193
0.36
-0.8051434439705993
0.07037889539931236
0.44
-0.2581407128546518
-0.652491512752819
0.17
-1.2752703047025344
-0.23
-0.2510214388950916
-0.6409923893721117
-0.7722739149318744
-0.7768633754714067
0.36762956405214064
0.32613190713544604
-0.24
0.30633065700827083
0.43438948062649074
-0.12
0.10910074743213186
0.3405262515733192
0.33
0.545621883233687
0.11344299945289234
0.32
1.0927051353541064
0.31196347069572633
-0.01
0.4241846641112852
0.6916974489268797
-0.21
0.7844506858801229
0.05405514016689891
0.15
0.21497539133986393
-0.1422777736609599
0.05
0.5484259084679728
0.8236019971507903
0.39
1.0025461376562117
0.31449147466600214
0.2
0.7816566601410067
0.263068145766279
-0.24
0.8830799890407284
0.16288623206132138
-0.29
0.21326190274568577
0.5137361157314825
0.32
0.37241201907552773
0.47769162187752306
0.18
0.6284565129294843
0.5749209551163807
-0.41
1.171227179690628
0.566285143727401
-0.35
0.41986299107961034
0.30309224140940444
0.16
0.7030558933975998
0.487591561231319
-0.48
0.4785565735756924
0.22488282706255636
0.27
0.5012653077444552
0.23192977321327632
0.0
0.8642183615937344
0.05575013772606445
0.1
0.5803979970809436
0.2863084609024952
-0.22
0.3598396739045167
0.38280281776057273
-0.49
0.8333453170464366
0.12428212714424304
0.13
0.901866007662764
0.030239101765596823
0.26
0.9859090330414105
0.37115356751310463
-0.4
0.2349945672939046
0.7667368991253795
-0.29
0.7994112356816233
0.0003692033618238852
0.09
0.8457789314451767
0.5388490119307664
-0.39
0.5372991228762473
0.07364032370007881
-0.47
0.8225078111069218
0.5542368147785187
-0.4
0.6619113200284833
0.039828571913726116
0.36
0.09631956289328111
0.2876281207034729
0.39
0.1485200141035355
0.48728906201534194
0.14
0.7288590727916628
0.15535968491061486
-0.28
0.2407884498963924
0.6552806360630897
0.21
0.5908674987439168
-0.11544867335502525
-0.04
1.0115968081620386
-0.21995210771074533
-0.18
0.44610024251775626
0.36045494964046987
-0.2
0.9156931851665361
-0.13200965775446338
0.22
0.20815779256146935
0.07754473469569972
-0.2
0.29860340011130765
0.3112577923098694
-0.04
0.4548903424971435
-0.03
0.27356123199562465
0.25464490423614006
0.22770741211419263
0.14538893680732132
0.35445199535764726
-0.286034619869883
-0.14
-0.7975594738307653
-0.18553508217815132
0.28
-0.985068303454327
-0.35115469311926956
0.21
-0.8154143957104414
-0.1817429575911124
0.05
-0.5148261312385888
-0.2154948129650233
-0.05
-0.6410742758646857
-0.46394559280498043
-0.36
-0.6526234960247306
-0.2075275549714713
-0.35
-1.0789380017674983
-0.24303810326122605
0.43
-0.783530985568487
-0.48143920196393364
0.33
-0.6351298868657783
0.027268448344868947
-0.31
-1.193837537174585
-0.02270355606441942
0.44
-0.9438655327653008
-0.29294447727761497
0.21
-0.5936246115520972
-0.40697437119361457
0.43
-0.7395947176361027
-0.7481819825167944
0.33
-1.0583871063129178
-0.1691928888358499
0.24
-0.2373761999938556
-0.3824404633518619
0.27
-0.4041286254778427
-0.008906437410850353
0.11
-0.6176626514188562
-0.4783282814087792
0.3
-1.0982408074209271
0.09322100081948784
0.24
-1.0197900896492118
-0.7916939520487736
-0.38
-0.824875136780942
-0.544558729022807
0.5
-0.3120103598069023
-0.2194637165572389
-0.32
-0.16710537227246727
-0.5018680581074048
-0.5
-0.3147010307222962
-0.66614546891877
-0.29
-0.28042361991093756
0.06940628836295318
-0.41
-0.4959753771926601
-0.03451977003217655
-0.29
-0.6820493187975326
-0.3796313342057794
0.13
-0.5369377546239222
-0.4410882234433869
-0.44
-0.7854808653863247
0.01744104564400523
0.02
-0.20401013447371036
-0.5872436067661984
0.19
-0.879325482063517
-0.27025861043723803
0.19
-0.986310478392471
0.020792851968574604
-0.16
-0.5773619407982872
-0.2416744144305708
0.44
-0.6848946743991379
-0.22644520452066924
-0.21
-0.8501238843090441
-0.8005714557680784
0.32
-0.8259976330616368
-0.6321412039521772
0.03
-0.9644278848775382
-0.2503964114808715
0.45
-0.966172677348834
-0.10579165447311556
-0.5
-0.7607774343565961
-0.11137003733987816
-0.31
-0.7651990514898337
-0.07913658877967474
-0.39
-0.7674325000500415
0.011948850446942943
0.16
-0.8385179392766516
-0.5288438993494925
-0.22
-0.22772518948021328
0.41
-0.4692685683017992
-0.57793113007628
-0.601860121256459
-0.24585594422852894
0.024102039187139324
0.07914005959406754
0.46
-0.22164664688078994
-0.6143196840948101
0.45
-0.6395027244723612
0.15034898274958142
0.27
-1.228735017344154
0.14714042000562408
-0.02
-0.6955264546001796
-0.14862246898801204
-0.49
-0.5597635656065317
-0.30293020705109497
-0.28
0.054544172456544304
-0.1598951631038546
-0.25
-0.5657465956578777
-0.5590072001801996
-0.1
-0.4293788344143487
-0.14920134729524193
-0.21
-0.39918468729930817
-0.39587990282880603
0.02
-0.30250613176574154
-0.2839536971430839
0.16
-0.4444323374514665
-0.29424912570470785
0.25
-0.8641369088898313
0.13343351067642265
-0.03
-0.4218195452709757
-0.47926445579308813
0.14
-0.8691215788014569
-0.5771046302329261
-0.33
-1.0912814043616297
-0.7671371008970936
0.23
-1.2612489336974688
-0.08586495943371329
0.34
-0.6625210751608316
-0.5088978900455426
0.18
-0.5794881445489904
-0.27796916305685376
-0.46
-1.0704168715377143
-0.15216448225302664
-0.37
-0.9962215523415232
-0.1914867095285755
-0.06
-1.0268993250659795
0.007918949491540124
0.02
-0.7863049840860887
-0.5039008414979719
-0.1
-0.18448519309657416
-0.6015908004239078
-0.48
-0.8967952341706359
-0.5022655407409419
-0.09
-0.6161204938536067
-0.6775550214311462
-0.33
-0.4608310131634057
-0.2550268803112221
-0.17
-0.993359154283326
-0.587950424054209
0.26
-0.9604356105403344
-0.35309318296697323
-0.36
-0.9752928516275744
-0.35264695581619804
-0.3
-0.8257390787783491
-0.027111806653586694
0.46
-0.391274227940963
-0.0935006709572891
0.03
-1.1248853636372775
-0.4530814149288458
-0.35
-0.8853046196657042
-0.3423708612991346
-0.31
-0.8360151732954032
-0.6655516758048963
-0.12
-0.4328343587896489
-0.10098819399854052
-0.36
-0.8473978405960036
-0.4517981417468656
0.31
-0.6065878928476774
-0.5937443899399565
-0.28
-0.7946416446545886
-0.4668973789750289
0.17
-1.0614886556195378
-0.2532310542297773
-0.41
-1.0251549803647686
-0.027088783763667253
-0.47
-0.531297250830881
-0.026695625634855287
0.35
-0.6116904089596892
0.39
-0.6180745602531724
-0.25874118991989464
-0.2078610151271335
-0.34699188300462974
0.1511229076369098
0.10788539128261644
-0.37
0.32200584673924704
-0.03042984193927287
0.22
0.6075131573174872
0.4948483886685834
-0.42
0.9157501254091771
0.4864704622704947
-0.48
1.124128051807233
0.43045877959862466
-0.1
1.0101397344791332
0.8894216508092887
-0.09
0.0011768632684675403
0.39823755921966936
0.49
0.6034963917683588
0.16148877920212135
-0.13
0.24910973487563984
-0.11816902532940275
0.47
0.23876753940716233
0.1055532168906466
-0.37
0.8650452971871133
0.5931207595012871
0.25
0.9874777545764717
0.27971573704495784
0.01
0.9108827770327975
0.4109078771507771
0.04
1.0196906369269876
0.3298539738123349
-0.21
0.5907445402654239
0.6139813761212253
-0.33
0.3166171379565283
-0.07657233133485129
-0.4
0.5171708454126088
-0.2966125202559607
0.06
0.4572110343337215
0.24062602482417006
0.42
0.48997248925358977
-0.17603621551243673
-0.01
0.8266347295901971
0.03874836750067847
-0.44
0.49185014657708404
0.3920637902393804
0.39
0.37853472383837994
0.6713014149032629
0.12
0.6092970991744924
0.4206797793968309
0.38
0.19991873468092708
0.4598124178594446
0.22
0.680786096218316
0.021148357359936646
0.21
0.239450156717824
-0.08355723847502196
-0.26
0.3241557525527798
0.7713113264572021
0.06
0.9292871876205564
0.16780507400795167
-0.46
1.1027934400697852
0.721916221355387
0.11
0.6386822927223716
0.5041048402515406
-0.19
0.7164936738262139
0.21987407621078428
0.33
0.4407244378669764
0.25433919799695776
-0.19
0.2862593160808009
0.1234397657786216
-0.46
0.3271587482991398
0.4383211579721351
0.08
0.19227735610562366
0.596618413865454
-0.47
0.9239801002123063
0.46601667719826423
-0.5
0.42458183687949663
0.6990720453517488
-0.06
0.6015264687260062
0.19638052709168669
-0.19
0.5342179869860737
0.6494555146956652
0.17
0.5911429993820956
-0.06957140194667204
-0.05
0.8201699160244358
-0.05071479766994375
0.4
1.0213133117477031
0.36974043497510906
0.04
1.1508580791026504
-0.25
0.512714976893682
0.38231213441812945
0.19220049613068516
0.7040496427635439
-0.2738049397288757
-0.39297058235106735
-0.03
-0.9264803861254614
-0.4932986930031535
-0.26
-0.7815244232832106
0.08347150929664819
0.19
-0.3596998338997872
-1.2505146495045838
0.39
-0.6057136750985597
0.08330568145355724
-0.06
-0.669534006056688
-0.20281618132799353
0.34
-0.34341214327515146
-0.0228760045960053
0.2
-0.657106224155931
-0.5471645985212501
-0.44
-0.15906372608189379
-0.8439717642816521
0.42
-0.9122565603214806
-0.5960438329296522
-0.02
-0.6301844916734815
-0.3494977041507518
-0.05
-1.2467306204523894
-0.11571570825614173
0.38
-0.6505126163469949
0.06031387725948938
-0.08
-0.3165422018626273
-0.4033226272734169
0.06
-0.4029056973297253
-0.9685906504634589
0.37
-1.0276376741396727
-0.3053867506855421
0.47
-0.5308415739176047
-0.36184213473347726
0.37
-0.4243861898696652
-0.6577277074548793
0.27
-1.0685006171482727
0.038776216410695764
0.5
-0.9850045410138342
-0.766463885080091
0.09
-0.9797644395230422
-0.667373642965578
0.27
-0.8588546816375549
-0.4574158528156295
0.0
-0.35881247178751263
-0.8920462778587175
-0.03
-0.5841820467444173
-0.42979204148911343
-0.23
-0.586436283114025
-0.24207006206506623
-0.49
-0.3841582625380767
-0.3779980482133591
0.37
-0.298230276389786
0.08251022087852326
0.48
-0.37873854548166436
-0.07266263376656497
0.19
-0.9735656908365771
-0.8345226074287332
0.45
-0.3217057171744012
-0.22098926590186707
-0.48
-0.5852390587012694
-0.5399646300364394
-0.48
-0.5462636945667054
-0.43233720371663426
0.41
-0.5538911208865082
-0.33778781139502784
-0.01
-1.1484405132081192
-0.2269711746802966
-0.29
-0.7692571499228351
-0.7038335362218358
-0.29
-0.7723947883812975
-0.894125341078036
-0.21
-0.8421029835250958
-0.676673015401556
-0.15
-0.4795553092015857
-0.7198168949236615
0.1
-0.31641142967947394
0.021765309401383808
0.21
-0.7179936340045147
-0.3494171618711983
0.2
-0.2468111627319458
-0.32320195057799883
0.44
-0.31302637402514377
-0.6661738191319941
-0.39
-0.9900545054711392
-0.39
-0.8585948368761089
-0.35729499898978473
-0.8519689503287038
0.12717111625547478
-0.04957704670375712
-0.07485773419763408
0.33
-0.2477680864109154
-0.5832053041651021
0.16
-0.9094741624808543
-0.4127535931341948
0.24
-1.1254402205549148
-0.005670971654309564
0.13
-0.452522842034816
-0.31238663247770365
-0.03
-1.3158071812114245
-0.36338220733370713
0.17
-0.19481160635541372
-0.13662056448064636
0.24
-0.0710925113749052
-0.5222198494544763
0.27
-0.7659739642346415
-0.08255579031892286
-0.43
-0.34563802337020016
-0.8332426089311693
0.35
-0.6349512047579504
-0.3056419672074257
0.15
-1.0425518464816859
-0.26848012456096626
0.0
-1.0597136891281536
-0.5787639398387594
-0.08
-0.6894298738503608
-0.5340912674955341
-0.18
-0.5941025461935844
-0.2414855618574685
0.27
-0.5367082518316526
-0.37295970064804246
0.12
-1.015234113041069
-0.3854668565763729
0.0
-1.2027269571127557
-0.5087348286398254
-0.26
-0.7694589850492943
-0.13847383761924834
-0.27
-1.249719976069876
0.18483646452589886
-0.49
-0.8230302782150197
0.03143282141215194
-0.03
-0.6396266351012738
-0.08365399727697109
0.08
-0.7445398164121485
-0.6277159917802484
0.33
-0.5804778219088655
-0.17215477811150404
0.38
-0.9660390355776236
-0.32250532057675285
0.1
-1.0456884931123693
-0.05701883671372517
0.07
-1.1011749769753847
-0.29672645516210017
0.25
-0.9614673585270167
-0.06830611288787515
0.11
-0.9898877008012452
-0.20290332716113024
-0.05
-0.14529048652799417
-0.3455880895469179
0.13
-0.7826057241422021
-0.5705094762396786
0.47
-0.5176843374494415
-0.26389398992895124
-0.26
-0.784299823760171
0.0914125896936775
0.28
-0.4096064033828015
-0.42899989339692934
-0.38
-0.8391939202921933
-0.5286738998392634
-0.23
-0.629519913849858
-0.2028515214535429
-0.23
-0.6353422922355813
-0.37448859593763245
-0.16
-0.8037052177514903
-0.6533530024828604
0.42
-0.6448408112062588
-0.045395910601402974
0.29
-0.2827979030877193
-0.0396017336972851
0.22
-0.8185920799918375
-0.05231335960415863
0.15
-0.6758804540849609
-0.63970784983973
0.48
-0.8884859638493902
-0.25
-0.5067474869406566
-0.13689296931064313
-0.1957127170159501
0.048402836818966996
0.14153121990006268
0.2568218698860162
0.04
0.5065158253767906
0.6017024756045907
0.49
0.7950371543886945
0.29231703706208334
0.23
0.8040289286105894
0.5556939024613186
0.16
0.4006520632113631
0.4617479581011721
-0.21
0.744598007571498
0.7551080039534436
0.35
0.38123796171922447
-0.015076881093459605
0.45
0.8765543427737065
0.03732671012375431
-0.04
0.7790192555489134
0.5135172616184505
-0.3
1.0428287040542037
0.6190977896752793
-0.13
0.5272481759973968
0.6735277392928021
0.02
0.37281822637987055
0.3533802394417257
-0.38
0.4329657262309488
-0.186420477040095
-0.3
1.1627664427127598
0.1855967940995042
-0.09
0.9607491715731652
0.41487068514957215
0.17
0.4414752805231036
-0.23453071142220064
0.32
0.2508766770948705
0.11819030540194014
0.32
0.678155660270727
0.18441246274200146
0.05
0.6319335029306792
0.44135322978854286
0.06
0.33499273588413003
0.1754107929158069
0.21
0.9909351727568628
0.11313393401180509
0.36
0.7532120316608546
-0.09026209090475741
-0.11
0.9866080565774221
-0.0010934854335447888
-0.15
0.6374394511062177
0.2537521938718164
0.22
0.5525937718008641
0.43991112581910824
0.47
1.0064348398535627
0.49254438997155303
-0.15
0.4338015757011218
0.1884994919098847
-0.12
0.507846473762786
0.695001022970199
-0.27
1.0913449427024668
0.31547378750391897
0.46
0.9108721781687512
0.7269813636530158
-0.12
0.8593646020196535
0.4517024190379874
0.03
0.954643546634683
0.1745303868541143
0.23
0.8418155788185512
0.1364379147108256
-0.43
0.47990805096184697
-0.010430698764448552
0.16
0.8267766644371138
0.4126861610660202
-0.39
0.6836598046066542
0.31038829949924207
0.01
0.7259576661734286
-0.06093666336656141
0.2
0.5972826290392352
2.8356772166666515e-05
-0.29
1.0463176089004922
0.7095919535071901
-0.37
1.0867540121654604
0.1939991038219827
0.08
0.45234686185068884
-0.10116207312911472
0.03
0.5475080388017911
0.1556761436137573
-0.5
0.7806698220589147
0.2
0.6816539352127678
0.17944235713447138
0.5561599825872231
-0.15588367420622257
-0.07071871838333037
-0.4464070135336729
0.1
-0.5924624157138288
-0.2818220133905563
-0.47
-0.4500634206960845
0.005537860811412818
0.04
-1.2035171137505376
0.17240089598759625
0.28
-1.2103801489267252
-0.009667958585604283
-0.17
-0.7883112943535252
-0.3047200502210172
-0.2
-0.11325920271810955
-0.06454342775456604
0.05
-0.15300878821798514
-0.26277151488147754
0.13
-0.8452077380576499
-0.8773111273884366
0.02
-0.9306681255506901
-0.6056795452299807
-0.03
-0.23229970770915068
-0.41870377011754484
-0.08
-0.8892754828215762
-0.4061337198172189
-0.04
-0.3218455331219104
-0.04729956740465071
-0.28
-0.7306796855344739
-0.7306842280772634
0.5
-1.12729502486187
0.028486893425273684
-0.41
-0.3364661463644009
-0.7543754242732039
-0.21
-1.1236038286659338
-0.4885271967142418
0.19
-1.3994520562248782
-0.007670830693952447
0.37
-0.7303084222451764
0.08324262955050525
-0.27
-1.0012218824896315
-0.06560128050303449
0.43
-1.292377972436081
-0.42442031955550213
0.17
-1.0035589333836323
-0.5443402361171047
0.25
-0.8136390168220253
-0.7360584487242817
0.13
-0.9419208042148443
-0.8514971151756758
0.23
-0.5364821377634466
-0.573983047025315
-0.12
-0.8439962059138115
-0.06763740683358371
0.46
-0.8303418461055371
-0.1457930727627163
-0.28
-0.402186180176411
-0.3108701198878587
-0.21
-0.7171091330512694
-0.09870116077204856
-0.44
-0.11927809216707841
-0.8763811444875885
0.05
-0.631598108451542
-0.767124129254057
-0.15
-0.4008551236850709
-0.5377816669230823
-0.49
-0.6401975860160471
-0.7089043638755501
-0.36
-0.4090748890635787
-0.6350311377300428
-0.33
-0.6829481152090839
-0.3144358988659754
-0.47
-0.47354335407315146
-0.04317836399298884
-0.26
-0.8948008889461335
-0.31699409340148643
-0.41
-0.31098515953764305
-0.4385116923076886
0.19
-0.48946756063143915
-0.61096116202471
0.04
-0.6370180909144167
-0.8555869267466297
-0.5
-0.9823923261924967
-0.43104894675169414
-0.13
-1.186930306187439
0.05767311678532506
-0.47
-0.575652369724457
0.42
-0.29711256949149323
-0.10933069278763537
-0.5090228786252927
-0.4266272115848839
-0.08308414644734334
-0.4042091515768881
0.22
-1.4707535646082406
0.27237610624062225
-0.11
-1.1600031158675679
-0.5158677550810035
-0.34
-0.3112749892399139
0.05067410779797281
-0.05
-0.30781685211887944
-0.6810719836028447
0.21
0.11392923928193387
-0.562591968209014
0.11
-0.30455077611188525
0.054880845423435916
-0.12
-1.394564991346509
-0.09695121761398473
0.48
-0.6301915267069246
-0.7475317216175578
0.12
0.04038897729664963
0.34415999863941266
-0.37
-1.3913027429603275
-0.23963312513574395
-0.28
-0.4175096191851574
0.3345236988661719
0.02
-0.39166644318707433
-0.33937057243602076
0.11
-0.8977721718848887
-0.31886101738961725
-0.29
-0.7182817269312914
-0.008069405142685088
0.09
-0.9790733391782219
-0.6654186510487833
0.07
-0.7717240932721314
-0.07492865356602026
0.02
-0.6722140907548876
-0.05944283029663901
-0.31
-1.1076999140242678
-0.4451044925055194
0.23
-1.0720382518153997
-0.5091663035179378
0.39
-0.2479764408029595
-0.8129569355005317
0.46
-0.9441858088203842
-0.43973645435361597
0.36
-0.37740628996728787
0.20404344222455612
0.22
-0.3711861865454573
-0.23768619090139564
0.23
-0.6194565534195142
0.35357978984788774
0.43
-0.6307225341687945
-0.17898344292963586
-0.2
-0.8281593013912746
-0.45138930716737724
-0.48
-0.6457534371535333
-0.7056690907558635
0.31
0.2185263464349668
0.3057079658466845
-0.11
-0.492850710167586
0.3240934855274293
0.35
-0.32123622984833117
-0.14824455532039443
-0.42
-0.28889818900051206
0.077162665977116
-0.35
-0.5643054102980137
0.07551445187516907
-0.2
-0.7226571961960768
0.11279792389077682
-0.28
-0.5999406682116789
-0.8201393403352055
0.11
-0.2170034039857041
-0.4465308790079622
-0.08
-0.7606118653129462
-0.3919869297890746
0.28
-0.5451558145318307
-0.10913814249536569
-0.5
-0.8780046018255462
-0.2996415197489726
0.25
-0.33750122457193016
-0.579756185527052
0.01
-0.3873865587938499
-0.900276395243147
0.49
-0.4168663490777605
-0.3643924445619517
-0.45
-0.5827502997589551
0.3
-0.8329909073419562
-0.14571158394715455
-0.6156676935652784
0.06245017614542086
-0.18485977306196735
-0.2746585227461955
0.31
0.17439075260287823
0.3381489620611903
0.25
0.5200369619001118
0.21658528808396074
0.26
1.34157677117978
-0.2814255151913834
0.28
0.7895875744551173
0.3748699300464192
0.03
1.093292129217332
0.4173190157808342
0.45
0.6108430434829013
-0.21059990728113984
-0.02
0.2045868347889972
0.2984556884100569
0.21
0.5797063708536874
0.5148882533524949
-0.5
0.5032738059112493
1.0699499219511892
-0.16
0.5882121373125657
0.6062417084883341
-0.02
0.38192035077540476
0.8621310362104889
-0.33
0.6260310230532488
0.6354098682197726
0.37
1.4027521910439698
0.1797034141018808
0.08
0.8384586451618524
0.9132071950495004
0.45
0.7249548642142333
-0.04122416876917889
0.08
0.7593862280329104
0.12608247573017733
-0.19
1.1920795835335756
0.3364410261455562
-0.11
0.521721033118182
0.3543678112075245
-0.5
0.7637942480562082
-0.11591640538940169
-0.47
0.5340784646531401
0.1256794632421229
-0.45
1.2624825960216355
0.6155660809024397
-0.18
0.38259597836129766
0.11120273923050382
-0.5
1.0069593200332345
0.8271654876244177
0.11
1.030996571639318
0.7686040510308974
-0.31
1.079558008232852
-0.06484082248236173
-0.48
0.7030028817460992
0.31606212986729976
0.46
0.8720999293964418
-0.08155569680527283
-0.02
0.8797177560690121
0.43008553876748506
-0.17
0.30807652049625833
0.14965558717659075
0.37
0.928506472087152
0.3714822726862096
0.03
0.9666797865775273
-0.058074759175043546
0.5
0.2562368184387838
0.5007083109688948
-0.2
1.1474537482948575
0.7709736788035774
-0.23
0.4071883804601648
0.4065869845079132
0.22
0.3715750747558303
0.341543151421613
0.43
0.8466189078421223
0.45804741994311254
0.05
0.36011463932063187
0.0599886579065963
-0.05
0.7481734013571387
-0.13798486765555817
0.23
0.8461469269192948
-0.09198985407621302
-0.07
0.40015191333995515
0.3539292329996522
-0.27
0.574232826264087
0.420494070299674
0.5
0.5176679889640653
0.09
0.9122232720275393
0.6741812060869186
-0.024173076595682266
0.21155139501170184
-0.3255035224649685
-0.5289478269736235
-0.11
-1.2700676677157718
-0.4067261066596027
0.44
-1.2526744368380902
-0.40513466358754824
0.36
-0.6374332504298117
0.15678871058974012
-0.02
-0.919356624607101
-0.41542870112289754
-0.05
-0.16713921289446484
0.25540111514207803
0.19
-0.8879690291594449
-1.3546388140543686
0.42
-0.6159465428130579
0.08911058307881825
0.5
-0.9016784970961841
-0.5712264065352561
0.36
-0.47134150748210607
-0.32327505082146335
-0.34
-0.7192928631958982
0.08945268819807166
-0.07
-0.6820206022154245
-0.5656778187244197
0.16
-0.7568900952929388
-0.8046950124784975
0.09
-0.46787290153886263
-0.42507855067291195
-0.49
-0.5474893633444515
-0.4676557073189881
-0.36
-1.334912206698371
-0.049127471742120725
-0.23
-0.7334404422752329
-0.032919774944260065
0.25
-0.8796481390731024
0.30110650118648674
-0.05
-0.8836744152038474
0.14904844501530823
-0.23
-0.48161635903267247
-0.7389606406988651
0.13
-0.8036072733184935
-0.687990602783218
-0.12
-0.3745773112341398
-0.17441334395696587
-0.38
-0.8781545700603975
-0.23930380101940465
-0.4
-0.43326411299795825
-0.07826014011416081
0.2
-0.23430777390320395
-0.7140130099522407
0.45
-0.7085549040651168
-0.7233912287680616
0.47
-0.37917668524929954
-0.6585444459374232
0.35
-0.4040234680799405
-0.14782146307970706
-0.18
-0.9347464509376598
-0.011105638156601405
0.46
-0.6814622758607608
0.10833810214331613
-0.1
-0.7809060161606777
-0.6932027072946768
0.5
-1.019365206722684
-0.26223111919240927
0.08
-0.17033679482495476
-0.9764586164827597
-0.47
-0.7661092975345983
-0.0703099545499975
-0.15
-0.07225795946736531
-0.15613465606369104
0.33
-0.8864332579536686
-0.5430801396577092
0.05
-0.3594877743596523
-0.013121621565578187
-0.03
-0.7594462924517899
-0.8127093539648435
0.11
-0.15985856005251092
-0.5213151740437943
0.5
-0.881252739973572
-0.3015132012646305
-0.2
-0.9010547127527302
0.05593614094446635
0.04
-0.40850405496183095
0.07150034831282613
-0.49
-0.6440682623301838
0.27
0.006009119735952922
-0.30545504446949445
-0.3722442353335931
-0.62082144806174
-0.35555658700257164
-0.3577949857670262
0.04
-0.4550699303338448
-0.49195087588166
-0.03
-0.6171568130339854
-0.2542511734225839
-0.4
-0.8007600386467159
0.32762168714823287
0.49
-0.7026328992175309
-0.4008094014255436
0.21
-0.9342018106437529
-0.562313064397494
-0.33
-1.0626981476717927
-0.7842314040008213
0.3
-0.06393020223262376
-0.4841475715257231
0.33
-0.8808636405435802
-0.31007120698033985
-0.18
-0.4049400050889594
0.26793725397540663
-0.32
-0.6829484660447086
-0.5419139022546497
0.47
-0.9330973098146526
-0.3754248753194002
0.14
-1.1495863367498937
0.05618198905387007
0.07
-0.4911932011231707
-0.3449233134552943
0.41
-0.19008789861400452
-0.1450869621834807
-0.41
-0.5799242498858276
-0.8118563083742437
0.23
-0.6331549036950598
-0.737504894110209
0.26
-0.21750631795909153
-0.2948047220342898
0.09
-1.090206490035002
-0.02140433690383814
0.29
-0.9136068751654713
-0.4912403523568665
0.45
-0.6337708597124302
-0.08979959579331949
0.39
-0.8752116162759825
-0.4276205014041804
0.04
-0.9473907106651243
-0.41869550665125504
0.14
-0.5363157054180464
-0.23645231033281144
-0.5
-0.9085589017364893
0.04191368637035057
0.11
-0.47692489843965064
0.17218777185687476
-0.34
-0.6871989839261817
-0.5707015285434097
-0.14
-0.5843096835258934
-0.10708707218490589
-0.13
-0.2779241398843944
-0.17495971829886633
-0.18
-0.8100514937704334
-0.7140868878563358
-0.2
-0.7309243242129672
-0.6256411420911887
-0.09
-0.42937006997810384
-0.06584563286564757
-0.32
-0.4091655792036484
-0.7687684944897408
-0.2
-0.2762427175795617
-0.6691974917565938
-0.03
-0.8658137203127096
-0.37841189920392443
0.11
-0.6565993128653764
-0.36677939589401226
0.28
-0.35823181617528704
-0.3769503813737604
0.05
-0.5980608306955445
-0.0877910590057096
0.38
-0.9572201530635899
-0.5728317377608164
-0.43
-0.5421794743084855
0.015564854645611952
0.45
-0.3705760667149132
-0.4830790825459161
0.31
-0.6119321295233908
-0.03355312838547893
0.27
-0.451458083683816
-0.21
-0.13111959104439974
-0.44922812467385015
-0.07441891017057732
-0.6327666929725615
-0.1360305747363217
-0.13305681544024478
-0.48
0.5354804366388923
-0.23151699697667233
0.25
0.7884477249378298
-0.2523583151726999
0.2
0.3904605794531071
-0.1472094624110289
-0.46
1.0553117266914491
0.37062778961423554
0.16
0.18747447466617378
0.015207097929001524
0.01
-0.12710483364859104
0.18840945004444717
0.49
0.8455948593307477
0.2877237800866168
0.27
0.9003784841937941
0.1581510341693517
0.4
0.2699512301110572
0.735968323580784
-0.02
0.4221339406996231
0.142260642063773
-0.05
0.825841622216638
0.6392741092488968
0.24
0.2788281550315189
0.5371843099827495
-0.22
0.7309179542976664
0.5559279959871974
0.44
0.16217426829321996
0.6122821617961053
-0.45
1.025820102484315
0.4918242020401985
0.15
0.9762780622402195
-0.28157056421022725
0.16
0.4696728284906342
0.6021140686715639
-0.44
0.21598819560885085
-0.021970285926049687
-0.2
0.45007255020645587
0.34125121007940307
0.37
0.8168510542010047
-0.21844898970733373
-0.27
0.56655125398774
-0.019434654718789846
0.06
0.4675369189991969
0.28879474693198054
0.28
0.5893075173484336
0.28352914231979714
0.06
0.41457312196060714
0.6875835626261746
-0.49
0.5005187016542368
0.7229188091751917
0.06
0.2951834551052219
0.21785139541858828
-0.37
0.3702508688618215
0.05217872153482014
-0.22
0.41592354274559257
0.399122633367668
0.15
0.6989796309127442
0.18382418523039626
-0.11
0.42427807905000886
0.5336318458340328
0.26
0.48447041844637884
0.06125079492085948
-0.24
-0.0031485306404473185
0.672134685186474
-0.38
0.7059675790939409
0.5752035728682123
-0.2
0.32289869141219935
0.13513362722663788
0.04
0.932968637053774
-0.017589182092173222
-0.42
0.5356914463725851
0.6219805937591084
-0.01
0.136121670521306
0.18366571592638495
0.13
0.5944365483540284
0.5161823950998842
0.3
0.8619198691805255
0.6207472414856416
-0.24
0.5873550227947709
0.4699188567064361
-0.3
0.6281834075739756
0.11147971384860501
0.12
0.15662255043180587
0.39
0.6066199288118681
-0.10925299105868097
0.47828894563214874
0.5322951320301128
-0.22088378749680282
-0.4005105087641219
-0.22
-0.30242441513061563
-0.6160351523770236
-0.4
-0.9588079277967188
-0.3998785890523868
-0.23
-0.6498598714255109
-0.23065903201945145
-0.27
-0.9290794284584489
-0.25849292759577397
-0.2
-1.221245532882105
-0.9456263263806581
-0.03
-0.4041121340972338
-0.2029414277263084
-0.32
-0.8374585844788446
-0.25119284234762185
-0.35
-0.7585456181302755
-0.471790103668661
-0.2
-1.1579483568092255
-0.6915553940828991
0.39
-0.40818306639498575
-0.5369349470437564
-0.42
-1.0728035134341456
-0.3646642933163597
-0.02
-0.28507416716153317
0.05613385846782215
0.28
-0.6558723189457155
-0.08987202331491012
-0.45
-0.9598664371629799
0.0810075580558694
0.0
-0.8607460185337616
-0.16496716918240892
-0.25
-0.2647712912954852
-0.3856585856965983
0.05
-1.0540798747813027
-0.35531459861177617
-0.03
-0.434423861866118
-0.14345456318127495
-0.01
-0.47628389729662024
0.23102050782485728
-0.5
-0.5707589683027593
-0.05872490061546965
0.14
-0.8810135598624246
-0.7536580576876772
-0.4
-1.036080402790223
-0.19712217139278893
-0.25
-0.5026162890851053
-0.05009340363683292
-0.19
-0.6996450568410612
-0.593860049473498
-0.14
-0.5058784110043953
-0.8468058315214186
0.06
-1.0829326289564862
-0.1740220625836564
0.41
-0.3557163978942372
-0.3362625296525939
-0.26
-0.8934759308253
-0.6396399652826165
0.16
-0.7000984951952779
-0.6163174408719044
-0.09
-0.15342101960597943
0.034159988247348436
0.44
-0.6738984487252481
-0.38126952574096
-0.27
-0.668468934736933
-0.4919980037342476
-0.35
-0.8577404567436528
0.0029352940884978026
0.25
-1.1126737545663943
-0.018252200879515044
0.13
-0.7014862595983739
-0.7460938070486132
0.33
-0.7536446534292816
-0.6349230584814659
-0.3
-1.024815401996432
-0.3496871428447748
-0.21
-1.0200513176331203
-0.3574528896853327
0.21
-0.5722855707925676
-0.4558175471012536
-0.16
-0.3939209133766403
-0.44418336837604994
-0.26
-0.5555550921018437
-0.6538269997483798
0.21
-0.5359114607295189
-0.24
-0.6115939921657494
-0.1894431155321466
-0.35427634584026185
0.07443073748305161
-0.07030054224837745
-0.8075347818277527
0.12
-0.4835341733933344
-0.5646156797159866
0.08
-0.561023470777144
-0.7460699097046194
0.36
-0.8383843260677343
-0.3442314548321128
-0.25
-0.7902227809402397
-0.3178284778400808
0.28
-0.8266257579322779
0.2543110811090906
0.27
-0.9487653168814328
-0.36286094974653205
0.44
-0.9479299658501146
-0.11731208513807294
-0.26
-0.9471421506342846
0.04479242815810573
-0.14
-0.939246663930457
0.2854130269146215
-0.27
-1.0098672626869774
-0.4662969941512781
0.18
-0.9281572416210742
-0.24584893799323737
-0.45
-0.8886052977791218
-0.4558463760684582
0.03
-0.19860785970389247
0.03496855130124654
-0.44
-0.3994227870735967
-0.6934494187901402
-0.23
-0.5110048169822149
-0.2015086559782179
-0.22
-0.28294557979413626
-0.6590878802795326
0.36
-0.8353663554928215
0.0571391350676408
0.18
-0.8915933708399886
-0.14986888621282526
-0.38
-0.9645853495595238
-0.5451903596319766
0.41
-0.4692638761403756
-0.5245700908877746
-0.23
-0.8298841448845803
-0.8048459377948806
0.27
-0.49960829797746625
-0.22498205759981255
-0.12
-0.4794721781725398
-0.6227335843676122
-0.2
-0.08172065140473592
-0.5051550937025423
0.22
-0.7092991420698213
0.0469400804298723
-0.16
-0.2113943162022253
-0.42468871156077764
-0.23
-0.24976552421157414
-0.13383494408849264
0.38
-0.3506192916838612
-0.5348130782565319
0.48
-0.8796411575158178
0.15234890111901017
0.16
-0.17680313689136215
-0.014246299765275671
0.47
-0.760207936007073
0.0696246101150469
-0.46
-0.1540788458874028
-0.3807671727690171
-0.17
-0.13368706300333721
-0.07865344740728773
0.06
-0.8058007883650732
-0.03686406083742493
-0.15
-0.40759017493492633
-0.060938767842192494
0.36
-0.9435154679301613
-0.8150827992789513
-0.15
-0.9893714364934039
-0.023300124689335365
0.36
-0.531154111083019
-0.3155169521082742
-0.1
-0.42893728366407735
0.17626389127171194
0.0
-0.5707181270440616
-0.3817459852141688
-0.06
-0.7827082505581875
-0.8055981752163951
-0.33
-1.0288560605559571
-0.11
-0.171025104944772
-0.4162810898507951
-0.40307951957007865
-0.6066951410891535
0.08048192469536358
0.43593191931734276
0.0
0.2448332255367119
0.5130813309896762
0.47
0.37049735212148316
0.27117359296098925
-0.43
1.0709359315103655
-0.2583035088232943
-0.21
0.47041303329468825
0.5745575259609355
-0.37
1.1375519985104474
1.054381973330214
-0.42
0.8277275511411597
0.43845519890695045
-0.41
0.8381783974920046
0.2888714186477897
0.4
0.9532381058235934
0.26802884985258346
-0.31
0.2440806746188107
0.11141011501889347
0.2
0.720699409452491
0.173881642508688
0.31
0.8682278819626894
0.4309809313346242
-0.11
0.2611285931367697
0.6043910023197624
-0.26
0.6177185221516097
-0.10964973431552646
0.5
0.3517592587869177
0.13218256685862143
0.19
1.0499269576127483
0.5950535413934772
0.09
1.0270559830778876
0.05976878865522115
-0.4
0.6223407358161613
0.06794661182929235
0.49
0.26416291264210234
0.023822037441831298
0.26
0.4282874870295618
-0.24303660216975115
0.41
0.45514612664114446
0.3657745208450735
0.2
0.6363350036263019
0.26722338389008615
-0.43
0.8148861405812903
0.3914466921300194
0.02
0.13066283234137374
0.3474250065964832
-0.33
0.7246845178748975
0.12822670058276323
0.45
0.2938828238886326
0.24588504905256625
-0.31
0.9162244754188198
0.20168669059501632
-0.3
0.3804228338763801
0.1243447076997443
0.08
0.9377648167716282
0.13020758657238515
-0.15
0.6819019378989964
0.3549417252835699
0.48
0.7871677991878072
0.23517514339189427
0.27
0.5169343810795013
0.20988259948865462
-0.17
0.9922269249827257
-0.03376063877239144
0.22
0.17587016324378596
0.03800288814899728
0.06
0.8741066363223879
0.7907742216740614
-0.16
0.6513353027973097
0.49735199774176736
-0.21
0.9647575267296132
0.8598397084797262
-0.38
1.0522698159916317
0.5046503364059629
0.19
0.4074591880654301
0.07087378847093281
0.44
0.4412357360004587
-0.004196328463519048
0.38
0.19630585293491212
-0.051888426676699254
-0.06
0.3939979511480951
0.13707951937281865
-0.28
1.1950300050985643
0.37
0.6722028729394381
0.8759516421553615
0.7817349934216118
0.34049320312237524
0.15556377537532765
-0.04578170155692878
0.32
-0.2747607581197101
-0.06620872414786495
0.28
-0.6730596976469482
-0.386046891611618
0.5
-1.1234019440170901
-0.3846838172998266
-0.07
-1.0447650183288801
-0.5616360137515164
-0.19
-0.9578128218771885
-0.4798675349441979
0.35
-0.44958130068451324
-0.2742053771073109
0.04
-0.8625066193173454
-0.28741290442601614
-0.41
-0.6420359312026817
-0.35083685804639747
-0.35
-1.1986119775823179
-0.2626491499062327
0.39
-0.6067996857224719
-0.7167082290305811
0.45
-0.7127406065981228
0.13991327254135416
0.29
-1.15936210817005
-0.6369234378307816
0.28
-1.2725253977979245
-0.6830892936721755
0.09
-0.9763595419565254
-0.44555005417502563
0.39
-0.8938987814536757
-0.3712638965029558
0.17
-0.898184939125742
-0.09893084028998687
-0.06
-0.4605179953387227
-0.10280549656483699
-0.07
-0.7766433390638636
0.17219697696697844
-0.3
-0.4216458125956907
-0.40374740552062627
-0.38
-1.0157014301080822
0.16540364742540695
0.12
-0.9048524830541103
-0.21173780743755163
0.38
-0.8977110281911458
-0.4872900982958885
-0.3
-0.7821587373328178
-0.320295601395376
0.5
-0.8191532342333293
-0.06389801907138136
-0.19
-0.6655508165573241
-0.7660877230971441
0.39
-0.5033611125315606
-0.20071029420457223
-0.47
-0.6387385414241349
0.08692335200058313
0.03
-1.1563721876292954
-0.8547341330249356
-0.45
-0.264714702603771
-0.20114923780614538
-0.21
-0.4482995978225651
-0.42253878622004093
0.36
-0.4069100494086697
-0.8114675165469453
-0.45
-0.2079813190817669
0.03185042094507826
0.1
-0.3412992565737872
0.08297396006343065
-0.15
-0.9724227956921347
-0.41837053892485093
0.48
-0.6910782967038441
-0.21934966664790945
-0.43
-0.7900991689807867
0.11144390694219979
0.32
-0.5508927425709109
-0.5453742683085866
-0.13
-0.8740745673201192
-0.2489008864507831
-0.13
-0.560547949177917
-0.1887325153482154
0.49
-0.9107163202804861
-0.027659776868606916
-0.02
-0.39178905876010583
0.16702319581431183
-0.06
-0.8864720314430096
-0.17
-0.8299648782338155
-0.350302868209896
-0.11208444343105957
-0.7194353326128915
-0.5176504198179123
-0.3570620374359549
0.34
-0.8218802706837132
-0.7116494506444226
0.25
-0.6697587843552576
-0.6299157441944765
0.36
-0.7861364982892555
0.1508377153491838
-0.02
-0.9668899578329125
0.24926963795428722
0.32
-1.0853218804380382
-0.7283782113943377
-0.16
0.06232596891059921
-0.3453282884824416
-0.36
-0.7857996788212424
-0.7399776806432651
0.02
-1.1760745618404682
-0.5965545711970736
-0.26
-0.29949767128665844
-0.9751718505493288
-0.02
-0.6208803919344099
-0.427543517352581
-0.13
-0.7285087251311471
-0.8273057943328165
-0.3
-0.4287464481509195
-0.2868344143535791
0.38
-0.6692178281301518
-0.6608671853639817
0.12
-0.605185057119754
0.015287538989586267
-0.29
-0.5513397814733261
0.04701508411967979
0.07
-0.7730673266034149
-0.6464264637278726
0.0
-0.8096257787558596
-0.48216864234808654
-0.28
-0.39388360013564744
-0.6416787832312479
0.49
-1.3243734592525025
-0.0753217401748997
0.19
-0.4907305023088339
0.2529387788318905
-0.2
-0.6289910213156233
0.120514268615141
-0.08
-0.6165665110988827
-0.19048960929125708
-0.01
-0.32556263319248246
-0.1851683576541609
0.48
-1.0308838848295918
0.040367334252233364
-0.27
-0.19641957673597646
-0.6468194433943577
0.11
-1.0992327990893815
-0.254093389015882
0.36
-0.4419588534678579
-0.5994373725734241
0.28
-0.43661486991031945
-0.4671320156068158
-0.01
-0.738920226876915
-0.7347031133064238
-0.2
-0.64134912917731
0.04820659052939502
-0.07
-0.504258833013129
-0.5358570540199413
0.14
-0.900195188463791
-0.5911515561844422
-0.18
-0.5649006862992908
-0.3775531495775504
-0.49
-1.0084990929061846
-0.25106773529620535
-0.46
-0.6149845071875378
0.0510747660344631
0.27
-0.6671270085182002
-0.10717301324083743
0.23
-0.5988792292429024
0.04153643533159498
0.15
-0.6875886778153327
-0.2092298381844246
0.11
-0.6668224042993135
-0.629320946722092
0.2
-0.716731295761641
-0.4711405006872641
-0.01
-1.1349117417964951
-0.3234387097440094
0.18
-1.2226135327397383
-0.07
-0.38545063377252553
-0.042860569175023365
-0.7474687128563013
0.1275775337013616
-0.38667943503065905
-0.4723370963304858
0.27
-0.05965927099664922
-0.5780683044547219
-0.31
-0.6660561411602164
0.05636878019224276
-0.06
-0.47134083141522554
-0.4614205764376566
0.44
-0.48355147478532584
0.0176239032764671
0.39
-0.44259595449944883
-0.3610364339417789
0.03
-0.40393561728120375
-0.45302362741984037
0.29
-0.37333836273429943
-0.21234121084259486
0.19
-0.3826308403803898
-0.13637803127153048
0.16
-0.8985940199514496
-0.5123450579221421
-0.43
-0.522626993300842
-0.41211547517089614
-0.2
-0.4028565760520868
-0.6492715086891184
0.43
-0.4557005425338649
0.29251813974865876
0.2
-0.8574901909716381
0.08506206225408981
-0.2
-0.6400341134770734
-0.11729995691015556
0.04
-0.42767209431282543
-0.7492280708505463
0.45
-1.3057439803724455
-0.16284294025112753
-0.4
-1.2421291109718482
-0.24094289025782592
-0.21
-0.9740291609651519
0.14934823078816553
0.48
-1.0043202820111488
0.20078258472162253
-0.17
-0.875754635944598
0.23801795810573503
0.5
-1.0229900093287272
-0.08479938384347709
0.27
-0.5601726673795044
-0.6722631487652899
-0.19
-0.792708902457692
-0.8127780973403084
-0.4
-0.8521939538826728
-0.5606156288960471
0.4
-1.174356422326941
-0.39474356800291005
0.43
-1.0702284832200712
-0.2796285375822214
-0.22
-0.33534351364076037
0.19707240793163486
0.35
-0.5220444591546227
-0.9563260491318902
-0.49
-0.7686460020910912
-0.8066260774464759
-0.22
-0.1383459737765021
-0.04392659113598995
0.08
-0.201045460086994
-0.02362551245550855
0.34
-0.6213465387674708
-0.23094808368265066
-0.44
-0.5540239675403354
0.002412559498044506
-0.26
-0.8273846107210265
-0.06690843934430947
0.39
-0.35806361187867414
-0.6841196843407913
-0.08
-0.4208523668821933
-0.4477717499524823
0.09
-0.2772003012704995
-0.003910055509962047
0.3
-1.0310619957130285
-0.5860320654941468
-0.32
-0.41893998572883584
-0.043427171352330124
0.36
-0.8415448798706574
-0.4471388795968967
-0.12
-0.6978331716260885
-0.49439884228809666
0.2
-0.7705732089348828
0.32
-0.6272036503361985
-0.5861686264991524
-0.8794796667605166
0.0009855819636854649
0.005183149671528722
-0.6677945470379292
-0.18
-0.15349022280825894
-0.059432835273129696
-0.07
-0.7708424928954674
-0.29709701252560355
0.29
-1.1221314017959516
-0.09955274900934262
0.31
-1.0996756653122026
-0.3648667722028356
-0.45
-1.1443616421187064
-1.0045575032561762
0.44
-0.4946709110653586
-0.42851847149176
-0.23
-0.7126067528231376
-0.49570523961189505
0.26
-0.32352317470964664
-0.008143627266688137
0.05
-0.6010847870548465
-0.27945259166118985
0.27
-0.8997758226603488
-0.6086799670452763
-0.25
-0.8905484472762556
-0.23164745283457805
-0.14
-0.35758096148696483
-0.4579718500997388
-0.38
-1.101256564221798
0.002896664234674381
0.05
-0.6621250785562113
-0.1434249626038315
0.2
-0.9058034517177033
0.12350088385858275
0.42
-0.962729298180125
0.10713878157124668
-0.49
-1.2263671958927866
-0.3725186360902286
0.17
-0.5967097782313068
0.08855782836218781
0.43
-0.33778624268372975
-0.21252446857028165
0.3
-1.1367039457512613
-0.45439054261880546
0.38
-0.6648378717027347
-0.060063857401570706
-0.33
-0.2991645569199712
-0.34734495211369837
-0.32
-0.8918834622078337
-0.44205464004974804
-0.25
-0.5871737742717866
-0.3909731681299539
0.11
-0.9382552461915818
-0.40591849352733156
0.17
-0.9533099207942005
-0.5583963450980077
0.46
-0.7108320692235282
-0.20201604230377113
-0.27
-1.0372123720177648
-0.9120445387340201
0.29
-0.18718387558751817
-0.939352208496607
-0.34
-0.9198762058249262
-0.2689416142808391
0.42
-0.7002868000407009
-0.5653589871100008
-0.12
-0.7138694272115321
-0.07938686232578931
0.43
-0.29984155199575285
-0.1177529829582213
0.13
-0.48147543136331805
-0.16325134770563654
0.21
-1.0159770666158963
-0.5298057592699814
-0.29
-0.7594226550515469
-0.18280953244043113
-0.41
-0.796418881881106
-0.06796184974388891
0.16
-1.1812665645776523
-0.48285130025930484
-0.01
-0.6163771140622312
-0.5964979509163106
-0.39
-1.0727304634052244
-0.13593843967211172
0.08
-0.8132899746494241
-0.278196368795566
-0.37
-0.7910320455259733
-0.45
-0.2086213354775876
-0.13455026229177924
-0.4237326358109944
-0.004457056099809264
0.41057989917996107
-0.36216465359097766
0.37
-0.09225166635591031
-0.005185716138974955
-0.19
0.4482856083573226
0.5626245785339843
-0.07
0.684381718115535
0.13186621651105251
0.43
0.25514008013846456
0.40776558211810676
-0.16
0.21924071453140717
0.3093989119440806
-0.22
0.5176073847054317
0.49768618362448075
0.14
0.21063179096371015
-0.037600546135885524
0.12
0.43460684278540446
0.038204485762015954
-0.13
0.41880181088749835
0.2334180625386614
0.21
-0.12641176588914466
0.042824095746948856
-0.39
0.7241822009025722
0.6859677910232415
0.26
-0.008961494373723218
-0.3902170935615229
-0.11
0.8572233902110445
0.31261777640418736
-0.33
0.9243885202453295
0.77140744051055
-0.14
0.33559885613896184
0.4715371482051173
-0.29
0.5754691484443956
-0.3619076952875929
-0.45
1.1389139919371014
0.3686865614895511
-0.11
0.5983197351599642
0.004121447801497415
-0.07
0.7028848488480219
0.48707153576496853
-0.21
0.25993476088454787
0.5142333404692058
-0.25
0.32277295618030416
0.2372995669309456
0.03
0.9197067297185727
0.5958833189984506
0.17
0.5411229776510668
0.005029147288782559
0.1
0.0019771493607348254
0.5958135424877437
-0.23
0.9311927541617759
0.314668566934134
-0.06
0.7123377297153874
0.12460876940724543
0.17
0.14239752724227128
0.09613632064585405
0.05
0.5508699760036615
0.7257903793814418
0.2
0.09121591726807939
0.36726812179661633
0.27
0.049738174852902405
0.08747866838106513
-0.19
0.2695276282684494
0.4960889205842663
-0.37
0.43091737606525066
0.639474260015446
-0.34
0.987532036634058
0.23035806017872634
0.29
0.31664823647079005
0.6023393197437719
0.4
0.414666976905745
-0.09113707091245123
-0.29
0.8781433675619729
0.012364319082109287
0.02
0.4746419775674088
-0.12035025303659966
-0.47
0.6973565496861218
0.16697399304918906
0.06
0.7700323036003258
-0.07200479908697374
0.19
0.7690110957364906
0.39091659880098273
-0.22
0.806089697848538
0.11521423701443875
0.29
0.8917920596350845
0.36
0.057746352062950194
0.8258064604986604
0.3423936825403719
0.22495294987694534
0.023003129766760753
-0.4638995165331185
0.1
-0.765071310231587
0.11881308259261211
-0.18
-0.08278509932503958
-0.4796353180701859
-0.3
-0.2609040630477151
-0.4223499556794788
0.25
-0.49818942543842104
-0.06761379729523641
0.44
-0.632925583822667
2.1341048339478793e-05
-0.16
-0.21056072216623783
-0.10301240677028807
0.4
0.13136065978447883
-0.3993135501405158
-0.37
-0.42122583097738253
0.0801606583375148
-0.27
-0.670700039455421
-0.4947156957135707
-0.4
-0.6058236854043282
-0.20806316481246306
0.44
-0.6624762163054339
-0.6054112623083973
0.32
-0.5151281188095025
-0.7382263510301984
0.16
-0.6123130300877062
-0.06511368548731528
-0.11
-0.5154256956305824
0.06444007222066798
-0.31
0.005020546661434506
-0.7077456377149404
0.0
-0.412793743402962
0.1679464408345659
0.43
-0.628485821952469
-0.6086228612742304
0.4
-0.20191651984366848
0.11621527366328488
-0.48
-0.9067546547811836
0.04516885863264499
0.24
-0.2457082397505435
-0.6007595131171561
0.17
-0.03977986800074027
-0.2053031395064298
-0.28
0.02476375838853337
-0.13286974101155316
0.16
-0.7276696401063397
-0.34740291337087503
0.29
-0.13313646774702317
-0.28456280118295607
-0.29
-0.22597657993494036
-0.0025447328915408772
0.5
-0.6779946482263648
-0.28009236764294343
-0.38
-0.06044701347495581
-0.6866228497064119
-0.25
0.09608346858851646
-0.8311639655669372
0.34
-0.33937541555096096
-0.39661495429045746
-0.21
-0.8639244268274434
-0.5451097733822953
-0.13
-1.065429607735598
-0.0798282330410687
-0.5
-0.23071114807682877
-0.7439572046452788
-0.5
-0.45658217647261806
-0.16133900366013376
-0.28
0.06079962254223786
-0.4463243686532598
0.05
-0.31421501246463757
-0.25867972035617864
0.02
-0.041859660761719715
-0.5395256894372027
0.35
-0.42101369168070035
-0.12384374703631032
0.15
-0.7266956340815897
-0.18787761508779993
0.47
0.01733823396990458
0.05222963591889859
0.42
-0.3927690170367969
-0.5607839641777711
0.02
-0.2597554169401386
-0.3136008133876704
-0.3
-0.6769385677302313
-0.02
-0.6843500623986076
-0.5251224822659906
-0.0606214688480942
-0.00041415794350630484
0.01252749260666855
-0.08829668949806048
-0.34
-0.6947440105227202
-0.5739369419008689
-0.28
-0.3507414777335253
-0.5711817810829304
0.44
-1.0698726238450025
-0.23480450172290232
-0.34
-1.1862499032050378
-0.006252821512581041
-0.23
-1.1548015834153524
-0.1911907607920111
0.36
-0.05986364413591162
-0.447590256443052
-0.31
-0.9729826953724829
0.08367947372698961
0.37
-0.7247338786549156
0.03412815780309621
-0.06
-0.5951825627310181
-0.36261060584877547
-0.16
-0.7684437990791471
-0.4282822325720223
0.33
-0.7327721723559039
-0.5113115507806965
-0.48
-0.6397428541472198
0.09787959894624507
-0.06
-1.228934003874189
-0.02337267674929869
0.27
-0.5376817281786203
-0.10932117949467743
-0.05
-0.8317332254332506
-0.16701045981136012
0.24
-0.6640439451165687
-0.2547504209930021
0.27
-0.556303983934921
-0.43670724332126587
0.42
-1.0943471616066602
0.02377248953512916
-0.38
-0.4648268944630497
-0.24733575995421272
0.16
-1.253718644973721
-0.5370716681831612
-0.32
-0.5639827367447652
-0.2418490321818829
-0.5
-0.5592053727460403
-0.46307105612200444
0.42
-0.4979833488059162
-0.3070168557628843
0.14
-0.4140375491650366
-0.4615470217908159
-0.1
-1.1295073831371203
-0.1616403505830714
-0.29
-1.039414054344859
-0.25369518326605145
-0.45
-0.9973592216618739
-0.6888928490536803
0.02
-1.0621615558742428
-0.5073050078203937
-0.03
-0.9637493971075326
-0.38571210786198795
0.04
-0.6853422970659317
-0.028678099568701612
0.2
-1.152376305359231
-0.6465777157482162
0.06
-1.0344766891797144
-0.21789235787247063
0.32
-1.1731620470554533
-0.3543761297063284
0.07
-0.8466782752215929
-0.09471670831753887
-0.41
-0.3163376966103864
-0.27160164495144257
-0.17
-0.7794527599764811
0.0022033762416564314
-0.33
-0.47325778116957773
0.08850247507951498
0.48
-0.8695568800074497
-0.14992270671682545
-0.41
-0.6311316982110953
0.013875143722879568
-0.14
-0.5049295486508
-0.42131560853188976
0.05
-0.22973879639602843
-0.5940542917531662
-0.27
-0.44700011317475685
-0.14
-0.1464841270005104
-0.22968343193136848
-0.03396786410028104
-0.28827524699031215
-0.4028136814924494
-0.34145486143746223
-0.48
-1.0302886150534243
-0.43354641241192604
0.12
-0.7455987030470198
0.18463612846998295
0.17
-0.19884280500627868
-0.8660848958483217
-0.46
-0.6281217806879689
-0.38886540003604014
-0.08
-0.34534127650025176
0.051614974749217016
0.32
-0.21582165128551475
-0.40142222387198456
-0.41
-1.2971847084955876
-0.3549007146391817
0.28
-0.45930596189711304
-0.008598436915389196
0.47
-0.8656082396209006
-0.27184165426714746
-0.43
-0.8323650222691392
-0.018811232499940492
0.12
-0.6953954440363537
-0.2552384681090682
0.4
-0.39896820842722547
-0.30503219876361976
-0.46
-0.7391744777726711
-0.7932698636902364
-0.44
-1.0609368128460552
-0.6430382823191654
-0.35
-0.3511683942171288
-0.7229424819742198
-0.34
-0.35126419456206864
-0.09654910045381213
-0.41
-0.2576575760824834
0.07304808781172178
-0.45
-0.6872547643480064
0.02633881686290543
0.26
-0.8805454933991972
-0.7455181526947456
0.08
-0.8686885238415429
-0.581153223133434
0.35
-1.073053453402868
0.10227834999077871
0.09
-0.9164850265270633
-0.9001436185844056
0.01
-0.16406305795189408
0.11008235609607757
0.42
-0.5842890326323698
-0.6316729852908866
0.05
-0.3025336912454101
0.027367881581588323
0.01
-0.8815745581178778
-0.5130925711590208
-0.31
-1.1511141053772642
-0.7434497277089002
-0.16
-0.38075694882739525
-0.7943056004222716
0.31
-0.6399010761140159
-0.7183064170143327
-0.38
-1.0959002595219711
-0.12143987318120722
0.14
-0.9627668033550836
-0.771629561165159
0.09
-0.3825771153711303
-0.800378632951476
-0.04
-0.5938280435848172
-0.0807797490090986
-0.38
-0.6034269275271954
-0.6751107222660381
-0.48
-0.9490959542702501
-0.4894279663280926
-0.18
-0.7547787102082002
-0.3198992117135646
0.25
-0.34430746482272917
-0.4754160364041282
0.19
-0.46879064013216626
0.21338479281605527
0.06
-0.5075914693523516
-0.39125328209833765
-0.07
-1.072953394437942
-0.047957037583634204
0.16
-0.06624963895266195
0.012712610089935603
-0.43
-0.2669192866262317
-0.49
0.00532599346287113
-0.29509189433147376
-0.8188570056944406
0.07627629107467514
0.1978473135151927
-0.29834589371087306
0.2
0.24230073086195966
0.3853126400721055
0.35
0.6453101444859038
0.2819318449533764
-0.02
0.4270655448471992
0.6898771491801506
-0.17
1.1991202406204104
-0.03979015367911873
-0.44
1.2087875434796904
0.4571357554994182
0.48
0.26186163430116116
0.4344760855609462
0.47
0.7616342657234151
0.060577342824106394
-0.08
0.7984200469764733
0.8196186748064039
-0.27
1.0093787149941782
0.6129355235762745
-0.06
0.7660618662243069
0.1749109159697643
-0.46
0.7440864738308145
-0.012888670055811418
0.0
0.3718860598563912
0.5227586501962016
-0.46
0.626238739604377
-0.21061422896988913
0.06
0.6096116187704689
0.003929592831994928
0.03
0.7750677969685803
-0.05634552183488834
-0.14
0.9553429116354735
-0.2604889421269353
-0.08
0.5994863319275068
-0.05170544614569784
-0.46
0.6007028359462718
0.5447465965093926
0.46
0.3842507932911866
0.2856490890853778
0.11
0.39334830071520055
0.2990547077097319
-0.19
0.5999426820908472
0.4733731535166279
0.05
1.0856242362839388
0.21114470319230538
0.41
0.7078526866082698
0.60186313078167
0.48
0.217134259018914
0.053223747741965685
0.16
0.5057736420586114
0.3045955403742052
0.0
0.8344018494263784
0.3813220606432575
0.32
1.0676753291573096
0.3171083098361924
0.23
0.9318890799643881
0.7829963490453191
-0.47
0.766001040755263
0.45129905872045245
-0.33
0.307698331080122
-0.010012710493618272
0.23
0.7190101002941935
0.6973933746062463
0.08
0.6216040151943315
-0.13681510359170124
0.36
0.7758124933922812
0.6720213996099069
-0.5
0.9369759901906742
0.5009383936400672
0.17
1.0180589961605189
0.37537093252298886
0.21
1.0636264572775824
0.08604292562592937
-0.26
0.0629544641746468
0.5711971162438704
0.38
0.7678002735567107
0.25577153172355804
0.39
1.1432258580770078
0.0016788595511986455
0.33
0.8073185302493827
-0.1750618850265388
-0.21
0.4740592748271199
-0.010795108343772588
0.03
1.0497924981443338
-0.04
0.8864500540100505
0.4506658608968336
0.8269327107372039
0.5341521466973946
-0.2871638093530515
-0.29914817362037466
0.05
-0.567411419264935
0.16326066748674917
0.3
-0.7511225741529554
0.078172898739098
0.24
-0.9844893546438749
-0.7317126886823971
0.3
-0.754603767222379
0.12727690875810238
-0.08
-0.6735933646628768
-0.08418912700292322
-0.21
-0.11212732890184854
-0.2696317628521661
0.12
-0.4485359490502782
-0.642233906965625
-0.2
-0.734082548939151
-0.7980144854603219
-0.32
-0.6083019704444517
-0.8063945765191565
-0.21
-0.419921879385611
-0.04208176919010842
0.41
-0.7942346867146673
-0.5984493581070817
-0.3
-0.9078670977976938
-0.15501318446506046
-0.41
-0.521303271439711
-0.5156109818907637
-0.15
-0.5807054740140121
-0.774947758109567
0.09
-1.0813686977951957
-0.7404403484829232
0.1
-0.48587610742185106
-0.2830474511090162
0.5
-0.9632690047957585
-0.13202900203999288
0.23
-1.0942874538647707
-0.4099837300942839
0.42
-1.1663327258104839
-0.4227052559253071
-0.36
-0.3136111999794635
-0.6473852772453835
0.08
-0.8989311786593909
-0.10791106497512776
0.27
-0.5784053909296455
-0.5671665254785607
0.07
-1.019149930426212
-0.18202733198955265
0.25
-0.28428912391522126
-0.7407264257591217
0.25
-0.4455900301456545
-0.347287542020362
-0.48
-0.9290289138844036
-0.5875137559541258
0.05
-0.6988026999506489
-0.28386397520029777
0.14
-0.8524524807044769
-0.07949115996925607
0.43
-0.506825295935513
-0.8203640212081456
0.27
-0.34595243469662823
-0.658917553232381
0.24
-0.45739890267239103
-0.31670190389417036
-0.29
-1.0196145520105973
-0.11778829287146675
-0.37
-0.9385281630333039
-0.7399479266417026
0.0
-0.9863685292630716
-0.31189808396532304
-0.41
-0.8244183719394427
-0.5237976760866937
0.35
-0.4725187798180772
-0.07668543341059582
-0.03
-0.5296310224941848
0.1593966101754015
-0.26
-0.5657130660801766
-0.6053020774762959
0.05
-0.3510143784284768
-0.7200882814726164
-0.31
-1.096228174432161
-0.686737745335905
0.31
-0.8995787105688694
-0.060886437399133596
0.41
-0.4454300185056346
-0.41
-0.20506365930688214
-0.2665858362815151
-0.4372073345395822
-0.6425795815680144
-0.4569780577899571
0.057550940399715075
-0.05
-0.722767624171876
0.061418022546243276
0.35
-0.19401413046530352
-0.6613391972893751
0.43
-0.4239542636416372
-0.5936150071129819
-0.3
-0.6816784538180304
-0.3646382035874603
-0.49
-0.42065525734355125
-0.9407129735588718
-0.38
-0.034580487372138126
0.01051203618775668
-0.11
-0.5680065972260046
0.10565846345681021
0.1
-0.6909519243878156
-0.3660698896685249
0.15
-0.6292235712624797
-0.90393312930555
-0.09
-0.6513603316254636
-0.44210600811701073
0.37
-0.6131874528139956
0.05958766026455892
-0.13
-0.6248811211955653
-0.36862417745311443
0.21
-1.2966692834779077
-0.5469410421975165
-0.17
-1.178352418733491
-0.17073096982888925
-0.44
-0.8145624911021238
-0.447631132521017
-0.13
-0.8876623284099989
-0.41992526476924935
0.32
-1.0553681961617594
-0.5653317984173052
0.09
-0.30996166251370266
0.1683458102556671
-0.48
-1.0036392711866693
0.025394770389215303
-0.29
-0.9106882313202296
-0.5873028479031188
-0.07
-1.1679906130278805
-0.44401265077927854
0.29
-0.6212808101517326
-0.41366053321670837
-0.32
-0.19163292771430027
-0.21324845281547994
0.28
-0.7020450081155349
-0.5890546294981966
-0.39
-0.41623883143281665
-0.6799048853976565
-0.06
-0.49538857553335414
-0.015590396513985066
0.04
-0.8497030644170307
-0.4703520701176584
0.0
-0.6949413908133567
-0.36896764467579773
0.28
-0.6063258162552174
-0.9260420520587482
-0.45
-0.709251408872263
-0.1480366080791899
0.14
-0.977256852851826
-0.714992341497325
-0.1
-0.9403011194336867
0.10108731480891517
0.04
-0.49638077573992745
-0.2899184910014675
0.14
-1.0553749699295412
-0.29695778730556605
0.26
-0.4383356736254464
0.1716981584256235
-0.23
-0.6169916193566384
-0.044591657191071006
-0.31
-0.7907018037399443
0.14149924509579218
0.4
-0.6567927060268001
0.06723189290916584
0.18
-0.42252535384017487
-0.07522874076604168
-0.49
-1.0300647201649613
-0.6875321732111707
-0.42
-0.5577612877198433
0.1477799724534623
-0.34
-1.1330734333844734
0.4
-0.7747585552719959
-0.572316316841625
-0.7879260509778276
-0.6434424206777483
-0.17670702209058256
0.04740350521713697
0.02
-0.3362909827124585
-0.09725598779917823
0.49
-0.6736411532476921
0.26084154071530563
-0.34
-0.7685502863930309
-0.4693299761239536
-0.32
-0.5383787695537793
-0.6664122038607104
-0.31
-1.131296541817024
-0.23332502231357802
-0.1
-0.6243837233641479
-0.5664005004617287
0.15
-0.5614988414511008
-0.3578654633408065
0.17
-0.839843282336925
0.016192555435510576
0.04
-0.3039013011132431
-0.7512661204233877
0.27
-0.53644262525434
-0.5919984603540418
0.45
-0.14571028532368788
-0.1029627781986757
0.39
-0.824745967479055
-0.30307326911577565
0.38
-0.9446354765619592
-0.18758770224195667
-0.15
-1.0001210434357746
-0.1250605514669106
-0.2
-0.12264819421081963
-0.47716685600449865
0.34
-0.3505418896732347
0.12235882217070713
-0.46
-0.7900675678484352
-0.5009389830962613
-0.05
-0.8167697625814724
-0.18804014117035148
0.19
-0.2796686045073836
-0.16608262572917418
0.13
-0.531626119948555
0.03054164606892369
-0.39
-0.42825039174665763
0.22113411438717412
-0.39
-0.39884286006490494
-0.46833221347568527
-0.49
-0.8193765322020531
-0.5312346337290733
0.07
-0.896474111948656
-0.2672713110384316
0.43
-0.16043743463930304
-0.3136700407593093
0.16
-0.1140387049184219
-0.12089221399955574
-0.05
-0.8768165316781751
-0.014853518313646015
-0.29
-0.8228552273640851
-0.21955510411484672
0.04
-0.18815364156288192
-0.6559224929154258
0.24
