0.05019102375844217
-0.11
-0.1463246476648618
-0.1656192322117476
-0.26
-0.4705143916946722
0.3173859692475473
0.43
-1.0035195931539678
-0.6805052004890315
-0.17
0.2343715765826119
0.2940197724689833
-0.27
-1.050153396375401
-0.09447413606863637
0.2
-0.2416594878377832
0.3270281114984388
0.12
-0.5331617354048581
-0.49365575177951065
0.08
-0.06247787212690934
-0.04130309316591473
0.45
-0.6648305307405054
0.22064220333931486
0.13
-0.8167758272457347
0.05944166616695164
-0.09
-0.9155752900733709
-0.313040094860028
0.43
-0.8530935290463915
0.3547884019947064
0.1
-0.8209220259011261
-0.8245990547289112
0.45
-0.42153456917750937
0.21953370453374754
-0.46
-0.24566732844016756
-0.7602082817975625
-0.5
0.0740746578911422
0.29445132935045676
-0.36
-0.17058495325687664
0.2518380256867177
-0.14
-0.617971649593137
-0.2911570719669479
0.08
-0.23497655193947212
0.09763719566889645
-0.43
-0.1037708195753159
-0.14431037418610304
0.03
-0.37182324972031655
0.06804757535988472
0.48
-0.28418119926630414
0.04715115953964549
-0.36
-0.6832847834460648
-0.5461065579028141
0.09
-0.18002706600360516
-0.0036269354918897078
0.0
-0.13250668841453
-0.4218698508259108
0.04
-0.6242637730805085
-0.16561565349799415
-0.1
-1.050517970408423
0.20876191012319986
0.37
-0.13489553402961965
0.13712840744115276
-0.3
-0.6732620313475726
-0.17113524481238793
0.24
-0.394998379094032
-0.24833788510654262
0.35
-0.33779573879987757
-0.29276285990062917
0.47
0.02662923599420965
-0.34037693808701314
0.38
0.04424331418059331
-0.35189570020033367
-0.4
-0.29423792370608604
0.15882453550948045
0.47
-0.6749581594158995
-0.0976664458784411
-0.31
-0.6684671780279772
-0.11863492331113448
-0.31
-0.5074987005952851
-0.057746009860768735
0.29
-0.5583876140456511
-0.44335876401484126
-0.34
-0.6327748598915801
0.09725973565309268
0.38
-0.8733933595595121
-0.3007225389103136
0.29
0.14458891500389393
-0.08642784990180898
-0.38
-0.12970577400461053
-0.36
0.1723092751898007
-0.6433314158383707
-0.4990452052159648
-0.08515267681233592
0.03543590916840242
-0.2799383343215573
-0.18
-0.5536330034820192
-0.12310486572598076
0.01
-0.7704664720775946
-0.5149855725654834
-0.19
-0.2185857652380933
-0.7174635076961133
0.39
-0.1361078301074629
0.09592193941822903
-0.32
-0.7794932772218044
0.203281587172053
-0.26
-0.2068529249756298
-0.12809540825732987
-0.5
-0.6554759295462471
-0.20057326753537755
0.01
0.18700192973180094
-0.5540799776833121
0.41
-1.0394913601202622
-0.6364615183533747
0.12
-0.907109819450201
-0.1397630857241461
-0.16
-0.6938082520794296
0.2308538421035013
-0.17
-1.0344251799070752
-0.008384459184017593
-0.41
-1.0351868786195564
-0.13218514963459532
-0.01
-0.35138618816898176
-0.30197045477610646
0.28
-0.15160088302747066
-0.3095554281014716
0.21
0.1159840902978943
0.3131285351584518
-0.27
-0.14669987296202852
-0.2094639854404535
-0.07
-0.9541073523631225
-0.05592251903065626
0.14
-0.15764881877292056
-0.08545679658190768
0.43
-0.8081145412216688
0.12409780193158611
-0.38
-0.16766913973516304
-0.23222999178992684
0.44
-0.03134134601365011
-0.31362233752655505
-0.3
-0.009949000277021874
-0.37269196754126327
0.11
-0.7208793702623125
-0.140991629647033
0.21
-0.6625797081565435
-0.5636553836152848
0.25
0.04008404581170809
0.07547084918843436
-0.21
-0.8990421869920104
-0.14709621820497668
0.27
-0.2764751195986006
-0.39278516735650226
-0.34
0.009213829552925263
0.026835637986046306
0.0
-0.5804069757896216
0.09596308620641625
-0.17
-0.07953442400999287
0.08436944928434703
0.11
-0.2679407870879241
-0.5405818784039736
-0.38
-0.8929894593996021
-0.6301231005041703
-0.41
-0.09344823729940592
-0.15581547871173743
0.24
-0.06775585909183894
-0.5956491396512115
-0.12
-0.5879221981523642
0.1849869683321675
0.11
-0.5585583061357434
-0.26474578717978836
0.34
0.07117444937621122
-0.24784615127016554
-0.41
-0.7057251865334104
-0.5314825046695207
0.1
-1.002088833134055
0.024604236473450447
0.21
-0.34817557427702744
0.10347546137131232
-0.27
-0.1670467991748892
0.16
-0.7639083336342322
-0.47341835581500236
0.0912954607597743
0.026513830807408822
-0.0067432172980019505
-0.3192782195402369
-0.5
0.6831233668200446
0.3548105211460292
-0.1
0.3990346261337763
0.36100756224361374
0.07
0.9028375850361918
0.30706388512875743
0.13
0.18678126215104782
0.3967212678101961
-0.18
0.36712387946960934
0.5351300115270216
0.37
0.9887151357527847
-0.3578967469225209
-0.09
0.601741894202327
0.6075314279628841
-0.26
0.6463137193169222
-0.4201883651755499
-0.25
0.2940335124553552
-0.11340388257581203
-0.1
0.6072490298556178
0.2677033235020683
-0.31
0.4461418237777369
0.42226179216601034
-0.3
0.5215833551137955
-0.06974074330052495
0.48
0.14358589058032992
0.8325077392273483
0.39
-0.38866259194754266
0.3242763738008064
-0.36
0.5895687734789995
0.7267593753502278
0.32
0.07708577192957804
0.40717180509092565
0.24
0.8866733421888803
0.526742108261688
0.12
0.3771030390181184
-0.002390091225574591
0.43
0.7862352385053809
-0.3229912673871611
0.26
0.9668364146669672
-0.2783160078057745
0.14
0.14216115508557925
0.10072485998654984
0.39
0.3231202872932557
0.06188364413748723
-0.04
0.261961503142318
0.0726546815508281
-0.19
0.331190465728977
-0.23615729137188515
0.38
0.2500024386516902
0.1666338587118629
0.19
0.08721128856794229
0.20610362795204717
-0.18
0.4577415193277584
0.2948428911245831
-0.4
0.42900225615522225
0.07822871521357083
-0.38
0.11561643206623406
0.11986915654459085
-0.04
-0.12602400926478557
-0.008178151765455699
0.03
0.0820232990452608
-0.024997417402510668
0.15
-0.12115743531768428
-0.002099412841369098
0.4
0.6359445601211747
0.09044975318449872
-0.04
0.8433953940953072
0.4949024829643466
0.03
0.74894266431546
-0.1636934235630169
-0.47
0.05753857084282189
0.4997862619832071
-0.4
0.31405888529659803
0.00030373240293845807
0.47
0.06354141487686688
0.2019400675450923
0.32
0.4219050797347135
0.5146277995777422
-0.42
0.3192173477020634
0.610862154111399
-0.47
0.49298299316840655
0.1482438600973831
0.06
0.6256012871824229
0.08
0.07364632879134184
0.1365817130770084
0.606009427994234
0.09909906744226549
-0.05250147928048719
0.2789998132511354
-0.29
0.7310512177015889
-0.08986198334183446
0.2
0.6399130142945588
0.010569034140877086
0.4
0.09948199681184586
0.17282958332665857
0.41
-0.2727785523739352
-0.0006308459755532396
-0.35
0.010681876928276216
-0.054191616803850075
0.15
-0.005757352243426797
0.48084180850208785
-0.23
0.5392092224506357
0.3091096815019479
0.18
0.5709413494507753
0.4620228905984319
-0.1
0.5880281403542917
0.3819959571953643
-0.07
0.13805507375735876
0.4896802630207096
0.2
0.28037076793201404
-0.22769757785200542
0.21
0.18774860880472838
-0.09971674197522609
-0.05
0.8397677729279502
0.09408085002964071
-0.45
-0.31402981907691746
0.16991699405906882
-0.49
0.5101340368936544
0.4036586592583428
-0.06
-0.3136076283056193
-0.12405032784424197
-0.5
0.2541013587969649
0.3354970516646335
-0.47
0.19455397928808932
0.22631120617101827
0.37
0.12373982478170492
0.2147776933630032
0.09
0.0952733375897198
0.1534423166467446
0.22
0.5966087143059791
-0.0834776121161709
-0.03
0.5935286430688951
0.38205020189260364
0.28
-0.11199917093988013
-0.3088826480891767
0.49
0.6989336790419007
0.4831161355831288
0.43
0.28693489536959454
0.3752396807704519
-0.46
0.1648113501822708
-0.0049307021979663685
-0.23
0.41498173315068926
0.041800947288105454
0.23
0.648250083664618
0.35336616758838957
0.22
0.6366848633643353
0.6590838606982433
-0.43
0.1409671702544796
0.30073185659488255
0.11
0.7693191743578416
0.28263885259544375
-0.15
-0.10258782164272084
0.5554423324927393
0.35
0.7246086984599848
-0.19653050055448562
-0.35
0.23658153150720881
0.13901292041302934
0.02
0.3310381105396937
-0.11857772944562606
0.09
-0.11137123960165071
-0.362434435740353
-0.29
0.5824854666930774
-0.28984299464899776
0.17
0.2498940256017209
0.2828553975284112
-0.19
0.6471956334243135
0.21386111863346086
0.0
-0.053810087680737494
0.34356640801772237
0.42
0.3764846229350009
-0.07601347011889276
-0.36
0.20606450107161553
-0.24
0.2023990507224641
-0.20037191133716112
0.554509328667312
0.4375303644765937
-0.10422456023907191
0.2027530785115211
-0.45
0.24310253080847485
-0.4247517065430838
-0.15
-0.7293926841369192
0.20049312883777276
0.38
-0.10463751951777633
0.0067114214183990415
0.15
0.009144187901597354
0.09558472801296874
0.47
-0.21972911869297265
-0.4367508366306644
0.04
-0.3773935540493393
-0.142768289468022
-0.04
-0.4513761012119814
-0.05029709736463747
0.11
-0.19384729331536635
-0.2418259163075285
0.12
-0.5723184743724758
-0.6011725418692598
0.45
-0.36297184881074346
0.33834334883558
0.24
-0.6324877395155825
-0.2701734977104186
-0.26
0.01602910703041492
-0.163267952267551
-0.47
-0.4208764384124529
-0.5851915754741939
-0.48
-0.45895281520581016
-0.5119174364465068
-0.23
-0.12222695423349633
0.17106107641116983
-0.5
0.06479453290882643
0.34162060954796547
-0.1
0.004234999772030309
0.05937442518432263
0.44
-0.653518815864325
0.20522786405395085
-0.31
-0.1493722547339546
-0.32775512399899953
-0.3
0.26361073331899615
-0.2955441276168266
0.28
-0.5186002630631769
-0.015792701598590676
-0.4
0.09164831091858695
-0.11646665182266665
0.34
0.012322261142663025
-0.4811035775386069
0.02
0.2969591868586031
-0.14124874970154117
0.31
-0.3928956409784623
-0.15947947012470273
-0.35
-0.29466492055530075
0.2631457781885755
-0.21
-0.1772901688685793
-0.4677222728080954
-0.43
0.10357788212809156
0.23838639577450094
-0.27
-0.11253078645450493
-0.33443220484990116
0.42
0.36028781416989797
-0.24486131574007766
-0.49
-0.40928307493992566
-0.185132354461906
0.48
-0.09901203621809765
-0.49350319585172114
0.12
0.11935880517171746
-0.01906655725031173
-0.29
-0.14507783342969208
-0.5170810088755257
0.06
-0.36706338180447756
-0.558203885460407
0.24
0.3040594947804038
-0.48966178904728047
0.3
-0.2244826016327234
-0.1624982520540725
-0.32
-0.49164613862593176
0.1819192011787815
-0.33
-0.07606359185878553
0.13966817308068066
0.07
0.19618743623931553
0.3722066012463622
0.49
-0.6063509919263658
-0.5214415280103865
0.19
-0.18270286266961738
0.47
-0.5397644724736312
0.05566138983972722
0.25156595034633006
0.4006393004734928
0.20712174019312737
-0.6345634591519732
-0.41
-0.7314827638204692
0.3505683315499467
-0.12
-0.11661455452238828
0.3226369189518661
-0.02
-0.22868314192430803
-0.07908637259334042
-0.45
-0.4669598503791015
0.17128663972445515
-0.05
-0.42733286269689713
-0.5908126499614296
0.12
-0.8152335730110123
0.29218561087101136
0.34
-0.30823183384345343
-0.19277193274176863
-0.31
-0.38327429023067333
0.32105146146511565
-0.11
-0.7370976844375581
-0.20831479379579906
-0.17
0.012268570823357468
0.03871473973036845
-0.09
-0.5547609627028104
-0.29787244368425375
0.3
-0.7281737792881883
-0.3560868885598432
0.05
-0.1499593344125982
-0.24131834450832837
-0.14
-0.5147278784641132
-0.6211814974144428
-0.26
-0.3848647255579997
-0.585002279594708
0.27
0.11895605662226627
0.20994054453015104
0.47
-0.05598676750259317
-0.05781682894565225
0.25
-0.018229394026789542
0.4038855771607619
0.47
-0.38993180013320367
0.03392772597837154
-0.27
-0.8899739489508134
-0.3580897883913694
0.09
-0.8179564345810724
0.0704273771695282
0.05
-0.3964736001419699
-0.24606683351117406
-0.1
-0.059979389461267706
0.11710914622768873
0.1
-0.1231553692001304
0.09909007696216048
-0.34
-0.09513629993460214
-0.027561221645456588
-0.44
-0.6084850013269858
-0.017457027240758777
0.25
-0.6485891957316839
-0.4387681129853516
-0.06
-0.30727810998709015
-0.6529480834522111
0.36
-0.6730981395202315
-0.7416576244873192
0.15
0.07561140151487677
-0.33410262707575206
0.15
-0.16194359589668966
-0.5822429224374499
-0.14
-0.38380330053499195
-0.7171431146212185
0.2
0.0010968916487763725
-0.5898582127117019
0.49
-0.40618801026073975
-0.42216574926523875
-0.46
-0.5338804737072035
-0.6830159676616872
0.1
-0.28303025531075493
-0.1878940729651642
-0.47
-0.5281521500072776
0.2287568171300704
0.31
-0.25480304010251215
-0.02268709568827839
0.32
-0.8333591272841638
-0.11396204462419446
-0.28
-0.642084178348248
0.11594070993386493
-0.49
-0.6419869329063074
-0.1493665295694281
0.02
-0.2866796934030134
-0.45
-0.04133391879117789
-0.24190146002665147
-0.3298423690005695
-0.05217399903002891
0.1498769731473027
-0.17491068678785585
0.43
0.20204053297391258
0.1499523945619088
0.33
0.2571774516241481
-0.44214822724351455
-0.5
0.14927807342957103
0.6754998934021607
0.21
0.18162995278389568
0.5623727862874847
-0.12
0.704757059898571
-0.17996238328066747
-0.3
0.04709222946672418
0.07679404103933497
0.48
0.11033580514672182
-0.18189413114690464
-0.38
-0.20097602266703815
0.1658066511881329
0.29
0.31132319499792394
-0.2594840185917991
0.11
0.22661386477785567
0.38960429292565807
-0.1
0.2875255532603983
0.11046768380910164
0.01
0.786662162376954
0.27521973322160814
0.5
0.03191011296444863
0.2813976253622937
0.14
0.375732220823763
0.5151101324829933
0.45
0.7120197137030637
0.40957825067439485
-0.05
0.12755159551166242
0.3859767869147064
0.11
0.3911530592713502
0.12083756267733221
-0.12
0.0462922835087245
0.3394702623634659
0.42
0.5376595838225912
-0.3208776738164229
-0.16
0.6280075200024794
-0.15656054074804948
-0.35
0.2536903869341064
0.5105824796804201
-0.44
0.7965473665056353
0.5010019310292821
0.44
-0.03387208484322556
0.30021033739792424
0.13
0.8569195087881313
0.43122094235301056
0.46
0.7159089038330453
-0.09716809452552097
0.1
0.7042979407115768
0.10558110932811891
0.28
0.6515487368579379
-0.10184657577933681
0.07
-0.0010235780346065167
0.13756594462493682
-0.01
0.1595639015611199
0.04564503615121941
0.16
0.5914848100348358
-0.172845181760762
0.13
0.6899750279468189
0.23807774322755096
0.31
0.629052102958505
-0.03779903450766661
0.34
0.37492888069372343
0.6354422314307066
0.5
0.3516876147553494
-0.2599755915621134
0.17
-0.16289456225182952
0.6587908094808917
-0.4
0.5583390367051646
-0.2551841305329635
0.16
0.4523139767190203
0.2372753338735009
-0.1
0.3498545123125557
-0.23493050949671546
0.13
-0.00793964431722791
0.3262425767310716
-0.17
0.430887269454985
0.5026580931588656
-0.47
0.6044717530271905
-0.15649952846921422
-0.47
0.7936293746552693
0.18
0.5273966927709518
0.5712971742882816
0.036372406939722865
0.618321521087969
0.24627504330786995
-0.03893689757801286
0.46
0.6199692994188861
-0.26239165380229684
0.28
0.8834240556431708
0.3620350370720318
-0.34
0.028997364768841457
0.2195029155647133
-0.28
0.14152948627616002
0.21258052397659252
-0.21
0.3784518778642812
0.13786518659494842
0.0
0.33316721524592435
0.2422614511733502
0.23
0.7387709506675227
0.48052552491378814
-0.25
0.4405068769270849
-0.13409883882704984
-0.12
0.3951312406679237
0.007709887244401944
-0.45
0.30332251459647186
0.18704849742303697
0.07
0.3039839044178368
-0.32594831134882013
0.19
0.5869807131896932
0.468862836093166
0.13
0.8421695657477073
0.6226968951702117
-0.18
0.47833550667066094
0.44360675158321017
0.46
0.06742565025766296
0.19354324880993645
-0.06
0.18748915303093663
-0.05747099755255503
0.21
0.06850339939342802
-0.1700222958990543
-0.25
0.38105469773992806
-0.01158066650899337
0.02
0.5726130683498656
0.26836913588733796
-0.32
0.5326632659535351
0.5186928490808174
0.19
0.7623395527600563
-0.17624587549975665
0.34
0.7872782773406297
0.03036390356569768
0.16
0.450668498275175
-0.2565527259909744
-0.2
0.06758512783184803
0.3622528883543304
0.27
0.2287795134865428
-0.17735126451827327
-0.2
0.7183836663591467
0.2582390822001027
0.09
0.3827933196407709
0.33940186988292254
0.25
0.7016305319579504
0.5365199634303741
-0.09
0.07451243841049852
0.25931481280916946
-0.13
0.04171758903170388
0.04760900705158865
-0.1
0.10342339478928422
0.44924053509521944
0.22
0.6717918667456529
0.5593375523108518
0.31
0.031694849530021565
0.12468875527454322
-0.41
0.8063436465663298
-0.10274944189872585
-0.29
0.353781843739599
0.31836269818257046
-0.01
0.13266970365830277
0.5095248157657983
-0.43
0.7515075860750755
-0.016657317594322252
-0.39
0.057689719435195325
0.2894536883904844
0.09
-0.0684212865496107
0.3920566459325943
-0.35
0.3589757559082794
0.6558637803379769
0.32
0.25516862150289576
0.5445194774642299
0.32
0.39651292437664387
0.09
0.26873588915611946
0.013660868159936671
-0.25534959016764813
0.20926748682361204
-0.48519373809318866
-0.37363449975698737
0.03
-0.5969320547064471
-0.5998253126841059
-0.3
-0.5307412417793287
0.09697978792555702
0.17
-0.5175463423889906
-0.4060390924308019
-0.38
-0.48452746203263236
0.40552238280495567
-0.3
-0.26608893726838945
-0.5447983583574438
-0.43
0.3442318038940099
0.31314889357952763
0.45
-0.3537154480429618
0.1719975743419759
-0.36
-0.0925641288054095
-0.7584517239436712
0.16
-0.28211483051976316
-0.5289807580602179
0.32
-0.5715857964032166
-0.37950340526954607
-0.32
-0.3010631491938878
-0.3120973817262283
-0.35
-0.20846917273720536
-0.5884443931398206
-0.41
-0.5821221613236137
-0.6345414470457369
0.15
-0.3560251074176972
-0.6309068901675459
-0.09
-0.48965966429588814
0.15657854868168603
-0.26
-0.27714510314511936
-0.1935568290757721
0.37
0.15299027461233902
-0.3405967084516476
-0.5
-0.8699698460117874
-0.17478114541556494
0.04
0.30421459095213216
-0.5470056823199777
0.11
0.016439127856543154
-0.06986372063103187
-0.3
-0.30070283383240193
-0.298552720615784
0.12
-0.48201383384764995
0.27098369737226674
-0.48
0.05844974816429985
-0.46203083671273515
-0.14
0.12146428224930124
-0.5420979995715532
0.14
-0.05846855489188064
-0.23264942826579685
0.0
-0.08791712619763654
-0.1959495655970605
0.35
0.25538301113362694
-0.4359310562803662
0.38
-0.3246354981830674
0.12208190167707132
-0.14
-0.6526484561405058
-0.022927202985606302
0.28
-0.12763935147782723
-0.18198989114654138
0.26
-0.25857666331689194
0.0447815568564119
0.03
-0.6453481113198468
0.002397520816953313
0.24
-0.17296407528038696
0.21508728300720634
0.13
0.14434616252936003
0.35482529516576644
-0.02
-0.10539184962920056
-0.06110807711192687
0.37
-0.24945847735150684
-0.6692873767372007
-0.01
-0.5012791777262336
-0.020932002681844003
-0.13
0.11036544821841021
-0.26410660647580897
-0.23
-0.2864599479876246
-0.5479550299278811
0.11
-0.28261152453555277
-0.11906559142430127
0.16
-0.1715009630391327
-0.3370686092126748
-0.14
-0.31349794525075875
0.27
-0.621330106170529
-0.4092846465768768
-0.6197302289709974
0.0025078960097218287
-0.3174329832365474
-0.22428762270292896
-0.46
-0.19232114877106377
0.31000461864904744
-0.01
-0.30661339012303984
-0.04554482368815369
0.25
-0.4510639477858394
-0.29306505502081
0.27
-0.5835437164531823
0.2720535269874308
-0.19
-0.7986622984614231
0.05949863677312444
0.1
-0.24610740824711713
-0.05910663775749075
0.12
-0.5675021337165015
-0.19067442455716013
0.49
0.22406565308316734
-0.321855407624221
-0.28
-0.22475336384977154
-0.6881961244137317
0.08
-0.43841264706026106
-0.31220644118261254
0.31
-0.6544023302913803
-0.5013452378141358
0.32
-0.4952635336598574
0.24490676206188222
-0.48
-0.7115155335358754
-0.018300560193664647
-0.49
0.34169178871967193
-0.011269491581240468
-0.34
0.024660720107247857
-0.14276950788585632
0.07
-0.03383926358813645
-0.531926703050238
0.04
-0.7346820684237542
-0.024569123185405942
-0.43
-0.46203964828858707
0.29959394675865303
0.27
-0.3662027182326461
0.30144090709798893
0.31
-0.6080496785719818
0.0991991667037091
-0.41
-0.7158079381777008
-0.6273213314100742
0.11
-0.2992874400639176
-0.17105590056317713
0.48
-0.04555287091081563
-0.1752898541039302
0.49
-0.4113189173700625
0.28266496909069694
0.27
0.08072625943531042
0.11163469267117007
-0.22
-0.7582434641451624
0.18253894367356233
-0.08
-0.35914771514755534
0.2145214726841881
-0.29
-0.13113024415818095
-0.5507914020298574
-0.49
-0.5458173694441352
0.09960802661475325
-0.35
-0.6162167980887464
-0.12589846930142018
-0.42
0.12928969782742755
-0.1389181031075894
0.46
-0.21769066836640327
0.1267265483221346
-0.3
0.12666468020387273
-0.08480859413204492
0.25
-0.021800177341947915
-0.11920893453159047
-0.03
-0.42739983694240263
-0.5903028422356504
-0.2
-0.42630592923834276
-0.01664939606640802
0.12
-0.6299593754075851
-0.4324471478453092
-0.44
0.21583837637131598
-0.5824227245188021
0.01
-0.6241860469551905
0.16516398484010156
-0.39
-0.0017727563140939309
-0.44549206634507665
0.4
0.07888329487108431
-0.6280507189339636
0.2
-0.30855805254002894
0.42
-0.31931013466242075
-0.27370777517222844
-0.3423388654719597
-0.3617996503220796
-0.057199531092963184
0.24651089285600947
-0.47
0.3994170083773149
-0.44675958418897527
0.03
0.13268748542230005
-0.10065768416518261
-0.13
0.8265855853985076
0.7387441250468647
0.29
-0.21281622381353965
0.06687490264814612
-0.39
0.7690529985851787
0.05915819869067271
-0.45
0.47676970254265194
-0.35666654758253336
0.03
0.1525944488158577
0.3672759935446723
0.07
-0.011348092311347585
0.517378091582484
-0.36
0.4585498096508401
0.5974464924494762
0.19
0.6484814087838489
0.5774507957895857
-0.12
0.3184771054437389
0.05342979404052352
-0.47
0.9124981071928017
0.4651416975741847
-0.38
0.24078620365913922
0.2974934216955286
0.07
-0.19156552046220446
-0.19686680921469252
-0.01
0.6027947104480179
0.07938962871293287
-0.39
0.6365382725203917
0.11819004947313745
0.3
0.14773785176018708
0.24098542005049295
-0.33
0.29494248118283123
-0.2586040964545211
0.34
0.12453199768784604
0.3123054191727946
0.25
0.7236224820605298
-0.2637341267160343
-0.12
0.029662027949358603
0.2404655673989311
-0.05
0.8054623338343928
-0.2725116661690134
0.17
0.1384395674023377
0.249206006070899
-0.15
0.27672189516242524
0.2885602740460503
0.25
0.9273676271872745
0.457493136137763
-0.3
0.5484347650955621
-0.0932288430465277
0.39
0.259156744279852
0.3912662915016904
0.36
0.024661609731634067
0.21149497260852432
0.43
0.5644329286248
0.007711522991914531
-0.21
0.6982163782414104
0.5291873430302835
0.05
0.37674055820304125
0.4601513384916364
-0.5
-0.1942234372583117
0.38685288228431014
0.48
0.5390750189490142
-0.12508992953236334
-0.47
0.47101783076568765
0.03611124941524582
0.17
0.28981665181807853
0.4781322942428521
0.5
0.5377956069904722
-0.002014077066043794
0.45
0.18794197829936812
0.43686535279636196
0.2
0.789062548436962
0.507285116208301
-0.1
0.5086427850250232
0.19057546473392897
-0.24
0.4453524364993951
0.05412369897423216
-0.32
0.5818042022590926
0.6266220173082913
-0.38
0.4693058839250342
-0.26
0.05849339670694274
0.5133834658260752
-0.045291074322581205
0.48773680211772413
0.41905459928396055
-0.42395412769115376
-0.11
-0.17726059868901803
0.20038407081812104
0.01
-0.5015987971982929
-0.7439910101874049
-0.43
0.42277628380723153
0.3437791813831993
0.3
-0.7949939077633714
-0.3682799285137936
-0.1
-0.252934797866378
-0.26776744324121526
0.15
0.4165527168610433
0.25272620179542693
0.07
-0.21394092817559887
-0.3202689048564743
0.47
-0.37094582152369776
-0.10413917819083147
-0.46
0.3329244518106589
0.18603132496520292
0.13
-0.2872460513453751
-0.07684726570651251
-0.04
-0.09436746067365946
0.31579456870709793
-0.25
0.22299070491272907
-0.01700179307112749
0.2
-0.2042129333090442
0.4590824948833003
-0.32
-0.5102972212634729
-0.6049629663539839
0.43
-0.636251760026188
0.0013579312857228297
0.15
-0.6925726576658952
-0.353140642937515
-0.31
-0.32807408344265687
-0.3748177923193594
0.23
-0.7263969340608124
-0.4040285299180489
0.27
-0.607186196462123
0.011421839064221919
0.16
-0.04263656544439426
0.27664667326190706
0.27
-0.3278613996420791
-0.07551898019666116
0.03
-0.05569574618351085
-0.11339161229882236
-0.42
-0.4378231140813497
0.15757436936584054
0.11
-0.29878909574601314
0.007852010734339311
-0.11
-0.1390667371145114
-0.06160633730132685
0.5
0.140391610921154
0.13436205176402516
0.19
-0.24557677814419704
-0.0558388977706306
-0.32
-0.14537582860954185
0.054906563454505494
0.14
-0.3061212898346777
0.22809625371621203
-0.44
-0.04931098009638364
0.08005380215060785
-0.03
0.0987314714692203
-0.4315718653025874
-0.16
-0.07964286107758448
0.010041151116346162
-0.25
-0.5912558774965179
-0.2486373790433341
0.41
-0.442577347336838
0.32206029707703243
-0.48
-0.40327502345720484
-0.09181183475472388
-0.17
-0.6894028916254481
0.18670119842059857
-0.25
-0.4279159248007702
-0.3469526406716458
-0.11
-0.22426208570852627
-0.060306199783481874
-0.02
0.21909147340330856
-0.05991861725959855
-0.19
-0.011296109120573538
0.21878700382269417
-0.08
0.10999826979713428
0.002421030377652643
-0.48
0.16636424324217416
0.5
-0.3654742632748386
-0.44997186079427703
0.1336803537476011
-0.12463518239112428
0.10673472588818898
0.554002793598674
-0.25
0.2052789014367976
-0.10431264406104389
-0.26
0.24359433909651493
0.48653137981522504
-0.42
0.5027503152202467
0.2872808584676515
0.0
-0.19799916343217996
-0.09750902561011487
0.14
0.8667907206455868
-0.25285345835590184
-0.46
0.8421351533913736
0.1256073495506
0.02
0.27367434548487124
0.29072805115189443
-0.34
0.21855364388357718
-0.35658219333815117
0.4
0.5758638883736235
-0.03975331088157887
-0.19
0.7790350059170517
0.6016697617266842
-0.34
0.5876119333087884
-0.18534904767895427
0.46
0.5446307427144266
0.058933685125337816
0.44
0.8003480099101346
0.14719375925701988
-0.06
-0.2079120642215483
-0.12680747826285316
0.27
0.5860891732983248
0.8393061059631794
0.01
0.7799755890722928
0.024149935189998813
0.33
0.5051317598454729
-0.02621597020888139
-0.43
0.45549766524435337
-0.09941986323686491
0.26
0.15870155827233606
-0.3350632051121073
0.26
0.0943449001475786
0.16288548549982831
-0.29
0.4463962095356434
0.030742349115316547
-0.41
0.6785393459201553
0.07481104788854309
-0.38
0.6244706471469283
-0.009191971382589568
-0.08
0.6184736664180618
-0.12866911388290506
0.14
0.7779508089183765
0.6638333848503792
0.2
0.7154483101850933
0.5164653147822716
0.32
0.3228163802531997
0.17743278233628826
0.37
0.0318489126991826
0.3712946074056961
-0.38
0.5879870876297764
0.3564886952912985
0.33
0.6127929997441738
-0.3336961557455538
-0.35
0.5429778507810259
0.4995958350060214
-0.17
0.7596858600294504
0.7071211255797756
0.46
0.7521605694556968
0.14001807045279885
0.04
0.4792636245826725
0.3310660542865566
0.23
0.2082156407489152
0.043688217947511196
0.3
0.04559347708796018
0.47770709164518527
0.12
0.7415746033902866
0.6277164466361594
0.03
0.5715652483993128
0.20319227120898953
-0.08
0.0260894238264818
-0.29193301975223895
0.04
0.7812147147877112
0.6614057098634288
-0.17
0.6378759851720431
0.42412281765832843
0.39
0.5051588773771434
-0.24
0.6986692347535406
0.32025348127904907
-0.2878399411428514
0.07408222600732726
-0.4163386168723341
-0.15847606678684936
0.25
-0.746351537968943
-0.5042175632161219
0.42
-0.17061004153967102
-0.1249437608518236
-0.37
-0.18988384390396873
-0.34664458313394997
0.06
-0.08818302162184238
0.022639365873773017
-0.48
-0.21746697062956544
0.28037025403338495
0.13
-0.6251978587891779
0.1818544910292506
-0.32
-0.49668209578504374
-0.23740284691382554
-0.27
-0.38742475784196795
0.23538769073136478
0.08
-0.7502152954871579
-0.25991517682780596
-0.31
-0.0849124279279867
0.3143111630075735
-0.5
-0.809138767763365
0.3617801828721584
0.25
-0.33660778762795207
0.1403741486039417
-0.28
-0.5952017533597345
-0.7800623808474273
-0.33
0.035234776091634605
-0.13696127300792948
-0.2
-0.1278663317478629
-0.702622822529945
0.35
-0.15220478222584827
0.19863108563008197
-0.47
-0.5934586903858737
-0.04357292001146897
-0.19
-0.1512546847443236
-0.15034612148539633
-0.18
-0.8944814832703961
-0.577423633580535
0.04
-0.5074039711752579
-0.10554040416904245
0.14
-0.0392872005867498
0.1948654104521615
0.4
-0.4296930152079547
-0.08565637134022587
0.42
-0.6491712334155666
-0.5239205563509254
0.23
-0.7909070484048665
-0.04961734748059936
-0.35
-0.25521025727519336
-0.2946391239777374
-0.31
0.07981151922194454
-0.2265082042377923
-0.46
-0.36831940051800044
0.2319269219065359
-0.28
-0.8067545266623285
-0.08480905487232268
0.15
-0.2700185498834698
-0.21678243680478296
0.09
-0.03804516795100956
0.21711973504858148
-0.29
-0.47194733980437453
-0.46729719510346707
-0.33
-0.40753040965232634
-0.4451309893720386
-0.2
-0.03969661538375406
-0.01693870248539411
0.42
0.032111097729601794
-0.04297479684915816
-0.11
-0.6518528079066341
-0.1661043723795275
0.24
-0.1787232323762652
-0.06714309212013303
-0.24
-0.927684512635659
-0.6051351355280267
0.47
-0.7996924692277657
-0.6485201971346376
-0.41
-0.8163074076211547
0.14688752671428665
0.05
-0.9317151314700792
0.03414080365257232
0.25
-0.648968408408364
-0.40353718470494904
0.49
-0.5912904200508431
0.49
-0.4300797084710096
-0.7417281544026202
-0.40945647497952115
0.08580451652843062
0.22337853981729927
0.027781646695668495
-0.08
-0.07971902536559472
-0.44562911404086264
-0.32
-0.7563082646290635
0.07519054768500616
0.13
-0.2171279263549323
-0.7957467047358674
0.18
-0.6561906739340594
-0.4632015027514418
-0.25
-0.748735875918485
-0.5719325883830303
-0.03
-0.7000047902868961
-0.18912598912441714
0.1
-0.7328113895455094
-0.2852110638418352
0.3
0.13327368517190954
0.03037863403040567
-0.31
-0.7023160127003314
-0.14121276396685659
-0.29
-0.2607246147030692
-0.526684632670572
-0.4
-0.3052527459993538
-0.4600748073642864
0.1
-0.8918625713056401
0.1395977930675855
0.04
-0.601535171737512
-0.5058889147988416
0.03
-0.17604846387108408
-0.5930416506124484
-0.39
-0.3688957280574779
-0.2621711536788648
-0.19
-0.01976622499106115
0.15599149920673627
0.21
-0.2479288778766623
-0.22440420658461166
0.5
-0.3975331720853136
-0.08996071671417816
-0.19
-0.001976661955748064
0.21617696106338255
-0.37
-0.7081143397333088
-0.3363599855801015
-0.5
-0.25557739308982463
-0.5506760585722775
0.21
-0.08126132009764762
-0.5965414664034576
-0.5
-0.555395912266469
0.27434175434890584
0.35
0.053720866981168264
0.07984855590659795
-0.08
-0.4917859345765237
-0.5035360595886312
0.44
0.011598680918705445
0.2779308572031797
-0.05
-0.9198682358731055
-0.5932457298829246
0.19
-0.8886916487870022
-0.5683396687671216
-0.22
-0.713597709902805
-0.687317065094034
-0.46
-0.524620313575892
-0.24254280916437204
0.39
-0.7693945695055545
-0.4847908866826643
-0.16
-0.17714649198726168
-0.029445231351708102
-0.1
-0.06249214731821814
-0.5851770242706091
0.06
-0.006760354399316699
-0.6131182272065239
0.12
0.13118084853659792
-0.6675240694956298
-0.45
-0.36441330917429565
-0.5823089095311904
0.37
-0.49962846913873565
-0.33886179645349646
0.04
-0.36307558221642916
-0.5160389542629725
-0.13
-0.24589842440695353
-0.07001237218158282
-0.11
-0.23192500648834324
0.1534960218307119
0.33
0.17456659949936246
-0.43147971992840956
0.02
-0.5904576587415166
-0.29
-0.6545284122299767
0.10453951201743572
-0.09043996139395488
0.07334290777035378
-0.4661876739847818
-0.46810023340209794
-0.12
-0.2925967073663637
0.33814457431858563
0.38
-0.23884151508704723
0.4009782028954533
-0.3
-0.42167514366391545
-0.19276601042883637
-0.09
-0.6779309303396245
-0.19048790632114426
0.03
-0.6202090344473169
-0.34731388101971394
0.29
-0.3633830597487478
0.3372728942807978
0.28
-0.5279698350492595
-0.7449858836380006
0.35
-0.3257110571304599
0.30254910226795506
-0.28
-0.26324604303641663
0.12753126701140938
-0.01
-0.11822820777987093
-0.489051994455849
-0.07
-0.7616449463126119
-0.3754836432430258
0.23
-0.14521329752543616
-0.11899554327327426
-0.31
-0.851701397495186
-0.554185722140761
0.23
0.2934887813722987
-0.62814121768432
0.22
-0.2925557230841412
-0.6054829595937222
-0.35
-0.5252139811747384
-0.1374751704254421
-0.2
-0.37322177034301973
-0.030691454243408967
-0.49
-0.9100054865250513
0.019773929436189972
0.22
-0.5704708702046519
-0.5933843482841867
0.46
-0.5973125924842736
0.2765994150095269
-0.35
-0.7072963557779874
-0.06896865503097994
0.13
-0.5717282857374811
-0.08945227626207394
0.13
-0.5412446645063879
-0.6861501878072577
0.22
-0.5945467529612032
0.02169818131729968
-0.37
-0.19239512208576118
-0.09268287596183718
0.38
0.11198593519337544
0.2647531205982574
0.25
-0.005450061366718967
-0.0805928512248787
0.26
-0.2901040895435827
-0.19359724934652078
-0.1
-0.34709969142194125
-0.5783685682368988
0.1
-0.062328372531562336
0.04819306311584941
0.33
-0.7788900038843102
-0.63214512887304
-0.32
-0.45855181189542144
-0.4461075512460427
-0.47
0.15541061047758037
-0.17572752046861126
-0.47
-0.1649694202998504
0.19640238921231978
0.06
-0.3370993299807824
-0.5077387012250466
0.13
-0.01295823954341565
0.08749852220960583
0.48
-0.14819546297806746
0.1463445933286343
-0.27
0.1129584659029038
0.214527126440006
0.49
-0.5752240672084673
-0.5835659413411486
0.4
-0.2871309994273129
0.11009299257176376
0.1
-0.020789933340225723
-0.5765485480123105
0.06
-0.5041483927561519
0.09
-0.4676541012086326
-0.3043883220673255
0.17239464104425406
-0.08961645984232339
-0.2410291826164935
-0.2902969899970725
0.16
0.6037121532598723
0.33717757247570884
0.38
0.4862375907870912
-0.20563538741361156
0.41
0.24905055067641052
-0.06623809370986386
0.0
0.5996532569726628
-0.13631152088240375
-0.42
0.8397266841452022
0.5821802820017615
-0.01
0.5612348812610378
-0.00830778082573301
-0.4
0.1517229440885321
0.5315919890612013
0.04
0.051823174201598106
-0.43589143235257144
-0.15
0.49930659561537155
0.09512616435144058
-0.14
0.6782889989113574
-0.2903746537450112
0.2
0.6937898170078106
0.017331116869249128
0.11
0.21608404639354994
0.273294911162158
-0.46
0.6501202521006414
0.6367496710780614
-0.24
-0.24333450781526128
0.5627434899030269
-0.14
0.18067167335977266
0.06001433007854503
-0.12
0.3834008331842549
-0.1653452515491012
0.06
0.4587604148119012
0.23070219699516842
-0.31
0.30271296626763095
0.28091535616534646
0.3
0.8324998070974523
-0.363157470005141
0.21
0.496572633267941
0.05711743601101877
-0.01
0.1462977272517802
0.40309508172230357
0.44
0.6903200815404957
-0.19770889679726714
0.47
0.001124060060065977
0.5492977036683618
-0.34
0.15411745959443754
0.3947434115851765
0.45
0.31867175167762335
0.008524524842743858
-0.01
0.5948906384200554
-0.283767507884775
0.37
0.007182671147574035
0.35614720487876345
-0.47
0.33726795838403645
0.08295818904315809
0.21
0.6504569742196415
0.6467584953229658
-0.24
-0.1533433320601681
-0.20952860192756326
0.19
0.14294376519036245
-0.14616257209790942
0.1
0.5795777353607083
-0.006097181341333206
0.36
-0.11048765539586783
0.22309050840331776
-0.28
0.04032465485948119
0.4888119745669196
0.37
0.5446031886958799
0.44616907880519935
-0.41
0.41724608445760075
-0.08087932763928032
0.01
-0.04570550909792062
0.3392551771024985
0.18
0.6941599861603
0.48462199640162407
-0.29
0.8287931668611745
0.2768922881091357
-0.14
-0.08347712484633654
0.5184256831134054
0.1
0.40498948014939373
0.12614856103083694
-0.12
0.5472666022319624
0.49
-0.03569225383511484
-0.09211456779392081
-0.1367683238360822
0.2023864928885305
0.4141668632545358
-0.3779454475959013
-0.31
-0.590585447159152
-0.1338910845397013
-0.27
-0.6646398102153526
-0.20155168649097147
-0.13
-0.8969792082640831
-0.5085760448385255
0.45
0.0700451500834712
-0.5360173937263559
0.35
-0.4025135010286977
-0.4775969731751472
0.42
-0.3609339215799067
-0.3349832178501389
-0.13
-0.40354767690491494
-0.5429151446043196
0.45
-0.6656157501507345
-0.5434419134245214
0.34
-0.18508898133053284
-0.48904698910572986
-0.12
0.010516094350675367
0.14810222955248825
-0.19
-0.6166331243075418
-0.3540795603024895
-0.02
-1.0044513344525645
-0.03226381203949298
0.48
-1.0162670827155609
-0.8906057492637126
-0.05
-0.607925145491341
-0.30504226568322
-0.45
-0.1834886290718344
-0.5390252471179068
-0.35
0.08049435236285246
-0.11266370663193453
-0.14
-0.15586718812312006
0.29323412497256574
-0.02
-0.5317650197276188
0.2358243297819998
0.42
-0.12435522453705398
0.22550114054838966
0.4
-0.08403203530344375
0.2598066935809912
-0.01
-0.5883375883360458
0.20064849430051282
0.05
-0.27917938905556705
-0.009197548307065984
-0.41
0.12066665355201142
0.2617186466179411
-0.34
-0.3502495413729949
-0.1309864496849583
-0.17
-0.11754444507009618
-0.7355674223365332
0.12
-0.3929634724185196
-0.37713911449585397
0.19
-0.5513917802592002
-0.10735689298218719
0.17
-0.5911740017728668
-0.35547383646577124
0.48
-0.37305705828928265
-0.6329031007609788
-0.04
0.03437220600592379
-0.4231458653781149
-0.32
-0.2753850293769393
-0.5109025033413442
0.44
-0.7276283914137087
-0.6358058753644796
-0.36
-0.2927250193905741
-0.16257036645908746
-0.31
-0.2059605282959672
-0.13278702120265323
0.29
-0.35574387355240045
-0.27487905590837763
-0.28
-0.3036518388466762
-0.07839708694204349
0.41
-0.03013380781301059
-0.48578060543088675
-0.29
0.05724971067583288
0.28114425763632495
-0.23
-0.029675152391378766
-0.4158303700173994
-0.04
-0.12270052473765494
-0.5014279681128798
0.43
-0.48710292664217425
0.33267640275389665
0.11
-0.051207297508950395
-0.34
0.0790186731348086
-0.6053808022690679
0.09370834572348431
-0.4141931585055504
-0.006033042379362691
0.3291581504682362
0.06
0.8170303537675966
-0.13927304065400062
0.14
0.8554615448898333
-0.0033555063028078693
0.44
0.7195440105386401
0.3790269977517645
0.37
0.2671615064840659
0.02457492032252826
0.32
0.7616135839133046
-0.20086327758221562
0.3
0.05705178181804577
-0.24818883051902
0.14
0.8643773347548523
0.27183477423287405
0.33
0.2343537300029562
0.3058610584750694
0.32
0.620327445760762
-0.26854704067243995
0.5
0.0047355449082703395
0.06953132107727168
-0.02
0.21665718315855884
0.24566195489264842
0.48
0.6805265493431842
-0.21774490703776872
-0.18
0.2539334112735994
0.9547213481246932
0.23
-0.3185328438888609
0.46899902386830233
-0.16
0.42718948036752785
0.3672744331401129
-0.38
0.17891407109571753
-0.2271721580817509
-0.28
0.06336066231758126
-0.28199351384682775
0.16
0.29818201808265793
0.46891108705969753
-0.15
0.35727741717613265
0.5051611780701597
-0.02
0.021027326165671156
0.2481019167131404
-0.47
0.6280865875226911
0.40398192121665344
-0.44
0.6622065830191772
0.6394744044239109
-0.28
0.18671409981192008
0.14692862017756586
-0.23
0.42925988405826393
0.49684191834044455
-0.12
0.7393465858953874
0.579118959089121
0.09
0.0670695451467098
-0.05924834953859441
0.18
0.05543685377442499
0.41583761498004995
0.5
0.32035088925578015
0.2778816979695457
-0.4
0.11830680626628495
0.7399010909522806
0.5
0.31628741328355026
0.025225581216112285
-0.46
0.5509629230197194
0.36343453078187815
0.02
0.2527539734539525
-0.14275482685415802
0.34
0.61894333108999
0.17417229394728598
-0.09
0.27201621028854467
0.33599283221868975
0.35
0.7701956720171421
-0.008746409485302113
0.41
0.2749349137211328
-0.09906640374988863
0.04
0.11525490798571907
0.2646995200962628
-0.49
0.7714889841395699
0.30413609672912745
-0.26
0.5420524075067037
-0.2558557922340705
0.08
0.22204429646990118
0.5317161544434221
0.18
-0.0755276502075912
0.40793878139512874
0.5
-0.011750277159297823
0.18
-0.14289116518785788
0.5356542883784525
0.42221369499814226
0.3045109872020369
-0.1253515628248457
-0.272480875552155
0.11
0.3283937351209042
0.455101527332295
0.18
0.7408113322364547
0.14974410587588755
0.28
0.4461687536928615
0.5153612872492398
0.45
0.25055157231950936
-0.02067940022582685
-0.38
0.25659225979457667
0.2720331634858826
0.17
0.2338796960828673
-0.051240435209379105
-0.08
0.02715329477812876
-0.045341650929542295
0.02
-0.10874548950170802
0.1830535619402696
-0.19
0.7728592976284794
-0.2938741935712833
-0.39
0.019787053140033022
0.47868328014350175
-0.22
0.4272295794252473
0.3452666600540225
-0.4
0.07064619951472664
0.42865414122663065
-0.25
0.6372587183421189
0.31837537544518546
-0.23
-0.21246251587643655
0.1969156569886063
0.37
0.5089972025801437
0.6630303776025016
-0.41
0.552882481966248
0.524075053765508
-0.37
0.5918378058032424
0.3915413925903026
-0.18
0.27437146697844744
-0.2876043571313563
0.09
0.6835172167001061
-0.33435095491258715
-0.27
0.04026381448133678
-0.19886046377004676
-0.39
0.5847733233387967
-0.1497914904467242
-0.47
0.3257043500154735
0.21425942053026656
0.12
0.37165343903848264
-0.07886351176222549
-0.11
-0.19522362866902465
-0.037335161942147456
0.43
0.7532480215108979
0.09969018754440803
0.07
-0.1937773279756585
0.22740269432330615
0.1
0.45851016524544336
0.5427902596249101
0.33
0.36312259994384
0.5587085382546266
0.33
0.3372043213141226
0.13527386631392604
0.09
0.010638993254823622
0.35518405352429044
-0.26
-0.029271193955540453
-0.19144851091594384
0.18
0.12736137048469334
-0.28741623333948
-0.19
0.05332909290822923
0.6239532770277212
-0.42
0.22195958254102777
0.5462411929664024
0.21
0.29967166660234734
-0.140915983201777
0.45
0.10682884277052657
0.3895258073115323
0.43
-0.05361294774278288
0.4437501688567979
-0.36
0.7321626907119522
-0.23546619178187625
0.41
0.23137905135062578
0.12193250154445363
0.47
0.7139803580242954
0.5509331784070078
-0.34
-0.08502031883825763
0.4427602418619565
-0.23
0.11315261770679276
0.34
0.5669614708416276
0.2476476155933197
0.21717716081629182
0.2492783374714376
-0.2185095482161425
-0.17175652467896216
0.45
-0.8046455995300162
0.02185859771591341
0.31
-0.3382607219248928
-0.30423781173097775
0.1
-0.6221643124780012
0.2245822219003893
0.0
-0.37098434610936887
-0.21813366854648786
0.47
-0.21826845566249117
-0.516441591028683
0.19
-0.2499605331802962
-0.2094997005834854
-0.11
-0.6669024236254935
-0.4281245127314661
-0.09
-0.19827761147751338
-0.01570327873053579
0.35
-0.19069884547844368
-0.5299454864867209
-0.34
-0.7464566377222575
-0.41439750137311193
-0.16
-0.10200462283586742
0.2637807517900623
-0.25
-0.6601828759990402
-0.10747619104931394
0.06
-0.21892593315966538
-0.4443058917181382
-0.25
0.13790376750915923
-0.6401921852852436
-0.44
-0.6862099389237345
-0.4424148992004995
0.27
-0.5639872250084795
0.14145943124197424
-0.31
-0.327861555450954
0.08480733802739025
-0.15
-0.5112094622363698
0.3908538978250347
-0.09
-0.7472560220340125
0.20090627960628624
0.42
0.042691596184734636
-0.2746578125943218
0.0
-0.3017443116146576
-0.08175808721164303
-0.28
-0.5146440369973359
-0.6533986241978942
-0.04
-0.44300350001108474
0.19462392606105544
0.41
-0.6710260502700335
-0.11917547374865273
0.33
-0.40722665046032636
0.22647128075842884
-0.13
-0.29287340496740816
0.17506210846437167
-0.14
-0.20146423267335062
-0.44627664236759906
-0.28
-0.81012548184138
-0.13741306488876429
-0.44
-0.19898905932021502
0.006263755177822479
-0.2
0.09733412061319803
0.18567908922214393
-0.23
-0.8020812134311222
-0.2839478375978975
0.47
-0.22245428661108183
0.1653925652618377
-0.07
-0.3017946894708169
0.039157931443370146
0.49
-0.20556005565234933
0.16903129776540574
0.0
-0.015433421974385039
-0.6808301612130699
0.07
-0.32557196299590896
-0.17142229016570076
-0.24
-0.384979834043279
-0.39140394309303733
0.29
-0.7549981811159409
0.15840493167946226
-0.14
-0.5948070558884401
-0.3253512860527068
0.09
-0.3810508381562727
0.24370449434186442
-0.29
0.09989338144915648
0.05238670551439734
-0.03
-0.7387888297233763
-0.09
-0.23701100287517504
-0.263879640570632
-0.5050378002184293
0.25946060513355335
0.41921643110019297
-0.0602923402398967
-0.29
0.24024850175042337
-0.3830666608920499
0.14
-0.04697717759742299
-0.4922934019166701
0.04
-0.5977504365728035
0.29681393653619353
0.46
-0.5668577750256665
-0.365163256516616
0.22
-0.8348805819728572
-0.1481960138747719
0.31
-0.28184782461470104
-0.3332531045000248
0.24
-0.8767907339894486
-0.02865815209143471
-0.03
-0.3713856863980392
0.07227842966391314
-0.47
0.2976777318466146
-0.41530766955652443
-0.04
-0.5447361689329492
-0.31332613435654966
0.29
-0.5767177041329236
-0.22878334073687598
-0.25
-0.5312604977525976
0.38606352366849467
0.42
-0.6861073621579679
-0.03837251136249691
-0.1
0.058328672873023464
0.26742099478184234
-0.41
0.17253516672868563
-0.3976773566154838
-0.09
-0.5123664818739899
-0.2827283252624729
-0.33
0.3126844867730004
0.286187915079812
0.29
-0.3462317535692858
-0.2134193327857085
-0.21
0.08337549429623538
0.07781301776700134
-0.24
0.13214314374352604
-0.5818701007352717
-0.48
-0.5381737377542017
-0.28768215126816565
0.2
0.19763831277869262
0.21477151016075088
0.31
-0.5148153486502235
-0.06546372726864469
0.3
-0.15458011122082907
-0.13303109980016214
0.17
-0.6970127386893111
-0.23907284160901657
0.29
-0.05097099688045663
-0.47771111203354566
-0.35
0.24766727354407286
0.42010945596346794
0.22
-0.10015329445294105
0.3948734294129265
0.43
-0.05491726790239916
-0.08369557544669705
-0.03
-0.34634826304277716
-0.5784125008541147
-0.41
-0.5416313376353582
-0.38628247520526526
0.19
0.1262386367157918
-0.3698158215231406
-0.04
-0.030228016966332785
-0.47097053798647065
-0.43
-0.5790733005030023
0.11382535484327344
0.33
-0.5238691933327468
-0.27300255038399585
-0.26
0.1829587118945232
0.06612031213730159
0.39
0.12383584937322589
0.15910881946614758
-0.05
-0.25915265795562087
0.2022829572773908
0.21
-0.6123267957668644
-0.21948987810655696
-0.45
0.009446039617083875
0.07048513227333754
-0.45
-0.0705289707628105
-0.4576808211243909
-0.47
-0.47236301736508285
0.06
0.07368642239347344
-0.5684299135628791
-0.07404892438527862
0.3111389568574609
-0.2292461579640177
0.2854123678484657
-0.28
-0.10834294400081916
0.4017387124521031
-0.02
-0.8346692886044556
-0.5017122089452772
-0.2
-0.10121836720707654
-0.3804364029667717
-0.39
-0.392494173185582
-0.3608509289220486
-0.34
-0.1920796472303048
-0.24396029787801793
0.49
-0.6189702782743353
-0.5584553581085253
-0.06
-0.5544752180438289
0.09634644924018358
-0.05
-0.5392770253925386
-0.458564156272632
0.13
-0.024366419879721705
-0.6254390906045356
0.42
-0.01749148554781624
-0.445445424440957
-0.11
-0.7974851517113958
-0.11085975227331606
-0.07
-0.4320708238790379
-0.3318046336173761
-0.41
-0.0711259425349776
-0.7789654425523045
0.04
-0.08396513360004768
-0.10434820801628511
0.03
-0.7285823681360678
-0.08183433639106677
-0.23
-0.1110962397612867
-0.19059286575468484
-0.42
-0.20233771039766885
0.11958839776474689
0.08
-0.8725189739171004
-0.3331792591938244
-0.15
-0.279751316958529
-0.18628895266731246
-0.16
-0.4466416234850414
-0.5271220697009805
0.38
-0.26580850645137344
0.13470625305360706
0.07
-0.3576368292059607
-0.5642719143273227
-0.27
0.07134133817496818
-0.02132755096435076
0.13
-0.5416030251880024
-0.30561695424314883
0.36
-0.677313621909204
-0.1254263214627132
-0.44
-0.16750425468964025
0.024991653722978138
-0.39
-0.857922229875331
-0.18208845575320168
0.37
-0.5708421203991529
-0.1098752158443179
-0.48
0.11694463969196399
0.16079537182893214
0.11
-0.27372594798128597
0.045947306434489237
0.45
-0.7688778825868424
-0.21297764296169366
-0.12
-0.6499529331906589
-0.24558594717114426
0.1
-0.6673446289812087
-0.03564622459533691
0.37
-0.7272843515570162
-0.2110358790728056
0.27
-0.6118946970795474
-0.38108314599857995
-0.1
-0.4018474301537737
0.02902846752038388
0.39
-0.22195904367273753
-0.46372733459815574
0.0
0.010796758445802255
0.11312714520315652
-0.26
-0.17605772135551015
0.041538981702396616
-0.2
-0.05446955785475013
-0.0130634390191878
-0.07
-0.04986713713316575
-0.6060813726363107
-0.26
-0.5768492035160424
-0.44
0.09591371899372306
-0.5896486306541783
-0.1447768943701847
-0.44991732773805937
0.37993151091520605
0.561839937981588
0.08
0.5995726095190635
-0.034520272661589455
0.46
0.5159328201622392
0.47097249792001006
-0.32
0.460440049580641
0.5307397277368313
-0.47
0.0806728197638194
-0.06715899351459442
-0.04
0.9485715410152465
-0.10307616007236653
-0.24
0.0044887075730174215
0.4249951505791365
0.01
0.11641739692151404
0.6305433329449703
0.01
0.05086921455568085
-0.201884736147076
0.37
0.9932972836477288
-0.029002750387848383
-0.29
0.6704152978885006
0.6369028459988799
-0.08
0.9245097015017725
-0.294754883533402
-0.17
0.7161674310340531
-0.4245430955718449
-0.48
0.46595564307249593
0.8615262345282899
0.18
-0.10011368702763711
0.21175717167009345
0.44
0.2196553758305576
0.4818288360556121
-0.08
0.09958371144503979
-0.2665508611870172
-0.2
0.05796340868766786
0.27660904665547215
0.14
0.5048035008451784
-0.11470762272277207
-0.47
0.4261201702234225
0.041714678937043094
-0.26
0.5396978685636079
0.4770966794923847
-0.38
0.6143158680082668
0.16214558753436764
0.37
0.07926695996628348
0.47437716622851955
-0.26
0.3770353812721313
-0.017375642228796763
0.19
0.7987881897294491
0.4650178474670107
0.27
0.6963947000336405
0.4074387352935763
-0.04
0.13397381220707494
-0.12475582147674112
0.48
0.5461683689773923
0.23530065592119165
-0.46
0.02611189157945936
0.14478159925678746
-0.05
0.2766309482438635
0.7136470164972939
-0.26
-0.1522344689966406
0.2741394725100841
0.06
0.4772730749905663
0.3251690839835525
0.38
0.5962434635170993
-0.2420863179271383
-0.22
0.5034988654277889
-0.0406723143862026
0.37
0.35208486188685395
0.0944299425685734
-0.08
0.06698260493207775
0.6271513633307668
0.33
0.2342611841698852
-0.18055785470551733
-0.5
0.6619704022061697
-0.2063856488951583
-0.08
0.6677981963958102
0.05354142910534567
-0.28
0.27787111839530554
0.40041197018340763
-0.01
0.07100057731724374
0.3727666349164531
0.04
0.2886459125841979
0.17539682617943425
0.27
-0.003984278678783289
-0.21
0.6065542416264247
0.5719989826138533
-0.03014805789892039
0.201771399896623
-0.03933885918599945
-0.5813515565945132
-0.01
-0.6741072945528479
0.29719573472191474
-0.15
-0.07265458586927531
0.046296866439784604
-0.09
-0.04175571758714511
-0.4244045865537162
-0.13
-0.0610542645936445
0.2765515918457098
0.09
-0.3620104429930704
0.3026266092576401
0.33
-0.4980854604050012
-0.5772337430011624
0.02
-0.7982251081461991
-0.23074455247203432
0.25
0.01528570132467361
-0.23298875747600545
0.33
0.0575299063286447
-0.5444787214865501
0.04
-0.5909801296608113
-0.16060565211220207
0.15
0.14514680096484145
0.14803250657563755
0.36
-0.8234913577229985
0.1935945896678308
0.46
-0.6190534408151926
-0.34194163310791226
-0.21
-0.19351721803944844
-0.08834790855054896
0.17
-0.7371109425968115
-0.050152586723319216
-0.26
-0.6553062644240422
-0.4735749412736108
0.25
-0.2418839098737501
0.2679075220047414
0.45
-0.08336637315210234
0.16915741681415206
0.33
0.10538373203848711
-0.07082790259811257
-0.06
-0.6846309485492491
0.020642958965631508
0.03
-0.2961018101129922
-0.6556561423466138
0.22
-0.4998027088007473
0.10497509781965468
-0.17
0.14956605103298434
0.14302213027572974
0.07
0.011519018576909798
-0.07462109667744414
-0.13
-0.2308377544699167
-0.41335486437446367
0.19
-0.1121039867728973
0.02171633414110692
-0.06
-0.20717518528846762
-0.232959540360061
-0.31
0.07750068921269998
0.22925907077236746
-0.24
-0.17471792191972854
-0.2676782071724821
0.14
-0.24778064397487856
0.20149875174194623
-0.09
-0.4569576028893076
-0.28104080182064184
-0.08
-0.7044180493267201
-0.3137142374811853
-0.18
0.15825538633382386
-0.4344685885398999
0.46
-0.180990262607461
-0.4283130083665585
0.08
-0.42714584278080237
-0.22403489133200094
0.22
-0.3514239598153597
-0.24594621612092998
-0.32
-0.14951263502643072
-0.10194592349297882
0.09
-0.4635129276543827
0.2627908311000722
0.1
-0.7582496822474337
-0.5141507942056763
-0.5
-0.8313080569416844
-0.020574276771029344
-0.28
0.10511542562366867
-0.41555572115489414
-0.05
-0.569903129992467
0.28
-0.2862719329891201
-0.5776628973662006
-0.32871975332264514
-0.464938019809314
-0.07567732602914562
0.49183249808257107
0.02
0.2290280599177463
0.0883290384635403
0.39
1.032531519536777
0.33373163024014457
-0.45
0.6271289277601725
-0.04786963488401409
0.02
-0.2512698071156683
-0.3484792197786966
-0.32
0.4193397777790143
-0.3024498885549361
0.37
0.5833104465552542
0.22500645146413842
-0.26
0.7858541065361788
0.7918296578219698
-0.16
0.20903090017834705
-0.3886915978032395
-0.29
0.5295521558035562
0.251895630747081
0.2
0.42896492725323665
0.40318209881713024
-0.33
0.8676784591831873
-0.2659673430869556
0.17
0.10682790108727278
-0.23100697086676772
-0.16
0.20186752886708495
0.4098331214808375
0.14
-0.14897256348051985
0.437234522934794
0.3
-0.07637396493447668
0.8176617108150502
-0.16
0.3831988471852673
-0.0526581032605016
-0.5
0.6435186612608189
-0.028742732483325473
-0.16
0.22960329048364264
0.2658684881942099
-0.47
0.5249920698061077
0.11466377945005303
0.17
0.5261967785502648
0.2764634481704151
0.43
0.654397109829902
0.6177360612835893
0.19
0.7831244967167286
-0.044765742470434876
-0.38
0.23562630047075214
-0.10106362518000904
-0.27
0.3419241831803264
0.2958657906343618
0.36
0.4749947673659559
0.031632000769754975
0.08
0.2792285572305622
0.5080717077975954
0.19
0.22278885020272188
0.543826479771438
-0.3
0.12703407822887833
0.2640794491263055
0.17
0.5967811088740116
0.07034451983819313
0.17
0.34051603816212433
0.3981342218082805
-0.36
0.5827263361920362
0.5873759357691634
0.0
0.6234846222311544
-0.17326485164199154
-0.18
0.7741254096423089
0.5195899973015271
0.35
0.02127056069878963
0.21451962645904782
0.5
0.7463409315412706
0.6930125175239763
0.31
0.6678480404763412
-0.3051252003030388
-0.15
0.9059857583033559
-0.2456441117740104
-0.33
-0.013495330225672586
0.1458849608427732
0.15
-0.005024402842455958
-0.1936767885288477
-0.23
0.7745373465291656
-0.04789423617355591
0.32
0.3087547941738732
0.35926785170727965
0.26
0.541592706293038
-0.07
-0.0184226416779348
0.6472991536782549
0.07767462610336763
-0.08708562725951433
-0.010994637693491497
-0.28955078420291636
-0.33
-0.7001460838966004
0.3927608523137592
0.01
-0.9224577204132761
-0.2957202203184874
-0.23
-0.2439766477810285
0.03779251932497754
-0.34
-0.2374893874244929
-0.08466725794737759
-0.4
-0.9450296101521396
-0.4586009782624879
0.13
-0.41109588983702805
0.28787658753961537
0.25
-0.9575734556391314
-0.157337336429412
0.16
-0.3423595316701033
0.11693409456409182
0.4
-1.0266309626636076
-0.531654429773118
-0.27
-0.8580424383263988
-0.5215511348062623
0.38
-0.8881457332932547
-0.4627861348363212
-0.43
-0.7269107332631962
-0.0742267043274184
0.01
-0.3754701637720974
-0.29156267020278903
-0.11
0.39186580210327315
-0.42301673317833566
-0.11
-0.2966801349211803
-0.4491352317516443
-0.23
-0.04056163634787135
-0.084650424232826
0.39
-0.4150464438666896
0.19514673800403803
-0.23
-0.16484360610355317
0.10076770722087897
0.21
-0.5304645753203947
-0.0959915089650188
0.05
-0.3337053591344966
-0.013960894892303378
0.05
-0.4857359732072126
-0.4654619225241979
0.04
-0.6642349455753187
-0.44279504469064723
0.43
-0.2969018234088688
0.28652049897347825
-0.47
-0.5062173670729943
-0.13873900072801776
-0.5
-0.33095786737149807
0.1315097269011699
-0.2
0.08879340499931442
-0.17028612743349633
0.01
-0.5594107406660198
-0.06987861360892347
-0.18
-0.15981825449059195
0.1082064239888465
-0.2
-0.6379032920883637
-0.03206816513928769
0.07
0.07237129703977202
-0.5587778624331536
0.07
-0.3409190056663627
-0.02680690258512427
-0.47
-0.5428899655143905
-0.09559274437094924
-0.18
0.0358958762714336
-0.664995603053291
-0.27
-0.854701265046226
0.14780335718903675
-0.27
-0.6275002252885524
0.0266336718704589
-0.25
0.04366946003002545
-0.06532692303415466
0.3
-0.26436994506536066
-0.5134885253694468
-0.13
-0.2062083427300688
-0.19251323671808127
-0.38
-0.4771836313814346
-0.06766131006230877
-0.44
-0.7020355580372079
-0.5687316184773101
0.49
-0.5209652496222061
-0.34559632085376835
0.47
-0.26410054724574705
-0.38
-0.5853863951165221
-0.682201680295315
-0.22154715554949062
-0.6661232754213411
0.032615793824106586
-0.10004736581842745
-0.29
-0.19763703070668387
0.46282788879829584
0.44
-0.6305122853234042
-0.26291372056553297
-0.42
-0.5647706759595774
-0.6995657274943754
0.39
-0.30811866903073515
0.09542158899145682
0.17
-0.2031059855165681
-0.509981853578215
-0.21
-0.4077025429468957
-0.37594335966635645
-0.25
-0.9217410368587522
-0.6731139015866551
-0.24
-0.1545704949384545
0.18606561028751023
0.14
-0.5637500068126207
-0.15482216725557946
0.41
-0.53286222926953
-0.031077698818568738
-0.31
-0.23660669770654252
-0.5183801907671681
-0.36
-0.15930420575794202
0.43018489559485
-0.46
-1.0178692921199584
-0.3791070844328888
-0.13
0.32142268790777795
-0.07260670698338825
0.33
-0.3850776895417229
-0.6939527819365009
0.23
-0.4237316145886103
0.14690045107525573
-0.05
-0.4345848476003665
-0.39318748020780986
0.35
-0.16449691631730143
0.38927925004094904
-0.06
-0.3769636465660601
-0.0895964736294683
0.06
-0.44808792289564225
0.29912602758407353
0.32
-0.5868104241091828
-0.3088118835295909
-0.2
-0.5388725129955191
-0.6470202941591731
0.3
-0.24066410236593636
-0.3442895093821086
-0.36
-0.6233948871430015
0.023813595411849454
-0.12
-0.1114979919369607
-0.5107993919114436
-0.11
-0.21688500461366747
0.003935081822150641
-0.12
-0.9716194783472603
-0.5606613913444017
0.11
-0.7170230051807068
-0.3574654961496058
0.2
-0.6802189003755039
-0.7906763991000877
0.12
-0.04700799742502302
0.21760416469054453
-0.09
-0.6452885612156535
-0.29598226381378956
-0.49
-0.5117021327113213
-0.09347946767815712
0.49
-0.3242049288469538
0.30555790063215893
-0.27
0.026757702842730127
-0.7142578982674529
-0.4
-0.16342649825765776
-0.4115482575041248
-0.08
0.05386386097901436
-0.2863583451322882
-0.04
-0.9613260513928211
-0.48489317550030625
-0.23
-0.38279122102480456
-0.5315247079653614
0.42
-0.2461596885597487
0.2593518550519904
0.01
-0.6470362515770994
-0.16730431397100778
-0.3
-0.3403800825541032
-0.675212336145542
0.49
-0.4724720603795679
-0.43
-0.050034191209540224
0.13260201516935474
0.026236326452909454
-0.2578600454298019
0.3370182344124352
0.5429452190364058
0.28
0.7938442273103746
-0.17189972350169982
0.37
0.20868916984848027
-0.0909696536956506
0.26
0.5077591000424315
0.1015464777703954
0.03
-0.1247570314236146
0.16439468705476756
-0.08
0.0923947592920132
0.03159680488058043
-0.5
0.23519264146620025
0.42357649029768557
0.01
0.5432129560490949
0.7081779521000734
-0.5
0.2786114942467065
-0.11814718047015345
0.48
0.9249366268169351
0.38005399563845677
0.06
-0.0832645492916765
-0.12139587551869137
-0.16
0.6581853218654721
-0.09052342816370164
0.02
0.2873128745104817
-0.11186489672190084
-0.11
0.9186543430686815
0.07479662701336459
-0.13
0.5019928193334154
0.6216777581381184
0.07
0.6151116882086624
0.33624652811512595
-0.33
-0.019457081768345277
0.33054283081168995
0.44
0.756246615535091
0.30638428952347246
-0.06
0.22040515682330783
-0.15558737592762542
-0.3
0.632376822274406
-0.11296482750219973
-0.44
0.8297542738489814
0.30613544579824636
0.04
0.6806540005485336
-0.20008321663046708
-0.42
0.3968726629772475
0.023807817021424142
0.18
-0.09701837067464382
0.4513702253603987
0.0
0.4854192209863815
0.1057827185044832
-0.25
0.8710067278422975
0.026172954421871387
-0.02
0.5606164919249093
0.5232941232031603
0.42
0.16349532314361995
0.3652853771778364
0.15
0.8815040691689437
0.09458561527795149
-0.37
0.4422038310688287
-0.20343283459463818
0.0
-0.15977771905858126
-0.0677297570569664
0.4
0.5145192034037473
0.04277898272649304
-0.2
0.34401046362028664
-0.18798778331224622
0.43
0.10477722965902708
0.48760291023832725
-0.47
0.42918653610845287
0.08726817698008882
-0.01
0.4995212693666916
0.47144283729540976
0.05
0.03534660905137022
0.3591020989151785
-0.46
0.4576873474316016
0.37134165763989
-0.41
0.12544778870689077
0.5736811852271857
0.01
0.37310826111959516
0.1702517832722178
0.08
0.5265376630745631
-0.15550278101242104
0.17
-0.10770777264079855
-0.24487638379017448
0.18
0.23166583013695488
-0.02
-0.01793828919561431
0.3811623555095284
0.2721206124593376
0.13712165228714615
0.18456581808882166
-0.44021860176631367
-0.21
-0.30487393100300014
-0.4533290592713207
0.2
-0.591763473497993
-0.2705460025690317
-0.42
-0.3645465302002819
-0.8552282773445201
-0.22
-0.009864255424793165
0.39336265881956023
0.36
-0.35845519158887407
0.23406068221259319
-0.12
-0.759153214981907
-0.5067605005883508
0.29
-1.0183320321809644
-0.3267397617460519
-0.32
0.011647228976738137
-0.3574874288632344
0.13
-0.4576051039060798
-0.18414010279307458
-0.16
-0.4709524299762391
-0.27346377134471606
-0.28
-0.5716287614245982
0.16406534125530817
-0.08
-0.7091578740246222
0.11044713904984797
0.16
-0.3855396718191619
-0.377570488193438
0.27
0.03247795542412421
-0.47540256491663035
0.46
-0.5196899678526835
-0.5201895177595388
0.0
-0.6449030150097756
0.01773437470457118
-0.31
-0.37282690747388497
-0.10332878836660987
-0.22
-0.09176374440270388
-0.08180099353849955
0.25
-0.7932915392308141
-0.5087985171786819
-0.39
-0.5062940155906328
-0.3789240736855252
0.13
-0.8361684590837887
-0.5186837367658599
-0.47
-0.06640879600345394
-0.4593952717490482
0.31
-0.2656972610202656
0.30891121086721357
-0.37
-0.3240037436365273
0.32303726555901674
0.21
-0.15812979832833035
-0.2213154696934918
-0.26
0.036222936924177995
-0.24039742061409008
-0.36
-0.3546951121552235
-0.06693189276231905
-0.21
-0.21816064000699473
-0.5676026896538782
-0.35
-0.14748984311543636
-0.37991108494103143
-0.07
-0.6151814478282824
0.009482352740605127
0.17
-0.19457488550991903
-0.6160015175632605
0.29
-0.5590910152060539
-0.3660483777600798
0.16
-0.16904415500923398
-0.33898994263413107
-0.18
-0.7161025901351827
-0.4409428238519199
0.32
-0.17414970891739406
-0.20513025445393276
-0.14
-0.17996227831538106
-0.4656662719954737
0.12
-0.4394262607738404
-0.6681210595391059
-0.24
-0.28697147323020816
-0.420799757638671
-0.06
-0.15429277513064296
-0.383173396400183
-0.28
-0.21191913636913082
0.074025656072081
-0.01
-0.659118188841395
-0.3286779793637513
0.11
-0.03641455340556233
-0.03
-0.2336783911502446
-0.24550636440988263
-0.3385939747779174
-0.5267440534340027
0.29260459437193176
0.5445061878273634
-0.06
0.7032114255339755
0.3024971516699539
0.16
0.5952204616913851
-0.024363082459699266
-0.24
0.45208069582103716
0.08897802702781256
-0.48
0.5087395863335259
0.030852232922723943
-0.24
1.066865380438615
0.6059197470889629
0.12
0.23179786627237584
-0.05739224436336521
-0.23
0.46510985772470276
0.1476818700769804
-0.33
0.22003574328435785
-0.08488852030049036
0.4
0.35260613366182847
0.09734223074690053
0.07
0.03037538261443751
-0.0011530004445103321
-0.1
0.26887061380584876
0.42632684536225074
0.36
1.0213907679990868
-0.2778179638941065
0.12
0.3055355772554443
0.630728359976863
-0.13
0.06698925338447531
0.24422171185801092
-0.28
0.5234959015033264
-0.03017781379047327
-0.17
-0.022104572848188668
0.34632337521840684
0.48
0.27139423814293145
-0.12626202124055844
0.26
0.36397963460189675
-0.371185806628272
0.16
0.36890341998961
-0.24703646609767949
0.2
0.7947540794590187
0.20259678524324815
-0.23
0.2751208281180899
0.13283185236914433
0.37
0.6548857609921945
0.6955172062588387
-0.05
0.8322004071025
-0.21616744485782327
-0.1
0.9638850582191612
-0.3194903254083685
0.04
0.7772079387697065
0.27996649931684664
0.14
-0.19224888595550862
0.43881949064654047
0.16
0.8488981227147974
0.28443972214247487
-0.02
0.15327789121886315
0.3303345556551554
0.27
0.05738305770618246
-0.07259644414475937
0.17
-0.009685942493902434
-0.22289298278422956
-0.36
0.8906105961455689
0.8393489713539025
-0.37
-0.10163135799256401
0.13175922272360108
0.41
0.23595839063773696
0.13521044542564806
0.5
0.30250716793568955
0.23030666635445932
-0.25
0.68741094700688
0.11623638712512971
0.31
0.40148122623620824
0.3798793026885188
-0.08
0.45783831067281905
0.2755928007821681
0.0
0.8121248125791702
0.4930494467764084
0.5
0.04466816658492962
0.2171532045020102
0.22
1.0405644088593267
0.6625381937910745
0.11
0.25517941957026324
0.30339090403360364
-0.21
0.36432670932773437
-0.04
-0.1443302604121107
0.6895400582364691
0.014329085886074927
0.5873096302601585
-0.2982863037745914
-0.11614753627245636
-0.38
-0.3197943770923894
-0.4600999203864702
-0.19
-0.05584199297837601
0.3392102262716328
-0.17
-0.4051521396364783
-0.4103909836402155
0.19
-0.5455509297246294
0.17380072415077674
0.0
0.06025736248437776
-0.1652425911582985
0.41
-0.8006993222065472
-0.46046898663399355
0.11
-0.3054729267308516
-0.7517910576927066
0.5
-0.24415085567213832
-0.2261905982200139
-0.13
-0.5497513151448313
-0.08302086978284286
0.49
-0.002921043582003068
-0.5790036306259234
0.27
-0.8569382827389208
-0.0990844671913823
-0.06
-0.06685744617346358
-0.5325427431521016
0.06
-0.7633991702127431
-0.7818351362764632
-0.01
-0.46410677708838194
0.09963732437820269
0.1
-0.015579237743048459
-0.05201186668717679
0.26
-0.11393004667766908
-0.3912328553550136
0.43
-0.05470905800983235
-0.3161542995648631
0.28
-0.36978761379998254
0.3323992235098337
-0.03
-0.23834113687467987
-0.5223826352840045
-0.46
-0.8435592780808407
-0.04084828276808622
-0.1
0.004906369403240273
-0.15370370346930437
-0.32
-0.5922382098955411
0.1521514254330757
-0.33
-0.6380933387979206
-0.5978150086443882
0.34
-0.15812690472045748
-0.20580441200116734
-0.34
-0.35013750136367816
-0.6077486652448609
-0.03
-0.6581932481199836
-0.442013331399411
0.14
-0.22392858196543486
0.05459832741224614
0.28
-0.3405402407770918
0.16434734299448933
-0.32
-0.20028925635933503
-0.21930286261706308
0.23
-0.17663905074778277
0.19928121391011527
0.04
-0.70522312727496
-0.1041907811170956
-0.38
-0.6317511322477496
0.0692841320805974
-0.26
-0.4752260454454431
0.02850596900194703
0.06
-0.39444788236679273
-0.5004313935007723
-0.02
-0.18551051986407335
0.046938713457908246
-0.18
-0.23288062682275384
-0.21679976506687432
0.09
-0.009142148297971353
-0.22041398282473015
-0.15
0.05447206945988443
-0.016497419910229995
0.3
-0.569444493454615
0.20766677453366242
0.34
-0.553608687898507
-0.024738852799844432
0.19
-0.07120306056500154
-0.29697103931658786
0.28
-0.7489708740482569
-0.42
-0.3763102497237958
-0.3346243896436532
-0.0026504640477046973
0.13237644062286646
-0.1583786203480755
0.3061322280843381
0.04
-0.09814366990148532
0.1495524083433761
-0.47
-1.0415638501605258
-0.38400965889515676
-0.32
-0.23800178292199095
-0.771357537055758
-0.21
-0.2506539047613893
0.2665611834657279
-0.06
-0.2285726252828753
-0.5124636495524667
0.04
-0.5195477922646805
0.3338617051913748
0.34
-0.41587314700852224
-0.7474837745637147
0.41
-0.18452766725343256
0.287620674595529
-0.13
-0.7596321164126764
-0.6262850431527699
0.19
-0.29572639866437844
0.3222393787186774
0.29
-0.8742508205358243
0.08784816434655109
-0.41
-0.23985960616369828
0.43233763395676666
-0.12
-0.40434907577391394
-0.8206220708021136
-0.46
0.1986106289849653
-0.23149280520353302
-0.12
-0.09051863661361435
-0.2595125940328557
-0.07
0.13750115221570844
-0.2424313031615917
-0.23
-0.6895801386555557
0.2611429475307151
0.09
-0.7531543893478623
-0.05695889929245748
-0.37
-0.9850525425246912
-0.36788738909133845
0.18
-0.8741240527258094
-0.35238464563219624
-0.06
-0.9796267961849514
-0.09089144537306194
0.36
-0.09111999644408546
-0.34141629609387975
0.38
-0.720595145723268
-0.2871315537632639
0.27
-0.11487988805388379
0.022759934723968284
0.15
-0.2047713765411154
0.05345598473482513
0.07
-0.1654674265519726
-0.30064172859285787
0.42
-0.8113697132242889
-0.3179521879243971
0.45
-0.20405925389275054
0.03832543535226428
-0.47
-0.0803368771694116
-0.5321785588538096
0.39
0.11016711703666282
0.12500129988021855
0.02
-0.5470127416973662
-0.3500522107520434
-0.29
-0.21195923106510386
-0.01733526910451119
-0.2
-0.8146761727126354
0.06467865784681792
-0.18
-0.9566900996639665
-0.04632830503442254
-0.1
0.10431686321727517
-0.5096748969160894
0.37
-0.7723365449010577
0.11538543577962128
-0.26
-0.907396877596768
-0.48850849975357835
0.16
-0.7135029420635701
-0.4226789583850729
-0.25
-0.3793324834320745
-0.5071471622228262
0.25
-0.29486427959432093
-0.39535766687242746
0.41
-0.00665377494471957
-0.48357146348253655
0.48
-0.7984399783346118
-0.04
-0.2660551502188937
-0.12561569816944537
-0.2822669005230067
-0.560760200258938
-0.4767268985272572
-0.49153316297488364
-0.13
-0.5000217433697645
-0.06425561398208682
-0.36
-0.6272992923625608
-0.43198141438213583
-0.39
-0.7395734919625131
-0.0809922526948645
-0.48
-0.5305626536497834
0.19424851990752703
0.44
-0.1258034262521746
0.23006528602973475
-0.42
0.08837980762561733
0.050602359718650264
-0.23
-0.272157266063298
-0.4704653226416806
0.24
-0.1510895837029673
-0.06119285405204489
0.36
-0.7303620522926031
0.2851332558068052
-0.08
0.1033118378485471
-0.16552041599629716
-0.41
-0.5460344903483508
-0.2896299308013486
-0.3
-0.3619249755432994
0.258615013921918
0.34
-0.6001699202665658
-0.6116637621529051
-0.02
-0.35989114419174284
-0.0013902404876486873
0.5
-0.10016466585699876
-0.1949032570636671
-0.33
-0.5866516492809805
0.38672163854253394
0.41
-0.19827654488718172
-0.24132849117385974
-0.1
-0.32022641517078815
-0.22586901193743134
-0.01
-0.20568589440721635
-0.26391115852961217
-0.28
-0.7376437478150354
0.36090794484795924
0.48
0.057537148807392906
-0.27705883953651256
-0.15
-0.644496066808135
-0.5526053985935164
-0.13
0.2010504922488683
-0.14619616460964377
-0.08
0.15464125826499575
-0.21531915328855317
-0.02
-0.6462357530560942
0.14558430045572623
0.14
-0.27713920680037424
-0.33668825857420265
0.02
-0.7448666477704458
-0.2218273549757044
0.16
-0.009727551368943295
0.0058071834776753815
0.39
-0.44736208982232295
-0.08641239122680137
0.01
-0.6851425151178473
0.3440102275368257
-0.07
-0.42556513388147377
-0.4435727850905976
-0.36
-0.3479821212540506
-0.05653983790588914
0.43
0.14498493156124118
0.3205944475336146
0.18
-0.04214935387826261
0.18513653392451623
0.15
-0.7266914402691651
0.08729072684145067
-0.47
-0.42884563318609925
0.011643500329182484
0.46
-0.7731984066738304
0.013700206386942275
0.12
0.09474488726841004
-0.5768058426534742
-0.23
-0.3847490636911734
-0.4709580231623576
-0.1
-0.08059688318228982
-0.5700432947507731
-0.14
-0.6315116115938745
0.2584064932672551
0.22
-0.759961399611904
-0.14
-0.09985911493755045
-0.4558479935606455
-0.46243338861033484
-0.05029283336878884
0.08789774315788756
0.5223996623338817
-0.26
0.7830626349165092
0.20528762532568418
-0.22
0.4101746719247075
-0.2510355128307539
-0.46
-0.0035021899188549593
-0.03371117098582125
-0.44
0.30917346823621233
-0.3936824242322844
-0.36
0.42914472148267596
0.014410016849586834
0.32
0.10105228040080466
-0.40039243534694674
-0.06
0.6958547325973387
0.538141885635082
0.32
0.44732041161530867
0.18335383404500077
0.05
0.8921084632053896
0.6608116137689926
0.36
0.754650683481398
0.4237320380025271
-0.17
0.5817302592478641
0.05813743133966949
0.01
0.8573248659107214
0.3889465175096818
-0.25
0.7565157797407094
0.4795875517758285
0.3
0.06587474547456315
-0.29665844048828804
0.13
0.22212073773867907
0.10588924767704143
0.12
-0.17042695042665024
0.5048986157689404
-0.33
0.15056368148145086
0.348891708840862
-0.24
0.5365705884095295
-0.19367079192122238
-0.1
-0.010866910828386419
-0.34676111285656563
0.02
0.19222341010695657
-0.34191234417068717
-0.33
0.05737464142107853
0.64016785432939
-0.17
0.2752944429210005
0.2361717400195791
0.0
0.059290557230812
0.059058486256035
0.15
0.2564038109943565
0.03450336085112662
0.37
-0.09904106360073517
0.5678119049071518
0.16
-0.19234960765676024
0.3791699976392758
-0.34
0.17629229961111567
0.18952101812229513
-0.27
0.5159412791280963
0.3770411374148307
-0.4
0.6184211598355602
0.29037941984174725
0.45
-0.16491712259135552
0.2911018661902413
0.25
-0.005639568939850068
0.5117763988548324
-0.18
0.5936858983955584
0.5980185571261488
0.05
0.607443740124242
0.17323245182384941
-0.22
0.592229845426542
0.2141471435747161
-0.39
0.21131515367567516
0.6425960965894741
0.32
0.15286620066091777
0.22602193582031
-0.17
0.549440361430081
0.30114655748915664
0.43
0.2243157397612346
-0.09426423930559343
0.25
0.5497265365559838
0.06361858707213167
0.45
0.1818437101782598
0.5297885246627393
-0.48
0.09567377258765151
-0.13615182648017193
0.4
0.5516141237305627
0.13
-0.22008129224259415
0.3804867601927299
-0.25419306917300094
0.13110417469390237
0.2942533364619854
0.25329203333030775
0.25
-0.03968419647857817
0.4373553934290995
-0.16
-0.29374755657736973
-0.2422647739905761
-0.11
-0.8741273891576944
-0.39934470382806314
0.49
-0.13704745932020762
-0.02348594167284505
0.3
-0.6729062214754261
0.13527670227012664
-0.16
-0.5916688654183971
-0.3491421848904001
0.22
-0.9072499782578703
-0.22243180523100328
-0.25
0.11603964208273254
0.38602735678837075
0.46
-0.12241951993664126
-0.6148273205699591
0.07
-0.4315648425783112
-0.14478465615053687
0.29
-0.921607506997733
-0.20782046755735212
-0.43
-0.7485716955909194
0.08496414891775941
-0.09
-0.85135631206603
-0.47792554047173197
-0.47
0.05153337732346122
-0.6183698611300845
-0.39
-0.38802230201818566
-0.7557171557105211
-0.39
0.20932499256225046
0.2555544087766301
0.32
-0.8419465719249007
-0.4799219658354275
0.28
-0.1364701973128431
-0.38768918654179874
-0.24
-0.8887029766064716
-0.4367193421672337
-0.45
-0.18967282098103735
0.21526956000556896
0.24
-0.1616617231538396
0.25942085905600976
-0.4
0.06418697779571952
0.0297640576172566
-0.16
-0.26615622076552675
-0.5436359303683144
0.26
-0.7827562327799567
-0.057458888376787275
0.38
-0.6389332747714839
0.16857174464677763
-0.28
0.02503609220495142
-0.5294032558928594
-0.04
-0.9369889072554115
0.15111349604656768
-0.39
-0.2675056591948379
0.06362488659576143
-0.06
-0.41001704974403214
-0.6605112712375422
0.26
-0.4658808919107282
-0.42714389442291295
0.48
-0.06924826872535746
-0.6716418691619199
-0.13
-0.8247502939863506
-0.22850304442841324
0.18
-0.7878891187198579
-0.37641976856454606
0.38
-0.8399723945837245
-0.25316719294394313
-0.47
-0.023224970204327754
0.14590273408539536
0.31
-0.12229489723366642
-0.1092438232099815
-0.13
-0.22714833993828892
0.17838644953977822
0.39
-0.4047786126880484
-0.44421901526025775
-0.09
-0.09217314788801241
0.38535806670535905
0.01
-0.1917502298536298
-0.554521657057771
-0.38
-0.16187050609050058
-0.45419805480144787
-0.16
-0.7421941083468232
0.32
-0.6477965155219547
-0.507414860751217
-0.0677499889191304
-0.4546842880546917
-0.13628800201076038
-0.27041779881544664
0.44
0.3731377255380711
-0.38011125005378876
0.14
-0.10716882322358637
0.11093162736982999
-0.21
0.43178829935279445
0.1619347342181528
-0.43
0.3207851925044717
0.17685128820440335
-0.11
0.22586863851822128
0.32159561231939154
-0.09
0.29112431440323294
0.20096593828668574
0.3
0.10175398843593941
-0.280144510825497
0.13
-0.32713556245187825
-0.33720127235061026
-0.29
0.4899211990732347
0.3249686380415365
-0.08
0.5477512886810889
-0.01156325796253506
-0.28
0.07428318468515997
0.49238314053712656
0.32
0.020336786185498768
-0.33030393864256513
0.4
0.28302386536518986
0.23780852382259457
-0.1
-0.18508859709996975
0.2193555920411408
-0.05
0.043364334681484124
-0.17536770427547255
0.32
-0.37191236900190283
-0.26336105773876967
0.27
0.3360809844613941
-0.14410378677508076
-0.28
-0.05317628650229401
0.25920124143014467
0.16
0.47351868529247987
-0.411800786792017
0.12
0.3945207135146415
0.21979170693612546
-0.29
-0.10707178021350025
-0.23331536028409294
0.21
-0.273964712993282
-0.06414449461565887
0.06
0.31686442133828363
-0.0007428776784630975
-0.05
0.07346280440108814
0.5461011123338494
0.48
0.6466188143887766
-0.1155117098352013
0.27
-0.051768363442173816
-0.44413373039593823
0.39
0.36685365711856277
0.3651712849756458
0.17
0.15754864174697908
0.1441884430896518
0.26
0.178531483632973
0.5528545769079114
0.25
-0.12013465018528464
0.18737082089560717
0.48
0.46534910582701733
0.439010106430087
0.07
0.6737098202925388
0.4236306148075678
-0.5
-0.3209106880849432
-0.03993393836260624
0.29
0.5326538650852316
0.2904056143372952
0.03
0.07231431238532955
-0.09784162276184835
0.39
-0.2894384505155261
-0.4289375857061398
0.35
0.09165751242876433
0.08511795352631496
-0.14
0.4076019731963094
-0.2023567504121562
0.19
0.29507667713478103
-0.3908127987538136
0.5
0.3335327254764379
0.2806079071721855
0.21
0.7121120195504397
0.0053608703234582665
-0.43
0.13735905639916673
-0.13
0.5303540105307871
0.2119383353997963
0.12065098017459064
0.34260972865894873
-0.4831310095055644
0.5531697074007391
-0.07
0.10145965284670358
-0.06700069449035191
-0.01
0.06163005473779526
-0.3506522708127236
-0.31
0.3052816310601667
0.3058052192591353
0.32
-0.21117585901169228
0.3200262562011099
0.07
0.5546031040463341
0.22146392270830673
-0.35
-0.09683456246086336
0.3719822303545305
0.24
0.6826471298929143
-0.24693169388543124
-0.43
-0.2784389458671253
0.44704994773951345
-0.38
0.8675794125079301
0.10839198743247457
-0.15
-0.02376262718503128
0.5323579666482566
-0.47
0.26227139359918666
-0.24819649662447207
-0.36
0.552825856871916
0.30946679785386755
-0.31
0.6151625623935764
0.47280797624121945
0.25
0.14182138400622402
0.3674597478166366
0.18
0.7071696124308074
-0.24939503207601196
-0.2
0.5640243923234562
0.5036490015279448
0.47
0.17098035871949838
0.43364506622015697
-0.01
0.7709842940272872
0.5139243560066409
-0.24
0.28070500424080236
0.4734853564315644
-0.36
-0.1188559961841214
0.029031901407710885
0.45
0.6055974588397324
0.2020043761219116
0.1
0.032624984125531574
-0.12963776285940817
-0.02
0.7142671231068524
-0.22014620708459734
-0.31
0.564775567332041
0.4993146051677647
-0.22
0.5153147550796792
0.1760485794166637
0.14
0.7185807808307805
-0.36078280386284817
-0.43
-0.11458783588970825
-0.29030443210732526
-0.14
-0.07506620764523082
-0.2696515715621612
-0.09
0.45428093180960455
0.5923746674149774
-0.25
0.6622546928324665
0.259361328990619
0.05
0.8052680312568248
0.6514750013109635
-0.03
0.6331543589364806
0.48284983265607045
-0.29
0.20177952759137244
-0.1267008475290785
0.33
0.7313302077765222
0.5864857607737941
-0.46
0.6381435994736501
-0.2512195740920968
0.07
0.13584893433953948
0.38618712043280184
-0.15
0.7284422398146423
0.48203604269526734
-0.02
0.012593317552175916
-0.25043833472145033
0.26
0.1250676949688934
0.3348875537343159
0.42
0.3097418065131271
0.6469127819317328
-0.16
-0.19228342168428914
-0.2609249651035914
-0.28
0.3655543253510348
-0.35
0.22179824441846493
0.2273034817976612
-0.12500626246031904
-0.18154498403517663
-0.39574721672905283
-0.4129796774684826
-0.31
-0.9177468477085419
0.21933419549527053
0.43
-0.6500607206722959
-0.30458170991313355
0.2
-0.7161448152638915
0.03041939992179578
-0.4
-0.26114592509882073
0.3164280872088313
-0.13
-0.36715461238585617
0.20090951028369486
-0.47
-0.3716360354607198
-0.18427404048364446
0.06
-0.1964524846933806
-0.6642882430704822
-0.15
-0.26643828210654324
-0.3254163398489809
0.5
-0.4953101853280441
-0.017265114914006098
-0.35
-0.5834614102630196
-0.3583655993996487
0.17
-0.9623609257773764
0.06084376699133702
0.06
-0.33157029216836237
0.28518311338476066
-0.31
-0.975909638561785
-0.6343122058088677
0.5
-0.43641431936815694
0.04452907050574593
-0.37
-0.08525559568277118
0.018248195730195916
-0.37
0.0010252790927785707
-0.4456299860203106
-0.11
-0.3250965391567145
-0.21870852770540158
-0.23
-0.3320179974716234
0.07984489938736908
-0.18
-0.7305714245643944
-0.5561842276036679
-0.38
-0.6045422975733569
-0.031710903985027426
-0.09
-0.8190156211919977
-0.4175597119995822
0.02
-0.9131668131774426
-0.7641926216703646
-0.08
-0.6365339035066605
-0.22452445913417685
0.17
-0.8662020660428473
-0.0021991459233414662
-0.09
-0.18852737925368362
-0.14053589183110896
-0.49
-0.10019063334591628
-0.30617873575498916
-0.16
-0.29454778942203547
-0.07785937941995087
-0.23
-0.20286714575707393
0.16714502597119937
-0.17
-0.5278715511482245
-0.36476169686498505
0.5
-0.3759648283120399
-0.15622867585392414
0.19
-0.1144978493231013
-0.49847374278281936
-0.03
-0.4522527823942057
0.01588736190614378
-0.27
-0.0966138870831689
-0.4756232178179976
0.22
-0.2951033073590277
-0.4465297356801077
-0.29
-0.5341967894969175
-0.2721437411214792
-0.05
-0.09858278405554576
0.3379776617735954
-0.24
-0.02870418695062095
-0.15429583817456274
0.2
-0.2364306870024623
-0.4930194532771031
0.32
-0.6777070718999222
-0.24353044470618027
0.41
-0.8371960804708443
-0.3550690352517249
-0.05
-0.015657489925300392
0.14872581390849665
0.3
-0.3694523390855216
0.21
-0.17893612514052604
-0.27926997316218743
0.033966886589294344
0.059940915105013814
-0.433381179657702
-0.43401798126319435
-0.45
-0.20773470871596053
-0.24508432669252403
-0.07
-0.6766683632866303
-0.0013732645712565483
-0.28
-0.45037942540789844
-0.3103188182792469
-0.06
0.13856612830009182
-0.27419997333912793
0.21
-0.4875527166400272
-0.1946707848941437
0.45
0.12291809491498878
0.23546490065713147
-0.11
-0.4372175906362865
-0.6927593744741825
0.07
-0.4589933155049719
-0.15075098790444114
-0.23
-0.28100170207471403
-0.15285768618472578
0.4
-0.38889500379442943
0.09536588152693677
0.01
-0.007118571506091512
-0.48131865814130304
-0.15
-0.2304340318378521
-0.40315521981824726
0.24
-0.5685974701609073
-0.1500810269047252
0.49
0.07832833692557006
-0.29949993561929916
-0.23
-0.7322527543598559
-0.3888424702117413
0.2
0.14708978023258626
-0.5987374043307361
-0.19
-0.6730152856484181
-0.3515220456812148
-0.22
-0.5002306442979404
-0.26909047115805323
-0.31
-0.9126622188211021
-0.047825634086109015
0.19
-0.0739270558930457
-0.4673724041843857
0.15
-0.6543802857947689
-0.6557522653584966
-0.46
-0.6760004246206578
-0.4465277343862662
-0.48
-0.2652249555928887
-0.5117659175887916
0.41
0.1000132276096367
-0.5550891816677263
0.04
-0.03666350831142819
0.14760130105352898
-0.2
-0.6093539910326832
-0.36386244605378726
-0.44
-0.09789024392536798
-0.1676115686914736
0.18
-0.8341411212876811
0.06197429913407219
0.32
-0.02372698911322696
-0.5568998304843404
0.43
-0.09485285949481437
0.3225580759140871
0.1
0.13568923410675812
-0.1994691472590808
0.34
-0.2222835427200741
-0.3627903774997165
-0.4
-0.638962312479438
-0.5307535770680922
0.26
-0.5509991129110621
-0.5826351203960909
-0.04
-0.6191175695830634
-0.5608629500920366
-0.46
0.009110260112881725
-0.013085040059049747
0.28
0.08133235007989484
0.006237752981904689
-0.1
-0.1179904429610595
-0.05429974907009418
0.21
-0.7174529409090604
-0.20975556962516498
-0.32
-0.12199712035398994
0.31850800497444165
0.05
0.06973930504640319
-0.3700233896409637
-0.5
-0.7417293003381907
0.22
-0.4895487846088645
-0.08067549006519108
-0.5080350441168121
-0.20990798593930357
-0.07957374731060839
0.02965267608721444
0.29
-0.6355102221623472
0.29697650235786166
0.09
0.08716595156700728
-0.5225686872737076
0.17
-0.5432888588014246
0.1357613051547149
0.33
-0.0316188512298463
0.25892322393455725
0.47
-0.6947807700096901
-0.25287904109353
-0.38
-0.2529785049816012
0.29832216996717015
0.36
-0.6241797160423012
-0.4075502026412169
-0.1
-0.09830734343391455
0.15150334373484958
0.17
-0.4173608898099808
0.09103093570770472
0.05
-0.6168884817828356
0.23667530595922542
-0.01
-0.11253285203435669
-0.09344484093773672
-0.27
-0.7024127051373967
0.25244761169853697
-0.35
-0.22830515777366825
-0.5106281181653809
0.06
-0.33522942790975097
0.16054310373852645
0.5
0.11359935018634251
0.16586975084650016
0.02
0.1082727030783688
0.40919692511171346
0.43
-0.22505447118684493
-0.3433471651232381
-0.45
0.01748961904810706
-0.45253876265782533
0.0
-0.003318783417305856
-0.06656323015477787
-0.36
-0.21929431592035364
-0.03231382174366128
-0.35
-0.4835437243314701
-0.5939832358930586
0.36
-0.45187431018207386
-0.2915015992401419
0.09
-0.02435594683498975
-0.6094524740211335
0.39
-0.12640507205399815
-0.5826438659764859
-0.39
0.08678631990135344
-0.06279898727628645
0.37
0.2469414412011554
-0.33218786154603847
0.13
-0.46366968452909285
0.040436147354706284
-0.21
0.2237063065701626
-0.4155340717731143
0.39
-0.24032347430201684
-0.42243463960499694
0.25
0.3165770935298656
0.40432872862383296
-0.18
0.22981372530103583
-0.3235737457857652
-0.5
-0.3322838002893662
0.030269901727117188
-0.23
0.1138725521977514
-0.24674318994346311
-0.38
-0.6091143561316693
-0.554766188609074
-0.26
-0.4610913574660565
0.10236682875854589
0.28
-0.038224374833676966
-0.48441278058126064
-0.45
-0.5614447654938708
-0.5300955018627953
0.44
0.08423795578766406
-0.40071747493546395
-0.03
-0.38514007113966753
0.17223262458486624
-0.38
-0.5180901706599979
-0.1584634580821946
0.13
-0.23739408799293676
-0.13689487320224128
0.08
0.19103732712710994
-0.02
0.2151211242531781
0.20017633992973602
-0.10385422946693178
-0.26481402036631185
0.007180383371574516
-0.27108301679469193
0.15
-0.571937830091944
-0.007433844062740151
-0.28
-0.40558700282389554
-0.23603445546084167
-0.01
-0.996986391425794
-0.4640461914564118
0.29
0.12102534456977626
0.4130728668115735
-0.07
-0.8360937136982094
-0.11039950736323106
0.46
-0.7426213395234046
0.19892691692647402
0.13
-0.5819477638131094
-0.3730325603845116
-0.02
-0.23998828650212395
0.2954155653609219
-0.34
-0.998436412247557
-0.1792439438208733
-0.26
-0.043776903065762394
-0.06015345852424063
-0.44
-0.8028673883623954
-0.4046515111942672
0.1
-0.5983693356923686
-0.11032022426300009
-0.38
-0.6427006226236363
-0.26651439412584743
-0.16
0.15349354723921227
-0.26690538580394346
-0.03
-0.36611546108269244
-0.7498144057642361
0.0
-0.6232064411223999
-0.6202058732874555
-0.23
-0.3128149735991799
-0.6700763203580392
-0.05
-0.2829445265285963
0.25737261047309024
-0.38
-0.2203934573597258
0.0415693134165917
0.41
-0.6745901603032275
0.23241587151983248
-0.28
-0.9354367184064684
-0.46983131897862945
-0.4
-0.07318952790800642
-0.4152931841938802
0.18
-0.8777276626927555
0.022347005650353493
0.36
-0.7253678525369898
-0.6294553905363222
0.17
-0.9535654563503134
-0.4652544157039018
-0.41
-0.07776643118273428
-0.20803102951815536
0.35
-0.6049898173684807
-0.39437920236162016
0.35
-0.23864164452501524
-0.11918668053551247
-0.32
-0.7038341663511228
-0.6872434900531136
0.11
0.05422264316647757
-0.24161414537332043
0.48
-0.4014067015133148
-0.6969952805795813
0.04
-0.15602556630705378
-0.2737454432226891
-0.39
-0.3392754036639466
-0.5706985534149425
0.21
-0.7423222934716931
-0.25648902998234174
-0.43
0.10346818309570616
-0.3754639973438413
0.37
-0.29755684954279427
0.10317609184519314
-0.21
-0.37619693873182924
-0.19941273193114
0.18
0.09639188504450447
-0.05803627686094692
-0.41
-0.6149845700256882
0.3380666517140968
-0.17
-0.5210874986007321
0.02521427707059079
0.42
-0.3282351239572264
0.012575490450885815
0.38
-0.6955963373375208
-0.3
-0.7745333279239071
-0.16465317604838128
-0.12434344864169934
-0.6482722359186212
0.39194394322425546
-0.5793114965831057
-0.13
-0.30314394791481525
0.3391426699384911
-0.49
-0.7115981144364113
0.15280271494327669
0.06
-0.33525815944119713
-0.21273837607357954
-0.27
-0.4397170684243412
-0.5057506621155459
-0.3
-0.4567047823823751
-0.8261349535849002
-0.35
-0.14632049091302055
0.3208727709994072
-0.5
-0.3833282154973279
0.0016290338537450157
0.19
0.12591552164833464
-0.08937644575270198
-0.39
0.11692100125478144
-0.10281417568589381
-0.24
-0.019641268812026488
0.24002018295753927
-0.28
-0.2324756274554596
0.10986875283629932
0.11
-0.55232419733422
0.09018123889851341
0.27
-0.6826366833964342
-0.5595273644709252
0.18
0.20707191997300442
-0.4106249640043883
-0.49
0.1581695195064681
-0.18786719170290928
-0.02
-0.15458825279501107
-0.0962204249735676
-0.04
0.11376498047564727
0.2409690797441778
-0.44
-0.27342452424209807
0.37212040869242347
0.05
-0.49457585319034425
-0.35744870602106715
-0.37
-0.04500673847685323
0.18902823444714423
0.21
-0.6214836789450648
0.10637544269684723
-0.23
0.05116911280523265
-0.20616925975697628
-0.35
-0.026286184740944043
0.022826707048614735
0.17
0.15471784845346512
0.09539079614218027
-0.18
0.09215375935989975
0.3171592796682796
0.31
-0.8296147241662003
-0.4052898765553831
0.24
-0.5071655679425378
0.08187730709996308
-0.35
-0.06433275159788339
-0.6178193584129222
-0.27
0.11536391391500243
0.017849587894760797
0.32
-0.6303050323926808
-0.5988031808491809
-0.22
0.05634773635126106
0.03984246554352445
-0.02
-0.13229791004144517
-0.6284806079440697
0.23
-0.5239748365538509
-0.06296180198238957
0.45
-0.1094936425155307
-0.5423741797739091
0.4
0.0699187352759888
-0.031736982109044104
0.45
-0.630718462388876
0.28622379416575144
-0.22
-0.4886792386636722
-0.4296938517029481
-0.44
-0.012761592794972285
-0.43870243226048505
0.43
-0.28375301223743576
-0.4519369148481123
-0.16
-0.8405185296498073
-0.46976443058220785
0.31
0.08730898608428753
0.252759357319671
0.32
-0.5252148018175921
-0.39
0.20732094672184034
-0.05055606617492894
-0.5213379772565084
-0.2930568231354029
-0.07924527131267402
-0.4128259801964364
-0.44
-0.7903424838049576
-0.3794203830760138
-0.44
-0.8437480809253798
-0.401608775533546
0.04
-0.5715596884678491
-0.7821649366721515
-0.3
0.2089964726707574
0.3641557706293851
0.46
-0.41732423463077933
0.1608966880640097
-0.39
-0.6140651520654042
-0.42298533570197233
0.38
-0.8001831282994215
-0.4838298412943023
-0.14
-0.3993386227070918
0.2460827277809639
0.5
-0.2792511917823583
-0.016820651266092536
0.08
-0.6163478127353016
0.21406734510763245
0.01
-0.04723580910902656
0.40166816372448866
0.28
-0.9348366277258823
-0.3239163484196174
-0.21
-0.4392521155817768
-0.24260224103748013
0.11
0.2694337770360855
-0.22338973443213891
-0.5
-0.4197787295692555
-0.2875393978635457
0.08
-0.07562906613784874
-0.38349816644098944
0.1
-0.38967029756040483
-0.35207043332649246
0.39
-0.6510980306749016
-0.08950461501220296
-0.3
-0.3036638489891915
-0.5079732530747704
0.31
-0.4251952109266234
-0.24936005958722388
0.0
-0.2738084044141701
0.019248744563265325
-0.38
0.03758279143534048
-0.40049581539933277
0.46
-0.04267264860206126
-0.57712171165023
0.0
-0.6660467523511638
-0.6073761558503903
0.16
-0.6357923081510038
-0.16257604216381336
0.41
-0.6505924218375804
0.21096246298730387
-0.31
-0.9241309269886978
-0.23468881150273863
-0.33
-0.6384796524986563
-0.5578939010935806
0.11
-0.38527456290781337
-0.6056073313758749
-0.19
-0.007561132625519489
-0.29302816843176394
-0.06
-0.1501402955696303
-0.759896501657962
0.27
0.06672803765656701
-0.35355692983925446
-0.02
-0.5296115341621389
-0.5810529460182874
0.45
-0.6221155179831067
-0.3254440477052555
0.19
0.0622755837038615
0.09350692995639907
-0.22
-0.23667539395779363
-0.4923123572489953
-0.33
-0.19085610675239928
-0.48318542189401403
-0.34
0.05001695789261987
-0.2718076764598543
0.3
-0.5313607875415393
0.20221264025974633
-0.43
-0.0853811042611405
-0.45549451658086576
-0.07
-0.7776739474205288
0.22247025877764678
-0.35
-0.34563872277904095
-0.13
-0.6358511877665068
-0.08011959458347936
-0.3649575144994062
-0.49887910318108797
0.3481950240952306
-0.3047390596927129
-0.15
0.6681514249830794
0.5059441230770808
0.18
0.6174682422132857
0.4866195308706224
0.18
0.37679283441974504
0.5254248069377385
0.13
-0.13201244164737105
-0.15191930377952523
0.08
0.9453316690698912
0.32810600467427453
0.44
0.8753063606160927
0.2858496899024683
-0.47
0.7375626753878977
-0.0817015482427618
0.38
0.00511391353312892
-0.1218121224391229
0.43
0.4952244877294905
-0.12212022220705941
-0.12
0.025532587497426328
0.4389972258567103
-0.43
-0.04558486056634299
0.07254304478917703
0.26
0.4808693205011906
-0.4033417476748003
0.38
0.8067541129651662
0.10830088434329642
-0.36
0.5051114809470716
-0.03387945516330929
-0.29
0.007291820453676469
0.4987409112594005
-0.44
0.0746714540309669
0.5419683666080386
-0.22
0.2014439986823281
0.20283635039283587
-0.27
0.2505760148975313
-0.01846651710729802
-0.41
0.9718788823976648
0.5470057131468576
-0.13
0.046406652143508545
0.16570515097781147
-0.03
0.8477072143125552
-0.24789180452590762
0.42
0.15130416981627515
0.5907861101852456
-0.09
0.012626255105120932
0.046259680799738634
0.04
0.2171526844906287
-0.34329726223539
-0.41
0.8467096275257564
0.7199670687616105
0.17
0.493445296528756
0.3382592295216422
-0.06
0.6251531357687243
0.06813688982729348
-0.43
0.3852754754630739
-0.08419454208018164
0.04
0.7676069073705486
0.391106718043835
-0.06
0.14230564724653247
0.4321449741153486
-0.45
0.05126739117501898
0.7127944207596837
0.46
0.3906179445306833
0.5354955496184562
-0.13
0.23791681567191142
0.18381219398095255
0.23
0.5596001713094139
0.7239541330174405
-0.03
0.7494582322729257
0.4390892955076838
-0.23
0.7643230697826829
0.022494879503537183
0.0
0.09091748578683012
-0.06318014363617833
0.03
-0.013407491073454576
0.16966285078799576
0.14
0.8037495145023703
0.055761887900291206
-0.21
0.8576504773900763
0.1698320003547425
0.28
0.6435803649356236
-0.0037607887115731304
0.09
0.1471731540019404
-0.45
0.5623731920764905
0.4512453672315694
0.4330204770262171
0.39942368600373457
0.19529188289457827
0.011224086319241641
0.06
0.8604430772195144
-0.1309690580666345
-0.15
0.4226362216053918
0.1557658736249084
-0.18
0.7659012899138479
0.8092529168423104
-0.33
0.4424142466964464
0.4117924657831459
0.11
0.45987469775561113
-0.23085738311721235
0.36
-0.11747545334403028
-0.0819110075489572
-0.27
0.7435781710877131
0.12656518873227862
-0.34
0.5451019748064774
-0.09608972685666094
-0.03
0.5777568903954173
0.5575512275297067
0.49
-0.04588406399094989
-0.1792072214071724
-0.46
0.8108743849459288
-0.20050201181930122
-0.24
0.6621691753580571
0.2692816408021166
0.39
0.022385522736640823
0.5343740144383257
-0.32
0.32729314910043084
0.5685538857164661
0.45
0.5831132778222895
0.23537878466608889
0.34
0.25628837887266875
0.14508636551901904
0.22
-0.08341920198026125
0.2627283963794733
0.47
0.3189387671592842
-0.18273489729130868
-0.48
-0.015597939169933723
-0.1774830485194273
-0.12
0.5691502120581835
0.503755087967631
0.48
0.19791207557112628
0.09244305020058477
-0.11
0.3992241133381726
0.10266168197856827
0.23
0.42900548156018875
0.3199631218443135
-0.49
0.6917040416944432
0.019904927967430208
0.48
0.011762235571327018
0.3778143496306796
-0.25
0.6838528139080765
-0.4144920445250191
-0.35
0.10615920806377648
0.11589992049855993
-0.42
-0.04423275695980242
-0.029997901679902
-0.22
0.06166506521865914
0.2665165377025607
-0.24
0.3451506258361966
-0.34042344646697614
0.45
0.38209061000573313
0.26589259883616495
0.34
0.14577456470259287
0.30687175831759955
-0.18
0.4647954052211575
0.16259155044029433
-0.28
0.11907561309846301
0.06485973457005194
-0.25
-0.06319257103129469
0.16699636904964227
0.27
-0.09532920551088453
-0.33165781532197225
0.05
0.033324978860729354
0.45941868937772035
-0.21
0.0022484741610369367
0.28217152599847367
-0.49
0.659495637540283
0.18207536959203222
0.2
0.8895917939467237
0.011278902382273187
0.12
-0.1396117388435159
0.17673732404195153
-0.34
0.4849298394968057
0.16
0.24373143029116445
-0.2582147377956958
-0.13255757744262142
0.3264251319052539
-0.3279782121594757
0.321783342651788
-0.2
-0.24280556487889016
0.2726115156239877
0.17
-0.10363373785108966
-0.306493657618471
-0.36
-0.5445285646086321
-0.06756183222065691
0.33
0.056539609993555534
-0.13591612744556988
0.42
-0.11510609478153182
0.10430757019580737
0.24
-0.6553297924229092
-0.3380351570831233
0.27
-0.41298706514397876
0.18177228249033453
-0.35
0.2272054952825633
-0.09725482213999885
0.23
-0.9037674000871039
-0.06210419116371269
-0.36
-0.68891803106339
0.12450392613609275
-0.26
-0.26552614836319377
0.14718448616759455
0.1
-0.8982067083946974
-0.1929441697493811
-0.2
-0.24807805247772013
-0.429383099250615
0.36
-0.411639122976487
-0.38617650240673435
-0.36
-0.5648457198203686
-0.13916396028681233
-0.13
-0.27185826194028856
0.3462926366113647
0.15
-0.25731485883846633
0.03674056421700006
0.42
-0.6677627864441028
0.3232713093427877
0.26
-0.03429353156988956
0.23232932599275888
-0.15
-0.7333515482198611
-0.4105825735478548
-0.4
-0.25043964867924623
-0.5711280147283889
-0.18
-0.35989420749871276
-0.46517531893293607
-0.18
-0.005846903294165911
-0.5534944522386733
-0.18
-0.18752776998842946
-0.33955234350717606
-0.05
-0.03146987871992588
-0.12366062645381455
0.27
-0.7173615957732876
-0.38941630443646086
0.09
-0.4216059177906412
-0.23303564427596024
0.34
-0.19798657795114089
-0.1673664766402534
0.38
0.18634425441315197
-0.7498150207554227
-0.02
0.038792798528320814
-0.6176367314476217
0.39
-0.5333854907794817
-0.3543469721630316
0.49
-0.35667525006407036
-0.48687712127445143
0.2
-0.34414510095265066
-0.4280117177569959
-0.27
-0.6530105044701078
-0.6367594266097386
-0.22
-0.4542627956173639
0.16632796896894622
0.23
-0.5773501911960491
0.2828290321610558
0.24
-0.45385125438815793
-0.6017461249488552
-0.1
-0.49927609727824607
0.34511831586835456
-0.32
-0.1761405380954562
0.02068747868622298
-0.33
-0.031709700913324645
0.04346434380253008
-0.25
-0.45448656602963206
0.3425718885265142
0.39
-0.3735941107536163
-0.4
-0.5851944492046665
-0.18120893140324637
-0.23297827467460738
0.07258962087973024
-0.1194450373069977
0.2806957014023734
-0.1
0.6614302047869797
-0.15362179990343972
0.49
0.545747706092792
0.3441753143316045
-0.14
0.14795059185774745
0.24692062882850888
0.05
-0.004794722639156987
0.035374017698545326
-0.38
0.21675188849080637
0.33914186737760044
-0.32
0.8629840388117509
-0.13012061990469118
0.04
0.8122465260940436
0.4424241872544161
0.13
-0.11029828106506422
-0.08642326118163285
0.4
0.30854916737098453
0.07838677771139095
-0.05
0.1837391284779607
-0.0010708757104126105
-0.01
0.15319678189976435
-0.42353366442730206
-0.19
0.2656595706166536
0.44079546749079596
0.28
0.4813304386985557
0.4552838051971358
0.13
-0.1331578990077841
0.4107458392070732
-0.14
0.39138006698227845
0.08407474375449127
-0.4
0.038051162434860744
0.23180094885874242
0.05
0.8103249573306102
-0.052949469916847604
-0.39
0.17507537610619947
0.4180755200903203
-0.28
0.27405038609903143
0.33241708551888494
0.26
0.5197088206704674
0.5406332560986699
0.05
0.1314926500906829
-0.2063726010911969
0.17
0.8484985072805492
0.5553479083470159
-0.49
0.906777997842337
0.5186812614171483
0.38
0.11344464477220349
0.3283339357311031
0.24
0.6037919704582502
0.7843448023925337
-0.37
0.5377811037968186
-0.4146705243592129
-0.5
0.2967964305485644
0.2135223605803794
0.31
0.20860354560897232
-0.04942720023132138
0.03
0.18155310642067318
0.19739961089616473
-0.44
0.544726295293188
0.2919140125311359
-0.21
0.7902118936582166
0.11031414869171162
0.45
0.39181175749764036
0.49191454989540045
-0.08
0.34021135629395116
0.29394486504237505
0.32
0.25818104114697665
0.6378405972195773
-0.11
0.4442853089697742
0.31702604049265254
-0.03
0.09509986569669937
-0.20379437335348438
0.26
0.41592027954283617
0.4400807367238946
0.0
0.8220451694654577
0.2548994763360963
-0.26
0.24722642985325538
-0.2812609187121907
0.39
0.2433868249015424
0.14342828158262075
0.41
0.05869762460673116
-0.3134498798783965
0.15
0.6755757860677492
0.18
0.41854734104820007
0.43216763849896467
0.5165319352980371
-0.22202893366634077
0.017619692653310703
-0.19170592264624037
0.14
0.46169455234917073
0.4681146031040362
0.25
0.3918740265988943
-0.18140039644338557
-0.38
0.811389026146315
0.9176142022127817
-0.16
0.3423744274901477
0.019238088265203252
0.13
0.17075054143772772
0.3032931736536387
-0.44
0.2366954560492918
0.12791046480392015
-0.34
0.8820781648990096
-0.0430912288622736
0.08
0.5530798585652048
0.4041044897277758
-0.03
0.1358841399751549
0.449191328671438
-0.26
0.6007973010314923
-0.11505266102804786
0.0
0.8250412907309782
0.20570102705644988
-0.01
0.714287602646481
0.3128829283690875
0.42
0.5171057013338434
0.4639267169297648
0.28
-0.09393808722683444
0.5119444223459487
-0.19
0.968044207356982
-0.01122612385821951
-0.23
-0.05878524643884956
-0.24717894575653404
-0.48
0.2371675754594651
0.5779200471686793
0.27
0.8820685825342508
0.0024945052961001246
0.19
0.4274941244068307
0.18139724500037457
0.46
0.8185913847025551
0.4062229518558549
0.42
0.3337656778470758
0.4722857113135772
-0.25
0.43770291838935305
0.0806729270023187
0.33
0.739315702700612
0.18586367048335822
-0.31
0.16412495921957274
-0.04522204698749605
-0.47
0.3852106766904268
0.35027386179341174
0.25
0.6797147679095181
-0.10155018583456489
-0.25
0.9715388155374952
0.3218168482836473
0.05
0.38817178141928305
0.11283991967638846
0.23
0.7671487100265416
0.20728700307784312
-0.36
-0.1072983733749124
0.26226666817436556
0.47
0.17772196152856537
0.2304389095096018
-0.21
0.6395497201933295
-0.12160215616352522
-0.48
0.13159078586645623
-0.11421420459819183
-0.37
0.08420283430112285
0.5000392035057909
0.31
-0.06005057380286009
0.6607184807425046
-0.32
0.5792701489604256
-0.3182919938392485
0.46
0.9882806235421787
0.5880450996722645
-0.14
0.16194353003066603
0.09379066422518997
0.11
0.5761979654777412
0.4032226472806679
0.18
0.11676598242226278
0.23785976613318213
0.43
0.6621288635697475
0.2607426479669631
-0.36
0.47924598173596755
-0.19
-0.0906102576495474
0.25195335998634577
0.34078555641908975
0.1796013970416283
0.006370200401061017
0.3225461113052315
-0.21
-0.6502038009787587
-0.1974268248926418
0.44
-0.15023086478088507
-0.030226971934855247
0.24
-0.8774307177386724
-0.6314070366045684
-0.13
-0.3362506530689591
-0.22609816435140023
0.0
-0.4315595253221271
-0.07125459757684773
-0.09
0.01359690790332065
-0.11004428310536632
-0.34
-0.0876134065681608
-0.3419317562059844
-0.44
-0.025725933467542754
0.07723552697598104
-0.35
-0.9748932166495083
-0.6306134259177517
0.42
-0.24704426375577523
-0.05452310687687606
0.18
-0.24313458279665087
-0.3972598304759913
-0.21
-0.21039785919753604
-0.0949798072556868
0.31
-0.5826778824178409
-0.05117522368702988
-0.43
-0.3564824659864971
-0.30878466014598965
-0.04
-0.3788730295275377
-0.7949610936367283
-0.1
0.2773034039632008
0.05691395598478792
-0.09
-0.5045716456583154
-0.47298195032604934
0.09
-0.1546757393474781
0.17849611471622276
-0.23
-0.7061538043897503
0.11062349652367226
-0.44
-0.6482811861971998
0.3328370220908799
0.28
-0.6504947117644069
-0.30181720204471574
-0.42
-0.8658404876288114
-0.567863404763839
-0.2
-0.1597942849096877
-0.43386643778387096
-0.39
-0.24379125188965617
0.21454144082194898
0.44
-0.5521991304954765
-0.5180949460756019
-0.43
-0.47956274359792594
0.353054484723435
-0.34
-0.04071217439696186
