0.14322932643840522
0.2925423972890579
-0.09862324252812825
0.39
0.7181968776712156
-0.2510483964718818
0.16906804564167166
0.6413936864907533
-0.0033132509330907668
-0.2868128119049398
0.6301272858595531
0.45383400724472084
-0.4939790673906806
0.3248135915469679
-0.43368604295695246
0.2634150426756723
0.734973326967803
-0.051239888444141894
-0.07088834700633712
-0.06736290497593383
-0.41460026681839385
0.2758713102750456
0.7140193497204591
-0.24274217879617083
-0.4357849477739045
0.6218007680961372
-0.4588673391228986
-0.4900398785110178
0.5055418662449218
0.15164649346543013
-0.23412655363474388
0.23711061720463986
0.03416441762943919
-0.12447898923483025
0.6237516068185253
0.41787586361563883
-0.38339490696201617
0.31021121197506857
0.010332176186282467
-0.3230333061821401
0.14223813578831757
-0.26205634840684233
0.264754401957776
0.1349159690948684
-0.3725218898533096
-0.3772840178808595
0.5789039031047172
0.4355285959754764
0.07375931059031288
-0.23648392060574208
-0.09012690878523609
0.44631078867225715
0.30118578055760226
-0.4703480880305245
0.1878397534952175
0.13535630585257763
-0.22604757814846
-0.22004161600666183
0.17430540028112446
0.20288469692487252
-0.38855379612945146
-0.14127232303896906
0.4569746003677556
-0.17536435005532022
-0.2557450024444902
-0.191742166300855
-0.12583248409234024
0.4962613730129192
-0.4632804077212446
-0.1446872895547154
-1.0189192754097014
-0.28737264730383255
0.42
-0.3667696119913111
0.05579039972306144
-0.34474281278275415
-0.8703138195981747
-0.11592257988732035
-0.47635112166938404
-0.8503320011008729
0.33570391050200815
0.39133530125549476
-0.9143101419363743
0.05199562841263057
0.04288623983961435
-0.5324779367831937
0.35861248467532975
-0.3949944333020798
-0.15913245272900262
-0.366852326237167
0.009370294111849496
-0.9677965978471487
-0.3925529085329501
-0.03652311969756183
-0.4189453916989269
0.1844892991282391
0.046064990044979416
-0.25376918857727726
-0.13327501373595133
-0.06901083882970858
-0.4899276813219174
-0.022040692116623878
-0.39126914326357026
-0.551530141474831
-0.14817992752984874
-0.3829448408316031
-0.5681423806955808
0.1001080092589338
0.0392360689588279
-0.25141015852655524
-0.27880512270052205
-0.15587198802366223
-0.565383914114388
-0.47972331013020025
-0.46207793400462077
-0.030542295878038146
0.15164101761440954
-0.19098222483489116
-0.05523079378831639
-0.4247661936450421
-0.04658209678396814
-0.64436172938326
0.2399646138989784
0.012396192763253438
-0.3463042551652896
0.34292885013378643
-0.28240569261678944
-0.06055015209033988
-0.2980233675611202
0.32045436655262755
-0.333374881070437
0.07194130224955984
0.05618491538048922
-0.3007437695804349
0.06357964193169618
-0.00771721888597633
-0.1578069417079365
0.13454494832566374
-0.09260827843128705
-0.06589416480176483
0.2064142734506096
0.32
-0.1092025950287364
-0.35288557475370597
0.3288734449088141
-0.5463512693330924
0.11538965464183593
0.11834269232653734
-0.3492464468978637
0.49881558478888377
0.35610448872574657
-0.6955157195690859
-0.3126769389391021
-0.2068509116271189
-0.385063098678397
0.4098258405230731
-0.22979347851308374
0.055483932847474826
-0.4377786241168336
-0.03807566111110471
-0.48971924016075674
-0.014293268510581426
-0.3782788997285523
-0.8243435338938594
-0.019465736160029744
-0.381766899024233
-0.7315861027379644
-0.4487351680202437
-0.3761525205008379
-0.2845564930786552
-0.4313791562029495
-0.17695755518071565
-0.048394234033874314
-0.44673638056785236
-0.26923048407830247
-0.21448239793782203
0.35162471223368164
-0.345129156267223
-0.12073213106190846
-0.006226882453310958
0.25744410850314986
-0.002854670616570815
0.32332239233097854
-0.19196756486520714
-0.15156960779385634
0.04144900287662099
-0.13846873663512385
-0.3838963029371167
-0.43972313021020276
-0.48132686698468274
-0.8966089048451313
-0.2541523979526276
-0.35181275094850306
-0.5029901901741953
-0.027285228659744167
0.06051718813524786
-0.8428398024058992
0.31023444448821047
-0.0956719278919074
0.18331387217634845
-0.209730114066884
-0.5105824576259304
-0.48532349000398833
-0.2561822221525242
0.3324325982067723
0.09510173186524747
0.17037750014553735
-0.016790616877913226
0.5707968289512031
-0.4350979277293463
-0.39
0.856783973389563
0.19212431095438073
-0.44106895534895335
0.427736886288845
0.17224035340405225
0.33397387069170487
0.5436419372649857
0.2712924763872535
-0.194277311083451
0.17837064285904577
0.21481495256835026
-0.05746363918814823
0.000833289957266514
0.16553863357482673
-0.10874117453271774
-0.03110765448431342
0.4887571133609764
-0.35103776071460047
0.7035051639731355
-0.3835591189145911
0.08070104887585665
0.2762254842094502
0.09198175125863778
-0.21172039813795726
0.3466324063465031
0.2639962761353983
0.30538645831951666
0.7522285233536654
0.49129330267076204
-0.26620438594104573
0.6385882487960896
-0.21347557851109994
-0.005490811436367152
0.36447837257980675
0.1499207232005043
0.03507048323566801
0.7884055559194608
-0.094567754811185
-0.3915993131130219
0.39721084881443564
0.43329674864253015
-0.09629997381561764
0.1860808987634163
0.24912735939614644
0.11375736289392022
0.19886031940057391
0.40629060204945094
0.0975870881961148
-0.06411521882948375
0.005436414977313937
0.3220192751649324
0.0057850300616263456
0.4711039791173865
0.023636975423574125
-0.08791697602764965
0.12318828494802055
0.007623405638610324
0.6001844696168266
-0.18889959091149283
0.2380153875157864
0.05685567298893195
-0.2759627761607732
0.3513654523444864
0.5970286602846533
0.05051417171480396
0.23182221508634848
0.2692212201988513
0.10261174722848976
-0.08
0.4018351628097379
-0.03817998029604827
-0.38996696516042834
0.37170129086128223
0.08192085681283559
-0.4175437534021758
0.3682881234298272
-0.33708918751396194
-0.07398851069636334
0.3238880984444764
-0.17624440523442358
-0.39940890293338044
0.33385202131241226
-0.22078793586534243
0.42319690343018895
0.5884967781540271
0.32196150092947307
0.5050304401610626
0.43320694474566945
0.0754177976069577
-0.16926778636368314
0.24665616977072866
0.3862667991066439
-0.41167731143323455
0.8790391887153064
-0.12370669476838292
0.14562369284280466
0.2053998162016639
0.3826316734692209
0.14082496277897086
0.9402929640947028
-0.15746274435998397
0.08972665529802099
0.3757571384834548
-0.20182861126778612
0.2559431814569949
0.40184168713663476
0.33587031392006006
-0.1375814351067635
0.8842128219093194
-0.3529762042888662
-0.27485262725977033
0.5329679402830051
-0.14446013050954568
-0.15966162587248486
0.12430973558188886
-0.41099292719571456
0.19220883839261438
0.6476647919302183
0.023781552190856446
-0.19528272021527926
0.24829148251100536
-0.4693535797820366
0.0535599278177748
0.365482107393067
-0.28538685269715225
0.5044942539772613
0.47689404097020954
0.5222668875662182
0.31857182641793264
0.25043240395317934
-0.11534904785742264
-0.2918173197097236
0.05865354992818379
-0.40318104770477103
0.02511996138297573
-0.827070196312818
0.30540585612181753
-0.33
-0.6599320804243545
-0.09661229838367097
-0.4955569183266997
-0.8760012992935043
0.2950138388121795
0.3355663127191441
-0.39023348785169665
-0.21187720367547286
-0.44933492297812505
-0.28810799794963
-0.3891014578802703
0.3112688621579714
-0.42442867941975004
0.046615438453753454
-0.39087837171950307
-0.6185740587103494
0.25290805162182695
0.3049426771629857
-1.0314991295072635
0.10001207353625303
0.11220898602251705
-0.6422241443940401
0.2934707795634974
-0.3446537777541899
-0.13255605487227404
0.010665453818438786
0.4388599092023851
-0.3955499026039588
-0.3698543854064516
-0.13474362008364119
-0.6807687565160387
-0.42103200220834536
-0.15815416838159357
-0.1161059132561909
0.397715702829759
-0.04028584278048366
-0.5472263263074063
0.33096779027986384
-0.08344087373128999
-0.40715271457008706
0.1240492094933515
-0.2827694265175729
-0.9096707286338397
-0.17410422365661213
-0.12756123834064656
-0.8388589235857139
-0.20012421688166437
-0.0906818031881747
-0.3485124475275807
-0.09735012809227025
0.19366677638083865
-0.12213246519793095
-0.1880786899909331
0.005463534060170966
-0.18725622438969491
0.33524831152149864
-0.19508576642260206
-0.01767083768487896
0.15621222529945536
-0.4404397145565387
-0.07966455311272562
-0.16644011113876106
-0.5360209157703363
-0.11873588415621056
-0.351787578881478
-0.05736697292286817
-0.5879220950632343
-0.037508648342047785
0.01
-0.39300272893472926
-0.15979498739342013
-0.14006805655598867
-0.3539867235560321
0.09125706378387131
0.1488971916345304
-0.9365872473716131
0.014892339408932616
-0.4079552263960894
-0.7874982185107825
0.2826557285787219
0.10152418409521717
-0.2586711959938765
-0.33565070442949035
-0.13948537032216543
-0.9144061361557037
-0.21890620985028103
-0.30293586847842163
-0.8000169437957251
-0.2998449040540036
0.036129504729782984
-0.2561097097844598
-0.40281751127347293
0.3346501569088076
-0.12039598409802683
-0.12705188913893034
0.3865408828783904
-0.5480305175722375
-0.4213080816343029
-0.09060050161038234
-0.18929110945525165
-0.5129061052625159
-0.18362450943699854
-0.2586412441351347
-0.2805319627560163
-0.28612463487846146
-0.6374016853185975
0.07072860386890896
0.16434510203655486
-0.7465110929754093
0.2893682746107047
0.3066398417564387
-0.05013008964607306
0.09069253156148506
-0.0001307441560232641
-0.7172882120793865
-0.04537876009274023
-0.2162466609886635
-0.02264409593762174
0.3560930405981359
-0.06463473895197296
-0.6366922988781615
0.3185293215019846
-0.12240509737491029
-0.33938159540959884
0.09898897645635958
-0.2981283964793464
-0.6816736250343723
-0.5829956948144315
-0.5342048545410298
-0.6761121356268103
0.1975192738396901
0.3513161795766175
-0.5030068397466569
0.1088929438418898