-0.2923966490694573
0.47
-0.9415748464808211
-0.8327177649339274
-0.43
-0.16125373061635467
-0.048643022533506
0.27
-0.8453284730167782
-0.44380987274579287
0.29
-0.10016162280448929
-0.6454262364927275
-0.18
-0.6185452590575528
-0.4015612947168341
0.01
-0.9724102008334484
-0.2536418946740058
0.09
-0.7703296008762743
-0.29565303975660434
-0.25
-0.9083184557936708
-0.012751132504352756
-0.25
-0.5412203630459294
-0.3069265489307398
0.1
-0.6470449466195404
-0.8010025007491646
0.47
-0.9129689948011137
-0.7096212536776904
-0.12
-0.614350241872588
-0.43806467819486744
0.0
-1.245906817355417
-0.14949833725735254
-0.1
-1.0544731582929292
-0.20837094966042413
0.2
-0.35560054588985973
-0.6464573473544967
0.16
-0.6675141481957825
0.00962214610899864
-0.35
-0.7135936416592787
0.15386061929890016
0.29
-0.367832114849183
-0.02430956607197186
-0.31
-0.4596619294783121
-0.5182371057535764
-0.43
-0.8857343897967018
-0.15366235624388194
-0.1
-0.2803091393063998
-0.6298261409685519
-0.23
-0.5341453545817259
-0.21493831266844998
0.38
-0.24903318288183063
-0.3244949896494611
-0.36
-1.2094765059008286
-0.20387080302597252
0.36
-0.6301006925243052
-0.13099296491844442
0.38
-0.862978530631838
-0.6957968154980291
0.37
-1.018174680052246
-0.07545911538963855
0.29
-0.7385123801606391
-0.6910855238510751
0.32
-0.47288597169920504
-0.08739478805704312
0.34
-0.3365767074932391
-0.21598835402747596
0.23
-1.0079831415228042
-0.21490030653517175
-0.09
-0.8490711890151104
-0.5277726732118125
0.15
-1.1961988223384603
-0.5102215410997429
0.2
-1.1837499544505428
-0.052121413734533786
0.29
-0.761850081815748
-0.31850843872768114
0.14
-0.985463056822594
0.20122592854356827
-0.01
-0.5551974240938492
-0.4508621790438569
-0.07
-0.543109316506425
-0.4242301142255276
0.02
-0.6297413813247533
-0.16001883662251035
-0.38
-0.5839526589277702
-0.07031342124796054
0.36
-0.5636580743023256
-0.8292743005161727
0.12
-0.9446971950341053
-0.44
-0.26
0.3
0.17
-0.29
-0.15
-0.39758479572938205
0.13
-1.0228446818426469
-0.28728878715459805
0.25
0.036859309582578874
-0.419657767054966
0.28
-1.0807717105170558
-0.5488095584802083
-0.5
-0.031619919091808744
-0.6058978112257478
-0.1
-0.6445316663462715
-0.11057292711002675
-0.14
-0.9498565504619952
-0.5455581814287515
-0.41
-0.43487129614326603
0.0927659747837819
-0.02
-0.2531954523558002
-0.5028681458748494
0.32
-1.0875613316971646
-0.5809998499340514
0.39
-0.739429627637968
-0.5512145661688257
0.43
-0.31921491140319413
-0.5573860778677017
-0.35
-0.7230433997043183
-0.2839233858084733
0.02
-0.10650609176354514
-0.250215999681604
0.11
-0.42021347789041086
-0.136694081332176
-0.31
-0.11373539623984241
-0.6792129225876062
-0.02
-0.721216554984413
-0.27633462593031854
-0.5
-0.5240948516417016
0.10598167651938871
-0.3
-0.8564111540914123
-0.5237600527456873
-0.4
-0.7066694248263344
-0.6706229661558645
0.01
-0.8698065114161557
-0.5579284359401198
0.28
-0.9425010416318997
-0.7348728620020083
-0.49
-0.48555661557000995
-0.292419386744414
-0.35
-0.9480100908276035
-0.3118047249926567
0.04
-0.41862475257935855
-0.6820447942003431
-0.2
-0.24838468337166783
-0.1708092605591102
-0.19
-0.6996202170129109
-0.1771308935347535
0.42
-0.40329858403726127
-0.7511962414247307
0.38
-0.5992332361472902
-0.1710310112446986
0.49
-0.3393984663273174
-0.6996165842032289
0.47
-0.4808128933687871
0.06341006601896955
-0.32
-0.34383954359098734
-0.2850466373599417
-0.45
-0.6753828402120771
-0.6037066961289366
0.19
-0.5367227814430882
-0.15320614468523736
0.07
-0.11722333288678162
-0.4911829097820331
-0.44
-0.12924656778998556
0.04728395991786815
0.38
-0.6777134374898872
-0.4884421053714253
0.19
-0.821987372200596
-0.34600152554545277
0.43
-0.314427952026564
-0.005361998656536386
0.03
-0.3950674789154779
0.10116412240075924
-0.44
-0.2615935999727778
-0.13284464396411744
0.28
-0.9175848336078982
-0.6030258725655504
0.01
-0.16740360500646434
0.41
0.44
0.43
-0.42
0.11
-0.3
-0.5202109108297079
-0.33
-0.5157364822336742
-0.6084353792560159
0.37
-0.5275120138073592
-0.1691164730378353
-0.24
-0.576830920025546
-0.4896836253260555
-0.06
-0.6862637677373183
0.09709330526286278
0.39
-0.7430406983262339
0.08441005088461188
-0.05
-1.1003574439479893
-0.5817178864769852
0.5
-0.7242295065863892
-0.6496812802317874
-0.33
-0.9962661128315855
0.1959619917215707
-0.34
-0.6319093847849481
-0.0741015439523153
0.27
-1.081845849111062
-0.2924929775574398
0.32
-1.0734544155059278
-0.520587004478718
0.32
-0.05536038858466558
-0.5420611389318764
-0.27
-0.9838862541314982
-0.6059685252143409
0.38
-1.179978867849033
-0.5306869866811604
-0.14
-0.8352604063822147
0.0704269340987418
-0.33
-1.0263743271621097
-0.16486442040293356
0.12
-1.1010829726604416
0.15655954422371168
-0.16
-0.8525069372870903
-0.606108430026209
0.44
-0.5098389630371732
0.03364798088944185
0.09
-1.3195953739528334
-0.10731770148203072
0.03
-0.6086296915813515
-0.831909481956931
-0.01
-0.3440379111064484
-0.09721007151135078
0.27
-0.3887373215520303
0.038240030801846056
0.26
-0.5441874238652302
-0.3457978205219801
0.38
-1.150149572541389
-0.2587757270436576
-0.28
-0.8671716660197203
0.11982330133346308
0.14
-0.7857706943968371
-0.8489493659828767
-0.21
-0.20699802708050746
-0.2528921970918238
-0.22
-1.0830551959715524
-0.2599453362471929
-0.39
-0.06600205681618933
-0.04346980050560018
0.08
-0.34247759255778243
-0.2903330011435457
0.05
-0.9356143919198354
0.015344107695375588
0.43
-0.7712915007587502
-0.6456706969064979
0.22
-1.320276696156873
-0.4932411587177753
0.34
-0.5427062343456063
-0.6931144296167963
0.22
-1.1728329634465755
-0.7050625054345945
-0.24
-0.6408848876287805
-0.25652080813949385
-0.29
-0.4994265849238875
-0.32958736012373624
0.19
-0.9963600329396408
-0.6375006485483146
-0.16
-0.4384467445150668
-0.5942836252758754
-0.35
-1.0116637677875018
-0.26521818162879396
-0.43
-0.5607292114345855
0.5
-0.33
0.07
-0.36
-0.09
0.23
-0.6337396821397772
0.23
-1.1124237097297929
-0.7565681586012786
-0.18
-0.23959523326828316
-0.4904165138872983
0.34
-1.3557468779822772
-0.20731408919535488
-0.13
-0.5588493026742085
-0.7190786873540698
-0.11
-0.6970847045154899
0.03712885371472591
-0.29
-0.8732922455842903
-0.5820210559688729
0.15
-0.4941423359006863
-0.5033140019711444
0.46
-0.7928493898984181
-0.5031104573889088
-0.35
-1.2430529344806567
0.21828145861517562
0.39
-0.4544448504847408
-0.47291233390715987
0.01
-0.17325105796240622
-1.0112765166640911
-0.42
-0.6748868752054681
-0.6496253489284232
0.19
-0.46653804294114287
0.1266840647346781
0.2
-1.0328474566042525
-0.3421746729349084
0.36
-0.5239887189346537
0.052384450297209784
-0.5
-0.7585478421667706
-0.027755522564150238
0.42
-0.7284078693054108
-0.4484659964669419
-0.33
-1.1576973954026317
-0.217103227669401
0.1
-0.27906016420016094
-0.07427990914923893
-0.26
-0.47188348272032676
-0.12257826167386773
-0.48
-0.5435851301956917
-0.046163690003015255
0.2
-0.13999970186654812
-0.4222948162791969
0.26
-1.0938685755903692
-0.6339256930443687
-0.38
-1.2322376988251924
-0.4769981397748407
-0.3
-0.579165252094718
-0.3653708751533308
-0.24
-0.8107925167162353
-0.3231245759838774
0.29
-0.6930388158856805
-0.6183407923075676
-0.49
-0.35782259956199053
0.09267762982246047
0.36
-0.6488410216920172
-0.22345381430600852
-0.5
-0.7427095775635482
-0.13371976704547403
0.09
-0.9024436248240879
-0.14264455980985954
-0.4
-0.7535188320597007
-0.24388210391316362
-0.46
-0.6622812879563955
0.09558931806879918
0.06
-0.6417527099383559
0.06219426394605145
0.16
-0.21835765581561542
-0.6213272889999719
0.42
-1.354836102869596
-0.18959082932963245
-0.37
-1.096572562539952
-0.0591468770953208
0.05
-0.6570165147742374
-0.32928445472400425
-0.33
-0.8568789371455601
-0.5050026623596994
0.25
-1.2011607295098794
-0.5774597830788343
-0.44
-0.9687036087907259
-0.4223222530784556
-0.29
-0.6238411387911055
0.36
-0.09
-0.29
-0.19
0.42
0.41
0.052950794105258575
-0.37
-0.6154378965925168
-0.46288972284554475
0.06
0.0004026203582846728
0.16875822627448572
0.29
-0.19124532876174163
-0.7335120100205278
0.4
-0.7389750924667297
-0.04254128589569607
0.07
-0.8799458165915607
0.01062213338495743
-0.09
-0.6531092358722129
-0.47719830765757154
-0.19
-0.45528879482968565
-0.613440461844868
0.31
-0.7690466406423895
-0.4022656496397031
-0.37
-0.5302214528475514
-0.6757308326505275
0.26
-0.9767562698367307
-0.4369912535841873
0.04
-0.9454958489030689
0.0541904919255462
0.07
-0.2666775944128032
-0.11402514944224373
-0.42
-0.5584619530450197
-0.605892083040069
-0.11
-0.6165950194471868
-0.5086905995543564
-0.21
-0.34379650293290187
0.0175621949404712
0.17
-0.15004929742772755
0.17548614213783809
0.18
-0.767973244625098
-0.1327074086708291
0.09
-0.6297796938164275
-0.4269827115178832
-0.01
-0.375504390969373
-0.2134384562820691
0.47
-0.5590486462051891
-0.6472322004375329
0.42
-0.9652549020497244
-0.21094045141148318
-0.33
-0.5615466510757771
-0.4225433630578233
0.31
-0.9199437394294324
-0.2947323527245036
-0.01
-0.9277547497627531
-0.28432251930667846
-0.48
-0.4081645831805769
0.010459227346142286
0.03
-0.4229463298333996
-0.41962104253735966
0.15
-0.7728660599498987
0.05898821895237814
-0.41
-0.1714753214396345
-0.6135171924373394
0.39
-0.45896991004992105
-0.7204084734596276
-0.36
-0.6620786290276296
-0.19504686979086508
-0.21
-0.3674402326963914
-0.24408256176867923
0.16
-0.05840454071857826
-0.6340732488594675
0.04
-0.78841385362779
-0.6201310656557447
-0.38
-0.09235603683151442
-0.2076025860496726
0.43
-0.6048845164375825
-0.5035942009110569
0.48
-0.788892901576201
-0.1478045460463451
-0.02
-0.9246825564409106
-0.43358414544106605
0.39
-0.37890295704619087
-0.6122652118190417
-0.43
-0.6802218906682166
-0.5957765858316223
-0.45
-0.12671051665563465
-0.11454911994416804
-0.35
-0.13793798254308876
-0.24770557427444778
0.06
-0.22478152821280833
0.44
0.45
-0.45
-0.1
0.19
0.04
-0.992496403707275
0.06
-0.92814548812386
-0.27926056561857265
-0.01
-0.6813813262125703
-0.1233398201534693
-0.04
-0.9073020716776665
0.05405672015830217
-0.34
-1.1146986119894422
-0.7298531360133993
0.06
-0.18078875581773898
-0.07389571837635617
-0.21
-0.7367461734547851
-0.3921178366890966
-0.01
-0.2585240551420437
-0.44920396977837995
-0.44
-0.7014379220527525
-0.8908587551803298
0.2
-0.6397831366508061
-0.31032752667839697
-0.02
-0.9403143651527387
0.00694512722045253
0.25
-1.4075870190516022
-0.2866410324928492
-0.32
-0.8840008593382813
0.07773771355682339
-0.22
-0.36837960538796266
-0.7225083691992121
0.11
-0.29813352263192455
-0.14878133227515866
-0.37
-1.081860559555976
-0.34340438841623
-0.14
-0.19723750341491103
-0.7141258989106666
-0.21
-1.0365159929204681
-0.8350594276185206
0.04
-0.6355824642126152
-0.5209550691025429
0.19
-0.5096868227285934
-0.7468260298633957
0.23
-0.06381586196774171
-0.03331874903849042
0.14
-0.8973231427926457
-0.5728429567387266
0.43
-0.2977989350924116
-0.8601272775177139
0.27
-0.570514614313422
-0.4896064462856093
0.12
-1.0810354455455402
-0.4970027998930111
-0.3
-0.37363909193812944
0.1557880045896414
0.04
-1.206429896420785
-0.7378916679966054
-0.31
-0.8327502238345303
0.22285974048700366
0.35
-1.1235016323181404
-0.10281989156407723
0.3
-0.0478220002670637
0.2012713815766311
-0.45
-0.8219132734077691
-0.4629065089864547
-0.13
-0.6377353828446821
-0.677866906852922
-0.34
-0.8727749849782139
-0.7986914882815979
-0.37
-0.28195040354954354
0.012367867987591756
0.04
-0.7230097598187287
-0.13002466949347544
-0.09
-0.2406172223376649
-0.7707856397241465
0.25
-0.6998562521069878
-0.6721582693712511
0.09
-0.9784836224598846
-0.5124911750121853
-0.41
-0.3381507168189509
-0.49315764108732757
-0.46
-0.35748425074381146
0.25412323268251513
0.13
-0.5347651245136498
-1.0487535190431692
0.14
-0.3718883727879714
-0.08510983116815486
0.09
-0.8855320606629815
-0.36
-0.02
-0.34
-0.02
0.33
-0.26
-0.38987547377182397
0.03
-0.8998769465243458
-0.8836936438185253
0.25
-0.5460587764776472
-0.4914496689946788
-0.02
-0.43830275130149066
-0.6739311085529347
0.47
-0.42582131174323595
0.00021386559449727938
-0.17
-0.3099662858906695
-0.11203538746408805
-0.44
-0.3677170328320821
-0.42282725894052836
0.03
-0.7269251613556458
-0.11109606340998399
-0.35
-0.38865635688618577
0.10657115467245877
0.48
-1.0963235749686382
-0.6295631881383079
0.15
-0.9101892321578677
-0.5953283172590358
0.09
-1.144424103037143
-0.3207960822985668
0.38
-0.30895633799760225
-0.06343457316736227
-0.22
-1.046317847128811
-0.1433485548079785
-0.06
-0.5764038654881947
0.07940944362169959
0.14
-0.2491618639178706
-0.03846924090947036
-0.49
-0.5512831793867047
-0.31327419351479713
-0.24
-0.45647822678137157
-0.35379990324529664
0.4
-1.30595251705087
-0.21938475722529885
-0.41
-0.7803676630708762
-0.6041431774386496
-0.47
-1.1956092428575311
-0.4697848869562827
0.29
-0.8399675333398926
-0.24545218713430275
-0.08
-0.8543002331618739
-0.6658984002410019
-0.39
-0.30385402005517
-0.33685115202885724
-0.04
-0.6229012682673134
-0.406675187743506
0.26
-0.693077232552664
-0.5964007506940312
-0.1
-1.0533516696021412
0.010043290313795474
-0.14
-0.43979571060996536
-0.6013934403742655
-0.11
-0.5083589799219032
-0.27167097238043264
-0.04
-0.7680814479157397
-0.1935065799656917
0.28
-0.10624584033047833
-0.41999557040013547
-0.06
-0.279756849896035
-0.5251718468888608
-0.27
-0.904580573407314
-0.40861425210910984
-0.25
-0.8611381681870633
-0.7068830876076018
-0.13
-0.8228693326885737
-0.4761789359477908
-0.19
-0.3135734843483798
-0.3326473419339187
-0.3
-0.5471050783622582
0.000531146598279817
0.12
-0.5802835668944538
0.0464363934228246
-0.07
-0.3961888137189959
-0.6920523840525573
-0.49
-1.0477000362436188
-0.11582840241333815
-0.04
-1.0839240178828489
-0.39635205171846094
0.02
-0.4434003685777068
-0.5517333982764141
0.21
-0.23801902201976055
-0.36
-0.09
0.47
-0.2
0.28
0.04
0.5515699547357132
0.17
0.31532778161315744
0.7920694402580043
0.47
0.6548282960908645
0.020372131929592127
-0.22
0.7165256044192714
0.18787546644860117
0.19
0.6490222699002702
-0.12173432898156071
-0.48
0.28863206533043145
0.12132891070148033
0.13
0.2055688256473913
0.7215784276297714
-0.07
0.19531930871910091
0.5370952929515304
-0.3
0.9098024433973364
0.46976517300923154
-0.49
0.3371325633396397
0.2582801443141723
-0.06
0.5186175920346945
0.1571232669286746
-0.11
0.5997744694201935
0.3354180509133165
0.42
0.7714796854355493
0.015465235824616761
-0.48
0.15143250052425405
0.39054117723805326
-0.11
0.7663565591108199
0.18534258494709663
0.16
0.931555151401772
0.6559156366437471
-0.37
0.9009820997051214
-0.10710905686237172
0.3
0.374006793211243
0.5211938096549281
-0.41
0.7257039266939386
-0.1230127776233919
0.29
0.1899105139722644
0.07501091404282813
0.09
0.6118868223060454
0.5159207296293493
0.46
0.5209770067195177
0.03224331978999454
0.19
0.06465441655887548
-0.0401115137763632
0.08
0.7870092501252334
-0.3233627670558466
0.12
0.7802605034047123
0.40205363955417195
0.28
0.08484409679470101
0.37689692886686194
-0.44
0.0900008074820084
0.16377680935321903
-0.25
0.7031209269956481
0.7420889182938964
-0.31
0.7948088180549722
0.6754212003694086
0.22
0.1814765359794591
0.8414273410048287
-0.33
0.5954703953440406
-0.18130876648546773
0.21
0.578206502834338
0.4559185361250026
0.44
0.17097920022386706
0.6283982618698734
0.46
0.22849947447899654
0.35821642818719657
-0.49
0.5186813081616716
0.15650196019159546
-0.08
0.8803957761572698
0.36462623219265566
-0.43
0.2822715041562134
-0.06035474081417799
0.09
0.08725247716304879
0.07232516924333311
-0.11
0.39457256710553534
0.02070195256617733
0.01
0.7261957837826901
0.4971400817269666
0.08
0.799757654621902
0.37617564632165845
0.13
0.8507220900272089
0.7228906052914921
0.43
0.5040071310573807
0.31
-0.4
-0.14
0.14
0.46
0.05
-0.28882839136490596
0.01
-0.8375743784817824
-0.6672483103986613
-0.12
-0.14915445944802896
-0.14861539201103224
0.01
-0.9277873778356623
-0.6886883505483277
0.17
-0.8977144192983694
-0.4116209740547477
-0.11
-0.33478179579194234
-0.5811737667125643
-0.11
-0.8652290031341323
-0.5774764142519938
-0.26
-0.6989263555947045
-0.0657742334550633
-0.21
-0.7006285363916347
0.12848657173511588
-0.35
-0.6448893415818086
-0.47148695090967574
0.2
-1.2349158189370264
-0.38802805010241864
0.01
-0.8783747197442763
-0.6117937128582837
-0.23
-0.18460905698841082
-0.2057995722519709
0.15
-1.110603197594725
-0.6616150998167049
-0.48
-1.1447876700300024
-0.19240907288598158
0.19
-0.3439936969607094
-0.2887670595940738
-0.28
-1.2276357102526163
0.15518909138178263
-0.48
-1.0115918612284844
0.12527274883573036
0.49
-1.1916755186824308
-0.16559177665825636
0.16
-0.7308109931884419
0.2082358563957934
-0.04
-0.9046386262424821
-0.5012675123586625
0.18
-0.9151352574880269
-0.6760245987864255
-0.21
-0.6203781710602719
-0.6969841155575629
0.31
-0.7594186542891344
-0.14926278656683656
0.23
-0.6071399832798613
-0.3489104827186397
-0.47
-0.4474922871280485
-0.3091116426460111
-0.18
-0.4872911272006794
-0.3741589357982437
0.43
-0.3622438340484452
-0.556050344850566
0.0
-0.9203524249961298
-0.493296285952928
0.41
-1.023106483893771
-0.24329922655084882
-0.25
-0.9331035432958448
-0.4893113657794342
-0.06
-1.0570914040672577
-0.7320968411412424
-0.19
-0.27430592870545334
-0.6391506903573652
-0.18
-0.5972520794893309
-0.6915528950882363
0.36
-0.41484987475845614
-0.09106604096502909
-0.09
-0.7553367288816631
-0.31106033226820246
-0.02
-1.055342437578486
0.20676717524432187
-0.16
-0.3931699450910102
-0.19178386462223984
0.22
-0.30461890522445007
-0.5786786021168193
0.42
-1.1177241677298826
0.09410405823038002
-0.29
-0.6805068280770756
-0.20953833786825948
0.45
-0.5968644319784383
-0.56106747866007
0.13
-0.5353352911866228
0.48
-0.16
-0.1
-0.25
0.29
0.09
0.11451860876983481
-0.36
-1.1823459746602878
-0.3030683750046618
-0.22
0.015241009114210155
0.24260701245706034
0.25
-0.4604343783475055
-0.6028336644796094
-0.48
-0.17499370141084206
-0.15352654465768314
0.09
-1.04430082123276
0.24838561937750592
-0.28
-1.0162129852679518
-1.0143722885562623
0.36
-0.24345507733418262
-0.15864053714499152
0.31
-1.169186828745464
-0.5360069889039352
0.43
-1.071820376986523
-0.2526712512837047
-0.28
-0.31515611460674275
-0.31702022182121875
0.37
-0.670807144069225
-0.4242967526043211
-0.24
-0.8035306132861255
-0.15557731419911025
0.15
-0.4822500516913381
0.07292799482634793
0.27
-0.5907553607167935
-0.3815208241883039
-0.22
-0.2663065417021404
-0.43623789930631857
0.18
-0.9915894665841298
-0.24005745301725798
0.49
-0.69776991287319
-0.5567614887897314
-0.12
-0.7410658771007147
-0.6960457781989152
0.05
-0.5717815876915321
-0.697604351328227
-0.14
-0.3702230145622211
-0.8812897561195989
-0.41
-0.8165376097708452
-0.2389912739346569
0.37
-0.50883609195579
-0.3593514262826638
0.06
-0.30847593960778324
-0.5207239515456622
-0.5
-0.677103414344783
-0.5182204701700039
0.21
-0.3196068957204469
-0.24076845562650429
0.41
-0.827058910263938
-0.4581998018588337
-0.37
-0.9896275640316105
-0.7554501593945071
-0.38
-0.4723772064959387
-0.40981224114112275
-0.26
-0.49801512474932247
-0.9262214157472731
0.49
-0.5516059501431716
-0.619363641745713
-0.34
-0.5884637241447356
-0.7934346612254224
0.48
-0.8843927046650225
-0.7052333998599177
0.25
-0.36259396603052696
0.05459186577500353
0.34
-0.5124192316654522
-0.3478562203877956
-0.03
-0.9899711455026474
-0.09955076133655207
-0.08
-0.5182766045538986
-0.7070200024034781
0.49
-0.8208073634869665
-0.45073967125815184
-0.43
-0.9470876946322927
-0.22407333520750544
-0.47
-1.1337540306829434
-0.6519907284937617
-0.04
-1.075836637396693
-0.2301123887642836
0.18
-0.7777149771261549
-0.7747079922971698
-0.46
-0.7131193735932734
0.19
-0.02
-0.5
0.25
-0.33
0.16
-0.5813150504972667
0.46
-0.43731365921600157
-0.7786509604356736
-0.13
-0.269977749277596
-0.4413174961461212
-0.46
-0.8773112135671434
-0.46284191534004027
0.4
-0.6957867943732281
-0.7162704143158274
-0.5
-0.7823582953974388
-0.633780366650436
-0.46
-0.7348483430628295
-0.5884226576227265
-0.33
-0.2402060520905376
-0.5274003697611448
-0.32
-0.9912283399521257
-0.45947082970090186
0.5
-0.33915788001236785
-0.34344955339318906
0.47
-0.9951791563200746
-0.5624867452386484
0.09
-0.4161419644746171
-0.8032238773465417
-0.18
-0.8754048323667243
-0.12950653952726524
0.12
-0.28912217018600206
0.050362738671694884
-0.06
-0.3589914483849624
-0.6468427530666777
0.2
-0.8817859566465877
-0.028731575185767657
0.45
-0.2598971345275004
-0.4537717927961436
0.41
-0.39485691691712543
-0.14870421833851266
-0.5
-0.7299244913747542
-0.02803282932561703
0.19
-0.040595880387649774
-0.28818478966779315
0.04
-0.690443920045476
-0.5234309718257568
-0.38
-0.9451977378875148
0.13982306638541808
-0.06
-0.20845177609868384
0.12848499563104437
-0.26
-0.637113705344309
-0.002643854666803677
0.48
-0.6359848550464644
-0.5544756233170917
-0.29
-0.41415308639617965
-0.6862006080872205
0.11
-0.9424281016260448
-0.2894487730582901
0.04
-0.25917993665497896
-0.3148040330945123
-0.42
-0.5438246766187588
-0.18281406580274692
0.4
-0.7558146439105186
0.10437757370260878
-0.1
-0.19300628341587653
-0.36145459437648897
0.3
-0.5971741153367828
-0.45214928378683594
0.1
-0.2764794259264345
-0.15369397411601515
-0.26
-0.5749347355972477
-0.7201524212404944
-0.31
-0.9084762884727713
0.13110888291084236
0.06
-0.619737592624107
-0.5342828104461372
-0.13
-0.22434589926712983
-0.2778366404365498
-0.3
-0.9107920692767212
0.14421559310774068
0.31
-0.9228443028210076
-0.5564841413640492
-0.37
-0.5621445683492209
0.1684893033709389
0.14
-0.8371180130842055
-0.15610287124279162
0.27
-0.23252583847047512
-0.19654184245286746
0.42
-0.3720868672604008
0.2
0.13
-0.16
-0.41
-0.07
-0.02
-0.47961967507231335
0.14
-1.0451726993102188
0.13986224145358006
-0.01
-0.5946546158361212
-0.5182811033716859
-0.35
-1.026511271010852
-0.43085251939158314
0.1
-0.9839398549909552
-0.5536671606691977
0.05
-1.0611252137133387
-0.8406535771333151
-0.2
-0.8541387972492233
-0.28458350450649533
0.24
-0.8202088698760442
-0.5273673432594634
-0.22
-0.6874250311230774
0.14290380479769238
0.4
-0.8576961791802368
-0.2826878563768278
-0.37
-0.1521045180057131
0.025271498733749273
0.14
-0.9400638731162996
-0.3870508164211052
-0.17
-0.8377415579614303
-0.690888097666374
0.27
-0.07390427671615957
-0.5144030790222935
0.48
-1.0603892953602407
-0.4910541723942678
-0.08
-1.1137382019882656
-0.5547268766361529
-0.17
-0.2500654977463873
-0.35599152522024
-0.18
-0.8088008491623018
-0.18592535214489334
-0.11
-0.578867022237649
-0.07040358228748554
0.12
-0.25438879209505527
0.23269024161632137
0.46
-0.49748261599886384
-0.23048389477441295
0.11
-0.6643084796081327
-0.6905760227009495
-0.39
-0.41421635168159127
-0.8120507608315094
0.19
-0.6627416135510282
-0.04021493286710566
-0.28
-0.2545774415154361
0.09394928800805433
-0.35
-0.3487416623905952
-0.28768125286703816
-0.15
-1.0071111215154984
0.10815898897427291
0.33
-0.9129513633568108
-0.6181511758784844
0.34
-0.5166411985040565
-0.6712631001268714
-0.14
-0.7635292742556673
-0.600099369592396
0.36
-0.4946930047901397
-0.39944872423547156
0.28
-0.8153436501470744
-0.6567891613970824
0.44
-0.5880032129854618
-0.24761659299004196
0.08
-0.5771757813924979
-0.3240666598328984
0.39
-0.7807257145496435
-0.327916674578145
0.4
-0.7268756998043971
-0.29066190253101654
0.12
-0.7441304718515236
-0.372898272728775
0.37
-0.8118941016537632
-0.2075399945609039
-0.07
-0.9972523798216366
-0.25794440597165313
0.34
-1.066847968410882
-0.424660279728858
-0.36
-1.0301320946536776
-0.48245212125654124
0.13
-0.522340253125995
0.028685871449848275
0.01
-0.1534782458323911
0.45
-0.04
-0.02
-0.17
0.39
-0.41
-0.17722265782940494
-0.47
-0.8555063617771222
-0.20156986766879412
0.42
-0.23115915193772824
-0.27927381853884226
0.36
-1.0034552010676854
-1.0006015329662594
-0.18
-0.1321274866402661
-0.5581462203737199
0.12
-0.36458279923280307
-0.033543922716888504
-0.19
-0.35918509688963257
-0.9556602959689535
0.22
-0.10706872363757149
-0.5170788755913154
-0.33
-1.1856501440151994
-0.1966772145851316
-0.07
-1.2960518050213872
-0.4824542652418886
-0.26
-0.6702747543646339
-0.5237231759452872
0.01
-0.779005843661241
-0.4690432131224546
-0.32
-0.4936858064840666
-0.44004907764647044
0.48
-1.062679941960049
-0.2202681146300126
0.47
-0.7224609049765162
-0.3849584638256553
-0.36
-0.7977705557808734
-0.19997935288655116
-0.48
-1.0027496667199778
-0.2213269450892725
0.4
-0.4314020745172517
-0.3226124105607922
0.2
-0.7401166090457373
-0.05249131900325883
0.11
-0.5702377006032636
-0.06193045109271298
-0.37
-0.7207985685138169
-0.07700155593919929
0.01
-0.19572746366732305
-0.6298731804486668
0.11
-0.5228558391578589
-0.48104203844521104
0.24
-1.0716869811613021
-0.6336861770598766
0.46
-0.6690428425466529
-0.3817848289027911
0.09
-0.6809441907037305
-0.7288984333510452
-0.44
-0.8638305862554855
-0.12949109398540468
-0.26
-1.0632379256211173
-0.4383571704348529
-0.11
-0.4843718491716679
-0.6865622097621633
0.07
-0.9761668098443675
-0.423264742836019
0.14
-0.6194642767705084
-0.10511429954052137
0.49
-0.9476147200660068
-0.782968449832264
-0.13
-0.4597605697742645
-0.15376057698585824
-0.1
-0.35896844262066363
-0.6263148256374317
-0.47
-0.4064141939690936
-0.09773415081668933
-0.04
-0.9649948687898404
-0.1595303698469426
0.04
-1.0031986497595875
0.11429239131779398
0.41
-0.9970214109243197
-0.00606591311749868
-0.05
-0.5466631064890242
-0.07253884219549685
0.27
-1.0901901774110219
-0.23032542078018955
-0.3
-0.4324035988263327
-0.08515611114851904
-0.17
-0.88757290845801
-0.052352576976075295
0.37
-0.560376442630449
0.04
0.49
0.21
0.39
-0.31
0.09
0.030186095973195968
-0.21
-0.7514986207667793
-0.7722007098475882
0.11
-0.529111814945993
-0.1878184654266782
0.39
-0.7434940593668934
-0.5900201715054445
0.19
-0.501292353288135
-0.3160620946914796
-0.23
-0.7852504301020993
-0.36480321061603727
0.28
-0.7665093141775419
-0.7388137015763637
0.11
-0.2024988232172199
-0.5491130657819641
-0.27
-0.7021994590116173
-0.027741110588604918
0.47
-0.8535714142049795
-0.3123031181244707
0.2
-0.46900940666910773
0.00016792936392380544
0.16
-0.4814804541575037
-0.6856984076214083
0.01
-0.7756141171721715
-0.29678997170799165
0.35
-0.7345225530855899
-0.18082365581058055
0.31
-0.3204888689829991
-0.46562562357121084
-0.2
-0.5056869012223683
-0.5497708525619293
0.39
-0.49154167223165335
-0.08864750027809647
-0.23
-0.812665024515487
-0.17624155026435134
-0.01
-0.2050709745292309
-0.5982177360640325
0.39
-0.3930947887295435
-0.10241604272811258
-0.29
-0.7088964820654708
0.15430026312568232
0.34
-0.7556127879192567
-0.05287619186305337
-0.47
-0.7984363329305261
-0.6336090869725877
0.19
-0.08770343782099525
-0.44464401281433785
-0.09
-0.5066685119792397
-0.07607172204406218
0.39
-0.6852408027495167
-0.42643482519098247
-0.43
-0.884877699602597
-0.37459451275080713
-0.47
-0.3467180120427725
-0.3947728446848667
-0.41
-0.9665396801087104
0.07311258927362499
-0.26
-0.13442511406720892
-0.24398667088914727
-0.18
-0.04732585390443517
-0.21479774917303457
-0.46
-0.8565147756205416
-0.25896402289718745
0.22
-0.232348501896395
-0.3330351549162219
-0.49
-0.9382773698773575
-0.43546990394669693
-0.15
-0.815842620846884
-0.48765345068192745
0.23
-0.31365907411165084
-0.06395950824325934
-0.04
-0.9273530165503201
0.13488754224578559
0.16
-0.5962000670393753
-0.6682749886859345
-0.22
-0.833037536107646
0.014450084218235227
-0.18
-0.6557626090118187
-0.5653216246730616
0.14
-0.405990900120524
-0.5695743307778548
0.41
-0.5117381940157218
-0.7505997553479362
-0.26
-0.8507127694456442
-0.05
-0.45
-0.07
0.07
0.19
-0.22
-0.36104444008205705
-0.19
-0.8808354495372666
-0.8079496930697523
-0.12
-0.603930196549573
0.26407027602892424
-0.5
-0.7559501656482474
-1.1349761641065101
-0.18
-0.18690372551281578
-0.049002533423993896
0.11
-0.44287735619533175
-0.14474735275272083
0.25
-0.987132536866602
-0.3905994334613399
0.47
-0.7112804561579831
-0.17825558598691701
0.3
-1.0236243036324109
-0.4425220274395532
-0.46
-0.6793578621797735
-0.4948776532943218
-0.13
-0.5070022363250027
-0.1506773544339378
-0.07
-0.48120253518538486
-0.57251929319184
-0.26
-0.9893605964274844
-0.6107510308726046
0.22
-0.7911288587467173
0.0023304864924943583
0.18
-0.5442103761118212
-0.17203233095094175
0.38
-0.43984755866838265
-0.48834442574861603
-0.12
-0.6735354638707072
-0.6633789330974795
0.04
-0.5585009565218455
-0.508784936389115
0.5
-0.7630949532302083
-0.04951210561238343
0.34
-0.43236778400694015
0.06878776761110723
-0.01
-0.9206676572304291
-0.5840714147434628
-0.12
-0.7978084748758597
-0.5882167276850419
0.0
-0.9236631619342811
-0.5837412855020641
-0.27
-0.26813860411726054
0.03278643808303908
-0.42
-0.9046663277023634
-0.8737671608243786
-0.44
-1.2181127287949283
-0.3670232527810066
-0.27
-0.6548566368383115
0.1633365318510705
0.41
-0.5352164214703962
-0.3931279193828977
-0.24
-0.7887519702364342
-0.5141587132681213
-0.35
-0.42772117635120094
-1.0093228352941725
0.06
-0.5925570543251516
-0.6562388726757173
-0.13
-0.9656410169436053
-0.5243689916707137
0.23
-1.017510897948609
-0.32420526259169674
0.18
-0.7276746270276226
-0.38766737269202783
-0.2
-0.8842125169272965
-0.021811744258537758
-0.42
-0.19006814536078404
-0.17343420008712104
-0.27
-0.3984456895322043
-0.6161217558286639
-0.39
-0.7857581337906584
-0.26566903279588083
-0.12
-0.4862108568234425
-0.7125107008453538
0.22
-0.7493691887739681
-0.1821783699984513
-0.13
-0.9697015196208698
-0.09449155022925584
-0.25
-0.3373883393900674
-0.8795603652899795
0.37
-0.842319524329343
-0.17
-0.06
0.15
-0.17
0.36
0.4
-0.10632575380662633
0.31
-1.1251318215226946
0.5017568527172813
0.14
-0.6132144280465965
-0.09160434114929389
0.11
-1.289853234180019
0.0226788710383503
-0.05
-1.0841364463676701
-0.9196348375776349
0.49
0.1281772622483179
-0.595657625035111
-0.42
-1.0657999502942157
-0.2765878267994844
0.35
-0.7048697485298308
-0.2809275325229633
0.33
0.21946995719364962
-0.23408635695483304
-0.15
-0.3673712183744775
-0.756752899025398
-0.35
-0.49470467630391646
0.5502636453440046
0.23
-1.211721220673316
-0.09126209589256451
-0.46
-1.1701954794367537
-0.37212047738837173
-0.14
-0.939337097940942
-0.20902620408560912
-0.16
-0.33243137124370525
-0.09097908502444102
-0.01
-0.7504784903048752
-0.3840274622071256
-0.49
-0.2874301131221864
-0.7456301518243647
-0.14
-0.5658274235049532
-0.6633100995188855
0.24
-0.7081474758104332
0.195022385055987
-0.33
-1.1264799603853075
-0.19141665554134946
-0.43
-0.510040919787966
-0.6364140514968918
-0.08
-0.18504352383241982
-0.012963104115054962
-0.38
-0.9084944712142587
-0.06797807005191793
0.23
-0.903479505277399
-0.7323641762868833
0.06
-0.2590933990424336
-0.440023841090552
0.35
-1.0314337342387703
0.04300504928050915
-0.14
-0.8744626246098262
-0.3979830668810756
0.49
-0.3634745084482374
-0.03932506735561378
-0.27
-0.36213250797369656
-0.08577553214263327
0.16
-0.995682043186685
-0.460106607963783
0.03
-0.3113509673655316
0.1006864791719029
-0.29
-0.4921440545012164
-0.4415627760357552
0.16
-0.809894799293558
-0.16104935183885394
0.24
-0.7004082234904627
-0.644722456098241
-0.41
-0.3767351192310691
-0.5982500111484672
0.33
-0.9432075641808494
0.14968128204388126
0.07
-0.9211388573731929
-0.3538820655778382
-0.33
-0.35757550975147306
0.09517149961706267
0.15
-0.29662907494637414
-0.5590975781211457
0.05
-0.7523599972081733
-0.038321478438707944
-0.48
-0.6931360968906062
-0.36574146859075346
0.2
-1.0357161067385643
-0.02317613484513741
-0.14
-0.41828144048417504
-0.25
-0.06
-0.28
0.44
0.19
-0.23
-0.10641668749582132
-0.43
-0.8848151043972807
-0.1794061469725895
-0.32
-0.20182564492051416
-0.16729296856184103
0.41
-1.1439388233312742
-0.9902899880429241
0.45
-0.14094180385018198
0.11011886421733087
-0.46
-0.9413506561104298
-0.045103331859894326
0.43
-0.6961284600332072
-0.9792769563597816
-0.04
-0.3519548355333186
-0.5300045966007707
0.36
-0.2712271952923276
0.24924281657175795
-0.23
-0.6304746084648564
-0.22108652040187762
-0.22
-0.6901452714912295
-0.4577767573744994
-0.01
-0.17345503451860333
-0.12452245819762732
0.1
-0.05670933369547621
-0.2515376612707762
0.19
-0.23969413062232808
-0.2161339079079849
0.19
-0.8650978839851143
-0.5776640205757658
-0.03
-0.7035677713173347
-0.31152800278189113
-0.41
-1.0697037891112315
-0.18968289456559165
-0.3
-1.061548897327526
-0.1652236635733277
-0.5
-1.026008128319789
-0.568834396520712
0.18
-0.3423973953723836
-0.32044658049355634
0.49
-1.2607852113995546
-0.44138716747612144
0.31
-0.7698446244169789
-0.1257108026727808
-0.16
-0.9455209892203252
0.09375184589876868
0.4
-0.9949836377918674
-0.02083556759320895
0.29
-0.8703962242998938
-0.6410084764581215
0.37
-0.28022331543498114
-0.11724195760826643
0.0
-0.7339898342848334
-0.541909618502346
0.1
-0.539322173390752
-0.8971470801372021
-0.01
-0.27408471175589905
-0.7318587023798518
-0.3
-0.37937308951324905
-0.34389754403822254
-0.49
-0.6973342478548806
-0.7333181552250161
0.05
-0.3379136366680805
-0.42349045030258325
0.46
-0.7677413415905217
-0.08785605698619259
0.12
-1.0033757349069157
-0.14179249261056645
0.12
-0.24943929928253716
-0.10900423407738415
0.1
-0.682227557815713
-0.11768487991964575
0.48
-0.9235469119734616
-0.31453150775988925
-0.11
-0.516700284133212
-0.9368570819748728
-0.22
-0.9443747099182287
0.061397039120318984
0.13
-1.092628831013445
-0.5851228626494539
-0.24
-0.8061089292436477
-0.6967801015872408
0.19
-1.1444516903058768
0.06025079709770539
-0.49
-0.581482588990803
0.46
-0.32
0.16
0.36
0.22
0.49
-0.542175904327827
0.33
-0.4371684737919744
-0.7313556720618347
-0.38
0.052011293942028886
-0.39990901371897636
0.14
-1.11943536440082
-0.2489660742143687
0.44
-0.7703783039054303
-0.012063352492711519
-0.09
-1.1572810256270905
0.1197685128637062
0.48
-1.0991128909835115
-0.936398331722209
-0.06
-0.5529460463975918
-0.8094299168428415
-0.12
-1.1999144612769714
-0.04459753751497596
-0.21
-0.9347468406048215
-0.34582896637061866
0.07
-0.7535154117491801
-0.25095168399000467
0.35
-0.5783926941297914
-0.3344663403223877
0.04
-0.8448780377974141
-0.3119716307010461
-0.21
-0.2973727474187574
-0.42193242378373896
-0.07
-0.4074119543360626
0.09044745988229558
0.24
-0.4297918380020985
-0.716159991765317
-0.23
-1.003184386354483
-0.28622993272058805
0.12
-0.8531144453992088
-0.2631185143788523
-0.1
-0.8262258637409472
-0.13995517013114303
-0.19
-0.549389207988655
0.03322814451341519
0.05
-0.8125725226332171
-0.47089975988620225
0.26
-1.0384446182335998
-0.4058278846816356
-0.16
-0.44351649343816657
-0.05409946182074907
-0.41
-0.5752449162990549
-0.6785690454875191
0.05
-0.9507753326322794
-0.6126246767622987
-0.26
-0.6667197013574994
-0.8431674820545205
-0.08
-0.4561768960652808
0.08236953634587436
0.01
-0.9017139144656794
-0.8792138416704841
-0.09
-0.980130536449315
-0.6158111249724018
-0.01
-0.7335332531473967
-0.8727752188522304
0.33
-0.48656915926757155
-0.7041524282915103
-0.37
-0.7051919498282898
-0.2635730870864353
0.41
-0.35577129103336813
-0.5436124340237428
0.22
-0.40573194409606256
-0.45747974737815317
0.27
-0.5618646307416513
-0.16502843622089702
-0.06
-0.5743159418989082
0.18873104596003454
-0.34
-0.6480754240798329
0.10385555053692333
-0.31
-1.0831999286567435
-0.5385042588656935
-0.37
-0.8008401192541034
-0.6434160703151888
-0.35
-0.8359283078046101
-0.7265297958415485
-0.39
-0.5628145822782518
-0.36607753970385487
-0.34
-0.7332668384159415
-0.4700209818980931
0.2
-0.8293233962217057
-0.29
0.37
-0.32
-0.1
0.23
0.46
0.14271342993095573
0.38
-0.33187265675966293
-0.7119250067290869
0.08
-0.7072342200996176
-0.1705863264267577
0.02
-0.9985729004019454
-0.9401057756706669
0.08
-0.5290534511580378
-0.27425225894740146
0.36
-0.9249069678813068
-0.6414560155026222
0.08
-0.4277032113260847
-0.363845774863352
0.1
-0.4553134519653567
-0.5719535192171549
0.18
-0.8272057076115484
0.2516716878852662
0.09
-0.7808309147139694
-0.7935252890042906
0.29
-1.2956339378244208
-0.36691235382055293
0.27
-1.0822468730081505
-0.48538629442318637
-0.06
-0.12377293240552109
0.051351004316245535
-0.09
-1.0805102311449453
-0.709333283579669
-0.22
-1.24982594324903
-0.3315131506822676
0.0
-0.4376460761464416
-0.34401849340950413
-0.33
-1.0651407334191914
-0.4764022689061309
-0.36
-0.8327569579225756
-0.534330044790837
0.33
-0.7448291820378677
-0.2149552515605699
0.43
-0.4542039752681397
-0.5164022928350718
0.39
-1.1927569339936288
-0.6888192603212074
-0.42
-0.6603399665074972
-0.34313318516505087
-0.23
-0.636026041663654
-0.23435175756113966
0.19
-0.7348074692675702
-0.19552749896236668
0.27
-1.2636317278663334
-0.1231357165908021
-0.16
-0.6960235102379014
-0.31218372226657504
0.31
-0.5069755045621335
0.08621352471969713
-0.1
-0.9153727515484016
-0.20565316570345132
0.43
-0.40350606112525533
-0.08548887282149271
0.06
-0.4536703540072156
-0.45401738318352414
0.41
-0.47514184364518464
-0.268103326959067
0.31
-0.9910558998696366
-0.5962731386878314
-0.21
-0.9228860881408746
-0.02265011029446488
-0.07
-0.7565091165342409
0.07836085195507717
0.01
-0.36752007878378334
0.02309083587363818
0.28
-0.7622500627023454
0.028095124624054824
-0.23
-0.467254351452765
-0.4749219480563198
-0.06
-1.1942372787723818
-0.4165969740638594
0.47
-0.35256225276484804
-0.026921665888595157
0.33
-0.3022375609401128
-0.5766738619779362
0.5
-0.5124853648507719
-0.24511433376937472
0.06
-0.9740448930593302
-0.26635376003092853
0.32
-0.2728054667977805
-0.35
-0.04
-0.47
0.03
0.22
-0.23
-0.44424661726620185
-0.48
-0.16650239862934718
-0.9755173432664942
0.36
-0.015231672629050334
-0.3883899226084579
0.27
-0.2823590932870893
-0.3224189931826894
0.42
-0.2583300227128566
-0.3086627190632473
-0.1
-0.9620862968322971
-0.08469729049476421
-0.14
-0.4660517254007842
-0.5296801303994074
-0.19
-0.8810688854961461
-0.15660535374776138
-0.46
-0.16414366214778486
0.045413165677806754
0.07
-0.39616218157335137
-0.5029382174985357
0.32
-0.9578107983970092
-0.29802721504495233
-0.14
-0.6527218008505973
-0.24744880802026226
-0.18
-0.2933002078752862
0.2258802805908696
0.37
-0.3366292964864188
0.2639755744570669
0.04
-0.20472459035261414
-0.030877760119485738
0.2
-0.4898712557760656
-0.1501304421440883
-0.29
-1.0606185737514704
-0.3162348860597065
-0.25
-0.6245141298358458
-0.031695700323897555
0.3
-0.5390533155716478
-0.19878548230428794
0.22
-0.521963533591259
-0.5177455780939336
0.18
-1.1830034378016219
-0.19189282685810466
0.29
-0.6088561890374486
-0.6869809087840972
0.5
-0.3937681071114489
-0.0018701239428384317
-0.24
-0.10887889195270953
-0.4303677214101636
0.37
-0.8903812944853879
-0.21445908600789299
-0.02
-0.9262899298876597
-0.189005170340411
0.05
-0.12174384555513593
-0.4930677036643141
-0.03
-0.8276813122312349
-0.39147542024595905
0.21
-0.9292735956495899
-0.33601874428368533
0.42
-0.26473027161185947
-0.6495490686286438
0.09
-0.7111999472669082
-0.8008808405458372
-0.32
-0.9798681753497139
-0.6922752984530374
0.41
-0.7184737174425134
-0.14414323892710315
0.08
-0.5866057769684442
0.0270274558562369
0.2
-0.8577764717517834
-0.5003685999037831
-0.03
-0.21038041599176563
-0.42918396433546846
0.35
-0.7615650515600806
-0.06499097195496452
-0.07
-0.2857580439405831
-0.6490879850998201
-0.28
-0.9616610307957312
-0.12150705684998797
0.32
-1.0092419590455661
0.14950240175220406
-0.21
-0.3802514176477504
-0.6398458438124991
-0.39
-0.7209031720830517
0.14245807596901056
-0.04
-0.5832070918645612
-0.14
-0.09
-0.15
0.4
-0.18
0.16
-0.6978465299637447
-0.39
-0.9874285284759836
-0.15405828119819376
0.19
-0.641216777241531
0.05542526747114604
0.08
-0.800700325910876
-0.43484210610413887
0.38
-0.6504329523355904
-0.1796786408677881
-0.33
-0.44559641757193924
-0.21395569616850657
-0.31
-0.49131936227121953
-0.09631361700957503
-0.2
-0.608961441430152
-0.5337525226167007
-0.5
-0.7815225358230286
-0.22145867875857292
-0.28
-0.38381637968115423
-0.054527431360695565
-0.39
-0.5207476270790345
-0.44839394606574173
-0.27
-0.7568811123739881
-0.10946232938665793
-0.34
-0.5358127290530683
0.12988110133932879
-0.39
-1.015156159779043
-0.6736743494058375
0.18
-1.1316007090338862
-0.6701685423064383
0.17
-1.0151065161332815
-0.29079228546298586
-0.25
-0.7144827729767373
-0.20120116154493847
-0.09
-1.0540738968947874
-0.10527638400686644
0.3
-0.30999867443286344
-0.28539213283466397
-0.16
-0.8698829256050632
-0.19823234469112716
0.14
-1.147042713748594
0.050445796702133346
-0.34
-0.12572085514185885
-0.1808900725944496
0.46
-0.9143849858452799
0.07141039642253376
-0.39
-0.3866854548622611
0.0002066806743965145
0.37
-0.825481739114123
-0.5302771556822692
-0.22
-0.6649979027574565
-0.6840086988137594
-0.32
-0.9412663596259686
-0.6355708255455915
-0.09
-0.7797042328941366
-0.7220514291431746
0.29
-0.9132236292965532
-0.6326418504510436
0.16
-1.0126332079886837
-0.6218458718385305
0.0
-0.6934291866011971
-0.2309359939269323
-0.15
-0.8843390645127988
-0.31079505927014445
-0.39
-0.3944799991695839
0.11287243441709688
-0.38
-0.8681474928568222
-0.7088589686839958
0.14
-0.5364160897557285
-0.8266369877328792
-0.2
-0.9886380707068488
0.10794377336739427
0.19
-0.7532188318071181
-0.6696792747896925
-0.01
-0.7455957836500358
-0.3936258373221403
-0.31
-0.4216492211175869
-0.3658457549926957
0.12
-0.33942930344703215
-0.2726943158988889
-0.23
-0.922580742540839
-0.5429492601379597
0.42
-0.4723257983017678
-0.4912660316970008
-0.11
-0.5040090267427257
0.12
0.03
0.45
0.45
0.14
-0.21
-0.11223556484698001
-0.03
-0.27741283488616564
-0.8941383271441117
-0.05
-0.6955100725890282
0.03079426242949016
0.36
-1.2304426621626274
-0.25913758852608654
0.22
-0.25051081120705887
-0.5491776242298393
0.08
-0.8704707755033027
-0.5021070562893298
-0.27
-1.187541343443809
-0.24779809608651923
-0.12
-0.16185030364662528
-0.15025524005809673
0.31
-0.6193931596750435
-0.5497173876628081
0.41
-0.7199310120703356
-0.10823612293720736
0.07
-0.4614122767959423
-0.7575040304111057
-0.09
-0.4721443693220408
-0.24939031121792157
0.33
-0.9002580885152226
-0.23413805901821713
-0.29
-0.9355103407149291
-0.3821597524724681
-0.5
-0.6274886472606794
-0.3712342506084732
-0.06
-1.118414149124664
-0.670940756468124
-0.07
-1.148707643265007
-0.11817695754518963
0.24
-1.2014714421879513
-0.05112425782076536
0.15
-0.6485241419123766
-0.6238475450612977
0.31
-0.5058008546718485
-0.3239347882202711
-0.22
-1.2357136115128613
-0.6851697651145714
0.28
-0.2644786346185731
-0.586557557654547
-0.27
-0.6830908420785939
-0.1467342941677197
0.11
-0.5729141055654222
0.16720390487746314
0.26
-0.33685230461060994
-0.4718462183362921
-0.19
-0.7678021813968562
-0.2750525627590191
-0.25
-0.8645958369741262
-0.5090348608208054
-0.28
-0.6306135389123404
-0.7837142896410315
0.1
-0.22593411009211373
-0.0940146098735484
-0.28
-0.4456337898595996
-0.20556730157317807
0.23
-0.724081098159963
-0.6487810734190511
-0.12
-0.3908673263140916
-0.619766576740017
0.16
-0.9798818229931235
-0.005054088176507067
0.08
-0.2445943115566388
-0.7206704775439422
-0.4
-0.30897792218919645
-0.11480828364397648
0.21
-0.8948401160891641
-0.2068618768019308
0.2
-0.73278652293121
-0.3955499616268116
0.37
-1.0840984381063328
-0.13796888700275722
-0.28
-0.1416795127303878
0.002937712766331301
0.35
-0.8025861124994701
-0.5687507541079163
0.43
-0.3208976456252287
-0.5921761404342859
0.21
-1.047472259298861
-0.33350514540782383
-0.4
-0.8761432543253175
-0.14
0.13
-0.16
0.42
0.31
0.11
-0.3334066048462825
0.12
-0.7187524533426812
-1.0773941825855324
0.36
-0.5347648756034342
0.1168911666363767
0.24
-1.0590502248253373
-0.5693963309433051
0.43
-0.07276272724566668
-0.2107836488976961
0.29
-0.4813754092912749
-0.5828897315188486
-0.44
-0.4492693266701176
-0.7254038278310451
0.31
-0.39675523035792226
0.08893223199018338
0.4
-0.3110912901791533
-0.6262230104428088
-0.09
-1.1859360477461536
-0.15452021911333744
0.14
-1.0676388390756357
-0.8501527285351022
0.05
-0.5020063296538667
-0.4177981664303433
-0.36
-0.5043608917586274
-0.0040235216438392766
-0.48
-0.8981355365451222
-0.27341683676419576
-0.22
-0.518742221424774
-0.5826149331480732
-0.01
-0.6095441250408923
-0.19059305772772991
-0.24
-0.6815660004612356
-0.5134523966541688
-0.29
-0.7387066615347943
0.06387355289016863
-0.4
-1.1860326110791461
-0.891647500439801
-0.15
-0.6705115577491619
-0.33967024823220066
0.4
-0.55248880995677
-0.7136884544840519
-0.07
-0.4884706037049187
-0.11082020850730637
-0.43
-0.3613388496816671
-0.07513938089875871
0.37
-0.24701967729021157
-0.19230090032725894
-0.29
-1.0098581578617107
-0.2062640208734256
0.32
-0.2658950373155445
-0.7617797726001797
0.09
-0.43037928558879046
-0.20000567232612063
-0.43
-0.35215338586284844
-0.36332414024330706
-0.04
-0.2288349179456619
0.030377636606580362
0.5
-0.20253669479554973
-0.7243642221114567
0.18
-0.7977948360775066
-0.3413011190906662
0.22
-0.5608579390983047
-0.2631978858735248
-0.36
-0.08896117231544458
-0.427508912822055
-0.11
-0.724650145366913
-0.6205136073962955
-0.34
-1.0616454507926691
-0.19202492239530042
0.35
-0.3501341357936698
-0.09323819113064377
-0.27
-0.7489208670583217
-0.6184157791744594
-0.3
-1.2337432790145237
-0.19834285951378017
-0.4
-0.5938161986751854
-0.7007930317035824
0.37
-1.161366026485383
-0.5400402703993632
0.33
-0.6921187877895999
-0.5463723590850844
0.01
-0.44578669910388247
-0.4123401825709432
0.26
-0.18981887561802616
-0.21
0.37
0.35
-0.09
-0.23
-0.27
-0.4583724406382987
0.09
-0.3992131299856352
-1.0599682045005732
-0.01
-0.8376173661233544
0.07969894141055428
-0.4
-0.6472845120344879
-0.6399639932864694
0.36
-0.1076215773374645
-0.14536497166701057
-0.42
-1.1322205989569174
-0.2948666305382567
-0.41
-1.2027189400856784
-0.4971360979156429
-0.11
-0.4404494727082908
-0.32785222049862656
0.36
-0.6897333501253091
-0.31202562803250783
0.03
-1.2955599425914108
-0.3720345172734609
-0.49
-0.735551053350464
-0.6401013386686408
0.18
-1.1174842319552891
-0.49414864277911963
-0.33
-0.6334369278448118
-0.0030558840436208205
-0.02
-1.0845296865803136
-0.5520179239782388
0.08
-0.875567646645694
0.1155602246467024
0.41
-0.8831457952706391
0.1430479969038604
0.32
-0.8706335675277946
-0.0638698128080488
-0.09
-0.45371575781588375
-0.4511694127717456
-0.16
-0.3864161578521864
-0.6496696811961158
-0.1
-0.287915889427821
-0.2146611486226827
-0.03
-0.43292442200124914
-0.3524946673618896
-0.09
-0.795090903262045
-0.5180666061645163
0.15
-0.8395189644594154
-0.06273330659327818
-0.5
-0.7848522640306547
-0.6102522583681538
0.21
-0.7873333122557777
-0.6057933188122184
0.24
-1.0317922518117029
-0.7855820454384443
0.2
-0.5720035251854884
0.0771097938421679
0.13
-0.8846953644661066
-0.3337211667574079
-0.06
-0.7638644038665219
0.08214496189667116
-0.44
-0.8397305325206043
-0.6249977869130182
-0.28
-0.8625877837109154
0.02124043164156493
0.24
-0.9288260022654967
-0.26439302387802477
-0.46
-0.9131925467459076
-0.48800650605916723
-0.29
-1.049579064564774
0.20249915120396322
0.41
-0.540084721827896
-0.30815092785048714
-0.21
-0.6194346427734421
-0.2627561028990169
0.19
-0.7348294677249159
0.0796753943871978
-0.28
-0.5872609650111306
-0.5686795382820371
0.48
-0.578906032341896
-0.45072813962369873
0.42
-0.5568574310002355
-0.2568682522954697
0.21
-0.5207173183284665
0.016890663838040162
0.06
-1.1144762344619752
-0.33051568242380674
0.33
-0.40706988820012735
0.03
-0.23
-0.15
-0.21
0.42
0.35
-0.06536093791413895
-0.07
-0.9428920657576664
-0.962309710682984
0.42
-0.46594329298883125
-0.03682283701754665
0.25
-0.9614301666542596
-0.42170106403025925
-0.24
-0.6265519396415575
-0.42471240517469794
0.26
-0.7135405984971134
-0.1514282410428686
0.47
-0.41682476262894874
-0.29781644808153157
-0.4
-0.4204365555902892
-0.29367320802800584
-0.24
-0.37457979564381483
-0.1759738243783095
0.33
-1.1022791792934947
-0.7555439508128725
-0.08
-0.8927090528589322
0.01114834284599995
0.18
-0.3194013465178194
-0.29268502117915574
-0.16
-0.8155679824926589
-0.12399744319486833
-0.27
-0.924255560476938
-0.34415089593415327
0.03
-1.0641021077376571
-0.24654233525054103
-0.19
-0.9217106684212649
0.1148710583120971
0.18
-0.5431240619839091
-0.4494511683905761
0.42
-1.058801835281244
-0.11459985148669766
0.45
-0.49365315218512057
-0.16445921829483312
0.38
-0.4737937853769855
-0.2143355163008061
0.1
-0.5439174873710049
-0.1715737635434876
0.04
-0.9366792401283174
-0.6578846264488911
0.43
-0.26036837722292144
-0.5862629761001873
0.38
-0.31199002757162714
-0.1825185880746744
-0.41
-0.9857344155971398
-0.6857055730256173
0.26
-0.31254743064619606
-0.5326650052477947
-0.49
-0.7755879984240122
-0.3229656976640923
-0.41
-0.4652873060077278
0.009699516041417125
-0.07
-0.907952519713224
-0.3304922840828733
-0.5
-0.417760719588947
-0.7613636525333735
0.32
-0.6068893511384335
-0.6548576769446749
0.34
-0.9433953267271304
-0.11922498707488897
0.36
-0.7890280165969229
-0.8116431290475543
0.4
-0.43660987462425893
-0.6874878541267259
0.45
-0.500765149545088
-0.7396506782173192
0.42
-0.4786023254544927
0.2181945582498493
-0.5
-0.8064475619216631
-0.44263870532602945
-0.27
-1.1356142983457873
0.002204611720285337
0.22
-0.2504576153920998
-0.6159630821901078
-0.27
-0.7922899214816982
-0.5555594410886304
-0.1
-0.822693562583174
-0.36051450821055264
0.48
-0.5377384954612646
-0.7161558816314821
-0.18
-0.26209712204033814
-0.45
-0.13
-0.18
0.04
0.5
-0.31
0.038985783585041914
0.02
-0.6976991971402943
-0.252738156518062
-0.18
0.054024742962807695
0.1294125680144405
-0.03
-0.9781259815696945
-0.9508675563004005
-0.31
-0.6678458572548545
-0.545816923564057
-0.4
-0.9028964899911982
0.1731602302806414
0.13
-0.9218736438358993
-0.373478543847149
0.4
-0.575234869708107
0.012064354950110533
0.36
-1.01077776850537
-0.13999433198449185
-0.27
-0.5987190815707647
-0.021405009138003993
-0.18
-0.9473084044172537
-0.6632232982301657
-0.49
-0.7454901153250895
-0.8106520062456433
0.2
-0.21806140730961496
-0.6077635680658751
0.1
-0.7909498454893813
-0.5473412573340697
0.46
-0.7013721562211852
-0.4881580597734468
0.34
-0.9405553537818145
-0.6251688095783723
0.22
-0.31354460397688305
-0.20895767215114838
0.31
-0.8597557414041084
-0.16747186194662533
-0.23
-1.231241551608631
0.05437930925520919
0.22
-0.10309272281046307
0.029179372262958435
0.17
-0.47789278581821326
-0.5889753723354229
0.43
-0.38973804121982886
-0.6585652454348245
0.37
-0.2201481681204323
-0.06340412599766357
-0.3
-0.16530928755759086
0.01917632093890028
0.44
-0.5278897344941469
0.03955471694542024
0.43
-0.378268130500672
-0.7644601134064816
0.29
-0.6742533001487726
-0.2906602503667608
0.09
-1.0480531631884897
-0.6823851323870893
-0.49
-0.396328281168163
-0.0013401957377065172
-0.14
-0.5473732178175433
-0.12186647785678889
0.37
-0.486846935698464
0.12602733597994872
-0.05
-0.6147407495352066
-0.24156975568470743
0.43
-0.6171436578705449
-0.022007902926039345
0.13
-0.33670551062921616
-0.7657532046995612
0.38
-1.1229602088556911
-0.7791559924366444
-0.27
-0.9595574211186114
-0.009525499831046417
-0.18
-0.789187913724213
0.04334342952490712
-0.42
-0.6820568430801676
-0.271649011283828
-0.06
-0.5570644022714226
-0.333929542831831
-0.49
-0.28478387072342487
-0.7053304676342502
0.24
-0.7533829459210062
0.03989112230836344
0.35
-0.6286045358636164
-0.32530297754478693
-0.17
-0.7834104360104661
-0.18
-0.12
-0.02
-0.23
-0.37
0.43
-0.47818772507513624
0.07
-1.1332881222263096
-0.16290836683181467
-0.17
-0.6785674804696117
-0.48262062612992873
0.23
-1.1488552211715122
-0.9821887430239988
0.4
-0.8192871042774291
-0.013827471895394362
-0.18
-0.8276483754060328
-0.2586738669463538
-0.31
-0.7228019803550714
-0.4964767511034018
-0.15
-0.5949990961980243
-0.7260519772903592
-0.29
-0.3354238700110667
0.2634328016923963
-0.5
-1.1849086489938299
-0.3359008766845698
0.23
-1.1655749706168759
-0.6769012003209733
0.5
-0.25457464698045906
-0.27142532113802986
0.21
-0.330050526163396
-0.3811418375367162
-0.31
-0.8203340097647093
0.06875674886653002
0.22
-0.5302325961679583
-0.47384177734257743
-0.04
-0.7876340699588459
0.08089581556018423
0.41
-0.9723716628616098
-0.15254583329161275
-0.49
-0.5389300140098144
-0.2249351725993029
-0.15
-1.1665406747021374
-0.448441614466937
-0.4
-0.30303423283448677
-0.6357215742513611
-0.24
-0.5757542730500644
-0.7803259338747557
0.3
-0.46114991342666906
-0.7107967813822685
-0.16
-0.7206790659191602
-0.7227112289493132
-0.35
-0.9287646183521148
-0.3917559948683929
-0.43
-0.8597198524330327
-0.8144642281683464
-0.11
-0.6870116191330834
-0.46427156226723343
0.42
-0.22720428503419313
-0.6293817765234772
-0.09
-1.1020940707779634
-0.3556240272784406
0.05
-0.9358518200229824
-0.2953559296379322
0.0
-0.36611991766349183
-0.04059675975607085
-0.19
-0.47087908754535523
-0.07976387752620462
0.24
-1.0617119697752333
-0.2126540913045639
-0.18
-0.9288217559968657
0.08391003390996626
0.19
-0.9253858812113936
-0.19584229292522407
0.06
-0.9156335543762015
0.008353090981242707
0.42
-0.3998289382826678
-0.25612902391176817
-0.21
-1.1253468233896777
-0.06211051331838442
0.31
-0.42936533398304216
-0.2600977754502803
-0.16
-0.8013780718511461
-0.6192508542797104
-0.1
-0.5122249930217179
-0.28090671023940006
0.23
-1.100569137062032
0.0013300575328750368
0.08
-0.7928059048343048
-0.19914804663377025
0.38
-0.7223278006676582
-0.26
0.06
-0.08
-0.02
-0.32
0.25
-0.009884410416296199
-0.13
-1.0418941608527974
-0.32291511568733045
0.0
-0.5088634555817741
0.026802216434457148
-0.41
-0.9685807877035547
-0.030426259102394562
0.47
-0.1213523121667016
-0.3686686180276348
0.34
-0.8131099532414708
-0.6712932985473703
0.49
-0.4004852727217289
-0.7971303969866046
-0.13
-0.7646481742824991
-0.2871395918234101
0.34
-0.7346389794456909
0.017160698780451667
-0.26
-1.028939270049549
-0.4824121183642618
-0.49
-0.6993664529048428
-0.2909585515717889
-0.04
-0.4408200196973147
-0.8695804090382439
-0.35
-0.3521981622308513
0.045827369631546586
-0.2
-0.4576059409006483
-0.3531040828057642
-0.26
-0.8786744884633435
-0.14899943700867746
0.36
-0.9727791342604255
0.07497860612490108
-0.31
-0.9367571773940023
-0.3057105958165221
-0.22
-0.866067975452581
-0.03680890852416752
0.31
-0.7049696627449347
-0.6094723363553098
-0.08
-0.8323062349137937
-0.6676992985411789
-0.4
-0.7340792727279257
-0.7193131144663817
-0.12
-0.3024654568027167
-0.7290627542801689
0.48
-0.9827158169889346
-0.31553939094967537
-0.34
-0.5262391803194318
-0.406088959384315
0.4
-0.32568961188478585
-0.7951289161998288
-0.32
-1.0666496550692617
-0.2582161147805433
-0.48
-0.8635624564885559
-0.14202084434239726
-0.17
-0.2597577269267011
-0.1995437777727981
-0.43
-0.7822347934963101
-0.28368303684972074
0.08
-0.5580955344193828
-0.522900148289829
0.33
-0.8088784229792749
-0.7320881991950392
0.45
-0.40969037207406567
-0.33641619789374605
0.05
-0.33536237337535696
-0.4464370147461144
0.31
-1.0053415565229924
-0.3137805832442064
0.2
-0.8679979880248989
-0.06447387493749299
0.03
-0.99730469633161
-0.33142388030647335
0.45
-0.49035469096263035
0.03349696118943807
0.39
-0.7252755324585433
-0.584183718035882
-0.35
-0.5575948532332258
-0.49323102407459785
-0.22
-0.2185475471945005
-0.45520765513148315
0.47
-0.27657091613761575
-0.37129875014499253
0.39
-1.0404798211241097
-0.35561995971082844
0.24
-0.6761586115582746
0.17
0.07
0.09
-0.47
0.26
-0.42
0.5709868349868448
0.04
0.944162619507756
1.0119812872204939
-0.42
0.5731681672741065
0.3070369488035182
0.01
0.5581125056910851
0.15897569545531942
0.31
0.05617375903927821
-0.2603410696741906
-0.22
0.8554905241687925
-0.008938918195159453
-0.17
0.844088372689759
0.12388694660507996
-0.41
0.39126250788952205
0.3102144867227947
0.44
0.7349349677718127
-0.21750531632310566
0.24
1.1826547708177126
0.025204534981049898
-0.36
0.9199449195135492
0.21135246668770633
0.33
0.6537969878068893
0.635595547077879
-0.34
0.1595539074167261
0.017163985963293504
-0.21
1.1879854685313005
0.2755254654218986
0.19
0.3696239890727052
0.19287994128146907
0.19
0.5122695132131317
0.43729888179063736
0.22
0.4078505727039658
-0.2224384214587613
-0.45
0.3975878759533645
0.2771733008504736
0.44
1.1779761536441096
0.12367178044471608
0.39
0.4514776740498843
0.4162610192222108
-0.41
0.6188884352723911
0.40250440517453734
-0.47
0.3626450493200664
0.2909407873229433
0.08
0.984208667171661
0.29560033533197216
-0.18
1.0795491191626219
0.07472444170841229
0.03
0.4504250127861915
0.6917163203340109
0.34
1.003433134160589
0.4227831928913101
0.46
0.5423662616032866
0.6209200421982778
0.05
0.3742294122963249
0.6895125293603153
0.48
0.35563692513429057
0.26032360004743044
0.25
0.9948258544471702
0.3422589549127345
-0.12
0.14289049958186442
-0.12658067457327823
0.46
0.7017301290678811
0.6730740237798702
-0.27
0.7020754307147311
0.0007031832569292798
-0.43
0.29444627123767136
0.33572804583832233
-0.3
0.7694214086562843
0.5295966328411373
-0.46
0.485552821653465
0.09673925809094146
0.26
0.91841019640366
-0.044885672008149025
0.39
1.0000351265027496
0.6176527865113691
-0.02
0.8474966679832319
-0.18252477429570996
-0.23
0.34767422879031257
0.22045032895458608
0.04
0.7846991255400152
0.23150932115058928
-0.17
0.34364013334401233
0.39169096591486485
0.45
0.573458488579739
0.29
-0.28
0.38
-0.15
-0.37
0.14
-0.1342205259123489
-0.48
-0.5524193711791885
-0.42043139636881843
-0.23
-0.6562085007227193
-0.4541152079778398
0.22
-0.5025246891136961
-0.8569808584143853
-0.34
-0.32965903867715596
-0.7902430925824034
-0.37
-1.0863968045091326
-0.1425322846102077
-0.19
-0.5141076124813305
-0.5625471541032434
0.11
-0.16409274298829415
-0.25267634008382994
0.0
-0.7739635570077101
-0.641819036456137
-0.27
-0.834820860635397
-0.1655444223674369
-0.24
-1.1110954747241046
-0.3569624054574071
-0.45
-1.0496774916341316
-0.424810603966792
-0.42
-0.3218292931247478
-0.7141754224855303
0.29
-1.2524644746060178
-0.17371251546730104
0.13
-0.9629273816242389
-0.7680705124269142
0.41
-1.0485693846646158
-0.29745683134051965
-0.37
-0.3291830657510211
-0.3712895233113621
-0.03
-0.5953503737801711
-0.23198699883257212
0.2
-1.0046528982589713
-0.8462831325931982
-0.17
-0.2703567644983422
-0.28996574784689705
0.12
-0.9066741492446407
-0.18042671776186078
0.31
-0.5462131793296747
-0.26190872163576817
0.39
-0.8347311754557656
-0.5407348344227793
0.26
-0.725905062668758
-0.5255804364608536
-0.39
-0.4410594606306786
-0.4815222738666917
0.46
-0.8351176232248452
-0.8168192288879711
-0.5
-0.3698206682035678
-0.07904106248749294
-0.42
-0.5675988346040426
-0.45509966561995396
-0.19
-0.701540231471578
-0.7438036310207882
0.11
-0.8928362660707463
-0.6027333529192584
0.24
-0.49390654417227786
-0.22357079989685943
-0.29
-0.47306909719468004
-0.1918363962171674
0.39
-0.7948035008743657
-0.8323124979290812
-0.29
-1.194327399162476
-0.719689334405152
0.07
-1.086950562686376
-0.8111453793436849
-0.02
-0.5854945177478487
-0.05723489499110618
0.13
-0.4494050021004304
-0.44651133500741347
-0.12
-0.3801285620841257
-0.30158835630756703
-0.06
-0.6150515407839676
0.033429419676803684
-0.27
-0.7200693167683393
-0.007363934323895798
-0.5
-0.90927596276764
-0.5677107485121754
-0.5
-0.5889291485793561
-0.4063319151593303
0.09
-0.6703079819322009
-0.45
-0.31
-0.38
0.5
-0.45
-0.2
-0.04231433294514495
0.17
-0.8326160631216394
-0.42633217556362024
0.4
-0.31859822050317005
0.18893815553776186
0.2
-1.203868551604553
-0.207884693212793
0.28
-0.6970457028539931
0.049504650155150966
-0.42
-0.5244350462219406
-0.45729907998546176
0.4
-0.897631316081327
-0.6248952380901226
0.41
-0.020035157976666964
-0.23302316600022827
0.2
-1.0719072300665553
0.01961751427089658
-0.24
-0.7245479103376861
-0.05525993788616875
-0.5
-0.7996704581806158
-0.6905638755156819
-0.1
-0.564366520551107
-0.583416595730277
0.13
-0.41151380033650664
0.11637846531503547
-0.16
-0.5113088613818257
-0.5572841761242671
-0.3
-0.6376462199425145
-0.5820451406117014
0.32
-0.5728852554550841
-0.22304915703342948
-0.44
-0.9918812390333586
-0.24368903874636988
0.05
-1.0712413573204222
-0.43337129222874593
0.21
-0.6615591038380377
-0.74631647611879
0.05
-0.11861391994800029
-0.39864966278059744
0.0
-0.93628073328619
-0.4503087576627278
0.17
-0.6946216384040568
0.0010781631277471872
-0.42
-0.8560085591945381
-0.03860582357103438
0.18
-0.8263245724957503
-0.4967659436277415
0.08
-0.5881644524390399
0.059975312799138404
-0.2
-0.7749057088659335
-0.8314970159822361
0.24
-0.31343338008455296
-0.46061574531838256
0.46
-0.914314650748402
-0.5909976301514439
0.26
-0.18393276591534383
-0.7825553157790899
0.0
-1.202375080287703
-0.736862269095548
0.4
-0.6980681269712374
-0.005792206400353902
-0.28
-0.8291381896664342
-0.49371488343000836
0.02
-0.6212155126367793
-0.035398752400624046
-0.11
-0.5595316436661628
-0.01003655227341391
-0.12
-0.8348938437933735
-0.5641202193630174
-0.42
-0.850810176703769
-0.03901059167615593
0.02
-1.1459198043906342
-0.6787140539167559
-0.35
-0.8062163421500307
-0.5025043079305163
0.22
-0.2724260881362749
-0.26167008794584123
-0.1
-0.32326030812095063
-0.6389581364881423
0.08
-1.0959722595786445
-0.5126508794533807
-0.42
-0.38227951661340703
-0.8139125788046999
0.23
-1.121017817262094
0.02
0.12
0.04
-0.25
0.03
0.12
0.6960224986813242
0.16
0.7033679309275058
0.044230295813549064
0.09
0.5051601337952807
0.004469953836614394
-0.16
0.9649204757722093
0.04435188507760716
0.03
-0.12496145546877496
0.4009587593917426
-0.32
0.6484316702170836
0.23215472774593307
0.15
0.9872357018628951
0.6811014413274473
-0.44
0.658288988281382
-0.14227493875278047
0.16
0.16166536836161347
-0.00943008927374864
-0.07
1.0588205188825714
0.25391973727700956
0.37
0.7554706923318226
0.6790580937537203
0.06
0.29033233585511337
0.13371489830573244
0.05
-0.03432446869689784
0.6157857364270942
0.16
0.7236046931817363
-0.2548313078345733
0.46
0.26422173744340055
0.2944594782079898
0.43
0.5149309514008408
0.3188566950993949
0.27
0.9005337345094334
0.2461226571094697
0.04
0.7832677724993621
0.32084120821445467
-0.45
0.36854922139437446
0.4889916932901205
0.14
0.2903987363187103
-0.020303992961078595
0.18
0.3696944225699102
0.770453210233184
-0.25
0.9189372193756449
0.5681073930714445
0.22
0.991283036537385
-0.11862370343155997
-0.28
0.1980141330403929
-0.003902117625751414
-0.18
1.0332925472345804
0.6846141263822675
0.44
0.2747763032265618
0.4364846200760799
-0.39
0.842905809532746
0.3584770343137555
0.42
0.7309133952950786
0.4586782801045131
0.33
0.43071214950431547
0.49540661298355143
0.24
0.9839838166252813
0.02507823790998267
0.31
0.2943121916988498
0.6990542772336188
-0.07
0.5803361523752099
0.7415295171952471
0.04
0.5678609124135825
0.550758028384254
0.47
0.458632401224571
0.10379068578630402
-0.15
0.8055997438225275
0.4250275299169709
0.46
0.8943628996918589
0.5299133173577903
0.46
0.9494771122510405
0.5791898546535983
0.31
0.980200574955231
0.8058750505864865
-0.29
0.6635153790223415
0.5170081139282289
-0.06
0.9023823156806001
0.5317935719603254
0.38
0.6575968576485034
-0.17330750343386112
0.24
0.35269793304269115
0.20707738049788266
0.17
0.06231304911094926
-0.23
0.24
-0.18
-0.31
0.35
-0.28
-0.15913040843204118
-0.4
-0.7695625574681862
-0.44682519058915987
-0.26
-0.6718677753110658
-0.03823847391494091
-0.03
-0.7704544919852858
-0.9620558510594129
0.42
-0.28663711484081145
-0.5579999667052288
-0.35
-0.7206929991950017
-0.2498206334205556
-0.34
-0.49887233247966395
-0.8651182386798495
-0.13
-0.2835747272203764
-0.3841598779535517
-0.46
-0.7145330879466733
0.1063093145694709
0.24
-1.0550022804696886
-0.2252793507121688
0.0
-0.7634136151880505
-0.43947761924792383
0.15
-0.9892153466522978
-0.9986796475208274
0.15
-0.5000133183793902
-0.6549937869194575
0.38
-0.6236991789807705
-0.3360384530393398
0.12
-1.1626545128608743
-0.6038384014382608
-0.28
-0.7648545644619696
-0.4443804983128478
-0.19
-0.9843124675873779
-0.019737313901265728
-0.38
-0.4889556519989529
-0.6946455196162851
0.43
-1.4240474462839372
-0.5888076625205838
-0.34
-0.2398853033796327
-0.07107218648566915
-0.34
-0.5276207794145565
-0.7967096221853027
0.07
-0.8419833437149278
-0.41579092390887434
0.02
-0.442902041991344
-0.24810146261307342
-0.08
-0.390591503287141
-0.27960829955951266
-0.5
-0.6290846663407176
-0.7413537415511103
0.47
-1.177339224349106
-0.24282732462107454
0.46
-0.24586564127913862
0.09499169447171929
0.15
-0.5836846603719424
-0.5287805149381372
0.01
-0.5799124509620917
-0.5099250459831529
0.0
-0.8287679199170727
-1.0094745054961825
0.44
-0.6792184604040361
-0.21219268525258433
-0.43
-0.6565002806476409
-0.5579035306295984
-0.16
-0.43078943527062663
-0.3038778027065243
-0.15
-0.6348151631937047
-0.771044877730886
0.32
-1.0176480881693275
-0.5530290312875945
-0.37
-0.6156639346126368
-0.07004262755689669
0.02
-0.938650338343329
-0.23576270556550655
-0.05
-0.6629302603347231
-0.2114110793827509
-0.26
-0.6772818865174786
-0.5753992072076607
0.4
-0.7232937586925697
-0.26735373794024186
0.15
-1.0213392279599671
0.07019865362421704
-0.25
-0.5488916195244414
-0.7590816423909766
0.2
-0.6996113235092546
0.42
0.17
0.0
-0.41
-0.1
-0.24
-0.28142132041575757
-0.27
-1.28428435823335
-0.793857349384991
-0.31
-0.7218483292641208
0.28419500813330667
-0.45
-1.1399006867824266
-1.050821130965365
0.4
-0.2648845476837499
0.05045210045523757
-0.27
-0.996157779104352
0.0026979890977388388
-0.41
-0.4684036677468535
-0.44195409587480594
0.42
-0.683751582774307
0.07593888990461058
0.03
-0.6716445685537205
-0.5443729512797251
0.05
-0.6713327273693886
-0.4264842758317038
-0.41
-0.9792214028174075
-0.8052751011911912
-0.27
-0.6104305774579224
-0.3762615304016159
0.22
-0.38944414824749585
-0.6075062409957934
-0.09
-1.2181994376533172
0.09213157951705163
-0.22
-0.457837258166161
-0.789398165247242
0.18
-0.9763075134018703
0.06549389623811107
-0.28
-0.5011995748872234
-0.028020377632703083
-0.35
-1.3476853010164058
-0.30228336029851977
0.27
-1.2034223183505917
-0.5798453437559022
0.19
-0.5358603348932087
0.1380845579439794
-0.02
-0.3737902365930943
-0.43363261039698087
-0.09
-0.36207306825213054
-0.4895062745573879
-0.31
-0.4761994040917236
-0.3900407780011039
-0.16
-0.3856649006480078
-0.4938722844230878
0.03
-1.3118333942260283
-0.026663898424102047
0.42
-0.35904178022501176
-0.9115423483343186
-0.24
-0.17416333031479733
-0.6772549363393252
-0.05
-0.5084507423097937
-0.4462599804445991
0.04
-0.24944569820451173
-0.42461017436055437
0.03
-0.7810955042885581
-0.7821063495025528
-0.35
-0.53359932914656
0.05490014961589729
0.32
-0.6906058282650127
-0.7439003467449533
-0.15
-0.9018053319041595
-0.28760132149357587
0.2
-0.7281043571555379
-0.5695179575060473
-0.09
-1.0861877211430693
-0.3607726055031911
-0.43
-0.4249330731459205
-0.7105425245515952
0.35
-0.565163154097516
-0.633681483201941
0.14
-0.5520241954471697
-0.42860756386385884
-0.08
-0.5570981147852503
0.0504635751309625
0.0
-0.9661692537800745
-0.5943899495243367
-0.21
-0.4313157291247794
-0.549131026188443
0.31
-0.6665746524606722
-0.5758480749923955
-0.25
-0.3698576036567196
0.31
-0.42
-0.14
-0.45
0.15
-0.39
-0.12691600850722196
-0.02
-0.5737414946330521
-0.31093269792841544
0.44
-0.6297248052118571
0.3563171804106112
0.27
-0.3669746835508798
-0.198157355134341
-0.18
-0.7425001480059312
0.003867700709475647
-0.11
-0.6445252038497447
-0.16959533055093046
-0.48
-0.431062172589338
-0.6818347682776222
-0.3
-0.808822734862647
-0.3585682071258486
0.06
-0.5120892960144212
-0.2505557363077792
-0.4
-1.080101766832489
0.1426556768951493
0.02
-0.37331318003541925
-0.5146022949980916
0.34
-0.4760552081421767
-0.5058128381810338
-0.15
-0.31484466495923896
-0.2051562294762345
-0.12
-0.4355012736640333
-0.19939096956249466
-0.35
-0.2812665335777755
-0.002830267084582551
0.5
-0.5278272360556849
-0.38757685306925077
-0.35
-0.4330806500710171
-0.00599102577460752
-0.5
-0.5046664773656622
-0.2870923671876493
-0.03
-0.8435651359526168
-0.8071269774056428
-0.5
-0.7435305257346264
-0.5500322171808377
-0.17
-0.33062528595942775
-0.8177294994407425
-0.19
-0.572928003699527
-0.6880360334472144
-0.04
-0.9226214696930538
-0.4983196982771425
-0.05
-0.5523378048631297
0.17979974167227292
-0.31
-0.3004572448125456
-0.6506821737352965
0.41
-0.8999753294049713
-0.041505768230482326
0.27
-0.15915173490978674
-0.48128136759363604
0.25
-0.9893761355466331
-0.08086811256118706
-0.36
-0.48978939057907916
-0.502810696724819
0.47
-0.827846806415447
-0.2651836508676365
0.12
-0.7054738522726337
-0.346524566524089
-0.18
-0.7541329366161836
-0.42759495750364424
-0.04
-0.2330625456366265
-0.6742190855596709
0.33
-0.3264384175805995
-0.5538609852345087
0.39
-1.1167965179057642
0.03374583185865894
0.29
-0.8144033349989255
-0.21049170198348532
-0.32
-0.21016580115678574
-0.09200593309470136
0.25
-0.9486515700455618
-0.7739861711419701
0.17
-1.0466713319983036
-0.5738066256599452
0.37
-0.6568508774803242
-0.36770297404299523
0.11
-0.2629545290972747
-0.7376404231781096
0.34
-1.063017079962159
-0.3481155818585128
0.24
-0.9025419212817571
-0.35
0.33
0.16
-0.15
0.47
-0.45
-0.36688197123424027
0.27
-0.6832559606209557
-0.8620302064412477
0.25
-0.48810772541395336
-0.3220191329462166
-0.23
-0.9181187989089777
-0.5007984888164455
-0.39
-0.8293394430387486
-0.7172036421577179
0.4
-0.9029342896974795
-0.20865474794048672
0.25
-1.081483183914708
-0.14678099553822022
-0.34
-0.4933569363169745
-0.0661754837360329
-0.3
-0.6339624481191676
-0.07936353209751644
-0.04
-0.850774399757679
-0.6418889992677056
0.01
-0.8882489325874905
-0.4566367173179692
-0.48
-0.6935012145372258
-0.48823160863366755
-0.44
-0.5419063232215288
-0.7047060418602359
0.48
-0.17543188999495907
-0.6202265383357627
0.0
-0.6799113935194359
-0.8065064723521079
0.08
-1.1536314595030805
-0.07923867934219599
-0.16
-0.8208992525129968
-0.7170792628970472
0.01
-0.7230586689581509
-0.23051289764590407
-0.42
-0.4296250342092895
0.12629112645022317
0.36
-0.346429058305419
0.10506398058782648
0.09
-1.0352019124430272
-0.322822599149684
0.02
-0.37731533270551154
-0.17641064343215898
-0.14
-0.5537272884230386
-0.0013814618072073845
0.22
-0.5187564700479891
0.13226004907231473
0.48
-0.7623979809275101
-0.3601540491164307
0.4
-0.11998388273876337
-0.26379557105437734
0.48
-0.6063423608008262
-0.049209034974087
0.48
-0.790928896881109
-0.6989873306092548
0.45
-1.2311506012459505
-0.7830865174637043
0.15
-1.0070514143914908
-0.5681061551691363
0.23
-0.5720317766860628
-0.6578644808805447
-0.15
-0.762273450974653
-0.09976014191187206
0.39
-0.7403777899433249
-0.08251807245895455
0.28
-0.9576198593962437
-0.1696241491660414
0.33
-0.8105137826891539
-0.7065281093815473
0.11
-0.9936098224736488
-0.10955297111300479
-0.13
-0.2705849607421882
-0.1588457839982609
0.17
-0.25129214785693366
-0.66387448777777
-0.05
-0.6662634440774274
-0.09216386780228995
0.4
-0.3779740640529049
0.0872714414873534
-0.01
-0.3774093733425497
-0.6409504527231552
-0.11
-1.1691874791320351
-0.4107996045360566
-0.11
-1.0693383273191293
-0.06
0.49
-0.18
-0.23
-0.04
-0.35
-0.47039305052430985
0.23
-0.8193285134855539
-0.2453312530441763
0.03
-0.3143903109656867
0.21791558146984616
-0.43
-0.9876371454797173
-0.17404703732115015
-0.43
-0.7856745266887172
-0.3481522510574032
0.2
-0.6015693129524642
-0.30296912438150175
-0.23
-0.6067524396283644
-0.7344441844059998
0.5
-0.595277379603864
-0.3074094911660924
0.08
-0.5223120728437705
-0.07469771036875893
-0.08
-0.30502385364110607
-0.09325067984905713
0.43
-0.9164708841608136
0.09676111379108321
0.47
-0.9864826778009562
-0.6654953254691549
-0.02
-0.40422623854070966
-0.164467577777775
0.14
-0.9652539862320916
-0.055117270813207386
0.27
-1.1146042931966693
-0.6033573704828561
-0.43
-0.4063641935270024
-0.10403866062397318
0.03
-1.1256829033858973
0.1836116151892698
-0.17
-0.7033331791991377
0.0635113302538393
-0.41
-0.5232328942637059
-0.8180519462488935
0.39
-0.7616696177609769
-0.6807742006165701
-0.14
-1.2089473633933
-0.4910612873569049
0.07
-0.3986602766529553
-0.5565356301282535
-0.2
-0.24318593388161136
-0.0674515338641445
0.21
-0.5222700301457253
0.07872781712599143
0.23
-0.958449381135865
-0.2876986279134547
-0.41
-0.9920229360964151
-0.10715088600964054
-0.09
-0.18257067800022755
-0.3258642435962962
-0.48
-0.39385732041356447
-0.1444164941856112
0.48
-0.13530506982425647
-0.03471851007001841
-0.17
-0.15500305393984842
-0.4174741788531972
0.38
-0.5022473851566648
-0.6340599980973863
0.26
-0.4856615659124836
-0.20492768904122916
-0.11
-0.9647938749686398
-0.5456009023096502
0.34
-0.514120661700213
-0.29788181198395725
-0.06
-0.9618397520259082
-0.8006700619306304
-0.2
-0.9090515020792403
-0.6686312341230274
0.11
-0.701090329886842
-0.5960069849071666
-0.1
-0.8637145791027034
-0.7426822764947543
0.36
-1.0070392875151128
-0.3443588877480294
0.48
-0.425362676261832
-0.41672885280145655
0.21
-0.9329927112084123
-0.4241255301788106
-0.12
-0.9555960338310532
-0.17918881051858146
0.02
-0.7805327534912886
0.46
0.28
0.06
-0.1
-0.07
-0.3
-0.09867677950272771
0.27
-0.8181153239692667
-0.17696461366249847
0.33
-0.559827489809499
0.31452172531022066
-0.41
-0.3813138287822061
-0.9397289763236603
0.32
-0.1370631271483326
-0.698310392088296
-0.16
-1.058481711383691
-0.23325596669884924
-0.06
-0.6335361367731409
-0.896951864453017
0.3
-0.2298402390189666
-0.07789927991289364
-0.31
-0.35889282355909136
-0.56306362848544
0.36
-0.5537284749865534
-0.3625532452218711
-0.44
-0.6242388582501179
-0.4745626966183483
0.2
-0.31222940685363937
-0.6405354930242559
-0.33
-0.7162566104477357
-0.7293032047898417
-0.08
-1.1474888986821632
0.14422152051066633
-0.35
-0.9810136239826556
-0.46665339577687326
0.46
-0.6001387076951212
-0.6849679962610332
0.13
-0.9718241072109582
-0.5868170838988096
-0.47
-1.0099750195731798
-0.2954697438014304
0.1
-0.3213223596705559
-0.3490205876299565
-0.18
-0.6377715158420325
-0.4656012378588522
0.18
-1.0711908656131237
-0.33023912158815083
-0.46
-0.7465529818838375
-0.030623707514022082
0.11
-0.8561683959579683
-0.5186306854293973
-0.27
-0.5781614180425967
-0.6482252276812088
-0.15
-0.7685668757907835
-0.26345782071218093
-0.29
-0.6933342827598055
-0.8718423374607953
-0.33
-0.3949497660111952
-0.17508371163449396
0.5
-0.5017083918374923
-0.09896589070465697
0.42
-0.2078262127673325
-0.15650333209722547
0.5
-1.0502887713747682
-0.6180455820551548
0.0
-0.17874652141683522
-0.19100569251266758
-0.04
-0.8057864109593251
-0.5737947839260594
0.15
-0.7829973195459341
-0.36200410444913544
-0.36
-0.29478799902285113
-0.5768764225953723
0.3
-0.6599156808766191
-0.18580424904321244
-0.12
-0.6409878544287797
-0.573005999440067
-0.49
-0.36378610403192285
-0.2974349445138662
0.32
-0.8193571589581212
-0.12430910572996098
-0.08
-0.5224829977420304
-0.7171489356769039
-0.38
-0.6996431677950884
-0.21755155809185633
-0.08
-0.24924054538013218
-0.6069027315325766
-0.12
-0.37988937193940897
-0.19347703650959502
0.03
-0.7133150669623959
-0.15
0.11
-0.35
0.45
-0.17
-0.21
-0.4739059011910262
0.16
-0.7133820046907324
-0.7238267355052577
-0.43
-0.7134611703764927
0.011419067662983125
-0.07
-0.38870697354474093
-0.27002993652805346
-0.04
-0.5172579693537035
-0.44530162169300974
0.12
-0.5719862841887448
-0.5961976606972765
-0.08
-0.6710902451844761
-0.28146706171151986
0.12
-0.9258208441702307
-0.050497195036863826
-0.47
-0.5767907108448909
0.010542333984665881
-0.38
-0.49783023986642155
-0.5191093916728944
-0.02
-1.2381785142088726
-0.6370668573126452
0.28
-0.20022104856911338
-0.3656650661173197
0.43
-0.04162283976444053
0.052282083341706594
0.23
-0.35956998922346484
-0.4764094107488223
0.46
-1.2508784951329357
-0.2705083562543383
-0.07
-0.7167795496274161
-0.6308906372744857
-0.08
-1.056397268607276
-0.634462120358248
0.47
-0.5328257855235083
-0.06011558130249574
-0.28
-1.2171723245792672
-0.43999113239773174
-0.03
-0.2872967734840259
0.0926741620223601
0.13
-0.889962067904113
-0.6794132993895309
0.1
-1.0778746064922287
-0.28247825657573444
0.2
-0.614809649306019
-0.6953668080009894
0.05
-0.981921097880761
-0.30184236488651767
0.08
-1.1454455409952413
-0.24472431230731345
-0.41
-0.5125635935744475
-0.5051900254426238
0.45
-0.7620978804391297
-0.12007072193493296
0.08
-1.1572171839468168
-0.46114276874534926
-0.03
-0.7661451371364066
-0.7457724658944879
0.0
-0.40151543998727274
-0.2732778622360171
-0.45
-0.3140100436457393
-0.31408926581049507
-0.21
-0.4531986400712622
-0.22933615730632004
0.04
-0.9579517485754335
-0.7012990393619402
-0.42
-0.6659888665198118
-0.5418062464548131
0.18
-0.7954816594269392
-0.5355364768935887
-0.36
-1.1817514289881705
0.054639297589918555
0.02
-0.8519272034716748
-0.7487057090194402
-0.29
-0.7985821968623111
-0.5502167546152351
0.26
-0.3570711512665202
-0.609715610940149
-0.21
-1.167572294941607
-0.6456029659459809
0.23
-0.7916849399357706
-0.015607311319863525
-0.12
-0.24168059456189578
-0.021098664660229027
-0.44
-0.34618924122152916
0.02
0.19
-0.05
0.1
0.1
-0.41
-0.7056281403629645
0.22
-0.41846982659467746
-0.3759228276378229
0.4
-0.32817513931982273
0.24237236745401694
0.44
-0.47647033441166187
-0.9272917663181687
0.0
-0.736806200639474
-0.6140151183114262
-0.35
-0.9400828486462154
0.1630316820282016
0.3
-0.8471296489858502
-0.26888450796847874
0.12
-0.6752134589891694
-0.07682651045004321
-0.19
-0.307271456507603
-0.47879630065790973
0.2
-1.0853016662997281
0.08659442341683582
0.15
-0.810692390374484
-0.19969949336613949
0.19
-0.9443984735915099
-0.1380719489295553
-0.29
-0.5660260180280889
-0.48342323703941587
0.33
-0.3406747299182316
-0.14432784271445223
0.41
-0.8897701242431879
-0.6869057232729903
0.3
-0.7571922436846539
-0.6264274890750782
0.01
-0.547670477882565
-0.11169779449648196
-0.46
-0.3124001724611647
0.25609985292819554
0.1
-0.580197819885841
-0.07218702660411525
0.09
-0.2519109403535306
-0.35075331245014274
0.32
-1.0233446545074925
-0.2539687684685736
0.36
-0.840129198489065
-0.7523055781219331
0.12
-0.9617923888357088
-0.365127211241896
-0.43
-0.9289707557157477
-0.24626571877010806
0.45
-0.8478322481875311
0.04470458654051618
-0.14
-0.8388025534981649
-0.08792152107534584
-0.03
-0.7161764458822952
-0.020265412385932848
0.05
-0.4838325545717115
-0.8545540542804182
0.03
-0.4995439126772247
-0.13496590940652486
-0.38
-0.9591320575511129
-0.6506772959161493
-0.4
-0.33342067104149603
-0.04701271564966947
0.47
-0.9470852513079764
-0.7701117459883183
0.06
-0.6139862209693262
-0.6165647693609533
0.01
-0.8575331975966887
-0.50890388606709
0.43
-1.1051940808905514
0.11671716984869922
-0.45
-0.16081513680634382
-0.5228228943148329
-0.12
-0.6212750726428102
-0.06809542813307799
0.46
-0.4460025388245649
-0.634842672372346
0.26
-0.839255294585296
-0.7181173607372691
0.03
-1.0159806062203767
-0.0624027667421524
-0.43
-0.6716952002154951
-0.6289722540190849
0.02
-1.0651257129385603
-0.1674671894842085
-0.42
-0.5566307774734395
-0.32
-0.17
0.44
0.24
-0.12
-0.03
-0.6179185528204282
-0.06
-0.28102792261333803
-0.04934790854666109
0.08
-1.209598566887103
0.08416585376986126
0.43
-1.0931123292036165
-0.16245450701924846
-0.47
-0.9264919684145246
0.1305283716876286
-0.37
-0.0894748471213982
-0.32713772914516986
0.13
-0.18180874628859794
-0.062033846241698214
-0.41
-0.3369126291920709
-0.5273274402771033
-0.39
-0.23161903515667062
0.1543916673796091
0.43
-0.7633381428133753
-0.47586928137155315
-0.44
-0.03307719406221775
0.1942385428890137
-0.1
-0.4931850183227865
0.06843116473584929
-0.33
-0.6273776401696223
0.2220298515730566
-0.04
-0.17097632700682608
-0.5834984917096832
-0.06
-0.49544798372408655
-0.1923597765080227
-0.14
-0.6565866989257477
-0.23299996541114215
-0.12
-0.7259465100226309
0.09713353130935588
0.06
-0.6860800067431275
-0.22757578768637526
0.17
-0.4013706877473957
-0.4897981115408554
-0.27
-0.5891483638929155
-0.7153056500092474
0.48
-0.10364082542452116
0.07790225507226692
-0.26
-0.576848730506035
-0.5995294584899262
-0.29
-0.4694170169438438
-0.277862412364751
0.39
-0.8810840630690201
-0.4802802569666551
0.0
-0.14866621846711336
-0.11199800769560554
-0.06
-0.26694846773816194
-0.015441940732952195
-0.21
-0.7535045347008212
-0.17533806050642492
-0.09
0.07639158507265768
-0.17763105364044296
-0.37
-0.25131542179332517
0.1890350407821277
-0.5
-0.17798151621589645
-0.6565886883333879
-0.21
-0.5923577871003837
-0.13978036723927614
0.36
-0.8991661081944977
-0.32242558342333677
0.32
-0.7065208920104319
-0.640452937361531
0.31
-0.318493538072242
-0.3480339848078941
0.11
-0.230912490625874
-0.40452714478690305
-0.29
-0.32441933064687
-0.12055575817950608
0.43
-0.5683907172542639
-0.14565547660749156
0.12
-0.5332909988262765
-0.25209958495316637
0.23
-0.9268468904806009
-0.398206306474523
0.34
-0.2907401689592463
0.30255628639006327
0.46
-0.7515027618238423
-0.0693706965436307
-0.31
-0.4095757788901396
0.3709312114545706
0.13
-0.9998776868883454
-0.42
0.04
0.22
-0.04
0.39
-0.25
-0.10128993728396556
-0.12
-0.7322979416961125
-0.39884867974940497
-0.15
-0.39473919923067147
0.20002361473026167
-0.32
-0.8936114937103337
-1.0432953175402702
-0.09
-0.7002925614398122
-0.16190327086072892
-0.42
-0.6616846081193489
-0.683059481235037
-0.12
-0.6705283977450406
-1.0217277503518445
-0.15
-0.6118601286282213
-0.32277144192939744
-0.34
-0.5108164370506793
-0.4511024520283441
-0.09
-1.3324854269517243
0.1434868148088262
-0.47
-0.5370746937889013
-0.7383119143974292
0.13
-0.5252759645826471
-0.8827327975048839
0.41
-0.6408550814751944
-0.23047211279635457
0.05
-0.9231157661837261
-0.6018339035525552
-0.21
-0.5717539754275204
-0.46159334887693965
-0.3
-0.9119945301031374
-0.5455354094778925
0.48
-0.47805246950218644
-0.23650062433197375
-0.09
-0.5670872546481056
0.2546164426514384
0.03
-0.4682043216315147
-0.17815154468487643
0.03
-0.4254363342952008
-0.08978836067972475
-0.01
-1.1337995183003484
-0.5360741368262748
0.3
-0.3975137421538046
-0.4647170761802911
-0.17
-1.0488708027997933
-0.5142397542150182
-0.16
-0.9093481247650579
0.10819565778362802
0.2
-0.7817835367637043
-0.6824683763656961
-0.27
-0.9811195026143803
-0.706668273951833
0.21
-0.216919605028243
-0.12949875319246387
0.4
-0.7540891257876158
-0.5808407901155285
-0.14
-0.5127470888645485
-0.7337218629409932
0.12
-0.8098660160390826
-0.25276697870683523
0.35
-0.9808209002732474
-0.5991535572330006
0.44
-1.2744343217470717
-0.46486209270155665
0.2
-0.7087257862785192
-0.35873141304833756
-0.27
-0.8648564659317396
0.005001583548456533
0.43
-0.5085894625285311
-0.47855653852521335
-0.27
-1.0350313404548623
-0.7419756520874053
-0.33
-0.851612226892671
0.15764297769998947
-0.23
-0.6712308566800647
-0.8213068404083902
0.2
-0.3822810385716858
0.008562886802297007
0.48
-0.7121507657823754
-0.2865542302931693
-0.28
-0.9570336486869053
-0.37499579159898627
-0.36
-0.4685920873810911
-0.5447802026135663
0.12
-0.328807676366517
-0.46
-0.08
-0.24
0.31
0.3
0.13
-0.2089183940458295
-0.49
-0.3697580692950552
-0.41431646134465516
0.03
-0.7443600019962296
-0.20495768700199943
0.02
-0.7637187763388832
-0.29436524846695333
0.17
-0.3743112148739312
-0.09003168755411153
-0.46
-0.9086447757867663
-0.7637470655044506
0.19
-1.2849293978364325
-0.8492040202730342
0.0
-0.1394724430678465
-0.23794227533116064
-0.43
-0.8407341880097196
-0.32121218168635296
-0.29
-0.9774642816545237
-0.21068863206409516
0.1
-0.3579878312767877
-0.23999824309193935
0.43
-0.5686782202489425
-0.7191566878722884
0.09
-0.3795197754685906
-0.3584011815764477
0.21
-0.9202752817644311
-0.2522898510330154
0.28
-0.7363866123078688
0.046717845879616374
-0.04
-0.8353943092205007
-0.44301740191112327
-0.37
-0.6756590614297592
0.11565861159599183
-0.44
-0.6343350749368761
-0.10579079543306114
-0.33
-0.562885667907821
-0.45689256890574625
0.1
-0.9517838944351319
0.0541847513336165
0.49
-0.6428612146744994
-0.4603988586533438
0.08
-0.9382776046875408
-0.8532543689758408
-0.27
-1.105422094365044
-0.1656275624829882
0.38
-0.9130489008578923
-0.05911711711296571
0.37
-0.6895593462279163
-0.4684826655760051
-0.38
-0.410193797764879
-0.11677621830975363
-0.36
-0.33190024503113014
-0.26785119470066493
-0.08
-0.9108252686402147
-0.15254718799988154
-0.15
-0.6061292753410016
-0.5278161426950886
0.5
-0.7808603206457906
-0.11414771079740435
0.33
-0.12452875254348038
0.02792564823675247
0.09
-0.32660211157763935
-0.16459383098096542
0.15
-0.8140826323599126
-0.09726676291999826
-0.31
-0.6814097004208828
-0.3368645341521161
0.17
-0.891811929188763
-0.2203911372769584
-0.2
-0.38828532606392774
-0.4106881145002951
-0.13
-0.3479883488405899
-0.1221134811852205
-0.1
-0.456562982155665
-0.630057734968423
-0.25
-0.5586187283724586
-0.6979328197570306
-0.49
-0.9407436435838472
-0.21230756762347813
0.26
-0.5063688957174094
-0.7401336750262714
0.02
-0.9785427883146063
-0.8480771782305797
-0.11
-0.8905992851102976
-0.16
0.42
0.42
-0.47
-0.03
-0.19
-0.5597958669832304
0.03
-0.3647560091971375
-0.8455909005275966
-0.23
-0.7689609756527724
0.05900813755927556
-0.41
-0.7135600137396425
-0.8948986470172992
0.0
-0.5596532291630691
-0.28990754272815306
0.01
-0.5146443334522154
0.029574962950995154
-0.08
-0.6141268391313628
-0.3566434878841011
-0.08
0.0020916117037343422
0.07800304781634823
-0.22
-0.8425549239967122
-0.05215132415954201
-0.25
-0.752400552020825
-0.0008124956166002483
-0.45
-0.613739380563768
-0.6434965083804408
-0.45
-0.5710553677999285
-0.893087747030146
-0.5
-0.07146412915021916
-0.4882235622641445
0.5
-0.36632831391622533
-0.5085749388486114
-0.13
-0.7459769373317565
-0.6676339314929166
-0.05
-1.1569179446874518
0.036395419587655846
0.17
-0.4709472957680223
-0.6001773842590808
0.05
-0.4243744919212852
-0.2015774734075433
0.5
-0.902974402772824
-0.6135149927695812
0.26
-0.36103688341078516
-0.09543028063844505
-0.37
-0.3491215955419193
-0.8061217688700676
0.21
-0.9884301073103021
-0.16276622698697224
0.09
-0.24178564919339715
-0.7653403061070108
-0.15
-0.24921157007335615
-0.6297445805029791
0.09
-1.264807295677395
-0.21707223930216654
0.38
-0.8674796368782034
-0.61922773268121
0.3
-0.7853241434991594
-0.4070340641926289
-0.15
-0.44751781198774
-0.8616837984572244
0.47
-0.5928680777231446
-0.35070206214169913
0.29
-0.27384981403867087
-0.5664226967136208
0.31
-0.1981291794667466
0.08885394660706052
-0.28
-0.3034058227874305
0.032737615833333164
0.27
-0.1272894920137008
-0.4364448552548284
0.24
-1.0681070209255479
-0.051362452435640894
0.18
-0.8331894237447259
-0.2966448183645205
0.2
-0.46790705781584924
-0.7118483136123054
0.48
-1.0327035625680678
0.14787892760921964
0.09
-0.2424308037895894
-0.5271924453087622
0.49
-0.587359430871605
-0.3516545168817494
-0.23
-0.962897359298619
0.16888354587343368
0.24
-0.663435422053806
-0.35179940337517535
0.16
-0.9927524728051942
-0.38215769075953204
0.17
-0.6323941854208366
0.21
-0.24
0.18
0.48
0.5
0.02
0.18665626494762852
0.05
-0.49902276114080596
-0.18642444289192167
-0.14
-0.9659420533012645
-0.9757088123555723
-0.23
-0.3366576838376074
0.29812314541773133
-0.06
-1.120489641610905
-0.6197757522575639
-0.13
-1.0925907439356133
-0.4602631792843912
0.14
0.04789668309121105
-0.5093287823737201
0.43
-0.8730377138194593
-0.17291897345472176
-0.37
-0.5594475227384615
-0.5711222289613941
0.12
-0.6812442672317887
-0.07594289457845363
-0.2
-0.5664236016147288
0.06729166611965381
-0.33
-0.9296581623128324
-0.45653162902989486
0.27
-0.5158348671632853
-0.9125086852763434
-0.19
-0.33985781091683587
-0.3019699848523827
0.18
-1.1903965113407884
-0.4121830141784626
-0.39
-0.9601834820147223
0.033127278622190816
0.22
-1.0254937748153659
-0.12973397111566043
0.3
-0.2426325250775147
-0.07112809044369198
-0.25
-0.8912384057494873
-0.5602772053009476
0.03
-1.0120892908922399
-0.2176329912314386
0.17
-0.514733504961742
-0.730920934599792
0.21
-1.261445561593365
-0.6743227748547023
0.36
-0.5580437213384833
-0.706377800110455
-0.13
-0.34598869608272237
-0.10441379948050165
0.34
-0.8879526967126781
-0.8185076223134361
0.2
-0.8638588738797448
-0.5952419086054525
-0.5
-0.5271245875877366
-0.8640425733514728
-0.16
-0.9483239228417087
-0.024836147059341722
-0.04
-0.997530349133837
-0.10844381221997682
-0.24
-0.7139226839732015
-0.1450772307550754
0.5
-0.5772892654381087
-0.16172587154676027
0.41
-0.9106406246464167
-0.413131397663253
0.01
-0.769235098529928
-0.7741494867630028
0.38
-0.3382170094301809
-0.05628576136955763
0.5
-0.20608073482361816
-0.7175390519309386
-0.03
-0.5948274442622442
-0.5632277247202191
-0.14
-1.0291387714729603
-0.6307926292820417
-0.26
-0.4115738669111376
-0.5982676145019521
0.07
-0.5840988816912303
-0.34666949720544415
0.04
-0.5656969989877403
-0.12133562373890829
0.48
-0.4610308724542677
-0.1082687073828197
-0.38
-0.36409778881035537
-0.4898807230047347
0.41
-0.662485773188444
-0.37
-0.48
0.27
0.24
0.32
-0.28
-0.3673655422613833
-0.11
-0.6005485249138076
-0.2004307019350043
0.1
-0.34748336524018586
-0.3594790987386673
0.31
-1.128434968436546
-0.729416795781571
-0.19
-0.6584972713936226
-0.5480285835527232
-0.36
-0.8098854836224705
-0.5767220044492739
0.24
-0.6511920627259211
-0.6263735897674082
-0.4
-0.6915404774077875
-0.22178781481294763
0.2
-0.846126252362243
-0.019821321300096145
0.34
-0.29809274587509255
-0.3370307889892854
-0.36
-0.2708832781859011
0.10116092042614581
0.17
-0.4990749876013337
-0.8005120801704562
0.4
-0.9274019870047394
0.040353725137391425
-0.36
-0.1482677923125807
-0.07268521615761737
-0.41
-0.46522885101756845
-0.37604092011076157
0.39
-0.8118731470644295
0.17296891079379367
0.0
-0.520882977968985
-0.6566293533517104
-0.48
-0.4812847138234829
-0.260625630730989
0.44
-0.5172884364442007
-0.13572558245965108
0.39
-0.3821884847155363
-0.4963991687177912
-0.49
-0.7415148984574012
-0.4011279731302685
-0.08
-0.8467860940449282
-0.13756732188384993
0.25
-0.6703467452913451
-0.18637546991557635
-0.5
-0.6615385972596186
0.01866963951146148
-0.08
-1.1965837066866545
-0.5237797512314412
0.27
-0.24413431594375223
-0.731570539191704
-0.06
-1.0663435279835012
-0.1628393444617551
0.38
-0.9350747227134363
-0.6774717668035062
-0.35
-1.1004423003716988
-0.4295917941263943
-0.19
-0.5383222730487962
-0.2613519939460512
0.4
-0.6465620732291433
-0.048776953206064774
-0.37
-0.9591371139691279
-0.10473058407340174
0.36
-0.8731834831017904
-0.22561870100690543
-0.5
-0.7622953661682867
-0.4039734036082917
-0.12
-0.7439406635669051
-0.3028474436693982
-0.48
-0.655066623505797
-0.23898278086059674
0.34
-0.4989312863145926
-0.08266691397352577
0.0
-0.28524715320166466
-0.7433029501195456
0.15
-0.8446111170556503
-0.5812841598164663
-0.03
-0.34662990735872645
-0.21394625582812327
0.12
-0.673967811347068
-0.041531336572400414
0.28
-0.706382730602794
-0.19787164451923714
-0.01
-1.0400424226559528
-0.14
-0.42
0.32
0.34
0.11
0.24
-0.09939598868699119
-0.39
-0.5772655728606726
-0.9439821779685416
0.48
-0.4126793835791248
0.1541187636192537
0.12
-0.670780325166918
-0.878998650713228
-0.43
-0.6876629108344352
0.2289176186953161
-0.4
-0.2955791802429824
0.08890662834797682
-0.41
-0.8555681898956387
-0.26205288232748747
0.02
-0.5646086792201781
-0.6886225134885633
-0.35
-0.8480390480590996
-0.6521896022228928
-0.5
-0.7444719593247698
0.18299161339018802
-0.29
-0.9196531749378495
-0.8158719799024601
-0.42
-0.3107895816452085
-0.7164864261084364
0.03
-0.9201751354392265
-0.5730924065497275
-0.01
-0.733569154997935
-0.14135308583038234
-0.03
-0.735308475717282
-0.07982412048464302
0.15
-0.21683744106302189
-0.29253075302402687
-0.09
-1.014130808523643
0.03548055572634077
0.28
-0.8721421172740086
-0.5059151434827992
0.32
-0.6707464180648677
-0.41734219211444895
0.18
-0.8693193694332109
-0.262733906248501
0.41
-1.0439276552991548
-0.23298030402029732
0.29
-0.5936812575273661
-0.5318741605732884
0.27
-0.23478740097437786
-0.5490342032348217
0.21
-0.8876273583128402
-0.10944242820886856
-0.28
-0.847219133338792
0.026528568030444653
0.2
-0.9031901295781064
-0.2943385240251265
0.34
-0.5223230375225426
-0.19926170899580348
-0.14
-0.8073998525518618
-0.8475064888202457
-0.33
-0.5291550727274174
-0.5616639350957244
0.0
-0.6649976264519379
-0.37157454145468627
-0.35
-0.42508702009298077
-0.25924499786711064
0.13
-0.3474165636805537
-0.562979687591026
0.02
-0.5236818739566415
0.026209881697076533
-0.26
-0.5928714432447447
-0.0716263581052864
-0.11
-0.9450352034423805
-0.745649016890095
-0.25
-0.2510125446575628
-0.6757780897527064
0.35
-1.0208834717949586
-0.5255796408558484
-0.12
-1.1210819206918066
-0.5829915573838864
-0.01
-0.363670004163778
-0.0491842314347451
-0.3
-0.29747733011291944
0.021302198356542304
0.07
-0.4079637599042087
-0.6698494574775905
-0.38
-0.3568121040700757
-0.5202329618218158
0.32
-0.6664285997258498
-0.44
0.49
-0.06
0.5
-0.1
-0.28
-0.22363022793181533
0.16
-0.5677024313540521
-0.49906271815958175
0.34
-0.3522699411262911
-0.4199964760170509
0.23
-1.0213361832688201
-0.4781264423683534
0.15
-0.17320621691751423
-0.49406293556565894
-0.22
-0.6272697237202114
0.02472195386603329
0.15
-0.9660546131518962
-0.6419672312715341
-0.33
-0.5693654280143351
-0.4273352905605784
-0.37
-0.4539973687252921
0.14063312092891764
-0.07
-0.6119657802147859
-0.7233787506634958
0.14
-1.117953908622367
-0.27228124783944146
-0.04
-1.2090514114464348
-0.5534308124673009
-0.08
-0.5079018468185741
-0.2999600136465328
0.28
-0.6713726456393392
-0.6832739204143203
-0.29
-1.108058738871554
-0.607136329292261
-0.46
-0.37419632999361285
-0.6784800392659922
0.06
-0.4128526200198794
-0.6677123225583035
-0.25
-0.7736203367275627
-0.2942250033670061
0.42
-0.9471076559188684
-0.07475122848251102
0.06
-1.0365814308033627
0.007549782644993323
-0.24
-0.9488824419308574
-0.522920022599367
-0.49
-0.39841263668650234
0.12737745173383158
-0.19
-0.8787101110197033
-0.7175346445490759
-0.09
-0.47379801473679334
-0.18450376181857336
0.11
-0.8268288974672972
0.05074766588329779
0.25
-0.8220803251691626
-0.1379486240326739
-0.25
-0.18338403525319633
-0.583551856694269
-0.21
-0.7677808025915973
-0.7233523174643078
-0.41
-0.9179803418215584
-0.7816372390981395
-0.05
-0.20969542018773102
-0.44724278934084677
0.02
-0.29408986994502345
-0.20674137990346086
0.25
-0.894591279382408
-0.7973582941845343
0.38
-1.0339743651013324
-0.09790082053582025
-0.32
-0.773431838750047
-0.21459295356843577
0.05
-1.0667397057174297
-0.11454785593936413
-0.21
-1.0167848033465063
-0.6102395887045433
-0.1
-0.5410930705813264
-0.573575495498037
0.4
-0.7877571637878287
-0.005894327938254696
0.24
-0.7954383313476143
-0.5715385929313518
0.26
-0.8897940663545152
-0.574542332201369
0.08
-0.6767903270844982
-0.20561315119617182
0.13
-0.2657195080896989
-0.38113948689004346
0.45
-0.4401931723958284
-0.45
0.32
-0.12
-0.33
-0.19
0.09
0.15917486807071574
-0.4
-1.0314173594511182
-0.3707366953917155
0.01
-1.0615057959886902
-0.08848537324700105
0.14
-0.593757118133395
0.012130185084840114
0.45
-1.2943726764652388
-0.10634946338256805
-0.06
-1.1058930279978263
-0.2631500277359353
-0.08
-0.0590924636444596
-0.16022677098725807
0.01
-1.2320157203931457
0.23706672119112646
0.27
-1.0793092125715236
-0.19520815017002974
0.5
-1.1770343412103756
-0.3427456849200764
0.27
-0.16949680646032156
0.17656798412950067
-0.06
-0.5288104755098937
-0.6436404281738968
0.34
-0.6686020632064993
-0.4361590237573549
0.29
-0.3660834676230386
-0.5242555652637696
0.34
-1.257986926116631
-0.02472821290314399
-0.35
-0.45751427847725185
-0.5056570772556798
0.18
-0.8965854141247093
-0.031709698132303156
-0.13
-0.8305327932480894
-0.12353135808749735
0.01
-0.02871113329289957
-0.720884307425485
0.17
-0.7413581839549124
-0.1952994465603469
-0.48
-1.1169430448200477
0.16045926726563556
0.02
-1.2127017586460327
-0.085920793574058
0.07
-0.7763216978063364
-0.17903885709050368
-0.05
-0.34320363428988815
0.17187578724484195
-0.22
-0.49411827862523755
-0.4961400528028703
0.4
-0.386102438577525
-0.8166016184230985
0.2
-0.9356408729572974
-0.5685027436612237
0.48
-0.7437397477191741
-0.45301079833552055
0.46
-0.35923169304487307
-0.6695573884065772
0.45
-0.3126851029738119
-0.4352422566569724
0.27
-0.8470002347234284
-0.5692528469686181
0.32
-0.8129896444117772
-0.13027658619407964
-0.37
-0.4519659051863167
-0.09649051326826877
-0.4
-0.23575197811212836
-0.4684068226736512
0.15
-0.503835668706744
-0.5685936463647988
0.38
-0.37364884501559853
-0.4238372685979456
0.25
-1.008405222782447
-0.22672472954416278
-0.35
-0.7855177618362306
-0.23295744757323
-0.14
-0.5692850438071654
-0.18156685715492868
-0.12
-0.3906756342254647
-0.10402646960441113
-0.39
-0.418216021775986
-0.02705354004704336
0.03
-0.5951889513333564
-0.38320702022009734
0.4
-0.5190354711602932
0.13
-0.36
0.24
-0.49
-0.05
-0.19
-0.14625416139707598
0.33
-1.043122482840423
-0.682620531070094
-0.18
-0.7367561131674111
-0.40254487781069503
0.26
-0.4668317664268091
-0.7755911234548567
0.01
-0.633785520782646
-0.18315632675009327
0.03
-0.36622031748741146
0.07263700709958942
-0.44
-0.2320136513370951
-0.4606477970226108
0.01
-0.058728847214897933
-0.21989378663332737
-0.2
-0.6294828576041739
0.15549767813413634
-0.28
-0.9748743223716425
-0.5210915570720831
0.03
-0.4282850871654212
-0.44053323177985765
-0.45
-0.928843412457645
-0.38575216427062975
0.15
-0.6636244799668746
-0.42022509999733454
-0.23
-0.5691515442401665
-0.1214966168529272
0.46
-0.7678800273845776
-0.3058288461191483
-0.01
-0.17354779811835713
-0.6207058652696058
-0.37
-0.9686707789678983
0.04481172141099347
0.4
-1.1641883656484895
-0.2969937131101079
-0.2
-0.7023829311273972
-0.3626772345789218
0.05
-0.5666994096585836
-0.30956296969334685
0.21
-1.119813674544142
-0.015814265241426873
0.26
-0.293562378996079
-0.8112849143050622
0.19
-0.8180917299324414
-0.5894592219340239
-0.35
-0.9499174223034811
-0.1861506261124255
0.19
-1.0932260181250726
-0.6239296023885357
-0.29
-0.3554470418489686
-0.879291359531133
-0.24
-0.6200852847063707
-0.4015162723403471
-0.14
-1.0378603718971418
-0.4101762114965654
0.42
-0.43920043274093884
0.13200493635572932
0.3
-0.721381580593235
-0.3491619897686158
-0.29
-0.8402146544688924
-0.34502054710611907
-0.45
-0.3943560971313862
-0.29747950668229106
0.3
-0.7318971375552162
-0.5231881283924261
0.15
-0.15618851584507681
-0.1434514005013705
0.13
-0.39592524373613625
-0.47853455818239937
-0.11
-0.4108420860551045
-0.4029173231441632
-0.36
-0.836459321093341
0.0036944766502283602
0.29
-0.7530711208877283
-0.15897801231626066
-0.23
-0.34039863192124503
-0.5727256228890981
0.25
-0.6266510213484066
-0.3627853802710836
0.09
-0.3865912639664217
0.18453036465671105
0.21
-0.23390700889421623
-0.11785452560978679
-0.46
-0.7915221186277177
-0.28
-0.13
0.49
-0.09
0.46
-0.18
-0.2047378865207589
0.29
-0.24390671192205324
-0.7142411164317387
-0.05
-0.024403482011076467
-0.16579479226012295
0.28
-0.5528498061826826
-0.7808640847260844
0.38
-0.49778051371672766
-0.19886442595060905
-0.48
-0.6197801724922031
-0.6422812942427769
0.01
-1.0763633042000285
-0.6346958288886154
0.25
-0.7439487695541925
0.04794732157009333
-0.31
-0.8665919200129008
0.18450719707412805
-0.39
-0.9431517955169373
-0.09012334283269886
0.18
-1.1085212556101207
-0.4869594041065772
-0.48
-1.071685194336237
-0.1050105260240253
-0.29
-0.34363407241878696
0.10622236285825531
0.46
-0.42486696130106316
-0.10211783354097136
0.25
-1.0765267649018309
-0.12926917781093672
0.23
-0.5593754206318714
-0.46307719678381365
-0.04
-0.4555674016589956
-0.530890666330965
-0.02
-1.21775393211184
-0.6664929142219764
-0.21
-1.002151684220831
-0.23892582112967256
0.2
-0.8297187773131408
-0.2326611521386349
-0.41
-1.1559834463041792
-0.04162484961696174
0.37
-0.5870197488258461
-0.46854378515141326
0.49
-1.0001008132913949
-0.8583336222953899
0.03
-0.4703109761474191
-0.46869059368497445
0.08
-0.9999540047578318
-0.775836923676711
0.32
-1.2028076747661056
-0.48745354190201706
-0.05
-0.35119105654079347
-0.447667213236967
0.07
-0.5109773852058397
-0.26070813458191144
-0.29
-0.8179364638608958
-0.45858970480961425
0.02
-0.730054893633192
-0.135305986529019
0.43
-0.5233386119137876
-0.39816456723917787
-0.33
-0.4904800312036316
-0.7595609421479161
0.38
-0.8890836562948918
-0.5998636072701687
0.0
-0.9987809911726395
-0.21290312221408572
0.0
-1.0357414762287258
-0.7213626062597774
-0.02
-0.28728199218303535
-0.4773904918588643
0.43
-0.6612541065839401
0.09079832200715776
0.01
-1.0394429204499636
-0.7243069076869304
0.24
-0.37433769075588147
-0.12939788997705703
-0.06
-0.8692467084657518
-0.44722801831329234
0.39
-0.4614165801295168
-0.5204285810457666
0.26
-0.7582160173970426
-0.19603314367791516
0.36
-0.4426114547648952
0.4
0.02
0.35
0.08
-0.28
0.03
-1.0624404688709264
0.3
-0.2744688141596857
0.08537907500478754
0.43
-0.9522883580353917
-0.5231782950373398
-0.18
-0.8537309879932663
0.018789469443347185
0.23
-0.7656987524739579
-0.4804007524791822
0.46
-0.8965085305514202
-0.49773928072533113
0.43
-0.8691700023052733
-0.128760765194238
0.33
-1.0781485178363768
0.031463816534433815
0.46
-0.7083730995650418
-0.015853884665226935
0.06
-0.6410553983653814
-0.8735673392028691
-0.04
-0.5633419438277358
-0.37047814946798313
0.47
-0.746431133562626
-0.34706425283086384
-0.11
-0.6698450301997425
-0.14801617453347216
-0.32
-0.7588931084971393
-0.274238780754984
-0.36
